{"learner":{"attributes":{"best_iteration":"106","best_score":"0.04822774761113881","scikit_learn":"{\"_estimator_type\": \"classifier\"}"},"feature_names":[],"feature_types":[],"gradient_booster":{"model":{"gbtree_model_param":{"num_parallel_tree":"1","num_trees":"122"},"iteration_indptr":[0,1,2,3,4,5,6,7,8,9,10,11,12,13,14,15,16,17,18,19,20,21,22,23,24,25,26,27,28,29,30,31,32,33,34,35,36,37,38,39,40,41,42,43,44,45,46,47,48,49,50,51,52,53,54,55,56,57,58,59,60,61,62,63,64,65,66,67,68,69,70,71,72,73,74,75,76,77,78,79,80,81,82,83,84,85,86,87,88,89,90,91,92,93,94,95,96,97,98,99,100,101,102,103,104,105,106,107,108,109,110,111,112,113,114,115,116,117,118,119,120,121,122],"tree_info":[0,0,0,0,0,0,0,0,0,0,0,0,0,0,0,0,0,0,0,0,0,0,0,0,0,0,0,0,0,0,0,0,0,0,0,0,0,0,0,0,0,0,0,0,0,0,0,0,0,0,0,0,0,0,0,0,0,0,0,0,0,0,0,0,0,0,0,0,0,0,0,0,0,0,0,0,0,0,0,0,0,0,0,0,0,0,0,0,0,0,0,0,0,0,0,0,0,0,0,0,0,0,0,0,0,0,0,0,0,0,0,0,0,0,0,0,0,0,0,0,0,0],"trees":[{"base_weights":[3.0576605E-1,4.037653E-1,-2.0371866E0,-1.1108683E0,5.1760155E-1,3.0282056E-1,-2.144168E0,6.0861504E-1,-9.4442225E-1,7.0340896E-1,-6.69857E-1,7.6197356E-1,-6.7607886E-1,3.7020627E-1,9.995989E-1,-4.833461E-3,8.044137E-1,8.104918E-1,1.1106018E-1,-1.7301658E0,7.60041E-1,-2.2398453E0,-1.567872E-1,1.1106018E-1,7.122731E-1],"categories":[],"categories_nodes":[],"categories_segments":[],"categories_sizes":[],"default_left":[0,0,0,0,0,0,0,0,0,0,0,0,0,0,0,0,0,0,0,0,0,0,0,0,0],"id":0,"left_children":[1,3,-1,5,7,-1,-1,9,-1,11,-1,13,-1,15,17,19,-1,-1,-1,21,23,-1,-1,-1,-1],"loss_changes":[2.4170193E1,1.4093503E1,0E0,1.5515166E1,1.2284149E1,0E0,0E0,1.0441908E1,0E0,6.6465263E0,0E0,5.7000427E0,0E0,6.956727E0,1.7393913E0,2.3409355E1,0E0,0E0,0E0,9.01506E0,9.5164967E-1,0E0,0E0,0E0,0E0],"parents":[2147483647,0,0,1,1,3,3,4,4,7,7,9,9,11,11,13,13,14,14,15,15,19,19,20,20],"right_children":[2,4,-1,6,8,-1,-1,10,-1,12,-1,14,-1,16,18,20,-1,-1,-1,22,24,-1,-1,-1,-1],"split_conditions":[1E0,1E0,-2.0371866E0,1E0,1E0,3.0282056E-1,-2.144168E0,1E0,-9.4442225E-1,1E0,-6.69857E-1,1E0,-6.7607886E-1,1E0,1E0,1E0,8.044137E-1,8.104918E-1,1.1106018E-1,1E0,1E0,-2.2398453E0,-1.567872E-1,1.1106018E-1,7.122731E-1],"split_indices":[1888,80,0,1088,1602,0,0,1147,0,2013,0,378,0,1488,1243,1143,0,0,0,1357,878,0,0,0,0],"split_type":[0,0,0,0,0,0,0,0,0,0,0,0,0,0,0,0,0,0,0,0,0,0,0,0,0],"sum_hessian":[8.285169E1,8.065384E1,2.1978562E0,5.21863E0,7.543521E1,2.86481E0,2.3538198E0,7.2116875E1,3.318334E0,6.816032E1,3.956555E0,6.610406E1,2.0562592E0,2.5768923E1,4.0335136E1,1.667787E1,9.091054E0,3.731436E1,3.0207736E0,5.0483E0,1.162957E1,2.5097833E0,2.5385165E0,3.0207736E0,8.608796E0],"tree_param":{"num_deleted":"0","num_feature":"2048","num_nodes":"25","size_leaf_vector":"1"}},{"base_weights":[3.4537342E-1,2.31697E-1,1.4944099E0,7.9030156E-2,1.2745353E0,-8.716843E-2,8.450589E-1,1.1443851E0,3.657081E-1,1.3475944E-1,-1.1948329E0,1.0377256E-1,7.9422545E-1,2.5879464E-1,-9.2055964E-1,-2.0433283E0,6.3899845E-1,1.3545704E-1,1.1555077E0,-2.2874339E0,-7.9254264E-1,-4.718926E-2,7.9090095E-1,-2.7164763E-1,7.222255E-1,-4.253225E-1,6.6803414E-1,-4.2793238E-1,3.496522E-1],"categories":[],"categories_nodes":[],"categories_segments":[],"categories_sizes":[],"default_left":[0,0,0,0,0,0,0,0,0,0,0,0,0,0,0,0,0,0,0,0,0,0,0,0,0,0,0,0,0],"id":1,"left_children":[1,3,-1,5,7,9,11,-1,-1,13,15,-1,-1,17,-1,19,-1,21,-1,-1,-1,23,-1,25,-1,27,-1,-1,-1],"loss_changes":[1.0979012E1,9.249948E0,0E0,7.013469E0,5.2879333E-1,1.1147544E1,1.0016117E0,0E0,0E0,6.032972E0,1.4095171E1,0E0,0E0,4.8064704E0,0E0,2.9552593E0,0E0,5.492548E0,0E0,0E0,0E0,5.8911943E0,0E0,3.9815154E0,0E0,2.5257006E0,0E0,0E0,0E0],"parents":[2147483647,0,0,1,1,3,3,4,4,5,5,6,6,9,9,10,10,13,13,15,15,17,17,21,21,23,23,25,25],"right_children":[2,4,-1,6,8,10,12,-1,-1,14,16,-1,-1,18,-1,20,-1,22,-1,-1,-1,24,-1,26,-1,28,-1,-1,-1],"split_conditions":[1E0,1E0,1.4944099E0,1E0,1E0,1E0,1E0,1.1443851E0,3.657081E-1,1E0,1E0,1.0377256E-1,7.9422545E-1,1E0,-9.2055964E-1,1E0,6.3899845E-1,1E0,1.1555077E0,-2.2874339E0,-7.9254264E-1,1E0,7.9090095E-1,1E0,7.222255E-1,1E0,6.6803414E-1,-4.2793238E-1,3.496522E-1],"split_indices":[945,229,0,1535,898,1922,926,0,0,896,980,0,0,457,0,875,0,814,0,0,0,1416,0,117,0,762,0,0,0],"split_type":[0,0,0,0,0,0,0,0,0,0,0,0,0,0,0,0,0,0,0,0,0,0,0,0,0,0,0,0,0],"sum_hessian":[6.3576733E1,5.999406E1,3.5826738E0,5.2950233E1,7.043824E0,4.3572906E1,9.377329E0,4.966874E0,2.07695E0,3.6441765E1,7.1311398E0,2.4390714E0,6.9382577E0,3.3843246E1,2.5985198E0,5.1114316E0,2.019708E0,3.1430847E1,2.4123993E0,2.0602028E0,3.0512285E0,2.6247034E1,5.1838136E0,2.1863255E1,4.3837795E0,1.9707947E1,2.1553073E0,1.7483965E1,2.2239823E0],"tree_param":{"num_deleted":"0","num_feature":"2048","num_nodes":"29","size_leaf_vector":"1"}},{"base_weights":[4.396113E-1,3.0730247E-1,1.1701962E0,9.206551E-2,6.8272465E-1,2.231175E-1,-8.017405E-1,8.576068E-1,-2.796092E-1,-3.3972055E-2,8.8837236E-1,9.435175E-1,9.544615E-2,-2.468523E-1,7.344485E-1,8.652395E-2,1.0976144E0,1.0624154E0,1.3965328E-1,1.9866961E-1,-8.778317E-1,1.0237454E0,3.4001663E-1,7.3917043E-1,1.1628705E0,9.102862E-1,-1.086248E-1,-1.0883979E0,-7.897628E-3,8.1756824E-1,-7.0687644E-2,-6.0219824E-1,5.6566846E-1,-1.1390061E0,1.7347738E-1],"categories":[],"categories_nodes":[],"categories_segments":[],"categories_sizes":[],"default_left":[0,0,0,0,0,0,0,0,0,0,0,0,0,0,0,0,0,0,0,0,0,0,0,0,0,0,0,0,0,0,0,0,0,0,0],"id":2,"left_children":[1,3,-1,5,7,9,-1,11,-1,13,15,17,-1,19,-1,-1,21,23,-1,25,27,-1,-1,29,-1,-1,31,-1,-1,-1,-1,33,-1,-1,-1],"loss_changes":[7.535061E0,3.9343915E0,0E0,4.9199166E0,3.6008644E0,5.4632635E0,0E0,6.941309E-1,0E0,4.647686E0,1.0835071E0,8.724003E-1,0E0,5.554493E0,0E0,0E0,3.5254097E-1,6.850624E-1,0E0,3.7361689E0,3.4926977E0,0E0,0E0,2.478919E0,0E0,0E0,3.8402474E0,0E0,0E0,0E0,0E0,4.8497486E0,0E0,0E0,0E0],"parents":[2147483647,0,0,1,1,3,3,4,4,5,5,7,7,9,9,10,10,11,11,13,13,16,16,17,17,19,19,20,20,23,23,26,26,31,31],"right_children":[2,4,-1,6,8,10,-1,12,-1,14,16,18,-1,20,-1,-1,22,24,-1,26,28,-1,-1,30,-1,-1,32,-1,-1,-1,-1,34,-1,-1,-1],"split_conditions":[1E0,1E0,1.1701962E0,1E0,1E0,1E0,-8.017405E-1,1E0,-2.796092E-1,1E0,1E0,1E0,9.544615E-2,1E0,7.344485E-1,8.652395E-2,1E0,1E0,1.3965328E-1,1E0,1E0,1.0237454E0,3.4001663E-1,1E0,1.1628705E0,9.102862E-1,1E0,-1.0883979E0,-7.897628E-3,8.1756824E-1,-7.0687644E-2,1E0,5.6566846E-1,-1.1390061E0,1.7347738E-1],"split_indices":[684,1143,0,1718,301,667,0,1357,0,441,310,2023,0,1199,0,0,99,1199,0,1152,378,0,0,926,0,0,926,0,0,0,0,1160,0,0,0],"split_type":[0,0,0,0,0,0,0,0,0,0,0,0,0,0,0,0,0,0,0,0,0,0,0,0,0,0,0,0,0,0,0,0,0,0,0],"sum_hessian":[5.6298546E1,5.0911003E1,5.3875427E0,3.3118595E1,1.7792404E1,3.0214544E1,2.9040515E0,1.5515406E1,2.2769997E0,2.1833252E1,8.381294E0,1.3478007E1,2.0373979E0,1.8457592E1,3.3756595E0,2.1719382E0,6.209356E0,1.1230028E1,2.2479796E0,1.0771692E1,7.6858997E0,3.9251518E0,2.2842038E0,7.572209E0,3.6578193E0,2.4336996E0,8.337993E0,4.3737803E0,3.3121197E0,5.5391326E0,2.0330758E0,5.532523E0,2.805469E0,2.6431856E0,2.8893375E0],"tree_param":{"num_deleted":"0","num_feature":"2048","num_nodes":"35","size_leaf_vector":"1"}},{"base_weights":[3.730904E-1,4.6981016E-1,-2.8675604E-1,3.7783235E-1,9.696718E-1,4.8488188E-1,-1.8120952E-1,5.878473E-1,-0E0,2.0714258E-1,-5.144836E-1,6.7377657E-1,-1.2305564E-1,-4.0777045E-1,4.1583982E-1,7.3551255E-1,2.7904534E-3,5.3662425E-1,1.0065751E0,7.0669925E-1,-7.675407E-2,4.4643053E-1,7.4071795E-1,-0E0,5.639466E-1],"categories":[],"categories_nodes":[],"categories_segments":[],"categories_sizes":[],"default_left":[0,0,0,0,0,0,0,0,0,0,0,0,0,0,0,0,0,0,0,0,0,0,0,0,0],"id":3,"left_children":[1,3,-1,5,-1,7,9,11,13,-1,-1,15,-1,-1,-1,17,-1,19,-1,21,-1,23,-1,-1,-1],"loss_changes":[3.355792E0,2.350006E0,0E0,2.329862E0,0E0,1.5992856E0,1.4920807E0,1.8523302E0,1.8413072E0,0E0,0E0,8.0476475E-1,0E0,0E0,0E0,1.7182894E0,0E0,2.0245228E0,0E0,4.07619E-1,0E0,1.0510604E0,0E0,0E0,0E0],"parents":[2147483647,0,0,1,1,3,3,5,5,6,6,7,7,8,8,11,11,15,15,17,17,19,19,21,21],"right_children":[2,4,-1,6,-1,8,10,12,14,-1,-1,16,-1,-1,-1,18,-1,20,-1,22,-1,24,-1,-1,-1],"split_conditions":[1E0,1E0,-2.8675604E-1,1E0,9.696718E-1,1E0,1E0,1E0,1E0,2.0714258E-1,-5.144836E-1,1E0,-1.2305564E-1,-4.0777045E-1,4.1583982E-1,1E0,2.7904534E-3,1E0,1.0065751E0,1E0,-7.675407E-2,1E0,7.4071795E-1,-0E0,5.639466E-1],"split_indices":[1066,1664,0,1928,0,1840,1385,675,378,0,0,1308,0,0,0,464,0,1573,0,1754,0,935,0,0,0],"split_type":[0,0,0,0,0,0,0,0,0,0,0,0,0,0,0,0,0,0,0,0,0,0,0,0,0],"sum_hessian":[4.454421E1,3.9876373E1,4.6678348E0,3.6612255E1,3.2641184E0,3.1140564E1,5.471692E0,2.567363E1,5.466934E0,2.6974475E0,2.7742445E0,2.3360111E1,2.3135169E0,2.8000796E0,2.6668544E0,2.1019573E1,2.340539E0,1.6601639E1,4.4179344E0,1.336462E1,3.2370179E0,7.7665763E0,5.5980444E0,3.2678983E0,4.498678E0],"tree_param":{"num_deleted":"0","num_feature":"2048","num_nodes":"25","size_leaf_vector":"1"}},{"base_weights":[2.8442377E-1,7.795072E-1,1.7383485E-1,2.7105987E-1,-5.4210865E-1,1.7959344E-1,7.028502E-1,-0E0,5.079549E-1,1.5316337E-1,-4.7387743E-1,8.108036E-2,6.688322E-1,3.2083336E-1,-2.2932565E-1,4.196534E-1,-1.5143056E-1,4.9165285E-1,-1.1171675E-1,2.928721E-1,6.092462E-1,7.6750154E-3,4.556267E-1],"categories":[],"categories_nodes":[],"categories_segments":[],"categories_sizes":[],"default_left":[0,0,0,0,0,0,0,0,0,0,0,0,0,0,0,0,0,0,0,0,0,0,0],"id":4,"left_children":[1,-1,3,5,-1,7,-1,9,11,13,-1,15,-1,17,-1,-1,-1,19,-1,21,-1,-1,-1],"loss_changes":[3.0046465E0,0E0,3.1441567E0,1.6638699E0,0E0,1.7323825E0,0E0,1.9183491E0,1.3847685E0,1.3298509E0,0E0,8.7111634E-1,0E0,1.1461278E0,0E0,0E0,0E0,2.3611093E-1,0E0,4.6765953E-1,0E0,0E0,0E0],"parents":[2147483647,0,0,2,2,3,3,5,5,7,7,8,8,9,9,11,11,13,13,17,17,19,19],"right_children":[2,-1,4,6,-1,8,-1,10,12,14,-1,16,-1,18,-1,-1,-1,20,-1,22,-1,-1,-1],"split_conditions":[1E0,7.795072E-1,1E0,1E0,-5.4210865E-1,1E0,7.028502E-1,1E0,1E0,1E0,-4.7387743E-1,1E0,6.688322E-1,1E0,-2.2932565E-1,4.196534E-1,-1.5143056E-1,1E0,-1.1171675E-1,1E0,6.092462E-1,7.6750154E-3,4.556267E-1],"split_indices":[1917,0,1575,117,0,1143,0,1564,1057,1452,0,1088,0,935,0,0,0,2004,0,667,0,0,0],"split_type":[0,0,0,0,0,0,0,0,0,0,0,0,0,0,0,0,0,0,0,0,0,0,0],"sum_hessian":[4.1043118E1,4.606804E0,3.6436314E1,3.3344273E1,3.0920422E0,3.004218E1,3.302092E0,1.9959627E1,1.0082551E1,1.6437428E1,3.5221994E0,5.2130766E0,4.8694744E0,1.2481163E1,3.9562654E0,2.1124513E0,3.100625E0,9.500174E0,2.9809897E0,6.75695E0,2.7432232E0,4.1436567E0,2.6132932E0],"tree_param":{"num_deleted":"0","num_feature":"2048","num_nodes":"23","size_leaf_vector":"1"}},{"base_weights":[-0E0,-9.732107E-2,6.8301076E-1,-2.0954539E-1,6.581412E-1,-3.2909223E-1,6.383596E-1,-4.919547E-1,3.9203033E-1,-6.325559E-1,2.0262043E-1,6.766817E-1,-6.524108E-2,-8.3131665E-1,-2.1296073E-1,-4.6898124E-1,-1.1257905E0,-3.474034E-1,1.4312762E-1,-4.657017E-1,-5.5454936E-2],"categories":[],"categories_nodes":[],"categories_segments":[],"categories_sizes":[],"default_left":[0,0,0,0,0,0,0,0,0,0,0,0,0,0,0,0,0,0,0,0,0],"id":5,"left_children":[1,3,-1,5,-1,7,-1,9,11,13,-1,-1,-1,15,17,19,-1,-1,-1,-1,-1],"loss_changes":[2.7043495E0,3.1013288E0,0E0,3.376454E0,0E0,3.0218909E0,0E0,2.3659353E0,1.2951475E0,1.1583347E0,0E0,0E0,0E0,1.9123802E0,7.5164866E-1,2.7540052E-1,0E0,0E0,0E0,0E0,0E0],"parents":[2147483647,0,0,1,1,3,3,5,5,7,7,8,8,9,9,13,13,14,14,15,15],"right_children":[2,4,-1,6,-1,8,-1,10,12,14,-1,-1,-1,16,18,20,-1,-1,-1,-1,-1],"split_conditions":[1E0,1E0,6.8301076E-1,1E0,6.581412E-1,1E0,6.383596E-1,1E0,1E0,1E0,2.0262043E-1,6.766817E-1,-6.524108E-2,1E0,1E0,1E0,-1.1257905E0,-3.474034E-1,1.4312762E-1,-4.657017E-1,-5.5454936E-2],"split_indices":[116,1664,0,407,0,115,0,2004,1847,1665,0,0,0,378,1722,935,0,0,0,0,0],"split_type":[0,0,0,0,0,0,0,0,0,0,0,0,0,0,0,0,0,0,0,0,0],"sum_hessian":[3.1725298E1,2.9128641E1,2.5966568E0,2.6609425E1,2.5192156E0,2.4355867E1,2.2535584E0,2.0256924E1,4.098944E0,1.7414335E1,2.8425872E0,2.0802176E0,2.0187263E0,1.11310625E1,6.283273E0,7.8411484E0,3.2899146E0,4.2591047E0,2.0241683E0,5.1687813E0,2.6723666E0],"tree_param":{"num_deleted":"0","num_feature":"2048","num_nodes":"21","size_leaf_vector":"1"}},{"base_weights":[2.098997E-1,3.0290392E-1,-2.1042798E-1,3.7686592E-1,-2.293875E-1,-7.28753E-1,2.2131835E-1,5.0526357E-1,-2.8556945E-2,5.899721E-1,-0E0,-3.2897595E-1,3.5015255E-1,4.3262407E-1,7.256984E-1,5.8714026E-1,-0E0,2.8205287E-1,8.0822355E-1,-2.1475246E-2,4.9714154E-1],"categories":[],"categories_nodes":[],"categories_segments":[],"categories_sizes":[],"default_left":[0,0,0,0,0,0,0,0,0,0,0,0,0,0,0,0,0,0,0,0,0],"id":6,"left_children":[1,3,5,7,-1,-1,-1,9,11,13,-1,-1,-1,15,-1,17,-1,19,-1,-1,-1],"loss_changes":[1.286532E0,1.2520471E0,2.330515E0,1.3811138E0,0E0,0E0,0E0,7.481761E-1,1.2106326E0,3.8666105E-1,0E0,0E0,0E0,9.1387296E-1,0E0,8.881564E-1,0E0,9.1192466E-1,0E0,0E0,0E0],"parents":[2147483647,0,0,1,1,2,2,3,3,7,7,8,8,9,9,13,13,15,15,17,17],"right_children":[2,4,6,8,-1,-1,-1,10,12,14,-1,-1,-1,16,-1,18,-1,20,-1,-1,-1],"split_conditions":[1E0,1E0,1E0,1E0,-2.293875E-1,-7.28753E-1,2.2131835E-1,1E0,1E0,1E0,-0E0,-3.2897595E-1,3.5015255E-1,1E0,7.256984E-1,1E0,-0E0,1E0,8.0822355E-1,-2.1475246E-2,4.9714154E-1],"split_indices":[896,1922,1264,1171,0,0,0,1243,875,667,0,0,0,294,0,893,0,881,0,0,0],"split_type":[0,0,0,0,0,0,0,0,0,0,0,0,0,0,0,0,0,0,0,0,0],"sum_hessian":[3.1174274E1,2.6098568E1,5.0757065E0,2.3751656E1,2.346912E0,2.0754204E0,3.000286E0,1.8409119E1,5.3425364E0,1.5533848E1,2.875271E0,3.2267356E0,2.1158009E0,1.1946792E1,3.5870562E0,8.934925E0,3.0118668E0,6.1582074E0,2.7767174E0,3.207114E0,2.9510937E0],"tree_param":{"num_deleted":"0","num_feature":"2048","num_nodes":"21","size_leaf_vector":"1"}},{"base_weights":[2.8354144E-1,2.1386687E-1,5.5443645E-1,9.906612E-2,6.280144E-1,-0E0,3.7808987E-1,1.8717308E-1,6.799542E-1,-1.6757134E-1,5.2663547E-1,-3.0053796E-2,7.6223576E-1,-3.7376365E-1,1.2345168E-1,-2.1838006E-2,-7.6921135E-1,1.11858726E-1,-2.4912809E-1],"categories":[],"categories_nodes":[],"categories_segments":[],"categories_sizes":[],"default_left":[0,0,0,0,0,0,0,0,0,0,0,0,0,0,0,0,0,0,0],"id":7,"left_children":[1,3,-1,5,7,9,11,-1,-1,13,-1,-1,-1,15,-1,17,-1,-1,-1],"loss_changes":[6.6019773E-1,1.1250461E0,0E0,6.712457E-1,1.8231559E-1,1.9627923E0,1.8666426E0,0E0,0E0,1.0399812E0,0E0,0E0,0E0,1.8110127E0,0E0,4.0547374E-1,0E0,0E0,0E0],"parents":[2147483647,0,0,1,1,3,3,4,4,5,5,6,6,9,9,13,13,15,15],"right_children":[2,4,-1,6,8,10,12,-1,-1,14,-1,-1,-1,16,-1,18,-1,-1,-1],"split_conditions":[1E0,1E0,5.5443645E-1,1E0,1E0,1E0,1E0,1.8717308E-1,6.799542E-1,1E0,5.2663547E-1,-3.0053796E-2,7.6223576E-1,1E0,1.2345168E-1,1E0,-7.6921135E-1,1.11858726E-1,-2.4912809E-1],"split_indices":[675,745,0,1816,1,881,955,0,0,1160,0,0,0,1718,0,1199,0,0,0],"split_type":[0,0,0,0,0,0,0,0,0,0,0,0,0,0,0,0,0,0,0],"sum_hessian":[3.0633684E1,2.7498375E1,3.1353097E0,2.2416739E1,5.081636E0,1.6594175E1,5.8225627E0,2.7819462E0,2.29969E0,1.373743E1,2.8567464E0,3.4907615E0,2.331801E0,8.85981E0,4.8776193E0,6.230994E0,2.628816E0,3.647313E0,2.583681E0],"tree_param":{"num_deleted":"0","num_feature":"2048","num_nodes":"19","size_leaf_vector":"1"}},{"base_weights":[5.903236E-2,1.500797E-1,-4.133877E-1,6.2856875E-2,5.9845144E-1,-0E0,4.1017312E-1,-7.697559E-2,3.3929557E-1,-1.7199135E-1,2.5296977E-1,-2.9660854E-1,6.451859E-2,-6.531147E-1,8.193389E-2,-1.7334548E-1,-7.7759916E-1,-2.7274868E-1,4.3011066E-1],"categories":[],"categories_nodes":[],"categories_segments":[],"categories_sizes":[],"default_left":[0,0,0,0,0,0,0,0,0,0,0,0,0,0,0,0,0,0,0],"id":8,"left_children":[1,3,-1,5,-1,7,-1,9,-1,11,-1,13,-1,15,17,-1,-1,-1,-1],"loss_changes":[1.4247813E0,1.1135433E0,0E0,7.403085E-1,0E0,6.335344E-1,0E0,6.638067E-1,0E0,5.398288E-1,0E0,1.6178145E0,0E0,5.1773167E-1,1.2547884E0,0E0,0E0,0E0,0E0],"parents":[2147483647,0,0,1,1,3,3,5,5,7,7,9,9,11,11,13,13,14,14],"right_children":[2,4,-1,6,-1,8,-1,10,-1,12,-1,14,-1,16,18,-1,-1,-1,-1],"split_conditions":[1E0,1E0,-4.133877E-1,1E0,5.9845144E-1,1E0,4.1017312E-1,1E0,3.3929557E-1,1E0,2.5296977E-1,1E0,6.451859E-2,1E0,1E0,-1.7334548E-1,-7.7759916E-1,-2.7274868E-1,4.3011066E-1],"split_indices":[1039,1416,0,725,0,1382,0,745,0,1928,0,935,0,1718,1267,0,0,0,0],"split_type":[0,0,0,0,0,0,0,0,0,0,0,0,0,0,0,0,0,0,0],"sum_hessian":[2.6728874E1,2.384339E1,2.8854837E0,2.1717262E1,2.1261282E0,1.9282024E1,2.4352365E0,1.70321E1,2.2499244E0,1.4501936E1,2.5301647E0,1.0346496E1,4.15544E0,5.49214E0,4.854356E0,3.1647537E0,2.3273864E0,2.3342984E0,2.5200577E0],"tree_param":{"num_deleted":"0","num_feature":"2048","num_nodes":"19","size_leaf_vector":"1"}},{"base_weights":[1.550777E-1,2.4742885E-1,-3.5749745E-1,9.1959774E-2,5.261207E-1,-0E0,5.038158E-1,2.4752991E-1,-2.1122478E-1,4.7475478E-1,-4.4006016E-2,-5.2902824E-1,1.4643277E-1,-6.969054E-1,-0E0],"categories":[],"categories_nodes":[],"categories_segments":[],"categories_sizes":[],"default_left":[0,0,0,0,0,0,0,0,0,0,0,0,0,0,0],"id":9,"left_children":[1,3,-1,5,-1,7,-1,9,11,-1,-1,13,-1,-1,-1],"loss_changes":[1.3879114E0,1.2683169E0,0E0,9.2320555E-1,0E0,8.0136895E-1,0E0,9.4282174E-1,1.204757E0,0E0,0E0,1.0081042E0,0E0,0E0,0E0],"parents":[2147483647,0,0,1,1,3,3,5,5,7,7,8,8,11,11],"right_children":[2,4,-1,6,-1,8,-1,10,12,-1,-1,14,-1,-1,-1],"split_conditions":[1E0,1E0,-3.5749745E-1,1E0,5.261207E-1,1E0,5.038158E-1,1E0,1E0,4.7475478E-1,-4.4006016E-2,1E0,1.4643277E-1,-6.969054E-1,-0E0],"split_indices":[1778,294,0,191,0,1088,0,486,1816,0,0,926,0,0,0],"split_type":[0,0,0,0,0,0,0,0,0,0,0,0,0,0,0],"sum_hessian":[2.3733301E1,2.1237932E1,2.4953682E0,1.6499231E1,4.7387013E0,1.4484549E1,2.014683E0,6.5015473E0,7.9830008E0,3.0745344E0,3.4270132E0,4.719992E0,3.2630086E0,2.5111609E0,2.2088313E0],"tree_param":{"num_deleted":"0","num_feature":"2048","num_nodes":"15","size_leaf_vector":"1"}},{"base_weights":[2.2899695E-2,-1.3302165E-1,2.8432098E-1,-2.645783E-1,3.4838855E-1,-0E0,5.2402663E-1,-4.0355572E-1,1.8455788E-1,-2.5149894E-1,3.180588E-1,6.5499365E-1,3.283101E-3,-4.4268268E-1,1.6988903E-2],"categories":[],"categories_nodes":[],"categories_segments":[],"categories_sizes":[],"default_left":[0,0,0,0,0,0,0,0,0,0,0,0,0,0,0],"id":10,"left_children":[1,3,5,7,-1,9,11,13,-1,-1,-1,-1,-1,-1,-1],"loss_changes":[1.1107204E0,1.2438409E0,5.988492E-1,1.0434299E0,0E0,8.4609246E-1,6.96684E-1,9.8116755E-1,0E0,0E0,0E0,0E0,0E0,0E0,0E0],"parents":[2147483647,0,0,1,1,2,2,3,3,5,5,6,6,7,7],"right_children":[2,4,6,8,-1,10,12,14,-1,-1,-1,-1,-1,-1,-1],"split_conditions":[1E0,1E0,1E0,1E0,3.4838855E-1,1E0,1E0,1E0,1.8455788E-1,-2.5149894E-1,3.180588E-1,6.5499365E-1,3.283101E-3,-4.4268268E-1,1.6988903E-2],"split_indices":[1143,980,1057,745,0,378,283,1019,0,0,0,0,0,0,0],"split_type":[0,0,0,0,0,0,0,0,0,0,0,0,0,0,0],"sum_hessian":[2.5498821E1,1.552889E1,9.969933E0,1.322699E1,2.3019001E0,5.1663485E0,4.8035836E0,1.0821791E1,2.4051983E0,2.6528938E0,2.513455E0,2.4708881E0,2.3326955E0,7.9550815E0,2.8667097E0],"tree_param":{"num_deleted":"0","num_feature":"2048","num_nodes":"15","size_leaf_vector":"1"}},{"base_weights":[1.1355637E-1,-0E0,8.043947E-1,9.097941E-2,-4.4786724E-1,2.0775636E-1,-4.043646E-1,4.1959286E-1,-2.7901486E-2,1.8349837E-1,5.903663E-1,-2.4420032E-1,2.8394178E-1,-1.054045E-4,3.910039E-1,-6.101784E-1,9.339168E-2],"categories":[],"categories_nodes":[],"categories_segments":[],"categories_sizes":[],"default_left":[0,0,0,0,0,0,0,0,0,0,0,0,0,0,0,0,0],"id":11,"left_children":[1,3,-1,5,-1,7,-1,9,11,13,-1,15,-1,-1,-1,-1,-1],"loss_changes":[2.4919746E0,1.1612623E0,0E0,1.4045388E0,0E0,9.642365E-1,0E0,5.120896E-1,7.062185E-1,5.324797E-1,0E0,1.4020941E0,0E0,0E0,0E0,0E0,0E0],"parents":[2147483647,0,0,1,1,3,3,5,5,7,7,8,8,9,9,11,11],"right_children":[2,4,-1,6,-1,8,-1,10,12,14,-1,16,-1,-1,-1,-1,-1],"split_conditions":[1E0,1E0,8.043947E-1,1E0,-4.4786724E-1,1E0,-4.043646E-1,1E0,1E0,1E0,5.903663E-1,1E0,2.8394178E-1,-1.054045E-4,3.910039E-1,-6.101784E-1,9.339168E-2],"split_indices":[441,1039,0,1602,0,1754,0,935,294,955,0,378,0,0,0,0,0],"split_type":[0,0,0,0,0,0,0,0,0,0,0,0,0,0,0,0,0],"sum_hessian":[2.3925104E1,2.1831251E1,2.0938518E0,1.9366005E1,2.4652457E0,1.6871365E1,2.494641E0,9.243398E0,7.627967E0,6.3489714E0,2.894426E0,5.4517174E0,2.1762497E0,3.8798206E0,2.469151E0,2.2260618E0,3.2256553E0],"tree_param":{"num_deleted":"0","num_feature":"2048","num_nodes":"17","size_leaf_vector":"1"}},{"base_weights":[7.778302E-2,1.4072609E-1,-2.0886028E-1,5.414355E-2,3.6676002E-1,1.3606885E-1,-2.3698877E-1,2.5057626E-1,-2.2066815E-1,-0E0,2.6666695E-1],"categories":[],"categories_nodes":[],"categories_segments":[],"categories_sizes":[],"default_left":[0,0,0,0,0,0,0,0,0,0,0],"id":12,"left_children":[1,3,-1,5,-1,7,-1,9,-1,-1,-1],"loss_changes":[4.5783466E-1,4.1773635E-1,0E0,4.6047398E-1,0E0,7.080536E-1,0E0,3.266403E-1,0E0,0E0,0E0],"parents":[2147483647,0,0,1,1,3,3,5,5,7,7],"right_children":[2,4,-1,6,-1,8,-1,10,-1,-1,-1],"split_conditions":[1E0,1E0,-2.0886028E-1,1E0,3.6676002E-1,1E0,-2.3698877E-1,1E0,-2.2066815E-1,-0E0,2.6666695E-1],"split_indices":[1765,1066,0,695,0,1357,0,1750,0,0,0],"split_type":[0,0,0,0,0,0,0,0,0,0,0],"sum_hessian":[2.0966484E1,1.8586733E1,2.3797503E0,1.5781371E1,2.8053622E0,1.36508E1,2.1305718E0,1.1342937E1,2.3078623E0,3.0136223E0,8.329315E0],"tree_param":{"num_deleted":"0","num_feature":"2048","num_nodes":"11","size_leaf_vector":"1"}},{"base_weights":[5.6877207E-2,2.2662526E-1,-2.742166E-1,3.0900013E-1,-1.2134128E-1,4.6132556E-1,-0E0,-2.3582065E-1,2.2811636E-1],"categories":[],"categories_nodes":[],"categories_segments":[],"categories_sizes":[],"default_left":[0,0,0,0,0,0,0,0,0],"id":13,"left_children":[1,3,-1,5,-1,-1,7,-1,-1],"loss_changes":[1.5039134E0,5.589903E-1,0E0,1.1546586E0,0E0,0E0,7.1562374E-1,0E0,0E0],"parents":[2147483647,0,0,1,1,3,3,6,6],"right_children":[2,4,-1,6,-1,-1,8,-1,-1],"split_conditions":[1E0,1E0,-2.742166E-1,1E0,-1.2134128E-1,4.6132556E-1,1E0,-2.3582065E-1,2.2811636E-1],"split_indices":[1697,1171,0,926,0,0,314,0,0],"split_type":[0,0,0,0,0,0,0,0,0],"sum_hessian":[2.0825459E1,1.5340777E1,5.484681E0,1.3228039E1,2.1127388E0,6.3171716E0,6.910867E0,3.1493592E0,3.761508E0],"tree_param":{"num_deleted":"0","num_feature":"2048","num_nodes":"9","size_leaf_vector":"1"}},{"base_weights":[7.639282E-2,-0E0,2.6869088E-1,1.3259505E-1,-1.4407076E-1,2.845322E-1,-1.8390274E-1,5.177271E-1,-0E0],"categories":[],"categories_nodes":[],"categories_segments":[],"categories_sizes":[],"default_left":[0,0,0,0,0,0,0,0,0],"id":14,"left_children":[1,3,-1,5,-1,7,-1,-1,-1],"loss_changes":[3.5524204E-1,3.956028E-1,0E0,5.9922993E-1,0E0,9.251286E-1,0E0,0E0,0E0],"parents":[2147483647,0,0,1,1,3,3,5,5],"right_children":[2,4,-1,6,-1,8,-1,-1,-1],"split_conditions":[1E0,1E0,2.6869088E-1,1E0,-1.4407076E-1,1E0,-1.8390274E-1,5.177271E-1,-0E0],"split_indices":[638,41,0,794,0,1385,0,0,0],"split_type":[0,0,0,0,0,0,0,0,0],"sum_hessian":[1.8565445E1,1.5231687E1,3.333759E0,9.406992E0,5.8246946E0,7.2199464E0,2.1870458E0,2.9294546E0,4.2904916E0],"tree_param":{"num_deleted":"0","num_feature":"2048","num_nodes":"9","size_leaf_vector":"1"}},{"base_weights":[-1.3655747E-3,-1.0260563E-1,3.4266248E-1,-1.7979145E-1,2.1522963E-1,-2.5577816E-1,5.3946547E-2,-3.8105273E-1,1.6588816E-1,-4.1390687E-1,-0E0],"categories":[],"categories_nodes":[],"categories_segments":[],"categories_sizes":[],"default_left":[0,0,0,0,0,0,0,0,0,0,0],"id":15,"left_children":[1,3,-1,5,-1,7,-1,9,-1,-1,-1],"loss_changes":[8.59912E-1,5.123199E-1,0E0,3.4281105E-1,0E0,8.184568E-1,0E0,6.380117E-1,0E0,0E0,0E0],"parents":[2147483647,0,0,1,1,3,3,5,5,7,7],"right_children":[2,4,-1,6,-1,8,-1,10,-1,-1,-1],"split_conditions":[1E0,1E0,3.4266248E-1,1E0,2.1522963E-1,1E0,5.3946547E-2,1E0,1.6588816E-1,-4.1390687E-1,-0E0],"split_indices":[255,158,0,893,0,694,0,1457,0,0,0],"split_type":[0,0,0,0,0,0,0,0,0,0,0],"sum_hessian":[1.9845173E1,1.6914646E1,2.9305272E0,1.4804376E1,2.11027E0,1.2090878E1,2.713498E0,1.0030158E1,2.060719E0,6.926229E0,3.103929E0],"tree_param":{"num_deleted":"0","num_feature":"2048","num_nodes":"11","size_leaf_vector":"1"}},{"base_weights":[1.2488975E-1,-5.5464175E-2,3.7678027E-1,8.702913E-2,-2.7390274E-1,2.2169895E-1,-1.1772204E-1,-3.9512897E-1,2.2597643E-2],"categories":[],"categories_nodes":[],"categories_segments":[],"categories_sizes":[],"default_left":[0,0,0,0,0,0,0,0,0],"id":16,"left_children":[1,3,-1,5,7,-1,-1,-1,-1],"loss_changes":[1.3330896E0,4.3699354E-1,0E0,3.9867768E-1,5.380795E-1,0E0,0E0,0E0,0E0],"parents":[2147483647,0,0,1,1,3,3,4,4],"right_children":[2,4,-1,6,8,-1,-1,-1,-1],"split_conditions":[1E0,1E0,3.7678027E-1,1E0,1E0,2.2169895E-1,-1.1772204E-1,-3.9512897E-1,2.2597643E-2],"split_indices":[1143,1088,0,1114,1665,0,0,0,0],"split_type":[0,0,0,0,0,0,0,0,0],"sum_hessian":[1.787717E1,1.1806161E1,6.0710096E0,6.636114E0,5.1700463E0,4.0989847E0,2.5371294E0,3.1421862E0,2.0278604E0],"tree_param":{"num_deleted":"0","num_feature":"2048","num_nodes":"9","size_leaf_vector":"1"}},{"base_weights":[3.4370977E-2,1.5324444E-1,-4.5033696E-1,3.046316E-1,-1.8451647E-1,4.018854E-1,-0E0,4.1027838E-1,4.7643445E-2],"categories":[],"categories_nodes":[],"categories_segments":[],"categories_sizes":[],"default_left":[0,0,0,0,0,0,0,0,0],"id":17,"left_children":[1,3,-1,5,-1,7,-1,-1,-1],"loss_changes":[1.2720002E0,9.9375033E-1,0E0,3.7783635E-1,0E0,2.6472616E-1,0E0,0E0,0E0],"parents":[2147483647,0,0,1,1,3,3,5,5],"right_children":[2,4,-1,6,-1,8,-1,-1,-1],"split_conditions":[1E0,1E0,-4.5033696E-1,1E0,-1.8451647E-1,1E0,-0E0,4.1027838E-1,4.7643445E-2],"split_indices":[1039,896,0,1840,0,955,0,0,0],"split_type":[0,0,0,0,0,0,0,0,0],"sum_hessian":[1.760954E1,1.5394964E1,2.2145777E0,1.1641713E1,3.7532506E0,8.840184E0,2.8015292E0,5.636832E0,3.203352E0],"tree_param":{"num_deleted":"0","num_feature":"2048","num_nodes":"9","size_leaf_vector":"1"}},{"base_weights":[-6.897867E-2,-0E0,-3.713036E-1,-6.8375245E-2,2.1367379E-1,3.220011E-2,-1.6711184E-1],"categories":[],"categories_nodes":[],"categories_segments":[],"categories_sizes":[],"default_left":[0,0,0,0,0,0,0],"id":18,"left_children":[1,3,-1,5,-1,-1,-1],"loss_changes":[5.9237754E-1,3.3909258E-1,0E0,2.5417846E-1,0E0,0E0,0E0],"parents":[2147483647,0,0,1,1,3,3],"right_children":[2,4,-1,6,-1,-1,-1],"split_conditions":[1E0,1E0,-3.713036E-1,1E0,2.1367379E-1,3.220011E-2,-1.6711184E-1],"split_indices":[1575,1573,0,41,0,0,0],"split_type":[0,0,0,0,0,0,0],"sum_hessian":[1.7649927E1,1.5214398E1,2.4355283E0,1.2062235E1,3.1521633E0,6.204425E0,5.8578105E0],"tree_param":{"num_deleted":"0","num_feature":"2048","num_nodes":"7","size_leaf_vector":"1"}},{"base_weights":[-0E0,-1.2275055E-1,2.3941784E-1,-2.4497649E-1,8.08668E-2,-3.7190565E-1,3.1236012E-3,2.3230705E-1,-4.4147458E-2,-7.789128E-2,-4.50747E-1],"categories":[],"categories_nodes":[],"categories_segments":[],"categories_sizes":[],"default_left":[0,0,0,0,0,0,0,0,0,0,0],"id":19,"left_children":[1,3,-1,5,7,9,-1,-1,-1,-1,-1],"loss_changes":[7.28369E-1,3.8453153E-1,0E0,3.8333994E-1,2.111063E-1,2.0581138E-1,0E0,0E0,0E0,0E0,0E0],"parents":[2147483647,0,0,1,1,3,3,4,4,5,5],"right_children":[2,4,-1,6,8,10,-1,-1,-1,-1,-1],"split_conditions":[1E0,1E0,2.3941784E-1,1E0,1E0,1E0,3.1236012E-3,2.3230705E-1,-4.4147458E-2,-7.789128E-2,-4.50747E-1],"split_indices":[656,875,0,935,935,1267,0,0,0,0,0],"split_type":[0,0,0,0,0,0,0,0,0,0,0],"sum_hessian":[1.7974218E1,1.3061443E1,4.9127746E0,8.848148E0,4.2132955E0,6.3598833E0,2.4882646E0,2.0822322E0,2.1310632E0,3.6231732E0,2.73671E0],"tree_param":{"num_deleted":"0","num_feature":"2048","num_nodes":"11","size_leaf_vector":"1"}},{"base_weights":[-6.395403E-2,-2.0515642E-1,5.092572E-2,-3.1140473E-1,-0E0,-3.6121035E-1,-1.8149944E-2],"categories":[],"categories_nodes":[],"categories_segments":[],"categories_sizes":[],"default_left":[0,0,0,0,0,0,0],"id":20,"left_children":[1,3,-1,5,-1,-1,-1],"loss_changes":[3.7092867E-1,2.1431455E-1,0E0,1.7096263E-1,0E0,0E0,0E0],"parents":[2147483647,0,0,1,1,3,3],"right_children":[2,4,-1,6,-1,-1,-1],"split_conditions":[1E0,1E0,5.092572E-2,1E0,-0E0,-3.6121035E-1,-1.8149944E-2],"split_indices":[41,875,0,1019,0,0,0],"split_type":[0,0,0,0,0,0,0],"sum_hessian":[1.7534033E1,9.191863E0,8.342171E0,5.9492106E0,3.2426522E0,3.0936925E0,2.855518E0],"tree_param":{"num_deleted":"0","num_feature":"2048","num_nodes":"7","size_leaf_vector":"1"}},{"base_weights":[1.272865E-1,-0E0,4.356198E-1,1.6520429E-1,-2.9502752E-1,3.21722E-1,-0E0,-0E0,4.175303E-1],"categories":[],"categories_nodes":[],"categories_segments":[],"categories_sizes":[],"default_left":[0,0,0,0,0,0,0,0,0],"id":21,"left_children":[1,3,-1,5,-1,7,-1,-1,-1],"loss_changes":[1.1065232E0,9.3433E-1,0E0,3.1613362E-1,0E0,3.8739628E-1,0E0,0E0,0E0],"parents":[2147483647,0,0,1,1,3,3,5,5],"right_children":[2,4,-1,6,-1,8,-1,-1,-1],"split_conditions":[1E0,1E0,4.356198E-1,1E0,-2.9502752E-1,1E0,-0E0,-0E0,4.175303E-1],"split_indices":[1816,955,0,694,0,935,0,0,0],"split_type":[0,0,0,0,0,0,0,0,0],"sum_hessian":[1.6765484E1,1.2938667E1,3.826816E0,8.797965E0,4.1407022E0,5.0484095E0,3.7495556E0,2.284774E0,2.7636356E0],"tree_param":{"num_deleted":"0","num_feature":"2048","num_nodes":"9","size_leaf_vector":"1"}},{"base_weights":[1.8034263E-1,-5.6849506E-2,4.5137945E-1,-1.18065596E-1,1.0613219E-1],"categories":[],"categories_nodes":[],"categories_segments":[],"categories_sizes":[],"default_left":[0,0,0,0,0],"id":22,"left_children":[1,3,-1,-1,-1],"loss_changes":[1.8171659E0,2.2185373E-1,0E0,0E0,0E0],"parents":[2147483647,0,0,1,1],"right_children":[2,4,-1,-1,-1],"split_conditions":[1E0,1E0,4.5137945E-1,-1.18065596E-1,1.0613219E-1],"split_indices":[955,119,0,0,0],"split_type":[0,0,0,0,0],"sum_hessian":[1.6767962E1,1.0489315E1,6.278646E0,7.8867292E0,2.6025858E0],"tree_param":{"num_deleted":"0","num_feature":"2048","num_nodes":"5","size_leaf_vector":"1"}},{"base_weights":[-6.682271E-2,-1.7223744E-1,8.007583E-2,-3.5614097E-1,-0E0,-6.61944E-3,-5.399211E-1,-1.2085667E-1,1.3275133E-1],"categories":[],"categories_nodes":[],"categories_segments":[],"categories_sizes":[],"default_left":[0,0,0,0,0,0,0,0,0],"id":23,"left_children":[1,3,-1,5,7,-1,-1,-1,-1],"loss_changes":[3.422928E-1,3.8496178E-1,0E0,5.327684E-1,1.921071E-1,0E0,0E0,0E0,0E0],"parents":[2147483647,0,0,1,1,3,3,4,4],"right_children":[2,4,-1,6,8,-1,-1,-1,-1],"split_conditions":[1E0,1E0,8.007583E-2,1E0,1E0,-6.61944E-3,-5.399211E-1,-1.2085667E-1,1.3275133E-1],"split_indices":[1262,486,0,1564,1199,0,0,0,0],"split_type":[0,0,0,0,0,0,0,0,0],"sum_hessian":[1.7142889E1,1.1490034E1,5.652855E0,5.383586E0,6.106448E0,3.2753594E0,2.1082265E0,3.1578956E0,2.9485526E0],"tree_param":{"num_deleted":"0","num_feature":"2048","num_nodes":"9","size_leaf_vector":"1"}},{"base_weights":[-7.6832004E-2,-1.3549018E-1,7.931292E-2,-2.0141488E-1,5.889201E-2,-2.761193E-1,1.4402501E-2,-2.8064305E-1,-0E0],"categories":[],"categories_nodes":[],"categories_segments":[],"categories_sizes":[],"default_left":[0,0,0,0,0,0,0,0,0],"id":24,"left_children":[1,3,-1,5,-1,7,-1,-1,-1],"loss_changes":[1.9593689E-1,2.3555008E-1,0E0,2.588605E-1,0E0,1.7369759E-1,0E0,0E0,0E0],"parents":[2147483647,0,0,1,1,3,3,5,5],"right_children":[2,4,-1,6,-1,8,-1,-1,-1],"split_conditions":[1E0,1E0,7.931292E-2,1E0,5.889201E-2,1E0,1.4402501E-2,-2.8064305E-1,-0E0],"split_indices":[980,1145,0,294,0,1665,0,0,0],"split_type":[0,0,0,0,0,0,0,0,0],"sum_hessian":[1.6746077E1,1.3734042E1,3.0120347E0,1.1368461E1,2.3655818E0,9.225336E0,2.1431248E0,6.3202753E0,2.9050608E0],"tree_param":{"num_deleted":"0","num_feature":"2048","num_nodes":"9","size_leaf_vector":"1"}},{"base_weights":[8.444246E-2,1.8215236E-1,-1.980897E-1,2.782562E-1,-7.657271E-2,3.3439815E-1,-0E0],"categories":[],"categories_nodes":[],"categories_segments":[],"categories_sizes":[],"default_left":[0,0,0,0,0,0,0],"id":25,"left_children":[1,3,-1,5,-1,-1,-1],"loss_changes":[5.900702E-1,4.4723216E-1,0E0,4.21507E-1,0E0,0E0,0E0],"parents":[2147483647,0,0,1,1,3,3],"right_children":[2,4,-1,6,-1,-1,-1],"split_conditions":[1E0,1E0,-1.980897E-1,1E0,-7.657271E-2,3.3439815E-1,-0E0],"split_indices":[1171,1665,0,1267,0,0,0],"split_type":[0,0,0,0,0,0,0],"sum_hessian":[1.7071735E1,1.4000832E1,3.0709026E0,1.1088782E1,2.912049E0,6.4312487E0,4.657534E0],"tree_param":{"num_deleted":"0","num_feature":"2048","num_nodes":"7","size_leaf_vector":"1"}},{"base_weights":[-2.9003127E-3,-1.119497E-1,1.2542534E-1,-0E0,-3.3768794E-1,-0E0,2.0224434E-1,1.8656585E-1,-1.477809E-1],"categories":[],"categories_nodes":[],"categories_segments":[],"categories_sizes":[],"default_left":[0,0,0,0,0,0,0,0,0],"id":26,"left_children":[1,3,5,7,-1,-1,-1,-1,-1],"loss_changes":[2.432247E-1,3.7844262E-1,1.7333147E-1,4.1377288E-1,0E0,0E0,0E0,0E0,0E0],"parents":[2147483647,0,0,1,1,2,2,3,3],"right_children":[2,4,6,8,-1,-1,-1,-1,-1],"split_conditions":[1E0,1E0,1E0,1E0,-3.3768794E-1,-0E0,2.0224434E-1,1.8656585E-1,-1.477809E-1],"split_indices":[1143,1564,1199,1754,0,0,0,0,0],"split_type":[0,0,0,0,0,0,0,0,0],"sum_hessian":[1.6727478E1,1.0092381E1,6.6350975E0,7.9168754E0,2.1755052E0,3.0074162E0,3.6276815E0,3.3945189E0,4.522357E0],"tree_param":{"num_deleted":"0","num_feature":"2048","num_nodes":"9","size_leaf_vector":"1"}},{"base_weights":[6.597591E-2,-1.4018333E-1,2.4484637E-1,-0E0,-3.6699912E-1,5.5686283E-1,-1.19380616E-1,5.7954204E-1,8.847686E-2],"categories":[],"categories_nodes":[],"categories_segments":[],"categories_sizes":[],"default_left":[0,0,0,0,0,0,0,0,0],"id":27,"left_children":[1,3,5,-1,-1,7,-1,-1,-1],"loss_changes":[6.7554975E-1,4.2511582E-1,1.3877106E0,0E0,0E0,2.8773332E-1,0E0,0E0,0E0],"parents":[2147483647,0,0,1,1,2,2,5,5],"right_children":[2,4,6,-1,-1,8,-1,-1,-1],"split_conditions":[1E0,1E0,1E0,-0E0,-3.6699912E-1,1E0,-1.19380616E-1,5.7954204E-1,8.847686E-2],"split_indices":[1057,389,294,0,0,1199,0,0,0],"split_type":[0,0,0,0,0,0,0,0,0],"sum_hessian":[1.6778946E1,7.2111382E0,9.567807E0,5.1546774E0,2.0564606E0,5.6231704E0,3.944637E0,3.268391E0,2.3547795E0],"tree_param":{"num_deleted":"0","num_feature":"2048","num_nodes":"9","size_leaf_vector":"1"}},{"base_weights":[-1.04655325E-1,-2.250199E-1,1.2248343E-1,-2.6539546E-1,-0E0],"categories":[],"categories_nodes":[],"categories_segments":[],"categories_sizes":[],"default_left":[0,0,0,0,0],"id":28,"left_children":[1,3,-1,-1,-1],"loss_changes":[5.4900277E-1,3.3863467E-1,0E0,0E0,0E0],"parents":[2147483647,0,0,1,1],"right_children":[2,4,-1,-1,-1],"split_conditions":[1E0,1E0,1.2248343E-1,-2.6539546E-1,-0E0],"split_indices":[389,1143,0,0,0],"split_type":[0,0,0,0,0],"sum_hessian":[1.5788824E1,1.1528712E1,4.260112E0,7.4019194E0,4.126793E0],"tree_param":{"num_deleted":"0","num_feature":"2048","num_nodes":"5","size_leaf_vector":"1"}},{"base_weights":[-1.8616999E-2,-1.1095062E-1,2.5341284E-1,9.8293334E-2,-2.2746037E-1],"categories":[],"categories_nodes":[],"categories_segments":[],"categories_sizes":[],"default_left":[0,0,0,0,0],"id":29,"left_children":[1,3,-1,-1,-1],"loss_changes":[4.7229597E-1,6.539716E-1,0E0,0E0,0E0],"parents":[2147483647,0,0,1,1],"right_children":[2,4,-1,-1,-1],"split_conditions":[1E0,1E0,2.5341284E-1,9.8293334E-2,-2.2746037E-1],"split_indices":[1861,878,0,0,0],"split_type":[0,0,0,0,0],"sum_hessian":[1.5318889E1,1.2907042E1,2.411847E0,5.143032E0,7.7640095E0],"tree_param":{"num_deleted":"0","num_feature":"2048","num_nodes":"5","size_leaf_vector":"1"}},{"base_weights":[8.4771655E-2,1.9544564E-1,-1.8760529E-1,2.3651107E-1,-9.6473895E-2],"categories":[],"categories_nodes":[],"categories_segments":[],"categories_sizes":[],"default_left":[0,0,0,0,0],"id":30,"left_children":[1,3,-1,-1,-1],"loss_changes":[5.987793E-1,5.3313816E-1,0E0,0E0,0E0],"parents":[2147483647,0,0,1,1],"right_children":[2,4,-1,-1,-1],"split_conditions":[1E0,1E0,-1.8760529E-1,2.3651107E-1,-9.6473895E-2],"split_indices":[656,1783,0,0,0],"split_type":[0,0,0,0,0],"sum_hessian":[1.56973295E1,1.24397335E1,3.257596E0,9.755741E0,2.6839926E0],"tree_param":{"num_deleted":"0","num_feature":"2048","num_nodes":"5","size_leaf_vector":"1"}},{"base_weights":[1.0863338E-1,2.0442376E-1,-1.6107153E-2,2.934413E-1,-2.0111583E-2,3.1721702E-1,-0E0],"categories":[],"categories_nodes":[],"categories_segments":[],"categories_sizes":[],"default_left":[0,0,0,0,0,0,0],"id":31,"left_children":[1,3,-1,5,-1,-1,-1],"loss_changes":[2.4916592E-1,2.8385094E-1,0E0,3.68284E-1,0E0,0E0,0E0],"parents":[2147483647,0,0,1,1,3,3],"right_children":[2,4,-1,6,-1,-1,-1],"split_conditions":[1E0,1E0,-1.6107153E-2,1E0,-2.0111583E-2,3.1721702E-1,-0E0],"split_indices":[955,1171,0,656,0,0,0],"split_type":[0,0,0,0,0,0,0],"sum_hessian":[1.589032E1,1.0065896E1,5.824424E0,7.933174E0,2.1327217E0,5.8893037E0,2.0438707E0],"tree_param":{"num_deleted":"0","num_feature":"2048","num_nodes":"7","size_leaf_vector":"1"}},{"base_weights":[-7.9163805E-2,-1.7819636E-1,1.6556108E-1,-0E0,-2.5137144E-1],"categories":[],"categories_nodes":[],"categories_segments":[],"categories_sizes":[],"default_left":[0,0,0,0,0],"id":32,"left_children":[1,3,-1,-1,-1],"loss_changes":[4.4745094E-1,3.1708136E-1,0E0,0E0,0E0],"parents":[2147483647,0,0,1,1],"right_children":[2,4,-1,-1,-1],"split_conditions":[1E0,1E0,1.6556108E-1,-0E0,-2.5137144E-1],"split_indices":[1019,1057,0,0,0],"split_type":[0,0,0,0,0],"sum_hessian":[1.4572865E1,1.1660853E1,2.9120114E0,5.6116734E0,6.04918E0],"tree_param":{"num_deleted":"0","num_feature":"2048","num_nodes":"5","size_leaf_vector":"1"}},{"base_weights":[7.82996E-3,-8.746969E-2,1.6019705E-1,-1.7242178E-1,1.8388556E-2],"categories":[],"categories_nodes":[],"categories_segments":[],"categories_sizes":[],"default_left":[0,0,0,0,0],"id":33,"left_children":[1,3,-1,-1,-1],"loss_changes":[3.353612E-1,2.0529562E-1,0E0,0E0,0E0],"parents":[2147483647,0,0,1,1],"right_children":[2,4,-1,-1,-1],"split_conditions":[1E0,1E0,1.6019705E-1,-1.7242178E-1,1.8388556E-2],"split_indices":[1262,1114,0,0,0],"split_type":[0,0,0,0,0],"sum_hessian":[1.5051005E1,9.576355E0,5.4746504E0,5.0472846E0,4.5290704E0],"tree_param":{"num_deleted":"0","num_feature":"2048","num_nodes":"5","size_leaf_vector":"1"}},{"base_weights":[3.8433466E-2,2.4527559E-1,-1.07011765E-1,3.0783892E-1,-0E0,-2.0128427E-1,1.2953159E-1],"categories":[],"categories_nodes":[],"categories_segments":[],"categories_sizes":[],"default_left":[0,0,0,0,0,0,0],"id":34,"left_children":[1,3,5,-1,-1,-1,-1],"loss_changes":[5.174416E-1,3.6782122E-1,4.2409977E-1,0E0,0E0,0E0,0E0],"parents":[2147483647,0,0,1,1,2,2],"right_children":[2,4,6,-1,-1,-1,-1],"split_conditions":[1E0,1E0,1E0,3.0783892E-1,-0E0,-2.0128427E-1,1.2953159E-1],"split_indices":[1088,1928,486,0,0,0,0],"split_type":[0,0,0,0,0,0,0],"sum_hessian":[1.5259809E1,6.861366E0,8.398442E0,4.5390415E0,2.3223245E0,5.938566E0,2.459876E0],"tree_param":{"num_deleted":"0","num_feature":"2048","num_nodes":"7","size_leaf_vector":"1"}},{"base_weights":[1.1011091E-2,1.4950058E-1,-1.17288314E-1,-2.3286829E-2,3.5557926E-1],"categories":[],"categories_nodes":[],"categories_segments":[],"categories_sizes":[],"default_left":[0,0,0,0,0],"id":35,"left_children":[1,3,-1,-1,-1],"loss_changes":[3.3409384E-1,6.091356E-1,0E0,0E0,0E0],"parents":[2147483647,0,0,1,1],"right_children":[2,4,-1,-1,-1],"split_conditions":[1E0,1E0,-1.17288314E-1,-2.3286829E-2,3.5557926E-1],"split_indices":[1114,378,0,0,0],"split_type":[0,0,0,0,0],"sum_hessian":[1.3828638E1,8.325792E0,5.5028453E0,5.0679603E0,3.2578325E0],"tree_param":{"num_deleted":"0","num_feature":"2048","num_nodes":"5","size_leaf_vector":"1"}},{"base_weights":[-2.9675862E-2,-1.1665582E-1,2.2075975E-1,-2.1579637E-1,1.5509381E-2,-9.8041795E-2,2.4620727E-1,-2.7827853E-1,7.562214E-2],"categories":[],"categories_nodes":[],"categories_segments":[],"categories_sizes":[],"default_left":[0,0,0,0,0,0,0,0,0],"id":36,"left_children":[1,3,-1,-1,5,7,-1,-1,-1],"loss_changes":[4.1967842E-1,3.6338484E-1,0E0,0E0,3.1706497E-1,3.409035E-1,0E0,0E0,0E0],"parents":[2147483647,0,0,1,1,4,4,5,5],"right_children":[2,4,-1,-1,6,8,-1,-1,-1],"split_conditions":[1E0,1E0,2.2075975E-1,-2.1579637E-1,1E0,1E0,2.4620727E-1,-2.7827853E-1,7.562214E-2],"split_indices":[255,1088,0,0,935,1224,0,0,0],"split_type":[0,0,0,0,0,0,0,0,0],"sum_hessian":[1.5678251E1,1.3130738E1,2.5475132E0,6.4190316E0,6.7117066E0,4.540746E0,2.1709604E0,2.2952855E0,2.2454607E0],"tree_param":{"num_deleted":"0","num_feature":"2048","num_nodes":"9","size_leaf_vector":"1"}},{"base_weights":[-4.8372533E-2,-1.2853608E-1,6.41257E-2],"categories":[],"categories_nodes":[],"categories_segments":[],"categories_sizes":[],"default_left":[0,0,0],"id":37,"left_children":[1,-1,-1],"loss_changes":[2.3686437E-1,0E0,0E0],"parents":[2147483647,0,0],"right_children":[2,-1,-1],"split_conditions":[1E0,-1.2853608E-1,6.41257E-2],"split_indices":[486,0,0],"split_type":[0,0,0],"sum_hessian":[1.2840874E1,7.6365466E0,5.204327E0],"tree_param":{"num_deleted":"0","num_feature":"2048","num_nodes":"3","size_leaf_vector":"1"}},{"base_weights":[-8.4902346E-2,-2.6241896E-1,1.08903795E-1,-4.7925144E-4,-4.047408E-1],"categories":[],"categories_nodes":[],"categories_segments":[],"categories_sizes":[],"default_left":[0,0,0,0,0],"id":38,"left_children":[1,3,-1,-1,-1],"loss_changes":[6.3050497E-1,4.9291456E-1,0E0,0E0,0E0],"parents":[2147483647,0,0,1,1],"right_children":[2,4,-1,-1,-1],"split_conditions":[1E0,1E0,1.08903795E-1,-4.7925144E-4,-4.047408E-1],"split_indices":[1114,486,0,0,0],"split_type":[0,0,0,0,0],"sum_hessian":[1.405385E1,8.45035E0,5.6035E0,4.946919E0,3.5034313E0],"tree_param":{"num_deleted":"0","num_feature":"2048","num_nodes":"5","size_leaf_vector":"1"}},{"base_weights":[2.4712633E-2,2.2552885E-1,-9.880903E-2,-2.4454682E-1,4.95494E-2,-4.369495E-1,9.591359E-3],"categories":[],"categories_nodes":[],"categories_segments":[],"categories_sizes":[],"default_left":[0,0,0,0,0,0,0],"id":39,"left_children":[1,-1,3,5,-1,-1,-1],"loss_changes":[5.1977503E-1,0E0,2.6899186E-1,6.190733E-1,0E0,0E0,0E0],"parents":[2147483647,0,0,2,2,3,3],"right_children":[2,-1,4,6,-1,-1,-1],"split_conditions":[1E0,2.2552885E-1,1E0,1E0,4.95494E-2,-4.369495E-1,9.591359E-3],"split_indices":[878,0,1160,1199,0,0,0],"split_type":[0,0,0,0,0,0,0],"sum_hessian":[1.3323617E1,4.6017118E0,8.721906E0,5.2789354E0,3.44297E0,2.500308E0,2.7786276E0],"tree_param":{"num_deleted":"0","num_feature":"2048","num_nodes":"7","size_leaf_vector":"1"}},{"base_weights":[5.045575E-2,-2.0279188E-2,3.2663193E-1,5.0078996E-2,-1.5094008E-1,-9.460566E-2,2.9411662E-1],"categories":[],"categories_nodes":[],"categories_segments":[],"categories_sizes":[],"default_left":[0,0,0,0,0,0,0],"id":40,"left_children":[1,3,-1,5,-1,-1,-1],"loss_changes":[5.026791E-1,1.9619305E-1,0E0,5.6939876E-1,0E0,0E0,0E0],"parents":[2147483647,0,0,1,1,3,3],"right_children":[2,4,-1,6,-1,-1,-1],"split_conditions":[1E0,1E0,3.2663193E-1,1E0,-1.5094008E-1,-9.460566E-2,2.9411662E-1],"split_indices":[980,935,0,667,0,0,0],"split_type":[0,0,0,0,0,0,0],"sum_hessian":[1.4587296E1,1.2092809E1,2.4944868E0,7.904179E0,4.1886296E0,4.9094224E0,2.994757E0],"tree_param":{"num_deleted":"0","num_feature":"2048","num_nodes":"7","size_leaf_vector":"1"}},{"base_weights":[-3.4854688E-2,-1.78258E-1,1.6684991E-1,-2.612683E-1,1.8250009E-2,-1.5903763E-2,-3.289453E-1],"categories":[],"categories_nodes":[],"categories_segments":[],"categories_sizes":[],"default_left":[0,0,0,0,0,0,0],"id":41,"left_children":[1,3,-1,5,-1,-1,-1],"loss_changes":[5.255419E-1,2.2737458E-1,0E0,2.0979583E-1,0E0,0E0,0E0],"parents":[2147483647,0,0,1,1,3,3],"right_children":[2,4,-1,6,-1,-1,-1],"split_conditions":[1E0,1E0,1.6684991E-1,1E0,1.8250009E-2,-1.5903763E-2,-3.289453E-1],"split_indices":[1264,1145,0,1564,0,0,0],"split_type":[0,0,0,0,0,0,0],"sum_hessian":[1.3832731E1,9.522609E0,4.3101225E0,7.506814E0,2.0157948E0,3.8928175E0,3.6139965E0],"tree_param":{"num_deleted":"0","num_feature":"2048","num_nodes":"7","size_leaf_vector":"1"}},{"base_weights":[1.2213859E-1,-4.6119526E-2,3.112699E-1],"categories":[],"categories_nodes":[],"categories_segments":[],"categories_sizes":[],"default_left":[0,0,0],"id":42,"left_children":[1,-1,-1],"loss_changes":[9.155219E-1,0E0,0E0],"parents":[2147483647,0,0],"right_children":[2,-1,-1],"split_conditions":[1E0,-4.6119526E-2,3.112699E-1],"split_indices":[1143,0,0],"split_type":[0,0,0],"sum_hessian":[1.5348751E1,9.051771E0,6.29698E0],"tree_param":{"num_deleted":"0","num_feature":"2048","num_nodes":"3","size_leaf_vector":"1"}},{"base_weights":[4.175947E-2,-6.837681E-2,2.2757056E-1,-0E0,-2.434183E-1],"categories":[],"categories_nodes":[],"categories_segments":[],"categories_sizes":[],"default_left":[0,0,0,0,0],"id":43,"left_children":[1,3,-1,-1,-1],"loss_changes":[4.4061038E-1,2.2111928E-1,0E0,0E0,0E0],"parents":[2147483647,0,0,1,1],"right_children":[2,4,-1,-1,-1],"split_conditions":[1E0,1E0,2.2757056E-1,-0E0,-2.434183E-1],"split_indices":[1262,1840,0,0,0],"split_type":[0,0,0,0,0],"sum_hessian":[1.290852E1,8.589373E0,4.319148E0,6.432608E0,2.156764E0],"tree_param":{"num_deleted":"0","num_feature":"2048","num_nodes":"5","size_leaf_vector":"1"}},{"base_weights":[-0E0,1.7824365E-1,-2.2803093E-1],"categories":[],"categories_nodes":[],"categories_segments":[],"categories_sizes":[],"default_left":[0,0,0],"id":44,"left_children":[1,-1,-1],"loss_changes":[9.5943403E-1,0E0,0E0],"parents":[2147483647,0,0],"right_children":[2,-1,-1],"split_conditions":[1E0,1.7824365E-1,-2.2803093E-1],"split_indices":[1564,0,0],"split_type":[0,0,0],"sum_hessian":[1.2798234E1,6.9935246E0,5.8047094E0],"tree_param":{"num_deleted":"0","num_feature":"2048","num_nodes":"3","size_leaf_vector":"1"}},{"base_weights":[8.534677E-2,1.8871905E-1,-6.0363434E-2,9.607614E-3,2.8995872E-1,-6.734716E-2,2.1324277E-1],"categories":[],"categories_nodes":[],"categories_segments":[],"categories_sizes":[],"default_left":[0,0,0,0,0,0,0],"id":45,"left_children":[1,3,-1,5,-1,-1,-1],"loss_changes":[2.9522392E-1,2.6274568E-1,0E0,2.2854394E-1,0E0,0E0,0E0],"parents":[2147483647,0,0,1,1,3,3],"right_children":[2,4,-1,6,-1,-1,-1],"split_conditions":[1E0,1E0,-6.0363434E-2,1E0,2.8995872E-1,-6.734716E-2,2.1324277E-1],"split_indices":[935,1262,0,389,0,0,0],"split_type":[0,0,0,0,0,0,0],"sum_hessian":[1.4990297E1,1.0064075E1,4.926222E0,6.080363E0,3.9837132E0,4.0209856E0,2.0593772E0],"tree_param":{"num_deleted":"0","num_feature":"2048","num_nodes":"7","size_leaf_vector":"1"}},{"base_weights":[-1.0202499E-1,-0E0,-3.3779278E-1,6.241896E-2,-1.8854183E-1,-0E0,2.1910958E-1],"categories":[],"categories_nodes":[],"categories_segments":[],"categories_sizes":[],"default_left":[0,0,0,0,0,0,0],"id":46,"left_children":[1,3,-1,5,-1,-1,-1],"loss_changes":[4.2576975E-1,2.0298591E-1,0E0,1.6860136E-1,0E0,0E0,0E0],"parents":[2147483647,0,0,1,1,3,3],"right_children":[2,4,-1,6,-1,-1,-1],"split_conditions":[1E0,1E0,-3.3779278E-1,1E0,-1.8854183E-1,-0E0,2.1910958E-1],"split_indices":[896,1039,0,294,0,0,0],"split_type":[0,0,0,0,0,0,0],"sum_hessian":[1.3358478E1,1.0882456E1,2.4760222E0,8.562683E0,2.3197725E0,6.523938E0,2.0387452E0],"tree_param":{"num_deleted":"0","num_feature":"2048","num_nodes":"7","size_leaf_vector":"1"}},{"base_weights":[5.9974756E-2,1.5835129E-1,-1.9259582E-1,3.1292874E-1,-1.871522E-2,-0E0,3.417208E-1],"categories":[],"categories_nodes":[],"categories_segments":[],"categories_sizes":[],"default_left":[0,0,0,0,0,0,0],"id":47,"left_children":[1,3,-1,5,-1,-1,-1],"loss_changes":[4.048098E-1,3.8447145E-1,0E0,1.877181E-1,0E0,0E0,0E0],"parents":[2147483647,0,0,1,1,3,3],"right_children":[2,4,-1,6,-1,-1,-1],"split_conditions":[1E0,1E0,-1.9259582E-1,1E0,-1.871522E-2,-0E0,3.417208E-1],"split_indices":[294,935,0,1564,0,0,0],"split_type":[0,0,0,0,0,0,0],"sum_hessian":[1.2915895E1,1.0573492E1,2.3424034E0,6.275619E0,4.2978725E0,2.4833264E0,3.7922926E0],"tree_param":{"num_deleted":"0","num_feature":"2048","num_nodes":"7","size_leaf_vector":"1"}},{"base_weights":[-0E0,-1.3373165E-1,1.320885E-1,-2.296132E-1,6.9251233E-3],"categories":[],"categories_nodes":[],"categories_segments":[],"categories_sizes":[],"default_left":[0,0,0,0,0],"id":48,"left_children":[1,3,-1,-1,-1],"loss_changes":[3.6163303E-1,2.9189858E-1,0E0,0E0,0E0],"parents":[2147483647,0,0,1,1],"right_children":[2,4,-1,-1,-1],"split_conditions":[1E0,1E0,1.320885E-1,-2.296132E-1,6.9251233E-3],"split_indices":[486,1057,0,0,0],"split_type":[0,0,0,0,0],"sum_hessian":[1.4947068E1,8.821118E0,6.1259494E0,4.628838E0,4.192281E0],"tree_param":{"num_deleted":"0","num_feature":"2048","num_nodes":"5","size_leaf_vector":"1"}},{"base_weights":[-3.8660385E-2,-2.0911813E-1,7.885309E-2,-2.144873E-2,2.7057877E-1,-1.6034187E-1,8.155868E-2],"categories":[],"categories_nodes":[],"categories_segments":[],"categories_sizes":[],"default_left":[0,0,0,0,0,0,0],"id":49,"left_children":[1,-1,3,5,-1,-1,-1],"loss_changes":[3.9580238E-1,0E0,3.002468E-1,1.6800882E-1,0E0,0E0,0E0],"parents":[2147483647,0,0,2,2,3,3],"right_children":[2,-1,4,6,-1,-1,-1],"split_conditions":[1E0,-2.0911813E-1,1E0,1E0,2.7057877E-1,-1.6034187E-1,8.155868E-2],"split_indices":[1631,0,1199,1057,0,0,0],"split_type":[0,0,0,0,0,0,0],"sum_hessian":[1.1851045E1,4.4436684E0,7.407377E0,5.081905E0,2.3254716E0,2.7085369E0,2.3733683E0],"tree_param":{"num_deleted":"0","num_feature":"2048","num_nodes":"7","size_leaf_vector":"1"}},{"base_weights":[-5.2587107E-2,-1.5251237E-1,2.3024133E-1,-0E0,-2.3586687E-1,1.0005255E-1,-1.6166212E-1],"categories":[],"categories_nodes":[],"categories_segments":[],"categories_sizes":[],"default_left":[0,0,0,0,0,0,0],"id":50,"left_children":[1,3,-1,5,-1,-1,-1],"loss_changes":[4.6230578E-1,2.2725296E-1,0E0,2.0728321E-1,0E0,0E0,0E0],"parents":[2147483647,0,0,1,1,3,3],"right_children":[2,4,-1,6,-1,-1,-1],"split_conditions":[1E0,1E0,2.3024133E-1,1E0,-2.3586687E-1,1.0005255E-1,-1.6166212E-1],"split_indices":[1696,378,0,1718,0,0,0],"split_type":[0,0,0,0,0,0,0],"sum_hessian":[1.3081257E1,1.0928891E1,2.1523662E0,6.202106E0,4.726785E0,3.526375E0,2.675731E0],"tree_param":{"num_deleted":"0","num_feature":"2048","num_nodes":"7","size_leaf_vector":"1"}},{"base_weights":[4.5825057E-2,-5.474514E-2,1.7955299E-1,-1.3795097E-1,7.818758E-2],"categories":[],"categories_nodes":[],"categories_segments":[],"categories_sizes":[],"default_left":[0,0,0,0,0],"id":51,"left_children":[1,3,-1,-1,-1],"loss_changes":[3.3712462E-1,2.1267596E-1,0E0,0E0,0E0],"parents":[2147483647,0,0,1,1],"right_children":[2,4,-1,-1,-1],"split_conditions":[1E0,1E0,1.7955299E-1,-1.3795097E-1,7.818758E-2],"split_indices":[875,1,0,0,0],"split_type":[0,0,0,0,0],"sum_hessian":[1.4706006E1,8.967655E0,5.7383504E0,5.800153E0,3.1675026E0],"tree_param":{"num_deleted":"0","num_feature":"2048","num_nodes":"5","size_leaf_vector":"1"}},{"base_weights":[2.3066051E-2],"categories":[],"categories_nodes":[],"categories_segments":[],"categories_sizes":[],"default_left":[0],"id":52,"left_children":[-1],"loss_changes":[0E0],"parents":[2147483647],"right_children":[-1],"split_conditions":[1.7639207E-2],"split_indices":[0],"split_type":[0],"sum_hessian":[1.4310547E1],"tree_param":{"num_deleted":"0","num_feature":"2048","num_nodes":"1","size_leaf_vector":"1"}},{"base_weights":[8.0454834E-2,2.0252727E-1,-5.0867796E-2,3.4196013E-1,-0E0,-1.5146627E-1,1.2613805E-1],"categories":[],"categories_nodes":[],"categories_segments":[],"categories_sizes":[],"default_left":[0,0,0,0,0,0,0],"id":53,"left_children":[1,3,-1,-1,5,-1,-1],"loss_changes":[2.9445073E-1,4.4358742E-1,0E0,0E0,1.8530719E-1,0E0,0E0],"parents":[2147483647,0,0,1,1,4,4],"right_children":[2,4,-1,-1,6,-1,-1],"split_conditions":[1E0,1E0,-5.0867796E-2,3.4196013E-1,1E0,-1.5146627E-1,1.2613805E-1],"split_indices":[486,1199,0,0,1573,0,0],"split_type":[0,0,0,0,0,0,0],"sum_hessian":[1.3803757E1,8.348293E0,5.4554634E0,3.5792356E0,4.7690573E0,2.1761494E0,2.592908E0],"tree_param":{"num_deleted":"0","num_feature":"2048","num_nodes":"7","size_leaf_vector":"1"}},{"base_weights":[-6.5153286E-2],"categories":[],"categories_nodes":[],"categories_segments":[],"categories_sizes":[],"default_left":[0],"id":54,"left_children":[-1],"loss_changes":[0E0],"parents":[2147483647],"right_children":[-1],"split_conditions":[-4.98244E-2],"split_indices":[0],"split_type":[0],"sum_hessian":[1.4309917E1],"tree_param":{"num_deleted":"0","num_feature":"2048","num_nodes":"1","size_leaf_vector":"1"}},{"base_weights":[1.937983E-2,-4.1616432E-2,2.1659344E-1],"categories":[],"categories_nodes":[],"categories_segments":[],"categories_sizes":[],"default_left":[0,0,0],"id":55,"left_children":[1,-1,-1],"loss_changes":[3.305451E-1,0E0,0E0],"parents":[2147483647,0,0],"right_children":[2,-1,-1],"split_conditions":[1E0,-4.1616432E-2,2.1659344E-1],"split_indices":[1573,0,0],"split_type":[0,0,0],"sum_hessian":[1.3340588E1,9.982812E0,3.3577762E0],"tree_param":{"num_deleted":"0","num_feature":"2048","num_nodes":"3","size_leaf_vector":"1"}},{"base_weights":[-0E0,-1.4716436E-1,3.1026834E-1,-2.2529325E-1,5.6809024E-3,-0E0,-2.565802E-1],"categories":[],"categories_nodes":[],"categories_segments":[],"categories_sizes":[],"default_left":[0,0,0,0,0,0,0],"id":56,"left_children":[1,3,-1,5,-1,-1,-1],"loss_changes":[7.967588E-1,1.8523934E-1,0E0,1.956037E-1,0E0,0E0,0E0],"parents":[2147483647,0,0,1,1,3,3],"right_children":[2,4,-1,6,-1,-1,-1],"split_conditions":[1E0,1E0,3.1026834E-1,1E0,5.6809024E-3,-0E0,-2.565802E-1],"split_indices":[1922,1816,0,1564,0,0,0],"split_type":[0,0,0,0,0,0,0],"sum_hessian":[1.3432274E1,1.0470181E1,2.9620926E0,7.860068E0,2.6101136E0,2.821471E0,5.038597E0],"tree_param":{"num_deleted":"0","num_feature":"2048","num_nodes":"7","size_leaf_vector":"1"}},{"base_weights":[-0E0,-7.0597395E-2,2.0673442E-1,-1.9269165E-1,2.2917021E-2,-0E0,-2.7978024E-1],"categories":[],"categories_nodes":[],"categories_segments":[],"categories_sizes":[],"default_left":[0,0,0,0,0,0,0],"id":57,"left_children":[1,3,-1,5,-1,-1,-1],"loss_changes":[2.9856244E-1,1.8287104E-1,0E0,2.743275E-1,0E0,0E0,0E0],"parents":[2147483647,0,0,1,1,3,3],"right_children":[2,4,-1,6,-1,-1,-1],"split_conditions":[1E0,1E0,2.0673442E-1,1E0,2.2917021E-2,-0E0,-2.7978024E-1],"split_indices":[1722,1143,0,1057,0,0,0],"split_type":[0,0,0,0,0,0,0],"sum_hessian":[1.3897759E1,1.1037787E1,2.8599725E0,5.888501E0,5.1492863E0,2.5252206E0,3.3632805E0],"tree_param":{"num_deleted":"0","num_feature":"2048","num_nodes":"7","size_leaf_vector":"1"}},{"base_weights":[-4.1349586E-3,7.859873E-2,-1.9860552E-1,1.5189831E-1,-7.370874E-2],"categories":[],"categories_nodes":[],"categories_segments":[],"categories_sizes":[],"default_left":[0,0,0,0,0],"id":58,"left_children":[1,3,-1,-1,-1],"loss_changes":[3.249563E-1,2.2952148E-1,0E0,0E0,0E0],"parents":[2147483647,0,0,1,1],"right_children":[2,4,-1,-1,-1],"split_conditions":[1E0,1E0,-1.9860552E-1,1.5189831E-1,-7.370874E-2],"split_indices":[935,378,0,0,0],"split_type":[0,0,0,0,0],"sum_hessian":[1.2427184E1,8.904569E0,3.5226152E0,6.0659957E0,2.838573E0],"tree_param":{"num_deleted":"0","num_feature":"2048","num_nodes":"5","size_leaf_vector":"1"}},{"base_weights":[5.5182353E-2,-0E0,2.199836E-1],"categories":[],"categories_nodes":[],"categories_segments":[],"categories_sizes":[],"default_left":[0,0,0],"id":59,"left_children":[1,-1,-1],"loss_changes":[1.7421952E-1,0E0,0E0],"parents":[2147483647,0,0],"right_children":[2,-1,-1],"split_conditions":[1E0,-0E0,2.199836E-1],"split_indices":[1145,0,0],"split_type":[0,0,0],"sum_hessian":[1.3242541E1,1.1075979E1,2.166562E0],"tree_param":{"num_deleted":"0","num_feature":"2048","num_nodes":"3","size_leaf_vector":"1"}},{"base_weights":[5.29237E-2],"categories":[],"categories_nodes":[],"categories_segments":[],"categories_sizes":[],"default_left":[0],"id":60,"left_children":[-1],"loss_changes":[0E0],"parents":[2147483647],"right_children":[-1],"split_conditions":[4.0472124E-2],"split_indices":[0],"split_type":[0],"sum_hessian":[1.3601792E1],"tree_param":{"num_deleted":"0","num_feature":"2048","num_nodes":"1","size_leaf_vector":"1"}},{"base_weights":[-0E0,-9.465131E-2,2.0861006E-1,7.5980965E-3,-2.3643495E-1,-3.3957848E-1,-0E0],"categories":[],"categories_nodes":[],"categories_segments":[],"categories_sizes":[],"default_left":[0,0,0,0,0,0,0],"id":61,"left_children":[1,3,-1,-1,5,-1,-1],"loss_changes":[3.0239734E-1,2.0486897E-1,0E0,0E0,3.2164058E-1,0E0,0E0],"parents":[2147483647,0,0,1,1,4,4],"right_children":[2,4,-1,-1,6,-1,-1],"split_conditions":[1E0,1E0,2.0861006E-1,7.5980965E-3,1E0,-3.3957848E-1,-0E0],"split_indices":[231,1088,0,0,486,0,0],"split_type":[0,0,0,0,0,0,0],"sum_hessian":[1.2020007E1,9.608796E0,2.411211E0,4.7847753E0,4.824021E0,2.6818225E0,2.1421983E0],"tree_param":{"num_deleted":"0","num_feature":"2048","num_nodes":"7","size_leaf_vector":"1"}},{"base_weights":[1.4037482E-1,-1.0198883E-2,2.2600923E-1],"categories":[],"categories_nodes":[],"categories_segments":[],"categories_sizes":[],"default_left":[0,0,0],"id":62,"left_children":[1,-1,-1],"loss_changes":[4.020044E-1,0E0,0E0],"parents":[2147483647,0,0],"right_children":[2,-1,-1],"split_conditions":[1E0,-1.0198883E-2,2.2600923E-1],"split_indices":[1564,0,0],"split_type":[0,0,0],"sum_hessian":[1.3477449E1,6.1905813E0,7.286868E0],"tree_param":{"num_deleted":"0","num_feature":"2048","num_nodes":"3","size_leaf_vector":"1"}},{"base_weights":[-0E0],"categories":[],"categories_nodes":[],"categories_segments":[],"categories_sizes":[],"default_left":[0],"id":63,"left_children":[-1],"loss_changes":[0E0],"parents":[2147483647],"right_children":[-1],"split_conditions":[-0E0],"split_indices":[0],"split_type":[0],"sum_hessian":[1.3611339E1],"tree_param":{"num_deleted":"0","num_feature":"2048","num_nodes":"1","size_leaf_vector":"1"}},{"base_weights":[4.7258623E-2],"categories":[],"categories_nodes":[],"categories_segments":[],"categories_sizes":[],"default_left":[0],"id":64,"left_children":[-1],"loss_changes":[0E0],"parents":[2147483647],"right_children":[-1],"split_conditions":[3.613989E-2],"split_indices":[0],"split_type":[0],"sum_hessian":[1.3082419E1],"tree_param":{"num_deleted":"0","num_feature":"2048","num_nodes":"1","size_leaf_vector":"1"}},{"base_weights":[-1.4096315E-1,-1.7154315E-1,1.0403799E-1],"categories":[],"categories_nodes":[],"categories_segments":[],"categories_sizes":[],"default_left":[0,0,0],"id":65,"left_children":[1,-1,-1],"loss_changes":[3.408238E-1,0E0,0E0],"parents":[2147483647,0,0],"right_children":[2,-1,-1],"split_conditions":[1E0,-1.7154315E-1,1.0403799E-1],"split_indices":[1145,0,0],"split_type":[0,0,0],"sum_hessian":[1.2808571E1,1.0581667E1,2.2269034E0],"tree_param":{"num_deleted":"0","num_feature":"2048","num_nodes":"3","size_leaf_vector":"1"}},{"base_weights":[-0E0,-7.199212E-2,1.7940862E-1,-2.1220148E-1,1.1274408E-1,2.6540682E-1,-6.885628E-2],"categories":[],"categories_nodes":[],"categories_segments":[],"categories_sizes":[],"default_left":[0,0,0,0,0,0,0],"id":66,"left_children":[1,3,-1,-1,5,-1,-1],"loss_changes":[2.1914244E-1,4.4160149E-1,0E0,0E0,3.1716964E-1,0E0,0E0],"parents":[2147483647,0,0,1,1,4,4],"right_children":[2,4,-1,-1,6,-1,-1],"split_conditions":[1E0,1E0,1.7940862E-1,-2.1220148E-1,1E0,2.6540682E-1,-6.885628E-2],"split_indices":[1816,1754,0,0,1264,0,0],"split_type":[0,0,0,0,0,0,0],"sum_hessian":[1.2352944E1,9.776022E0,2.576923E0,5.1426535E0,4.6333685E0,2.5568843E0,2.076484E0],"tree_param":{"num_deleted":"0","num_feature":"2048","num_nodes":"7","size_leaf_vector":"1"}},{"base_weights":[1.1991416E-1,8.411767E-3,3.175267E-1],"categories":[],"categories_nodes":[],"categories_segments":[],"categories_sizes":[],"default_left":[0,0,0],"id":67,"left_children":[1,-1,-1],"loss_changes":[3.2696974E-1,0E0,0E0],"parents":[2147483647,0,0],"right_children":[2,-1,-1],"split_conditions":[1E0,8.411767E-3,3.175267E-1],"split_indices":[694,0,0],"split_type":[0,0,0],"sum_hessian":[1.2991787E1,1.0424803E1,2.5669844E0],"tree_param":{"num_deleted":"0","num_feature":"2048","num_nodes":"3","size_leaf_vector":"1"}},{"base_weights":[6.1611183E-2,-3.538536E-2,1.6417766E-1,4.775282E-2,-2.102003E-1],"categories":[],"categories_nodes":[],"categories_segments":[],"categories_sizes":[],"default_left":[0,0,0,0,0],"id":68,"left_children":[1,3,-1,-1,-1],"loss_changes":[2.3305182E-1,2.2517684E-1,0E0,0E0,0E0],"parents":[2147483647,0,0,1,1],"right_children":[2,4,-1,-1,-1],"split_conditions":[1E0,1E0,1.6417766E-1,4.775282E-2,-2.102003E-1],"split_indices":[1199,1114,0,0,0],"split_type":[0,0,0,0,0],"sum_hessian":[1.2106348E1,6.6516414E0,5.454707E0,4.237641E0,2.4140003E0],"tree_param":{"num_deleted":"0","num_feature":"2048","num_nodes":"5","size_leaf_vector":"1"}},{"base_weights":[-1.5589534E-1,-3.1927603E-1,6.900403E-2,-6.529758E-2,-4.083361E-1],"categories":[],"categories_nodes":[],"categories_segments":[],"categories_sizes":[],"default_left":[0,0,0,0,0],"id":69,"left_children":[1,3,-1,-1,-1],"loss_changes":[5.8208644E-1,2.5029582E-1,0E0,0E0,0E0],"parents":[2147483647,0,0,1,1],"right_children":[2,4,-1,-1,-1],"split_conditions":[1E0,1E0,6.900403E-2,-6.529758E-2,-4.083361E-1],"split_indices":[1262,310,0,0,0],"split_type":[0,0,0,0,0],"sum_hessian":[1.2338211E1,7.92729E0,4.4109206E0,4.629114E0,3.2981758E0],"tree_param":{"num_deleted":"0","num_feature":"2048","num_nodes":"5","size_leaf_vector":"1"}},{"base_weights":[3.9549507E-3,-1.5332551E-1,3.0268663E-1,-0E0,3.618111E-1],"categories":[],"categories_nodes":[],"categories_segments":[],"categories_sizes":[],"default_left":[0,0,0,0,0],"id":70,"left_children":[1,-1,3,-1,-1],"loss_changes":[7.947903E-1,0E0,2.722047E-1,0E0,0E0],"parents":[2147483647,0,0,2,2],"right_children":[2,-1,4,-1,-1],"split_conditions":[1E0,-1.5332551E-1,1E0,-0E0,3.618111E-1],"split_indices":[378,0,1264,0,0],"split_type":[0,0,0,0,0],"sum_hessian":[1.1726403E1,6.567451E0,5.1589527E0,2.0927258E0,3.066227E0],"tree_param":{"num_deleted":"0","num_feature":"2048","num_nodes":"5","size_leaf_vector":"1"}},{"base_weights":[1.98634E-2,-8.679343E-2,1.9366826E-1,2.7234517E-2,-3.434189E-1,1.4741413E-1,-9.751636E-2],"categories":[],"categories_nodes":[],"categories_segments":[],"categories_sizes":[],"default_left":[0,0,0,0,0,0,0],"id":71,"left_children":[1,3,-1,5,-1,-1,-1],"loss_changes":[3.698386E-1,4.5598778E-1,0E0,1.887256E-1,0E0,0E0,0E0],"parents":[2147483647,0,0,1,1,3,3],"right_children":[2,4,-1,6,-1,-1,-1],"split_conditions":[1E0,1E0,1.9366826E-1,1E0,-3.434189E-1,1.4741413E-1,-9.751636E-2],"split_indices":[1262,694,0,878,0,0,0],"split_type":[0,0,0,0,0,0,0],"sum_hessian":[1.2407004E1,7.9949174E0,4.412087E0,5.884329E0,2.1105888E0,3.5458E0,2.3385286E0],"tree_param":{"num_deleted":"0","num_feature":"2048","num_nodes":"7","size_leaf_vector":"1"}},{"base_weights":[7.73293E-2,1.9627687E-1,-5.624013E-2,-0E0,3.0029252E-1],"categories":[],"categories_nodes":[],"categories_segments":[],"categories_sizes":[],"default_left":[0,0,0,0,0],"id":72,"left_children":[1,3,-1,-1,-1],"loss_changes":[2.838363E-1,2.6784012E-1,0E0,0E0,0E0],"parents":[2147483647,0,0,1,1],"right_children":[2,4,-1,-1,-1],"split_conditions":[1E0,1E0,-5.624013E-2,-0E0,3.0029252E-1],"split_indices":[41,1631,0,0,0],"split_type":[0,0,0,0,0],"sum_hessian":[1.3363832E1,8.294478E0,5.0693545E0,4.8170624E0,3.4774156E0],"tree_param":{"num_deleted":"0","num_feature":"2048","num_nodes":"5","size_leaf_vector":"1"}},{"base_weights":[3.766001E-2,9.4743125E-2,-9.7300895E-2],"categories":[],"categories_nodes":[],"categories_segments":[],"categories_sizes":[],"default_left":[0,0,0],"id":73,"left_children":[1,-1,-1],"loss_changes":[1.738332E-1,0E0,0E0],"parents":[2147483647,0,0],"right_children":[2,-1,-1],"split_conditions":[1E0,9.4743125E-2,-9.7300895E-2],"split_indices":[283,0,0],"split_type":[0,0,0],"sum_hessian":[1.1349248E1,8.487544E0,2.8617032E0],"tree_param":{"num_deleted":"0","num_feature":"2048","num_nodes":"3","size_leaf_vector":"1"}},{"base_weights":[-1.7594397E-1],"categories":[],"categories_nodes":[],"categories_segments":[],"categories_sizes":[],"default_left":[0],"id":74,"left_children":[-1],"loss_changes":[0E0],"parents":[2147483647],"right_children":[-1],"split_conditions":[-1.345489E-1],"split_indices":[0],"split_type":[0],"sum_hessian":[1.0836697E1],"tree_param":{"num_deleted":"0","num_feature":"2048","num_nodes":"1","size_leaf_vector":"1"}},{"base_weights":[1.8987386E-2],"categories":[],"categories_nodes":[],"categories_segments":[],"categories_sizes":[],"default_left":[0],"id":75,"left_children":[-1],"loss_changes":[0E0],"parents":[2147483647],"right_children":[-1],"split_conditions":[1.4520145E-2],"split_indices":[0],"split_type":[0],"sum_hessian":[1.3241404E1],"tree_param":{"num_deleted":"0","num_feature":"2048","num_nodes":"1","size_leaf_vector":"1"}},{"base_weights":[3.9660566E-2],"categories":[],"categories_nodes":[],"categories_segments":[],"categories_sizes":[],"default_left":[0],"id":76,"left_children":[-1],"loss_changes":[0E0],"parents":[2147483647],"right_children":[-1],"split_conditions":[3.032946E-2],"split_indices":[0],"split_type":[0],"sum_hessian":[1.2668606E1],"tree_param":{"num_deleted":"0","num_feature":"2048","num_nodes":"1","size_leaf_vector":"1"}},{"base_weights":[-0E0],"categories":[],"categories_nodes":[],"categories_segments":[],"categories_sizes":[],"default_left":[0],"id":77,"left_children":[-1],"loss_changes":[0E0],"parents":[2147483647],"right_children":[-1],"split_conditions":[-0E0],"split_indices":[0],"split_type":[0],"sum_hessian":[1.2576244E1],"tree_param":{"num_deleted":"0","num_feature":"2048","num_nodes":"1","size_leaf_vector":"1"}},{"base_weights":[-0E0],"categories":[],"categories_nodes":[],"categories_segments":[],"categories_sizes":[],"default_left":[0],"id":78,"left_children":[-1],"loss_changes":[0E0],"parents":[2147483647],"right_children":[-1],"split_conditions":[-0E0],"split_indices":[0],"split_type":[0],"sum_hessian":[1.194576E1],"tree_param":{"num_deleted":"0","num_feature":"2048","num_nodes":"1","size_leaf_vector":"1"}},{"base_weights":[-0E0],"categories":[],"categories_nodes":[],"categories_segments":[],"categories_sizes":[],"default_left":[0],"id":79,"left_children":[-1],"loss_changes":[0E0],"parents":[2147483647],"right_children":[-1],"split_conditions":[-0E0],"split_indices":[0],"split_type":[0],"sum_hessian":[1.1898261E1],"tree_param":{"num_deleted":"0","num_feature":"2048","num_nodes":"1","size_leaf_vector":"1"}},{"base_weights":[-4.477633E-2],"categories":[],"categories_nodes":[],"categories_segments":[],"categories_sizes":[],"default_left":[0],"id":80,"left_children":[-1],"loss_changes":[0E0],"parents":[2147483647],"right_children":[-1],"split_conditions":[-3.424162E-2],"split_indices":[0],"split_type":[0],"sum_hessian":[1.1765728E1],"tree_param":{"num_deleted":"0","num_feature":"2048","num_nodes":"1","size_leaf_vector":"1"}},{"base_weights":[5.056163E-2,1.4230356E-1,-1.20163225E-1,2.3382105E-1,-0E0],"categories":[],"categories_nodes":[],"categories_segments":[],"categories_sizes":[],"default_left":[0,0,0,0,0],"id":81,"left_children":[1,3,-1,-1,-1],"loss_changes":[2.5384948E-1,2.4332747E-1,0E0,0E0,0E0],"parents":[2147483647,0,0,1,1],"right_children":[2,4,-1,-1,-1],"split_conditions":[1E0,1E0,-1.20163225E-1,2.3382105E-1,-0E0],"split_indices":[314,1754,0,0,0],"split_type":[0,0,0,0,0],"sum_hessian":[1.25491495E1,9.608671E0,2.9404778E0,4.3375244E0,5.271147E0],"tree_param":{"num_deleted":"0","num_feature":"2048","num_nodes":"5","size_leaf_vector":"1"}},{"base_weights":[-0E0,-5.5818044E-2,1.8667847E-1],"categories":[],"categories_nodes":[],"categories_segments":[],"categories_sizes":[],"default_left":[0,0,0],"id":82,"left_children":[1,-1,-1],"loss_changes":[2.1924368E-1,0E0,0E0],"parents":[2147483647,0,0],"right_children":[2,-1,-1],"split_conditions":[1E0,-5.5818044E-2,1.8667847E-1],"split_indices":[667,0,0],"split_type":[0,0,0],"sum_hessian":[1.1388629E1,8.995654E0,2.392975E0],"tree_param":{"num_deleted":"0","num_feature":"2048","num_nodes":"3","size_leaf_vector":"1"}},{"base_weights":[3.1022724E-2],"categories":[],"categories_nodes":[],"categories_segments":[],"categories_sizes":[],"default_left":[0],"id":83,"left_children":[-1],"loss_changes":[0E0],"parents":[2147483647],"right_children":[-1],"split_conditions":[2.372388E-2],"split_indices":[0],"split_type":[0],"sum_hessian":[1.258521E1],"tree_param":{"num_deleted":"0","num_feature":"2048","num_nodes":"1","size_leaf_vector":"1"}},{"base_weights":[-6.1206643E-2,3.7600808E-2,-2.0028158E-1,-2.4658568E-1,-0E0],"categories":[],"categories_nodes":[],"categories_segments":[],"categories_sizes":[],"default_left":[0,0,0,0,0],"id":84,"left_children":[1,-1,3,-1,-1],"loss_changes":[2.282987E-1,0E0,1.9924384E-1,0E0,0E0],"parents":[2147483647,0,0,2,2],"right_children":[2,-1,4,-1,-1],"split_conditions":[1E0,3.7600808E-2,1E0,-2.4658568E-1,-0E0],"split_indices":[1088,0,1816,0,0],"split_type":[0,0,0,0,0],"sum_hessian":[1.1765205E1,5.7492294E0,6.015976E0,3.9655097E0,2.050466E0],"tree_param":{"num_deleted":"0","num_feature":"2048","num_nodes":"5","size_leaf_vector":"1"}},{"base_weights":[-1.1343201E-1,1.1765182E-1,-2.8279647E-1,-0E0,2.3394871E-1,-4.0592724E-1,-3.806706E-2],"categories":[],"categories_nodes":[],"categories_segments":[],"categories_sizes":[],"default_left":[0,0,0,0,0,0,0],"id":85,"left_children":[1,3,5,-1,-1,-1,-1],"loss_changes":[5.060335E-1,1.7156917E-1,2.749247E-1,0E0,0E0,0E0,0E0],"parents":[2147483647,0,0,1,1,2,2],"right_children":[2,4,6,-1,-1,-1,-1],"split_conditions":[1E0,1E0,1E0,-0E0,2.3394871E-1,-4.0592724E-1,-3.806706E-2],"split_indices":[878,1114,1564,0,0,0,0],"split_type":[0,0,0,0,0,0,0],"sum_hessian":[1.1090593E1,4.143754E0,6.946839E0,2.074657E0,2.0690973E0,2.5884256E0,4.358413E0],"tree_param":{"num_deleted":"0","num_feature":"2048","num_nodes":"7","size_leaf_vector":"1"}},{"base_weights":[1.913838E-1,2.6141685E-1,-3.3840496E-2,2.9519516E-1,-0E0],"categories":[],"categories_nodes":[],"categories_segments":[],"categories_sizes":[],"default_left":[0,0,0,0,0],"id":86,"left_children":[1,3,-1,-1,-1],"loss_changes":[2.7780718E-1,2.8682214E-1,0E0,0E0,0E0],"parents":[2147483647,0,0,1,1],"right_children":[2,4,-1,-1,-1],"split_conditions":[1E0,1E0,-3.3840496E-2,2.9519516E-1,-0E0],"split_indices":[1840,41,0,0,0],"split_type":[0,0,0,0,0],"sum_hessian":[1.2899032E1,1.0697649E1,2.201383E0,6.591629E0,4.1060195E0],"tree_param":{"num_deleted":"0","num_feature":"2048","num_nodes":"5","size_leaf_vector":"1"}},{"base_weights":[-1.3765492E-1,-0E0,-2.4798205E-1],"categories":[],"categories_nodes":[],"categories_segments":[],"categories_sizes":[],"default_left":[0,0,0],"id":87,"left_children":[1,-1,-1],"loss_changes":[2.1477202E-1,0E0,0E0],"parents":[2147483647,0,0],"right_children":[2,-1,-1],"split_conditions":[1E0,-0E0,-2.4798205E-1],"split_indices":[1114,0,0],"split_type":[0,0,0],"sum_hessian":[1.0828919E1,7.1977844E0,3.6311347E0],"tree_param":{"num_deleted":"0","num_feature":"2048","num_nodes":"3","size_leaf_vector":"1"}},{"base_weights":[1.102132E-1,-0E0,2.7762753E-1,-0E0,3.9541945E-1],"categories":[],"categories_nodes":[],"categories_segments":[],"categories_sizes":[],"default_left":[0,0,0,0,0],"id":88,"left_children":[1,-1,3,-1,-1],"loss_changes":[2.8845936E-1,0E0,2.9624826E-1,0E0,0E0],"parents":[2147483647,0,0,2,2],"right_children":[2,-1,4,-1,-1],"split_conditions":[1E0,-0E0,1E0,-0E0,3.9541945E-1],"split_indices":[1114,0,1573,0,0],"split_type":[0,0,0,0,0],"sum_hessian":[1.263275E1,7.2720847E0,5.360665E0,3.022098E0,2.338567E0],"tree_param":{"num_deleted":"0","num_feature":"2048","num_nodes":"5","size_leaf_vector":"1"}},{"base_weights":[1.2470416E-1,-0E0,2.345573E-1],"categories":[],"categories_nodes":[],"categories_segments":[],"categories_sizes":[],"default_left":[0,0,0],"id":89,"left_children":[1,-1,-1],"loss_changes":[2.413921E-1,0E0,0E0],"parents":[2147483647,0,0],"right_children":[2,-1,-1],"split_conditions":[1E0,-0E0,2.345573E-1],"split_indices":[1143,0,0],"split_type":[0,0,0],"sum_hessian":[1.279989E1,8.487436E0,4.3124537E0],"tree_param":{"num_deleted":"0","num_feature":"2048","num_nodes":"3","size_leaf_vector":"1"}},{"base_weights":[-9.1445364E-2],"categories":[],"categories_nodes":[],"categories_segments":[],"categories_sizes":[],"default_left":[0],"id":90,"left_children":[-1],"loss_changes":[0E0],"parents":[2147483647],"right_children":[-1],"split_conditions":[-6.9930635E-2],"split_indices":[0],"split_type":[0],"sum_hessian":[1.0796121E1],"tree_param":{"num_deleted":"0","num_feature":"2048","num_nodes":"1","size_leaf_vector":"1"}},{"base_weights":[3.0765503E-3,3.1896746E-1,-2.3498645E-1,4.0002784E-1,2.508335E-2],"categories":[],"categories_nodes":[],"categories_segments":[],"categories_sizes":[],"default_left":[0,0,0,0,0],"id":91,"left_children":[1,3,-1,-1,-1],"loss_changes":[1.0989792E0,2.0407313E-1,0E0,0E0,0E0],"parents":[2147483647,0,0,1,1],"right_children":[2,4,-1,-1,-1],"split_conditions":[1E0,1E0,-2.3498645E-1,4.0002784E-1,2.508335E-2],"split_indices":[1564,1199,0,0,0],"split_type":[0,0,0,0,0],"sum_hessian":[1.0296072E1,5.482696E0,4.813376E0,2.492926E0,2.98977E0],"tree_param":{"num_deleted":"0","num_feature":"2048","num_nodes":"5","size_leaf_vector":"1"}},{"base_weights":[6.312957E-2,2.003566E-1,-1.363882E-1,-0E0,3.5032716E-1],"categories":[],"categories_nodes":[],"categories_segments":[],"categories_sizes":[],"default_left":[0,0,0,0,0],"id":92,"left_children":[1,3,-1,-1,-1],"loss_changes":[4.1444033E-1,3.463762E-1,0E0,0E0,0E0],"parents":[2147483647,0,0,1,1],"right_children":[2,4,-1,-1,-1],"split_conditions":[1E0,1E0,-1.363882E-1,-0E0,3.5032716E-1],"split_indices":[1697,378,0,0,0],"split_type":[0,0,0,0,0],"sum_hessian":[1.1426649E1,7.972825E0,3.4538238E0,5.1550603E0,2.8177645E0],"tree_param":{"num_deleted":"0","num_feature":"2048","num_nodes":"5","size_leaf_vector":"1"}},{"base_weights":[6.0188342E-2,1.4455795E-1,-5.9963275E-2,-2.0932269E-1,7.2571345E-2],"categories":[],"categories_nodes":[],"categories_segments":[],"categories_sizes":[],"default_left":[0,0,0,0,0],"id":93,"left_children":[1,-1,3,-1,-1],"loss_changes":[2.3035325E-1,0E0,2.4849854E-1,0E0,0E0],"parents":[2147483647,0,0,2,2],"right_children":[2,-1,4,-1,-1],"split_conditions":[1E0,1.4455795E-1,1E0,-2.0932269E-1,7.2571345E-2],"split_indices":[378,0,1754,0,0],"split_type":[0,0,0,0,0],"sum_hessian":[1.2097047E1,6.6863713E0,5.410675E0,2.786585E0,2.6240897E0],"tree_param":{"num_deleted":"0","num_feature":"2048","num_nodes":"5","size_leaf_vector":"1"}},{"base_weights":[2.7088946E-2,1.4057158E-1,-1.4230144E-1,-3.1527135E-1,6.8625375E-3],"categories":[],"categories_nodes":[],"categories_segments":[],"categories_sizes":[],"default_left":[0,0,0,0,0],"id":94,"left_children":[1,-1,3,-1,-1],"loss_changes":[3.3840013E-1,0E0,3.132698E-1,0E0,0E0],"parents":[2147483647,0,0,2,2],"right_children":[2,-1,4,-1,-1],"split_conditions":[1E0,1.4057158E-1,1E0,-3.1527135E-1,6.8625375E-3],"split_indices":[1718,0,1199,0,0],"split_type":[0,0,0,0,0],"sum_hessian":[1.1489892E1,6.6900444E0,4.7998476E0,2.023801E0,2.7760463E0],"tree_param":{"num_deleted":"0","num_feature":"2048","num_nodes":"5","size_leaf_vector":"1"}},{"base_weights":[4.9023468E-2,-3.2306697E-2,3.0150694E-1,-1.2966287E-1,1.1581094E-1,-3.118113E-1,-0E0],"categories":[],"categories_nodes":[],"categories_segments":[],"categories_sizes":[],"default_left":[0,0,0,0,0,0,0],"id":95,"left_children":[1,3,-1,5,-1,-1,-1],"loss_changes":[4.1431114E-1,1.6617465E-1,0E0,2.8999817E-1,0E0,0E0,0E0],"parents":[2147483647,0,0,1,1,3,3],"right_children":[2,4,-1,6,-1,-1,-1],"split_conditions":[1E0,1E0,3.0150694E-1,1E0,1.1581094E-1,-3.118113E-1,-0E0],"split_indices":[1160,694,0,1199,0,0,0],"split_type":[0,0,0,0,0,0,0],"sum_hessian":[1.0994301E1,8.655678E0,2.3386233E0,6.6034594E0,2.0522187E0,2.014429E0,4.5890303E0],"tree_param":{"num_deleted":"0","num_feature":"2048","num_nodes":"7","size_leaf_vector":"1"}},{"base_weights":[-1.5137339E-1,-4.468529E-2,-3.0662024E-1,1.7614525E-2,-2.333002E-1],"categories":[],"categories_nodes":[],"categories_segments":[],"categories_sizes":[],"default_left":[0,0,0,0,0],"id":96,"left_children":[1,3,-1,-1,-1],"loss_changes":[1.9796744E-1,2.3760004E-1,0E0,0E0,0E0],"parents":[2147483647,0,0,1,1],"right_children":[2,4,-1,-1,-1],"split_conditions":[1E0,1E0,-3.0662024E-1,1.7614525E-2,-2.333002E-1],"split_indices":[896,294,0,0,0],"split_type":[0,0,0,0,0],"sum_hessian":[1.1338009E1,8.987035E0,2.3509743E0,6.715061E0,2.2719734E0],"tree_param":{"num_deleted":"0","num_feature":"2048","num_nodes":"5","size_leaf_vector":"1"}},{"base_weights":[-0E0],"categories":[],"categories_nodes":[],"categories_segments":[],"categories_sizes":[],"default_left":[0],"id":97,"left_children":[-1],"loss_changes":[0E0],"parents":[2147483647],"right_children":[-1],"split_conditions":[-0E0],"split_indices":[0],"split_type":[0],"sum_hessian":[1.0872881E1],"tree_param":{"num_deleted":"0","num_feature":"2048","num_nodes":"1","size_leaf_vector":"1"}},{"base_weights":[-0E0,-1.3613768E-1,1.0028695E-1],"categories":[],"categories_nodes":[],"categories_segments":[],"categories_sizes":[],"default_left":[0,0,0],"id":98,"left_children":[1,-1,-1],"loss_changes":[2.7456328E-1,0E0,0E0],"parents":[2147483647,0,0],"right_children":[2,-1,-1],"split_conditions":[1E0,-1.3613768E-1,1.0028695E-1],"split_indices":[1631,0,0],"split_type":[0,0,0],"sum_hessian":[1.0938219E1,4.4722724E0,6.4659467E0],"tree_param":{"num_deleted":"0","num_feature":"2048","num_nodes":"3","size_leaf_vector":"1"}},{"base_weights":[-8.818522E-2,-2.3754744E-1,9.866106E-2,-0E0,-3.8472152E-1],"categories":[],"categories_nodes":[],"categories_segments":[],"categories_sizes":[],"default_left":[0,0,0,0,0],"id":99,"left_children":[1,3,-1,-1,-1],"loss_changes":[4.0577123E-1,4.526648E-1,0E0,0E0,0E0],"parents":[2147483647,0,0,1,1],"right_children":[2,4,-1,-1,-1],"split_conditions":[1E0,1E0,9.866106E-2,-0E0,-3.8472152E-1],"split_indices":[1262,878,0,0,0],"split_type":[0,0,0,0,0],"sum_hessian":[1.0838296E1,7.057321E0,3.7809753E0,4.03908E0,3.018241E0],"tree_param":{"num_deleted":"0","num_feature":"2048","num_nodes":"5","size_leaf_vector":"1"}},{"base_weights":[1.0488652E-2],"categories":[],"categories_nodes":[],"categories_segments":[],"categories_sizes":[],"default_left":[0],"id":100,"left_children":[-1],"loss_changes":[0E0],"parents":[2147483647],"right_children":[-1],"split_conditions":[8.020943E-3],"split_indices":[0],"split_type":[0],"sum_hessian":[1.0975177E1],"tree_param":{"num_deleted":"0","num_feature":"2048","num_nodes":"1","size_leaf_vector":"1"}},{"base_weights":[-0E0],"categories":[],"categories_nodes":[],"categories_segments":[],"categories_sizes":[],"default_left":[0],"id":101,"left_children":[-1],"loss_changes":[0E0],"parents":[2147483647],"right_children":[-1],"split_conditions":[-0E0],"split_indices":[0],"split_type":[0],"sum_hessian":[1.2129888E1],"tree_param":{"num_deleted":"0","num_feature":"2048","num_nodes":"1","size_leaf_vector":"1"}},{"base_weights":[8.123426E-2,-5.322954E-3,2.4264233E-1,3.5863888E-1,-0E0],"categories":[],"categories_nodes":[],"categories_segments":[],"categories_sizes":[],"default_left":[0,0,0,0,0],"id":102,"left_children":[1,-1,3,-1,-1],"loss_changes":[2.2269067E-1,0E0,3.386066E-1,0E0,0E0],"parents":[2147483647,0,0,2,2],"right_children":[2,-1,4,-1,-1],"split_conditions":[1E0,-5.322954E-3,1E0,3.5863888E-1,-0E0],"split_indices":[1114,0,1564,0,0],"split_type":[0,0,0,0,0],"sum_hessian":[1.1144186E1,6.511212E0,4.632974E0,2.4557705E0,2.1772034E0],"tree_param":{"num_deleted":"0","num_feature":"2048","num_nodes":"5","size_leaf_vector":"1"}},{"base_weights":[-2.7722165E-2],"categories":[],"categories_nodes":[],"categories_segments":[],"categories_sizes":[],"default_left":[0],"id":103,"left_children":[-1],"loss_changes":[0E0],"parents":[2147483647],"right_children":[-1],"split_conditions":[-2.1199856E-2],"split_indices":[0],"split_type":[0],"sum_hessian":[1.1300589E1],"tree_param":{"num_deleted":"0","num_feature":"2048","num_nodes":"1","size_leaf_vector":"1"}},{"base_weights":[-2.8964126E-2],"categories":[],"categories_nodes":[],"categories_segments":[],"categories_sizes":[],"default_left":[0],"id":104,"left_children":[-1],"loss_changes":[0E0],"parents":[2147483647],"right_children":[-1],"split_conditions":[-2.2149617E-2],"split_indices":[0],"split_type":[0],"sum_hessian":[1.1788858E1],"tree_param":{"num_deleted":"0","num_feature":"2048","num_nodes":"1","size_leaf_vector":"1"}},{"base_weights":[-7.59132E-2],"categories":[],"categories_nodes":[],"categories_segments":[],"categories_sizes":[],"default_left":[0],"id":105,"left_children":[-1],"loss_changes":[0E0],"parents":[2147483647],"right_children":[-1],"split_conditions":[-5.8052786E-2],"split_indices":[0],"split_type":[0],"sum_hessian":[1.1586499E1],"tree_param":{"num_deleted":"0","num_feature":"2048","num_nodes":"1","size_leaf_vector":"1"}},{"base_weights":[-3.0449722E-2,3.6456965E-2,-2.5939456E-1],"categories":[],"categories_nodes":[],"categories_segments":[],"categories_sizes":[],"default_left":[0,0,0],"id":106,"left_children":[1,-1,-1],"loss_changes":[3.453655E-1,0E0,0E0],"parents":[2147483647,0,0],"right_children":[2,-1,-1],"split_conditions":[1E0,3.6456965E-2,-2.5939456E-1],"split_indices":[283,0,0],"split_type":[0,0,0],"sum_hessian":[1.0656089E1,8.177606E0,2.4784837E0],"tree_param":{"num_deleted":"0","num_feature":"2048","num_nodes":"3","size_leaf_vector":"1"}},{"base_weights":[1.4446439E-1],"categories":[],"categories_nodes":[],"categories_segments":[],"categories_sizes":[],"default_left":[0],"id":107,"left_children":[-1],"loss_changes":[0E0],"parents":[2147483647],"right_children":[-1],"split_conditions":[1.1047565E-1],"split_indices":[0],"split_type":[0],"sum_hessian":[1.1301593E1],"tree_param":{"num_deleted":"0","num_feature":"2048","num_nodes":"1","size_leaf_vector":"1"}},{"base_weights":[2.5656419E-2,1.1716003E-1,-1.831928E-1,-0E0,1.8630587E-1],"categories":[],"categories_nodes":[],"categories_segments":[],"categories_sizes":[],"default_left":[0,0,0,0,0],"id":108,"left_children":[1,3,-1,-1,-1],"loss_changes":[2.789764E-1,2.0707601E-1,0E0,0E0,0E0],"parents":[2147483647,0,0,1,1],"right_children":[2,4,-1,-1,-1],"split_conditions":[1E0,1E0,-1.831928E-1,-0E0,1.8630587E-1],"split_indices":[896,1057,0,0,0],"split_type":[0,0,0,0,0],"sum_hessian":[1.1761646E1,9.606228E0,2.1554182E0,4.235786E0,5.370442E0],"tree_param":{"num_deleted":"0","num_feature":"2048","num_nodes":"5","size_leaf_vector":"1"}},{"base_weights":[-7.085574E-2],"categories":[],"categories_nodes":[],"categories_segments":[],"categories_sizes":[],"default_left":[0],"id":109,"left_children":[-1],"loss_changes":[0E0],"parents":[2147483647],"right_children":[-1],"split_conditions":[-5.4185215E-2],"split_indices":[0],"split_type":[0],"sum_hessian":[1.2077994E1],"tree_param":{"num_deleted":"0","num_feature":"2048","num_nodes":"1","size_leaf_vector":"1"}},{"base_weights":[-0E0,-9.609614E-2,1.3415349E-1,-1.7821771E-1,5.4756667E-2],"categories":[],"categories_nodes":[],"categories_segments":[],"categories_sizes":[],"default_left":[0,0,0,0,0],"id":110,"left_children":[1,3,-1,-1,-1],"loss_changes":[1.8461171E-1,2.2828975E-1,0E0,0E0,0E0],"parents":[2147483647,0,0,1,1],"right_children":[2,4,-1,-1,-1],"split_conditions":[1E0,1E0,1.3415349E-1,-1.7821771E-1,5.4756667E-2],"split_indices":[1,1143,0,0,0],"split_type":[0,0,0,0,0],"sum_hessian":[1.0656382E1,7.4759903E0,3.1803913E0,4.8142905E0,2.6616998E0],"tree_param":{"num_deleted":"0","num_feature":"2048","num_nodes":"5","size_leaf_vector":"1"}},{"base_weights":[5.0884098E-2],"categories":[],"categories_nodes":[],"categories_segments":[],"categories_sizes":[],"default_left":[0],"id":111,"left_children":[-1],"loss_changes":[0E0],"parents":[2147483647],"right_children":[-1],"split_conditions":[3.8912386E-2],"split_indices":[0],"split_type":[0],"sum_hessian":[1.1633195E1],"tree_param":{"num_deleted":"0","num_feature":"2048","num_nodes":"1","size_leaf_vector":"1"}},{"base_weights":[-2.5365548E-2,-1.5908442E-1,9.203503E-2,-2.6745126E-1,-0E0],"categories":[],"categories_nodes":[],"categories_segments":[],"categories_sizes":[],"default_left":[0,0,0,0,0],"id":112,"left_children":[1,3,-1,-1,-1],"loss_changes":[2.4838978E-1,2.072106E-1,0E0,0E0,0E0],"parents":[2147483647,0,0,1,1],"right_children":[2,4,-1,-1,-1],"split_conditions":[1E0,1E0,9.203503E-2,-2.6745126E-1,-0E0],"split_indices":[310,1631,0,0,0],"split_type":[0,0,0,0,0],"sum_hessian":[1.1389868E1,6.78384E0,4.6060276E0,2.746856E0,4.0369844E0],"tree_param":{"num_deleted":"0","num_feature":"2048","num_nodes":"5","size_leaf_vector":"1"}},{"base_weights":[1.100325E-1],"categories":[],"categories_nodes":[],"categories_segments":[],"categories_sizes":[],"default_left":[0],"id":113,"left_children":[-1],"loss_changes":[0E0],"parents":[2147483647],"right_children":[-1],"split_conditions":[8.41447E-2],"split_indices":[0],"split_type":[0],"sum_hessian":[1.1220528E1],"tree_param":{"num_deleted":"0","num_feature":"2048","num_nodes":"1","size_leaf_vector":"1"}},{"base_weights":[-4.8718005E-3],"categories":[],"categories_nodes":[],"categories_segments":[],"categories_sizes":[],"default_left":[0],"id":114,"left_children":[-1],"loss_changes":[0E0],"parents":[2147483647],"right_children":[-1],"split_conditions":[-3.7255918E-3],"split_indices":[0],"split_type":[0],"sum_hessian":[1.1298896E1],"tree_param":{"num_deleted":"0","num_feature":"2048","num_nodes":"1","size_leaf_vector":"1"}},{"base_weights":[-0E0],"categories":[],"categories_nodes":[],"categories_segments":[],"categories_sizes":[],"default_left":[0],"id":115,"left_children":[-1],"loss_changes":[0E0],"parents":[2147483647],"right_children":[-1],"split_conditions":[-0E0],"split_indices":[0],"split_type":[0],"sum_hessian":[1.0887383E1],"tree_param":{"num_deleted":"0","num_feature":"2048","num_nodes":"1","size_leaf_vector":"1"}},{"base_weights":[4.1429796E-3,-4.5597434E-2,2.3712343E-1],"categories":[],"categories_nodes":[],"categories_segments":[],"categories_sizes":[],"default_left":[0,0,0],"id":116,"left_children":[1,-1,-1],"loss_changes":[2.9849753E-1,0E0,0E0],"parents":[2147483647,0,0],"right_children":[2,-1,-1],"split_conditions":[1E0,-4.5597434E-2,2.3712343E-1],"split_indices":[1922,0,0],"split_type":[0,0,0],"sum_hessian":[1.1333795E1,9.019368E0,2.3144267E0],"tree_param":{"num_deleted":"0","num_feature":"2048","num_nodes":"3","size_leaf_vector":"1"}},{"base_weights":[-2.238301E-2,2.3521567E-2,-1.730522E-1],"categories":[],"categories_nodes":[],"categories_segments":[],"categories_sizes":[],"default_left":[0,0,0],"id":117,"left_children":[1,-1,-1],"loss_changes":[1.787802E-1,0E0,0E0],"parents":[2147483647,0,0],"right_children":[2,-1,-1],"split_conditions":[1E0,2.3521567E-2,-1.730522E-1],"split_indices":[1264,0,0],"split_type":[0,0,0],"sum_hessian":[1.1407613E1,8.406332E0,3.0012813E0],"tree_param":{"num_deleted":"0","num_feature":"2048","num_nodes":"3","size_leaf_vector":"1"}},{"base_weights":[-5.8486152E-2],"categories":[],"categories_nodes":[],"categories_segments":[],"categories_sizes":[],"default_left":[0],"id":118,"left_children":[-1],"loss_changes":[0E0],"parents":[2147483647],"right_children":[-1],"split_conditions":[-4.4725873E-2],"split_indices":[0],"split_type":[0],"sum_hessian":[1.1261501E1],"tree_param":{"num_deleted":"0","num_feature":"2048","num_nodes":"1","size_leaf_vector":"1"}},{"base_weights":[-1.2374794E-2],"categories":[],"categories_nodes":[],"categories_segments":[],"categories_sizes":[],"default_left":[0],"id":119,"left_children":[-1],"loss_changes":[0E0],"parents":[2147483647],"right_children":[-1],"split_conditions":[-9.463325E-3],"split_indices":[0],"split_type":[0],"sum_hessian":[1.0701875E1],"tree_param":{"num_deleted":"0","num_feature":"2048","num_nodes":"1","size_leaf_vector":"1"}},{"base_weights":[1.9728534E-2],"categories":[],"categories_nodes":[],"categories_segments":[],"categories_sizes":[],"default_left":[0],"id":120,"left_children":[-1],"loss_changes":[0E0],"parents":[2147483647],"right_children":[-1],"split_conditions":[1.508692E-2],"split_indices":[0],"split_type":[0],"sum_hessian":[1.064541E1],"tree_param":{"num_deleted":"0","num_feature":"2048","num_nodes":"1","size_leaf_vector":"1"}},{"base_weights":[1.9066941E-4],"categories":[],"categories_nodes":[],"categories_segments":[],"categories_sizes":[],"default_left":[0],"id":121,"left_children":[-1],"loss_changes":[0E0],"parents":[2147483647],"right_children":[-1],"split_conditions":[1.4580983E-4],"split_indices":[0],"split_type":[0],"sum_hessian":[1.1143059E1],"tree_param":{"num_deleted":"0","num_feature":"2048","num_nodes":"1","size_leaf_vector":"1"}}]},"name":"gbtree"},"learner_model_param":{"base_score":"8.066536E-1","boost_from_average":"0","num_class":"0","num_feature":"2048","num_target":"1"},"objective":{"name":"binary:logistic","reg_loss_param":{"scale_pos_weight":"4.09211445"}}},"version":[2,0,3]}