{"learner":{"attributes":{"best_iteration":"94","best_score":"0.03239845973340933","scikit_learn":"{\"_estimator_type\": \"classifier\"}"},"feature_names":[],"feature_types":[],"gradient_booster":{"model":{"gbtree_model_param":{"num_parallel_tree":"1","num_trees":"110"},"iteration_indptr":[0,1,2,3,4,5,6,7,8,9,10,11,12,13,14,15,16,17,18,19,20,21,22,23,24,25,26,27,28,29,30,31,32,33,34,35,36,37,38,39,40,41,42,43,44,45,46,47,48,49,50,51,52,53,54,55,56,57,58,59,60,61,62,63,64,65,66,67,68,69,70,71,72,73,74,75,76,77,78,79,80,81,82,83,84,85,86,87,88,89,90,91,92,93,94,95,96,97,98,99,100,101,102,103,104,105,106,107,108,109,110],"tree_info":[0,0,0,0,0,0,0,0,0,0,0,0,0,0,0,0,0,0,0,0,0,0,0,0,0,0,0,0,0,0,0,0,0,0,0,0,0,0,0,0,0,0,0,0,0,0,0,0,0,0,0,0,0,0,0,0,0,0,0,0,0,0,0,0,0,0,0,0,0,0,0,0,0,0,0,0,0,0,0,0,0,0,0,0,0,0,0,0,0,0,0,0,0,0,0,0,0,0,0,0,0,0,0,0,0,0,0,0,0,0],"trees":[{"base_weights":[1.4956677E0,1.6615523E0,5.2593255E-1,1.7891219E0,3.6507928E-1,8.13762E-1,-1.6900957E0,1.6371776E0,-1.557177E0,-4.5776516E-1,1.5545121E0,9.334901E-1,-1.2381711E0],"categories":[],"categories_nodes":[],"categories_segments":[],"categories_sizes":[],"default_left":[0,0,0,0,0,0,0,0,0,0,0,0,0],"id":0,"left_children":[1,3,5,7,9,11,-1,-1,-1,-1,-1,-1,-1],"loss_changes":[7.356946E1,6.445996E1,4.7375275E1,4.118689E1,4.3608902E1,3.045351E1,0E0,0E0,0E0,0E0,0E0,0E0,0E0],"parents":[2147483647,0,0,1,1,2,2,3,3,4,4,5,5],"right_children":[2,4,6,8,10,12,-1,-1,-1,-1,-1,-1,-1],"split_conditions":[1E0,1E0,1E0,1E0,1E0,1E0,-1.6900957E0,1.6371776E0,-1.557177E0,-4.5776516E-1,1.5545121E0,9.334901E-1,-1.2381711E0],"split_indices":[389,1607,745,1948,1168,1160,0,0,0,0,0,0,0],"split_type":[0,0,0,0,0,0,0,0,0,0,0,0,0],"sum_hessian":[4.6347348E2,3.9529395E2,6.817955E1,3.5953632E2,3.5757626E1,6.117955E1,7E0,3.5653632E2,3E0,2.172161E1,1.4036016E1,5.576525E1,5.414301E0],"tree_param":{"num_deleted":"0","num_feature":"2048","num_nodes":"13","size_leaf_vector":"1"}},{"base_weights":[6.3577515E-1,7.460404E-1,-1.5474759E0,7.92599E-1,-3.129556E0,-2.1473775E0,4.638232E-1,7.473195E-1,-2.5066533E0,-2.4146318E0,-3.0293137E-1],"categories":[],"categories_nodes":[],"categories_segments":[],"categories_sizes":[],"default_left":[0,0,0,0,0,0,0,0,0,0,0],"id":1,"left_children":[1,3,5,7,-1,9,-1,-1,-1,-1,-1],"loss_changes":[6.782888E1,5.2553574E1,1.7551239E1,3.663466E1,0E0,9.008823E0,0E0,0E0,0E0,0E0,0E0],"parents":[2147483647,0,0,1,1,2,2,3,3,5,5],"right_children":[2,4,6,8,-1,10,-1,-1,-1,-1,-1],"split_conditions":[1E0,1E0,1E0,1E0,-3.129556E0,1E0,4.638232E-1,7.473195E-1,-2.5066533E0,-2.4146318E0,-3.0293137E-1],"split_indices":[1416,1516,896,1714,0,1582,0,0,0,0,0],"split_type":[0,0,0,0,0,0,0,0,0,0,0],"sum_hessian":[2.815299E2,2.683131E2,1.32168045E1,2.6567804E2,2.6350653E0,1.0370448E1,2.8463564E0,2.631357E2,2.5423374E0,7.7427807E0,2.6276674E0],"tree_param":{"num_deleted":"0","num_feature":"2048","num_nodes":"11","size_leaf_vector":"1"}},{"base_weights":[2.8123385E-1,4.3207684E-1,-7.9586655E-1,5.0259733E-1,-1.528207E0,-1.406982E0,6.72921E-1,5.1640546E-1,-1.1851947E0,-4.5294127E0,8.0818504E-1,-2.5553887E0,-9.670711E-1],"categories":[],"categories_nodes":[],"categories_segments":[],"categories_sizes":[],"default_left":[0,0,0,0,0,0,0,0,0,0,0,0,0],"id":2,"left_children":[1,3,5,7,9,11,-1,-1,-1,-1,-1,-1,-1],"loss_changes":[2.9188524E1,2.169825E1,2.1169071E1,1.9937263E1,4.847362E1,5.3684464E0,0E0,0E0,0E0,0E0,0E0,0E0,0E0],"parents":[2147483647,0,0,1,1,2,2,3,3,4,4,5,5],"right_children":[2,4,6,8,10,12,-1,-1,-1,-1,-1,-1,-1],"split_conditions":[1E0,1E0,1E0,1E0,1E0,1E0,6.72921E-1,5.1640546E-1,-1.1851947E0,-4.5294127E0,8.0818504E-1,-2.5553887E0,-9.670711E-1],"split_indices":[1308,1586,1168,1747,13,695,0,0,0,0,0,0,0],"split_type":[0,0,0,0,0,0,0,0,0,0,0,0,0],"sum_hessian":[1.7969595E2,1.580543E2,2.1641651E1,1.529278E2,5.1265025E0,1.5693094E1,5.9485574E0,1.4748792E2,5.439886E0,2.0476465E0,3.078856E0,2.377512E0,1.3315582E1],"tree_param":{"num_deleted":"0","num_feature":"2048","num_nodes":"13","size_leaf_vector":"1"}},{"base_weights":[2.3474711E-1,3.213052E-1,-1.7545384E0,3.7299523E-1,-2.222891E0,-2.521996E0,-5.998346E-1,5.297388E-1,-2.0743245E-1],"categories":[],"categories_nodes":[],"categories_segments":[],"categories_sizes":[],"default_left":[0,0,0,0,0,0,0,0,0],"id":3,"left_children":[1,3,5,7,-1,-1,-1,-1,-1],"loss_changes":[2.3503777E1,1.8714169E1,4.6986847E0,1.7303131E1,0E0,0E0,0E0,0E0,0E0],"parents":[2147483647,0,0,1,1,2,2,3,3],"right_children":[2,4,6,8,-1,-1,-1,-1,-1],"split_conditions":[1E0,1E0,1E0,1E0,-2.222891E0,-2.521996E0,-5.998346E-1,5.297388E-1,-2.0743245E-1],"split_indices":[1944,921,1160,1199,0,0,0,0,0],"split_type":[0,0,0,0,0,0,0,0,0],"sum_hessian":[1.3850067E2,1.3310507E2,5.3956003E0,1.3103043E2,2.0746524E0,2.3697977E0,3.0258026E0,9.693237E1,3.4098045E1],"tree_param":{"num_deleted":"0","num_feature":"2048","num_nodes":"9","size_leaf_vector":"1"}},{"base_weights":[9.3900405E-2,6.070907E-1,-2.4096942E-1,7.509623E-1,-7.672913E-1,-6.210813E-1,9.5472723E-1,7.884974E-1,-6.9535655E-1,-7.628813E-1,1.2391533E0,5.7434905E-1,1.952072E0],"categories":[],"categories_nodes":[],"categories_segments":[],"categories_sizes":[],"default_left":[0,0,0,0,0,0,0,0,0,0,0,0,0],"id":4,"left_children":[1,3,5,7,-1,9,11,-1,-1,-1,-1,-1,-1],"loss_changes":[1.9608103E1,9.613562E0,3.1015198E1,8.179224E0,0E0,2.3800985E1,4.8826704E0,0E0,0E0,0E0,0E0,0E0,0E0],"parents":[2147483647,0,0,1,1,2,2,3,3,5,5,6,6],"right_children":[2,4,6,8,-1,10,12,-1,-1,-1,-1,-1,-1],"split_conditions":[1E0,1E0,1E0,1E0,-7.672913E-1,1E0,1E0,7.884974E-1,-6.9535655E-1,-7.628813E-1,1.2391533E0,5.7434905E-1,1.952072E0],"split_indices":[650,1582,1070,1114,0,1731,167,0,0,0,0,0,0],"split_type":[0,0,0,0,0,0,0,0,0,0,0,0,0],"sum_hessian":[1.1284745E2,4.4914406E1,6.7933044E1,4.122794E1,3.6864662E0,5.187229E1,1.6060757E1,3.8401176E1,2.8267622E0,4.6869537E1,5.0027533E0,1.3294782E1,2.7659757E0],"tree_param":{"num_deleted":"0","num_feature":"2048","num_nodes":"13","size_leaf_vector":"1"}},{"base_weights":[1.7537154E-1,2.6527813E-1,-1.5877723E0,3.2891583E-1,-1.9297895E0,3.5996833E-1,-1.1978883E0],"categories":[],"categories_nodes":[],"categories_segments":[],"categories_sizes":[],"default_left":[0,0,0,0,0,0,0],"id":5,"left_children":[1,3,-1,5,-1,-1,-1],"loss_changes":[1.799314E1,1.5055397E1,0E0,1.1552623E1,0E0,0E0,0E0],"parents":[2147483647,0,0,1,1,3,3],"right_children":[2,4,-1,6,-1,-1,-1],"split_conditions":[1E0,1E0,-1.5877723E0,1E0,-1.9297895E0,3.5996833E-1,-1.1978883E0],"split_indices":[1791,787,0,175,0,0,0],"split_type":[0,0,0,0,0,0,0],"sum_hessian":[1.0533609E2,1.0106277E2,4.2733226E0,9.8824974E1,2.237792E0,9.514479E1,3.6801853E0],"tree_param":{"num_deleted":"0","num_feature":"2048","num_nodes":"7","size_leaf_vector":"1"}},{"base_weights":[9.719604E-2,-1.5059416E-2,1.1300459E0,-1.490248E-1,1.0137327E0,5.2212644E-1,1.3023022E0,-2.4250823E-1,9.686143E-1,1.1401902E0,-0E0],"categories":[],"categories_nodes":[],"categories_segments":[],"categories_sizes":[],"default_left":[0,0,0,0,0,0,0,0,0,0,0],"id":6,"left_children":[1,3,5,7,9,-1,-1,-1,-1,-1,-1],"loss_changes":[1.1209776E1,1.1281225E1,6.9301987E-1,1.0842733E1,2.0903292E0,0E0,0E0,0E0,0E0,0E0,0E0],"parents":[2147483647,0,0,1,1,2,2,3,3,4,4],"right_children":[2,4,6,8,10,-1,-1,-1,-1,-1,-1],"split_conditions":[1E0,1E0,1E0,1E0,1E0,5.2212644E-1,1.3023022E0,-2.4250823E-1,9.686143E-1,1.1401902E0,-0E0],"split_indices":[960,1535,1088,1120,1088,0,0,0,0,0,0],"split_type":[0,0,0,0,0,0,0,0,0,0,0],"sum_hessian":[9.284474E1,8.364376E1,9.200979E0,7.451435E1,9.129412E0,4.062324E0,5.138655E0,6.828967E1,6.2246747E0,7.042376E0,2.087036E0],"tree_param":{"num_deleted":"0","num_feature":"2048","num_nodes":"11","size_leaf_vector":"1"}},{"base_weights":[-1.2569085E-2,3.816493E-2,-1.5068841E0,1.546839E-1,-8.0595255E-1,3.3557344E-2,9.8113346E-1,2.3499617E-1,-2.253009E0],"categories":[],"categories_nodes":[],"categories_segments":[],"categories_sizes":[],"default_left":[0,0,0,0,0,0,0,0,0],"id":7,"left_children":[1,3,-1,5,7,-1,-1,-1,-1],"loss_changes":[7.9268146E0,8.056256E0,0E0,7.7551785E0,1.8864027E1,0E0,0E0,0E0,0E0],"parents":[2147483647,0,0,1,1,3,3,4,4],"right_children":[2,4,-1,6,8,-1,-1,-1,-1],"split_conditions":[1E0,1E0,-1.5068841E0,1E0,1E0,3.3557344E-2,9.8113346E-1,2.3499617E-1,-2.253009E0],"split_indices":[724,1722,0,739,1088,0,0,0,0],"split_type":[0,0,0,0,0,0,0,0,0],"sum_hessian":[8.6317215E1,8.378518E1,2.5320349E0,7.41871E1,9.598078E0,6.650861E1,7.6784906E0,5.8932605E0,3.704817E0],"tree_param":{"num_deleted":"0","num_feature":"2048","num_nodes":"9","size_leaf_vector":"1"}},{"base_weights":[1.0304165E-1,1.8569945E-1,-1.4905363E0,3.802114E-1,-3.8016975E-1,4.3758732E-1,-9.069987E-1,-5.209907E-1,9.1910607E-1],"categories":[],"categories_nodes":[],"categories_segments":[],"categories_sizes":[],"default_left":[0,0,0,0,0,0,0,0,0],"id":8,"left_children":[1,3,-1,5,7,-1,-1,-1,-1],"loss_changes":[1.1874162E1,8.996706E0,0E0,8.983348E0,5.7056513E0,0E0,0E0,0E0,0E0],"parents":[2147483647,0,0,1,1,3,3,4,4],"right_children":[2,4,-1,6,8,-1,-1,-1,-1],"split_conditions":[1E0,1E0,-1.4905363E0,1E0,1E0,4.3758732E-1,-9.069987E-1,-5.209907E-1,9.1910607E-1],"split_indices":[1410,1607,0,1245,1453,0,0,0,0],"split_type":[0,0,0,0,0,0,0,0,0],"sum_hessian":[8.4531944E1,8.115667E1,3.375274E0,6.0942993E1,2.0213676E1,5.7001343E1,3.9416504E0,1.8057938E1,2.155739E0],"tree_param":{"num_deleted":"0","num_feature":"2048","num_nodes":"9","size_leaf_vector":"1"}},{"base_weights":[5.4696295E-2,-5.3330597E-2,1.699074E0,-4.59922E-1,5.581039E-1,2.0104587E0,6.9009167E-1,-6.248731E-1,8.2812816E-1,3.028209E-1,1.1494036E0],"categories":[],"categories_nodes":[],"categories_segments":[],"categories_sizes":[],"default_left":[0,0,0,0,0,0,0,0,0,0,0],"id":9,"left_children":[1,3,5,7,9,-1,-1,-1,-1,-1,-1],"loss_changes":[1.3848941E1,1.7395298E1,8.6430454E-1,1.38626995E1,3.7031994E0,0E0,0E0,0E0,0E0,0E0,0E0],"parents":[2147483647,0,0,1,1,2,2,3,3,4,4],"right_children":[2,4,6,8,10,-1,-1,-1,-1,-1,-1],"split_conditions":[1E0,1E0,1E0,1E0,1E0,2.0104587E0,6.9009167E-1,-6.248731E-1,8.2812816E-1,3.028209E-1,1.1494036E0],"split_indices":[674,2033,102,374,1855,0,0,0,0,0,0],"split_type":[0,0,0,0,0,0,0,0,0,0,0],"sum_hessian":[7.416207E1,6.9607544E1,4.5545206E0,4.2206913E1,2.7400635E1,2.4144244E0,2.1400962E0,3.6401913E1,5.8049984E0,2.1635342E1,5.765293E0],"tree_param":{"num_deleted":"0","num_feature":"2048","num_nodes":"11","size_leaf_vector":"1"}},{"base_weights":[2.1926147E-1,9.6079394E-2,1.172085E0,-1.4082529E-3,1.370615E0,1.5730038E0,6.659236E-2,-9.900686E-2,8.088301E-1,3.8225192E-1,1.6739343E0,2.02701E0,8.326284E-1],"categories":[],"categories_nodes":[],"categories_segments":[],"categories_sizes":[],"default_left":[0,0,0,0,0,0,0,0,0,0,0,0,0],"id":10,"left_children":[1,3,5,7,9,11,-1,-1,-1,-1,-1,-1,-1],"loss_changes":[8.457933E0,8.976859E0,3.0464888E0,5.9351754E0,1.3317823E0,8.901911E-1,0E0,0E0,0E0,0E0,0E0,0E0,0E0],"parents":[2147483647,0,0,1,1,2,2,3,3,4,4,5,5],"right_children":[2,4,6,8,10,12,-1,-1,-1,-1,-1,-1,-1],"split_conditions":[1E0,1E0,1E0,1E0,1E0,1E0,6.659236E-2,-9.900686E-2,8.088301E-1,3.8225192E-1,1.6739343E0,2.02701E0,8.326284E-1],"split_indices":[162,933,650,1070,1199,1097,0,0,0,0,0,0,0],"split_type":[0,0,0,0,0,0,0,0,0,0,0,0,0],"sum_hessian":[7.604106E1,6.792367E1,8.117395E0,6.3061226E1,4.8624444E0,5.620365E0,2.49703E0,5.6834133E1,6.227093E0,2.079737E0,2.7827075E0,2.1551058E0,3.4652593E0],"tree_param":{"num_deleted":"0","num_feature":"2048","num_nodes":"13","size_leaf_vector":"1"}},{"base_weights":[1.1801481E-1,1.8195693E-1,-1.3824277E0,-8.253257E-1,2.5944695E-1,1.4331417E-1,1.0040575E0],"categories":[],"categories_nodes":[],"categories_segments":[],"categories_sizes":[],"default_left":[0,0,0,0,0,0,0],"id":11,"left_children":[1,3,-1,-1,5,-1,-1],"loss_changes":[6.71101E0,5.389905E0,0E0,0E0,4.7670007E0,0E0,0E0],"parents":[2147483647,0,0,1,1,4,4],"right_children":[2,4,-1,-1,6,-1,-1],"split_conditions":[1E0,1E0,-1.3824277E0,-8.253257E-1,1E0,1.4331417E-1,1.0040575E0],"split_indices":[62,1750,0,0,1700,0,0],"split_type":[0,0,0,0,0,0,0],"sum_hessian":[6.7205795E1,6.513663E1,2.0691698E0,3.7940385E0,6.134259E1,5.5584743E1,5.7578483E0],"tree_param":{"num_deleted":"0","num_feature":"2048","num_nodes":"7","size_leaf_vector":"1"}},{"base_weights":[1.300535E-2,-3.9812528E-2,1.3462737E0,-1.2591122E-1,7.387509E-1,-1.8558443E-1,9.315898E-1],"categories":[],"categories_nodes":[],"categories_segments":[],"categories_sizes":[],"default_left":[0,0,0,0,0,0,0],"id":12,"left_children":[1,3,-1,5,-1,-1,-1],"loss_changes":[5.726756E0,4.4957113E0,0E0,5.2243056E0,0E0,0E0,0E0],"parents":[2147483647,0,0,1,1,3,3],"right_children":[2,4,-1,6,-1,-1,-1],"split_conditions":[1E0,1E0,1.3462737E0,1E0,7.387509E-1,-1.8558443E-1,9.315898E-1],"split_indices":[1994,712,0,716,0,0,0],"split_type":[0,0,0,0,0,0,0],"sum_hessian":[6.573556E1,6.3472633E1,2.2629242E0,5.8290047E1,5.182586E0,5.500361E1,3.286437E0],"tree_param":{"num_deleted":"0","num_feature":"2048","num_nodes":"7","size_leaf_vector":"1"}},{"base_weights":[7.960718E-2,-1.5436873E-3,8.6380154E-1,-8.105993E-2,8.7033296E-1,-1.4582162E-1,8.150422E-1],"categories":[],"categories_nodes":[],"categories_segments":[],"categories_sizes":[],"default_left":[0,0,0,0,0,0,0],"id":13,"left_children":[1,3,-1,5,-1,-1,-1],"loss_changes":[5.2363567E0,4.501495E0,0E0,4.4282613E0,0E0,0E0,0E0],"parents":[2147483647,0,0,1,1,3,3],"right_children":[2,4,-1,6,-1,-1,-1],"split_conditions":[1E0,1E0,8.6380154E-1,1E0,8.7033296E-1,-1.4582162E-1,8.150422E-1],"split_indices":[947,1047,0,981,0,0,0],"split_type":[0,0,0,0,0,0,0],"sum_hessian":[6.801824E1,6.2128143E1,5.8901E0,5.7983734E1,4.1444116E0,5.4121277E1,3.8624563E0],"tree_param":{"num_deleted":"0","num_feature":"2048","num_nodes":"7","size_leaf_vector":"1"}},{"base_weights":[1.4724506E-1,2.1284339E-1,-5.9913623E-1,2.8445652E-1,-6.6506565E-1,1.9046141E-1,8.3352226E-1],"categories":[],"categories_nodes":[],"categories_segments":[],"categories_sizes":[],"default_left":[0,0,0,0,0,0,0],"id":14,"left_children":[1,3,-1,5,-1,-1,-1],"loss_changes":[3.3914673E0,4.0935345E0,0E0,2.2331762E0,0E0,0E0,0E0],"parents":[2147483647,0,0,1,1,3,3],"right_children":[2,4,-1,6,-1,-1,-1],"split_conditions":[1E0,1E0,-5.9913623E-1,1E0,-6.6506565E-1,1.9046141E-1,8.3352226E-1],"split_indices":[1911,1245,0,890,0,0,0],"split_type":[0,0,0,0,0,0,0],"sum_hessian":[6.576145E1,6.144662E1,4.314829E0,5.767443E1,3.7721913E0,5.2635494E1,5.038937E0],"tree_param":{"num_deleted":"0","num_feature":"2048","num_nodes":"7","size_leaf_vector":"1"}},{"base_weights":[-9.683416E-2,-1.8992361E-1,6.897244E-1,-2.7592593E-1,7.052278E-1,-4.7239295E-1,5.4105014E-2],"categories":[],"categories_nodes":[],"categories_segments":[],"categories_sizes":[],"default_left":[0,0,0,0,0,0,0],"id":15,"left_children":[1,3,-1,5,-1,-1,-1],"loss_changes":[4.640702E0,4.4464684E0,0E0,4.436168E0,0E0,0E0,0E0],"parents":[2147483647,0,0,1,1,3,3],"right_children":[2,4,-1,6,-1,-1,-1],"split_conditions":[1E0,1E0,6.897244E-1,1E0,7.052278E-1,-4.7239295E-1,5.4105014E-2],"split_indices":[1017,630,0,926,0,0,0],"split_type":[0,0,0,0,0,0,0],"sum_hessian":[5.96439E1,5.44053E1,5.2386007E0,5.0506104E1,3.899196E0,2.9536999E1,2.0969105E1],"tree_param":{"num_deleted":"0","num_feature":"2048","num_nodes":"7","size_leaf_vector":"1"}},{"base_weights":[1.4099951E-1,1.9612384E-1,-1.0198E0,3.090522E-1,-4.511877E-1,1.7003573E-1,8.5460794E-1,-1.3314624E0,1.8655248E-1],"categories":[],"categories_nodes":[],"categories_segments":[],"categories_sizes":[],"default_left":[0,0,0,0,0,0,0,0,0],"id":16,"left_children":[1,3,-1,5,7,-1,-1,-1,-1],"loss_changes":[4.082003E0,4.376808E0,0E0,3.520638E0,6.343828E0,0E0,0E0,0E0,0E0],"parents":[2147483647,0,0,1,1,3,3,4,4],"right_children":[2,4,-1,6,8,-1,-1,-1,-1],"split_conditions":[1E0,1E0,-1.0198E0,1E0,1E0,1.7003573E-1,8.5460794E-1,-1.3314624E0,1.8655248E-1],"split_indices":[1665,1476,0,675,695,0,0,0,0],"split_type":[0,0,0,0,0,0,0,0,0],"sum_hessian":[6.194811E1,5.9862507E1,2.0856023E0,5.1567722E1,8.294783E0,4.4204453E1,7.3632708E0,3.3323545E0,4.9624276E0],"tree_param":{"num_deleted":"0","num_feature":"2048","num_nodes":"9","size_leaf_vector":"1"}},{"base_weights":[1.3549823E-2,-5.982335E-2,8.207336E-1,-2.2810142E-1,4.0196863E-1,-4.7798944E-1,1.15891695E-1,6.054002E-1,-0E0],"categories":[],"categories_nodes":[],"categories_segments":[],"categories_sizes":[],"default_left":[0,0,0,0,0,0,0,0,0],"id":17,"left_children":[1,3,-1,5,7,-1,-1,-1,-1],"loss_changes":[4.1771593E0,4.137927E0,0E0,4.5182066E0,1.6697984E0,0E0,0E0,0E0,0E0],"parents":[2147483647,0,0,1,1,3,3,4,4],"right_children":[2,4,-1,6,8,-1,-1,-1,-1],"split_conditions":[1E0,1E0,8.207336E-1,1E0,1E0,-4.7798944E-1,1.15891695E-1,6.054002E-1,-0E0],"split_indices":[441,1754,0,694,695,0,0,0,0],"split_type":[0,0,0,0,0,0,0,0,0],"sum_hessian":[5.8071056E1,5.352765E1,4.543406E0,3.9910706E1,1.3616941E1,2.2062775E1,1.7847933E1,8.373501E0,5.243441E0],"tree_param":{"num_deleted":"0","num_feature":"2048","num_nodes":"9","size_leaf_vector":"1"}},{"base_weights":[5.012181E-2,1.7064549E-1,-5.9711313E-1,3.0508587E-1,-3.725718E-1,-1.122132E0,2.0651561E-1,3.4929773E-1,-5.4515487E-1,1.4086064E-3,-1.0876216E0,-1.5237987E0,-9.270333E-2],"categories":[],"categories_nodes":[],"categories_segments":[],"categories_sizes":[],"default_left":[0,0,0,0,0,0,0,0,0,0,0,0,0],"id":18,"left_children":[1,3,5,7,9,11,-1,-1,-1,-1,-1,-1,-1],"loss_changes":[3.9821258E0,3.2999191E0,3.803541E0,2.781846E0,3.1159873E0,2.2801247E0,0E0,0E0,0E0,0E0,0E0,0E0,0E0],"parents":[2147483647,0,0,1,1,2,2,3,3,4,4,5,5],"right_children":[2,4,6,8,10,12,-1,-1,-1,-1,-1,-1,-1],"split_conditions":[1E0,1E0,1E0,1E0,1E0,1E0,2.0651561E-1,3.4929773E-1,-5.4515487E-1,1.4086064E-3,-1.0876216E0,-1.5237987E0,-9.270333E-2],"split_indices":[1573,1683,310,1257,1855,1917,0,0,0,0,0,0,0],"split_type":[0,0,0,0,0,0,0,0,0,0,0,0,0],"sum_hessian":[5.2487984E1,4.488511E1,7.602874E0,3.661345E1,8.271661E0,4.868409E0,2.734465E0,3.404623E1,2.5672188E0,5.5850782E0,2.6865828E0,2.7781262E0,2.090283E0],"tree_param":{"num_deleted":"0","num_feature":"2048","num_nodes":"13","size_leaf_vector":"1"}},{"base_weights":[1.3352976E-2,8.853337E-2,-8.3944136E-1,-1.19949E-1,4.1368875E-1,-4.9594934E-3,-1.1218283E0,4.7804227E-1,-1.4544214E-1],"categories":[],"categories_nodes":[],"categories_segments":[],"categories_sizes":[],"default_left":[0,0,0,0,0,0,0,0,0],"id":19,"left_children":[1,3,-1,5,7,-1,-1,-1,-1],"loss_changes":[3.396622E0,3.4140325E0,0E0,3.2914941E0,1.4980087E0,0E0,0E0,0E0,0E0],"parents":[2147483647,0,0,1,1,3,3,4,4],"right_children":[2,4,-1,6,8,-1,-1,-1,-1],"split_conditions":[1E0,1E0,-8.3944136E-1,1E0,1E0,-4.9594934E-3,-1.1218283E0,4.7804227E-1,-1.4544214E-1],"split_indices":[1564,926,0,589,2009,0,0,0,0],"split_type":[0,0,0,0,0,0,0,0,0],"sum_hessian":[5.1546825E1,4.8327774E1,3.21905E0,2.8851603E1,1.9476173E1,2.672013E1,2.1314714E0,1.6709827E1,2.7663455E0],"tree_param":{"num_deleted":"0","num_feature":"2048","num_nodes":"9","size_leaf_vector":"1"}},{"base_weights":[-7.123359E-2,-1.4437094E-1,8.599761E-1,-2.1615554E-1,7.371432E-1,-1.2168311E0,-1.15919694E-1],"categories":[],"categories_nodes":[],"categories_segments":[],"categories_sizes":[],"default_left":[0,0,0,0,0,0,0],"id":20,"left_children":[1,3,-1,5,-1,-1,-1],"loss_changes":[3.5022378E0,3.0987434E0,0E0,3.8348973E0,0E0,0E0,0E0],"parents":[2147483647,0,0,1,1,3,3],"right_children":[2,4,-1,6,-1,-1,-1],"split_conditions":[1E0,1E0,8.599761E-1,1E0,7.371432E-1,-1.2168311E0,-1.15919694E-1],"split_indices":[960,392,0,1750,0,0,0],"split_type":[0,0,0,0,0,0,0],"sum_hessian":[4.9869766E1,4.709352E1,2.776245E0,4.436823E1,2.7252927E0,2.5992332E0,4.1768993E1],"tree_param":{"num_deleted":"0","num_feature":"2048","num_nodes":"7","size_leaf_vector":"1"}},{"base_weights":[1.3038579E-1,2.1237671E-1,-9.9522525E-1,1.2022999E-1,9.1595215E-1,-1.3578561E-1,3.000888E-1],"categories":[],"categories_nodes":[],"categories_segments":[],"categories_sizes":[],"default_left":[0,0,0,0,0,0,0],"id":21,"left_children":[1,3,-1,5,-1,-1,-1],"loss_changes":[5.2978015E0,3.410728E0,0E0,2.8223734E0,0E0,0E0,0E0],"parents":[2147483647,0,0,1,1,3,3],"right_children":[2,4,-1,6,-1,-1,-1],"split_conditions":[1E0,1E0,-9.9522525E-1,1E0,9.1595215E-1,-1.3578561E-1,3.000888E-1],"split_indices":[1089,548,0,695,0,0,0],"split_type":[0,0,0,0,0,0,0],"sum_hessian":[5.4643524E1,5.1722546E1,2.9209783E0,4.7088192E1,4.634351E0,2.0012209E1,2.7075985E1],"tree_param":{"num_deleted":"0","num_feature":"2048","num_nodes":"7","size_leaf_vector":"1"}},{"base_weights":[-4.3922033E-2,-1.6246748E-1,5.364573E-1,-2.4732839E-1,4.5584336E-1,7.536685E-1,-0E0,5.0987E-1,-3.064404E-1],"categories":[],"categories_nodes":[],"categories_segments":[],"categories_sizes":[],"default_left":[0,0,0,0,0,0,0,0,0],"id":22,"left_children":[1,3,5,7,-1,-1,-1,-1,-1],"loss_changes":[3.241414E0,2.2788804E0,9.674556E-1,2.8030937E0,0E0,0E0,0E0,0E0,0E0],"parents":[2147483647,0,0,1,1,2,2,3,3],"right_children":[2,4,6,8,-1,-1,-1,-1,-1],"split_conditions":[1E0,1E0,1E0,1E0,4.5584336E-1,7.536685E-1,-0E0,5.0987E-1,-3.064404E-1],"split_indices":[896,1236,650,1873,0,0,0,0,0],"split_type":[0,0,0,0,0,0,0,0,0],"sum_hessian":[4.8550793E1,4.0994427E1,7.556365E0,3.7012695E1,3.9817302E0,4.323107E0,3.2332582E0,3.274551E0,3.3738144E1],"tree_param":{"num_deleted":"0","num_feature":"2048","num_nodes":"9","size_leaf_vector":"1"}},{"base_weights":[9.6552916E-2,3.7677875E-1,-1.0242973E-1,2.1406709E-1,9.694047E-1,-3.0214128E-1,5.774207E-1,6.113134E-2,8.6752254E-1,-3.781564E-1,5.052357E-1,-1.0617674E-2,8.61666E-1],"categories":[],"categories_nodes":[],"categories_segments":[],"categories_sizes":[],"default_left":[0,0,0,0,0,0,0,0,0,0,0,0,0],"id":23,"left_children":[1,3,5,7,-1,9,11,-1,-1,-1,-1,-1,-1],"loss_changes":[2.9770012E0,1.9949E0,3.945218E0,1.656802E0,0E0,2.399891E0,1.780294E0,0E0,0E0,0E0,0E0,0E0,0E0],"parents":[2147483647,0,0,1,1,2,2,3,3,5,5,6,6],"right_children":[2,4,6,8,-1,10,12,-1,-1,-1,-1,-1,-1],"split_conditions":[1E0,1E0,1E0,1E0,9.694047E-1,1E0,1E0,6.113134E-2,8.6752254E-1,-3.781564E-1,5.052357E-1,-1.0617674E-2,8.61666E-1],"split_indices":[1057,838,1928,728,0,980,80,0,0,0,0,0,0],"split_type":[0,0,0,0,0,0,0,0,0,0,0,0,0],"sum_hessian":[5.114799E1,2.191567E1,2.9232323E1,1.8482462E1,3.4332085E0,2.3122486E1,6.109836E0,1.6113258E1,2.369204E0,2.082365E1,2.298836E0,2.1141465E0,3.9956896E0],"tree_param":{"num_deleted":"0","num_feature":"2048","num_nodes":"13","size_leaf_vector":"1"}},{"base_weights":[1.0011074E-1,2.5541715E-2,1.0443285E0,-4.0812977E-2,7.932182E-1,-3.6822057E-1,1.0822659E-1],"categories":[],"categories_nodes":[],"categories_segments":[],"categories_sizes":[],"default_left":[0,0,0,0,0,0,0],"id":24,"left_children":[1,3,-1,5,-1,-1,-1],"loss_changes":[3.5396426E0,3.0272977E0,0E0,2.7370713E0,0E0,0E0,0E0],"parents":[2147483647,0,0,1,1,3,3],"right_children":[2,4,-1,6,-1,-1,-1],"split_conditions":[1E0,1E0,1.0443285E0,1E0,7.932182E-1,-3.6822057E-1,1.0822659E-1],"split_indices":[987,432,0,807,0,0,0],"split_type":[0,0,0,0,0,0,0],"sum_hessian":[5.0100296E1,4.737693E1,2.7233667E0,4.3793167E1,3.5837603E0,1.3899605E1,2.9893564E1],"tree_param":{"num_deleted":"0","num_feature":"2048","num_nodes":"7","size_leaf_vector":"1"}},{"base_weights":[1.11129634E-1,3.7913408E-2,7.954867E-1,1.1003241E-1,-5.753874E-1,1.8665971E-1,-2.71241E-1],"categories":[],"categories_nodes":[],"categories_segments":[],"categories_sizes":[],"default_left":[0,0,0,0,0,0,0],"id":25,"left_children":[1,3,-1,5,-1,-1,-1],"loss_changes":[2.3807688E0,2.008568E0,0E0,1.6335212E0,0E0,0E0,0E0],"parents":[2147483647,0,0,1,1,3,3],"right_children":[2,4,-1,6,-1,-1,-1],"split_conditions":[1E0,1E0,7.954867E-1,1E0,-5.753874E-1,1.8665971E-1,-2.71241E-1],"split_indices":[1430,1114,0,31,0,0,0],"split_type":[0,0,0,0,0,0,0],"sum_hessian":[4.7942085E1,4.4473858E1,3.4682264E0,4.087978E1,3.5940804E0,3.3872807E1,7.006972E0],"tree_param":{"num_deleted":"0","num_feature":"2048","num_nodes":"7","size_leaf_vector":"1"}},{"base_weights":[1.02289736E-1,1.6453205E-1,-4.888889E-1,1.0536351E-1,8.082111E-1,9.138112E-3,4.6769422E-1],"categories":[],"categories_nodes":[],"categories_segments":[],"categories_sizes":[],"default_left":[0,0,0,0,0,0,0],"id":26,"left_children":[1,3,-1,5,-1,-1,-1],"loss_changes":[1.7880259E0,1.5146837E0,0E0,1.4382821E0,0E0,0E0,0E0],"parents":[2147483647,0,0,1,1,3,3],"right_children":[2,4,-1,6,-1,-1,-1],"split_conditions":[1E0,1E0,-4.888889E-1,1E0,8.082111E-1,9.138112E-3,4.6769422E-1],"split_indices":[140,638,0,249,0,0,0],"split_type":[0,0,0,0,0,0,0],"sum_hessian":[4.7137104E1,4.36869E1,3.4502048E0,4.116058E1,2.526322E0,3.4411E1,6.7495804E0],"tree_param":{"num_deleted":"0","num_feature":"2048","num_nodes":"7","size_leaf_vector":"1"}},{"base_weights":[-3.7542406E-2,1.3743031E-1,-3.351103E-1,2.5919247E-1,-7.16676E-1,-5.897762E-2,-1.1597972E0,3.52571E-1,-4.6864748E-1,3.883695E-1,-3.6999583E-1],"categories":[],"categories_nodes":[],"categories_segments":[],"categories_sizes":[],"default_left":[0,0,0,0,0,0,0,0,0,0,0],"id":27,"left_children":[1,3,5,7,-1,9,-1,-1,-1,-1,-1],"loss_changes":[2.4517577E0,3.042555E0,4.1470847E0,2.63269E0,0E0,2.509531E0,0E0,0E0,0E0,0E0,0E0],"parents":[2147483647,0,0,1,1,2,2,3,3,5,5],"right_children":[2,4,6,8,-1,10,-1,-1,-1,-1,-1],"split_conditions":[1E0,1E0,1E0,1E0,-7.16676E-1,1E0,-1.1597972E0,3.52571E-1,-4.6864748E-1,3.883695E-1,-3.6999583E-1],"split_indices":[1199,1070,1480,294,0,378,0,0,0,0,0],"split_type":[0,0,0,0,0,0,0,0,0,0,0],"sum_hessian":[4.5214233E1,2.777594E1,1.7438293E1,2.508427E1,2.691668E0,1.4033384E1,3.4049103E0,2.1943832E1,3.1404397E0,5.404104E0,8.62928E0],"tree_param":{"num_deleted":"0","num_feature":"2048","num_nodes":"11","size_leaf_vector":"1"}},{"base_weights":[3.6291305E-2,-7.0267886E-2,9.3288445E-1,-1.5539551E-1,5.0324404E-1,2.7357337E-1,1.2008294E0,-2.0104887E-1,5.563527E-1],"categories":[],"categories_nodes":[],"categories_segments":[],"categories_sizes":[],"default_left":[0,0,0,0,0,0,0,0,0],"id":28,"left_children":[1,3,5,7,-1,-1,-1,-1,-1],"loss_changes":[4.5121374E0,1.9610753E0,5.6590796E-1,1.738574E0,0E0,0E0,0E0,0E0,0E0],"parents":[2147483647,0,0,1,1,2,2,3,3],"right_children":[2,4,6,8,-1,-1,-1,-1,-1],"split_conditions":[1E0,1E0,1E0,1E0,5.0324404E-1,2.7357337E-1,1.2008294E0,-2.0104887E-1,5.563527E-1],"split_indices":[147,1535,1480,739,0,0,0,0,0],"split_type":[0,0,0,0,0,0,0,0,0],"sum_hessian":[4.3470547E1,3.86916E1,4.778943E0,3.47688E1,3.922802E0,2.3963487E0,2.3825946E0,3.2555393E1,2.2134092E0],"tree_param":{"num_deleted":"0","num_feature":"2048","num_nodes":"9","size_leaf_vector":"1"}},{"base_weights":[2.2734666E-2,-6.97527E-2,3.863471E-1,-1.2960744E-1,5.964174E-1,6.6817033E-1,-0E0,-1.7378479E-1,5.483937E-1,8.454996E-1,-0E0,3.6212975E-1,-3.2905293E-1],"categories":[],"categories_nodes":[],"categories_segments":[],"categories_sizes":[],"default_left":[0,0,0,0,0,0,0,0,0,0,0,0,0],"id":29,"left_children":[1,3,5,7,-1,9,11,-1,-1,-1,-1,-1,-1],"loss_changes":[1.6938816E0,1.4317131E0,1.1384943E0,1.502525E0,0E0,8.2601094E-1,7.0955837E-1,0E0,0E0,0E0,0E0,0E0,0E0],"parents":[2147483647,0,0,1,1,2,2,3,3,5,5,6,6],"right_children":[2,4,6,8,-1,10,12,-1,-1,-1,-1,-1,-1],"split_conditions":[1E0,1E0,1E0,1E0,5.964174E-1,1E0,1E0,-1.7378479E-1,5.483937E-1,8.454996E-1,-0E0,3.6212975E-1,-3.2905293E-1],"split_indices":[1754,2018,1917,441,0,2004,695,0,0,0,0,0,0],"split_type":[0,0,0,0,0,0,0,0,0,0,0,0,0],"sum_hessian":[4.644057E1,3.6375572E1,1.00650015E1,3.4286606E1,2.0889637E0,5.7480783E0,4.3169227E0,3.2198505E1,2.0881011E0,3.7113695E0,2.0367088E0,2.013428E0,2.303495E0],"tree_param":{"num_deleted":"0","num_feature":"2048","num_nodes":"13","size_leaf_vector":"1"}},{"base_weights":[-0E0,-1.3898739E-1,2.2613014E-1,-3.579924E-2,-5.9885263E-1,4.99354E-1,-1.4756072E-1,3.2121163E-2,-6.560856E-1,-0E0,8.8726795E-1,-6.538356E-1,4.094489E-1],"categories":[],"categories_nodes":[],"categories_segments":[],"categories_sizes":[],"default_left":[0,0,0,0,0,0,0,0,0,0,0,0,0],"id":30,"left_children":[1,3,5,7,-1,9,11,-1,-1,-1,-1,-1,-1],"loss_changes":[1.394975E0,1.2068665E0,1.8898537E0,1.4284582E0,0E0,2.761971E0,2.5696583E0,0E0,0E0,0E0,0E0,0E0,0E0],"parents":[2147483647,0,0,1,1,2,2,3,3,5,5,6,6],"right_children":[2,4,6,8,-1,10,12,-1,-1,-1,-1,-1,-1],"split_conditions":[1E0,1E0,1E0,1E0,-5.9885263E-1,1E0,1E0,3.2121163E-2,-6.560856E-1,-0E0,8.8726795E-1,-6.538356E-1,4.094489E-1],"split_indices":[926,561,389,1984,0,695,1152,0,0,0,0,0,0],"split_type":[0,0,0,0,0,0,0,0,0,0,0,0,0],"sum_hessian":[4.3618164E1,2.6812967E1,1.6805195E1,2.3233255E1,3.5797124E0,1.022955E1,6.5756454E0,2.0795782E1,2.4374733E0,4.9613533E0,5.2681966E0,3.63843E0,2.9372156E0],"tree_param":{"num_deleted":"0","num_feature":"2048","num_nodes":"13","size_leaf_vector":"1"}},{"base_weights":[2.1095486E-1,3.056612E-1,-3.8177735E-1,4.250388E-1,-1.1750588E-1,-0E0,-6.4182055E-1,4.704307E-1,-2.1948282E-1,-3.4451765E-1,2.411666E-1],"categories":[],"categories_nodes":[],"categories_segments":[],"categories_sizes":[],"default_left":[0,0,0,0,0,0,0,0,0,0,0],"id":31,"left_children":[1,3,5,7,9,-1,-1,-1,-1,-1,-1],"loss_changes":[2.2284038E0,1.8884289E0,7.6328105E-1,1.9715748E0,8.0537283E-1,0E0,0E0,0E0,0E0,0E0,0E0],"parents":[2147483647,0,0,1,1,2,2,3,3,4,4],"right_children":[2,4,6,8,10,-1,-1,-1,-1,-1,-1],"split_conditions":[1E0,1E0,1E0,1E0,1E0,-0E0,-6.4182055E-1,4.704307E-1,-2.1948282E-1,-3.4451765E-1,2.411666E-1],"split_indices":[745,1573,1057,1980,1582,0,0,0,0,0,0],"split_type":[0,0,0,0,0,0,0,0,0,0,0],"sum_hessian":[3.9424725E1,3.463525E1,4.789475E0,2.7694067E1,6.9411817E0,2.1011424E0,2.6883328E0,2.4678734E1,3.0153332E0,4.6780005E0,2.263181E0],"tree_param":{"num_deleted":"0","num_feature":"2048","num_nodes":"11","size_leaf_vector":"1"}},{"base_weights":[-1.1500903E-1,-4.441253E-2,-9.1207105E-1,-1.1360586E-1,3.3585677E-1,-1.4935447E-1,3.0397135E-1],"categories":[],"categories_nodes":[],"categories_segments":[],"categories_sizes":[],"default_left":[0,0,0,0,0,0,0],"id":32,"left_children":[1,3,-1,5,-1,-1,-1],"loss_changes":[2.0625591E0,9.7420716E-1,0E0,7.187743E-1,0E0,0E0,0E0],"parents":[2147483647,0,0,1,1,3,3],"right_children":[2,4,-1,6,-1,-1,-1],"split_conditions":[1E0,1E0,-9.1207105E-1,1E0,3.3585677E-1,-1.4935447E-1,3.0397135E-1],"split_indices":[1564,2004,0,202,0,0,0],"split_type":[0,0,0,0,0,0,0],"sum_hessian":[3.8566353E1,3.638454E1,2.1818137E0,3.213155E1,4.252988E0,2.9659397E1,2.4721537E0],"tree_param":{"num_deleted":"0","num_feature":"2048","num_nodes":"7","size_leaf_vector":"1"}},{"base_weights":[3.557169E-2,-0E0,5.7002693E-1,5.0831333E-2,-6.1542994E-1,-3.3990998E-2,4.6106276E-1],"categories":[],"categories_nodes":[],"categories_segments":[],"categories_sizes":[],"default_left":[0,0,0,0,0,0,0],"id":33,"left_children":[1,3,-1,5,-1,-1,-1],"loss_changes":[8.710676E-1,1.3237822E0,0E0,1.5599768E0,0E0,0E0,0E0],"parents":[2147483647,0,0,1,1,3,3],"right_children":[2,4,-1,6,-1,-1,-1],"split_conditions":[1E0,1E0,5.7002693E-1,1E0,-6.1542994E-1,-3.3990998E-2,4.6106276E-1],"split_indices":[1535,1274,0,1019,0,0,0],"split_type":[0,0,0,0,0,0,0],"sum_hessian":[3.7865425E1,3.5829548E1,2.0358772E0,3.344121E1,2.3883352E0,2.758079E1,5.8604226E0],"tree_param":{"num_deleted":"0","num_feature":"2048","num_nodes":"7","size_leaf_vector":"1"}},{"base_weights":[-3.9103817E-2,-1.04743935E-1,4.3372035E-1,-1.7743775E-1,3.7722668E-1,-9.683135E-2,-5.975991E-1],"categories":[],"categories_nodes":[],"categories_segments":[],"categories_sizes":[],"default_left":[0,0,0,0,0,0,0],"id":34,"left_children":[1,3,-1,5,-1,-1,-1],"loss_changes":[1.1605183E0,1.2341611E0,0E0,7.454729E-1,0E0,0E0,0E0],"parents":[2147483647,0,0,1,1,3,3],"right_children":[2,4,-1,6,-1,-1,-1],"split_conditions":[1E0,1E0,4.3372035E-1,1E0,3.7722668E-1,-9.683135E-2,-5.975991E-1],"split_indices":[13,548,0,1416,0,0,0],"split_type":[0,0,0,0,0,0,0],"sum_hessian":[3.7353218E1,3.398443E1,3.3687909E0,3.0610743E1,3.3736866E0,2.7709314E1,2.901428E0],"tree_param":{"num_deleted":"0","num_feature":"2048","num_nodes":"7","size_leaf_vector":"1"}},{"base_weights":[1.7504442E-2,3.1861177E-1,-1.3230921E-1,4.6976522E-1,-5.545678E-2,-2.8593108E-1,2.531194E-1,7.7270484E-1,-5.801832E-2,-5.9728295E-1,5.6860797E-2],"categories":[],"categories_nodes":[],"categories_segments":[],"categories_sizes":[],"default_left":[0,0,0,0,0,0,0,0,0,0,0],"id":35,"left_children":[1,3,5,7,-1,9,-1,-1,-1,-1,-1],"loss_changes":[1.6776639E0,8.859222E-1,1.4852128E0,2.3450122E0,0E0,2.5529613E0,0E0,0E0,0E0,0E0,0E0],"parents":[2147483647,0,0,1,1,2,2,3,3,5,5],"right_children":[2,4,6,8,-1,10,-1,-1,-1,-1,-1],"split_conditions":[1E0,1E0,1E0,1E0,-5.545678E-2,1E0,2.531194E-1,7.7270484E-1,-5.801832E-2,-5.9728295E-1,5.6860797E-2],"split_indices":[807,935,1060,1152,0,1152,0,0,0,0,0],"split_type":[0,0,0,0,0,0,0,0,0,0,0],"sum_hessian":[3.5179977E1,1.2413067E1,2.276691E1,9.535091E0,2.8779755E0,1.731084E1,5.4560695E0,5.8249636E0,3.710128E0,8.706424E0,8.604417E0],"tree_param":{"num_deleted":"0","num_feature":"2048","num_nodes":"11","size_leaf_vector":"1"}},{"base_weights":[1.5891685E-1,2.7943444E-1,-3.4082967E-1,3.4090692E-1,-1.8754937E-1,3.6755762E-1,-4.505636E-2],"categories":[],"categories_nodes":[],"categories_segments":[],"categories_sizes":[],"default_left":[0,0,0,0,0,0,0],"id":36,"left_children":[1,3,-1,5,-1,-1,-1],"loss_changes":[2.1754942E0,9.1409063E-1,0E0,8.241582E-1,0E0,0E0,0E0],"parents":[2147483647,0,0,1,1,3,3],"right_children":[2,4,-1,6,-1,-1,-1],"split_conditions":[1E0,1E0,-3.4082967E-1,1E0,-1.8754937E-1,3.6755762E-1,-4.505636E-2],"split_indices":[1476,1073,0,1019,0,0,0],"split_type":[0,0,0,0,0,0,0],"sum_hessian":[3.3458252E1,2.7994314E1,5.4639363E0,2.560182E1,2.3924947E0,2.2607946E1,2.9938738E0],"tree_param":{"num_deleted":"0","num_feature":"2048","num_nodes":"7","size_leaf_vector":"1"}},{"base_weights":[-9.8257326E-2,-1.8748042E-1,2.74039E-1,-2.2001144E-4,-4.2660695E-1,5.3949554E-2,-4.624361E-1],"categories":[],"categories_nodes":[],"categories_segments":[],"categories_sizes":[],"default_left":[0,0,0,0,0,0,0],"id":37,"left_children":[1,3,-1,5,-1,-1,-1],"loss_changes":[1.2294223E0,1.4132249E0,0E0,7.6122653E-1,0E0,0E0,0E0],"parents":[2147483647,0,0,1,1,3,3],"right_children":[2,4,-1,6,-1,-1,-1],"split_conditions":[1E0,1E0,2.74039E-1,1E0,-4.2660695E-1,5.3949554E-2,-4.624361E-1],"split_indices":[249,1199,0,715,0,0,0],"split_type":[0,0,0,0,0,0,0],"sum_hessian":[3.4740993E1,2.9304428E1,5.4365654E0,1.8664728E1,1.06397E1,1.626317E1,2.401559E0],"tree_param":{"num_deleted":"0","num_feature":"2048","num_nodes":"7","size_leaf_vector":"1"}},{"base_weights":[-2.7336225E-2,-1.5973161E-1,2.929081E-1,-3.5442144E-1,1.3684735E-1,-5.0590605E-1,3.075825E-1,-6.9691897E-3,5.142752E-1],"categories":[],"categories_nodes":[],"categories_segments":[],"categories_sizes":[],"default_left":[0,0,0,0,0,0,0,0,0],"id":38,"left_children":[1,3,-1,5,7,-1,-1,-1,-1],"loss_changes":[1.5919546E0,1.6194758E0,0E0,2.5650837E0,8.330223E-1,0E0,0E0,0E0,0E0],"parents":[2147483647,0,0,1,1,3,3,4,4],"right_children":[2,4,-1,6,8,-1,-1,-1,-1],"split_conditions":[1E0,1E0,2.929081E-1,1E0,1E0,-5.0590605E-1,3.075825E-1,-6.9691897E-3,5.142752E-1],"split_indices":[1171,2033,0,816,1088,0,0,0,0],"split_type":[0,0,0,0,0,0,0,0,0],"sum_hessian":[3.4831684E1,2.6194078E1,8.637605E0,1.653542E1,9.65866E0,1.3174303E1,3.3611155E0,6.7978635E0,2.8607965E0],"tree_param":{"num_deleted":"0","num_feature":"2048","num_nodes":"9","size_leaf_vector":"1"}},{"base_weights":[4.5359854E-2,1.3429195E-1,-3.6042538E-1,1.7102879E-2,4.0079412E-1,-4.0774405E-2,3.4277055E-1,5.623422E-1,-0E0],"categories":[],"categories_nodes":[],"categories_segments":[],"categories_sizes":[],"default_left":[0,0,0,0,0,0,0,0,0],"id":39,"left_children":[1,3,-1,5,7,-1,-1,-1,-1],"loss_changes":[1.2052088E0,7.1796393E-1,0E0,5.982826E-1,8.1914365E-1,0E0,0E0,0E0,0E0],"parents":[2147483647,0,0,1,1,3,3,4,4],"right_children":[2,4,-1,6,8,-1,-1,-1,-1],"split_conditions":[1E0,1E0,-3.6042538E-1,1E0,1E0,-4.0774405E-2,3.4277055E-1,5.623422E-1,-0E0],"split_indices":[2041,1602,0,314,835,0,0,0,0],"split_type":[0,0,0,0,0,0,0,0,0],"sum_hessian":[3.2257584E1,2.773354E1,4.5240436E0,2.0410889E1,7.322651E0,1.6744781E1,3.666108E0,4.9525666E0,2.370084E0],"tree_param":{"num_deleted":"0","num_feature":"2048","num_nodes":"9","size_leaf_vector":"1"}},{"base_weights":[3.8659364E-2,-1.0901538E-2,3.3724847E-1,-1.3631749E-1,1.9058463E-1,-0E0,-3.0236408E-1,-0E0,5.3342825E-1],"categories":[],"categories_nodes":[],"categories_segments":[],"categories_sizes":[],"default_left":[0,0,0,0,0,0,0,0,0],"id":40,"left_children":[1,3,-1,5,7,-1,-1,-1,-1],"loss_changes":[6.8903047E-1,6.996025E-1,0E0,6.0231245E-1,5.675633E-1,0E0,0E0,0E0,0E0],"parents":[2147483647,0,0,1,1,3,3,4,4],"right_children":[2,4,-1,6,8,-1,-1,-1,-1],"split_conditions":[1E0,1E0,3.3724847E-1,1E0,1E0,-0E0,-3.0236408E-1,-0E0,5.3342825E-1],"split_indices":[350,2033,0,650,1452,0,0,0,0],"split_type":[0,0,0,0,0,0,0,0,0],"sum_hessian":[3.294404E1,2.7969433E1,4.9746046E0,1.8418522E1,9.55091E0,1.0276966E1,8.141557E0,7.178255E0,2.3726544E0],"tree_param":{"num_deleted":"0","num_feature":"2048","num_nodes":"9","size_leaf_vector":"1"}},{"base_weights":[1.2517913E-1,1.7747073E-1,-3.3971637E-1,2.8968394E-1,-0E0,4.354774E-1,3.1741906E-2,-2.0454387E-1,3.602847E-1],"categories":[],"categories_nodes":[],"categories_segments":[],"categories_sizes":[],"default_left":[0,0,0,0,0,0,0,0,0],"id":41,"left_children":[1,3,-1,5,7,-1,-1,-1,-1],"loss_changes":[7.759487E-1,6.061032E-1,0E0,7.1030307E-1,1.0579448E0,0E0,0E0,0E0,0E0],"parents":[2147483647,0,0,1,1,3,3,4,4],"right_children":[2,4,-1,6,8,-1,-1,-1,-1],"split_conditions":[1E0,1E0,-3.3971637E-1,1E0,1E0,4.354774E-1,3.1741906E-2,-2.0454387E-1,3.602847E-1],"split_indices":[502,378,0,80,695,0,0,0,0],"split_type":[0,0,0,0,0,0,0,0,0],"sum_hessian":[3.1420609E1,2.9273998E1,2.1466107E0,1.8053057E1,1.1220941E1,9.275622E0,8.777435E0,7.3262596E0,3.8946805E0],"tree_param":{"num_deleted":"0","num_feature":"2048","num_nodes":"9","size_leaf_vector":"1"}},{"base_weights":[-9.5545046E-2,-3.892566E-2,-5.5344146E-1,-0E0,-4.5328373E-1],"categories":[],"categories_nodes":[],"categories_segments":[],"categories_sizes":[],"default_left":[0,0,0,0,0],"id":42,"left_children":[1,3,-1,-1,-1],"loss_changes":[7.158071E-1,5.5292284E-1,0E0,0E0,0E0],"parents":[2147483647,0,0,1,1],"right_children":[2,4,-1,-1,-1],"split_conditions":[1E0,1E0,-5.5344146E-1,-0E0,-4.5328373E-1],"split_indices":[315,1245,0,0,0],"split_type":[0,0,0,0,0],"sum_hessian":[3.2472015E1,3.016733E1,2.304685E0,2.8061798E1,2.1055322E0],"tree_param":{"num_deleted":"0","num_feature":"2048","num_nodes":"5","size_leaf_vector":"1"}},{"base_weights":[-2.2826397E-3,-1.2961788E-1,3.696891E-1,-2.687765E-1,8.978557E-2,1.6934376E-2,6.876473E-1,-3.3583298E-1,3.808711E-2,2.9563668E-1,-1.590198E-1],"categories":[],"categories_nodes":[],"categories_segments":[],"categories_sizes":[],"default_left":[0,0,0,0,0,0,0,0,0,0,0],"id":43,"left_children":[1,3,5,7,9,-1,-1,-1,-1,-1,-1],"loss_changes":[1.4120662E0,8.1529176E-1,7.248E-1,6.4732563E-1,6.1919534E-1,0E0,0E0,0E0,0E0,0E0,0E0],"parents":[2147483647,0,0,1,1,2,2,3,3,4,4],"right_children":[2,4,6,8,10,-1,-1,-1,-1,-1,-1],"split_conditions":[1E0,1E0,1E0,1E0,1E0,1.6934376E-2,6.876473E-1,-3.3583298E-1,3.808711E-2,2.9563668E-1,-1.590198E-1],"split_indices":[1097,1152,1582,1452,695,0,0,0,0,0,0],"split_type":[0,0,0,0,0,0,0,0,0,0,0],"sum_hessian":[3.117892E1,2.4088896E1,7.090025E0,1.5735171E1,8.3537245E0,4.389806E0,2.700219E0,1.2621825E1,3.113346E0,5.104262E0,3.2494628E0],"tree_param":{"num_deleted":"0","num_feature":"2048","num_nodes":"11","size_leaf_vector":"1"}},{"base_weights":[8.399133E-2,2.046514E-2,6.5601337E-1,7.951295E-2,-3.463513E-1,1.4934205E-1,-1.8380739E-1],"categories":[],"categories_nodes":[],"categories_segments":[],"categories_sizes":[],"default_left":[0,0,0,0,0,0,0],"id":44,"left_children":[1,3,-1,5,-1,-1,-1],"loss_changes":[1.0997176E0,6.474834E-1,0E0,6.934504E-1,0E0,0E0,0E0],"parents":[2147483647,0,0,1,1,3,3],"right_children":[2,4,-1,6,-1,-1,-1],"split_conditions":[1E0,1E0,6.5601337E-1,1E0,-3.463513E-1,1.4934205E-1,-1.8380739E-1],"split_indices":[173,1722,0,1416,0,0,0],"split_type":[0,0,0,0,0,0,0],"sum_hessian":[3.3404343E1,3.1168583E1,2.2357616E0,2.817919E1,2.989392E0,2.2670187E1,5.5090027E0],"tree_param":{"num_deleted":"0","num_feature":"2048","num_nodes":"7","size_leaf_vector":"1"}},{"base_weights":[3.965186E-2,-0E0,5.4936403E-1,4.4023126E-2,-3.7940094E-1,-4.6515584E-2,2.3621735E-1],"categories":[],"categories_nodes":[],"categories_segments":[],"categories_sizes":[],"default_left":[0,0,0,0,0,0,0],"id":45,"left_children":[1,3,-1,5,-1,-1,-1],"loss_changes":[8.45227E-1,6.33879E-1,0E0,6.446401E-1,0E0,0E0,0E0],"parents":[2147483647,0,0,1,1,3,3],"right_children":[2,4,-1,6,-1,-1,-1],"split_conditions":[1E0,1E0,5.4936403E-1,1E0,-3.7940094E-1,-4.6515584E-2,2.3621735E-1],"split_indices":[342,878,0,1602,0,0,0],"split_type":[0,0,0,0,0,0,0],"sum_hessian":[3.1808569E1,2.9660807E1,2.1477623E0,2.6645021E1,3.0157843E0,1.7490461E1,9.154561E0],"tree_param":{"num_deleted":"0","num_feature":"2048","num_nodes":"7","size_leaf_vector":"1"}},{"base_weights":[-3.9834145E-2,-9.239913E-2,3.782261E-1,-1.8077412E-1,2.974617E-1,-2.513787E-1,1.7266989E-1],"categories":[],"categories_nodes":[],"categories_segments":[],"categories_sizes":[],"default_left":[0,0,0,0,0,0,0],"id":46,"left_children":[1,3,-1,5,-1,-1,-1],"loss_changes":[5.809051E-1,9.544544E-1,0E0,8.8907415E-1,0E0,0E0,0E0],"parents":[2147483647,0,0,1,1,3,3],"right_children":[2,4,-1,6,-1,-1,-1],"split_conditions":[1E0,1E0,3.782261E-1,1E0,2.974617E-1,-2.513787E-1,1.7266989E-1],"split_indices":[1391,294,0,896,0,0,0],"split_type":[0,0,0,0,0,0,0],"sum_hessian":[2.8350409E1,2.6345701E1,2.0047073E0,2.2635624E1,3.7100773E0,1.8725235E1,3.9103892E0],"tree_param":{"num_deleted":"0","num_feature":"2048","num_nodes":"7","size_leaf_vector":"1"}},{"base_weights":[3.1236302E-2],"categories":[],"categories_nodes":[],"categories_segments":[],"categories_sizes":[],"default_left":[0],"id":47,"left_children":[-1],"loss_changes":[0E0],"parents":[2147483647],"right_children":[-1],"split_conditions":[2.80834E-2],"split_indices":[0],"split_type":[0],"sum_hessian":[3.0995024E1],"tree_param":{"num_deleted":"0","num_feature":"2048","num_nodes":"1","size_leaf_vector":"1"}},{"base_weights":[-0E0,6.439084E-2,-2.6439857E-1],"categories":[],"categories_nodes":[],"categories_segments":[],"categories_sizes":[],"default_left":[0,0,0],"id":48,"left_children":[1,-1,-1],"loss_changes":[5.869249E-1,0E0,0E0],"parents":[2147483647,0,0],"right_children":[2,-1,-1],"split_conditions":[1E0,6.439084E-2,-2.6439857E-1],"split_indices":[1476,0,0],"split_type":[0,0,0],"sum_hessian":[3.0333542E1,2.5314367E1,5.019175E0],"tree_param":{"num_deleted":"0","num_feature":"2048","num_nodes":"3","size_leaf_vector":"1"}},{"base_weights":[-5.810066E-2,-1.6794538E-1,1.5582494E-1,-2.3632854E-1,3.646866E-1,3.6934954E-1,-9.868808E-2],"categories":[],"categories_nodes":[],"categories_segments":[],"categories_sizes":[],"default_left":[0,0,0,0,0,0,0],"id":49,"left_children":[1,3,5,-1,-1,-1,-1],"loss_changes":[6.9236255E-1,1.0856571E0,7.202413E-1,0E0,0E0,0E0,0E0],"parents":[2147483647,0,0,1,1,2,2],"right_children":[2,4,6,-1,-1,-1,-1],"split_conditions":[1E0,1E0,1E0,-2.3632854E-1,3.646866E-1,3.6934954E-1,-9.868808E-2],"split_indices":[25,162,1536,0,0,0,0],"split_type":[0,0,0,0,0,0,0],"sum_hessian":[2.874297E1,2.0167507E1,8.575461E0,1.797305E1,2.1944582E0,5.0143094E0,3.561152E0],"tree_param":{"num_deleted":"0","num_feature":"2048","num_nodes":"7","size_leaf_vector":"1"}},{"base_weights":[1.8819816E-1,2.2875619E-1,-4.306273E-1],"categories":[],"categories_nodes":[],"categories_segments":[],"categories_sizes":[],"default_left":[0,0,0],"id":50,"left_children":[1,-1,-1],"loss_changes":[1.3186157E0,0E0,0E0],"parents":[2147483647,0,0],"right_children":[2,-1,-1],"split_conditions":[1E0,2.2875619E-1,-4.306273E-1],"split_indices":[1257,0,0],"split_type":[0,0,0],"sum_hessian":[3.077002E1,2.8635653E1,2.1343675E0],"tree_param":{"num_deleted":"0","num_feature":"2048","num_nodes":"3","size_leaf_vector":"1"}},{"base_weights":[-5.929582E-2,-1.3077812E-1,3.714261E-1,-2.046504E-1,4.4407812E-1,-3.3356068E-1,1.8753326E-2],"categories":[],"categories_nodes":[],"categories_segments":[],"categories_sizes":[],"default_left":[0,0,0,0,0,0,0],"id":51,"left_children":[1,3,-1,5,-1,-1,-1],"loss_changes":[8.966801E-1,1.1306713E0,0E0,1.0388762E0,0E0,0E0,0E0],"parents":[2147483647,0,0,1,1,3,3],"right_children":[2,4,-1,6,-1,-1,-1],"split_conditions":[1E0,1E0,3.714261E-1,1E0,4.4407812E-1,-3.3356068E-1,1.8753326E-2],"split_indices":[816,1631,0,694,0,0,0],"split_type":[0,0,0,0,0,0,0],"sum_hessian":[2.8987335E1,2.6014233E1,2.973102E0,2.3942835E1,2.0713978E0,1.4627496E1,9.31534E0],"tree_param":{"num_deleted":"0","num_feature":"2048","num_nodes":"7","size_leaf_vector":"1"}},{"base_weights":[-0E0],"categories":[],"categories_nodes":[],"categories_segments":[],"categories_sizes":[],"default_left":[0],"id":52,"left_children":[-1],"loss_changes":[0E0],"parents":[2147483647],"right_children":[-1],"split_conditions":[-0E0],"split_indices":[0],"split_type":[0],"sum_hessian":[2.6489738E1],"tree_param":{"num_deleted":"0","num_feature":"2048","num_nodes":"1","size_leaf_vector":"1"}},{"base_weights":[4.234973E-2,1.8303403E-1,-3.347756E-1,2.5755402E-1,-2.9055777E-1,-5.55393E-1,1.5017883E-1],"categories":[],"categories_nodes":[],"categories_segments":[],"categories_sizes":[],"default_left":[0,0,0,0,0,0,0],"id":53,"left_children":[1,3,5,-1,-1,-1,-1],"loss_changes":[1.5647681E0,1.2094346E0,1.2710572E0,0E0,0E0,0E0,0E0],"parents":[2147483647,0,0,1,1,2,2],"right_children":[2,4,6,-1,-1,-1,-1],"split_conditions":[1E0,1E0,1E0,2.5755402E-1,-2.9055777E-1,-5.55393E-1,1.5017883E-1],"split_indices":[1607,1722,389,0,0,0,0],"split_type":[0,0,0,0,0,0,0],"sum_hessian":[3.0008112E1,2.2662346E1,7.3457665E0,1.95135E1,3.1488464E0,5.130516E0,2.2152505E0],"tree_param":{"num_deleted":"0","num_feature":"2048","num_nodes":"7","size_leaf_vector":"1"}},{"base_weights":[3.906187E-2,1.3530166E-1,-3.615367E-1,2.0832145E-1,-3.2362193E-1,2.6602468E-1,-2.6933268E-1],"categories":[],"categories_nodes":[],"categories_segments":[],"categories_sizes":[],"default_left":[0,0,0,0,0,0,0],"id":54,"left_children":[1,3,-1,5,-1,-1,-1],"loss_changes":[1.1214907E0,8.3794534E-1,0E0,9.948301E-1,0E0,0E0,0E0],"parents":[2147483647,0,0,1,1,3,3],"right_children":[2,4,-1,6,-1,-1,-1],"split_conditions":[1E0,1E0,-3.615367E-1,1E0,-3.2362193E-1,2.6602468E-1,-2.6933268E-1],"split_indices":[1970,715,0,1039,0,0,0],"split_type":[0,0,0,0,0,0,0],"sum_hessian":[2.8160683E1,2.3947737E1,4.212946E0,2.164711E1,2.3006277E0,1.9173111E1,2.4739995E0],"tree_param":{"num_deleted":"0","num_feature":"2048","num_nodes":"7","size_leaf_vector":"1"}},{"base_weights":[4.7934476E-2,7.108012E-1,-2.3326397E-2,-1.1979837E-1,3.33123E-1,-1.745243E-1,3.435631E-1],"categories":[],"categories_nodes":[],"categories_segments":[],"categories_sizes":[],"default_left":[0,0,0,0,0,0,0],"id":55,"left_children":[1,-1,3,5,-1,-1,-1],"loss_changes":[1.8204054E0,0E0,9.1447645E-1,7.697608E-1,0E0,0E0,0E0],"parents":[2147483647,0,0,2,2,3,3],"right_children":[2,-1,4,6,-1,-1,-1],"split_conditions":[1E0,7.108012E-1,1E0,1E0,3.33123E-1,-1.745243E-1,3.435631E-1],"split_indices":[1750,0,249,667,0,0,0],"split_type":[0,0,0,0,0,0,0],"sum_hessian":[2.8705414E1,2.7450187E0,2.5960396E1,2.1745975E1,4.21442E0,1.9716232E1,2.0297432E0],"tree_param":{"num_deleted":"0","num_feature":"2048","num_nodes":"7","size_leaf_vector":"1"}},{"base_weights":[-3.3414327E-2,-1.7927125E-1,1.7544325E-1,-2.9029292E-1,1.8924578E-1,-0E0,6.180109E-1,-5.17402E-1,8.124096E-2],"categories":[],"categories_nodes":[],"categories_segments":[],"categories_sizes":[],"default_left":[0,0,0,0,0,0,0,0,0],"id":56,"left_children":[1,3,5,7,-1,-1,-1,-1,-1],"loss_changes":[8.9288336E-1,8.3422387E-1,7.617358E-1,1.825119E0,0E0,0E0,0E0,0E0,0E0],"parents":[2147483647,0,0,1,1,2,2,3,3],"right_children":[2,4,6,8,-1,-1,-1,-1,-1],"split_conditions":[1E0,1E0,1E0,1E0,1.8924578E-1,-0E0,6.180109E-1,-5.17402E-1,8.124096E-2],"split_indices":[1602,1039,1160,935,0,0,0,0,0],"split_type":[0,0,0,0,0,0,0,0,0],"sum_hessian":[2.8753534E1,1.799211E1,1.0761426E1,1.4790529E1,3.2015793E0,8.682966E0,2.078459E0,8.936549E0,5.8539796E0],"tree_param":{"num_deleted":"0","num_feature":"2048","num_nodes":"9","size_leaf_vector":"1"}},{"base_weights":[4.8479915E-2,2.7066955E-1,-7.920681E-2,4.5987898E-1,-0E0,-0E0,-5.787941E-1,6.176449E-1,-0E0],"categories":[],"categories_nodes":[],"categories_segments":[],"categories_sizes":[],"default_left":[0,0,0,0,0,0,0,0,0],"id":57,"left_children":[1,3,5,7,-1,-1,-1,-1,-1],"loss_changes":[9.342555E-1,6.675483E-1,9.4777507E-1,8.044125E-1,0E0,0E0,0E0,0E0,0E0],"parents":[2147483647,0,0,1,1,2,2,3,3],"right_children":[2,4,6,8,-1,-1,-1,-1,-1],"split_conditions":[1E0,1E0,1E0,1E0,-0E0,-0E0,-5.787941E-1,6.176449E-1,-0E0],"split_indices":[650,1057,1357,875,0,0,0,0,0],"split_type":[0,0,0,0,0,0,0,0,0],"sum_hessian":[2.9997766E1,1.1900397E1,1.8097368E1,7.1147933E0,4.7856035E0,1.5783786E1,2.3135831E0,4.754153E0,2.3606403E0],"tree_param":{"num_deleted":"0","num_feature":"2048","num_nodes":"9","size_leaf_vector":"1"}},{"base_weights":[-6.5217465E-3,-1.02733396E-1,5.5939144E-1,-0E0,-5.1732534E-1,-0E0,-8.603738E-1],"categories":[],"categories_nodes":[],"categories_segments":[],"categories_sizes":[],"default_left":[0,0,0,0,0,0,0],"id":58,"left_children":[1,3,-1,-1,5,-1,-1],"loss_changes":[1.5841862E0,1.051875E0,0E0,0E0,9.363378E-1,0E0,0E0],"parents":[2147483647,0,0,1,1,4,4],"right_children":[2,4,-1,-1,6,-1,-1],"split_conditions":[1E0,1E0,5.5939144E-1,-0E0,1E0,-0E0,-8.603738E-1],"split_indices":[1816,1060,0,0,389,0,0],"split_type":[0,0,0,0,0,0,0],"sum_hessian":[2.8843954E1,2.570729E1,3.1366637E0,2.1004208E1,4.7030826E0,2.4838915E0,2.2191913E0],"tree_param":{"num_deleted":"0","num_feature":"2048","num_nodes":"7","size_leaf_vector":"1"}},{"base_weights":[2.8536377E-2,-2.1527247E-1,1.9200821E-1],"categories":[],"categories_nodes":[],"categories_segments":[],"categories_sizes":[],"default_left":[0,0,0],"id":59,"left_children":[1,-1,-1],"loss_changes":[1.382709E0,0E0,0E0],"parents":[2147483647,0,0],"right_children":[2,-1,-1],"split_conditions":[1E0,-2.1527247E-1,1.9200821E-1],"split_indices":[650,0,0],"split_type":[0,0,0],"sum_hessian":[2.7569324E1,1.0415339E1,1.7153984E1],"tree_param":{"num_deleted":"0","num_feature":"2048","num_nodes":"3","size_leaf_vector":"1"}},{"base_weights":[7.825971E-2,1.7949589E-1,-2.9453E-1,2.7905524E-1,-2.1779624E-1,-7.108918E-1,7.7352464E-2,3.1445774E-1,-7.0321664E-2],"categories":[],"categories_nodes":[],"categories_segments":[],"categories_sizes":[],"default_left":[0,0,0,0,0,0,0,0,0],"id":60,"left_children":[1,3,5,7,-1,-1,-1,-1,-1],"loss_changes":[1.1076404E0,1.064521E0,1.3629153E0,6.312289E-1,0E0,0E0,0E0,0E0,0E0],"parents":[2147483647,0,0,1,1,2,2,3,3],"right_children":[2,4,6,8,-1,-1,-1,-1,-1],"split_conditions":[1E0,1E0,1E0,1E0,-2.1779624E-1,-7.108918E-1,7.7352464E-2,3.1445774E-1,-7.0321664E-2],"split_indices":[1683,935,1088,314,0,0,0,0,0],"split_type":[0,0,0,0,0,0,0,0,0],"sum_hessian":[2.987223E1,2.4373821E1,5.49841E0,2.049588E1,3.8779407E0,2.6904266E0,2.8079839E0,1.7976913E1,2.518967E0],"tree_param":{"num_deleted":"0","num_feature":"2048","num_nodes":"9","size_leaf_vector":"1"}},{"base_weights":[-2.7243372E-2,-2.1065578E-1,2.5004065E-1,-5.326099E-1,-0E0,4.1365463E-1,-0E0,-7.3955935E-1,-5.2151676E-2],"categories":[],"categories_nodes":[],"categories_segments":[],"categories_sizes":[],"default_left":[0,0,0,0,0,0,0,0,0],"id":61,"left_children":[1,3,5,7,-1,-1,-1,-1,-1],"loss_changes":[1.4387137E0,1.3972564E0,7.0327634E-1,7.2784805E-1,0E0,0E0,0E0,0E0,0E0],"parents":[2147483647,0,0,1,1,2,2,3,3],"right_children":[2,4,6,8,-1,-1,-1,-1,-1],"split_conditions":[1E0,1E0,1E0,1E0,-0E0,4.1365463E-1,-0E0,-7.3955935E-1,-5.2151676E-2],"split_indices":[926,1057,389,1199,0,0,0,0,0],"split_type":[0,0,0,0,0,0,0,0,0],"sum_hessian":[2.8064169E1,1.7729055E1,1.0335114E1,7.4872437E0,1.0241811E1,6.1977515E0,4.137362E0,4.050418E0,3.4368258E0],"tree_param":{"num_deleted":"0","num_feature":"2048","num_nodes":"9","size_leaf_vector":"1"}},{"base_weights":[-4.850688E-2,-1.1880167E-1,4.9769643E-1,-4.116296E-2,-5.387498E-1,1.6621968E-2,-3.44612E-1],"categories":[],"categories_nodes":[],"categories_segments":[],"categories_sizes":[],"default_left":[0,0,0,0,0,0,0],"id":62,"left_children":[1,3,-1,5,-1,-1,-1],"loss_changes":[1.0024443E0,6.9031394E-1,0E0,5.949458E-1,0E0,0E0,0E0],"parents":[2147483647,0,0,1,1,3,3],"right_children":[2,4,-1,6,-1,-1,-1],"split_conditions":[1E0,1E0,4.9769643E-1,1E0,-5.387498E-1,1.6621968E-2,-3.44612E-1],"split_indices":[630,1066,0,322,0,0,0],"split_type":[0,0,0,0,0,0,0],"sum_hessian":[2.6837584E1,2.4761372E1,2.076211E0,2.2212828E1,2.548544E0,1.8198238E1,4.01459E0],"tree_param":{"num_deleted":"0","num_feature":"2048","num_nodes":"7","size_leaf_vector":"1"}},{"base_weights":[9.563383E-2,1.6077548E-1,-2.424972E-1,1.989959E-1,-2.369102E-1],"categories":[],"categories_nodes":[],"categories_segments":[],"categories_sizes":[],"default_left":[0,0,0,0,0],"id":63,"left_children":[1,3,-1,-1,-1],"loss_changes":[6.469934E-1,6.448551E-1,0E0,0E0,0E0],"parents":[2147483647,0,0,1,1],"right_children":[2,4,-1,-1,-1],"split_conditions":[1E0,1E0,-2.424972E-1,1.989959E-1,-2.369102E-1],"split_indices":[249,1070,0,0,0],"split_type":[0,0,0,0,0],"sum_hessian":[2.816659E1,2.48815E1,3.2850897E0,2.2640213E1,2.2412884E0],"tree_param":{"num_deleted":"0","num_feature":"2048","num_nodes":"5","size_leaf_vector":"1"}},{"base_weights":[-6.8796836E-2,-1.5297493E-1,3.3001804E-1,-0E0,-3.2857084E-1],"categories":[],"categories_nodes":[],"categories_segments":[],"categories_sizes":[],"default_left":[0,0,0,0,0],"id":64,"left_children":[1,3,-1,-1,-1],"loss_changes":[9.552321E-1,6.7575735E-1,0E0,0E0,0E0],"parents":[2147483647,0,0,1,1],"right_children":[2,4,-1,-1,-1],"split_conditions":[1E0,1E0,3.3001804E-1,-0E0,-3.2857084E-1],"split_indices":[216,1917,0,0,0],"split_type":[0,0,0,0,0],"sum_hessian":[2.7554379E1,2.3940792E1,3.6135862E0,1.4893562E1,9.04723E0],"tree_param":{"num_deleted":"0","num_feature":"2048","num_nodes":"5","size_leaf_vector":"1"}},{"base_weights":[1.4188863E-1,1.7290556E-1,-2.3049216E-1],"categories":[],"categories_nodes":[],"categories_segments":[],"categories_sizes":[],"default_left":[0,0,0],"id":65,"left_children":[1,-1,-1],"loss_changes":[5.6044954E-1,0E0,0E0],"parents":[2147483647,0,0],"right_children":[2,-1,-1],"split_conditions":[1E0,1.7290556E-1,-2.3049216E-1],"split_indices":[255,0,0],"split_type":[0,0,0],"sum_hessian":[2.8216038E1,2.5982927E1,2.2331114E0],"tree_param":{"num_deleted":"0","num_feature":"2048","num_nodes":"3","size_leaf_vector":"1"}},{"base_weights":[-3.529926E-2,-1.378965E-1,5.1210946E-1,-6.6394305E-1,-4.6914827E-2],"categories":[],"categories_nodes":[],"categories_segments":[],"categories_sizes":[],"default_left":[0,0,0,0,0],"id":66,"left_children":[1,3,-1,-1,-1],"loss_changes":[1.5325065E0,9.2156994E-1,0E0,0E0,0E0],"parents":[2147483647,0,0,1,1],"right_children":[2,4,-1,-1,-1],"split_conditions":[1E0,1E0,5.1210946E-1,-6.6394305E-1,-4.6914827E-2],"split_indices":[548,1750,0,0,0],"split_type":[0,0,0,0,0],"sum_hessian":[2.66932E1,2.3509905E1,3.1832943E0,2.159466E0,2.135044E1],"tree_param":{"num_deleted":"0","num_feature":"2048","num_nodes":"5","size_leaf_vector":"1"}},{"base_weights":[-5.516452E-2,5.9190564E-2,-2.966131E-1],"categories":[],"categories_nodes":[],"categories_segments":[],"categories_sizes":[],"default_left":[0,0,0],"id":67,"left_children":[1,-1,-1],"loss_changes":[1.0592959E0,0E0,0E0],"parents":[2147483647,0,0],"right_children":[2,-1,-1],"split_conditions":[1E0,5.9190564E-2,-2.966131E-1],"split_indices":[1199,0,0],"split_type":[0,0,0],"sum_hessian":[2.8515501E1,1.8996378E1,9.519122E0],"tree_param":{"num_deleted":"0","num_feature":"2048","num_nodes":"3","size_leaf_vector":"1"}},{"base_weights":[1.4544791E-1,2.1958807E-1,-1.8695036E-1,3.3614427E-1,-0E0,3.855513E-1,-7.480686E-3],"categories":[],"categories_nodes":[],"categories_segments":[],"categories_sizes":[],"default_left":[0,0,0,0,0,0,0],"id":68,"left_children":[1,3,-1,5,-1,-1,-1],"loss_changes":[7.449811E-1,6.754347E-1,0E0,6.7393255E-1,0E0,0E0,0E0],"parents":[2147483647,0,0,1,1,3,3],"right_children":[2,4,-1,6,-1,-1,-1],"split_conditions":[1E0,1E0,-1.8695036E-1,1E0,-0E0,3.855513E-1,-7.480686E-3],"split_indices":[745,1855,0,1257,0,0,0],"split_type":[0,0,0,0,0,0,0],"sum_hessian":[2.758156E1,2.3740696E1,3.8408642E0,1.5964943E1,7.7757525E0,1.3376018E1,2.5889256E0],"tree_param":{"num_deleted":"0","num_feature":"2048","num_nodes":"7","size_leaf_vector":"1"}},{"base_weights":[-9.86647E-2,-2.0976485E-1,4.571829E-2],"categories":[],"categories_nodes":[],"categories_segments":[],"categories_sizes":[],"default_left":[0,0,0],"id":69,"left_children":[1,-1,-1],"loss_changes":[6.4883834E-1,0E0,0E0],"parents":[2147483647,0,0],"right_children":[2,-1,-1],"split_conditions":[1E0,-2.0976485E-1,4.571829E-2],"split_indices":[1088,0,0],"split_type":[0,0,0],"sum_hessian":[2.8483204E1,1.6211983E1,1.2271221E1],"tree_param":{"num_deleted":"0","num_feature":"2048","num_nodes":"3","size_leaf_vector":"1"}},{"base_weights":[-4.7794376E-2],"categories":[],"categories_nodes":[],"categories_segments":[],"categories_sizes":[],"default_left":[0],"id":70,"left_children":[-1],"loss_changes":[0E0],"parents":[2147483647],"right_children":[-1],"split_conditions":[-4.297015E-2],"split_indices":[0],"split_type":[0],"sum_hessian":[2.6060614E1],"tree_param":{"num_deleted":"0","num_feature":"2048","num_nodes":"1","size_leaf_vector":"1"}},{"base_weights":[1.06162794E-1,2.6165456E-2,5.786404E-1,-2.722628E-2,3.1563023E-1],"categories":[],"categories_nodes":[],"categories_segments":[],"categories_sizes":[],"default_left":[0,0,0,0,0],"id":71,"left_children":[1,3,-1,-1,-1],"loss_changes":[9.129376E-1,5.692576E-1,0E0,0E0,0E0],"parents":[2147483647,0,0,1,1],"right_children":[2,4,-1,-1,-1],"split_conditions":[1E0,1E0,5.786404E-1,-2.722628E-2,3.1563023E-1],"split_indices":[1028,1452,0,0,0],"split_type":[0,0,0,0,0],"sum_hessian":[2.6833591E1,2.4184097E1,2.6494954E0,1.9829966E1,4.3541307E0],"tree_param":{"num_deleted":"0","num_feature":"2048","num_nodes":"5","size_leaf_vector":"1"}},{"base_weights":[-3.4144334E-2,-9.064049E-2,5.1971304E-1],"categories":[],"categories_nodes":[],"categories_segments":[],"categories_sizes":[],"default_left":[0,0,0],"id":72,"left_children":[1,-1,-1],"loss_changes":[1.0151519E0,0E0,0E0],"parents":[2147483647,0,0],"right_children":[2,-1,-1],"split_conditions":[1E0,-9.064049E-2,5.1971304E-1],"split_indices":[2004,0,0],"split_type":[0,0,0],"sum_hessian":[2.8578594E1,2.6504887E1,2.0737064E0],"tree_param":{"num_deleted":"0","num_feature":"2048","num_nodes":"3","size_leaf_vector":"1"}},{"base_weights":[3.3377524E-2],"categories":[],"categories_nodes":[],"categories_segments":[],"categories_sizes":[],"default_left":[0],"id":73,"left_children":[-1],"loss_changes":[0E0],"parents":[2147483647],"right_children":[-1],"split_conditions":[3.0008495E-2],"split_indices":[0],"split_type":[0],"sum_hessian":[2.9026442E1],"tree_param":{"num_deleted":"0","num_feature":"2048","num_nodes":"1","size_leaf_vector":"1"}},{"base_weights":[-0E0,-7.2099835E-2,2.649867E-1],"categories":[],"categories_nodes":[],"categories_segments":[],"categories_sizes":[],"default_left":[0,0,0],"id":74,"left_children":[1,-1,-1],"loss_changes":[5.98698E-1,0E0,0E0],"parents":[2147483647,0,0],"right_children":[2,-1,-1],"split_conditions":[1E0,-7.2099835E-2,2.649867E-1],"split_indices":[2041,0,0],"split_type":[0,0,0],"sum_hessian":[2.6959799E1,2.1963488E1,4.996312E0],"tree_param":{"num_deleted":"0","num_feature":"2048","num_nodes":"3","size_leaf_vector":"1"}},{"base_weights":[-0E0],"categories":[],"categories_nodes":[],"categories_segments":[],"categories_sizes":[],"default_left":[0],"id":75,"left_children":[-1],"loss_changes":[0E0],"parents":[2147483647],"right_children":[-1],"split_conditions":[-0E0],"split_indices":[0],"split_type":[0],"sum_hessian":[2.5890654E1],"tree_param":{"num_deleted":"0","num_feature":"2048","num_nodes":"1","size_leaf_vector":"1"}},{"base_weights":[-5.027965E-2,-1.1265701E-1,4.8329228E-1],"categories":[],"categories_nodes":[],"categories_segments":[],"categories_sizes":[],"default_left":[0,0,0],"id":76,"left_children":[1,-1,-1],"loss_changes":[9.816645E-1,0E0,0E0],"parents":[2147483647,0,0],"right_children":[2,-1,-1],"split_conditions":[1E0,-1.1265701E-1,4.8329228E-1],"split_indices":[947,0,0],"split_type":[0,0,0],"sum_hessian":[2.5075977E1,2.2969955E1,2.1060221E0],"tree_param":{"num_deleted":"0","num_feature":"2048","num_nodes":"3","size_leaf_vector":"1"}},{"base_weights":[-4.613952E-3,7.256313E-2,-4.370124E-1,1.7139758E-1,-3.8289332E-1],"categories":[],"categories_nodes":[],"categories_segments":[],"categories_sizes":[],"default_left":[0,0,0,0,0],"id":77,"left_children":[1,3,-1,-1,-1],"loss_changes":[1.0533538E0,1.1248829E0,0E0,0E0,0E0],"parents":[2147483647,0,0,1,1],"right_children":[2,4,-1,-1,-1],"split_conditions":[1E0,1E0,-4.370124E-1,1.7139758E-1,-3.8289332E-1],"split_indices":[1357,1683,0,0,0],"split_type":[0,0,0,0,0],"sum_hessian":[2.3749716E1,1.9991407E1,3.7583084E0,1.6886852E1,3.1045558E0],"tree_param":{"num_deleted":"0","num_feature":"2048","num_nodes":"5","size_leaf_vector":"1"}},{"base_weights":[1.1136414E-1,2.2389764E-1,-7.807391E-2,-0E0,4.046758E-1,1.21202745E-1,-3.8062054E-1],"categories":[],"categories_nodes":[],"categories_segments":[],"categories_sizes":[],"default_left":[0,0,0,0,0,0,0],"id":78,"left_children":[1,3,-1,5,-1,-1,-1],"loss_changes":[6.6746306E-1,9.881117E-1,0E0,5.8037126E-1,0E0,0E0,0E0],"parents":[2147483647,0,0,1,1,3,3],"right_children":[2,4,-1,6,-1,-1,-1],"split_conditions":[1E0,1E0,-7.807391E-2,1E0,4.046758E-1,1.21202745E-1,-3.8062054E-1],"split_indices":[694,875,0,1060,0,0,0],"split_type":[0,0,0,0,0,0,0],"sum_hessian":[2.7186245E1,1.8508257E1,8.67799E0,9.24032E0,9.267937E0,6.987099E0,2.2532208E0],"tree_param":{"num_deleted":"0","num_feature":"2048","num_nodes":"7","size_leaf_vector":"1"}},{"base_weights":[9.316828E-2],"categories":[],"categories_nodes":[],"categories_segments":[],"categories_sizes":[],"default_left":[0],"id":79,"left_children":[-1],"loss_changes":[0E0],"parents":[2147483647],"right_children":[-1],"split_conditions":[8.376415E-2],"split_indices":[0],"split_type":[0],"sum_hessian":[2.6153086E1],"tree_param":{"num_deleted":"0","num_feature":"2048","num_nodes":"1","size_leaf_vector":"1"}},{"base_weights":[-9.9367246E-2,-2.0040521E-1,3.0001506E-1],"categories":[],"categories_nodes":[],"categories_segments":[],"categories_sizes":[],"default_left":[0,0,0],"id":80,"left_children":[1,-1,-1],"loss_changes":[1.2555388E0,0E0,0E0],"parents":[2147483647,0,0],"right_children":[2,-1,-1],"split_conditions":[1E0,-2.0040521E-1,3.0001506E-1],"split_indices":[561,0,0],"split_type":[0,0,0],"sum_hessian":[2.3632822E1,1.9145702E1,4.487119E0],"tree_param":{"num_deleted":"0","num_feature":"2048","num_nodes":"3","size_leaf_vector":"1"}},{"base_weights":[-5.5424627E-3],"categories":[],"categories_nodes":[],"categories_segments":[],"categories_sizes":[],"default_left":[0],"id":81,"left_children":[-1],"loss_changes":[0E0],"parents":[2147483647],"right_children":[-1],"split_conditions":[-4.983023E-3],"split_indices":[0],"split_type":[0],"sum_hessian":[2.6842684E1],"tree_param":{"num_deleted":"0","num_feature":"2048","num_nodes":"1","size_leaf_vector":"1"}},{"base_weights":[1.2522739E-1,3.2663918E-1,-6.599605E-3,3.8187485E-2,-4.4570708E-1],"categories":[],"categories_nodes":[],"categories_segments":[],"categories_sizes":[],"default_left":[0,0,0,0,0],"id":82,"left_children":[1,-1,3,-1,-1],"loss_changes":[9.979589E-1,0E0,5.807297E-1,0E0,0E0],"parents":[2147483647,0,0,2,2],"right_children":[2,-1,4,-1,-1],"split_conditions":[1E0,3.2663918E-1,1E0,3.8187485E-2,-4.4570708E-1],"split_indices":[875,0,699,0,0],"split_type":[0,0,0,0,0],"sum_hessian":[2.7329742E1,1.0580766E1,1.6748978E1,1.47441025E1,2.0048754E0],"tree_param":{"num_deleted":"0","num_feature":"2048","num_nodes":"5","size_leaf_vector":"1"}},{"base_weights":[-6.659548E-2],"categories":[],"categories_nodes":[],"categories_segments":[],"categories_sizes":[],"default_left":[0],"id":83,"left_children":[-1],"loss_changes":[0E0],"parents":[2147483647],"right_children":[-1],"split_conditions":[-5.987353E-2],"split_indices":[0],"split_type":[0],"sum_hessian":[2.5108507E1],"tree_param":{"num_deleted":"0","num_feature":"2048","num_nodes":"1","size_leaf_vector":"1"}},{"base_weights":[-6.1529027E-3],"categories":[],"categories_nodes":[],"categories_segments":[],"categories_sizes":[],"default_left":[0],"id":84,"left_children":[-1],"loss_changes":[0E0],"parents":[2147483647],"right_children":[-1],"split_conditions":[-5.5318465E-3],"split_indices":[0],"split_type":[0],"sum_hessian":[2.5895195E1],"tree_param":{"num_deleted":"0","num_feature":"2048","num_nodes":"1","size_leaf_vector":"1"}},{"base_weights":[-0E0],"categories":[],"categories_nodes":[],"categories_segments":[],"categories_sizes":[],"default_left":[0],"id":85,"left_children":[-1],"loss_changes":[0E0],"parents":[2147483647],"right_children":[-1],"split_conditions":[-0E0],"split_indices":[0],"split_type":[0],"sum_hessian":[2.3623178E1],"tree_param":{"num_deleted":"0","num_feature":"2048","num_nodes":"1","size_leaf_vector":"1"}},{"base_weights":[-2.2334134E-2],"categories":[],"categories_nodes":[],"categories_segments":[],"categories_sizes":[],"default_left":[0],"id":86,"left_children":[-1],"loss_changes":[0E0],"parents":[2147483647],"right_children":[-1],"split_conditions":[-2.0079792E-2],"split_indices":[0],"split_type":[0],"sum_hessian":[2.4605522E1],"tree_param":{"num_deleted":"0","num_feature":"2048","num_nodes":"1","size_leaf_vector":"1"}},{"base_weights":[-2.2840902E-2,3.1483248E-2,-3.4899294E-1],"categories":[],"categories_nodes":[],"categories_segments":[],"categories_sizes":[],"default_left":[0,0,0],"id":87,"left_children":[1,-1,-1],"loss_changes":[6.5313154E-1,0E0,0E0],"parents":[2147483647,0,0],"right_children":[2,-1,-1],"split_conditions":[1E0,3.1483248E-2,-3.4899294E-1],"split_indices":[1416,0,0],"split_type":[0,0,0],"sum_hessian":[2.4317358E1,2.0316101E1,4.0012574E0],"tree_param":{"num_deleted":"0","num_feature":"2048","num_nodes":"3","size_leaf_vector":"1"}},{"base_weights":[2.7435865E-2,-1.1057482E-1,3.346371E-1,-3.7222517E-1,6.3151303E-3,-0E0,5.129081E-1,2.1841511E-1,-1.7801131E-1],"categories":[],"categories_nodes":[],"categories_segments":[],"categories_sizes":[],"default_left":[0,0,0,0,0,0,0,0,0],"id":88,"left_children":[1,3,5,-1,7,-1,-1,-1,-1],"loss_changes":[1.124952E0,7.24739E-1,6.8509686E-1,0E0,5.624982E-1,0E0,0E0,0E0,0E0],"parents":[2147483647,0,0,1,1,2,2,4,4],"right_children":[2,4,6,-1,8,-1,-1,-1,-1],"split_conditions":[1E0,1E0,1E0,-3.7222517E-1,1E0,-0E0,5.129081E-1,2.1841511E-1,-1.7801131E-1],"split_indices":[926,875,1019,0,694,0,0,0,0],"split_type":[0,0,0,0,0,0,0,0,0],"sum_hessian":[2.411225E1,1.5919221E1,8.193028E0,5.1280127E0,1.0791208E1,3.4336812E0,4.759347E0,5.81566E0,4.9755483E0],"tree_param":{"num_deleted":"0","num_feature":"2048","num_nodes":"9","size_leaf_vector":"1"}},{"base_weights":[-4.0434364E-2,5.3708446E-3,-5.2775866E-1],"categories":[],"categories_nodes":[],"categories_segments":[],"categories_sizes":[],"default_left":[0,0,0],"id":89,"left_children":[1,-1,-1],"loss_changes":[8.3932066E-1,0E0,0E0],"parents":[2147483647,0,0],"right_children":[2,-1,-1],"split_conditions":[1E0,5.3708446E-3,-5.2775866E-1],"split_indices":[1325,0,0],"split_type":[0,0,0],"sum_hessian":[2.4345219E1,2.2046064E1,2.2991536E0],"tree_param":{"num_deleted":"0","num_feature":"2048","num_nodes":"3","size_leaf_vector":"1"}},{"base_weights":[-0E0,-1.07233666E-1,3.6893925E-1,-2.586151E-1,7.204455E-2],"categories":[],"categories_nodes":[],"categories_segments":[],"categories_sizes":[],"default_left":[0,0,0,0,0],"id":90,"left_children":[1,3,-1,-1,-1],"loss_changes":[1.215515E0,7.8292906E-1,0E0,0E0,0E0],"parents":[2147483647,0,0,1,1],"right_children":[2,4,-1,-1,-1],"split_conditions":[1E0,1E0,3.6893925E-1,-2.586151E-1,7.204455E-2],"split_indices":[1573,1917,0,0,0],"split_type":[0,0,0,0,0],"sum_hessian":[2.6024124E1,2.0472004E1,5.5521207E0,1.1364975E1,9.107029E0],"tree_param":{"num_deleted":"0","num_feature":"2048","num_nodes":"5","size_leaf_vector":"1"}},{"base_weights":[6.752048E-2,2.3174714E-1,-1.6216269E-1,2.966234E-1,-6.934178E-2,-5.8329856E-1,5.0900117E-2],"categories":[],"categories_nodes":[],"categories_segments":[],"categories_sizes":[],"default_left":[0,0,0,0,0,0,0],"id":91,"left_children":[1,3,5,-1,-1,-1,-1],"loss_changes":[9.6447504E-1,5.6693584E-1,1.2373719E0,0E0,0E0,0E0,0E0],"parents":[2147483647,0,0,1,1,2,2],"right_children":[2,4,6,-1,-1,-1,-1],"split_conditions":[1E0,1E0,1E0,2.966234E-1,-6.934178E-2,-5.8329856E-1,5.0900117E-2],"split_indices":[1917,1452,1057,0,0,0,0],"split_type":[0,0,0,0,0,0,0],"sum_hessian":[2.4386995E1,1.5155768E1,9.231227E0,1.2394438E1,2.7613306E0,3.2334676E0,5.99776E0],"tree_param":{"num_deleted":"0","num_feature":"2048","num_nodes":"7","size_leaf_vector":"1"}},{"base_weights":[-0E0,6.1615188E-2,-5.3032035E-1,-0E0,4.6769577E-1],"categories":[],"categories_nodes":[],"categories_segments":[],"categories_sizes":[],"default_left":[0,0,0,0,0],"id":92,"left_children":[1,3,-1,-1,-1],"loss_changes":[8.943623E-1,6.814654E-1,0E0,0E0,0E0],"parents":[2147483647,0,0,1,1],"right_children":[2,4,-1,-1,-1],"split_conditions":[1E0,1E0,-5.3032035E-1,-0E0,4.6769577E-1],"split_indices":[881,1325,0,0,0],"split_type":[0,0,0,0,0],"sum_hessian":[2.4779068E1,2.2710125E1,2.0689442E0,2.0120777E1,2.589348E0],"tree_param":{"num_deleted":"0","num_feature":"2048","num_nodes":"5","size_leaf_vector":"1"}},{"base_weights":[8.694434E-2],"categories":[],"categories_nodes":[],"categories_segments":[],"categories_sizes":[],"default_left":[0],"id":93,"left_children":[-1],"loss_changes":[0E0],"parents":[2147483647],"right_children":[-1],"split_conditions":[7.816844E-2],"split_indices":[0],"split_type":[0],"sum_hessian":[2.6660866E1],"tree_param":{"num_deleted":"0","num_feature":"2048","num_nodes":"1","size_leaf_vector":"1"}},{"base_weights":[-1.6339433E-1,-2.440716E-1,5.9425217E-1],"categories":[],"categories_nodes":[],"categories_segments":[],"categories_sizes":[],"default_left":[0,0,0],"id":94,"left_children":[1,-1,-1],"loss_changes":[2.0306706E0,0E0,0E0],"parents":[2147483647,0,0],"right_children":[2,-1,-1],"split_conditions":[1E0,-2.440716E-1,5.9425217E-1],"split_indices":[1163,0,0],"split_type":[0,0,0],"sum_hessian":[2.3649506E1,2.1453135E1,2.1963723E0],"tree_param":{"num_deleted":"0","num_feature":"2048","num_nodes":"3","size_leaf_vector":"1"}},{"base_weights":[5.482259E-2,1.3718773E-1,-2.7279934E-1,1.985163E-1,-3.0439025E-1],"categories":[],"categories_nodes":[],"categories_segments":[],"categories_sizes":[],"default_left":[0,0,0,0,0],"id":95,"left_children":[1,3,-1,-1,-1],"loss_changes":[6.5088236E-1,7.847862E-1,0E0,0E0,0E0],"parents":[2147483647,0,0,1,1],"right_children":[2,4,-1,-1,-1],"split_conditions":[1E0,1E0,-2.7279934E-1,1.985163E-1,-3.0439025E-1],"split_indices":[1160,1325,0,0,0],"split_type":[0,0,0,0,0],"sum_hessian":[2.353353E1,2.0098299E1,3.4352305E0,1.7868462E1,2.229837E0],"tree_param":{"num_deleted":"0","num_feature":"2048","num_nodes":"5","size_leaf_vector":"1"}},{"base_weights":[7.933172E-2],"categories":[],"categories_nodes":[],"categories_segments":[],"categories_sizes":[],"default_left":[0],"id":96,"left_children":[-1],"loss_changes":[0E0],"parents":[2147483647],"right_children":[-1],"split_conditions":[7.132421E-2],"split_indices":[0],"split_type":[0],"sum_hessian":[2.669618E1],"tree_param":{"num_deleted":"0","num_feature":"2048","num_nodes":"1","size_leaf_vector":"1"}},{"base_weights":[-4.0794637E-2],"categories":[],"categories_nodes":[],"categories_segments":[],"categories_sizes":[],"default_left":[0],"id":97,"left_children":[-1],"loss_changes":[0E0],"parents":[2147483647],"right_children":[-1],"split_conditions":[-3.6676947E-2],"split_indices":[0],"split_type":[0],"sum_hessian":[2.3623714E1],"tree_param":{"num_deleted":"0","num_feature":"2048","num_nodes":"1","size_leaf_vector":"1"}},{"base_weights":[1.4925461E-2,-2.437908E-2,4.0528464E-1],"categories":[],"categories_nodes":[],"categories_segments":[],"categories_sizes":[],"default_left":[0,0,0],"id":98,"left_children":[1,-1,-1],"loss_changes":[5.9228593E-1,0E0,0E0],"parents":[2147483647,0,0],"right_children":[2,-1,-1],"split_conditions":[1E0,-2.437908E-2,4.0528464E-1],"split_indices":[548,0,0],"split_type":[0,0,0],"sum_hessian":[2.3366941E1,2.0753384E1,2.6135576E0],"tree_param":{"num_deleted":"0","num_feature":"2048","num_nodes":"3","size_leaf_vector":"1"}},{"base_weights":[3.1792875E-2],"categories":[],"categories_nodes":[],"categories_segments":[],"categories_sizes":[],"default_left":[0],"id":99,"left_children":[-1],"loss_changes":[0E0],"parents":[2147483647],"right_children":[-1],"split_conditions":[2.8583795E-2],"split_indices":[0],"split_type":[0],"sum_hessian":[2.4123383E1],"tree_param":{"num_deleted":"0","num_feature":"2048","num_nodes":"1","size_leaf_vector":"1"}},{"base_weights":[-5.872532E-3],"categories":[],"categories_nodes":[],"categories_segments":[],"categories_sizes":[],"default_left":[0],"id":100,"left_children":[-1],"loss_changes":[0E0],"parents":[2147483647],"right_children":[-1],"split_conditions":[-5.2797757E-3],"split_indices":[0],"split_type":[0],"sum_hessian":[2.3736717E1],"tree_param":{"num_deleted":"0","num_feature":"2048","num_nodes":"1","size_leaf_vector":"1"}},{"base_weights":[4.1134752E-2,1.3701038E-1,-3.6761543E-1],"categories":[],"categories_nodes":[],"categories_segments":[],"categories_sizes":[],"default_left":[0,0,0],"id":101,"left_children":[1,-1,-1],"loss_changes":[1.1009539E0,0E0,0E0],"parents":[2147483647,0,0],"right_children":[2,-1,-1],"split_conditions":[1E0,1.3701038E-1,-3.6761543E-1],"split_indices":[1573,0,0],"split_type":[0,0,0],"sum_hessian":[2.3317167E1,1.9486168E1,3.8309999E0],"tree_param":{"num_deleted":"0","num_feature":"2048","num_nodes":"3","size_leaf_vector":"1"}},{"base_weights":[-1.8203941E-1],"categories":[],"categories_nodes":[],"categories_segments":[],"categories_sizes":[],"default_left":[0],"id":102,"left_children":[-1],"loss_changes":[0E0],"parents":[2147483647],"right_children":[-1],"split_conditions":[-1.6366489E-1],"split_indices":[0],"split_type":[0],"sum_hessian":[2.3605764E1],"tree_param":{"num_deleted":"0","num_feature":"2048","num_nodes":"1","size_leaf_vector":"1"}},{"base_weights":[8.273651E-2],"categories":[],"categories_nodes":[],"categories_segments":[],"categories_sizes":[],"default_left":[0],"id":103,"left_children":[-1],"loss_changes":[0E0],"parents":[2147483647],"right_children":[-1],"split_conditions":[7.438533E-2],"split_indices":[0],"split_type":[0],"sum_hessian":[2.6175991E1],"tree_param":{"num_deleted":"0","num_feature":"2048","num_nodes":"1","size_leaf_vector":"1"}},{"base_weights":[-2.935297E-2],"categories":[],"categories_nodes":[],"categories_segments":[],"categories_sizes":[],"default_left":[0],"id":104,"left_children":[-1],"loss_changes":[0E0],"parents":[2147483647],"right_children":[-1],"split_conditions":[-2.6390167E-2],"split_indices":[0],"split_type":[0],"sum_hessian":[2.4080082E1],"tree_param":{"num_deleted":"0","num_feature":"2048","num_nodes":"1","size_leaf_vector":"1"}},{"base_weights":[-0E0,-6.289204E-2,5.3055745E-1],"categories":[],"categories_nodes":[],"categories_segments":[],"categories_sizes":[],"default_left":[0,0,0],"id":105,"left_children":[1,-1,-1],"loss_changes":[1.007544E0,0E0,0E0],"parents":[2147483647,0,0],"right_children":[2,-1,-1],"split_conditions":[1E0,-6.289204E-2,5.3055745E-1],"split_indices":[1816,0,0],"split_type":[0,0,0],"sum_hessian":[2.4678596E1,2.2354042E1,2.3245535E0],"tree_param":{"num_deleted":"0","num_feature":"2048","num_nodes":"3","size_leaf_vector":"1"}},{"base_weights":[1.5178362E-1,2.9205091E-2,4.2413986E-1,-5.9718464E-2,3.5249138E-1],"categories":[],"categories_nodes":[],"categories_segments":[],"categories_sizes":[],"default_left":[0,0,0,0,0],"id":106,"left_children":[1,3,-1,-1,-1],"loss_changes":[8.047543E-1,8.003124E-1,0E0,0E0,0E0],"parents":[2147483647,0,0,1,1],"right_children":[2,4,-1,-1,-1],"split_conditions":[1E0,1E0,4.2413986E-1,-5.9718464E-2,3.5249138E-1],"split_indices":[1171,1475,0,0,0],"split_type":[0,0,0,0,0],"sum_hessian":[2.5071262E1,1.9159407E1,5.911856E0,1.4520228E1,4.639179E0],"tree_param":{"num_deleted":"0","num_feature":"2048","num_nodes":"5","size_leaf_vector":"1"}},{"base_weights":[-6.93345E-2],"categories":[],"categories_nodes":[],"categories_segments":[],"categories_sizes":[],"default_left":[0],"id":107,"left_children":[-1],"loss_changes":[0E0],"parents":[2147483647],"right_children":[-1],"split_conditions":[-6.233608E-2],"split_indices":[0],"split_type":[0],"sum_hessian":[2.5567549E1],"tree_param":{"num_deleted":"0","num_feature":"2048","num_nodes":"1","size_leaf_vector":"1"}},{"base_weights":[5.862983E-2,-0E0,3.578515E-1],"categories":[],"categories_nodes":[],"categories_segments":[],"categories_sizes":[],"default_left":[0,0,0],"id":108,"left_children":[1,-1,-1],"loss_changes":[5.7211107E-1,0E0,0E0],"parents":[2147483647,0,0],"right_children":[2,-1,-1],"split_conditions":[1E0,-0E0,3.578515E-1],"split_indices":[896,0,0],"split_type":[0,0,0],"sum_hessian":[2.4975657E1,2.1068087E1,3.90757E0],"tree_param":{"num_deleted":"0","num_feature":"2048","num_nodes":"3","size_leaf_vector":"1"}},{"base_weights":[-1.3509563E-1],"categories":[],"categories_nodes":[],"categories_segments":[],"categories_sizes":[],"default_left":[0],"id":109,"left_children":[-1],"loss_changes":[0E0],"parents":[2147483647],"right_children":[-1],"split_conditions":[-1.2145947E-1],"split_indices":[0],"split_type":[0],"sum_hessian":[2.4083458E1],"tree_param":{"num_deleted":"0","num_feature":"2048","num_nodes":"1","size_leaf_vector":"1"}}]},"name":"gbtree"},"learner_model_param":{"base_score":"5E-1","boost_from_average":"0","num_class":"0","num_feature":"2048","num_target":"1"},"objective":{"name":"binary:logistic","reg_loss_param":{"scale_pos_weight":"2.6572032"}}},"version":[2,0,3]}