{"learner":{"attributes":{"best_iteration":"927","best_score":"0.03889613101491642","scikit_learn":"{\"_estimator_type\": \"classifier\"}"},"feature_names":[],"feature_types":[],"gradient_booster":{"model":{"gbtree_model_param":{"num_parallel_tree":"1","num_trees":"928"},"iteration_indptr":[0,1,2,3,4,5,6,7,8,9,10,11,12,13,14,15,16,17,18,19,20,21,22,23,24,25,26,27,28,29,30,31,32,33,34,35,36,37,38,39,40,41,42,43,44,45,46,47,48,49,50,51,52,53,54,55,56,57,58,59,60,61,62,63,64,65,66,67,68,69,70,71,72,73,74,75,76,77,78,79,80,81,82,83,84,85,86,87,88,89,90,91,92,93,94,95,96,97,98,99,100,101,102,103,104,105,106,107,108,109,110,111,112,113,114,115,116,117,118,119,120,121,122,123,124,125,126,127,128,129,130,131,132,133,134,135,136,137,138,139,140,141,142,143,144,145,146,147,148,149,150,151,152,153,154,155,156,157,158,159,160,161,162,163,164,165,166,167,168,169,170,171,172,173,174,175,176,177,178,179,180,181,182,183,184,185,186,187,188,189,190,191,192,193,194,195,196,197,198,199,200,201,202,203,204,205,206,207,208,209,210,211,212,213,214,215,216,217,218,219,220,221,222,223,224,225,226,227,228,229,230,231,232,233,234,235,236,237,238,239,240,241,242,243,244,245,246,247,248,249,250,251,252,253,254,255,256,257,258,259,260,261,262,263,264,265,266,267,268,269,270,271,272,273,274,275,276,277,278,279,280,281,282,283,284,285,286,287,288,289,290,291,292,293,294,295,296,297,298,299,300,301,302,303,304,305,306,307,308,309,310,311,312,313,314,315,316,317,318,319,320,321,322,323,324,325,326,327,328,329,330,331,332,333,334,335,336,337,338,339,340,341,342,343,344,345,346,347,348,349,350,351,352,353,354,355,356,357,358,359,360,361,362,363,364,365,366,367,368,369,370,371,372,373,374,375,376,377,378,379,380,381,382,383,384,385,386,387,388,389,390,391,392,393,394,395,396,397,398,399,400,401,402,403,404,405,406,407,408,409,410,411,412,413,414,415,416,417,418,419,420,421,422,423,424,425,426,427,428,429,430,431,432,433,434,435,436,437,438,439,440,441,442,443,444,445,446,447,448,449,450,451,452,453,454,455,456,457,458,459,460,461,462,463,464,465,466,467,468,469,470,471,472,473,474,475,476,477,478,479,480,481,482,483,484,485,486,487,488,489,490,491,492,493,494,495,496,497,498,499,500,501,502,503,504,505,506,507,508,509,510,511,512,513,514,515,516,517,518,519,520,521,522,523,524,525,526,527,528,529,530,531,532,533,534,535,536,537,538,539,540,541,542,543,544,545,546,547,548,549,550,551,552,553,554,555,556,557,558,559,560,561,562,563,564,565,566,567,568,569,570,571,572,573,574,575,576,577,578,579,580,581,582,583,584,585,586,587,588,589,590,591,592,593,594,595,596,597,598,599,600,601,602,603,604,605,606,607,608,609,610,611,612,613,614,615,616,617,618,619,620,621,622,623,624,625,626,627,628,629,630,631,632,633,634,635,636,637,638,639,640,641,642,643,644,645,646,647,648,649,650,651,652,653,654,655,656,657,658,659,660,661,662,663,664,665,666,667,668,669,670,671,672,673,674,675,676,677,678,679,680,681,682,683,684,685,686,687,688,689,690,691,692,693,694,695,696,697,698,699,700,701,702,703,704,705,706,707,708,709,710,711,712,713,714,715,716,717,718,719,720,721,722,723,724,725,726,727,728,729,730,731,732,733,734,735,736,737,738,739,740,741,742,743,744,745,746,747,748,749,750,751,752,753,754,755,756,757,758,759,760,761,762,763,764,765,766,767,768,769,770,771,772,773,774,775,776,777,778,779,780,781,782,783,784,785,786,787,788,789,790,791,792,793,794,795,796,797,798,799,800,801,802,803,804,805,806,807,808,809,810,811,812,813,814,815,816,817,818,819,820,821,822,823,824,825,826,827,828,829,830,831,832,833,834,835,836,837,838,839,840,841,842,843,844,845,846,847,848,849,850,851,852,853,854,855,856,857,858,859,860,861,862,863,864,865,866,867,868,869,870,871,872,873,874,875,876,877,878,879,880,881,882,883,884,885,886,887,888,889,890,891,892,893,894,895,896,897,898,899,900,901,902,903,904,905,906,907,908,909,910,911,912,913,914,915,916,917,918,919,920,921,922,923,924,925,926,927,928],"tree_info":[0,0,0,0,0,0,0,0,0,0,0,0,0,0,0,0,0,0,0,0,0,0,0,0,0,0,0,0,0,0,0,0,0,0,0,0,0,0,0,0,0,0,0,0,0,0,0,0,0,0,0,0,0,0,0,0,0,0,0,0,0,0,0,0,0,0,0,0,0,0,0,0,0,0,0,0,0,0,0,0,0,0,0,0,0,0,0,0,0,0,0,0,0,0,0,0,0,0,0,0,0,0,0,0,0,0,0,0,0,0,0,0,0,0,0,0,0,0,0,0,0,0,0,0,0,0,0,0,0,0,0,0,0,0,0,0,0,0,0,0,0,0,0,0,0,0,0,0,0,0,0,0,0,0,0,0,0,0,0,0,0,0,0,0,0,0,0,0,0,0,0,0,0,0,0,0,0,0,0,0,0,0,0,0,0,0,0,0,0,0,0,0,0,0,0,0,0,0,0,0,0,0,0,0,0,0,0,0,0,0,0,0,0,0,0,0,0,0,0,0,0,0,0,0,0,0,0,0,0,0,0,0,0,0,0,0,0,0,0,0,0,0,0,0,0,0,0,0,0,0,0,0,0,0,0,0,0,0,0,0,0,0,0,0,0,0,0,0,0,0,0,0,0,0,0,0,0,0,0,0,0,0,0,0,0,0,0,0,0,0,0,0,0,0,0,0,0,0,0,0,0,0,0,0,0,0,0,0,0,0,0,0,0,0,0,0,0,0,0,0,0,0,0,0,0,0,0,0,0,0,0,0,0,0,0,0,0,0,0,0,0,0,0,0,0,0,0,0,0,0,0,0,0,0,0,0,0,0,0,0,0,0,0,0,0,0,0,0,0,0,0,0,0,0,0,0,0,0,0,0,0,0,0,0,0,0,0,0,0,0,0,0,0,0,0,0,0,0,0,0,0,0,0,0,0,0,0,0,0,0,0,0,0,0,0,0,0,0,0,0,0,0,0,0,0,0,0,0,0,0,0,0,0,0,0,0,0,0,0,0,0,0,0,0,0,0,0,0,0,0,0,0,0,0,0,0,0,0,0,0,0,0,0,0,0,0,0,0,0,0,0,0,0,0,0,0,0,0,0,0,0,0,0,0,0,0,0,0,0,0,0,0,0,0,0,0,0,0,0,0,0,0,0,0,0,0,0,0,0,0,0,0,0,0,0,0,0,0,0,0,0,0,0,0,0,0,0,0,0,0,0,0,0,0,0,0,0,0,0,0,0,0,0,0,0,0,0,0,0,0,0,0,0,0,0,0,0,0,0,0,0,0,0,0,0,0,0,0,0,0,0,0,0,0,0,0,0,0,0,0,0,0,0,0,0,0,0,0,0,0,0,0,0,0,0,0,0,0,0,0,0,0,0,0,0,0,0,0,0,0,0,0,0,0,0,0,0,0,0,0,0,0,0,0,0,0,0,0,0,0,0,0,0,0,0,0,0,0,0,0,0,0,0,0,0,0,0,0,0,0,0,0,0,0,0,0,0,0,0,0,0,0,0,0,0,0,0,0,0,0,0,0,0,0,0,0,0,0,0,0,0,0,0,0,0,0,0,0,0,0,0,0,0,0,0,0,0,0,0,0,0,0,0,0,0,0,0,0,0,0,0,0,0,0,0,0,0,0,0,0,0,0,0,0,0,0,0,0,0,0,0,0,0,0,0,0,0,0,0,0,0,0,0,0,0,0,0,0,0,0,0,0,0,0,0,0,0,0,0,0,0,0,0,0,0,0,0,0,0,0,0,0,0,0,0,0,0,0,0,0,0,0,0,0,0,0,0,0,0,0,0,0,0,0,0,0,0,0,0,0,0,0,0,0,0,0,0,0,0,0,0,0,0,0,0,0,0,0,0,0,0,0,0,0,0,0,0,0,0,0,0,0,0,0,0,0,0,0,0,0,0,0,0,0,0,0,0,0,0,0,0,0,0,0,0,0,0,0,0,0,0,0,0,0,0,0,0,0,0,0,0,0,0,0,0,0,0,0,0,0,0,0,0,0,0,0,0,0,0,0,0,0,0,0,0,0,0,0,0,0,0,0,0,0,0,0,0,0,0,0,0,0,0,0,0,0,0,0,0,0,0,0,0,0,0,0,0,0],"trees":[{"base_weights":[6.645332E-1,-2.7215672E-1,1.3314732E0,-6.913588E-1,4.5772925E-1,7.7005476E-1,1.9027425E0,-8.0245906E-1,9.512924E-1,6.412986E-1,-3.975836E-1,2.9018357E-1,1.4852103E0,1.9298303E0,1.1579527E-1,-2.2336045E-1,3.106502E-1,3.2992205E-1,4.5465846E-2,2.0955193E-1,-4.2678145E-1,1.3470444E-1,-3.3458987E-1,4.0390036E-1,-0E0,4.936593E-1,1.8594669E-1],"categories":[],"categories_nodes":[],"categories_segments":[],"categories_sizes":[],"default_left":[0,0,0,0,0,0,0,0,0,0,0,0,0,0,0,0,0,0,0,0,0,0,0,0,0,0,0],"id":0,"left_children":[1,3,5,7,9,11,13,15,17,19,-1,21,23,25,-1,-1,-1,-1,-1,-1,-1,-1,-1,-1,-1,-1,-1],"loss_changes":[3.0359058E2,6.2062016E1,8.8986084E1,2.3904404E1,2.7642536E1,4.856469E1,3.9635315E0,2.0221642E1,1.4772825E0,3.0094187E1,0E0,3.4240837E1,9.342049E0,1.447937E0,0E0,0E0,0E0,0E0,0E0,0E0,0E0,0E0,0E0,0E0,0E0,0E0,0E0],"parents":[2147483647,0,0,1,1,2,2,3,3,4,4,5,5,6,6,7,7,8,8,9,9,11,11,12,12,13,13],"right_children":[2,4,6,8,10,12,14,16,18,20,-1,22,24,26,-1,-1,-1,-1,-1,-1,-1,-1,-1,-1,-1,-1,-1],"split_conditions":[1E0,1E0,1E0,1E0,1E0,1E0,1E0,1E0,1E0,1E0,-3.975836E-1,1E0,1E0,1E0,1.1579527E-1,-2.2336045E-1,3.106502E-1,3.2992205E-1,4.5465846E-2,2.0955193E-1,-4.2678145E-1,1.3470444E-1,-3.3458987E-1,4.0390036E-1,-0E0,4.936593E-1,1.8594669E-1],"split_indices":[1152,1855,1948,116,1730,1758,1765,1285,1729,1947,0,1245,1326,1741,0,0,0,0,0,0,0,0,0,0,0,0,0],"split_type":[0,0,0,0,0,0,0,0,0,0,0,0,0,0,0,0,0,0,0,0,0,0,0,0,0,0,0],"sum_hessian":[4.8432993E2,2.0131783E2,2.830121E2,1.2825403E2,7.30638E1,1.438023E2,1.3920978E2,1.2064828E2,7.6057477E0,6.75592E1,5.5045977E0,8.690115E1,5.6901154E1,1.36173E2,3.0367818E0,1.1658391E2,4.0643682E0,4.5735636E0,3.0321841E0,6.30592E1,4.5E0,7.6123566E1,1.0777586E1,5.2864372E1,4.036782E0,1.3313162E2,3.0413795E0],"tree_param":{"num_deleted":"0","num_feature":"2048","num_nodes":"27","size_leaf_vector":"1"}},{"base_weights":[5.301265E-1,-2.1988742E-1,1.0648804E0,-5.54879E-1,3.634871E-1,5.2431434E-1,1.4294348E0,-2.882501E-1,-1.1455386E0,6.446797E-1,-3.0554813E-1,2.3160265E-1,4.0918136E-1,1.4957184E0,-3.8148117E-1,-3.4687214E-2,-3.6789393E-1,-1.8382218E-1,-4.063298E-1,1.9911407E-1,-3.3392057E-1,-6.497456E-2,2.2108732E-1,3.8461885E-1,2.0698339E-2],"categories":[],"categories_nodes":[],"categories_segments":[],"categories_sizes":[],"default_left":[0,0,0,0,0,0,0,0,0,0,0,0,0,0,0,0,0,0,0,0,0,0,0,0,0],"id":1,"left_children":[1,3,5,7,9,11,13,15,17,19,-1,21,-1,23,-1,-1,-1,-1,-1,-1,-1,-1,-1,-1,-1],"loss_changes":[1.903E2,3.8727077E1,5.327722E1,1.9043015E1,3.195275E1,3.509993E1,3.3342712E1,1.4735752E1,5.7671165E0,1.756768E1,0E0,2.8599663E1,0E0,4.755615E0,0E0,0E0,0E0,0E0,0E0,0E0,0E0,0E0,0E0,0E0,0E0],"parents":[2147483647,0,0,1,1,2,2,3,3,4,4,5,5,6,6,7,7,8,8,9,9,11,11,13,13],"right_children":[2,4,6,8,10,12,14,16,18,20,-1,22,-1,24,-1,-1,-1,-1,-1,-1,-1,-1,-1,-1,-1],"split_conditions":[1E0,1E0,1E0,1E0,1E0,1E0,1E0,1E0,1E0,1E0,-3.0554813E-1,1E0,4.0918136E-1,1E0,-3.8148117E-1,-3.4687214E-2,-3.6789393E-1,-1.8382218E-1,-4.063298E-1,1.9911407E-1,-3.3392057E-1,-6.497456E-2,2.2108732E-1,3.8461885E-1,2.0698339E-2],"split_indices":[1152,1855,1357,718,352,1915,708,1164,102,1947,0,1066,0,1479,0,0,0,0,0,0,0,0,0,0,0],"split_type":[0,0,0,0,0,0,0,0,0,0,0,0,0,0,0,0,0,0,0,0,0,0,0,0,0],"sum_hessian":[4.7266962E2,1.9656073E2,2.761089E2,1.2532986E2,7.1230865E1,1.1224584E2,1.6386305E2,8.743924E1,3.7890617E1,6.093504E1,1.0295829E1,8.939169E1,2.2854145E1,1.6066792E2,3.1951375E0,7.829823E1,9.141008E0,2.1094662E1,1.6795956E1,5.7350742E1,3.5842946E0,5.0608032E1,3.878366E1,1.5764618E2,3.0217426E0],"tree_param":{"num_deleted":"0","num_feature":"2048","num_nodes":"25","size_leaf_vector":"1"}},{"base_weights":[4.2649114E-1,8.5127644E-2,1.2628981E0,-1.07872665E-1,9.7091603E-1,1.3082451E0,1.8237876E-2,-2.5941008E-1,1.005903E0,1.2277809E0,-5.565287E-1,1.3491265E0,2.754793E-2,-9.562689E-2,2.1581535E-1,3.0389875E-1,-1.1927805E-1,3.409153E-1,-7.86579E-2,9.894896E-2,-4.251623E-1,3.4730884E-1,6.7235634E-2],"categories":[],"categories_nodes":[],"categories_segments":[],"categories_sizes":[],"default_left":[0,0,0,0,0,0,0,0,0,0,0,0,0,0,0,0,0,0,0,0,0,0,0],"id":2,"left_children":[1,3,5,7,9,11,-1,13,15,17,19,21,-1,-1,-1,-1,-1,-1,-1,-1,-1,-1,-1],"loss_changes":[1.26392654E2,5.459538E1,6.315048E0,4.378839E1,2.3099457E1,5.3639526E0,0E0,3.0291887E1,9.556326E0,9.732605E0,9.864344E0,2.1044464E0,0E0,0E0,0E0,0E0,0E0,0E0,0E0,0E0,0E0,0E0,0E0],"parents":[2147483647,0,0,1,1,2,2,3,3,4,4,5,5,7,7,8,8,9,9,10,10,11,11],"right_children":[2,4,6,8,10,12,-1,14,16,18,20,22,-1,-1,-1,-1,-1,-1,-1,-1,-1,-1,-1],"split_conditions":[1E0,1E0,1E0,1E0,1E0,1E0,1.8237876E-2,1E0,1E0,1E0,1E0,1E0,2.754793E-2,-9.562689E-2,2.1581535E-1,3.0389875E-1,-1.1927805E-1,3.409153E-1,-7.86579E-2,9.894896E-2,-4.251623E-1,3.4730884E-1,6.7235634E-2],"split_indices":[712,1729,142,41,694,1765,0,114,1267,1446,1754,1530,0,0,0,0,0,0,0,0,0,0,0],"split_type":[0,0,0,0,0,0,0,0,0,0,0,0,0,0,0,0,0,0,0,0,0,0,0],"sum_hessian":[4.442597E2,3.1630994E2,1.2794976E2,2.5976416E2,5.654576E1,1.228656E2,5.0841594E0,2.2938028E2,3.0383894E1,4.8736584E1,7.8091764E0,1.1841107E2,4.4545293E0,2.0799048E2,2.1389803E1,2.7186779E1,3.1971145E0,4.5546432E1,3.1901515E0,4.2460413E0,3.563135E0,1.153959E2,3.01517E0],"tree_param":{"num_deleted":"0","num_feature":"2048","num_nodes":"23","size_leaf_vector":"1"}},{"base_weights":[3.3622497E-1,5.6699425E-2,1.1124853E0,-7.014978E-2,9.601131E-1,1.2523919E0,-3.4805548E-3,8.125619E-3,-3.7216645E-1,1.1083871E0,-9.303497E-2,3.2568008E-1,3.8492206E-2,-2.0579505E-1,1.882199E-1,1.937768E-2,-3.8162723E-1,3.0343837E-1,3.8926672E-2],"categories":[],"categories_nodes":[],"categories_segments":[],"categories_sizes":[],"default_left":[0,0,0,0,0,0,0,0,0,0,0,0,0,0,0,0,0,0,0],"id":3,"left_children":[1,3,5,7,9,11,13,15,-1,17,-1,-1,-1,-1,-1,-1,-1,-1,-1],"loss_changes":[9.0545715E1,3.5885826E1,1.780127E1,3.0386898E1,8.138359E0,3.0374908E0,8.0053005E0,2.6202654E1,0E0,2.3695679E0,0E0,0E0,0E0,0E0,0E0,0E0,0E0,0E0,0E0],"parents":[2147483647,0,0,1,1,2,2,3,3,4,4,5,5,6,6,7,7,9,9],"right_children":[2,4,6,8,10,12,14,16,-1,18,-1,-1,-1,-1,-1,-1,-1,-1,-1],"split_conditions":[1E0,1E0,1E0,1E0,1E0,1E0,1E0,1E0,-3.7216645E-1,1E0,-9.303497E-2,3.2568008E-1,3.8492206E-2,-2.0579505E-1,1.882199E-1,1.937768E-2,-3.8162723E-1,3.0343837E-1,3.8926672E-2],"split_indices":[712,555,961,9,694,1765,1917,1298,0,1391,0,0,0,0,0,0,0,0,0],"split_type":[0,0,0,0,0,0,0,0,0,0,0,0,0,0,0,0,0,0,0],"sum_hessian":[4.1909842E2,3.0899796E2,1.1010048E2,2.7103055E2,3.79674E1,9.80999E1,1.2000579E1,2.569613E2,1.4069234E1,3.4521305E1,3.4460967E0,9.465461E1,3.4452875E0,5.9998693E0,6.00071E0,2.4666032E2,1.0300984E1,3.0994003E1,3.5273001E0],"tree_param":{"num_deleted":"0","num_feature":"2048","num_nodes":"19","size_leaf_vector":"1"}},{"base_weights":[2.7740967E-1,-1.5511753E-2,8.894612E-1,-1.211022E-1,1.0557095E0,9.58857E-1,-1.493736E-1,-2.1809636E-1,1.0812708E0,8.657294E-1,4.0242186E-1,1.0056528E0,-1.5715429E-1,-7.103305E-2,4.0302956E-1,3.260268E-1,1.2369153E-2,2.522647E-1,4.3869745E-2,2.630743E-1,-0E0],"categories":[],"categories_nodes":[],"categories_segments":[],"categories_sizes":[],"default_left":[0,0,0,0,0,0,0,0,0,0,0,0,0,0,0,0,0,0,0,0,0],"id":4,"left_children":[1,3,5,7,9,11,-1,13,15,17,-1,19,-1,-1,-1,-1,-1,-1,-1,-1,-1],"loss_changes":[7.163717E1,3.0113062E1,1.3747437E1,2.8439522E1,5.9127426E-1,9.684151E0,0E0,2.5581333E1,3.283327E0,1.1802549E0,0E0,4.431679E0,0E0,0E0,0E0,0E0,0E0,0E0,0E0,0E0,0E0],"parents":[2147483647,0,0,1,1,2,2,3,3,4,4,5,5,7,7,8,8,9,9,11,11],"right_children":[2,4,6,8,10,12,-1,14,16,18,-1,20,-1,-1,-1,-1,-1,-1,-1,-1,-1],"split_conditions":[1E0,1E0,1E0,1E0,1E0,1E0,-1.493736E-1,1E0,1E0,1E0,4.0242186E-1,1E0,-1.5715429E-1,-7.103305E-2,4.0302956E-1,3.260268E-1,1.2369153E-2,2.522647E-1,4.3869745E-2,2.630743E-1,-0E0],"split_indices":[667,598,1251,41,378,1745,0,1830,1564,1791,0,1990,0,0,0,0,0,0,0,0,0],"split_type":[0,0,0,0,0,0,0,0,0,0,0,0,0,0,0,0,0,0,0,0,0],"sum_hessian":[3.9692383E2,2.6838095E2,1.2854288E2,2.451292E2,2.325177E1,1.2325024E2,5.292643E0,2.2759729E2,1.75319E1,1.8868172E1,4.383597E0,1.2016749E2,3.0827515E0,2.2069691E2,6.9003787E0,1.4148052E1,3.3838482E0,1.5143998E1,3.7241747E0,1.16527214E2,3.6402683E0],"tree_param":{"num_deleted":"0","num_feature":"2048","num_nodes":"21","size_leaf_vector":"1"}},{"base_weights":[2.3213248E-1,4.978553E-2,1.0225823E0,1.7030013E-1,-7.693617E-1,1.0923812E0,-0E0,5.6744546E-2,1.0357536E0,-9.068809E-1,1.2633523E-1,2.8380644E-1,1.1261488E-1,-9.662301E-3,2.667782E-1,1.3736881E-1,2.8092685E-1,-2.6415086E-1,4.7491103E-2],"categories":[],"categories_nodes":[],"categories_segments":[],"categories_sizes":[],"default_left":[0,0,0,0,0,0,0,0,0,0,0,0,0,0,0,0,0,0,0],"id":5,"left_children":[1,3,5,7,9,11,-1,13,15,17,-1,-1,-1,-1,-1,-1,-1,-1,-1],"loss_changes":[5.4020786E1,3.026036E1,5.1416016E0,2.6013344E1,7.275223E0,2.9938507E-1,0E0,2.311135E1,8.931732E-2,5.8447514E0,0E0,0E0,0E0,0E0,0E0,0E0,0E0,0E0,0E0],"parents":[2147483647,0,0,1,1,2,2,3,3,4,4,5,5,7,7,8,8,9,9],"right_children":[2,4,6,8,10,12,-1,14,16,18,-1,-1,-1,-1,-1,-1,-1,-1,-1],"split_conditions":[1E0,1E0,1E0,1E0,1E0,1E0,-0E0,1E0,1E0,1E0,1.2633523E-1,2.8380644E-1,1.1261488E-1,-9.662301E-3,2.667782E-1,1.3736881E-1,2.8092685E-1,-2.6415086E-1,4.7491103E-2],"split_indices":[1048,352,707,555,1126,1729,0,739,718,1745,0,0,0,0,0,0,0,0,0],"split_type":[0,0,0,0,0,0,0,0,0,0,0,0,0,0,0,0,0,0,0],"sum_hessian":[3.774824E2,3.0766074E2,6.982165E1,2.6905072E2,3.8610023E1,6.5419586E1,4.402063E0,2.3882298E2,3.0227726E1,3.528001E1,3.3300147E0,6.158305E1,3.836532E0,2.1821045E2,2.0612537E1,5.332311E0,2.4895414E1,3.1718E1,3.562009E0],"tree_param":{"num_deleted":"0","num_feature":"2048","num_nodes":"19","size_leaf_vector":"1"}},{"base_weights":[1.840674E-1,1.035336E-2,8.657093E-1,-9.384787E-2,6.1350906E-1,1.0611117E0,-1.5408537E-1,-2.1620835E-1,4.969077E-1,7.707144E-1,-1.6495857E-1,2.8264984E-1,4.3767625E-3,-2.9936063E-1,1.6632102E-1,-7.906593E-2,2.1089722E-1,1.864901E-1,-2.4092177E-1,4.2994093E-2,2.961055E-1],"categories":[],"categories_nodes":[],"categories_segments":[],"categories_sizes":[],"default_left":[0,0,0,0,0,0,0,0,0,0,0,0,0,0,0,0,0,0,0,0,0],"id":6,"left_children":[1,3,5,7,9,11,13,15,17,19,-1,-1,-1,-1,-1,-1,-1,-1,-1,-1,-1],"loss_changes":[4.209976E1,1.8279644E1,1.48881E1,1.7625269E1,8.884823E0,3.0779343E0,1.0534639E1,2.0497742E1,1.4778667E1,8.624002E0,0E0,0E0,0E0,0E0,0E0,0E0,0E0,0E0,0E0,0E0,0E0],"parents":[2147483647,0,0,1,1,2,2,3,3,4,4,5,5,6,6,7,7,8,8,9,9],"right_children":[2,4,6,8,10,12,14,16,18,20,-1,-1,-1,-1,-1,-1,-1,-1,-1,-1,-1],"split_conditions":[1E0,1E0,1E0,1E0,1E0,1E0,1E0,1E0,1E0,1E0,-1.6495857E-1,2.8264984E-1,4.3767625E-3,-2.9936063E-1,1.6632102E-1,-7.906593E-2,2.1089722E-1,1.864901E-1,-2.4092177E-1,4.2994093E-2,2.961055E-1],"split_indices":[712,1729,961,1573,1912,1765,650,598,9,935,0,0,0,0,0,0,0,0,0,0,0],"split_type":[0,0,0,0,0,0,0,0,0,0,0,0,0,0,0,0,0,0,0,0,0],"sum_hessian":[3.5805096E2,2.862964E2,7.175458E1,2.439636E2,4.233278E1,6.053652E1,1.1218059E1,2.0299332E2,4.0970284E1,3.8150856E1,4.1819243E0,5.7051266E1,3.4852517E0,5.0510774E0,6.1669817E0,1.8668834E2,1.6304977E1,3.5642433E1,5.327851E0,1.5982445E1,2.216841E1],"tree_param":{"num_deleted":"0","num_feature":"2048","num_nodes":"21","size_leaf_vector":"1"}},{"base_weights":[1.4986727E-1,3.756991E-3,8.106252E-1,1.13504104E-1,-4.996584E-1,1.0021623E0,-7.3970154E-2,1.6689222E-1,-3.2740986E-1,-9.576594E-1,3.0472586E-1,2.6419237E-1,4.7117982E-2,-2.217318E-1,1.7239705E-1,8.040658E-2,-1.0236276E-1,-2.9322106E-1,-7.352079E-5,1.4218108E-1,-1.3097037E-1],"categories":[],"categories_nodes":[],"categories_segments":[],"categories_sizes":[],"default_left":[0,0,0,0,0,0,0,0,0,0,0,0,0,0,0,0,0,0,0,0,0],"id":7,"left_children":[1,3,5,7,9,11,13,15,-1,17,19,-1,-1,-1,-1,-1,-1,-1,-1,-1,-1],"loss_changes":[3.2347237E1,1.5252784E1,1.0727699E1,1.6918854E1,1.858943E1,1.0946655E0,7.089828E0,1.9181156E1,0E0,5.650671E0,3.9938722E0,0E0,0E0,0E0,0E0,0E0,0E0,0E0,0E0,0E0,0E0],"parents":[2147483647,0,0,1,1,2,2,3,3,4,4,5,5,6,6,7,7,9,9,10,10],"right_children":[2,4,6,8,10,12,14,16,-1,18,20,-1,-1,-1,-1,-1,-1,-1,-1,-1,-1],"split_conditions":[1E0,1E0,1E0,1E0,1E0,1E0,1E0,1E0,-3.2740986E-1,1E0,1E0,2.6419237E-1,4.7117982E-2,-2.217318E-1,1.7239705E-1,8.040658E-2,-1.0236276E-1,-2.9322106E-1,-7.352079E-5,1.4218108E-1,-1.3097037E-1],"split_indices":[712,694,961,1934,935,1791,650,1536,0,667,94,0,0,0,0,0,0,0,0,0,0],"split_type":[0,0,0,0,0,0,0,0,0,0,0,0,0,0,0,0,0,0,0,0,0],"sum_hessian":[3.3796683E2,2.7776627E2,6.0200546E1,2.2910051E2,4.8665756E1,4.9805088E1,1.0395458E1,2.2151204E2,7.5884776E0,3.1265087E1,1.740067E1,4.6740055E1,3.0650349E0,5.260284E0,5.1351748E0,1.7602998E2,4.5482044E1,2.5380611E1,5.8844767E0,1.3781602E1,3.619067E0],"tree_param":{"num_deleted":"0","num_feature":"2048","num_nodes":"21","size_leaf_vector":"1"}},{"base_weights":[1.3374974E-1,1.650639E-2,7.447227E-1,-2.5088118E-2,3.1093964E-1,9.644574E-1,-1.4868522E-1,6.7047134E-2,-6.0651004E-1,2.5981715E-1,5.2953977E-3,-1.9098891E-1,1.0953689E-1,5.4019917E-2,-9.9951066E-2,-2.0478691E-1,2.779622E-1],"categories":[],"categories_nodes":[],"categories_segments":[],"categories_sizes":[],"default_left":[0,0,0,0,0,0,0,0,0,0,0,0,0,0,0,0,0],"id":8,"left_children":[1,3,5,7,-1,9,11,13,15,-1,-1,-1,-1,-1,-1,-1,-1],"loss_changes":[2.3130613E1,1.4424349E1,1.0655943E1,1.4547909E1,0E0,2.0360985E0,4.002503E0,1.555678E1,1.3257919E1,0E0,0E0,0E0,0E0,0E0,0E0,0E0,0E0],"parents":[2147483647,0,0,1,1,2,2,3,3,5,5,6,6,7,7,8,8],"right_children":[2,4,6,8,-1,10,12,14,16,-1,-1,-1,-1,-1,-1,-1,-1],"split_conditions":[1E0,1E0,1E0,1E0,3.1093964E-1,1E0,1E0,1E0,1E0,2.5981715E-1,5.2953977E-3,-1.9098891E-1,1.0953689E-1,5.4019917E-2,-9.9951066E-2,-2.0478691E-1,2.779622E-1],"split_indices":[712,471,961,1160,0,1765,650,1536,356,0,0,0,0,0,0,0,0],"split_type":[0,0,0,0,0,0,0,0,0,0,0,0,0,0,0,0,0],"sum_hessian":[3.2680865E2,2.7526965E2,5.1538998E1,2.663679E2,8.901791E0,4.169872E1,9.840278E0,2.2976991E2,3.659797E1,3.8660122E1,3.0386E0,5.0804644E0,4.7598133E0,1.7539824E2,5.4371666E1,3.3203613E1,3.394356E0],"tree_param":{"num_deleted":"0","num_feature":"2048","num_nodes":"17","size_leaf_vector":"1"}},{"base_weights":[1.0284908E-1,-3.5335187E-2,5.3580695E-1,-8.491595E-2,3.0336738E-1,3.514372E-2,7.244491E-1,-1.4511889E-1,9.959105E-1,-2.7312198E-1,2.5844398E-1,7.967833E-1,-1.8294571E-2,-5.045804E-2,2.7961883E-1,3.2835224E-1,6.369288E-2,5.528018E-3,-3.0927953E-1,2.1296304E-1,-0E0],"categories":[],"categories_nodes":[],"categories_segments":[],"categories_sizes":[],"default_left":[0,0,0,0,0,0,0,0,0,0,0,0,0,0,0,0,0,0,0,0,0],"id":9,"left_children":[1,3,5,7,-1,9,11,13,15,17,-1,19,-1,-1,-1,-1,-1,-1,-1,-1,-1],"loss_changes":[1.904696E1,1.4187019E1,6.934292E0,1.4704363E1,0E0,7.243135E0,3.516405E0,1.4598087E1,1.8264189E0,5.301815E0,0E0,1.5097351E0,0E0,0E0,0E0,0E0,0E0,0E0,0E0,0E0,0E0],"parents":[2147483647,0,0,1,1,2,2,3,3,5,5,6,6,7,7,8,8,9,9,11,11],"right_children":[2,4,6,8,-1,10,12,14,16,18,-1,20,-1,-1,-1,-1,-1,-1,-1,-1,-1],"split_conditions":[1E0,1E0,1E0,1E0,3.0336738E-1,1E0,1E0,1E0,1E0,1E0,2.5844398E-1,1E0,-1.8294571E-2,-5.045804E-2,2.7961883E-1,3.2835224E-1,6.369288E-2,5.528018E-3,-3.0927953E-1,2.1296304E-1,-0E0],"split_indices":[667,319,926,1825,0,322,1991,663,314,378,0,255,0,0,0,0,0,0,0,0,0],"split_type":[0,0,0,0,0,0,0,0,0,0,0,0,0,0,0,0,0,0,0,0,0],"sum_hessian":[3.141258E2,2.3781331E2,7.631249E1,2.2947955E2,8.333759E0,2.1676146E1,5.463635E1,2.1821922E2,1.1260324E1,1.652031E1,5.155838E0,5.0564434E1,4.0719147E0,2.0993394E2,8.2852745E0,7.3051324E0,3.9551904E0,1.271175E1,3.8085587E0,4.7402706E1,3.161726E0],"tree_param":{"num_deleted":"0","num_feature":"2048","num_nodes":"21","size_leaf_vector":"1"}},{"base_weights":[9.112017E-2,1.4475042E-1,-8.791949E-1,1.8901324E-1,-8.664039E-1,-2.9461497E-1,-3.236498E-1,6.820664E-2,6.310807E-1,-3.1670615E-1,-6.417853E-2,-0E0,-1.2820354E-1,3.0609105E-2,-2.9458386E-1,1.9062708E-1,-2.3663105E-1],"categories":[],"categories_nodes":[],"categories_segments":[],"categories_sizes":[],"default_left":[0,0,0,0,0,0,0,0,0,0,0,0,0,0,0,0,0],"id":10,"left_children":[1,3,5,7,9,11,-1,13,15,-1,-1,-1,-1,-1,-1,-1,-1],"loss_changes":[1.5691503E1,1.2832699E1,2.7957516E0,1.461178E1,2.0005627E0,4.1971254E-1,0E0,1.4009436E1,1.1664925E1,0E0,0E0,0E0,0E0,0E0,0E0,0E0,0E0],"parents":[2147483647,0,0,1,1,2,2,3,3,4,4,5,5,7,7,8,8],"right_children":[2,4,6,8,10,12,-1,14,16,-1,-1,-1,-1,-1,-1,-1,-1],"split_conditions":[1E0,1E0,1E0,1E0,1E0,1E0,-3.236498E-1,1E0,1E0,-3.1670615E-1,-6.417853E-2,-0E0,-1.2820354E-1,3.0609105E-2,-2.9458386E-1,1.9062708E-1,-2.3663105E-1],"split_indices":[1195,9,314,1573,1951,875,0,552,711,0,0,0,0,0,0,0,0],"split_type":[0,0,0,0,0,0,0,0,0,0,0,0,0,0,0,0,0],"sum_hessian":[3.0533246E2,2.9022104E2,1.5111397E1,2.789021E2,1.1318954E1,6.973716E0,8.137681E0,2.2031357E2,5.858853E1,6.1583576E0,5.1605973E0,3.3712044E0,3.6025116E0,2.1210391E2,8.209652E0,5.48785E1,3.710028E0],"tree_param":{"num_deleted":"0","num_feature":"2048","num_nodes":"17","size_leaf_vector":"1"}},{"base_weights":[4.609356E-2,-1.0719066E-2,2.0876546E-1,-4.6068605E-2,3.2245144E-1,-1.1700016E-2,-3.9436376E-1,-1.6513715E-2,2.0502791E-1],"categories":[],"categories_nodes":[],"categories_segments":[],"categories_sizes":[],"default_left":[0,0,0,0,0,0,0,0,0],"id":11,"left_children":[1,3,-1,5,-1,7,-1,-1,-1],"loss_changes":[1.3448144E1,1.2070106E1,0E0,1.3354843E1,0E0,1.13656645E1,0E0,0E0,0E0],"parents":[2147483647,0,0,1,1,3,3,5,5],"right_children":[2,4,-1,6,-1,8,-1,-1,-1],"split_conditions":[1E0,1E0,2.0876546E-1,1E0,3.2245144E-1,1E0,-3.9436376E-1,-1.6513715E-2,2.0502791E-1],"split_indices":[1243,834,0,1443,0,1884,0,0,0],"split_type":[0,0,0,0,0,0,0,0,0],"sum_hessian":[2.9561456E2,2.7556604E2,2.004853E1,2.6905588E2,6.5101376E0,2.6392725E2,5.128659E0,2.4876508E2,1.5162157E1],"tree_param":{"num_deleted":"0","num_feature":"2048","num_nodes":"9","size_leaf_vector":"1"}},{"base_weights":[4.0743962E-2,-2.4664054E-2,6.7047155E-1,5.6988336E-2,-5.9180796E-1,7.9776E-1,-0E0,1.1382948E-2,2.9890338E-1,-6.9618964E-1,4.4719618E-2,2.3961444E-1,7.1000375E-2,1.1456764E-2,-3.8355362E-1,-2.3456271E-1,-6.9462344E-2],"categories":[],"categories_nodes":[],"categories_segments":[],"categories_sizes":[],"default_left":[0,0,0,0,0,0,0,0,0,0,0,0,0,0,0,0,0],"id":12,"left_children":[1,3,5,7,9,11,-1,13,-1,15,-1,-1,-1,-1,-1,-1,-1],"loss_changes":[1.2295137E1,1.2480687E1,2.4548016E0,1.1338747E1,3.0111408E0,1.1615515E0,0E0,1.0966663E1,0E0,2.3185196E0,0E0,0E0,0E0,0E0,0E0,0E0,0E0],"parents":[2147483647,0,0,1,1,2,2,3,3,4,4,5,5,7,7,9,9],"right_children":[2,4,6,8,10,12,-1,14,-1,16,-1,-1,-1,-1,-1,-1,-1],"split_conditions":[1E0,1E0,1E0,1E0,1E0,1E0,-0E0,1E0,2.9890338E-1,1E0,4.4719618E-2,2.3961444E-1,7.1000375E-2,1.1456764E-2,-3.8355362E-1,-2.3456271E-1,-6.9462344E-2],"split_indices":[1048,352,707,323,1745,314,0,54,0,656,0,0,0,0,0,0,0],"split_type":[0,0,0,0,0,0,0,0,0,0,0,0,0,0,0,0,0],"sum_hessian":[2.9119403E2,2.637149E2,2.7479118E1,2.3035405E2,3.336086E1,2.3093143E1,4.385976E0,2.2230067E2,8.053382E0,2.9894066E1,3.466792E0,1.6924654E1,6.168489E0,2.1830081E2,3.9998627E0,1.823231E1,1.1661756E1],"tree_param":{"num_deleted":"0","num_feature":"2048","num_nodes":"17","size_leaf_vector":"1"}},{"base_weights":[4.0128533E-2,-0E0,2.5185534E-1,2.8637754E-2,-3.1136867E-1,-7.7513374E-2,4.7738725E-1,5.540797E-3,-1.4735103E-1,1.5126474E-1,-2.1174186E-1],"categories":[],"categories_nodes":[],"categories_segments":[],"categories_sizes":[],"default_left":[0,0,0,0,0,0,0,0,0,0,0],"id":13,"left_children":[1,3,-1,5,-1,7,9,-1,-1,-1,-1],"loss_changes":[1.0603117E1,9.320494E0,0E0,1.293093E1,0E0,1.1082617E1,8.420126E0,0E0,0E0,0E0,0E0],"parents":[2147483647,0,0,1,1,3,3,5,5,6,6],"right_children":[2,4,-1,6,-1,8,10,-1,-1,-1,-1],"split_conditions":[1E0,1E0,2.5185534E-1,1E0,-3.1136867E-1,1E0,1E0,5.540797E-3,-1.4735103E-1,1.5126474E-1,-2.1174186E-1],"split_indices":[698,1366,0,1573,0,13,711,0,0,0,0],"split_type":[0,0,0,0,0,0,0,0,0,0,0],"sum_hessian":[2.8293167E2,2.723566E2,1.0575057E1,2.6693616E2,5.4204555E0,2.1552295E2,5.141321E1,1.7984897E2,3.567397E1,4.7683968E1,3.7292416E0],"tree_param":{"num_deleted":"0","num_feature":"2048","num_nodes":"11","size_leaf_vector":"1"}},{"base_weights":[3.0165067E-2,-0E0,2.9268628E-1,-2.8438274E-2,3.090708E-1,-7.219913E-2,8.0419606E-1,-3.516007E-2,1.3695501E-1,2.9942048E-1,4.4992115E-2],"categories":[],"categories_nodes":[],"categories_segments":[],"categories_sizes":[],"default_left":[0,0,0,0,0,0,0,0,0,0,0],"id":14,"left_children":[1,3,-1,5,-1,7,9,-1,-1,-1,-1],"loss_changes":[9.740232E0,9.476277E0,0E0,9.585195E0,0E0,1.0436221E1,2.4179869E0,0E0,0E0,0E0,0E0],"parents":[2147483647,0,0,1,1,3,3,5,5,6,6],"right_children":[2,4,-1,6,-1,8,10,-1,-1,-1,-1],"split_conditions":[1E0,1E0,2.9268628E-1,1E0,3.090708E-1,1E0,1E0,-3.516007E-2,1.3695501E-1,2.9942048E-1,4.4992115E-2],"split_indices":[1524,757,0,116,0,41,875,0,0,0,0],"split_type":[0,0,0,0,0,0,0,0,0,0,0],"sum_hessian":[2.8233017E2,2.754474E2,6.8827796E0,2.698323E2,5.6151037E0,2.5734384E2,1.2488453E1,2.331129E2,2.4230938E1,7.0424285E0,5.446024E0],"tree_param":{"num_deleted":"0","num_feature":"2048","num_nodes":"11","size_leaf_vector":"1"}},{"base_weights":[2.939382E-2,7.230956E-2,-7.7488935E-1,1.110231E-1,-7.844538E-1,-8.192765E-2,-2.7839634E-1,1.9699751E-1,-2.7194354E-1,-2.806505E-1,-7.55864E-2,5.7453115E-2,-3.278873E-1,-1.6368255E-1,8.586331E-2],"categories":[],"categories_nodes":[],"categories_segments":[],"categories_sizes":[],"default_left":[0,0,0,0,0,0,0,0,0,0,0,0,0,0,0],"id":15,"left_children":[1,3,5,7,9,-1,-1,11,13,-1,-1,-1,-1,-1,-1],"loss_changes":[9.237904E0,8.469422E0,1.1809921E0,8.292297E0,9.479008E-1,0E0,0E0,9.004267E0,1.06900215E1,0E0,0E0,0E0,0E0,0E0,0E0],"parents":[2147483647,0,0,1,1,2,2,3,3,4,4,7,7,8,8],"right_children":[2,4,6,8,10,-1,-1,12,14,-1,-1,-1,-1,-1,-1],"split_conditions":[1E0,1E0,1E0,1E0,1E0,-8.192765E-2,-2.7839634E-1,1E0,1E0,-2.806505E-1,-7.55864E-2,5.7453115E-2,-3.278873E-1,-1.6368255E-1,8.586331E-2],"split_indices":[1195,9,314,694,1951,0,0,1932,935,0,0,0,0,0,0],"split_type":[0,0,0,0,0,0,0,0,0,0,0,0,0,0,0],"sum_hessian":[2.7449875E2,2.6159283E2,1.2905925E1,2.5123788E2,1.0354937E1,6.4328117E0,6.473113E0,2.0629263E2,4.494526E1,5.2426677E0,5.112269E0,2.0298798E2,3.304655E0,2.8257778E1,1.668748E1],"tree_param":{"num_deleted":"0","num_feature":"2048","num_nodes":"15","size_leaf_vector":"1"}},{"base_weights":[5.7916776E-3,3.4078766E-2,-2.890006E-1,-0E0,9.2137307E-1,3.4842547E-2,-8.4360874E-1,3.0401278E-1,6.281357E-2,1.6012395E-2,-2.692165E-1,-3.4061223E-2,-3.233443E-1],"categories":[],"categories_nodes":[],"categories_segments":[],"categories_sizes":[],"default_left":[0,0,0,0,0,0,0,0,0,0,0,0,0],"id":16,"left_children":[1,3,-1,5,7,9,11,-1,-1,-1,-1,-1,-1],"loss_changes":[8.33122E0,7.869168E0,0E0,7.4130545E0,1.0393143E0,7.309461E0,2.3911552E0,0E0,0E0,0E0,0E0,0E0,0E0],"parents":[2147483647,0,0,1,1,3,3,4,4,5,5,6,6],"right_children":[2,4,-1,6,8,10,12,-1,-1,-1,-1,-1,-1],"split_conditions":[1E0,1E0,-2.890006E-1,1E0,1E0,1E0,1E0,3.0401278E-1,6.281357E-2,1.6012395E-2,-2.692165E-1,-3.4061223E-2,-3.233443E-1],"split_indices":[1495,323,0,1238,1097,1443,1028,0,0,0,0,0,0],"split_type":[0,0,0,0,0,0,0,0,0,0,0,0,0],"sum_hessian":[2.6940973E2,2.638415E2,5.5682373E0,2.5480193E2,9.039574E0,2.4539693E2,9.405007E0,5.623151E0,3.4164224E0,2.4011722E2,5.279707E0,4.227345E0,5.177663E0],"tree_param":{"num_deleted":"0","num_feature":"2048","num_nodes":"13","size_leaf_vector":"1"}},{"base_weights":[1.1001941E-2,-2.7970237E-1,1.1036526E-1,3.5070628E-1,-4.018463E-1,5.7029475E-2,8.4752965E-1,-6.871411E-1,1.4135736E-1,1.3838243E-1,-5.151E-1,2.893946E-1,-0E0,-2.2187157E-1,5.262847E-2,1.0748323E-1,-2.534838E-1,9.250397E-3,1.6610418E-1,-2.3486191E-1,-5.040659E-2],"categories":[],"categories_nodes":[],"categories_segments":[],"categories_sizes":[],"default_left":[0,0,0,0,0,0,0,0,0,0,0,0,0,0,0,0,0,0,0,0,0],"id":17,"left_children":[1,3,5,-1,7,9,11,13,15,17,19,-1,-1,-1,-1,-1,-1,-1,-1,-1,-1],"loss_changes":[7.6324816E0,1.3526883E1,7.4508734E0,0E0,1.0045412E1,8.609985E0,2.8666658E0,7.4944267E0,7.036105E0,8.412315E0,2.4024825E0,0E0,0E0,0E0,0E0,0E0,0E0,0E0,0E0,0E0,0E0],"parents":[2147483647,0,0,1,1,2,2,4,4,5,5,6,6,7,7,8,8,9,9,10,10],"right_children":[2,4,6,-1,8,10,12,14,16,18,20,-1,-1,-1,-1,-1,-1,-1,-1,-1,-1],"split_conditions":[1E0,1E0,1E0,3.5070628E-1,1E0,1E0,1E0,1E0,1E0,1E0,1E0,2.893946E-1,-0E0,-2.2187157E-1,5.262847E-2,1.0748323E-1,-2.534838E-1,9.250397E-3,1.6610418E-1,-2.3486191E-1,-5.040659E-2],"split_indices":[80,1873,1708,0,1019,352,1452,1305,1999,1039,926,0,0,0,0,0,0,0,0,0,0],"split_type":[0,0,0,0,0,0,0,0,0,0,0,0,0,0,0,0,0,0,0,0,0],"sum_hessian":[2.6543265E2,6.628144E1,1.991512E2,3.8793197E0,6.2402122E1,1.868316E2,1.2319589E1,4.1309917E1,2.1092205E1,1.645979E2,2.2233707E1,8.692798E0,3.626791E0,3.448109E1,6.828827E0,1.7489775E1,3.6024315E0,1.3875153E2,2.584637E1,8.573022E0,1.3660685E1],"tree_param":{"num_deleted":"0","num_feature":"2048","num_nodes":"21","size_leaf_vector":"1"}},{"base_weights":[-0E0,-5.7624105E-2,4.689041E-1,-2.4127865E-2,-2.6349434E-1,6.471471E-1,-1.5318172E-1,-5.981858E-2,8.7550426E-1,2.2995444E-1,-0E0,-3.0338954E-2,1.270605E-1,8.914204E-2,3.1231344E-1,-5.293531E-2,5.048291E-2],"categories":[],"categories_nodes":[],"categories_segments":[],"categories_sizes":[],"default_left":[0,0,0,0,0,0,0,0,0,0,0,0,0,0,0,0,0],"id":18,"left_children":[1,3,5,7,-1,9,-1,11,13,-1,15,-1,-1,-1,-1,-1,-1],"loss_changes":[7.21904E0,7.25792E0,5.858579E0,6.9959064E0,0E0,4.303048E0,0E0,7.2936354E0,6.396122E-1,0E0,3.606611E-1,0E0,0E0,0E0,0E0,0E0,0E0],"parents":[2147483647,0,0,1,1,2,2,3,3,5,5,7,7,8,8,10,10],"right_children":[2,4,6,8,-1,10,-1,12,14,-1,16,-1,-1,-1,-1,-1,-1],"split_conditions":[1E0,1E0,1E0,1E0,-2.6349434E-1,1E0,-1.5318172E-1,1E0,1E0,2.2995444E-1,1E0,-3.0338954E-2,1.270605E-1,8.914204E-2,3.1231344E-1,-5.293531E-2,5.048291E-2],"split_indices":[712,1934,1765,1447,0,961,0,114,1057,0,1911,0,0,0,0,0,0],"split_type":[0,0,0,0,0,0,0,0,0,0,0,0,0,0,0,0,0],"sum_hessian":[2.6223026E2,2.3352457E2,2.8705675E1,2.268262E2,6.698372E0,2.5152136E1,3.5535398E0,2.19144E2,7.682212E0,1.76782E1,7.473935E0,1.9906563E2,2.0078365E1,4.0694575E0,3.612754E0,3.489827E0,3.9841082E0],"tree_param":{"num_deleted":"0","num_feature":"2048","num_nodes":"17","size_leaf_vector":"1"}},{"base_weights":[-0E0,-4.107305E-2,5.972035E-1,-7.003312E-2,2.6990154E-1,2.3777457E-1,2.3573628E-1,-1.3315259E-1,4.1864872E-1,-0E0,1.4979456E-1,-4.2716015E-2,2.1590528E-1,1.8788777E-1,-5.32073E-2],"categories":[],"categories_nodes":[],"categories_segments":[],"categories_sizes":[],"default_left":[0,0,0,0,0,0,0,0,0,0,0,0,0,0,0],"id":19,"left_children":[1,3,5,7,-1,-1,9,11,13,-1,-1,-1,-1,-1,-1],"loss_changes":[6.4812665E0,7.3574452E0,1.4910254E0,7.1828794E0,0E0,0E0,9.056897E-1,7.179039E0,5.677044E0,0E0,0E0,0E0,0E0,0E0,0E0],"parents":[2147483647,0,0,1,1,2,2,3,3,6,6,7,7,8,8],"right_children":[2,4,6,8,-1,-1,10,12,14,-1,-1,-1,-1,-1,-1],"split_conditions":[1E0,1E0,1E0,1E0,2.6990154E-1,2.3777457E-1,1E0,1E0,1E0,-0E0,1.4979456E-1,-4.2716015E-2,2.1590528E-1,1.8788777E-1,-5.32073E-2],"split_indices":[598,1570,1917,712,0,0,1816,698,961,0,0,0,0,0,0],"split_type":[0,0,0,0,0,0,0,0,0,0,0,0,0,0,0],"sum_hessian":[2.5669165E2,2.4025003E2,1.6441607E1,2.3503206E2,5.21798E0,7.370841E0,9.0707655E0,2.0927747E2,2.5754585E1,5.544763E0,3.526002E0,2.0285716E2,6.420301E0,1.7364853E1,8.389731E0],"tree_param":{"num_deleted":"0","num_feature":"2048","num_nodes":"15","size_leaf_vector":"1"}},{"base_weights":[1.7029693E-2,-1.8915491E-2,7.2080415E-1,-4.8182543E-2,2.541062E-1,2.699503E-1,4.2149337E-4,-7.735239E-2,2.4140652E-1,-2.9641088E-2,1.820588E-1],"categories":[],"categories_nodes":[],"categories_segments":[],"categories_sizes":[],"default_left":[0,0,0,0,0,0,0,0,0,0,0],"id":20,"left_children":[1,3,5,7,-1,-1,-1,9,-1,-1,-1],"loss_changes":[6.647986E0,6.784126E0,2.7341008E0,6.49632E0,0E0,0E0,0E0,7.010052E0,0E0,0E0,0E0],"parents":[2147483647,0,0,1,1,2,2,3,3,7,7],"right_children":[2,4,6,8,-1,-1,-1,10,-1,-1,-1],"split_conditions":[1E0,1E0,1E0,1E0,2.541062E-1,2.699503E-1,4.2149337E-4,1E0,2.4140652E-1,-2.9641088E-2,1.820588E-1],"split_indices":[116,79,1729,834,0,0,0,1825,0,0,0],"split_type":[0,0,0,0,0,0,0,0,0,0,0],"sum_hessian":[2.5041603E2,2.3823665E2,1.2179377E1,2.3255147E2,5.685193E0,7.6426973E0,4.5366797E0,2.2690495E2,5.6465044E0,2.1709146E2,9.813493E0],"tree_param":{"num_deleted":"0","num_feature":"2048","num_nodes":"11","size_leaf_vector":"1"}},{"base_weights":[1.0968357E-2,3.9311707E-2,-8.044479E-1,1.2934662E-1,-2.1339428E-1,-7.018602E-2,-2.6443395E-1,1.6984388E-1,-7.128423E-1,-3.227563E-1,2.0733994E-1,5.343195E-2,-1.6394374E-1,-8.0054715E-2,-2.4470608E-1,-1.0203518E-1,1.5284817E-1],"categories":[],"categories_nodes":[],"categories_segments":[],"categories_sizes":[],"default_left":[0,0,0,0,0,0,0,0,0,0,0,0,0,0,0,0,0],"id":21,"left_children":[1,3,5,7,9,-1,-1,11,13,15,-1,-1,-1,-1,-1,-1,-1],"loss_changes":[5.4890165E0,5.510812E0,2.894144E-1,6.0120425E0,7.049974E0,0E0,0E0,5.7547965E0,8.844662E-2,4.3561645E0,0E0,0E0,0E0,0E0,0E0,0E0,0E0],"parents":[2147483647,0,0,1,1,2,2,3,3,4,4,7,7,8,8,9,9],"right_children":[2,4,6,8,10,-1,-1,12,14,16,-1,-1,-1,-1,-1,-1,-1],"split_conditions":[1E0,1E0,1E0,1E0,1E0,-7.018602E-2,-2.6443395E-1,1E0,1E0,1E0,2.0733994E-1,5.343195E-2,-1.6394374E-1,-8.0054715E-2,-2.4470608E-1,-1.0203518E-1,1.5284817E-1],"split_indices":[1298,1536,935,84,1,0,0,552,1581,1607,0,0,0,0,0,0,0],"split_type":[0,0,0,0,0,0,0,0,0,0,0,0,0,0,0,0,0],"sum_hessian":[2.4978209E2,2.4242558E2,7.3564987E0,1.8016147E2,6.2264114E1,3.2421627E0,4.114336E0,1.728147E2,7.346778E0,5.7031467E1,5.2326465E0,1.654065E2,7.408195E0,4.0234003E0,3.3233776E0,5.319497E1,3.8364997E0],"tree_param":{"num_deleted":"0","num_feature":"2048","num_nodes":"17","size_leaf_vector":"1"}},{"base_weights":[1.5187578E-2,4.0084537E-2,-2.4941517E-1,-0E0,6.698155E-1,2.2046389E-2,-2.710635E-1,7.780516E-1,4.1348275E-2,-3.6666114E-3,1.5324418E-1,2.4634437E-1,2.1081261E-2],"categories":[],"categories_nodes":[],"categories_segments":[],"categories_sizes":[],"default_left":[0,0,0,0,0,0,0,0,0,0,0,0,0],"id":22,"left_children":[1,3,-1,5,7,9,-1,11,-1,-1,-1,-1,-1],"loss_changes":[5.7372103E0,6.240062E0,0E0,5.630746E0,3.4517097E-1,4.9743147E0,0E0,1.0541549E0,0E0,0E0,0E0,0E0,0E0],"parents":[2147483647,0,0,1,1,3,3,4,4,5,5,7,7],"right_children":[2,4,-1,6,8,10,-1,12,-1,-1,-1,-1,-1],"split_conditions":[1E0,1E0,-2.4941517E-1,1E0,1E0,1E0,-2.710635E-1,1E0,4.1348275E-2,-3.6666114E-3,1.5324418E-1,2.4634437E-1,2.1081261E-2],"split_indices":[387,1243,0,1366,1783,917,0,1416,0,0,0,0,0],"split_type":[0,0,0,0,0,0,0,0,0,0,0,0,0],"sum_hessian":[2.444223E2,2.3944624E2,4.976063E0,2.2526985E2,1.4176386E1,2.210474E2,4.2224646E0,1.0746177E1,3.4302087E0,2.0789864E2,1.3148754E1,7.7379894E0,3.0081873E0],"tree_param":{"num_deleted":"0","num_feature":"2048","num_nodes":"13","size_leaf_vector":"1"}},{"base_weights":[1.1901508E-2,4.2733833E-2,-6.9607055E-1,-3.0972004E-2,3.8648105E-1,-2.4929383E-1,-7.086141E-2,-2.1098357E-1,1.9880912E-1,8.887116E-1,-8.707796E-2,-1.2045458E-1,2.4758108E-2,6.5861806E-2,-2.2244039E-1,2.74875E-1,6.359073E-2,5.9396204E-2,-1.5454951E-1],"categories":[],"categories_nodes":[],"categories_segments":[],"categories_sizes":[],"default_left":[0,0,0,0,0,0,0,0,0,0,0,0,0,0,0,0,0,0,0],"id":23,"left_children":[1,3,5,7,9,-1,-1,11,13,15,17,-1,-1,-1,-1,-1,-1,-1,-1],"loss_changes":[5.0423903E0,6.0715237E0,4.6797752E-1,7.966624E0,1.0430775E1,0E0,0E0,9.094268E0,5.414445E0,1.9276047E0,3.925413E0,0E0,0E0,0E0,0E0,0E0,0E0,0E0,0E0],"parents":[2147483647,0,0,1,1,2,2,3,3,4,4,7,7,8,8,9,9,10,10],"right_children":[2,4,6,8,10,-1,-1,12,14,16,18,-1,-1,-1,-1,-1,-1,-1,-1],"split_conditions":[1E0,1E0,1E0,1E0,1E0,-2.4929383E-1,-7.086141E-2,1E0,1E0,1E0,1E0,-1.2045458E-1,2.4758108E-2,6.5861806E-2,-2.2244039E-1,2.74875E-1,6.359073E-2,5.9396204E-2,-1.5454951E-1],"split_indices":[9,1143,1951,1019,807,0,0,1917,1443,1754,1536,0,0,0,0,0,0,0,0],"split_type":[0,0,0,0,0,0,0,0,0,0,0,0,0,0,0,0,0,0,0],"sum_hessian":[2.4197375E2,2.3296776E2,9.005998E0,1.9128804E2,4.1679718E1,4.2507806E0,4.755217E0,1.0829578E2,8.299226E1,2.0399345E1,2.128037E1,5.8831707E1,4.946407E1,7.9303734E1,3.6885371E0,1.47619705E1,5.637375E0,1.289384E1,8.386532E0],"tree_param":{"num_deleted":"0","num_feature":"2048","num_nodes":"19","size_leaf_vector":"1"}},{"base_weights":[-1.5453014E-3,-3.2535657E-2,9.792044E-1,-5.9432764E-2,2.0431335E-1,1.0765618E-1,3.1835273E-1,7.055623E-2,-2.1966575E-1,-1.2615443E-3,1.6226605E-1,-7.5351425E-2,1.6291304E-1],"categories":[],"categories_nodes":[],"categories_segments":[],"categories_sizes":[],"default_left":[0,0,0,0,0,0,0,0,0,0,0,0,0],"id":24,"left_children":[1,3,5,7,-1,-1,-1,9,11,-1,-1,-1,-1],"loss_changes":[6.8897166E0,4.9736605E0,5.729866E-2,4.786534E0,0E0,0E0,0E0,5.611041E0,6.9125733E0,0E0,0E0,0E0,0E0],"parents":[2147483647,0,0,1,1,2,2,3,3,7,7,8,8],"right_children":[2,4,6,8,-1,-1,-1,10,12,-1,-1,-1,-1],"split_conditions":[1E0,1E0,1E0,1E0,2.0431335E-1,1.0765618E-1,3.1835273E-1,1E0,1E0,-1.2615443E-3,1.6226605E-1,-7.5351425E-2,1.6291304E-1],"split_indices":[407,698,1088,875,0,0,0,1765,598,0,0,0,0],"split_type":[0,0,0,0,0,0,0,0,0,0,0,0,0],"sum_hessian":[2.3834323E2,2.3200568E2,6.337554E0,2.258158E2,6.1898746E0,3.1187773E0,3.2187767E0,1.23432724E2,1.0238308E2,1.0888105E2,1.4551674E1,9.4686554E1,7.696523E0],"tree_param":{"num_deleted":"0","num_feature":"2048","num_nodes":"13","size_leaf_vector":"1"}},{"base_weights":[1.31423315E-2,3.3564758E-2,-2.5775635E-1,5.2401195E-3,2.0918347E-1,-2.7975295E-2,6.403912E-1,-1.7343367E-2,1.4865902E-1,5.5527024E-2,2.5832605E-1],"categories":[],"categories_nodes":[],"categories_segments":[],"categories_sizes":[],"default_left":[0,0,0,0,0,0,0,0,0,0,0],"id":25,"left_children":[1,3,-1,5,-1,7,9,-1,-1,-1,-1],"loss_changes":[4.6602297E0,4.9516525E0,0E0,5.091355E0,0E0,5.2354403E0,1.2788839E0,0E0,0E0,0E0,0E0],"parents":[2147483647,0,0,1,1,3,3,5,5,6,6],"right_children":[2,4,-1,6,-1,8,10,-1,-1,-1,-1],"split_conditions":[1E0,1E0,-2.5775635E-1,1E0,2.0918347E-1,1E0,1E0,-1.7343367E-2,1.4865902E-1,5.5527024E-2,2.5832605E-1],"split_indices":[713,323,0,1884,0,1243,389,0,0,0,0],"split_type":[0,0,0,0,0,0,0,0,0,0,0],"sum_hessian":[2.3896059E2,2.3527618E2,3.6843936E0,2.2824075E2,7.035432E0,2.1681715E2,1.1423601E1,2.0453517E2,1.2281978E1,6.3810034E0,5.0425973E0],"tree_param":{"num_deleted":"0","num_feature":"2048","num_nodes":"11","size_leaf_vector":"1"}},{"base_weights":[1.3429492E-3,-1.9088572E-2,2.2765031E-1,-6.758472E-2,3.8004342E-1,-1.0627789E-1,5.418479E-1,5.645313E-1,-1.13021664E-1,-1.8446075E-2,-2.8079483E-1,2.1715084E-1,5.9790686E-3,2.0840807E-1,1.5378074E-2],"categories":[],"categories_nodes":[],"categories_segments":[],"categories_sizes":[],"default_left":[0,0,0,0,0,0,0,0,0,0,0,0,0,0,0],"id":26,"left_children":[1,3,-1,5,7,9,11,13,-1,-1,-1,-1,-1,-1,-1],"loss_changes":[4.676528E0,4.32563E0,0E0,4.710218E0,3.8603344E0,5.988054E0,1.549659E0,2.2538075E0,0E0,0E0,0E0,0E0,0E0,0E0,0E0],"parents":[2147483647,0,0,1,1,3,3,4,4,5,5,6,6,7,7],"right_children":[2,4,-1,6,8,10,12,14,-1,-1,-1,-1,-1,-1,-1],"split_conditions":[1E0,1E0,2.2765031E-1,1E0,1E0,1E0,1E0,1E0,-1.13021664E-1,-1.8446075E-2,-2.8079483E-1,2.1715084E-1,5.9790686E-3,2.0840807E-1,1.5378074E-2],"split_indices":[1343,712,0,116,1765,1934,875,961,0,0,0,0,0,0,0],"split_type":[0,0,0,0,0,0,0,0,0,0,0,0,0,0,0],"sum_hessian":[2.3385309E2,2.2876826E2,5.0848207E0,2.0534506E2,2.3423204E1,1.9418301E2,1.1162053E1,1.9711626E1,3.711578E0,1.8894162E2,5.2413893E0,6.1958404E0,4.966213E0,1.2228848E1,7.4827776E0],"tree_param":{"num_deleted":"0","num_feature":"2048","num_nodes":"15","size_leaf_vector":"1"}},{"base_weights":[1.4354614E-2,3.4090012E-2,-2.4962686E-1,-0E0,7.549023E-1,-2.4829587E-2,2.4998541E-1,-0E0,2.6700556E-1,-1.6882904E-2,1.3817093E-1],"categories":[],"categories_nodes":[],"categories_segments":[],"categories_sizes":[],"default_left":[0,0,0,0,0,0,0,0,0,0,0],"id":27,"left_children":[1,3,-1,5,7,9,-1,-1,-1,-1,-1],"loss_changes":[4.190262E0,5.788666E0,0E0,5.100491E0,2.1978517E0,4.9170856E0,0E0,0E0,0E0,0E0,0E0],"parents":[2147483647,0,0,1,1,3,3,4,4,5,5],"right_children":[2,4,-1,6,8,10,-1,-1,-1,-1,-1],"split_conditions":[1E0,1E0,-2.4962686E-1,1E0,1E0,1E0,2.4998541E-1,-0E0,2.6700556E-1,-1.6882904E-2,1.3817093E-1],"split_indices":[946,1017,0,1570,1917,917,0,0,0,0,0],"split_type":[0,0,0,0,0,0,0,0,0,0,0],"sum_hessian":[2.3049448E2,2.2700238E2,3.4920976E0,2.1697223E2,1.0030148E1,2.1247134E2,4.500882E0,3.2095418E0,6.8206058E0,1.9910857E2,1.336278E1],"tree_param":{"num_deleted":"0","num_feature":"2048","num_nodes":"11","size_leaf_vector":"1"}},{"base_weights":[-0E0,4.105287E-2,-4.9142462E-1,-2.4811389E-2,3.4039205E-1,-2.0955917E-1,1.1559198E-1,-7.46634E-2,8.790568E-1,7.690538E-1,-8.1231974E-2,-6.627196E-2,3.8376037E-2,5.7199616E-2,2.9356557E-1,2.3131149E-1,-0E0,-8.254395E-2,9.3620986E-2],"categories":[],"categories_nodes":[],"categories_segments":[],"categories_sizes":[],"default_left":[0,0,0,0,0,0,0,0,0,0,0,0,0,0,0,0,0,0,0],"id":28,"left_children":[1,3,5,7,9,-1,-1,11,13,15,17,-1,-1,-1,-1,-1,-1,-1,-1],"loss_changes":[4.5744576E0,4.2954564E0,5.9534054E0,7.473123E0,7.4106703E0,0E0,0E0,7.0312257E0,8.5401964E-1,1.8964872E0,2.2440457E0,0E0,0E0,0E0,0E0,0E0,0E0,0E0,0E0],"parents":[2147483647,0,0,1,1,2,2,3,3,4,4,7,7,8,8,9,9,10,10],"right_children":[2,4,6,8,10,-1,-1,12,14,16,18,-1,-1,-1,-1,-1,-1,-1,-1],"split_conditions":[1E0,1E0,1E0,1E0,1E0,-2.0955917E-1,1.1559198E-1,1E0,1E0,1E0,1E0,-6.627196E-2,3.8376037E-2,5.7199616E-2,2.9356557E-1,2.3131149E-1,-0E0,-8.254395E-2,9.3620986E-2],"split_indices":[1697,1143,486,45,807,0,0,1019,1028,310,656,0,0,0,0,0,0,0,0],"split_type":[0,0,0,0,0,0,0,0,0,0,0,0,0,0,0,0,0,0,0],"sum_hessian":[2.2728612E2,2.1040834E2,1.6877785E1,1.7177437E2,3.863398E1,1.2832615E1,4.0451694E0,1.6374336E2,8.031006E0,1.9401417E1,1.9232561E1,9.056129E1,7.3182076E1,3.1795108E0,4.851495E0,1.5832644E1,3.5687726E0,1.3165286E1,6.0672755E0],"tree_param":{"num_deleted":"0","num_feature":"2048","num_nodes":"19","size_leaf_vector":"1"}},{"base_weights":[1.2861036E-2,-2.107092E-3,2.6128548E-1,-4.5531414E-2,3.8414317E-1,-6.7194946E-2,2.3438421E-1,1.852221E-1,-4.7910344E-2,-2.614094E-2,1.2834845E-1,-1.6519096E-1,7.287822E-2],"categories":[],"categories_nodes":[],"categories_segments":[],"categories_sizes":[],"default_left":[0,0,0,0,0,0,0,0,0,0,0,0,0],"id":29,"left_children":[1,3,-1,5,7,9,-1,-1,11,-1,-1,-1,-1],"loss_changes":[3.8512294E0,3.582302E0,0E0,3.9009352E0,3.528782E0,3.9492774E0,0E0,0E0,2.2119443E0,0E0,0E0,0E0,0E0],"parents":[2147483647,0,0,1,1,3,3,4,4,5,5,8,8],"right_children":[2,4,-1,6,8,10,-1,-1,12,-1,-1,-1,-1],"split_conditions":[1E0,1E0,2.6128548E-1,1E0,1E0,1E0,2.3438421E-1,1.852221E-1,1E0,-2.614094E-2,1.2834845E-1,-1.6519096E-1,7.287822E-2],"split_indices":[12,712,0,746,718,116,0,0,650,0,0,0,0],"split_type":[0,0,0,0,0,0,0,0,0,0,0,0,0],"sum_hessian":[2.2377036E2,2.2071527E2,3.055084E0,1.998402E2,2.0875076E1,1.9643683E2,3.4033568E0,1.1868396E1,9.0066805E0,1.8595412E2,1.04827175E1,3.455905E0,5.5507755E0],"tree_param":{"num_deleted":"0","num_feature":"2048","num_nodes":"13","size_leaf_vector":"1"}},{"base_weights":[1.3063669E-2,-1.4439115E-2,5.742771E-1,-3.5306104E-2,2.4009596E-1,4.1058537E-2,2.2880097E-1,-9.992516E-2,2.4437413E-1,-3.275197E-2,2.2014831E-1,9.567901E-2,-2.396973E-1],"categories":[],"categories_nodes":[],"categories_segments":[],"categories_sizes":[],"default_left":[0,0,0,0,0,0,0,0,0,0,0,0,0],"id":30,"left_children":[1,3,5,7,-1,-1,-1,9,11,-1,-1,-1,-1],"loss_changes":[3.635877E0,3.859695E0,9.681585E-1,3.6845648E0,0E0,0E0,0E0,4.6020203E0,5.9831967E0,0E0,0E0,0E0,0E0],"parents":[2147483647,0,0,1,1,2,2,3,3,7,7,8,8],"right_children":[2,4,6,8,-1,-1,-1,10,12,-1,-1,-1,-1],"split_conditions":[1E0,1E0,1E0,1E0,2.4009596E-1,4.1058537E-2,2.2880097E-1,1E0,1E0,-3.275197E-2,2.2014831E-1,9.567901E-2,-2.396973E-1],"split_indices":[203,757,881,1573,0,0,0,117,1582,0,0,0,0],"split_type":[0,0,0,0,0,0,0,0,0,0,0,0,0],"sum_hessian":[2.1966072E2,2.0924643E2,1.041429E1,2.0578719E2,3.459238E0,5.579653E0,4.8346376E0,1.6867386E2,3.711334E1,1.6460707E2,4.06678E0,3.4044212E1,3.0691297E0],"tree_param":{"num_deleted":"0","num_feature":"2048","num_nodes":"13","size_leaf_vector":"1"}},{"base_weights":[3.0336601E-3,2.815805E-2,-2.4345903E-1,4.8535857E-2,-2.2238955E-1,7.564519E-2,-6.4761233E-1,2.4610227E-2,-2.1430832E-1,-2.5699252E-1,-3.1659715E-2],"categories":[],"categories_nodes":[],"categories_segments":[],"categories_sizes":[],"default_left":[0,0,0,0,0,0,0,0,0,0,0],"id":31,"left_children":[1,3,-1,5,-1,7,9,-1,-1,-1,-1],"loss_changes":[4.898755E0,3.6144488E0,0E0,3.7389069E0,0E0,3.7714195E0,8.620596E-1,0E0,0E0,0E0,0E0],"parents":[2147483647,0,0,1,1,3,3,5,5,6,6],"right_children":[2,4,-1,6,-1,8,10,-1,-1,-1,-1],"split_conditions":[1E0,1E0,-2.4345903E-1,1E0,-2.2238955E-1,1E0,1E0,2.4610227E-2,-2.1430832E-1,-2.5699252E-1,-3.1659715E-2],"split_indices":[1947,458,0,552,0,1443,1057,0,0,0,0],"split_type":[0,0,0,0,0,0,0,0,0,0,0],"sum_hessian":[2.1670776E2,2.1218637E2,4.5213957E0,2.0851692E2,3.6694453E0,2.0178033E2,6.736579E0,1.9811855E2,3.6618016E0,3.16144E0,3.575139E0],"tree_param":{"num_deleted":"0","num_feature":"2048","num_nodes":"11","size_leaf_vector":"1"}},{"base_weights":[-0E0,-2.3853311E-2,1.6623595E-1,-4.6569385E-2,1.8582094E-1,-2.0318877E-2,-2.1382083E-1,4.3981546E-3,-1.271163E-1],"categories":[],"categories_nodes":[],"categories_segments":[],"categories_sizes":[],"default_left":[0,0,0,0,0,0,0,0,0],"id":32,"left_children":[1,3,-1,5,-1,7,-1,-1,-1],"loss_changes":[3.5916417E0,3.3392136E0,0E0,3.912159E0,0E0,3.8182852E0,0E0,0E0,0E0],"parents":[2147483647,0,0,1,1,3,3,5,5],"right_children":[2,4,-1,6,-1,8,-1,-1,-1],"split_conditions":[1E0,1E0,1.6623595E-1,1E0,1.8582094E-1,1E0,-2.1382083E-1,4.3981546E-3,-1.271163E-1],"split_indices":[1825,698,0,14,0,1697,0,0,0],"split_type":[0,0,0,0,0,0,0,0,0],"sum_hessian":[2.160935E2,2.0863715E2,7.456357E0,2.0363597E2,5.001175E0,1.9824194E2,5.3940334E0,1.8359479E2,1.4647156E1],"tree_param":{"num_deleted":"0","num_feature":"2048","num_nodes":"9","size_leaf_vector":"1"}},{"base_weights":[4.83965E-3,-1.0215819E-2,2.3621097E-1,-3.134411E-2,1.9292365E-1,-5.7363518E-2,2.1361081E-1,-7.956189E-3,-2.2893849E-1],"categories":[],"categories_nodes":[],"categories_segments":[],"categories_sizes":[],"default_left":[0,0,0,0,0,0,0,0,0],"id":33,"left_children":[1,3,-1,5,-1,7,-1,-1,-1],"loss_changes":[3.3880506E0,3.1623118E0,0E0,4.4149594E0,0E0,4.0308504E0,0E0,0E0,0E0],"parents":[2147483647,0,0,1,1,3,3,5,5],"right_children":[2,4,-1,6,-1,8,-1,-1,-1],"split_conditions":[1E0,1E0,2.3621097E-1,1E0,1.9292365E-1,1E0,2.1361081E-1,-7.956189E-3,-2.2893849E-1],"split_indices":[1509,1524,0,364,0,597,0,0,0],"split_type":[0,0,0,0,0,0,0,0,0],"sum_hessian":[2.1406871E2,2.1079099E2,3.2777307E0,2.0625288E2,4.5381002E0,2.01295E2,4.9578843E0,1.9638739E2,4.90761E0],"tree_param":{"num_deleted":"0","num_feature":"2048","num_nodes":"9","size_leaf_vector":"1"}},{"base_weights":[1.0588601E-3,1.8840816E-2,-2.2318618E-1,-5.2720803E-4,1.8194847E-1,2.157129E-2,-2.2547078E-1,-4.9134637E-3,1.2623665E-1],"categories":[],"categories_nodes":[],"categories_segments":[],"categories_sizes":[],"default_left":[0,0,0,0,0,0,0,0,0],"id":34,"left_children":[1,3,-1,5,-1,7,-1,-1,-1],"loss_changes":[3.0332625E0,3.1728435E0,0E0,4.431571E0,0E0,4.1454887E0,0E0,0E0,0E0],"parents":[2147483647,0,0,1,1,3,3,5,5],"right_children":[2,4,-1,6,-1,8,-1,-1,-1],"split_conditions":[1E0,1E0,-2.2318618E-1,1E0,1.8194847E-1,1E0,-2.2547078E-1,-4.9134637E-3,1.2623665E-1],"split_indices":[1495,323,0,54,0,712,0,0,0],"split_type":[0,0,0,0,0,0,0,0,0],"sum_hessian":[2.1469217E2,2.1148038E2,3.2117915E0,2.0578839E2,5.691992E0,2.0091519E2,4.873195E0,1.8475018E2,1.6165009E1],"tree_param":{"num_deleted":"0","num_feature":"2048","num_nodes":"9","size_leaf_vector":"1"}},{"base_weights":[8.094518E-3,-9.038993E-3,2.1721196E-1,1.6243659E-2,-1.9628756E-1,-5.3084036E-3,2.4860996E-1,4.5910235E-3,-1.8828203E-1],"categories":[],"categories_nodes":[],"categories_segments":[],"categories_sizes":[],"default_left":[0,0,0,0,0,0,0,0,0],"id":35,"left_children":[1,3,-1,5,-1,7,-1,-1,-1],"loss_changes":[3.4546266E0,4.365179E0,0E0,4.6138916E0,0E0,3.7343225E0,0E0,0E0,0E0],"parents":[2147483647,0,0,1,1,3,3,5,5],"right_children":[2,4,-1,6,-1,8,-1,-1,-1],"split_conditions":[1E0,1E0,2.1721196E-1,1E0,-1.9628756E-1,1E0,2.4860996E-1,4.5910235E-3,-1.8828203E-1],"split_indices":[1343,281,0,1896,0,9,0,0,0],"split_type":[0,0,0,0,0,0,0,0,0],"sum_hessian":[2.1215054E2,2.0805702E2,4.09351E0,2.0145291E2,6.604121E0,1.9721416E2,4.2387433E0,1.9116327E2,6.0508947E0],"tree_param":{"num_deleted":"0","num_feature":"2048","num_nodes":"9","size_leaf_vector":"1"}},{"base_weights":[9.062251E-3,-1.5960302E-2,5.125608E-1,7.942699E-3,-2.3866782E-1,2.0285912E-1,1.4235609E-3,-1.4256955E-2,1.8806252E-1,-1.1750039E-2,1.2416571E-1],"categories":[],"categories_nodes":[],"categories_segments":[],"categories_sizes":[],"default_left":[0,0,0,0,0,0,0,0,0,0,0],"id":36,"left_children":[1,3,5,7,-1,-1,-1,9,-1,-1,-1],"loss_changes":[2.8702044E0,4.8438706E0,1.2455337E0,3.506975E0,0E0,0E0,0E0,2.9214842E0,0E0,0E0,0E0],"parents":[2147483647,0,0,1,1,2,2,3,3,7,7],"right_children":[2,4,6,8,-1,-1,-1,10,-1,-1,-1],"split_conditions":[1E0,1E0,1E0,1E0,-2.3866782E-1,2.0285912E-1,1.4235609E-3,1E0,1.8806252E-1,-1.1750039E-2,1.2416571E-1],"split_indices":[203,1747,1917,407,0,0,0,116,0,0,0],"split_type":[0,0,0,0,0,0,0,0,0,0,0],"sum_hessian":[2.1054808E2,2.003436E2,1.0204477E1,1.9544548E2,4.8981166E0,5.7607656E0,4.4437113E0,1.8973424E2,5.711242E0,1.7964294E2,1.0091299E1],"tree_param":{"num_deleted":"0","num_feature":"2048","num_nodes":"11","size_leaf_vector":"1"}},{"base_weights":[-3.771138E-4,-2.0023404E-2,2.436083E-1,3.4256354E-3,-5.976493E-1,2.2545192E-2,-1.9978702E-1,-6.596532E-2,-2.2637053E-1,-1.0199418E-3,2.601032E-1],"categories":[],"categories_nodes":[],"categories_segments":[],"categories_sizes":[],"default_left":[0,0,0,0,0,0,0,0,0,0,0],"id":37,"left_children":[1,3,-1,5,7,9,-1,-1,-1,-1,-1],"loss_changes":[3.6091206E0,3.0579267E0,0E0,2.715531E0,2.6365018E-1,5.6546273E0,0E0,0E0,0E0,0E0,0E0],"parents":[2147483647,0,0,1,1,3,3,4,4,5,5],"right_children":[2,4,-1,6,8,10,-1,-1,-1,-1,-1],"split_conditions":[1E0,1E0,2.436083E-1,1E0,1E0,1E0,-1.9978702E-1,-6.596532E-2,-2.2637053E-1,-1.0199418E-3,2.601032E-1],"split_indices":[782,1195,0,1624,314,117,0,0,0,0,0],"split_type":[0,0,0,0,0,0,0,0,0,0,0],"sum_hessian":[2.1016415E2,2.0695067E2,3.2134943E0,1.9875478E2,8.195895E0,1.9514516E2,3.609608E0,5.010911E0,3.1849842E0,1.9029259E2,4.852573E0],"tree_param":{"num_deleted":"0","num_feature":"2048","num_nodes":"11","size_leaf_vector":"1"}},{"base_weights":[4.8107235E-3,2.2914981E-2,-2.2058718E-1,4.315124E-2,-1.7176785E-1,6.942741E-2,-5.087278E-1,2.38688E-2,-1.4890659E-1,-2.1532817E-1,-1.4177764E-2],"categories":[],"categories_nodes":[],"categories_segments":[],"categories_sizes":[],"default_left":[0,0,0,0,0,0,0,0,0,0,0],"id":38,"left_children":[1,3,-1,5,-1,7,9,-1,-1,-1,-1],"loss_changes":[2.989123E0,2.6871932E0,0E0,2.7667897E0,0E0,3.0038598E0,9.182997E-1,0E0,0E0,0E0,0E0],"parents":[2147483647,0,0,1,1,3,3,5,5,6,6],"right_children":[2,4,-1,6,-1,8,10,-1,-1,-1,-1],"split_conditions":[1E0,1E0,-2.2058718E-1,1E0,-1.7176785E-1,1E0,1E0,2.38688E-2,-1.4890659E-1,-2.1532817E-1,-1.4177764E-2],"split_indices":[1443,387,0,1912,0,703,1152,0,0,0,0],"split_type":[0,0,0,0,0,0,0,0,0,0,0],"sum_hessian":[2.0915154E2,2.0594527E2,3.2062614E0,2.012844E2,4.6608787E0,1.9334502E2,7.939384E0,1.8739024E2,5.954769E0,3.7055404E0,4.233844E0],"tree_param":{"num_deleted":"0","num_feature":"2048","num_nodes":"11","size_leaf_vector":"1"}},{"base_weights":[-1.0795702E-2,2.0365495E-2,-3.624949E-1,3.7696477E-2,-1.9685495E-1,-5.6590444E-1,8.270475E-2,5.886226E-2,-1.5171611E-1,-0E0,-7.207675E-1,2.0963514E-2,-1.3333872E-1,-8.152857E-2,-2.312367E-1],"categories":[],"categories_nodes":[],"categories_segments":[],"categories_sizes":[],"default_left":[0,0,0,0,0,0,0,0,0,0,0,0,0,0,0],"id":39,"left_children":[1,3,5,7,-1,9,-1,11,-1,-1,13,-1,-1,-1,-1],"loss_changes":[2.4483244E0,2.3742025E0,2.761625E0,2.3526268E0,0E0,1.0644002E0,0E0,2.4336567E0,0E0,0E0,1.715231E-1,0E0,0E0,0E0,0E0],"parents":[2147483647,0,0,1,1,2,2,3,3,5,5,7,7,10,10],"right_children":[2,4,6,8,-1,10,-1,12,-1,-1,14,-1,-1,-1,-1],"split_conditions":[1E0,1E0,1E0,1E0,-1.9685495E-1,1E0,8.270475E-2,1E0,-1.5171611E-1,-0E0,1E0,2.0963514E-2,-1.3333872E-1,-8.152857E-2,-2.312367E-1],"split_indices":[835,458,197,1298,0,695,0,552,0,0,389,0,0,0,0],"split_type":[0,0,0,0,0,0,0,0,0,0,0,0,0,0,0],"sum_hessian":[2.0950703E2,1.9188768E2,1.7619347E1,1.8886856E2,3.019124E0,1.4149436E1,3.46991E0,1.8394415E2,4.9244013E0,3.60514E0,1.0544296E1,1.7787744E2,6.0667143E0,4.653182E0,5.891114E0],"tree_param":{"num_deleted":"0","num_feature":"2048","num_nodes":"15","size_leaf_vector":"1"}},{"base_weights":[-0E0,-2.287723E-2,2.1996823E-1,-5.9556216E-2,4.337106E-1,-1.2753017E-1,2.085344E-1,8.224763E-1,-4.4980776E-2,-7.462859E-2,1.6702559E-2,1.5707733E-1,-4.7719974E-2,3.153101E-1,2.9626642E-3],"categories":[],"categories_nodes":[],"categories_segments":[],"categories_sizes":[],"default_left":[0,0,0,0,0,0,0,0,0,0,0,0,0,0,0],"id":40,"left_children":[1,3,-1,5,7,9,11,13,-1,-1,-1,-1,-1,-1,-1],"loss_changes":[3.8120441E0,3.2436793E0,0E0,3.4144754E0,3.741449E0,5.0242777E0,6.318104E0,2.6412997E0,0E0,0E0,0E0,0E0,0E0,0E0,0E0],"parents":[2147483647,0,0,1,1,3,3,4,4,5,5,6,6,7,7],"right_children":[2,4,-1,6,8,10,12,14,-1,-1,-1,-1,-1,-1,-1],"split_conditions":[1E0,1E0,2.1996823E-1,1E0,1E0,1E0,1E0,1E0,-4.4980776E-2,-7.462859E-2,1.6702559E-2,1.5707733E-1,-4.7719974E-2,3.153101E-1,2.9626642E-3],"split_indices":[698,917,0,1143,695,1019,807,218,0,0,0,0,0,0,0],"split_type":[0,0,0,0,0,0,0,0,0,0,0,0,0,0,0],"sum_hessian":[2.0572887E2,2.0141476E2,4.3140965E0,1.8775188E2,1.3662884E1,1.5125368E2,3.6498207E1,8.640752E0,5.022132E0,8.208972E1,6.9163956E1,1.8256945E1,1.824126E1,5.1326594E0,3.5080922E0],"tree_param":{"num_deleted":"0","num_feature":"2048","num_nodes":"15","size_leaf_vector":"1"}},{"base_weights":[-8.9107985E-3,-2.727293E-2,2.1875049E-1,-6.277483E-2,4.2307547E-1,-8.3341286E-2,1.9930762E-1,6.189498E-1,-1.8655663E-2,-2.923841E-2,1.1886367E-1,2.3176487E-1,-0E0],"categories":[],"categories_nodes":[],"categories_segments":[],"categories_sizes":[],"default_left":[0,0,0,0,0,0,0,0,0,0,0,0,0],"id":41,"left_children":[1,3,-1,5,7,9,-1,11,-1,-1,-1,-1,-1],"loss_changes":[2.9120686E0,3.0513127E0,0E0,3.0004232E0,1.5932739E0,3.136774E0,0E0,2.23769E0,0E0,0E0,0E0,0E0,0E0],"parents":[2147483647,0,0,1,1,3,3,4,4,5,5,7,7],"right_children":[2,4,-1,6,8,10,-1,12,-1,-1,-1,-1,-1],"split_conditions":[1E0,1E0,2.1875049E-1,1E0,1E0,1E0,1.9930762E-1,1E0,-1.8655663E-2,-2.923841E-2,1.1886367E-1,2.3176487E-1,-0E0],"split_indices":[242,562,0,79,781,203,0,577,0,0,0,0,0],"split_type":[0,0,0,0,0,0,0,0,0,0,0,0,0],"sum_hessian":[2.0171614E2,1.9858708E2,3.129044E0,1.8539873E2,1.3188369E1,1.8201617E2,3.3825505E0,9.951268E0,3.2371E0,1.7315208E2,8.864088E0,6.8921065E0,3.0591617E0],"tree_param":{"num_deleted":"0","num_feature":"2048","num_nodes":"13","size_leaf_vector":"1"}},{"base_weights":[-0E0,-1.607671E-2,2.0369618E-1,2.6572521E-3,-1.8109848E-1,-2.0826815E-2,6.1814857E-1,-1.4267048E-2,1.0530462E-1,3.344829E-2,2.441187E-1],"categories":[],"categories_nodes":[],"categories_segments":[],"categories_sizes":[],"default_left":[0,0,0,0,0,0,0,0,0,0,0],"id":42,"left_children":[1,3,-1,5,-1,7,9,-1,-1,-1,-1],"loss_changes":[2.601001E0,2.9044998E0,0E0,3.056972E0,0E0,2.7648704E0,7.8324366E-1,0E0,0E0,0E0,0E0],"parents":[2147483647,0,0,1,1,3,3,5,5,6,6],"right_children":[2,4,-1,6,-1,8,10,-1,-1,-1,-1],"split_conditions":[1E0,1E0,2.0369618E-1,1E0,-1.8109848E-1,1E0,1E0,-1.4267048E-2,1.0530462E-1,3.344829E-2,2.441187E-1],"split_indices":[698,14,0,1447,0,917,1057,0,0,0,0],"split_type":[0,0,0,0,0,0,0,0,0,0,0],"sum_hessian":[2.0181583E2,1.9847217E2,3.3436565E0,1.9329417E2,5.177996E0,1.8609393E2,7.200241E0,1.7344391E2,1.2650026E1,3.8335214E0,3.3667197E0],"tree_param":{"num_deleted":"0","num_feature":"2048","num_nodes":"11","size_leaf_vector":"1"}},{"base_weights":[6.841071E-3,2.4777131E-2,-2.0546229E-1,5.999415E-4,2.3251171E-1,-2.3377664E-2,5.3405875E-1,-1.5182297E-2,1.113888E-1,2.1914965E-1,2.0406472E-2],"categories":[],"categories_nodes":[],"categories_segments":[],"categories_sizes":[],"default_left":[0,0,0,0,0,0,0,0,0,0,0],"id":43,"left_children":[1,3,-1,5,-1,7,9,-1,-1,-1,-1],"loss_changes":[2.6564813E0,3.9204168E0,0E0,2.7099273E0,0E0,3.0191183E0,9.436283E-1,0E0,0E0,0E0,0E0],"parents":[2147483647,0,0,1,1,3,3,5,5,6,6],"right_children":[2,4,-1,6,-1,8,10,-1,-1,-1,-1],"split_conditions":[1E0,1E0,-2.0546229E-1,1E0,2.3251171E-1,1E0,1E0,-1.5182297E-2,1.113888E-1,2.1914965E-1,2.0406472E-2],"split_indices":[1624,117,0,116,0,739,875,0,0,0,0],"split_type":[0,0,0,0,0,0,0,0,0,0,0],"sum_hessian":[2.0165509E2,1.9838754E2,3.2675548E0,1.9419022E2,4.197323E0,1.856373E2,8.552919E0,1.7335089E2,1.2286396E1,4.101089E0,4.451831E0],"tree_param":{"num_deleted":"0","num_feature":"2048","num_nodes":"11","size_leaf_vector":"1"}},{"base_weights":[2.1220714E-2,4.345988E-2,-5.024187E-1,1.4979231E-2,6.676592E-1,-1.9828482E-1,-2.3197176E-2,-4.9149585E-3,1.8615326E-1,2.7168384E-1,4.6323698E-2,2.4139115E-3,-1.9906577E-1],"categories":[],"categories_nodes":[],"categories_segments":[],"categories_sizes":[],"default_left":[0,0,0,0,0,0,0,0,0,0,0,0,0],"id":44,"left_children":[1,3,5,7,9,-1,-1,11,-1,-1,-1,-1,-1],"loss_changes":[2.1562386E0,3.1515357E0,4.5617485E-1,2.9745076E0,8.9779544E-1,0E0,0E0,2.3739345E0,0E0,0E0,0E0,0E0,0E0],"parents":[2147483647,0,0,1,1,2,2,3,3,4,4,7,7],"right_children":[2,4,6,8,10,-1,-1,12,-1,-1,-1,-1,-1],"split_conditions":[1E0,1E0,1E0,1E0,1E0,-1.9828482E-1,-2.3197176E-2,1E0,1.8615326E-1,2.7168384E-1,4.6323698E-2,2.4139115E-3,-1.9906577E-1],"split_indices":[1934,158,875,323,997,0,0,1921,0,0,0,0,0],"split_type":[0,0,0,0,0,0,0,0,0,0,0,0,0],"sum_hessian":[1.9974762E2,1.9288753E2,6.8600955E0,1.8568332E2,7.204202E0,3.156682E0,3.7034137E0,1.8070844E2,4.974891E0,3.0650938E0,4.139108E0,1.7748251E2,3.225927E0],"tree_param":{"num_deleted":"0","num_feature":"2048","num_nodes":"13","size_leaf_vector":"1"}},{"base_weights":[-0E0,-1.5882233E-2,1.9059205E-1,3.3765144E-3,-1.6029128E-1,-1.4887794E-2,2.3125745E-1,2.4768175E-3,-1.7814563E-1],"categories":[],"categories_nodes":[],"categories_segments":[],"categories_sizes":[],"default_left":[0,0,0,0,0,0,0,0,0],"id":45,"left_children":[1,3,-1,5,-1,7,-1,-1,-1],"loss_changes":[2.4181833E0,2.568768E0,0E0,3.5069108E0,0E0,3.428047E0,0E0,0E0,0E0],"parents":[2147483647,0,0,1,1,3,3,5,5],"right_children":[2,4,-1,6,-1,8,-1,-1,-1],"split_conditions":[1E0,1E0,1.9059205E-1,1E0,-1.6029128E-1,1E0,2.3125745E-1,2.4768175E-3,-1.7814563E-1],"split_indices":[1343,281,0,1896,0,1027,0,0,0],"split_type":[0,0,0,0,0,0,0,0,0],"sum_hessian":[1.9699461E2,1.9340909E2,3.5855184E0,1.8748103E2,5.9280596E0,1.8391943E2,3.5616047E0,1.7754498E2,6.3744383E0],"tree_param":{"num_deleted":"0","num_feature":"2048","num_nodes":"9","size_leaf_vector":"1"}},{"base_weights":[-0E0,-3.0165974E-2,3.763475E-1,-5.0607663E-2,1.885549E-1,7.6551074E-1,-8.3923474E-2,-1.888899E-2,-5.872599E-1,2.2823998E-1,7.060506E-2,-1.1619833E-2,1.8302871E-1,-2.2329469E-1,-0E0],"categories":[],"categories_nodes":[],"categories_segments":[],"categories_sizes":[],"default_left":[0,0,0,0,0,0,0,0,0,0,0,0,0,0,0],"id":46,"left_children":[1,3,5,7,-1,9,-1,11,13,-1,-1,-1,-1,-1,-1],"loss_changes":[2.2825928E0,2.635701E0,4.44569E0,2.796591E0,0E0,3.950882E-2,0E0,3.1638575E0,1.5754507E0,0E0,0E0,0E0,0E0,0E0,0E0],"parents":[2147483647,0,0,1,1,2,2,3,3,5,5,7,7,8,8],"right_children":[2,4,6,8,-1,10,-1,12,14,-1,-1,-1,-1,-1,-1],"split_conditions":[1E0,1E0,1E0,1E0,1.885549E-1,1E0,-8.3923474E-2,1E0,1E0,2.2823998E-1,7.060506E-2,-1.1619833E-2,1.8302871E-1,-2.2329469E-1,-0E0],"split_indices":[1607,547,745,84,0,1831,0,1670,1536,0,0,0,0,0,0],"split_type":[0,0,0,0,0,0,0,0,0,0,0,0,0,0,0],"sum_hessian":[1.9678247E2,1.8243433E2,1.4348133E1,1.7880573E2,3.6286082E0,9.604391E0,4.743742E0,1.7013278E2,8.672939E0,6.443597E0,3.160794E0,1.6522763E2,4.905161E0,5.5360622E0,3.1368766E0],"tree_param":{"num_deleted":"0","num_feature":"2048","num_nodes":"15","size_leaf_vector":"1"}},{"base_weights":[4.1457373E-3,2.5897074E-2,-1.4577359E-1,-0E0,1.6831209E-1,5.834232E-2,-2.22311E-1,2.3449324E-2,-1.6069373E-1,-2.1298182E-1,-1.0539459E-2],"categories":[],"categories_nodes":[],"categories_segments":[],"categories_sizes":[],"default_left":[0,0,0,0,0,0,0,0,0,0,0],"id":47,"left_children":[1,3,-1,5,-1,7,9,-1,-1,-1,-1],"loss_changes":[2.2275856E0,2.8754523E0,0E0,2.3082037E0,0E0,3.2801664E0,3.715827E0,0E0,0E0,0E0,0E0],"parents":[2147483647,0,0,1,1,3,3,5,5,6,6],"right_children":[2,4,-1,6,-1,8,10,-1,-1,-1,-1],"split_conditions":[1E0,1E0,-1.4577359E-1,1E0,1.6831209E-1,1E0,1E0,2.3449324E-2,-1.6069373E-1,-2.1298182E-1,-1.0539459E-2],"split_indices":[343,751,0,1683,0,703,926,0,0,0,0],"split_type":[0,0,0,0,0,0,0,0,0,0,0],"sum_hessian":[1.9324864E2,1.8749677E2,5.7518826E0,1.8130255E2,6.194214E0,1.4523383E2,3.606872E1,1.3944081E2,5.793015E0,7.140486E0,2.8928236E1],"tree_param":{"num_deleted":"0","num_feature":"2048","num_nodes":"11","size_leaf_vector":"1"}},{"base_weights":[5.737352E-3,2.266259E-2,-1.619381E-1,2.4180443E-3,1.4360134E-1,2.3441786E-2,-1.8904336E-1,-9.122979E-3,7.231838E-2],"categories":[],"categories_nodes":[],"categories_segments":[],"categories_sizes":[],"default_left":[0,0,0,0,0,0,0,0,0],"id":48,"left_children":[1,3,-1,5,-1,7,-1,-1,-1],"loss_changes":[1.8867314E0,1.8748665E0,0E0,2.64019E0,0E0,2.9484985E0,0E0,0E0,0E0],"parents":[2147483647,0,0,1,1,3,3,5,5],"right_children":[2,4,-1,6,-1,8,-1,-1,-1],"split_conditions":[1E0,1E0,-1.619381E-1,1E0,1.4360134E-1,1E0,-1.8904336E-1,-9.122979E-3,7.231838E-2],"split_indices":[1366,407,0,54,0,1143,0,0,0],"split_type":[0,0,0,0,0,0,0,0,0],"sum_hessian":[1.9462952E2,1.9083778E2,3.7917314E0,1.853046E2,5.5331826E0,1.8134203E2,3.9625793E0,1.4695044E2,3.439159E1],"tree_param":{"num_deleted":"0","num_feature":"2048","num_nodes":"9","size_leaf_vector":"1"}},{"base_weights":[-0E0,2.0654108E-2,-4.5834568E-1,4.439596E-2,-1.619046E-1,-2.3191549E-1,-0E0,7.093748E-2,-4.8531687E-1,1.2481999E-2,2.0361471E-1,6.932988E-3,-2.5887236E-1],"categories":[],"categories_nodes":[],"categories_segments":[],"categories_sizes":[],"default_left":[0,0,0,0,0,0,0,0,0,0,0,0,0],"id":49,"left_children":[1,3,5,7,-1,-1,-1,9,11,-1,-1,-1,-1],"loss_changes":[1.7774163E0,2.7056167E0,2.0159812E0,2.4056962E0,0E0,0E0,0E0,2.3896122E0,2.6356134E0,0E0,0E0,0E0,0E0],"parents":[2147483647,0,0,1,1,2,2,3,3,7,7,8,8],"right_children":[2,4,6,8,-1,-1,-1,10,12,-1,-1,-1,-1],"split_conditions":[1E0,1E0,1E0,1E0,-1.619046E-1,-2.3191549E-1,-0E0,1E0,1E0,1.2481999E-2,2.0361471E-1,6.932988E-3,-2.5887236E-1],"split_indices":[591,597,389,1999,0,0,0,349,656,0,0,0,0],"split_type":[0,0,0,0,0,0,0,0,0,0,0,0,0],"sum_hessian":[1.940779E2,1.8658907E2,7.488829E0,1.8125085E2,5.338206E0,3.8302705E0,3.6585588E0,1.7383357E2,7.417282E0,1.7001907E2,3.8144972E0,3.690453E0,3.7268293E0],"tree_param":{"num_deleted":"0","num_feature":"2048","num_nodes":"13","size_leaf_vector":"1"}},{"base_weights":[1.5433516E-3,2.2181485E-2,-1.4989413E-1,4.5500956E-2,-1.5140532E-1,2.2792375E-2,1.9070214E-1,-8.638998E-3,7.546893E-2],"categories":[],"categories_nodes":[],"categories_segments":[],"categories_sizes":[],"default_left":[0,0,0,0,0,0,0,0,0],"id":50,"left_children":[1,3,-1,5,-1,7,-1,-1,-1],"loss_changes":[2.155292E0,2.524571E0,0E0,2.6194715E0,0E0,2.9213986E0,0E0,0E0,0E0],"parents":[2147483647,0,0,1,1,3,3,5,5],"right_children":[2,4,-1,6,-1,8,-1,-1,-1],"split_conditions":[1E0,1E0,-1.4989413E-1,1E0,-1.5140532E-1,1E0,1.9070214E-1,-8.638998E-3,7.546893E-2],"split_indices":[14,9,0,1810,0,1143,0,0,0],"split_type":[0,0,0,0,0,0,0,0,0],"sum_hessian":[1.9385962E2,1.885717E2,5.2879295E0,1.829115E2,5.660199E0,1.7838483E2,4.526674E0,1.470147E2,3.1370121E1],"tree_param":{"num_deleted":"0","num_feature":"2048","num_nodes":"9","size_leaf_vector":"1"}},{"base_weights":[-0E0,-1.3736965E-2,1.9845814E-1,-5.063205E-2,3.216397E-1,-7.484507E-2,1.4638464E-1,5.048984E-1,-5.109085E-2,-2.673123E-2,9.73779E-2,5.3623553E-2,1.9201498E-1],"categories":[],"categories_nodes":[],"categories_segments":[],"categories_sizes":[],"default_left":[0,0,0,0,0,0,0,0,0,0,0,0,0],"id":51,"left_children":[1,3,-1,5,7,9,-1,11,-1,-1,-1,-1,-1],"loss_changes":[2.3315394E0,2.2472966E0,0E0,2.4478602E0,1.8923279E0,2.2777896E0,0E0,5.3984594E-1,0E0,0E0,0E0,0E0,0E0],"parents":[2147483647,0,0,1,1,3,3,4,4,5,5,7,7],"right_children":[2,4,-1,6,8,10,-1,12,-1,-1,-1,-1,-1],"split_conditions":[1E0,1E0,1.9845814E-1,1E0,1E0,1E0,1.4638464E-1,1E0,-5.109085E-2,-2.673123E-2,9.73779E-2,5.3623553E-2,1.9201498E-1],"split_indices":[698,712,0,1285,1765,1017,0,650,0,0,0,0,0],"split_type":[0,0,0,0,0,0,0,0,0,0,0,0,0],"sum_hessian":[1.9244128E2,1.8929993E2,3.141357E0,1.7210164E2,1.7198286E1,1.6685753E2,5.244104E0,1.333938E1,3.8589058E0,1.5765417E2,9.203357E0,7.4517117E0,5.8876686E0],"tree_param":{"num_deleted":"0","num_feature":"2048","num_nodes":"13","size_leaf_vector":"1"}},{"base_weights":[-1.0632774E-3,-5.1017497E-2,1.9973916E-1,-9.710577E-2,2.962626E-1,-2.8217518E-1,4.0976834E-1,-1.3050428E-1,1.779785E-1,4.5752826E-1,-4.6430472E-2,-1.784385E-1,6.544599E-2,5.8261937E-1,9.5665745E-2,-4.3259557E-2,9.338843E-2,1.6419786E-1,1.0380976E-2,1.724392E-1,7.987828E-3,-3.5892766E-2,1.0503119E-1],"categories":[],"categories_nodes":[],"categories_segments":[],"categories_sizes":[],"default_left":[0,0,0,0,0,0,0,0,0,0,0,0,0,0,0,0,0,0,0,0,0,0,0],"id":52,"left_children":[1,3,5,7,9,11,13,15,-1,17,-1,-1,-1,19,21,-1,-1,-1,-1,-1,-1,-1,-1],"loss_changes":[1.8531898E0,2.4073832E0,3.8031347E0,3.5034304E0,1.4932737E0,2.76128E0,1.1077514E0,2.648922E0,0E0,7.8937054E-1,0E0,0E0,0E0,5.5895805E-1,9.704958E-1,0E0,0E0,0E0,0E0,0E0,0E0,0E0,0E0],"parents":[2147483647,0,0,1,1,2,2,3,3,4,4,5,5,6,6,7,7,9,9,13,13,14,14],"right_children":[2,4,6,8,10,12,14,16,-1,18,-1,-1,-1,20,22,-1,-1,-1,-1,-1,-1,-1,-1],"split_conditions":[1E0,1E0,1E0,1E0,1E0,1E0,1E0,1E0,1.779785E-1,1E0,-4.6430472E-2,-1.784385E-1,6.544599E-2,1E0,1E0,-4.3259557E-2,9.338843E-2,1.6419786E-1,1.0380976E-2,1.724392E-1,7.987828E-3,-3.5892766E-2,1.0503119E-1],"split_indices":[1039,1410,80,1267,1325,1917,1236,1017,0,667,0,0,0,1,1199,0,0,0,0,0,0,0,0],"split_type":[0,0,0,0,0,0,0,0,0,0,0,0,0,0,0,0,0,0,0,0,0,0,0],"sum_hessian":[1.8968268E2,1.5389696E2,3.5785717E1,1.3729294E2,1.660403E1,1.0203205E1,2.5582512E1,1.3276451E2,4.52842E0,1.3091981E1,3.51205E0,6.0535593E0,4.1496453E0,1.5326584E1,1.0255928E1,1.2394826E2,8.816257E0,8.065399E0,5.026582E0,1.2242408E1,3.0841756E0,5.3282614E0,4.9276667E0],"tree_param":{"num_deleted":"0","num_feature":"2048","num_nodes":"23","size_leaf_vector":"1"}},{"base_weights":[1.8389331E-2,1.1043655E-3,1.8214661E-1,-1.1384533E-2,1.8228917E-1,1.3646793E-2,-3.6757654E-1,-2.356687E-3,1.4397413E-1,-1.7418818E-1,2.8826937E-2],"categories":[],"categories_nodes":[],"categories_segments":[],"categories_sizes":[],"default_left":[0,0,0,0,0,0,0,0,0,0,0],"id":53,"left_children":[1,3,-1,5,-1,7,9,-1,-1,-1,-1],"loss_changes":[2.0003169E0,1.9705455E0,0E0,1.7814497E0,0E0,2.4083967E0,2.3106475E0,0E0,0E0,0E0,0E0],"parents":[2147483647,0,0,1,1,3,3,5,5,6,6],"right_children":[2,4,-1,6,-1,8,10,-1,-1,-1,-1],"split_conditions":[1E0,1E0,1.8214661E-1,1E0,1.8228917E-1,1E0,1E0,-2.356687E-3,1.4397413E-1,-1.7418818E-1,2.8826937E-2],"split_indices":[1205,242,0,1697,0,203,1152,0,0,0,0],"split_type":[0,0,0,0,0,0,0,0,0,0,0],"sum_hessian":[1.8902702E2,1.85634E2,3.3930259E0,1.8247302E2,3.160972E0,1.6993925E2,1.2533774E1,1.6303542E2,6.903836E0,7.8854814E0,4.648293E0],"tree_param":{"num_deleted":"0","num_feature":"2048","num_nodes":"11","size_leaf_vector":"1"}},{"base_weights":[-0E0,-1.7186169E-2,1.8832162E-1,-3.330996E-2,1.7142984E-1,-9.828265E-3,-1.3589384E-1,-1.0279123E-2,8.9709446E-2],"categories":[],"categories_nodes":[],"categories_segments":[],"categories_sizes":[],"default_left":[0,0,0,0,0,0,0,0,0],"id":54,"left_children":[1,3,-1,5,-1,7,-1,-1,-1],"loss_changes":[2.122156E0,1.8216438E0,0E0,1.9254892E0,0E0,1.8467824E0,0E0,0E0,0E0],"parents":[2147483647,0,0,1,1,3,3,5,5],"right_children":[2,4,-1,6,-1,8,-1,-1,-1],"split_conditions":[1E0,1E0,1.8832162E-1,1E0,1.7142984E-1,1E0,-1.3589384E-1,-1.0279123E-2,8.9709446E-2],"split_indices":[79,192,0,1195,0,555,0,0,0],"split_type":[0,0,0,0,0,0,0,0,0],"sum_hessian":[1.8778514E2,1.8464331E2,3.1418293E0,1.8158641E2,3.0568943E0,1.7485815E2,6.7282696E0,1.6276276E2,1.2095399E1],"tree_param":{"num_deleted":"0","num_feature":"2048","num_nodes":"9","size_leaf_vector":"1"}},{"base_weights":[1.5649294E-2,3.4159876E-2,-1.5201811E-1,5.1326618E-2,-1.7504047E-1,3.4637705E-3,3.7823167E-1,1.2824088E-2,-7.495077E-2,1.2985185E-1,-2.2956643E-2],"categories":[],"categories_nodes":[],"categories_segments":[],"categories_sizes":[],"default_left":[0,0,0,0,0,0,0,0,0,0,0],"id":55,"left_children":[1,3,-1,5,-1,7,9,-1,-1,-1,-1],"loss_changes":[1.9372646E0,2.0609047E0,0E0,2.6858616E0,0E0,2.174544E0,1.6004279E0,0E0,0E0,0E0,0E0],"parents":[2147483647,0,0,1,1,3,3,5,5,6,6],"right_children":[2,4,-1,6,-1,8,10,-1,-1,-1,-1],"split_conditions":[1E0,1E0,-1.5201811E-1,1E0,-1.7504047E-1,1E0,1E0,1.2824088E-2,-7.495077E-2,1.2985185E-1,-2.2956643E-2],"split_indices":[387,1624,0,1,0,352,147,0,0,0,0],"split_type":[0,0,0,0,0,0,0,0,0,0,0],"sum_hessian":[1.886721E2,1.843646E2,4.307516E0,1.811983E2,3.1662846E0,1.5968134E2,2.151697E1,1.3956264E2,2.0118696E1,1.7352062E1,4.1649075E0],"tree_param":{"num_deleted":"0","num_feature":"2048","num_nodes":"11","size_leaf_vector":"1"}},{"base_weights":[-6.3305167E-3,-2.5894964E-2,1.3717544E-1,-4.2176407E-2,1.663751E-1,-7.056318E-2,2.9053798E-1,-1.2659886E-2,-1.8741335E-1,2.173113E-1,-2.5389675E-2],"categories":[],"categories_nodes":[],"categories_segments":[],"categories_sizes":[],"default_left":[0,0,0,0,0,0,0,0,0,0,0],"id":56,"left_children":[1,3,-1,5,-1,7,9,-1,-1,-1,-1],"loss_changes":[1.809682E0,1.7937474E0,0E0,1.6166188E0,0E0,1.9495721E0,3.2696824E0,0E0,0E0,0E0,0E0],"parents":[2147483647,0,0,1,1,3,3,5,5,6,6],"right_children":[2,4,-1,6,-1,8,10,-1,-1,-1,-1],"split_conditions":[1E0,1E0,1.3717544E-1,1E0,1.663751E-1,1E0,1E0,-1.2659886E-2,-1.8741335E-1,2.173113E-1,-2.5389675E-2],"split_indices":[1224,179,0,917,0,1647,1057,0,0,0,0],"split_type":[0,0,0,0,0,0,0,0,0,0,0],"sum_hessian":[1.871968E2,1.8202028E2,5.1765146E0,1.7891725E2,3.1030176E0,1.6642642E2,1.2490828E1,1.6269196E2,3.7344716E0,5.233161E0,7.257666E0],"tree_param":{"num_deleted":"0","num_feature":"2048","num_nodes":"11","size_leaf_vector":"1"}},{"base_weights":[-8.801199E-3,-2.8331993E-2,1.5166822E-1,-4.947582E-2,1.3739903E-1,-8.970016E-2,2.4291202E-1,-1.4714053E-2,-2.2944571E-1,-4.5517962E-2,1.4265935E-1],"categories":[],"categories_nodes":[],"categories_segments":[],"categories_sizes":[],"default_left":[0,0,0,0,0,0,0,0,0,0,0],"id":57,"left_children":[1,3,-1,5,-1,7,9,-1,-1,-1,-1],"loss_changes":[1.9661906E0,1.986712E0,0E0,2.0061803E0,0E0,3.5762916E0,2.9398646E0,0E0,0E0,0E0,0E0],"parents":[2147483647,0,0,1,1,3,3,5,5,6,6],"right_children":[2,4,-1,6,-1,8,10,-1,-1,-1,-1],"split_conditions":[1E0,1E0,1.5166822E-1,1E0,1.3739903E-1,1E0,1E0,-1.4714053E-2,-2.2944571E-1,-4.5517962E-2,1.4265935E-1],"split_indices":[1440,407,0,29,0,784,389,0,0,0,0],"split_type":[0,0,0,0,0,0,0,0,0,0,0],"sum_hessian":[1.8398007E2,1.7946013E2,4.5199423E0,1.7427376E2,5.1863794E0,1.5480122E2,1.947253E1,1.5014105E2,4.660172E0,7.9573207E0,1.151521E1],"tree_param":{"num_deleted":"0","num_feature":"2048","num_nodes":"11","size_leaf_vector":"1"}},{"base_weights":[8.512884E-3,2.332617E-2,-1.486198E-1,3.0595087E-4,1.1272667E-1,2.0786814E-2,-1.4376411E-1,-7.161557E-3,6.8591125E-2],"categories":[],"categories_nodes":[],"categories_segments":[],"categories_sizes":[],"default_left":[0,0,0,0,0,0,0,0,0],"id":58,"left_children":[1,3,-1,5,-1,7,-1,-1,-1],"loss_changes":[1.4001529E0,1.5736985E0,0E0,1.7956611E0,0E0,2.1726382E0,0E0,0E0,0E0],"parents":[2147483647,0,0,1,1,3,3,5,5],"right_children":[2,4,-1,6,-1,8,-1,-1,-1],"split_conditions":[1E0,1E0,-1.486198E-1,1E0,1.1272667E-1,1E0,-1.4376411E-1,-7.161557E-3,6.8591125E-2],"split_indices":[264,116,0,14,0,1573,0,0,0],"split_type":[0,0,0,0,0,0,0,0,0],"sum_hessian":[1.8355061E2,1.8032922E2,3.221392E0,1.7249336E2,7.83586E0,1.6774611E2,4.7472496E0,1.3929665E2,2.8449469E1],"tree_param":{"num_deleted":"0","num_feature":"2048","num_nodes":"9","size_leaf_vector":"1"}},{"base_weights":[8.494395E-6,-1.4244835E-2,1.14905015E-1,7.4038836E-3,-3.7478268E-1,-6.1174603E-3,1.7249234E-1,4.1604057E-2,-6.3728136E-1,5.223007E-3,-1.3523275E-1,-2.4386938E-1,-1.9490339E-2],"categories":[],"categories_nodes":[],"categories_segments":[],"categories_sizes":[],"default_left":[0,0,0,0,0,0,0,0,0,0,0,0,0],"id":59,"left_children":[1,3,-1,5,7,9,-1,-1,11,-1,-1,-1,-1],"loss_changes":[1.3768866E0,1.5441393E0,0E0,1.8092779E0,1.8405353E0,2.5405738E0,0E0,0E0,1.0179408E0,0E0,0E0,0E0,0E0],"parents":[2147483647,0,0,1,1,3,3,4,4,5,5,8,8],"right_children":[2,4,-1,6,8,10,-1,-1,12,-1,-1,-1,-1],"split_conditions":[1E0,1E0,1.14905015E-1,1E0,1E0,1E0,1.7249234E-1,4.1604057E-2,1E0,5.223007E-3,-1.3523275E-1,-2.4386938E-1,-1.9490339E-2],"split_indices":[663,1697,0,364,695,119,0,0,1754,0,0,0,0],"split_type":[0,0,0,0,0,0,0,0,0,0,0,0,0],"sum_hessian":[1.8349081E2,1.7757895E2,5.91186E0,1.669854E2,1.0593561E1,1.6367606E2,3.3093414E0,3.0255682E0,7.5679927E0,1.5558195E2,8.094101E0,4.0469313E0,3.5210617E0],"tree_param":{"num_deleted":"0","num_feature":"2048","num_nodes":"13","size_leaf_vector":"1"}},{"base_weights":[-9.964922E-3,-3.3112988E-2,3.8405004E-1,-8.891672E-2,1.2700868E-1,1.8050833E-1,-0E0,-1.2835252E-1,1.2842181E-1,2.0829439E-1,-1.4056776E-1,-4.0728737E-2,1.5279269E-1,1.50477905E-2,2.1428159E-1],"categories":[],"categories_nodes":[],"categories_segments":[],"categories_sizes":[],"default_left":[0,0,0,0,0,0,0,0,0,0,0,0,0,0,0],"id":60,"left_children":[1,3,5,7,9,-1,-1,11,-1,13,-1,-1,-1,-1,-1],"loss_changes":[1.5252466E0,1.5432552E0,1.3201431E0,2.9648914E0,2.32297E0,0E0,0E0,2.8345368E0,0E0,3.3582835E0,0E0,0E0,0E0,0E0,0E0],"parents":[2147483647,0,0,1,1,2,2,3,3,4,4,7,7,9,9],"right_children":[2,4,6,8,10,-1,-1,12,-1,14,-1,-1,-1,-1,-1],"split_conditions":[1E0,1E0,1E0,1E0,1E0,1.8050833E-1,-0E0,1E0,1.2842181E-1,1E0,-1.4056776E-1,-4.0728737E-2,1.5279269E-1,1.50477905E-2,2.1428159E-1],"split_indices":[116,1066,1729,158,1476,0,0,1447,0,1758,0,0,0,0,0],"split_type":[0,0,0,0,0,0,0,0,0,0,0,0,0,0,0],"sum_hessian":[1.8171577E2,1.7313518E2,8.580589E0,1.3049942E2,4.2635757E1,4.662325E0,3.918264E0,1.2349082E2,7.008608E0,3.9006516E1,3.6292405E0,1.1921109E2,4.279726E0,3.2681778E1,6.32474E0],"tree_param":{"num_deleted":"0","num_feature":"2048","num_nodes":"15","size_leaf_vector":"1"}},{"base_weights":[5.7935147E-3,-3.1775016E-2,1.9460909E-1,-0E0,-4.5693251E-1,-4.354039E-2,2.0050722E-1,-2.0836215E-2,1.6402148E-1,-2.8115478E-1,-7.287459E-3,6.8840526E-2,-1.6919535E-1,4.1779787E-3,-1.5667331E-1,-8.5872546E-2,5.821763E-2,-2.5850872E-2,1.9122449E-1],"categories":[],"categories_nodes":[],"categories_segments":[],"categories_sizes":[],"default_left":[0,0,0,0,0,0,0,0,0,0,0,0,0,0,0,0,0,0,0],"id":61,"left_children":[1,3,5,7,9,11,-1,13,-1,-1,15,17,-1,-1,-1,-1,-1,-1,-1],"loss_changes":[1.3534817E0,2.0975728E0,4.872308E0,1.9965261E0,2.7001019E0,1.882681E0,0E0,3.2775369E0,0E0,0E0,6.7070174E-1,2.5909266E0,0E0,0E0,0E0,0E0,0E0,0E0,0E0],"parents":[2147483647,0,0,1,1,2,2,3,3,4,4,5,5,7,7,10,10,11,11],"right_children":[2,4,6,8,10,12,-1,14,-1,-1,16,18,-1,-1,-1,-1,-1,-1,-1],"split_conditions":[1E0,1E0,1E0,1E0,1E0,1E0,2.0050722E-1,1E0,1.6402148E-1,-2.8115478E-1,1E0,1E0,-1.6919535E-1,4.1779787E-3,-1.5667331E-1,-8.5872546E-2,5.821763E-2,-2.5850872E-2,1.9122449E-1],"split_indices":[1951,1808,935,1810,1057,896,0,794,0,0,667,1128,0,0,0,0,0,0,0],"split_type":[0,0,0,0,0,0,0,0,0,0,0,0,0,0,0,0,0,0,0],"sum_hessian":[1.8020999E2,1.4888882E2,3.1321173E1,1.3871123E2,1.0177601E1,2.2294811E1,9.0263605E0,1.3468983E2,4.021396E0,3.4173653E0,6.760236E0,1.878288E1,3.5119312E0,1.26667244E2,8.022587E0,3.4378335E0,3.3224022E0,1.4960086E1,3.8227954E0],"tree_param":{"num_deleted":"0","num_feature":"2048","num_nodes":"19","size_leaf_vector":"1"}},{"base_weights":[1.1775363E-2,2.9830871E-2,-1.1393369E-1,-4.3577235E-3,2.9272342E-1,1.7308975E-2,-1.794535E-1,1.9133046E-1,4.6651326E-3,-0E0,1.3689403E-1,5.47565E-2,-8.29543E-2],"categories":[],"categories_nodes":[],"categories_segments":[],"categories_sizes":[],"default_left":[0,0,0,0,0,0,0,0,0,0,0,0,0],"id":62,"left_children":[1,3,-1,5,7,9,-1,-1,11,-1,-1,-1,-1],"loss_changes":[1.3273699E0,1.6810799E0,0E0,2.6278274E0,2.5380547E0,1.542856E0,0E0,0E0,1.0047791E0,0E0,0E0,0E0,0E0],"parents":[2147483647,0,0,1,1,3,3,4,4,5,5,8,8],"right_children":[2,4,-1,6,8,10,-1,-1,12,-1,-1,-1,-1],"split_conditions":[1E0,1E0,-1.1393369E-1,1E0,1E0,1E0,-1.794535E-1,1.9133046E-1,1E0,-0E0,1.3689403E-1,5.47565E-2,-8.29543E-2],"split_indices":[1747,1948,0,1934,875,407,0,0,1573,0,0,0,0],"split_type":[0,0,0,0,0,0,0,0,0,0,0,0,0],"sum_hessian":[1.784184E2,1.7310124E2,5.3171544E0,1.5230415E2,2.079709E1,1.4775233E2,4.5518064E0,7.054547E0,1.3742544E1,1.4291933E2,4.8330092E0,9.281838E0,4.4607058E0],"tree_param":{"num_deleted":"0","num_feature":"2048","num_nodes":"13","size_leaf_vector":"1"}},{"base_weights":[-5.159008E-4,1.303606E-2,-1.9443692E-1,3.059814E-2,-1.3557836E-1,1.2373777E-2,1.3858755E-1,8.369605E-3,-1.2111381E-1],"categories":[],"categories_nodes":[],"categories_segments":[],"categories_sizes":[],"default_left":[0,0,0,0,0,0,0,0,0],"id":63,"left_children":[1,3,-1,5,-1,7,-1,-1,-1],"loss_changes":[2.1710942E0,1.4879681E0,0E0,1.3749384E0,0E0,1.516866E0,0E0,0E0,0E0],"parents":[2147483647,0,0,1,1,3,3,5,5],"right_children":[2,4,-1,6,-1,8,-1,-1,-1],"split_conditions":[1E0,1E0,-1.9443692E-1,1E0,-1.3557836E-1,1E0,1.3858755E-1,8.369605E-3,-1.2111381E-1],"split_indices":[526,1298,0,74,0,703,0,0,0],"split_type":[0,0,0,0,0,0,0,0,0],"sum_hessian":[1.7749474E2,1.7445879E2,3.0359476E0,1.7031996E2,4.1388288E0,1.6587827E2,4.4416976E0,1.6050513E2,5.3731384E0],"tree_param":{"num_deleted":"0","num_feature":"2048","num_nodes":"9","size_leaf_vector":"1"}},{"base_weights":[9.268532E-3,-1.749947E-2,3.861997E-1,-0E0,-1.7053512E-1,2.2710136E-1,-0E0,-2.0464351E-2,4.3670604E-1,9.205746E-2,-1.172266E-1,7.2345894E-4,-1.01758875E-1,1.6692688E-1,1.0083084E-2],"categories":[],"categories_nodes":[],"categories_segments":[],"categories_sizes":[],"default_left":[0,0,0,0,0,0,0,0,0,0,0,0,0,0,0],"id":64,"left_children":[1,3,5,7,-1,-1,9,11,13,-1,-1,-1,-1,-1,-1],"loss_changes":[1.9412992E0,1.744066E0,2.3797543E0,1.35598E0,0E0,0E0,1.4401016E0,1.546905E0,2.9417062E-1,0E0,0E0,0E0,0E0,0E0,0E0],"parents":[2147483647,0,0,1,1,2,2,3,3,6,6,7,7,8,8],"right_children":[2,4,6,8,-1,-1,10,12,14,-1,-1,-1,-1,-1,-1],"split_conditions":[1E0,1E0,1E0,1E0,-1.7053512E-1,2.2710136E-1,1E0,1E0,1E0,9.205746E-2,-1.172266E-1,7.2345894E-4,-1.01758875E-1,1.6692688E-1,1.0083084E-2],"split_indices":[917,1647,1057,1648,0,0,1152,1457,1060,0,0,0,0,0,0],"split_type":[0,0,0,0,0,0,0,0,0,0,0,0,0,0,0],"sum_hessian":[1.763127E2,1.6412498E2,1.2187718E1,1.607648E2,3.3601804E0,4.7303615E0,7.4573574E0,1.5458719E2,6.177614E0,4.4411273E0,3.01623E0,1.4521664E2,9.370546E0,3.0380921E0,3.139522E0],"tree_param":{"num_deleted":"0","num_feature":"2048","num_nodes":"15","size_leaf_vector":"1"}},{"base_weights":[-1.1177722E-2,-2.7859563E-2,1.5693247E-1,-4.294509E-3,-1.4873071E-1,1.1996622E-2,-1.5177886E-1,-2.8312865E-5,1.5092328E-1],"categories":[],"categories_nodes":[],"categories_segments":[],"categories_sizes":[],"default_left":[0,0,0,0,0,0,0,0,0],"id":65,"left_children":[1,3,-1,5,-1,7,-1,-1,-1],"loss_changes":[1.6373992E0,2.0544279E0,0E0,1.8831377E0,0E0,1.4073286E0,0E0,0E0,0E0],"parents":[2147483647,0,0,1,1,3,3,5,5],"right_children":[2,4,-1,6,-1,8,-1,-1,-1],"split_conditions":[1E0,1E0,1.5693247E-1,1E0,-1.4873071E-1,1E0,-1.5177886E-1,-2.8312865E-5,1.5092328E-1],"split_indices":[107,1027,0,409,0,1524,0,0,0],"split_type":[0,0,0,0,0,0,0,0,0],"sum_hessian":[1.7716476E2,1.737926E2,3.3721695E0,1.6805336E2,5.7392373E0,1.634667E2,4.5866585E0,1.6003499E2,3.4317117E0],"tree_param":{"num_deleted":"0","num_feature":"2048","num_nodes":"9","size_leaf_vector":"1"}},{"base_weights":[3.2629634E-3,-1.3161006E-2,3.46018E-1,7.7421934E-4,-1.5142919E-1,-0E0,1.2927832E-1,-1.6747553E-2,1.2626097E-1,-1.210913E-2,9.081822E-2],"categories":[],"categories_nodes":[],"categories_segments":[],"categories_sizes":[],"default_left":[0,0,0,0,0,0,0,0,0,0,0],"id":66,"left_children":[1,3,5,7,-1,-1,-1,9,-1,-1,-1],"loss_changes":[1.1289998E0,1.6093465E0,4.185164E-1,1.6273013E0,0E0,0E0,0E0,1.7188522E0,0E0,0E0,0E0],"parents":[2147483647,0,0,1,1,2,2,3,3,7,7],"right_children":[2,4,6,8,-1,-1,-1,10,-1,-1,-1],"split_conditions":[1E0,1E0,1E0,1E0,-1.5142919E-1,-0E0,1.2927832E-1,1E0,1.2626097E-1,-1.210913E-2,9.081822E-2],"split_indices":[1243,1589,650,702,0,0,0,736,0,0,0],"split_type":[0,0,0,0,0,0,0,0,0,0,0],"sum_hessian":[1.7504532E2,1.6643338E2,8.61194E0,1.6244968E2,3.9836955E0,3.377124E0,5.234816E0,1.5668063E2,5.7690496E0,1.4619243E2,1.0488197E1],"tree_param":{"num_deleted":"0","num_feature":"2048","num_nodes":"11","size_leaf_vector":"1"}},{"base_weights":[-1.886523E-2,-2.0911414E-4,-1.4310147E-1,-3.3135645E-2,2.8729817E-1,-1.0162984E-2,-1.5258054E-1,2.08005E-1,2.1820428E-2,-7.2718896E-3,1.5638635E-1,-6.1156224E-2,5.066714E-2],"categories":[],"categories_nodes":[],"categories_segments":[],"categories_sizes":[],"default_left":[0,0,0,0,0,0,0,0,0,0,0,0,0],"id":67,"left_children":[1,3,-1,5,7,9,-1,-1,11,-1,-1,-1,-1],"loss_changes":[1.5579426E0,1.5216283E0,0E0,1.7778814E0,1.9636437E0,1.5253251E0,0E0,0E0,5.783676E-1,0E0,0E0,0E0,0E0],"parents":[2147483647,0,0,1,1,3,3,4,4,5,5,8,8],"right_children":[2,4,-1,6,8,10,-1,-1,12,-1,-1,-1,-1],"split_conditions":[1E0,1E0,-1.4310147E-1,1E0,1E0,1E0,-1.5258054E-1,2.08005E-1,1E0,-7.2718896E-3,1.5638635E-1,-6.1156224E-2,5.066714E-2],"split_indices":[552,1771,0,800,784,2000,0,0,650,0,0,0,0],"split_type":[0,0,0,0,0,0,0,0,0,0,0,0,0],"sum_hessian":[1.7512256E2,1.7064622E2,4.476336E0,1.5487086E2,1.5775364E1,1.501449E2,4.72597E0,4.3062596E0,1.1469104E1,1.470206E2,3.1242964E0,3.6101637E0,7.85894E0],"tree_param":{"num_deleted":"0","num_feature":"2048","num_nodes":"13","size_leaf_vector":"1"}},{"base_weights":[5.8085145E-3,-2.0171762E-2,2.6848292E-1,-7.578225E-2,1.3534519E-1,5.454123E-1,-5.4444987E-2,-1.1634439E-2,-3.4466895E-1,-0E0,5.0168145E-1,1.8808946E-1,1.9959636E-2,-0E0,-3.0778198E-2,3.0099818E-1,-1.6491314E-2,-1.6278921E-1,1.10469535E-1,4.301281E-2,-9.6236214E-2,2.1164188E-1,6.9974683E-4],"categories":[],"categories_nodes":[],"categories_segments":[],"categories_sizes":[],"default_left":[0,0,0,0,0,0,0,0,0,0,0,0,0,0,0,0,0,0,0,0,0,0,0],"id":68,"left_children":[1,3,5,7,9,11,13,15,17,19,21,-1,-1,-1,-1,-1,-1,-1,-1,-1,-1,-1,-1],"loss_changes":[1.3035684E0,1.355077E0,1.7649035E0,1.9086578E0,1.8486903E0,5.520873E-1,4.6084963E-2,5.8945293E0,5.3185844E0,1.9459863E0,1.3651981E0,0E0,0E0,0E0,0E0,0E0,0E0,0E0,0E0,0E0,0E0,0E0,0E0],"parents":[2147483647,0,0,1,1,2,2,3,3,4,4,5,5,6,6,7,7,8,8,9,9,10,10],"right_children":[2,4,6,8,10,12,14,16,18,20,22,-1,-1,-1,-1,-1,-1,-1,-1,-1,-1,-1,-1],"split_conditions":[1E0,1E0,1E0,1E0,1E0,1E0,1E0,1E0,1E0,1E0,1E0,1.8808946E-1,1.9959636E-2,-0E0,-3.0778198E-2,3.0099818E-1,-1.6491314E-2,-1.6278921E-1,1.10469535E-1,4.301281E-2,-9.6236214E-2,2.1164188E-1,6.9974683E-4],"split_indices":[712,1066,961,1325,29,1754,1911,1873,1951,1683,751,0,0,0,0,0,0,0,0,0,0,0,0],"split_type":[0,0,0,0,0,0,0,0,0,0,0,0,0,0,0,0,0,0,0,0,0,0,0],"sum_hessian":[1.7491696E2,1.5823886E2,1.6678102E1,1.1874022E2,3.949864E1,9.448068E0,7.230036E0,9.7608406E1,2.1131815E1,2.982718E1,9.671457E0,5.766331E0,3.6817362E0,3.1384656E0,4.09157E0,3.2996721E0,9.430873E1,1.5746679E1,5.385135E0,2.1343761E1,8.483418E0,5.053594E0,4.617863E0],"tree_param":{"num_deleted":"0","num_feature":"2048","num_nodes":"23","size_leaf_vector":"1"}},{"base_weights":[1.3011339E-2,-9.051083E-3,3.4291646E-1,1.1224229E-2,-2.0945224E-1,1.262283E-1,-0E0,-5.1004533E-3,1.9891469E-1,-1.3980584E-2,4.8883982E-2],"categories":[],"categories_nodes":[],"categories_segments":[],"categories_sizes":[],"default_left":[0,0,0,0,0,0,0,0,0,0,0],"id":69,"left_children":[1,3,5,7,-1,-1,-1,9,-1,-1,-1],"loss_changes":[1.4128368E0,3.0538874E0,7.45124E-1,2.342254E0,0E0,0E0,0E0,1.502736E0,0E0,0E0,0E0],"parents":[2147483647,0,0,1,1,2,2,3,3,7,7],"right_children":[2,4,6,8,-1,-1,-1,10,-1,-1,-1],"split_conditions":[1E0,1E0,1E0,1E0,-2.0945224E-1,1.262283E-1,-0E0,1E0,1.9891469E-1,-1.3980584E-2,4.8883982E-2],"split_indices":[562,9,577,1810,0,0,0,1143,0,0,0],"split_type":[0,0,0,0,0,0,0,0,0,0,0],"sum_hessian":[1.7430807E2,1.6274701E2,1.1561063E1,1.588902E2,3.8568037E0,8.147483E0,3.4135792E0,1.5566467E2,3.2255268E0,1.2624684E2,2.9417837E1],"tree_param":{"num_deleted":"0","num_feature":"2048","num_nodes":"11","size_leaf_vector":"1"}},{"base_weights":[-0E0,-1.2086635E-2,1.3917874E-1,-1.0401215E-1,8.107281E-2,-4.5966856E-2,-1.8231525E-1,1.4832088E-1,-3.2552025E-1,-3.898797E-2,5.7189148E-2,2.0511502E-2,1.5668312E-1,3.917074E-2,-1.7134137E-1],"categories":[],"categories_nodes":[],"categories_segments":[],"categories_sizes":[],"default_left":[0,0,0,0,0,0,0,0,0,0,0,0,0,0,0],"id":70,"left_children":[1,3,-1,5,7,9,-1,11,13,-1,-1,-1,-1,-1,-1],"loss_changes":[1.3041763E0,1.457011E0,0E0,2.786353E0,2.190909E0,2.3722165E0,0E0,1.9434156E0,2.121023E0,0E0,0E0,0E0,0E0,0E0,0E0],"parents":[2147483647,0,0,1,1,3,3,4,4,5,5,7,7,8,8],"right_children":[2,4,-1,6,8,10,-1,12,14,-1,-1,-1,-1,-1,-1],"split_conditions":[1E0,1E0,1.3917874E-1,1E0,1E0,1E0,-1.8231525E-1,1E0,1E0,-3.898797E-2,5.7189148E-2,2.0511502E-2,1.5668312E-1,3.917074E-2,-1.7134137E-1],"split_indices":[1653,935,0,896,1385,1143,0,1951,1057,0,0,0,0,0,0],"split_type":[0,0,0,0,0,0,0,0,0,0,0,0,0,0,0],"sum_hessian":[1.7149487E2,1.6785596E2,3.6389196E0,8.668592E1,8.117004E1,8.041931E1,6.2666097E0,7.084507E1,1.0324964E1,5.8817257E1,2.1602055E1,6.3362938E1,7.4821334E0,4.006357E0,6.3186064E0],"tree_param":{"num_deleted":"0","num_feature":"2048","num_nodes":"15","size_leaf_vector":"1"}},{"base_weights":[6.498598E-3,-1.939578E-2,3.6024117E-1,1.5947576E-4,-1.3540061E-1,5.0475236E-2,1.8421067E-1,2.054304E-1,-2.6996728E-2,9.384692E-2,-4.861364E-2,-5.4067843E-2,9.959512E-3],"categories":[],"categories_nodes":[],"categories_segments":[],"categories_sizes":[],"default_left":[0,0,0,0,0,0,0,0,0,0,0,0,0],"id":71,"left_children":[1,3,5,7,-1,9,-1,-1,11,-1,-1,-1,-1],"loss_changes":[1.6966832E0,1.8073884E0,1.0998765E0,3.673835E0,0E0,7.47335E-1,0E0,0E0,1.8921418E0,0E0,0E0,0E0,0E0],"parents":[2147483647,0,0,1,1,2,2,3,3,5,5,8,8],"right_children":[2,4,6,8,-1,10,-1,-1,12,-1,-1,-1,-1],"split_conditions":[1E0,1E0,1E0,1E0,-1.3540061E-1,1E0,1.8421067E-1,2.054304E-1,1E0,9.384692E-2,-4.861364E-2,-5.4067843E-2,9.959512E-3],"split_indices":[41,591,1754,1873,0,197,0,0,80,0,0,0,0],"split_type":[0,0,0,0,0,0,0,0,0,0,0,0,0],"sum_hessian":[1.688059E2,1.5672435E2,1.2081542E1,1.5079543E2,5.9289207E0,7.5323615E0,4.5491805E0,4.8216043E0,1.4597382E2,3.8451643E0,3.6871972E0,3.9571815E1,1.0640201E2],"tree_param":{"num_deleted":"0","num_feature":"2048","num_nodes":"13","size_leaf_vector":"1"}},{"base_weights":[-0E0,1.6217891E-2,-1.5193108E-1,3.2679748E-2,-1.3248926E-1,4.8771273E-2,-1.3580391E-1,1.7476473E-2,-9.795036E-2],"categories":[],"categories_nodes":[],"categories_segments":[],"categories_sizes":[],"default_left":[0,0,0,0,0,0,0,0,0],"id":72,"left_children":[1,3,-1,5,-1,7,-1,-1,-1],"loss_changes":[1.6647941E0,1.2909251E0,0E0,1.3102101E0,0E0,1.2998326E0,0E0,0E0,0E0],"parents":[2147483647,0,0,1,1,3,3,5,5],"right_children":[2,4,-1,6,-1,8,-1,-1,-1],"split_conditions":[1E0,1E0,-1.5193108E-1,1E0,-1.3248926E-1,1E0,-1.3580391E-1,1.7476473E-2,-9.795036E-2],"split_indices":[354,387,0,1366,0,597,0,0,0],"split_type":[0,0,0,0,0,0,0,0,0],"sum_hessian":[1.7029726E2,1.6639175E2,3.905502E0,1.6274963E2,3.6421304E0,1.595081E2,3.2415335E0,1.5379564E2,5.7124496E0],"tree_param":{"num_deleted":"0","num_feature":"2048","num_nodes":"9","size_leaf_vector":"1"}},{"base_weights":[8.529292E-3,-1.8606504E-2,4.2269927E-1,-0E0,-1.2692536E-1,2.4104673E-1,2.7119895E-3,-1.657575E-2,1.5548362E-1,9.7427405E-2,-8.1423715E-2,-0E0,-1.399338E-1],"categories":[],"categories_nodes":[],"categories_segments":[],"categories_sizes":[],"default_left":[0,0,0,0,0,0,0,0,0,0,0,0,0],"id":73,"left_children":[1,3,5,7,-1,-1,9,11,-1,-1,-1,-1,-1],"loss_changes":[2.0685005E0,1.4064724E0,2.1267292E0,1.5461242E0,0E0,0E0,1.0114968E0,1.5556678E0,0E0,0E0,0E0,0E0,0E0],"parents":[2147483647,0,0,1,1,2,2,3,3,6,6,7,7],"right_children":[2,4,6,8,-1,-1,10,12,-1,-1,-1,-1,-1],"split_conditions":[1E0,1E0,1E0,1E0,-1.2692536E-1,2.4104673E-1,1E0,1E0,1.5548362E-1,9.7427405E-2,-8.1423715E-2,-0E0,-1.399338E-1],"split_indices":[917,1195,1057,547,0,0,1152,1934,0,0,0,0,0],"split_type":[0,0,0,0,0,0,0,0,0,0,0,0,0],"sum_hessian":[1.6818289E2,1.5743517E2,1.0747719E1,1.5221797E2,5.217201E0,3.9857032E0,6.762016E0,1.488224E2,3.3955564E0,3.6385794E0,3.1234365E0,1.4419171E2,4.6306996E0],"tree_param":{"num_deleted":"0","num_feature":"2048","num_nodes":"13","size_leaf_vector":"1"}},{"base_weights":[2.1708163E-2,3.7736625E-3,1.3155298E-1,-1.3180772E-2,3.982166E-1,3.1988027E-3,-4.283958E-1,8.7079173E-4,1.6654308E-1,-6.3243764E-3,6.7289405E-2,-1.1314317E-2,-1.6788961E-1],"categories":[],"categories_nodes":[],"categories_segments":[],"categories_sizes":[],"default_left":[0,0,0,0,0,0,0,0,0,0,0,0,0],"id":74,"left_children":[1,3,-1,5,7,9,11,-1,-1,-1,-1,-1,-1],"loss_changes":[1.2979323E0,1.2666601E0,0E0,1.2504816E0,5.2847433E-1,1.2256924E0,3.1689692E-1,0E0,0E0,0E0,0E0,0E0,0E0],"parents":[2147483647,0,0,1,1,3,3,4,4,5,5,6,6],"right_children":[2,4,-1,6,8,10,12,-1,-1,-1,-1,-1,-1],"split_conditions":[1E0,1E0,1.3155298E-1,1E0,1E0,1E0,1E0,8.7079173E-4,1.6654308E-1,-6.3243764E-3,6.7289405E-2,-1.1314317E-2,-1.6788961E-1],"split_indices":[1224,1884,0,1004,80,29,1754,0,0,0,0,0,0],"split_type":[0,0,0,0,0,0,0,0,0,0,0,0,0],"sum_hessian":[1.6905157E2,1.6455286E2,4.4987164E0,1.5731505E2,7.2378116E0,1.5095197E2,6.3630824E0,3.7424922E0,3.4953194E0,1.3538585E2,1.5566108E1,3.3525546E0,3.0105278E0],"tree_param":{"num_deleted":"0","num_feature":"2048","num_nodes":"13","size_leaf_vector":"1"}},{"base_weights":[-0E0,-1.8314453E-2,3.7096414E-1,-3.479237E-2,1.47156E-1,1.3962789E-1,1.16699645E-2,-1.746217E-2,-1.4258721E-1,-9.016566E-3,1.04951166E-1],"categories":[],"categories_nodes":[],"categories_segments":[],"categories_sizes":[],"default_left":[0,0,0,0,0,0,0,0,0,0,0],"id":75,"left_children":[1,3,5,7,-1,-1,-1,9,-1,-1,-1],"loss_changes":[1.0610387E0,1.3701591E0,1.676718E-1,1.1944983E0,0E0,0E0,0E0,1.0580027E0,0E0,0E0,0E0],"parents":[2147483647,0,0,1,1,2,2,3,3,7,7],"right_children":[2,4,6,8,-1,-1,-1,10,-1,-1,-1],"split_conditions":[1E0,1E0,1E0,1E0,1.47156E-1,1.3962789E-1,1.16699645E-2,1E0,-1.4258721E-1,-9.016566E-3,1.04951166E-1],"split_indices":[203,547,656,1747,0,0,0,407,0,0,0],"split_type":[0,0,0,0,0,0,0,0,0,0,0],"sum_hessian":[1.6641997E2,1.5969212E2,6.7278447E0,1.5663542E2,3.0567076E0,3.239562E0,3.488283E0,1.5301231E2,3.6230943E0,1.4827872E2,4.7336E0],"tree_param":{"num_deleted":"0","num_feature":"2048","num_nodes":"11","size_leaf_vector":"1"}},{"base_weights":[2.3286936E-3,-1.928665E-2,3.6879432E-1,-0E0,-1.24337815E-1,1.5167063E-1,1.35434875E-2,-3.5231248E-2,3.9395213E-1,1.394617E-2,-3.6908235E-2,-0E0,1.9740982E-1],"categories":[],"categories_nodes":[],"categories_segments":[],"categories_sizes":[],"default_left":[0,0,0,0,0,0,0,0,0,0,0,0,0],"id":76,"left_children":[1,3,5,7,-1,-1,-1,9,11,-1,-1,-1,-1],"loss_changes":[1.4820638E0,1.3909167E0,4.7215784E-1,2.0946128E0,0E0,0E0,0E0,1.4538099E0,2.0308628E0,0E0,0E0,0E0,0E0],"parents":[2147483647,0,0,1,1,2,2,3,3,7,7,8,8],"right_children":[2,4,6,8,-1,-1,-1,10,12,-1,-1,-1,-1],"split_conditions":[1E0,1E0,1E0,1E0,-1.24337815E-1,1.5167063E-1,1.35434875E-2,1E0,1E0,1.394617E-2,-3.6908235E-2,-0E0,1.9740982E-1],"split_indices":[598,343,1917,41,0,0,0,875,389,0,0,0,0],"split_type":[0,0,0,0,0,0,0,0,0,0,0,0,0],"sum_hessian":[1.6773952E2,1.5786108E2,9.87843E0,1.524465E2,5.4145775E0,4.640998E0,5.237432E0,1.4067165E2,1.1774859E1,7.553764E1,6.5134E1,5.874822E0,5.9000373E0],"tree_param":{"num_deleted":"0","num_feature":"2048","num_nodes":"13","size_leaf_vector":"1"}},{"base_weights":[-0E0,1.9032089E-2,-1.1982983E-1,-0E0,1.07841745E-1,-1.4391562E-2,1.2993123E-1,-0E0,-1.3931407E-1],"categories":[],"categories_nodes":[],"categories_segments":[],"categories_sizes":[],"default_left":[0,0,0,0,0,0,0,0,0],"id":77,"left_children":[1,3,-1,5,-1,7,-1,-1,-1],"loss_changes":[1.4167331E0,1.1671594E0,0E0,1.2504007E0,0E0,1.2424972E0,0E0,0E0,0E0],"parents":[2147483647,0,0,1,1,3,3,5,5],"right_children":[2,4,-1,6,-1,8,-1,-1,-1],"split_conditions":[1E0,1E0,-1.1982983E-1,1E0,1.07841745E-1,1E0,1.2993123E-1,-0E0,-1.3931407E-1],"split_indices":[597,41,0,1267,0,628,0,0,0],"split_type":[0,0,0,0,0,0,0,0,0],"sum_hessian":[1.6635654E2,1.6089018E2,5.4663606E0,1.5473225E2,6.157929E0,1.5069922E2,4.033031E0,1.4708745E2,3.6117754E0],"tree_param":{"num_deleted":"0","num_feature":"2048","num_nodes":"9","size_leaf_vector":"1"}},{"base_weights":[1.4531986E-2,-1.1714099E-2,4.1982535E-1,-5.984088E-2,1.9184536E-1,5.912067E-1,-0E0,-9.0359166E-2,9.517197E-2,2.9809165E-1,-1.04111515E-1,2.168732E-1,5.232679E-2,-3.9565276E-2,3.0374244E-2,-0E0,1.344175E-1],"categories":[],"categories_nodes":[],"categories_segments":[],"categories_sizes":[],"default_left":[0,0,0,0,0,0,0,0,0,0,0,0,0,0,0,0,0],"id":78,"left_children":[1,3,5,7,9,11,-1,13,-1,15,-1,-1,-1,-1,-1,-1,-1],"loss_changes":[1.9462633E0,1.483503E0,7.971313E-1,1.6116114E0,1.8450902E0,2.6143146E-1,0E0,1.7121885E0,0E0,1.5283992E0,0E0,0E0,0E0,0E0,0E0,0E0,0E0],"parents":[2147483647,0,0,1,1,2,2,3,3,4,4,5,5,7,7,9,9],"right_children":[2,4,6,8,10,12,-1,14,-1,16,-1,-1,-1,-1,-1,-1,-1],"split_conditions":[1E0,1E0,1E0,1E0,1E0,1E0,-0E0,1E0,9.517197E-2,1E0,-1.04111515E-1,2.168732E-1,5.232679E-2,-3.9565276E-2,3.0374244E-2,-0E0,1.344175E-1],"split_indices":[1928,1039,90,231,1819,650,0,1143,0,935,0,0,0,0,0,0,0],"split_type":[0,0,0,0,0,0,0,0,0,0,0,0,0,0,0,0,0],"sum_hessian":[1.6624242E2,1.557135E2,1.0528912E1,1.27918434E2,2.7795067E1,7.296636E0,3.2322752E0,1.2087322E2,7.0452127E0,2.4469755E1,3.325311E0,3.24857E0,4.048066E0,9.362624E1,2.7246979E1,1.1750072E1,1.2719685E1],"tree_param":{"num_deleted":"0","num_feature":"2048","num_nodes":"17","size_leaf_vector":"1"}},{"base_weights":[-8.145875E-3,-3.2818157E-2,4.1148645E-1,-1.4765755E-2,-1.7161322E-1,2.9165069E-2,1.5558359E-1,-4.276828E-2,4.279672E-1,-1.8373383E-2,7.202152E-2,1.6428803E-1,2.541206E-2],"categories":[],"categories_nodes":[],"categories_segments":[],"categories_sizes":[],"default_left":[0,0,0,0,0,0,0,0,0,0,0,0,0],"id":79,"left_children":[1,3,5,7,-1,-1,-1,9,11,-1,-1,-1,-1],"loss_changes":[1.5412834E0,1.5206583E0,1.4878654E-1,1.743771E0,0E0,0E0,0E0,1.3402915E0,2.4972737E-1,0E0,0E0,0E0,0E0],"parents":[2147483647,0,0,1,1,2,2,3,3,7,7,8,8],"right_children":[2,4,6,8,-1,-1,-1,10,12,-1,-1,-1,-1],"split_conditions":[1E0,1E0,1E0,1E0,-1.7161322E-1,2.9165069E-2,1.5558359E-1,1E0,1E0,-1.8373383E-2,7.202152E-2,1.6428803E-1,2.541206E-2],"split_indices":[1884,1853,80,116,0,0,0,1607,875,0,0,0,0],"split_type":[0,0,0,0,0,0,0,0,0,0,0,0,0],"sum_hessian":[1.626223E2,1.5503726E2,7.5850368E0,1.5202995E2,3.0073059E0,4.2915583E0,3.2934787E0,1.4436696E2,7.6629977E0,1.3388832E2,1.047863E1,3.4740334E0,4.1889644E0],"tree_param":{"num_deleted":"0","num_feature":"2048","num_nodes":"13","size_leaf_vector":"1"}},{"base_weights":[-0E0,-2.4351833E-2,2.835106E-1,-4.670627E-2,1.0748495E-1,1.4063601E-1,-0E0,-1.5552683E-2,-3.2184896E-1,-6.1063033E-2,8.016489E-2,2.2981921E-3,-1.250222E-1,-1.5111642E-1,2.1940283E-2],"categories":[],"categories_nodes":[],"categories_segments":[],"categories_sizes":[],"default_left":[0,0,0,0,0,0,0,0,0,0,0,0,0,0,0],"id":80,"left_children":[1,3,5,7,-1,-1,9,11,13,-1,-1,-1,-1,-1,-1],"loss_changes":[1.0585903E0,1.4146729E0,7.6447535E-1,1.137853E0,0E0,0E0,6.032828E-1,1.8076932E0,1.7949635E0,0E0,0E0,0E0,0E0,0E0,0E0],"parents":[2147483647,0,0,1,1,2,2,3,3,6,6,7,7,8,8],"right_children":[2,4,6,8,-1,-1,10,12,14,-1,-1,-1,-1,-1,-1],"split_conditions":[1E0,1E0,1E0,1E0,1.0748495E-1,1.4063601E-1,1E0,1E0,1E0,-6.1063033E-2,8.016489E-2,2.2981921E-3,-1.250222E-1,-1.5111642E-1,2.1940283E-2],"split_indices":[562,1996,1199,1808,0,0,1452,1147,1501,0,0,0,0,0,0],"split_type":[0,0,0,0,0,0,0,0,0,0,0,0,0,0,0],"sum_hessian":[1.6615596E2,1.5472345E2,1.1432517E1,1.4876843E2,5.955013E0,5.0133705E0,6.419146E0,1.3554807E2,1.3220366E1,3.1965957E0,3.2225506E0,1.286416E2,6.9064736E0,8.339623E0,4.880742E0],"tree_param":{"num_deleted":"0","num_feature":"2048","num_nodes":"15","size_leaf_vector":"1"}},{"base_weights":[6.246683E-3,-1.1953561E-2,4.0003172E-1,-4.6028856E-2,2.5654554E-1,1.7162608E-1,-0E0,-7.504603E-2,3.5627815E-1,4.2547902E-1,-4.4239048E-2,-2.5976589E-2,8.542641E-2,-0E0,1.5093605E-1,1.4472307E-1,1.2282634E-2],"categories":[],"categories_nodes":[],"categories_segments":[],"categories_sizes":[],"default_left":[0,0,0,0,0,0,0,0,0,0,0,0,0,0,0,0,0],"id":81,"left_children":[1,3,5,7,9,-1,-1,11,13,15,-1,-1,-1,-1,-1,-1,-1],"loss_changes":[1.323163E0,1.3313853E0,7.634047E-1,1.5194476E0,1.3206145E0,0E0,0E0,1.4137187E0,8.198217E-1,4.129238E-1,0E0,0E0,0E0,0E0,0E0,0E0,0E0],"parents":[2147483647,0,0,1,1,2,2,3,3,4,4,7,7,8,8,9,9],"right_children":[2,4,6,8,10,-1,-1,12,14,16,-1,-1,-1,-1,-1,-1,-1],"split_conditions":[1E0,1E0,1E0,1E0,1E0,1.7162608E-1,-0E0,1E0,1E0,1E0,-4.4239048E-2,-2.5976589E-2,8.542641E-2,-0E0,1.5093605E-1,1.4472307E-1,1.2282634E-2],"split_indices":[116,712,1729,1017,1765,0,0,158,1152,1573,0,0,0,0,0,0,0],"split_type":[0,0,0,0,0,0,0,0,0,0,0,0,0,0,0,0,0],"sum_hessian":[1.6125264E2,1.5367416E2,7.578467E0,1.3816876E2,1.5505412E1,3.910932E0,3.6675346E0,1.302807E2,7.8880563E0,1.183618E1,3.669232E0,1.2346814E2,6.812558E0,3.1490676E0,4.7389884E0,7.515192E0,4.3209877E0],"tree_param":{"num_deleted":"0","num_feature":"2048","num_nodes":"17","size_leaf_vector":"1"}},{"base_weights":[2.3509812E-2,4.0016048E-2,-9.835849E-2,2.2114085E-2,1.3274655E-1,5.3212862E-2,-2.0819616E-1,2.2920132E-2,-8.403928E-2,-9.530756E-2,1.6017342E-2],"categories":[],"categories_nodes":[],"categories_segments":[],"categories_sizes":[],"default_left":[0,0,0,0,0,0,0,0,0,0,0],"id":82,"left_children":[1,3,-1,5,-1,7,9,-1,-1,-1,-1],"loss_changes":[9.69012E-1,1.1334503E0,0E0,1.0407791E0,0E0,1.891906E0,9.108624E-1,0E0,0E0,0E0,0E0],"parents":[2147483647,0,0,1,1,3,3,5,5,6,6],"right_children":[2,4,-1,6,-1,8,10,-1,-1,-1,-1],"split_conditions":[1E0,1E0,-9.835849E-2,1E0,1.3274655E-1,1E0,1E0,2.2920132E-2,-8.403928E-2,-9.530756E-2,1.6017342E-2],"split_indices":[14,1440,0,352,0,974,389,0,0,0,0],"split_type":[0,0,0,0,0,0,0,0,0,0,0],"sum_hessian":[1.6166785E2,1.5692064E2,4.7472086E0,1.527487E2,