{"learner":{"attributes":{"best_iteration":"488","best_score":"0.08708937443390122","scikit_learn":"{\"_estimator_type\": \"classifier\"}"},"feature_names":[],"feature_types":[],"gradient_booster":{"model":{"gbtree_model_param":{"num_parallel_tree":"1","num_trees":"489"},"iteration_indptr":[0,1,2,3,4,5,6,7,8,9,10,11,12,13,14,15,16,17,18,19,20,21,22,23,24,25,26,27,28,29,30,31,32,33,34,35,36,37,38,39,40,41,42,43,44,45,46,47,48,49,50,51,52,53,54,55,56,57,58,59,60,61,62,63,64,65,66,67,68,69,70,71,72,73,74,75,76,77,78,79,80,81,82,83,84,85,86,87,88,89,90,91,92,93,94,95,96,97,98,99,100,101,102,103,104,105,106,107,108,109,110,111,112,113,114,115,116,117,118,119,120,121,122,123,124,125,126,127,128,129,130,131,132,133,134,135,136,137,138,139,140,141,142,143,144,145,146,147,148,149,150,151,152,153,154,155,156,157,158,159,160,161,162,163,164,165,166,167,168,169,170,171,172,173,174,175,176,177,178,179,180,181,182,183,184,185,186,187,188,189,190,191,192,193,194,195,196,197,198,199,200,201,202,203,204,205,206,207,208,209,210,211,212,213,214,215,216,217,218,219,220,221,222,223,224,225,226,227,228,229,230,231,232,233,234,235,236,237,238,239,240,241,242,243,244,245,246,247,248,249,250,251,252,253,254,255,256,257,258,259,260,261,262,263,264,265,266,267,268,269,270,271,272,273,274,275,276,277,278,279,280,281,282,283,284,285,286,287,288,289,290,291,292,293,294,295,296,297,298,299,300,301,302,303,304,305,306,307,308,309,310,311,312,313,314,315,316,317,318,319,320,321,322,323,324,325,326,327,328,329,330,331,332,333,334,335,336,337,338,339,340,341,342,343,344,345,346,347,348,349,350,351,352,353,354,355,356,357,358,359,360,361,362,363,364,365,366,367,368,369,370,371,372,373,374,375,376,377,378,379,380,381,382,383,384,385,386,387,388,389,390,391,392,393,394,395,396,397,398,399,400,401,402,403,404,405,406,407,408,409,410,411,412,413,414,415,416,417,418,419,420,421,422,423,424,425,426,427,428,429,430,431,432,433,434,435,436,437,438,439,440,441,442,443,444,445,446,447,448,449,450,451,452,453,454,455,456,457,458,459,460,461,462,463,464,465,466,467,468,469,470,471,472,473,474,475,476,477,478,479,480,481,482,483,484,485,486,487,488,489],"tree_info":[0,0,0,0,0,0,0,0,0,0,0,0,0,0,0,0,0,0,0,0,0,0,0,0,0,0,0,0,0,0,0,0,0,0,0,0,0,0,0,0,0,0,0,0,0,0,0,0,0,0,0,0,0,0,0,0,0,0,0,0,0,0,0,0,0,0,0,0,0,0,0,0,0,0,0,0,0,0,0,0,0,0,0,0,0,0,0,0,0,0,0,0,0,0,0,0,0,0,0,0,0,0,0,0,0,0,0,0,0,0,0,0,0,0,0,0,0,0,0,0,0,0,0,0,0,0,0,0,0,0,0,0,0,0,0,0,0,0,0,0,0,0,0,0,0,0,0,0,0,0,0,0,0,0,0,0,0,0,0,0,0,0,0,0,0,0,0,0,0,0,0,0,0,0,0,0,0,0,0,0,0,0,0,0,0,0,0,0,0,0,0,0,0,0,0,0,0,0,0,0,0,0,0,0,0,0,0,0,0,0,0,0,0,0,0,0,0,0,0,0,0,0,0,0,0,0,0,0,0,0,0,0,0,0,0,0,0,0,0,0,0,0,0,0,0,0,0,0,0,0,0,0,0,0,0,0,0,0,0,0,0,0,0,0,0,0,0,0,0,0,0,0,0,0,0,0,0,0,0,0,0,0,0,0,0,0,0,0,0,0,0,0,0,0,0,0,0,0,0,0,0,0,0,0,0,0,0,0,0,0,0,0,0,0,0,0,0,0,0,0,0,0,0,0,0,0,0,0,0,0,0,0,0,0,0,0,0,0,0,0,0,0,0,0,0,0,0,0,0,0,0,0,0,0,0,0,0,0,0,0,0,0,0,0,0,0,0,0,0,0,0,0,0,0,0,0,0,0,0,0,0,0,0,0,0,0,0,0,0,0,0,0,0,0,0,0,0,0,0,0,0,0,0,0,0,0,0,0,0,0,0,0,0,0,0,0,0,0,0,0,0,0,0,0,0,0,0,0,0,0,0,0,0,0,0,0,0,0,0,0,0,0,0,0,0,0,0,0,0,0,0,0,0,0,0,0,0,0,0,0,0,0,0,0,0,0,0,0,0,0,0,0,0,0,0,0,0,0,0,0,0,0,0,0,0,0,0,0,0],"trees":[{"base_weights":[5.462998E-1,6.6017413E-1,-1.2578505E0,-0E0,9.7651976E-1,-1.5007347E0,-0E0,-2.8899333E-1,1.4512949E0,1.0725217E0,-8.743282E-2,-1.2259003E-1,-0E0,-4.841517E-1,1.3127514E0,1.1025425E-1,-0E0,-4.5997384E-1,1.1641859E0,-1.987134E-1,-1.2215107E-1,-0E0,1.069365E-1,-1.0389663E0,3.386606E-2,1.2614571E0,-4.9984592E-1,-3.9026636E-1,7.330136E-2,-8.9805126E-2,-0E0,1.4077016E0,1.6077213E-1,-9.4561286E-2,5.9764843E-2,4.896845E-2,-9.467992E-1,1.4804897E0,-4.398377E-1,-4.6736237E-1,1.1163716E-1,3.1004825E-1,-9.038819E-2,-1.1178502E0,2.6462985E-2,1.5282501E0,-4.363735E-2,-4.280893E-2,-0E0,-1.3688626E0,6.1023533E-1,3.9065197E-2,-4.9847234E-2,-1.0057243E-1,-1.3158912E-2,1.10351235E-1,6.9927843E-3,-1.1064535E-1,-0E0,-0E0,8.997357E-2],"categories":[],"categories_nodes":[],"categories_segments":[],"categories_sizes":[],"default_left":[0,0,0,0,0,0,0,0,0,0,0,0,0,0,0,0,0,0,0,0,0,0,0,0,0,0,0,0,0,0,0,0,0,0,0,0,0,0,0,0,0,0,0,0,0,0,0,0,0,0,0,0,0,0,0,0,0,0,0,0,0],"id":0,"left_children":[1,3,5,7,9,11,-1,13,15,17,-1,-1,-1,19,21,-1,-1,23,25,27,-1,-1,-1,29,-1,31,33,35,-1,-1,-1,37,39,-1,-1,41,43,45,47,49,-1,51,-1,53,-1,55,-1,-1,-1,57,59,-1,-1,-1,-1,-1,-1,-1,-1,-1,-1],"loss_changes":[4.6872482E1,4.584398E1,3.6037025E0,2.8569332E1,3.2161545E1,4.6681385E0,0E0,1.8062725E1,2.1218834E0,2.0858643E1,0E0,0E0,0E0,1.749916E1,8.298979E-1,0E0,0E0,5.128862E0,2.282579E1,1.0477928E1,0E0,0E0,0E0,1.6455512E0,0E0,1.889032E1,9.790556E0,1.0727303E1,0E0,0E0,0E0,1.64048E1,1.6482801E1,0E0,0E0,7.112022E0,5.2199726E0,1.2330811E1,3.9033973E-1,1.234873E1,0E0,5.2217746E0,0E0,3.6570053E0,0E0,8.068756E0,0E0,0E0,0E0,7.1642876E-1,3.2682962E0,0E0,0E0,0E0,0E0,0E0,0E0,0E0,0E0,0E0,0E0],"parents":[2147483647,0,0,1,1,2,2,3,3,4,4,5,5,7,7,8,8,9,9,13,13,14,14,17,17,18,18,19,19,23,23,25,25,26,26,27,27,31,31,32,32,35,35,36,36,37,37,38,38,39,39,41,41,43,43,45,45,49,49,50,50],"right_children":[2,4,6,8,10,12,-1,14,16,18,-1,-1,-1,20,22,-1,-1,24,26,28,-1,-1,-1,30,-1,32,34,36,-1,-1,-1,38,40,-1,-1,42,44,46,48,50,-1,52,-1,54,-1,56,-1,-1,-1,58,60,-1,-1,-1,-1,-1,-1,-1,-1,-1,-1],"split_conditions":[1E0,1E0,1E0,1E0,1E0,1E0,-0E0,1E0,1E0,1E0,-8.743282E-2,-1.2259003E-1,-0E0,1E0,1E0,1.1025425E-1,-0E0,1E0,1E0,1E0,-1.2215107E-1,-0E0,1.069365E-1,1E0,3.386606E-2,1E0,1E0,1E0,7.330136E-2,-8.9805126E-2,-0E0,1E0,1E0,-9.4561286E-2,5.9764843E-2,1E0,1E0,1E0,1E0,1E0,1.1163716E-1,1E0,-9.038819E-2,1E0,2.6462985E-2,1E0,-4.363735E-2,-4.280893E-2,-0E0,1E0,1E0,3.9065197E-2,-4.9847234E-2,-1.0057243E-1,-1.3158912E-2,1.10351235E-1,6.9927843E-3,-1.1064535E-1,-0E0,-0E0,8.997357E-2],"split_indices":[802,1325,1060,1143,2023,568,0,1771,34,1873,0,0,0,1039,2009,0,0,455,1294,207,0,0,0,1722,0,378,389,935,0,0,0,1708,1647,0,0,611,917,34,2009,1573,0,1152,0,1145,0,838,0,0,0,1855,1057,0,0,0,0,0,0,0,0,0,0],"split_type":[0,0,0,0,0,0,0,0,0,0,0,0,0,0,0,0,0,0,0,0,0,0,0,0,0,0,0,0,0,0,0,0,0,0,0,0,0,0,0,0,0,0,0,0,0,0,0,0,0,0,0,0,0,0,0,0,0,0,0,0,0],"sum_hessian":[2.2788898E2,2.152151E2,1.26738615E1,6.9104675E1,1.4611044E2,1.03245125E1,2.3493495E0,5.8485363E1,1.0619308E1,1.4081076E2,5.299675E0,8.75E0,1.5745121E0,5.3038292E1,5.447073E0,9.5696335E0,1.0496747E0,7.2235365E0,1.3358722E2,4.4538292E1,8.5E0,1.3245121E0,4.1225605E0,5.074512E0,2.1490242E0,1.2688853E2,6.698699E0,3.966573E1,4.8725605E0,4.0248375E0,1.0496747E0,1.11093735E2,1.5794796E1,4.5248375E0,2.1738615E0,2.1518332E1,1.8147398E1,1.07494385E2,3.5993495E0,1.0847723E1,4.947073E0,1.9018332E1,2.5E0,1.6798048E1,1.3493495E0,1.0571954E2,1.7748374E0,2.5496747E0,1.0496747E0,6.299675E0,4.5480485E0,1.6218658E1,2.7996747E0,1.134935E1,5.448699E0,1.00446335E2,5.273211E0,4.75E0,1.5496747E0,2.074512E0,2.4735365E0],"tree_param":{"num_deleted":"0","num_feature":"2048","num_nodes":"61","size_leaf_vector":"1"}},{"base_weights":[5.078809E-1,-2.496914E-1,8.754323E-1,-5.3774375E-1,1.2306908E0,1.0198708E0,-1.1791142E0,-7.0170546E-1,1.0428965E0,1.0905087E-1,-0E0,1.1177278E0,-7.1349746E-1,-1.12210676E-1,-0E0,-8.669248E-1,5.772235E-1,-0E0,1.0156388E-1,1.1773099E0,-9.1481626E-1,-1.1491256E0,4.7527473E-2,2.7672516E-2,-3.0509647E-2,-9.439173E-1,6.5011844E-2,9.4470054E-2,-6.883717E-2,4.8468518E-1,1.4032334E0,-8.7216794E-2,-0E0,-9.1819264E-2,-0E0,-1.0342513E0,4.9214233E-2,1.5660296E-3,1.279488E0,1.4514296E0,-4.1081797E-2,-1.1196622E0,6.2429484E-2,-5.390472E-1,1.094468E-1,1.3879025E0,-0E0,1.4951004E0,-5.8918957E-2,-1.182937E0,7.3623103E-3,-8.883064E-1,8.036078E-2,1.05002694E-1,-0E0,1.528629E0,-0E0,-8.562547E-2,8.611037E-3,-8.3163954E-2,3.204031E-2,1.1335013E-1,5.0494365E-2],"categories":[],"categories_nodes":[],"categories_segments":[],"categories_sizes":[],"default_left":[0,0,0,0,0,0,0,0,0,0,0,0,0,0,0,0,0,0,0,0,0,0,0,0,0,0,0,0,0,0,0,0,0,0,0,0,0,0,0,0,0,0,0,0,0,0,0,0,0,0,0,0,0,0,0,0,0,0,0,0,0,0,0],"id":1,"left_children":[1,3,5,7,9,11,13,15,17,-1,-1,19,21,-1,23,25,27,-1,-1,29,31,33,-1,-1,-1,35,-1,-1,-1,37,39,-1,-1,-1,-1,41,-1,43,45,47,-1,49,-1,51,-1,53,-1,55,-1,57,-1,59,-1,-1,-1,61,-1,-1,-1,-1,-1,-1,-1],"loss_changes":[6.5528885E1,3.1994942E1,4.7363747E1,1.67747E1,5.706333E0,2.5982605E1,5.044341E0,1.3075348E1,3.8868752E0,0E0,0E0,1.796428E1,5.646595E0,0E0,7.230805E-1,7.9438667E0,9.155849E0,0E0,0E0,1.9326279E1,1.2538793E0,6.273346E-1,0E0,0E0,0E0,8.507748E0,0E0,0E0,0E0,1.2526795E1,1.1190048E1,0E0,0E0,0E0,0E0,9.082298E0,0E0,2.1654701E1,1.6783447E0,1.1496994E1,0E0,4.875099E0,0E0,1.0798789E1,0E0,1.317028E0,0E0,5.826599E0,0E0,4.4048386E0,0E0,7.52658E0,0E0,0E0,0E0,5.406296E0,0E0,0E0,0E0,0E0,0E0,0E0,0E0],"parents":[2147483647,0,0,1,1,2,2,3,3,4,4,5,5,6,6,7,7,8,8,11,11,12,12,14,14,15,15,16,16,19,19,20,20,21,21,25,25,29,29,30,30,35,35,37,37,38,38,39,39,41,41,43,43,45,45,47,47,49,49,51,51,55,55],"right_children":[2,4,6,8,10,12,14,16,18,-1,-1,20,22,-1,24,26,28,-1,-1,30,32,34,-1,-1,-1,36,-1,-1,-1,38,40,-1,-1,-1,-1,42,-1,44,46,48,-1,50,-1,52,-1,54,-1,56,-1,58,-1,60,-1,-1,-1,62,-1,-1,-1,-1,-1,-1,-1],"split_conditions":[1E0,1E0,1E0,1E0,1E0,1E0,1E0,1E0,1E0,1.0905087E-1,-0E0,1E0,1E0,-1.12210676E-1,1E0,1E0,1E0,-0E0,1.0156388E-1,1E0,1E0,1E0,4.7527473E-2,2.7672516E-2,-3.0509647E-2,1E0,6.5011844E-2,9.4470054E-2,-6.883717E-2,1E0,1E0,-8.7216794E-2,-0E0,-9.1819264E-2,-0E0,1E0,4.9214233E-2,1E0,1E0,1E0,-4.1081797E-2,1E0,6.2429484E-2,1E0,1.094468E-1,1E0,-0E0,1E0,-5.8918957E-2,1E0,7.3623103E-3,1E0,8.036078E-2,1.05002694E-1,-0E0,1E0,-0E0,-8.562547E-2,8.611037E-3,-8.3163954E-2,3.204031E-2,1.1335013E-1,5.0494365E-2],"split_indices":[1325,1143,802,784,294,1162,1199,2017,1504,0,0,994,585,0,807,857,1420,0,0,807,29,314,0,0,0,242,0,0,0,389,34,0,0,0,0,1933,0,1854,191,1369,0,305,0,1143,0,1791,0,462,0,1126,0,539,0,0,0,1634,0,0,0,0,0,0,0],"split_type":[0,0,0,0,0,0,0,0,0,0,0,0,0,0,0,0,0,0,0,0,0,0,0,0,0,0,0,0,0,0,0,0,0,0,0,0,0,0,0,0,0,0,0,0,0,0,0,0,0,0,0,0,0,0,0,0,0,0,0,0,0,0,0],"sum_hessian":[2.3212027E2,7.504382E1,1.5707645E2,6.3680218E1,1.13636055E1,1.4747577E2,9.600671E0,5.8545124E1,5.135094E0,9.0173645E0,2.3462412E0,1.4031796E2,7.15781E0,6.7293878E0,2.871283E0,5.267913E1,5.8659964E0,1.0242063E0,4.1108875E0,1.3702357E2,3.2943897E0,6.060308E0,1.0975024E0,1.3483195E0,1.5229635E0,5.130625E1,1.3728763E0,4.3666396E0,1.4993569E0,3.520552E1,1.0181805E2,2.2472634E0,1.0471263E0,4.7645817E0,1.2957261E0,4.9410004E1,1.8962498E0,2.3017195E1,1.2188327E1,1.0004441E2,1.7736346E0,4.8036312E1,1.3736899E0,1.6989143E1,6.0280523E0,1.1139487E1,1.0488398E0,9.879517E1,1.2492404E0,4.6438305E1,1.5980095E0,1.4795789E1,2.1933544E0,9.818999E0,1.320488E0,9.6976204E1,1.818969E0,4.5364944E1,1.0733603E0,1.2647381E1,2.1484082E0,8.3894936E1,1.3081269E1],"tree_param":{"num_deleted":"0","num_feature":"2048","num_nodes":"63","size_leaf_vector":"1"}},{"base_weights":[4.8091653E-1,2.7228576E-1,1.6364356E0,-2.8301068E-2,9.804485E-1,1.1866944E-1,-0E0,-1.6827413E-1,1.181451E0,1.1811662E0,-9.706183E-2,-0E0,-1.2430238E0,8.910316E-2,-0E0,1.2747859E0,-4.605191E-2,-3.428762E-1,4.0399203E-1,-1.1353176E-1,5.465836E-2,1.4049984E0,-1.4466445E-1,-6.4651716E-1,8.0009684E-2,1.2017938E-1,1.2081361E0,1.471899E0,-4.241156E-3,-4.5524828E-2,1.6524326E-2,-7.9094875E-1,6.0480297E-2,5.8530855E-1,-3.9023396E-1,9.594066E-2,-0E0,1.5408823E0,-8.278209E-4,-9.1456366E-1,5.0344635E-2,9.319809E-1,-7.0902005E-2,-5.6618863E-1,3.9601833E-2,1.6110247E0,-0E0,-7.316153E-2,2.8341347E-2,-5.926403E-3,7.8996256E-2,-5.8907546E-2,-0E0,1.1421722E-1,-0E0],"categories":[],"categories_nodes":[],"categories_segments":[],"categories_sizes":[],"default_left":[0,0,0,0,0,0,0,0,0,0,0,0,0,0,0,0,0,0,0,0,0,0,0,0,0,0,0,0,0,0,0,0,0,0,0,0,0,0,0,0,0,0,0,0,0,0,0,0,0,0,0,0,0,0,0],"id":2,"left_children":[1,3,5,7,9,-1,-1,11,13,15,-1,17,19,-1,-1,21,-1,23,25,-1,-1,27,29,31,-1,33,35,37,-1,-1,-1,39,-1,41,43,-1,-1,45,-1,47,-1,49,-1,51,-1,53,-1,-1,-1,-1,-1,-1,-1,-1,-1],"loss_changes":[5.393486E1,4.3128395E1,3.5105896E0,2.2661507E1,2.9484718E1,0E0,0E0,2.255795E1,1.8330097E0,1.0780869E1,0E0,1.5223841E1,1.517403E1,0E0,0E0,1.13161545E1,0E0,2.709623E1,1.012619E1,0E0,0E0,6.322441E0,1.371559E0,1.1424267E1,0E0,9.516851E0,2.5719547E0,6.448311E0,0E0,0E0,0E0,9.400549E0,0E0,1.2464983E1,3.209933E0,0E0,0E0,4.287483E0,0E0,9.171978E0,0E0,4.9772205E0,0E0,2.9310174E0,0E0,2.6196747E0,0E0,0E0,0E0,0E0,0E0,0E0,0E0,0E0,0E0],"parents":[2147483647,0,0,1,1,2,2,3,3,4,4,7,7,8,8,9,9,11,11,12,12,15,15,17,17,18,18,21,21,22,22,23,23,25,25,26,26,27,27,31,31,33,33,34,34,37,37,39,39,41,41,43,43,45,45],"right_children":[2,4,6,8,10,-1,-1,12,14,16,-1,18,20,-1,-1,22,-1,24,26,-1,-1,28,30,32,-1,34,36,38,-1,-1,-1,40,-1,42,44,-1,-1,46,-1,48,-1,50,-1,52,-1,54,-1,-1,-1,-1,-1,-1,-1,-1,-1],"split_conditions":[1E0,1E0,1E0,1E0,1E0,1.1866944E-1,-0E0,1E0,1E0,1E0,-9.706183E-2,1E0,1E0,8.910316E-2,-0E0,1E0,-4.605191E-2,1E0,1E0,-1.1353176E-1,5.465836E-2,1E0,1E0,1E0,8.0009684E-2,1E0,1E0,1E0,-4.241156E-3,-4.5524828E-2,1.6524326E-2,1E0,6.0480297E-2,1E0,1E0,9.594066E-2,-0E0,1E0,-8.278209E-4,1E0,5.0344635E-2,1E0,-7.0902005E-2,1E0,3.9601833E-2,1E0,-0E0,-7.316153E-2,2.8341347E-2,-5.926403E-3,7.8996256E-2,-5.8907546E-2,-0E0,1.1421722E-1,-0E0],"split_indices":[440,114,1410,1143,2023,0,0,1946,1238,809,0,695,713,0,0,1344,0,1070,191,0,0,1050,675,1771,0,935,433,1420,0,0,0,455,0,1536,222,0,0,239,0,387,0,926,0,1910,0,1165,0,0,0,0,0,0,0,0,0],"split_type":[0,0,0,0,0,0,0,0,0,0,0,0,0,0,0,0,0,0,0,0,0,0,0,0,0,0,0,0,0,0,0,0,0,0,0,0,0,0,0,0,0,0,0,0,0,0,0,0,0,0,0,0,0,0,0],"sum_hessian":[2.317844E2,1.9766452E2,3.4119873E1,1.382249E2,5.9439617E1,3.2291183E1,1.8286915E0,1.250611E2,1.3163809E1,5.546804E1,3.9715736E0,1.0876037E2,1.6300732E1,1.2124432E1,1.039378E0,5.3459347E1,2.008695E0,5.906084E1,4.9699524E1,1.4134681E1,2.1660514E0,4.958824E1,3.8711057E0,4.991876E1,9.142082E0,3.812221E1,1.1577316E1,4.8044044E1,1.5441982E0,2.5368576E0,1.3342481E0,4.642209E1,3.4966698E0,2.0877089E1,1.7245121E1,1.001062E1,1.5666962E0,4.6501644E1,1.5424007E0,4.372764E1,2.694448E0,1.7871517E1,3.005571E0,1.562545E1,1.619671E0,4.4141212E1,2.360429E0,4.0268593E1,3.4590483E0,2.317608E0,1.5553909E1,1.06493025E1,4.976147E0,4.3094254E1,1.0469607E0],"tree_param":{"num_deleted":"0","num_feature":"2048","num_nodes":"55","size_leaf_vector":"1"}},{"base_weights":[5.158356E-1,3.5914946E-1,1.10685214E-1,1.6523105E-1,1.3908602E0,-9.83612E-2,1.1715205E0,1.0903971E-1,-4.2829536E-2,-2.0496364E-1,1.0986369E0,-0E0,1.1401691E-1,-2.8965303E-1,8.182492E-2,9.750811E-2,1.4916067E-1,-8.145823E-2,8.3195144E-1,-4.3905732E-1,5.62501E-1,-0E0,4.02033E-2,7.619293E-2,1.4285779E-3,-5.461929E-1,5.7886404E-1,-0E0,9.75765E-1,-6.232085E-1,7.113643E-2,9.494353E-1,-4.964136E-2,-3.4643855E-2,5.087134E-1,1.0951368E0,-0E0,-4.8442833E-2,7.642839E-2,7.690203E-2,-0E0,5.906739E-2,-0E0,8.396421E-2,-0E0],"categories":[],"categories_nodes":[],"categories_segments":[],"categories_sizes":[],"default_left":[0,0,0,0,0,0,0,0,0,0,0,0,0,0,0,0,0,0,0,0,0,0,0,0,0,0,0,0,0,0,0,0,0,0,0,0,0,0,0,0,0,0,0,0,0],"id":3,"left_children":[1,3,-1,5,7,9,11,-1,-1,13,15,17,-1,19,-1,-1,21,-1,23,25,27,-1,-1,-1,-1,29,31,33,35,37,-1,39,-1,-1,41,43,-1,-1,-1,-1,-1,-1,-1,-1,-1],"loss_changes":[3.6780327E1,3.8890823E1,0E0,4.6693752E1,1.2954098E1,1.6642096E1,2.0022614E1,0E0,0E0,1.4162905E1,1.4635258E0,1.1494144E1,0E0,1.53110485E1,0E0,0E0,7.4139035E-1,0E0,4.3533802E-1,1.1435961E1,4.2765694E0,0E0,0E0,0E0,0E0,1.1473907E1,5.0915785E0,2.0848987E0,1.2801676E0,1.2045078E1,0E0,1.3870773E0,0E0,0E0,6.3031614E-1,5.4170513E-1,0E0,0E0,0E0,0E0,0E0,0E0,0E0,0E0,0E0],"parents":[2147483647,0,0,1,1,3,3,4,4,5,5,6,6,9,9,10,10,11,11,13,13,16,16,18,18,19,19,20,20,25,25,26,26,27,27,28,28,29,29,31,31,34,34,35,35],"right_children":[2,4,-1,6,8,10,12,-1,-1,14,16,18,-1,20,-1,-1,22,-1,24,26,28,-1,-1,-1,-1,30,32,34,36,38,-1,40,-1,-1,42,44,-1,-1,-1,-1,-1,-1,-1,-1,-1],"split_conditions":[1E0,1E0,1.10685214E-1,1E0,1E0,1E0,1E0,1.0903971E-1,-4.2829536E-2,1E0,1E0,1E0,1.1401691E-1,1E0,8.182492E-2,9.750811E-2,1E0,-8.145823E-2,1E0,1E0,1E0,-0E0,4.02033E-2,7.619293E-2,1.4285779E-3,1E0,1E0,1E0,1E0,1E0,7.113643E-2,1E0,-4.964136E-2,-3.4643855E-2,1E0,1E0,-0E0,-4.8442833E-2,7.642839E-2,7.690203E-2,-0E0,5.906739E-2,-0E0,8.396421E-2,-0E0],"split_indices":[800,715,0,426,1921,1224,1917,0,0,960,1480,389,0,675,0,0,1758,0,935,585,1057,0,0,0,0,771,118,585,294,1422,0,531,0,0,1754,1683,0,0,0,0,0,0,0,0,0],"split_type":[0,0,0,0,0,0,0,0,0,0,0,0,0,0,0,0,0,0,0,0,0,0,0,0,0,0,0,0,0,0,0,0,0,0,0,0,0,0,0,0,0,0,0,0,0],"sum_hessian":[2.2945575E2,2.0189372E2,2.7562029E1,1.7131587E2,3.0577856E1,1.3543488E2,3.5880993E1,2.8580734E1,1.9971219E0,1.2554902E2,9.885853E0,1.059897E1,2.5282022E1,1.1941598E2,6.1330423E0,6.4835014E0,3.4023511E0,4.216487E0,6.382484E0,1.0280269E2,1.6613293E1,1.5375905E0,1.8647608E0,3.7544324E0,2.6280513E0,9.411294E1,8.689749E0,7.0025377E0,9.610755E0,9.064419E1,3.4687517E0,7.4540687E0,1.2356806E0,3.815764E0,3.1867738E0,8.573128E0,1.0376272E0,8.76955E1,2.948683E0,6.41874E0,1.0353286E0,1.6144665E0,1.5723072E0,7.25976E0,1.3133681E0],"tree_param":{"num_deleted":"0","num_feature":"2048","num_nodes":"45","size_leaf_vector":"1"}},{"base_weights":[4.7390214E-1,5.8100194E-1,-1.0385486E0,-0E0,8.598735E-1,-1.205142E0,5.490269E-3,-2.6037058E-1,9.5469765E-2,9.6422774E-1,-9.014435E-1,-1.1800797E-1,-1.0661138E-1,-3.8144797E-1,9.820812E-1,1.0585926E0,-2.3905298E-1,-8.324524E-2,2.7127E-3,-3.990641E-2,4.2711874E-4,-4.830164E-1,7.671428E-2,-0E0,8.4090576E-2,1.1043797E0,-6.8628654E-2,-8.688015E-1,7.645696E-2,-5.734177E-1,7.221021E-2,1.1812396E0,-7.793852E-2,-1.1630226E0,-0E0,1.4022066E-1,-7.261741E-1,-5.5157766E-3,1.2543838E0,-9.332641E-1,5.8342464E-2,-1.04589745E-1,-0E0,6.584118E-1,-6.381536E-2,-8.228683E-1,3.4319777E-2,-4.9815127E-1,5.5830736E-2,1.2980038E0,-6.2186774E-2,-8.2239784E-2,-0E0,5.4203946E-2,-0E0,-6.459792E-2,2.773155E-2,-5.0950833E-2,-0E0,9.282908E-2,-3.53814E-2],"categories":[],"categories_nodes":[],"categories_segments":[],"categories_sizes":[],"default_left":[0,0,0,0,0,0,0,0,0,0,0,0,0,0,0,0,0,0,0,0,0,0,0,0,0,0,0,0,0,0,0,0,0,0,0,0,0,0,0,0,0,0,0,0,0,0,0,0,0,0,0,0,0,0,0,0,0,0,0,0,0],"id":4,"left_children":[1,3,5,7,9,11,-1,13,-1,15,17,19,-1,21,23,25,27,-1,-1,-1,-1,29,-1,-1,-1,31,-1,33,-1,35,-1,37,39,41,-1,43,45,47,49,51,-1,-1,-1,53,-1,55,-1,57,-1,59,-1,-1,-1,-1,-1,-1,-1,-1,-1,-1,-1],"loss_changes":[3.579877E1,3.3027077E1,3.7886333E0,2.5749317E1,2.622905E1,3.0980358E0,0E0,8.372406E0,0E0,1.5982056E1,3.2826405E0,7.969086E-1,0E0,7.883916E0,8.183007E-1,1.23762665E1,8.29529E0,0E0,0E0,0E0,0E0,7.0166883E0,0E0,0E0,0E0,1.2173187E1,0E0,2.530551E0,0E0,6.028948E0,0E0,1.1189041E1,6.257251E0,1.3561792E0,0E0,4.5977144E0,5.5262966E0,2.5567987E0,1.1334076E1,9.995494E-1,0E0,0E0,0E0,5.143814E-1,0E0,6.0786133E0,0E0,6.6755414E-1,0E0,9.345642E0,0E0,0E0,0E0,0E0,0E0,0E0,0E0,0E0,0E0,0E0,0E0],"parents":[2147483647,0,0,1,1,2,2,3,3,4,4,5,5,7,7,9,9,10,10,11,11,13,13,14,14,15,15,16,16,21,21,25,25,27,27,29,29,31,31,32,32,33,33,35,35,36,36,37,37,38,38,39,39,43,43,45,45,47,47,49,49],"right_children":[2,4,6,8,10,12,-1,14,-1,16,18,20,-1,22,24,26,28,-1,-1,-1,-1,30,-1,-1,-1,32,-1,34,-1,36,-1,38,40,42,-1,44,46,48,50,52,-1,-1,-1,54,-1,56,-1,58,-1,60,-1,-1,-1,-1,-1,-1,-1,-1,-1,-1,-1],"split_conditions":[1E0,1E0,1E0,1E0,1E0,1E0,5.490269E-3,1E0,9.5469765E-2,1E0,1E0,1E0,-1.0661138E-1,1E0,1E0,1E0,1E0,-8.324524E-2,2.7127E-3,-3.990641E-2,4.2711874E-4,1E0,7.671428E-2,-0E0,8.4090576E-2,1E0,-6.8628654E-2,1E0,7.645696E-2,1E0,7.221021E-2,1E0,1E0,1E0,-0E0,1E0,1E0,1E0,1E0,1E0,5.8342464E-2,-1.04589745E-1,-0E0,1E0,-6.381536E-2,1E0,3.4319777E-2,1E0,5.5830736E-2,1E0,-6.2186774E-2,-8.2239784E-2,-0E0,5.4203946E-2,-0E0,-6.459792E-2,2.773155E-2,-5.0950833E-2,-0E0,9.282908E-2,-3.53814E-2],"split_indices":[802,1325,1224,1143,1162,80,0,1504,0,1168,528,1199,0,1169,1683,980,1517,0,0,0,0,1649,0,0,0,1294,0,784,0,80,0,1750,389,1171,0,1722,222,1754,34,1917,0,0,0,675,0,99,0,80,0,1089,0,0,0,0,0,0,0,0,0,0,0],"split_type":[0,0,0,0,0,0,0,0,0,0,0,0,0,0,0,0,0,0,0,0,0,0,0,0,0,0,0,0,0,0,0,0,0,0,0,0,0,0,0,0,0,0,0,0,0,0,0,0,0,0,0,0,0,0,0,0,0,0,0,0,0],"sum_hessian":[2.2085255E2,2.0718257E2,1.3669995E1,6.825243E1,1.3893013E2,1.2598333E1,1.0716618E0,5.7361958E1,1.0890479E1,1.319274E2,7.002727E0,3.820462E0,8.777871E0,5.3347664E1,4.014293E0,1.23135506E2,8.791892E0,5.9511795E0,1.0515476E0,1.9857656E0,1.8346964E0,5.0920498E1,2.4271672E0,1.0380962E0,2.976197E0,1.2117073E2,1.9647752E0,6.6126647E0,2.1792274E0,4.9015972E1,1.9045262E0,1.1453224E2,6.6384945E0,5.2950034E0,1.3176615E0,7.5503364E0,4.1465637E1,5.924754E0,1.0860748E2,3.972731E0,2.6657631E0,3.493623E0,1.8013802E0,5.830378E0,1.7199581E0,3.932932E1,2.1363163E0,4.5621295E0,1.3626249E0,1.07118065E2,1.4894189E0,2.935657E0,1.0370741E0,4.7945957E0,1.0357823E0,3.694522E1,2.3840988E0,3.0023112E0,1.559818E0,1.0536628E2,1.7517892E0],"tree_param":{"num_deleted":"0","num_feature":"2048","num_nodes":"61","size_leaf_vector":"1"}},{"base_weights":[4.1005912E-1,4.981261E-1,-1.0968194E0,-1.1581129E-2,7.626411E-1,-1.2307906E0,-0E0,3.0990264E-1,-7.584527E-1,8.618177E-1,-1.0558122E0,-9.460453E-2,-0E0,8.350098E-2,8.967872E-2,-9.600832E-1,6.291194E-2,-8.419827E-2,9.213457E-1,-0E0,-9.195158E-2,3.887034E-1,-7.081142E-1,-1.1259491E0,5.1983356E-2,1.0011278E0,-3.0854723E-1,5.632972E-1,-6.2864326E-2,-9.257383E-1,-0E0,-1.3261285E0,2.8209468E-2,1.0467324E0,-6.472254E-1,-8.7586015E-1,4.1058447E-2,7.7428705E-1,-5.635973E-1,-1.0579545E0,-0E0,-9.8263755E-2,-0E0,1.079181E0,-3.3752147E-2,-0E0,-6.861676E-2,-9.14533E-2,-0E0,9.597454E-1,-1.3932383E-1,9.85555E-3,-7.958156E-2,-8.826864E-2,-0E0,1.1071417E0,-4.0412065E-2,7.727258E-2,-0E0,-5.4390397E-2,3.662447E-3,7.8438036E-2,-8.308026E-3],"categories":[],"categories_nodes":[],"categories_segments":[],"categories_sizes":[],"default_left":[0,0,0,0,0,0,0,0,0,0,0,0,0,0,0,0,0,0,0,0,0,0,0,0,0,0,0,0,0,0,0,0,0,0,0,0,0,0,0,0,0,0,0,0,0,0,0,0,0,0,0,0,0,0,0,0,0,0,0,0,0,0,0],"id":5,"left_children":[1,3,5,7,9,11,-1,13,15,17,19,-1,-1,21,-1,23,-1,-1,25,-1,-1,27,29,31,-1,33,35,37,-1,39,-1,41,-1,43,45,47,-1,49,51,53,-1,-1,-1,55,-1,-1,-1,-1,-1,57,59,-1,-1,-1,-1,61,-1,-1,-1,-1,-1,-1,-1],"loss_changes":[2.920456E1,2.9122726E1,2.1268425E0,1.769629E1,2.5597504E1,9.339676E-1,0E0,9.631645E0,8.145132E0,1.6901787E1,1.3406591E0,0E0,0E0,9.910591E0,0E0,6.796461E0,0E0,0E0,1.3659576E1,0E0,0E0,7.057211E0,2.0908246E0,7.2787704E0,0E0,1.0072319E1,4.5121827E0,7.259925E0,0E0,1.1518798E0,0E0,2.5242233E0,0E0,6.901642E0,7.4570227E-1,1.9077954E0,0E0,5.105938E0,2.768815E0,1.4556351E0,0E0,0E0,0E0,6.4315796E0,0E0,0E0,0E0,0E0,0E0,3.8095093E0,1.2050105E0,0E0,0E0,0E0,0E0,4.6615753E0,0E0,0E0,0E0,0E0,0E0,0E0,0E0],"parents":[2147483647,0,0,1,1,2,2,3,3,4,4,5,5,7,7,8,8,9,9,10,10,13,13,15,15,18,18,21,21,22,22,23,23,25,25,26,26,27,27,29,29,31,31,33,33,34,34,35,35,37,37,38,38,39,39,43,43,49,49,50,50,55,55],"right_children":[2,4,6,8,10,12,-1,14,16,18,20,-1,-1,22,-1,24,-1,-1,26,-1,-1,28,30,32,-1,34,36,38,-1,40,-1,42,-1,44,46,48,-1,50,52,54,-1,-1,-1,56,-1,-1,-1,-1,-1,58,60,-1,-1,-1,-1,62,-1,-1,-1,-1,-1,-1,-1],"split_conditions":[1E0,1E0,1E0,1E0,1E0,1E0,-0E0,1E0,1E0,1E0,1E0,-9.460453E-2,-0E0,1E0,8.967872E-2,1E0,6.291194E-2,-8.419827E-2,1E0,-0E0,-9.195158E-2,1E0,1E0,1E0,5.1983356E-2,1E0,1E0,1E0,-6.2864326E-2,1E0,-0E0,1E0,2.8209468E-2,1E0,1E0,1E0,4.1058447E-2,1E0,1E0,1E0,-0E0,-9.8263755E-2,-0E0,1E0,-3.3752147E-2,-0E0,-6.861676E-2,-9.14533E-2,-0E0,1E0,1E0,9.85555E-3,-7.958156E-2,-8.826864E-2,-0E0,1E0,-4.0412065E-2,7.727258E-2,-0E0,-5.4390397E-2,3.662447E-3,7.8438036E-2,-8.308026E-3],"split_indices":[802,1325,987,1019,1162,1028,0,1004,221,1380,807,0,0,1866,0,486,0,0,305,0,0,1243,99,1224,0,1569,147,1308,0,389,0,1308,0,1818,1065,739,0,1295,807,1114,0,0,0,1882,0,0,0,0,0,932,1057,0,0,0,0,430,0,0,0,0,0,0,0],"split_type":[0,0,0,0,0,0,0,0,0,0,0,0,0,0,0,0,0,0,0,0,0,0,0,0,0,0,0,0,0,0,0,0,0,0,0,0,0,0,0,0,0,0,0,0,0,0,0,0,0,0,0,0,0,0,0,0,0,0,0,0,0,0,0],"sum_hessian":[2.212914E2,2.1005093E2,1.1240455E1,7.0729515E1,1.3932143E2,1.0206713E1,1.0337423E0,4.8799644E1,2.1929873E1,1.3291338E2,6.408038E0,8.68124E0,1.5254722E0,4.09933E1,7.806341E0,2.0300854E1,1.6290185E0,2.9313653E0,1.2998203E2,1.8120581E0,4.5959797E0,3.0676815E1,1.0316488E1,1.9201815E1,1.09904E0,1.2289699E2,7.0850334E0,2.7983015E1,2.6938002E0,8.226216E0,2.0902712E0,1.7606121E1,1.5956937E0,1.2036497E2,2.5320184E0,5.007519E0,2.0775146E0,2.4441261E1,3.5417526E0,7.1866956E0,1.0395212E0,1.657276E1,1.0333617E0,1.1865488E2,1.710089E0,1.0350273E0,1.4969912E0,2.9630516E0,2.0444674E0,2.115928E1,3.2819815E0,1.0728716E0,2.4688811E0,5.66615E0,1.5205452E0,1.1745397E2,1.2009069E0,1.8575867E1,2.5834136E0,1.4649566E0,1.8170248E0,1.1592021E2,1.5337578E0],"tree_param":{"num_deleted":"0","num_feature":"2048","num_nodes":"63","size_leaf_vector":"1"}},{"base_weights":[4.033133E-1,2.3389618E-1,1.3564928E0,5.5099767E-2,1.3514163E0,9.751107E-2,-0E0,-1.4791773E-1,9.621201E-1,9.821028E-2,-0E0,-3.081257E-1,5.47124E-1,-4.1792765E-2,1.3388307E0,-4.403021E-1,1.018237E0,8.406685E-1,-3.398274E-1,-7.286051E-2,7.697798E-1,1.0075501E-1,1.3628674E-1,-5.41066E-1,1.0985929E0,1.1725867E0,-0E0,9.7317684E-1,-1.54418E-2,-6.6755235E-2,1.37753235E-2,6.940621E-2,-0E0,3.1112188E-2,-0E0,4.0767738E-3,-7.731863E-1,9.0491034E-2,-0E0,9.284487E-2,-0E0,1.0386448E0,-0E0,-2.7331045E-1,7.186883E-1,-8.468403E-1,4.0577546E-2,1.3027947E0,2.8349677E-1,5.3077895E-2,-3.5964265E-2,-0E0,6.37443E-2,-6.694309E-2,5.5338573E-3,1.0175538E-1,-0E0,-0E0,6.80021E-2],"categories":[],"categories_nodes":[],"categories_segments":[],"categories_sizes":[],"default_left":[0,0,0,0,0,0,0,0,0,0,0,0,0,0,0,0,0,0,0,0,0,0,0,0,0,0,0,0,0,0,0,0,0,0,0,0,0,0,0,0,0,0,0,0,0,0,0,0,0,0,0,0,0,0,0,0,0,0,0],"id":6,"left_children":[1,3,5,7,9,-1,-1,11,13,-1,-1,15,17,19,21,23,25,27,29,-1,31,-1,33,35,37,39,-1,41,-1,-1,-1,-1,-1,-1,-1,43,45,-1,-1,-1,-1,47,-1,49,51,53,-1,55,57,-1,-1,-1,-1,-1,-1,-1,-1,-1,-1],"loss_changes":[3.4097126E1,3.6544914E1,2.1279488E0,3.1248043E1,2.1356125E0,0E0,0E0,1.485008E1,1.3039169E1,0E0,0E0,1.9144085E1,6.975295E0,7.6267915E0,1.6018295E0,1.5617296E1,1.8578091E0,3.5567884E0,2.746547E0,0E0,5.3734255E-1,0E0,3.749251E-1,1.2954088E1,1.1611443E0,1.7308741E0,0E0,1.0042439E0,0E0,0E0,0E0,0E0,0E0,0E0,0E0,6.1345906E0,7.4487877E0,0E0,0E0,0E0,0E0,1.6055222E0,0E0,5.0604844E0,2.1248279E0,8.226746E0,0E0,2.5513744E0,1.8936408E0,0E0,0E0,0E0,0E0,0E0,0E0,0E0,0E0,0E0,0E0],"parents":[2147483647,0,0,1,1,2,2,3,3,4,4,7,7,8,8,11,11,12,12,13,13,14,14,15,15,16,16,17,17,18,18,20,20,22,22,23,23,24,24,25,25,27,27,35,35,36,36,41,41,43,43,44,44,45,45,47,47,48,48],"right_children":[2,4,6,8,10,-1,-1,12,14,-1,-1,16,18,20,22,24,26,28,30,-1,32,-1,34,36,38,40,-1,42,-1,-1,-1,-1,-1,-1,-1,44,46,-1,-1,-1,-1,48,-1,50,52,54,-1,56,58,-1,-1,-1,-1,-1,-1,-1,-1,-1,-1],"split_conditions":[1E0,1E0,1E0,1E0,1E0,9.751107E-2,-0E0,1E0,1E0,9.821028E-2,-0E0,1E0,1E0,1E0,1E0,1E0,1E0,1E0,1E0,-7.286051E-2,1E0,1.0075501E-1,1E0,1E0,1E0,1E0,-0E0,1E0,-1.54418E-2,-6.6755235E-2,1.37753235E-2,6.940621E-2,-0E0,3.1112188E-2,-0E0,1E0,1E0,9.0491034E-2,-0E0,9.284487E-2,-0E0,1E0,-0E0,1E0,1E0,1E0,4.0577546E-2,1E0,1E0,5.3077895E-2,-3.5964265E-2,-0E0,6.37443E-2,-6.694309E-2,5.5338573E-3,1.0175538E-1,-0E0,-0E0,6.80021E-2],"split_indices":[440,527,667,1599,898,0,0,881,807,0,0,1143,1866,389,935,1280,656,314,872,0,884,0,1049,80,314,865,0,1039,0,0,0,0,0,0,0,389,296,0,0,0,0,294,0,1380,935,890,0,1784,2017,0,0,0,0,0,0,0,0,0,0],"split_type":[0,0,0,0,0,0,0,0,0,0,0,0,0,0,0,0,0,0,0,0,0,0,0,0,0,0,0,0,0,0,0,0,0,0,0,0,0,0,0,0,0,0,0,0,0,0,0,0,0,0,0,0,0,0,0,0,0,0,0],"sum_hessian":[2.2111838E2,1.8923392E2,3.1884453E1,1.6441345E2,2.482047E1,3.0652178E1,1.2322739E0,1.3389607E2,3.0517385E1,2.3569305E1,1.2511644E0,1.10201355E2,2.369471E1,7.7822094E0,2.2735176E1,1.01233955E2,8.967402E0,1.8634022E1,5.0606875E0,3.9118023E0,3.8704073E0,1.9906628E1,2.8285496E0,9.596044E1,5.2735076E0,7.9651575E0,1.0022445E0,1.7412243E1,1.2217792E0,2.945662E0,2.1150255E0,2.5745392E0,1.2958682E0,1.5735779E0,1.2549717E0,2.76073E1,6.835315E1,4.2359147E0,1.0375926E0,6.921873E0,1.0432847E0,1.6143795E1,1.2684488E0,1.9194172E1,8.413128E0,6.571937E1,2.633781E0,1.0701388E1,5.442406E0,2.6849787E0,1.6509193E1,1.00353E0,7.409598E0,5.9109993E1,6.609373E0,9.4756775E0,1.2257106E0,3.5741165E0,1.8682896E0],"tree_param":{"num_deleted":"0","num_feature":"2048","num_nodes":"59","size_leaf_vector":"1"}},{"base_weights":[3.0806226E-1,1.6575116E-1,1.2886554E0,-0E0,9.5150155E-1,9.7481295E-2,3.7244E-2,-1.1006096E-1,1.2561611E0,-1.2372458E-1,1.2001268E0,-3.3428594E-2,5.6879114E-2,-2.2618774E-1,5.498788E-1,-0E0,9.313691E-2,-7.578899E-2,3.2603022E-1,1.2855006E0,-0E0,-3.174378E-1,8.603931E-1,-9.0463616E-2,1.0697412E0,4.6744607E-2,-0E0,1.3674158E0,-0E0,-3.9408875E-1,7.2744444E-2,-0E0,7.540463E-2,-8.408263E-1,5.0440855E-2,8.893228E-2,9.206126E-2,9.88557E-2,-0E0,-5.0968856E-1,6.3397026E-1,-7.092859E-2,-0E0,-1.5036964E-2,5.523717E-2,-6.322139E-1,2.8716168E-1,7.846339E-2,-6.369447E-2,-3.547887E-3,-6.505336E-2,4.914884E-2,-4.104313E-2],"categories":[],"categories_nodes":[],"categories_segments":[],"categories_sizes":[],"default_left":[0,0,0,0,0,0,0,0,0,0,0,0,0,0,0,0,0,0,0,0,0,0,0,0,0,0,0,0,0,0,0,0,0,0,0,0,0,0,0,0,0,0,0,0,0,0,0,0,0,0,0,0,0],"id":7,"left_children":[1,3,5,7,9,-1,11,13,15,17,19,-1,-1,21,23,-1,-1,-1,25,27,-1,29,31,33,35,-1,-1,37,-1,39,-1,-1,-1,41,-1,-1,43,-1,-1,45,47,-1,-1,-1,-1,49,51,-1,-1,-1,-1,-1,-1],"loss_changes":[2.9274902E1,2.5239841E1,2.59198E0,2.2414663E1,1.0143898E1,0E0,2.0469944E0,1.1153234E1,1.1369705E0,3.6379163E0,3.96587E0,0E0,0E0,1.2338532E1,8.0426445E0,0E0,0E0,0E0,8.074969E-1,2.081478E0,0E0,1.2131423E1,1.6810122E0,6.140573E0,1.2425737E0,0E0,0E0,1.6254692E0,0E0,1.3636145E1,0E0,0E0,0E0,6.070833E-1,0E0,0E0,1.4642835E0,0E0,0E0,1.0566383E1,9.321988E0,0E0,0E0,0E0,0E0,1.5266933E1,5.26674E0,0E0,0E0,0E0,0E0,0E0,0E0],"parents":[2147483647,0,0,1,1,2,2,3,3,4,4,6,6,7,7,8,8,9,9,10,10,13,13,14,14,18,18,19,19,21,21,22,22,23,23,24,24,27,27,29,29,33,33,36,36,39,39,40,40,45,45,46,46],"right_children":[2,4,6,8,10,-1,12,14,16,18,20,-1,-1,22,24,-1,-1,-1,26,28,-1,30,32,34,36,-1,-1,38,-1,40,-1,-1,-1,42,-1,-1,44,-1,-1,46,48,-1,-1,-1,-1,50,52,-1,-1,-1,-1,-1,-1],"split_conditions":[1E0,1E0,1E0,1E0,1E0,9.7481295E-2,1E0,1E0,1E0,1E0,1E0,-3.3428594E-2,5.6879114E-2,1E0,1E0,-0E0,9.313691E-2,-7.578899E-2,1E0,1E0,-0E0,1E0,1E0,1E0,1E0,4.6744607E-2,-0E0,1E0,-0E0,1E0,7.2744444E-2,-0E0,7.540463E-2,1E0,5.0440855E-2,8.893228E-2,1E0,9.88557E-2,-0E0,1E0,1E0,-7.092859E-2,-0E0,-1.5036964E-2,5.523717E-2,1E0,1E0,7.846339E-2,-6.369447E-2,-3.547887E-3,-6.505336E-2,4.914884E-2,-4.104313E-2],"split_indices":[1657,585,1168,1212,650,0,1840,1599,1910,1573,523,0,0,207,650,0,0,0,45,734,0,224,80,389,556,0,0,1038,0,1504,0,0,0,1199,0,0,390,0,0,890,1879,0,0,0,0,1019,1261,0,0,0,0,0,0],"split_type":[0,0,0,0,0,0,0,0,0,0,0,0,0,0,0,0,0,0,0,0,0,0,0,0,0,0,0,0,0,0,0,0,0,0,0,0,0,0,0,0,0,0,0,0,0,0,0,0,0,0,0,0,0],"sum_hessian":[2.2003842E2,1.9361537E2,2.6423054E1,1.6044516E2,3.31702E1,2.3376635E1,3.0464199E0,1.479826E2,1.2462565E1,5.5660605E0,2.760414E1,1.23925E0,1.8071699E0,1.2740417E2,2.0578434E1,1.02681E0,1.1435756E1,2.1615825E0,3.404478E0,2.638197E1,1.2221701E0,1.187363E2,8.667872E0,8.621661E0,1.1956773E1,2.1078258E0,1.2966523E0,2.435907E1,2.0229003E0,1.1349944E2,5.236851E0,2.056799E0,6.6110735E0,5.097177E0,3.524484E0,8.856371E0,3.100402E0,2.3123549E1,1.2355208E0,1.03133514E2,1.0365926E1,3.8221126E0,1.2750642E0,1.5051503E0,1.5952518E0,9.053375E1,1.2599762E1,8.435586E0,1.93034E0,3.2595882E1,5.793787E1,9.324321E0,3.275441E0],"tree_param":{"num_deleted":"0","num_feature":"2048","num_nodes":"53","size_leaf_vector":"1"}},{"base_weights":[4.0665618E-1,4.9293175E-1,-8.668849E-1,5.60958E-1,-8.6995706E-2,-8.9138076E-2,-1.956278E-1,6.240859E-1,-8.453573E-2,3.7768062E-2,-4.432586E-2,4.306126E-1,1.0556506E0,5.441769E-1,-6.320792E-1,1.1224694E0,-4.979737E-2,7.253626E-1,-1.524126E-1,-8.468721E-1,3.1111967E-2,1.1717542E0,-0E0,-4.030544E-1,8.402931E-1,-7.098165E-1,2.576592E-1,-1.1314752E0,-0E0,1.2243825E0,-0E0,5.410166E-2,-9.674659E-1,9.105607E-1,-3.7861936E-2,-1.0012692E0,-0E0,4.7975552E-1,-5.077283E-2,-8.97087E-2,-0E0,1.2512983E0,-0E0,-8.1295334E-2,-0E0,6.629028E-2,-5.3335644E-2,-7.782181E-2,-0E0,1.1898731E-3,7.7457316E-2,8.826761E-2,-0E0],"categories":[],"categories_nodes":[],"categories_segments":[],"categories_sizes":[],"default_left":[0,0,0,0,0,0,0,0,0,0,0,0,0,0,0,0,0,0,0,0,0,0,0,0,0,0,0,0,0,0,0,0,0,0,0,0,0,0,0,0,0,0,0,0,0,0,0,0,0,0,0,0,0],"id":8,"left_children":[1,3,5,7,-1,-1,9,11,-1,-1,-1,13,15,17,19,21,-1,23,25,27,-1,29,-1,31,33,35,37,39,-1,41,-1,-1,43,45,-1,47,-1,49,-1,-1,-1,51,-1,-1,-1,-1,-1,-1,-1,-1,-1,-1,-1],"loss_changes":[2.2561172E1,2.2865536E1,1.9852066E0,2.1017021E1,0E0,0E0,2.4159396E0,1.3538078E1,0E0,0E0,0E0,1.5627932E1,7.3339844E0,1.5405418E1,3.364964E0,3.7059784E0,0E0,1.2837769E1,5.9364257E0,3.5057626E0,0E0,3.2160568E0,0E0,6.2104793E0,9.071274E0,2.5451198E0,2.8421407E0,1.14258E0,0E0,1.7099686E0,0E0,0E0,1.4097443E0,7.0788345E0,0E0,8.3779526E-1,0E0,2.3937685E0,0E0,0E0,0E0,1.0736465E0,0E0,0E0,0E0,0E0,0E0,0E0,0E0,0E0,0E0,0E0,0E0],"parents":[2147483647,0,0,1,1,2,2,3,3,6,6,7,7,11,11,12,12,13,13,14,14,15,15,17,17,18,18,19,19,21,21,23,23,24,24,25,25,26,26,27,27,29,29,32,32,33,33,35,35,37,37,41,41],"right_children":[2,4,6,8,-1,-1,10,12,-1,-1,-1,14,16,18,20,22,-1,24,26,28,-1,30,-1,32,34,36,38,40,-1,42,-1,-1,44,46,-1,48,-1,50,-1,-1,-1,52,-1,-1,-1,-1,-1,-1,-1,-1,-1,-1,-1],"split_conditions":[1E0,1E0,1E0,1E0,-8.6995706E-2,-8.9138076E-2,1E0,1E0,-8.453573E-2,3.7768062E-2,-4.432586E-2,1E0,1E0,1E0,1E0,1E0,-4.979737E-2,1E0,1E0,1E0,3.1111967E-2,1E0,-0E0,1E0,1E0,1E0,1E0,1E0,-0E0,1E0,-0E0,5.410166E-2,1E0,1E0,-3.7861936E-2,1E0,-0E0,1E0,-5.077283E-2,-8.97087E-2,-0E0,1E0,-0E0,-8.1295334E-2,-0E0,6.629028E-2,-5.3335644E-2,-7.782181E-2,-0E0,1.1898731E-3,7.7457316E-2,8.826761E-2,-0E0],"split_indices":[802,361,1088,34,0,0,80,1911,0,0,0,1009,1132,378,881,1097,0,1873,1480,1791,0,413,0,1019,997,151,1154,1385,0,474,0,0,343,1233,0,1855,0,602,0,0,0,1675,0,0,0,0,0,0,0,0,0,0,0],"split_type":[0,0,0,0,0,0,0,0,0,0,0,0,0,0,0,0,0,0,0,0,0,0,0,0,0,0,0,0,0,0,0,0,0,0,0,0,0,0,0,0,0,0,0,0,0,0,0,0,0,0,0,0,0],"sum_hessian":[2.0563678E2,1.936365E2,1.2000283E1,1.8730356E2,6.3329396E0,6.1706114E0,5.8296723E0,1.8178659E2,5.516966E0,1.3291593E0,4.500513E0,1.27872246E2,5.3914345E1,1.1660242E2,1.1269827E1,5.268868E1,1.2256693E0,9.360048E1,2.300194E1,1.02464285E1,1.0233985E0,5.0999237E1,1.6894381E0,7.745766E0,8.585471E1,1.0548621E1,1.2453319E1,8.213781E0,2.032647E0,4.88039E1,2.1953375E0,1.8807089E0,5.8650575E0,8.256529E1,3.289421E0,7.5406594E0,3.007962E0,1.1212129E1,1.2411892E0,6.8119965E0,1.4017851E0,4.7793407E1,1.0104935E0,4.818829E0,1.0462282E0,8.1160126E1,1.4051644E0,6.532844E0,1.0078156E0,7.7248726E0,3.4872565E0,4.6748096E1,1.0453109E0],"tree_param":{"num_deleted":"0","num_feature":"2048","num_nodes":"53","size_leaf_vector":"1"}},{"base_weights":[2.8752607E-1,1.5549324E-1,1.1935693E0,-6.266715E-2,8.051005E-1,8.929552E-2,-0E0,-2.257968E-1,7.372941E-1,8.897954E-1,-5.8250073E-2,-3.9985913E-1,4.820646E-1,-1.2152342E-2,8.939721E-2,1.0314282E0,2.590097E-2,-5.032879E-1,4.533065E-1,-1.2005918E-1,8.806823E-2,-7.349523E-2,4.3692625E-1,1.1020792E0,-1.5980486E-2,-4.060946E-1,6.475054E-1,-5.9261155E-1,3.9594066E-1,8.579552E-1,-3.0732973E-2,7.9576865E-2,-7.9690404E-2,5.395178E-2,-0E0,1.1685398E0,-0E0,-0E0,-5.7910755E-2,5.961328E-2,-0E0,-6.9721574E-1,8.1068784E-2,5.2523844E-2,-1.6242366E-2,-0E0,7.0079006E-2,4.5370407E-2,-2.9267585E-1,1.2168977E0,-0E0,-7.5355536E-1,4.8997078E-2,-1.5712324E-1,6.046823E-1,-7.5825E-2,2.1891579E-2,9.0222284E-2,1.1025524E-1,-5.596505E-2,5.751513E-2,8.43398E-3,-5.2087348E-2,-0E0,5.5675663E-2,-2.9679008E-2,5.7500184E-2],"categories":[],"categories_nodes":[],"categories_segments":[],"categories_sizes":[],"default_left":[0,0,0,0,0,0,0,0,0,0,0,0,0,0,0,0,0,0,0,0,0,0,0,0,0,0,0,0,0,0,0,0,0,0,0,0,0,0,0,0,0,0,0,0,0,0,0,0,0,0,0,0,0,0,0,0,0,0,0,0,0,0,0,0,0,0,0],"id":9,"left_children":[1,3,5,7,9,-1,-1,11,13,15,-1,17,19,21,-1,23,25,27,29,31,-1,-1,33,35,-1,37,39,41,43,45,-1,47,-1,-1,-1,49,-1,-1,-1,-1,-1,51,53,-1,-1,-1,-1,-1,55,57,-1,59,-1,61,63,-1,-1,-1,65,-1,-1,-1,-1,-1,-1,-1,-1],"loss_changes":[2.346078E1,2.6670162E1,3.6086617E0,1.741741E1,7.0686035E0,0E0,0E0,1.4179823E1,1.0453724E1,4.565075E0,0E0,8.438733E0,1.1567819E1,5.260532E0,0E0,4.3973923E0,2.5366244E0,7.1324005E0,4.0476055E0,3.595995E0,0E0,0E0,1.5576341E0,2.9495926E0,0E0,1.5168767E0,3.648175E-1,6.136204E0,2.2155929E0,1.0700703E0,0E0,2.6133308E0,0E0,0E0,0E0,1.4990311E0,0E0,0E0,0E0,0E0,0E0,5.8264656E0,1.7101595E0,0E0,0E0,0E0,0E0,0E0,3.640283E0,1.7199974E0,0E0,6.1582527E0,0E0,1.6480539E0,5.7822967E-1,0E0,0E0,0E0,2.08828E0,0E0,0E0,0E0,0E0,0E0,0E0,0E0,0E0],"parents":[2147483647,0,0,1,1,2,2,3,3,4,4,7,7,8,8,9,9,11,11,12,12,13,13,15,15,16,16,17,17,18,18,19,19,22,22,23,23,25,25,26,26,27,27,28,28,29,29,31,31,35,35,41,41,42,42,48,48,49,49,51,51,53,53,54,54,58,58],"right_children":[2,4,6,8,10,-1,-1,12,14,16,-1,18,20,22,-1,24,26,28,30,32,-1,-1,34,36,-1,38,40,42,44,46,-1,48,-1,-1,-1,50,-1,-1,-1,-1,-1,52,54,-1,-1,-1,-1,-1,56,58,-1,60,-1,62,64,-1,-1,-1,66,-1,-1,-1,-1,-1,-1,-1,-1],"split_conditions":[1E0,1E0,1E0,1E0,1E0,8.929552E-2,-0E0,1E0,1E0,1E0,-5.8250073E-2,1E0,1E0,1E0,8.939721E-2,1E0,1E0,1E0,1E0,1E0,8.806823E-2,-7.349523E-2,1E0,1E0,-1.5980486E-2,1E0,1E0,1E0,1E0,1E0,-3.0732973E-2,1E0,-7.9690404E-2,5.395178E-2,-0E0,1E0,-0E0,-0E0,-5.7910755E-2,5.961328E-2,-0E0,1E0,1E0,5.2523844E-2,-1.6242366E-2,-0E0,7.0079006E-2,4.5370407E-2,1E0,1E0,-0E0,1E0,4.8997078E-2,1E0,1E0,-7.5825E-2,2.1891579E-2,9.0222284E-2,1E0,-5.596505E-2,5.751513E-2,8.43398E-3,-5.2087348E-2,-0E0,5.5675663E-2,-2.9679008E-2,5.7500184E-2],"split_indices":[440,1911,653,1599,1132,0,0,2017,1917,294,0,1771,695,1199,0,473,1325,772,117,1179,0,0,653,1665,0,1917,653,585,695,807,0,91,0,0,0,1928,0,0,0,0,0,527,1754,0,0,0,0,0,1771,1168,0,222,0,1057,191,0,0,0,1840,0,0,0,0,0,0,0,0],"split_type":[0,0,0,0,0,0,0,0,0,0,0,0,0,0,0,0,0,0,0,0,0,0,0,0,0,0,0,0,0,0,0,0,0,0,0,0,0,0,0,0,0,0,0,0,0,0,0,0,0,0,0,0,0,0,0,0,0,0,0,0,0,0,0,0,0,0,0],"sum_hessian":[2.071997E2,1.823799E2,2.481981E1,1.3583711E2,4.6542786E1,2.3374279E1,1.4455317E0,1.1417762E2,2.1659485E1,4.507878E1,1.4640019E0,9.2934074E1,2.124355E1,8.7138815E0,1.2945603E1,3.7680737E1,7.398044E0,8.410272E1,8.831354E0,1.1652803E1,9.590745E0,3.0036976E0,5.7101836E0,3.6470875E1,1.2098644E0,3.5828352E0,3.815209E0,7.765454E1,6.448181E0,6.836233E0,1.995121E0,9.45092E0,2.2018838E0,3.954338E0,1.7558453E0,3.453389E1,1.936982E0,1.025513E0,2.5573223E0,2.392598E0,1.422611E0,6.84244E1,9.230141E0,4.9786677E0,1.4695133E0,1.0402654E0,5.7959676E0,4.5398636E0,4.911056E0,3.280916E1,1.7247323E0,6.670618E1,1.7182195E0,5.382089E0,3.8480515E0,2.588168E0,2.322888E0,2.9563059E1,3.2461007E0,6.5366486E1,1.339689E0,2.8982208E0,2.4838681E0,1.034625E0,2.8134265E0,1.2381097E0,2.0079908E0],"tree_param":{"num_deleted":"0","num_feature":"2048","num_nodes":"67","size_leaf_vector":"1"}},{"base_weights":[3.3562997E-1,1.981384E-1,1.199583E0,1.7636317E-3,7.692798E-1,1.2898871E0,-0E0,-2.7614006E-1,4.0650678E-1,3.4934065E-1,1.1802328E0,9.19414E-2,-0E0,-4.8388073E-1,7.332169E-1,6.231275E-1,-3.0162922E-1,8.0643845E-1,-6.1514117E-2,8.692192E-2,-0E0,-5.8552444E-1,6.9554016E-2,9.4317716E-1,-2.85808E-2,7.323941E-1,-6.1688233E-2,-6.3968134E-1,4.6489548E-2,7.7958204E-2,-1.2881701E-2,-4.019553E-1,5.7103798E-2,-6.9162047E-1,5.5481143E-2,1.1366425E0,-0E0,8.227803E-1,-4.945917E-2,-9.322887E-1,3.4996543E-2,-7.804681E-1,4.5554504E-2,-7.590598E-1,4.9099825E-2,-0E0,8.6876616E-2,9.079475E-1,-2.3756558E-2,-9.62709E-2,1.3202546E-3,-6.931994E-2,-0E0,-8.2139E-1,4.757984E-2,9.778164E-1,-1.0415703E-2,-6.112155E-2,4.9581304E-2,2.5693476E-2,8.323486E-2],"categories":[],"categories_nodes":[],"categories_segments":[],"categories_sizes":[],"default_left":[0,0,0,0,0,0,0,0,0,0,0,0,0,0,0,0,0,0,0,0,0,0,0,0,0,0,0,0,0,0,0,0,0,0,0,0,0,0,0,0,0,0,0,0,0,0,0,0,0,0,0,0,0,0,0,0,0,0,0,0,0],"id":10,"left_children":[1,3,5,7,9,11,-1,13,15,17,19,-1,-1,21,23,25,27,29,31,-1,-1,33,-1,35,-1,37,-1,39,-1,-1,-1,41,-1,43,-1,45,-1,47,-1,49,-1,51,-1,53,-1,-1,-1,55,-1,-1,-1,-1,-1,57,-1,59,-1,-1,-1,-1,-1],"loss_changes":[2.2820707E1,1.9242699E1,3.6921616E0,1.5309089E1,5.9441185E0,5.995064E-1,0E0,1.646696E1,9.064175E0,5.233964E0,9.383602E-1,0E0,0E0,9.991302E0,3.8384523E0,7.581135E0,4.3630886E0,4.965068E0,3.4339309E0,0E0,0E0,9.510685E0,0E0,2.779214E0,0E0,5.9880924E0,0E0,4.1634583E0,0E0,0E0,0E0,4.394254E0,0E0,5.9982033E0,0E0,1.0503902E0,0E0,4.768774E0,0E0,5.2943454E0,0E0,1.5144229E0,0E0,5.6750374E0,0E0,0E0,0E0,3.7519646E0,0E0,0E0,0E0,0E0,0E0,5.7980347E0,0E0,3.3059883E0,0E0,0E0,0E0,0E0,0E0],"parents":[2147483647,0,0,1,1,2,2,3,3,4,4,5,5,7,7,8,8,9,9,10,10,13,13,14,14,15,15,16,16,17,17,18,18,21,21,23,23,25,25,27,27,31,31,33,33,35,35,37,37,39,39,41,41,43,43,47,47,53,53,55,55],"right_children":[2,4,6,8,10,12,-1,14,16,18,20,-1,-1,22,24,26,28,30,32,-1,-1,34,-1,36,-1,38,-1,40,-1,-1,-1,42,-1,44,-1,46,-1,48,-1,50,-1,52,-1,54,-1,-1,-1,56,-1,-1,-1,-1,-1,58,-1,60,-1,-1,-1,-1,-1],"split_conditions":[1E0,1E0,1E0,1E0,1E0,1E0,-0E0,1E0,1E0,1E0,1E0,9.19414E-2,-0E0,1E0,1E0,1E0,1E0,1E0,1E0,8.692192E-2,-0E0,1E0,6.9554016E-2,1E0,-2.85808E-2,1E0,-6.1688233E-2,1E0,4.6489548E-2,7.7958204E-2,-1.2881701E-2,1E0,5.7103798E-2,1E0,5.5481143E-2,1E0,-0E0,1E0,-4.945917E-2,1E0,3.4996543E-2,1E0,4.5554504E-2,1E0,4.9099825E-2,-0E0,8.6876616E-2,1E0,-2.3756558E-2,-9.62709E-2,1.3202546E-3,-6.931994E-2,-0E0,1E0,4.757984E-2,1E0,-1.0415703E-2,-6.112155E-2,4.9581304E-2,2.5693476E-2,8.323486E-2],"split_indices":[440,1911,74,389,984,341,0,310,1152,935,575,0,0,441,1009,34,1816,1951,1640,0,0,798,0,433,0,1946,0,1573,0,0,0,1473,0,341,0,650,0,1279,0,1771,0,1143,0,286,0,0,0,310,0,0,0,0,0,1372,0,1057,0,0,0,0,0],"split_type":[0,0,0,0,0,0,0,0,0,0,0,0,0,0,0,0,0,0,0,0,0,0,0,0,0,0,0,0,0,0,0,0,0,0,0,0,0,0,0,0,0,0,0,0,0,0,0,0,0,0,0,0,0,0,0,0,0,0,0,0,0],"sum_hessian":[2.039373E2,1.7752844E2,2.6408865E1,1.3379796E2,4.3730484E1,2.4978361E1,1.4305044E0,7.804581E1,5.5752148E1,2.332697E1,2.0403515E1,2.3908386E1,1.0699747E0,6.576776E1,1.2278045E1,4.3778797E1,1.197335E1,1.1866326E1,1.1460642E1,1.8585005E1,1.8185103E0,6.2503353E1,3.264407E0,1.11697235E1,1.1083211E0,4.1708206E1,2.0705905E0,9.765476E0,2.2078736E0,9.647854E0,2.2184734E0,9.293599E0,2.1670425E0,5.897889E1,3.5244622E0,9.654712E0,1.5150117E0,4.011955E1,1.5886599E0,8.529842E0,1.2356342E0,7.627079E0,1.6665202E0,5.718145E1,1.79744E0,1.1603384E0,8.494373E0,3.8274128E1,1.8454211E0,6.250919E0,2.2789235E0,5.9186387E0,1.7084403E0,5.569953E1,1.481919E0,3.6791805E1,1.4823214E0,5.4424206E1,1.2753254E0,1.1480569E1,2.5311235E1],"tree_param":{"num_deleted":"0","num_feature":"2048","num_nodes":"61","size_leaf_vector":"1"}},{"base_weights":[2.816116E-1,1.3459003E-1,1.1516874E0,3.0274484E-3,8.820822E-1,8.877929E-2,-2.0406771E-2,-1.3800615E-1,9.44057E-1,-0E0,8.7079875E-2,-2.2404088E-1,8.36529E-2,1.1653395E0,-0E0,-4.4637177E-2,5.079515E-1,-3.2604218E-1,9.549008E-1,-0E0,8.473825E-2,-4.933293E-2,3.9184902E-2,6.113826E-2,-0E0,-4.2439884E-1,7.4170434E-1,7.4791566E-2,-0E0,-4.9917668E-1,6.5711E-1,7.956854E-2,-0E0,-6.218294E-1,2.5933945E-1,6.895056E-2,-0E0,-2.9231096E-2,4.5753244E-2,-5.0627716E-2,3.32124E-2,3.1940673E-2,-4.5636013E-2],"categories":[],"categories_nodes":[],"categories_segments":[],"categories_sizes":[],"default_left":[0,0,0,0,0,0,0,0,0,0,0,0,0,0,0,0,0,0,0,0,0,0,0,0,0,0,0,0,0,0,0,0,0,0,0,0,0,0,0,0,0,0,0],"id":11,"left_children":[1,3,5,7,9,-1,-1,11,13,15,-1,17,-1,19,21,-1,23,25,27,-1,-1,-1,-1,-1,-1,29,31,-1,-1,33,35,-1,37,39,41,-1,-1,-1,-1,-1,-1,-1,-1],"loss_changes":[2.4759867E1,1.6464931E1,6.5035744E0,2.0935955E1,8.493147E0,0E0,0E0,1.4420938E1,5.0895786E0,2.8441062E0,0E0,1.4567196E1,0E0,8.55566E-1,1.935281E0,0E0,1.1219125E0,1.205233E1,1.1919127E0,0E0,0E0,0E0,0E0,0E0,0E0,8.721975E0,2.1636086E0,0E0,0E0,9.885492E0,1.2968273E0,0E0,1.4929494E0,1.1076874E1,2.48799E0,0E0,0E0,0E0,0E0,0E0,0E0,0E0,0E0],"parents":[2147483647,0,0,1,1,2,2,3,3,4,4,7,7,8,8,9,9,11,11,13,13,14,14,16,16,17,17,18,18,25,25,26,26,29,29,30,30,32,32,33,33,34,34],"right_children":[2,4,6,8,10,-1,-1,12,14,16,-1,18,-1,20,22,-1,24,26,28,-1,-1,-1,-1,-1,-1,30,32,-1,-1,34,36,-1,38,40,42,-1,-1,-1,-1,-1,-1,-1,-1],"split_conditions":[1E0,1E0,1E0,1E0,1E0,8.877929E-2,-2.0406771E-2,1E0,1E0,1E0,8.7079875E-2,1E0,8.36529E-2,1E0,1E0,-4.4637177E-2,1E0,1E0,1E0,-0E0,8.473825E-2,-4.933293E-2,3.9184902E-2,6.113826E-2,-0E0,1E0,1E0,7.4791566E-2,-0E0,1E0,1E0,7.956854E-2,1E0,1E0,1E0,6.895056E-2,-0E0,-2.9231096E-2,4.5753244E-2,-5.0627716E-2,3.32124E-2,3.1940673E-2,-4.5636013E-2],"split_indices":[715,1599,1921,461,1917,0,0,960,1634,389,0,1224,0,1917,74,0,884,1447,1114,0,0,0,0,0,0,1143,1199,0,0,890,294,0,800,1126,534,0,0,0,0,0,0,0,0],"split_type":[0,0,0,0,0,0,0,0,0,0,0,0,0,0,0,0,0,0,0,0,0,0,0,0,0,0,0,0,0,0,0,0,0,0,0,0,0,0,0,0,0,0,0],"sum_hessian":[2.0327254E2,1.7542137E2,2.7851177E1,1.5076562E2,2.465574E1,2.622759E1,1.6235869E0,1.3068063E2,2.0084997E1,7.4396195E0,1.7216122E1,1.2396359E2,6.7170353E0,1.6722408E1,3.3625882E0,3.308183E0,4.1314363E0,1.1523745E2,8.726144E0,1.0237489E0,1.5698659E1,1.9354254E0,1.4271628E0,2.4074788E0,1.7239579E0,1.0666726E2,8.570193E0,7.720442E0,1.0057018E0,1.008967E2,5.7705607E0,4.864593E0,3.7055998E0,8.802797E1,1.2868725E1,3.486021E0,2.2845397E0,1.908332E0,1.7972679E0,8.107954E1,6.9484344E0,1.1648176E1,1.2205487E0],"tree_param":{"num_deleted":"0","num_feature":"2048","num_nodes":"43","size_leaf_vector":"1"}},{"base_weights":[3.5649502E-1,4.7126317E-1,-6.3006395E-1,-0E0,6.7433625E-1,-9.978391E-1,2.1226296E-1,2.823477E-1,-5.515845E-1,7.6754236E-1,-2.1506691E-1,-1.2010721E0,-0E0,-0E0,5.3479318E-2,4.5292163E-1,-8.1667864E-1,-7.602633E-1,4.767304E-2,-1.6304547E-1,8.703337E-1,-5.1443356E-1,4.631725E-2,-9.2705645E-2,-0E0,-0E0,-3.19851E-2,6.514135E-1,-3.147211E-1,-7.248026E-2,-0E0,-1.041966E0,1.8325037E-1,-7.5340503E-1,5.4762535E-2,9.143722E-1,-3.8683146E-1,-7.6385146E-1,-0E0,7.995925E-1,-3.967263E-2,-6.792925E-1,6.425115E-3,-1.2258239E0,-0E0,-0E0,4.4285387E-2,-6.342652E-2,-0E0,9.50323E-1,-2.4601791E-2,-0E0,-6.180267E-2,-6.327091E-2,-0E0,9.249428E-1,-2.9278498E-2,-7.197412E-2,-0E0,-9.35793E-2,-0E0,9.971869E-1,-0E0,1.0389547E0,-0E0,1.0264559E0,-2.582316E-2,7.9982065E-2,-7.632508E-3,7.314824E-2,-3.3880738E-3],"categories":[],"categories_nodes":[],"categories_segments":[],"categories_sizes":[],"default_left":[0,0,0,0,0,0,0,0,0,0,0,0,0,0,0,0,0,0,0,0,0,0,0,0,0,0,0,0,0,0,0,0,0,0,0,0,0,0,0,0,0,0,0,0,0,0,0,0,0,0,0,0,0,0,0,0,0,0,0,0,0,0,0,0,0,0,0,0,0,0,0],"id":12,"left_children":[1,3,5,7,9,11,13,15,17,19,21,23,-1,25,-1,27,29,31,-1,33,35,37,-1,-1,-1,-1,-1,39,41,-1,-1,43,45,47,-1,49,51,53,-1,55,-1,57,-1,59,-1,-1,-1,-1,-1,61,-1,-1,-1,-1,-1,63,-1,-1,-1,-1,-1,65,-1,67,-1,69,-1,-1,-1,-1,-1],"loss_changes":[2.215711E1,1.6763393E1,6.9976664E0,8.449386E0,1.0819649E1,2.9866304E0,1.3760157E0,6.673153E0,5.110066E0,1.1511856E1,3.01296E0,1.6013412E0,0E0,3.6996916E-1,0E0,5.400423E0,6.0246634E-1,5.3411236E0,0E0,6.382394E0,6.376236E0,1.5083611E0,0E0,0E0,0E0,0E0,0E0,5.3938284E0,1.5035079E0,0E0,0E0,3.5125418E0,8.426262E-1,1.1755891E0,0E0,5.32032E0,1.1921742E0,8.7589264E-1,0E0,4.5524616E0,0E0,1.0586329E0,0E0,1.7753658E0,0E0,0E0,0E0,0E0,0E0,5.3007355E0,0E0,0E0,0E0,0E0,0E0,3.443781E0,0E0,0E0,0E0,0E0,0E0,4.6301727E0,0E0,3.978323E0,0E0,3.92247E0,0E0,0E0,0E0,0E0,0E0],"parents":[2147483647,0,0,1,1,2,2,3,3,4,4,5,5,6,6,7,7,8,8,9,9,10,10,11,11,13,13,15,15,16,16,17,17,19,19,20,20,21,21,27,27,28,28,31,31,32,32,33,33,35,35,36,36,37,37,39,39,41,41,43,43,49,49,55,55,61,61,63,63,65,65],"right_children":[2,4,6,8,10,12,14,16,18,20,22,24,-1,26,-1,28,30,32,-1,34,36,38,-1,-1,-1,-1,-1,40,42,-1,-1,44,46,48,-1,50,52,54,-1,56,-1,58,-1,60,-1,-1,-1,-1,-1,62,-1,-1,-1,-1,-1,64,-1,-1,-1,-1,-1,66,-1,68,-1,70,-1,-1,-1,-1,-1],"split_conditions":[1E0,1E0,1E0,1E0,1E0,1E0,1E0,1E0,1E0,1E0,1E0,1E0,-0E0,1E0,5.3479318E-2,1E0,1E0,1E0,4.767304E-2,1E0,1E0,1E0,4.631725E-2,-9.2705645E-2,-0E0,-0E0,-3.19851E-2,1E0,1E0,-7.248026E-2,-0E0,1E0,1E0,1E0,5.4762535E-2,1E0,1E0,1E0,-0E0,1E0,-3.967263E-2,1E0,6.425115E-3,1E0,-0E0,-0E0,4.4285387E-2,-6.342652E-2,-0E0,1E0,-2.4601791E-2,-0E0,-6.180267E-2,-6.327091E-2,-0E0,1E0,-2.9278498E-2,-7.197412E-2,-0E0,-9.35793E-2,-0E0,1E0,-0E0,1E0,-0E0,1E0,-2.582316E-2,7.9982065E-2,-7.632508E-3,7.314824E-2,-3.3880738E-3],"split_indices":[1236,1325,984,1019,1168,1665,1009,322,1126,1873,1517,55,0,650,0,1951,310,1070,0,585,1369,310,0,0,0,0,0,653,389,0,0,322,1088,1126,0,997,528,1722,0,1171,0,1060,0,310,0,0,0,0,0,474,0,0,0,0,0,1973,0,0,0,0,0,356,0,165,0,235,0,0,0,0,0],"split_type":[0,0,0,0,0,0,0,0,0,0,0,0,0,0,0,0,0,0,0,0,0,0,0,0,0,0,0,0,0,0,0,0,0,0,0,0,0,0,0,0,0,0,0,0,0,0,0,0,0,0,0,0,0,0,0,0,0,0,0,0,0,0,0,0,0,0,0,0,0,0,0],"sum_hessian":[1.9484729E2,1.7568977E2,1.9157505E1,5.3326534E1,1.2236324E2,1.4045733E1,5.1117716E0,3.5657642E1,1.766889E1,1.1180137E2,1.0561873E1,1.157846E1,2.4672735E0,2.9718738E0,2.1398976E0,3.1924215E1,3.7334273E0,1.5980631E1,1.6882588E0,1.0163231E1,1.0163814E2,8.882777E0,1.6790967E0,1.0107191E1,1.4712683E0,1.8376454E0,1.1342283E0,2.6424698E1,5.4995174E0,2.590907E0,1.1425202E0,1.3036205E1,2.9444256E0,6.9723177E0,3.1909137E0,9.908956E1,2.5485816E0,6.2852426E0,2.5975347E0,2.4452158E1,1.9725412E0,3.9256284E0,1.573889E0,1.1589526E1,1.4466792E0,1.1922029E0,1.7522227E0,5.931221E0,1.0410966E0,9.723816E1,1.8514034E0,1.0595479E0,1.4890337E0,5.2672396E0,1.0180031E0,2.3017864E1,1.4342928E0,2.3151994E0,1.610429E0,1.0413769E1,1.1757572E0,9.3588745E1,3.6494129E0,2.1308764E1,1.7091004E0,9.2460144E1,1.1285974E0,2.0115232E1,1.1935321E0,9.08822E1,1.5779439E0],"tree_param":{"num_deleted":"0","num_feature":"2048","num_nodes":"71","size_leaf_vector":"1"}},{"base_weights":[3.3021572E-1,4.1058844E-1,-9.027811E-1,2.989142E-1,1.0903642E0,-7.8365654E-2,-0E0,3.9850053E-1,-5.390644E-1,1.1709958E0,5.686164E-2,4.9838457E-1,-5.037628E-1,-7.3781186E-1,3.74063E-2,8.377799E-2,-0E0,-0E0,3.6830567E-2,5.6413215E-1,-4.872521E-1,-7.178676E-1,4.8573747E-2,-9.9271977E-1,2.5602167E-2,1.3671963E-1,7.297586E-1,-8.022891E-1,1.2236376E-3,-9.8061043E-1,4.117446E-2,-1.1510414E0,-0E0,-7.872549E-2,7.896623E-2,7.7861774E-1,-4.976872E-2,-0E0,-8.119409E-2,-7.4839145E-2,-0E0,-9.134653E-2,-0E0,-2.5017825E-1,5.7090733E-2,8.177337E-1,-5.4267842E-2,-2.952871E-2,5.676726E-2,5.9463155E-2,-5.2885488E-2],"categories":[],"categories_nodes":[],"categories_segments":[],"categories_sizes":[],"default_left":[0,0,0,0,0,0,0,0,0,0,0,0,0,0,0,0,0,0,0,0,0,0,0,0,0,0,0,0,0,0,0,0,0,0,0,0,0,0,0,0,0,0,0,0,0,0,0,0,0,0,0],"id":13,"left_children":[1,3,5,7,9,-1,-1,11,13,15,17,19,21,23,-1,-1,-1,-1,-1,25,27,29,-1,31,-1,33,35,37,-1,39,-1,41,-1,43,-1,45,-1,-1,-1,-1,-1,-1,-1,47,-1,49,-1,-1,-1,-1,-1],"loss_changes":[1.8888538E1,1.2326605E1,2.0843897E0,1.3239446E1,8.147087E-1,0E0,0E0,1.3052422E1,3.8800888E0,4.1434288E-1,5.547527E-1,8.675552E0,3.8327446E0,4.9340777E0,0E0,0E0,0E0,0E0,0E0,7.8377533E0,1.9587879E0,5.0407853E0,0E0,2.5537024E0,0E0,9.010469E0,6.554508E0,1.7588623E0,0E0,3.7333584E-1,0E0,2.6837683E0,0E0,4.227182E0,0E0,5.620781E0,0E0,0E0,0E0,0E0,0E0,0E0,0E0,4.8423657E0,0E0,5.8607903E0,0E0,0E0,0E0,0E0,0E0],"parents":[2147483647,0,0,1,1,2,2,3,3,4,4,7,7,8,8,9,9,10,10,11,11,12,12,13,13,19,19,20,20,21,21,23,23,25,25,26,26,27,27,29,29,31,31,33,33,35,35,43,43,45,45],"right_children":[2,4,6,8,10,-1,-1,12,14,16,18,20,22,24,-1,-1,-1,-1,-1,26,28,30,-1,32,-1,34,36,38,-1,40,-1,42,-1,44,-1,46,-1,-1,-1,-1,-1,-1,-1,48,-1,50,-1,-1,-1,-1,-1],"split_conditions":[1E0,1E0,1E0,1E0,1E0,-7.8365654E-2,-0E0,1E0,1E0,1E0,1E0,1E0,1E0,1E0,3.74063E-2,8.377799E-2,-0E0,-0E0,3.6830567E-2,1E0,1E0,1E0,4.8573747E-2,1E0,2.5602167E-2,1E0,1E0,1E0,1.2236376E-3,1E0,4.117446E-2,1E0,-0E0,1E0,7.896623E-2,1E0,-4.976872E-2,-0E0,-8.119409E-2,-7.4839145E-2,-0E0,-9.134653E-2,-0E0,1E0,5.7090733E-2,1E0,-5.4267842E-2,-2.952871E-2,5.676726E-2,5.9463155E-2,-5.2885488E-2],"split_indices":[802,1657,1060,1866,1168,0,0,1236,286,619,1864,1244,352,1832,0,0,0,0,0,650,1771,334,0,1504,0,890,1274,1152,0,1665,0,1365,0,1224,0,994,0,0,0,0,0,0,0,1143,0,1508,0,0,0,0,0],"split_type":[0,0,0,0,0,0,0,0,0,0,0,0,0,0,0,0,0,0,0,0,0,0,0,0,0,0,0,0,0,0,0,0,0,0,0,0,0,0,0,0,0,0,0,0,0,0,0,0,0,0,0],"sum_hessian":[1.9248488E2,1.8180843E2,1.0676455E1,1.58104E2,2.3704418E1,8.212813E0,2.4636412E0,1.4260956E2,1.5494438E1,2.1058826E1,2.6455915E0,1.2958963E2,1.3019931E1,1.399118E1,1.5032574E0,1.9996239E1,1.0625873E0,1.2470123E0,1.3985794E0,1.2263398E2,6.955658E0,1.1933831E1,1.086099E0,1.2123651E1,1.86753E0,3.6164333E1,8.646964E1,5.2277775E0,1.7278807E0,1.0674982E1,1.2588493E0,1.0791197E1,1.3324538E0,2.9443737E1,6.7205987E0,8.45534E1,1.9162395E0,1.8164535E0,3.4113238E0,9.012298E0,1.6626844E0,9.626269E0,1.1649274E0,2.5997316E1,3.4464202E0,8.336282E1,1.1905776E0,2.3399864E1,2.597451E0,8.2137115E1,1.2257079E0],"tree_param":{"num_deleted":"0","num_feature":"2048","num_nodes":"51","size_leaf_vector":"1"}},{"base_weights":[2.8161785E-1,1.5026404E-1,1.0972174E0,-7.839919E-3,8.197304E-1,8.006657E-2,-0E0,-1.7643301E-1,7.568434E-1,9.2958266E-1,-2.2873588E-2,-6.2895834E-2,-7.791653E-2,-0E0,7.981693E-2,1.0061344E0,-0E0,-0E0,-6.8205476E-2,-3.6635175E-2,3.494513E-1,1.0554502E0,-0E0,-2.4976397E-2,3.7827827E-2,-5.5947486E-2,6.0720637E-2,-0E0,5.4428406E-2,1.1425815E0,-0E0,-0E0,-7.8074075E-2,1.2217042E0,6.814962E-2,-1.0738084E-1,6.0616046E-1,8.744868E-2,-0E0,3.7087075E-2,-4.0987684E-4,-1.2251216E-2,6.479581E-2,5.814244E-2,-4.3613583E-2],"categories":[],"categories_nodes":[],"categories_segments":[],"categories_sizes":[],"default_left":[0,0,0,0,0,0,0,0,0,0,0,0,0,0,0,0,0,0,0,0,0,0,0,0,0,0,0,0,0,0,0,0,0,0,0,0,0,0,0,0,0,0,0,0,0],"id":14,"left_children":[1,3,5,7,9,-1,-1,11,13,15,-1,17,-1,19,-1,21,23,25,-1,-1,27,29,-1,-1,-1,31,-1,-1,-1,33,-1,35,-1,37,39,41,43,-1,-1,-1,-1,-1,-1,-1,-1],"loss_changes":[1.9771767E1,1.8879578E1,2.014143E0,1.7290985E1,5.029537E0,0E0,0E0,1.1141192E1,7.181074E0,1.8761463E0,0E0,6.7740717E0,0E0,1.7426215E0,0E0,1.7435722E0,8.593607E-1,5.4165387E0,0E0,0E0,1.1581955E0,2.6000214E0,0E0,0E0,0E0,5.528878E0,0E0,0E0,0E0,9.141884E-1,0E0,5.730448E0,0E0,3.7828064E-1,6.185364E-1,4.7464585E0,4.3379536E0,0E0,0E0,0E0,0E0,0E0,0E0,0E0,0E0],"parents":[2147483647,0,0,1,1,2,2,3,3,4,4,7,7,8,8,9,9,11,11,13,13,15,15,16,16,17,17,20,20,21,21,25,25,29,29,31,31,33,33,34,34,35,35,36,36],"right_children":[2,4,6,8,10,-1,-1,12,14,16,-1,18,-1,20,-1,22,24,26,-1,-1,28,30,-1,-1,-1,32,-1,-1,-1,34,-1,36,-1,38,40,42,44,-1,-1,-1,-1,-1,-1,-1,-1],"split_conditions":[1E0,1E0,1E0,1E0,1E0,8.006657E-2,-0E0,1E0,1E0,1E0,-2.2873588E-2,1E0,-7.791653E-2,1E0,7.981693E-2,1E0,1E0,1E0,-6.8205476E-2,-3.6635175E-2,1E0,1E0,-0E0,-2.4976397E-2,3.7827827E-2,1E0,6.0720637E-2,-0E0,5.4428406E-2,1E0,-0E0,1E0,-7.8074075E-2,1E0,1E0,1E0,1E0,8.744868E-2,-0E0,3.7087075E-2,-4.0987684E-4,-1.2251216E-2,6.479581E-2,5.814244E-2,-4.3613583E-2],"split_indices":[440,352,249,1599,1603,0,0,802,1917,1634,0,1238,0,389,0,1536,1517,1143,0,0,1366,274,0,0,0,865,0,0,0,1722,0,890,0,165,1452,909,1586,0,0,0,0,0,0,0,0],"split_type":[0,0,0,0,0,0,0,0,0,0,0,0,0,0,0,0,0,0,0,0,0,0,0,0,0,0,0,0,0,0,0,0,0,0,0,0,0,0,0,0,0,0,0,0,0],"sum_hessian":[1.959819E2,1.7041756E2,2.5564335E1,1.3718896E2,3.3228596E1,2.4495481E1,1.0688539E0,1.1380723E2,2.338174E1,3.1193064E1,2.0355315E0,1.03107666E2,1.0699563E1,8.220465E0,1.5161276E1,2.8392239E1,2.8008263E0,9.629576E1,6.8119044E0,3.1564093E0,5.064056E0,2.731123E1,1.0810077E0,1.3864287E0,1.4143975E0,9.021529E1,6.0804725E0,2.6678789E0,2.3961768E0,2.5207956E1,2.103274E0,8.623899E1,3.9762938E0,2.2575548E1,2.6324084E0,7.357252E1,1.2666476E1,2.1351507E1,1.2240399E0,1.6091998E0,1.0232086E0,7.0304184E1,3.2683322E0,1.1468548E1,1.1979287E0],"tree_param":{"num_deleted":"0","num_feature":"2048","num_nodes":"45","size_leaf_vector":"1"}},{"base_weights":[3.3202302E-1,4.0712747E-1,-7.168406E-1,4.5558447E-1,-6.7468725E-2,-8.211843E-1,-0E0,2.0850688E-1,7.315986E-1,-6.345496E-2,-0E0,2.8491907E-2,9.17647E-1,8.2768935E-1,-5.3491116E-1,-1.1362261E-1,6.6332394E-1,1.052776E0,-0E0,9.4187236E-1,-2.2599263E-1,-6.609696E-2,1.1342484E-2,-2.4386173E-1,6.3068844E-2,9.6550107E-1,-2.1533316E-2,7.9989076E-2,-0E0,-1.248203E-2,3.578041E-2,1.0058008E0,-0E0,-5.6840426E-1,3.4070794E-2,2.0083033E-1,-5.251887E-1,1.1635059E0,-0E0,1.0535063E0,-8.750731E-4,1.4378652E-2,-2.670543E-2,-7.438231E-2,1.2015804E-2,6.925897E-1,-3.1759113E-1,-6.825707E-1,5.767205E-1,8.625372E-2,-0E0,1.08796E0,-0E0,6.196425E-2,-1.0943098E-2,-5.7308566E-2,5.4590277E-2,-5.9424687E-2,2.2913631E-2,-0E0,5.577356E-2,7.705248E-2,-0E0],"categories":[],"categories_nodes":[],"categories_segments":[],"categories_sizes":[],"default_left":[0,0,0,0,0,0,0,0,0,0,0,0,0,0,0,0,0,0,0,0,0,0,0,0,0,0,0,0,0,0,0,0,0,0,0,0,0,0,0,0,0,0,0,0,0,0,0,0,0,0,0,0,0,0,0,0,0,0,0,0,0,0,0],"id":15,"left_children":[1,3,5,7,-1,9,-1,11,13,-1,-1,15,17,19,21,23,25,27,29,31,33,-1,-1,35,-1,37,-1,-1,-1,-1,-1,39,41,43,-1,45,47,49,-1,51,-1,-1,-1,-1,-1,53,55,57,59,-1,-1,61,-1,-1,-1,-1,-1,-1,-1,-1,-1,-1,-1],"loss_changes":[1.464246E1,1.1557041E1,1.21558E0,1.0688137E1,0E0,6.5639114E-1,0E0,1.095508E1,1.0136642E1,0E0,0E0,7.4144683E0,1.5191965E0,9.736336E0,2.3767316E0,7.669888E0,5.2769904E0,5.976219E-1,5.9822094E-1,3.902958E0,1.9425288E0,0E0,0E0,7.3366804E0,0E0,2.4645386E0,0E0,0E0,0E0,0E0,0E0,4.079361E0,4.2336947E-1,3.1681423E0,0E0,5.765091E0,6.5072937E0,3.6879253E-1,0E0,2.1547623E0,0E0,0E0,0E0,0E0,0E0,2.803628E0,5.804358E0,6.379653E0,4.1885626E-1,0E0,0E0,1.657692E0,0E0,0E0,0E0,0E0,0E0,0E0,0E0,0E0,0E0,0E0,0E0],"parents":[2147483647,0,0,1,1,2,2,3,3,5,5,7,7,8,8,11,11,12,12,13,13,14,14,15,15,16,16,17,17,18,18,19,19,20,20,23,23,25,25,31,31,32,32,33,33,35,35,36,36,37,37,39,39,45,45,46,46,47,47,48,48,51,51],"right_children":[2,4,6,8,-1,10,-1,12,14,-1,-1,16,18,20,22,24,26,28,30,32,34,-1,-1,36,-1,38,-1,-1,-1,-1,-1,40,42,44,-1,46,48,50,-1,52,-1,-1,-1,-1,-1,54,56,58,60,-1,-1,62,-1,-1,-1,-1,-1,-1,-1,-1,-1,-1,-1],"split_conditions":[1E0,1E0,1E0,1E0,-6.7468725E-2,1E0,-0E0,1E0,1E0,-6.345496E-2,-0E0,1E0,1E0,1E0,1E0,1E0,1E0,1E0,1E0,1E0,1E0,-6.609696E-2,1.1342484E-2,1E0,6.3068844E-2,1E0,-2.1533316E-2,7.9989076E-2,-0E0,-1.248203E-2,3.578041E-2,1E0,1E0,1E0,3.4070794E-2,1E0,1E0,1E0,-0E0,1E0,-8.750731E-4,1.4378652E-2,-2.670543E-2,-7.438231E-2,1.2015804E-2,1E0,1E0,1E0,1E0,8.625372E-2,-0E0,1E0,-0E0,6.196425E-2,-1.0943098E-2,-5.7308566E-2,5.4590277E-2,-5.9424687E-2,2.2913631E-2,-0E0,5.577356E-2,7.705248E-2,-0E0],"split_indices":[802,250,1162,695,0,1017,0,1982,34,0,0,890,1168,1866,1249,1854,1344,1581,1840,249,674,0,0,1019,0,1569,0,0,0,0,0,1274,1708,1911,0,807,1385,1914,0,1168,0,0,0,0,0,675,1765,772,1985,0,0,1985,0,0,0,0,0,0,0,0,0,0,0],"split_type":[0,0,0,0,0,0,0,0,0,0,0,0,0,0,0,0,0,0,0,0,0,0,0,0,0,0,0,0,0,0,0,0,0,0,0,0,0,0,0,0,0,0,0,0,0,0,0,0,0,0,0,0,0,0,0,0,0,0,0,0,0,0,0],"sum_hessian":[1.8679588E2,1.7550595E2,1.1289935E1,1.7061273E2,4.8932076E0,1.0262503E1,1.0274327E0,9.240558E1,7.820716E1,8.915286E0,1.3472161E0,7.526908E1,1.7136496E1,7.358554E1,4.621621E0,6.0677807E1,1.4591274E1,1.4245838E1,2.8906577E0,6.726507E1,6.320468E0,3.6043715E0,1.01725E0,5.5063446E1,5.6143603E0,1.1887746E1,2.7035284E0,1.2193411E1,2.0524278E0,1.5057988E0,1.3848588E0,6.2770107E1,4.494965E0,5.2632027E0,1.0572655E0,2.0090107E1,3.497334E1,9.819058E0,2.0686874E0,6.083592E1,1.9341894E0,3.410004E0,1.084961E0,3.7356012E0,1.5276016E0,1.1150285E1,8.939822E0,3.156004E1,3.413301E0,8.73891E0,1.0801487E0,5.8826714E1,2.0092056E0,9.893634E0,1.2566509E0,6.8134103E0,2.1264122E0,2.7790895E1,3.769144E0,1.3078058E0,2.105495E0,5.76153E1,1.2114122E0],"tree_param":{"num_deleted":"0","num_feature":"2048","num_nodes":"63","size_leaf_vector":"1"}},{"base_weights":[2.3470518E-1,1.19795404E-1,1.0470976E0,4.459153E-3,8.7793773E-1,-0E0,8.103585E-2,-1.7540947E-1,3.997484E-1,1.0876689E0,-5.6428198E-2,-2.6277468E-1,5.6101397E-2,5.182381E-1,-4.8083004E-2,8.198654E-2,-0E0,-3.694487E-2,3.4407151E-3,-1.067696E-1,-9.651959E-1,6.028429E-1,-2.2775603E-2,-0E0,-6.850818E-2,-1.0939665E0,-0E0,6.858419E-1,-3.2425545E-2,1.1323915E-1,-7.313134E-1,-1.2420098E0,-0E0,-1.2685837E-2,7.7213895E-1,2.3920389E-1,-6.4793277E-1,-1.0155E0,-0E0,-9.576417E-2,-0E0,8.468294E-1,-1.4869527E-2,9.396373E-2,9.286165E-3,-5.805159E-2,-0E0,-8.9104675E-2,-0E0,6.366419E-2,-1.1463595E-2],"categories":[],"categories_nodes":[],"categories_segments":[],"categories_sizes":[],"default_left":[0,0,0,0,0,0,0,0,0,0,0,0,0,0,0,0,0,0,0,0,0,0,0,0,0,0,0,0,0,0,0,0,0,0,0,0,0,0,0,0,0,0,0,0,0,0,0,0,0,0,0],"id":16,"left_children":[1,3,5,7,9,-1,-1,11,13,15,17,19,-1,21,-1,-1,-1,-1,-1,23,25,27,-1,29,-1,31,-1,33,-1,35,37,39,-1,-1,41,43,45,47,-1,-1,-1,49,-1,-1,-1,-1,-1,-1,-1,-1,-1],"loss_changes":[1.5622049E1,1.3100251E1,2.4041424E0,1.0217695E1,4.932006E0,0E0,0E0,7.787201E0,5.9657836E0,2.0968857E0,6.488838E-1,8.630499E0,0E0,3.4134998E0,0E0,0E0,0E0,0E0,0E0,6.4938374E0,2.4091892E0,3.9308577E0,0E0,5.949395E0,0E0,2.5812187E0,0E0,3.4909973E0,0E0,5.293112E0,2.5716653E0,2.5443115E0,0E0,0E0,3.3371925E0,4.5238914E0,8.066051E-1,2.7135978E0,0E0,0E0,0E0,3.2986813E0,0E0,0E0,0E0,0E0,0E0,0E0,0E0,0E0,0E0],"parents":[2147483647,0,0,1,1,2,2,3,3,4,4,7,7,8,8,9,9,10,10,11,11,13,13,19,19,20,20,21,21,23,23,25,25,27,27,29,29,30,30,31,31,34,34,35,35,36,36,37,37,41,41],"right_children":[2,4,6,8,10,-1,-1,12,14,16,18,20,-1,22,-1,-1,-1,-1,-1,24,26,28,-1,30,-1,32,-1,34,-1,36,38,40,-1,-1,42,44,46,48,-1,-1,-1,50,-1,-1,-1,-1,-1,-1,-1,-1,-1],"split_conditions":[1E0,1E0,1E0,1E0,1E0,-0E0,8.103585E-2,1E0,1E0,1E0,1E0,1E0,5.6101397E-2,1E0,-4.8083004E-2,8.198654E-2,-0E0,-3.694487E-2,3.4407151E-3,1E0,1E0,1E0,-2.2775603E-2,1E0,-6.850818E-2,1E0,-0E0,1E0,-3.2425545E-2,1E0,1E0,1E0,-0E0,-1.2685837E-2,1E0,1E0,1E0,1E0,-0E0,-9.576417E-2,-0E0,1E0,-1.4869527E-2,9.396373E-2,9.286165E-3,-5.805159E-2,-0E0,-8.9104675E-2,-0E0,6.366419E-2,-1.1463595E-2],"split_indices":[440,798,1057,1060,1708,0,0,365,1590,523,695,294,0,102,0,0,0,0,0,802,1534,1665,0,1039,0,879,0,1380,0,1309,1152,1866,0,0,1168,1380,1647,381,0,0,0,1898,0,0,0,0,0,0,0,0,0],"split_type":[0,0,0,0,0,0,0,0,0,0,0,0,0,0,0,0,0,0,0,0,0,0,0,0,0,0,0,0,0,0,0,0,0,0,0,0,0,0,0,0,0,0,0,0,0,0,0,0,0,0,0],"sum_hessian":[1.7947122E2,1.5886464E2,2.0606583E1,1.3950476E2,1.935988E1,2.45223E0,1.8154354E1,9.444986E1,4.5054897E1,1.6563656E1,2.7962248E0,8.805029E1,6.3995695E0,4.1723213E1,3.3316844E0,1.5398508E1,1.1651467E0,1.7037158E0,1.092509E0,7.372659E1,1.4323702E1,3.9115124E1,2.6080894E0,6.681965E1,6.9069424E0,1.3029835E1,1.2938672E0,3.7328613E1,1.78651E0,5.7695084E1,9.124563E0,1.1647127E1,1.382708E0,2.3131735E0,3.501544E1,5.093181E1,6.7632737E0,6.936221E0,2.1883426E0,1.0620791E1,1.026336E0,3.3529125E1,1.4863163E0,2.9869576E0,4.794485E1,4.951695E0,1.8115789E0,5.738972E0,1.1972488E0,3.2232845E1,1.2962804E0],"tree_param":{"num_deleted":"0","num_feature":"2048","num_nodes":"51","size_leaf_vector":"1"}},{"base_weights":[2.2074376E-1,2.9685426E-1,-8.986029E-1,-2.7117625E-2,4.9180168E-1,-7.9107754E-2,-0E0,8.6976424E-2,-8.373119E-2,5.696552E-1,-4.0227562E-1,1.93063E-1,-5.3888786E-1,4.3394238E-1,7.9510115E-2,-6.9108E-1,2.413723E-2,2.770576E-1,-5.4642458E-2,-5.8101073E-2,-0E0,1.6069928E-1,8.3007514E-1,-8.535578E-2,-0E0,3.7620783E-1,-5.049251E-1,-9.685288E-2,7.319561E-1,9.736949E-1,-3.3331864E-2,4.5771918E-1,-3.6691524E-2,-5.686376E-2,-0E0,-3.4957385E-1,7.646889E-1,8.863861E-1,-1.5769374E-2,7.493989E-2,-1.2781775E-2,5.287155E-1,-4.0345438E-2,-5.180517E-1,3.5155524E-2,6.7612626E-2,-0E0,6.695651E-2,-0E0,4.110656E-2,-3.662424E-2,1.0441528E-2,-4.668822E-2],"categories":[],"categories_nodes":[],"categories_segments":[],"categories_sizes":[],"default_left":[0,0,0,0,0,0,0,0,0,0,0,0,0,0,0,0,0,0,0,0,0,0,0,0,0,0,0,0,0,0,0,0,0,0,0,0,0,0,0,0,0,0,0,0,0,0,0,0,0,0,0,0,0],"id":17,"left_children":[1,3,5,7,9,-1,-1,11,-1,13,15,17,19,21,-1,23,-1,25,-1,-1,-1,27,29,-1,-1,31,33,35,37,39,-1,41,-1,-1,-1,43,45,47,-1,-1,-1,49,-1,51,-1,-1,-1,-1,-1,-1,-1,-1,-1],"loss_changes":[1.4956678E1,1.1198878E1,2.2330923E0,9.578928E0,7.822872E0,0E0,0E0,3.5154736E0,0E0,6.0889206E0,2.2128446E0,3.8044994E0,1.9121115E0,8.049829E0,0E0,3.4941826E0,0E0,3.6994176E0,0E0,0E0,0E0,8.267436E0,6.9007206E0,0E0,0E0,3.3161764E0,9.6752834E-1,7.4018707E0,3.3150978E0,4.7605515E0,0E0,3.2010155E0,0E0,0E0,0E0,4.2670717E0,9.403343E-1,1.419344E0,0E0,0E0,0E0,2.9851522E0,0E0,3.159676E0,0E0,0E0,0E0,0E0,0E0,0E0,0E0,0E0,0E0],"parents":[2147483647,0,0,1,1,2,2,3,3,4,4,7,7,9,9,10,10,11,11,12,12,13,13,15,15,17,17,21,21,22,22,25,25,26,26,27,27,28,28,29,29,31,31,35,35,36,36,37,37,41,41,43,43],"right_children":[2,4,6,8,10,-1,-1,12,-1,14,16,18,20,22,-1,24,-1,26,-1,-1,-1,28,30,-1,-1,32,34,36,38,40,-1,42,-1,-1,-1,44,46,48,-1,-1,-1,50,-1,52,-1,-1,-1,-1,-1,-1,-1,-1,-1],"split_conditions":[1E0,1E0,1E0,1E0,1E0,-7.9107754E-2,-0E0,1E0,-8.373119E-2,1E0,1E0,1E0,1E0,1E0,7.9510115E-2,1E0,2.413723E-2,1E0,-5.4642458E-2,-5.8101073E-2,-0E0,1E0,1E0,-8.535578E-2,-0E0,1E0,1E0,1E0,1E0,1E0,-3.3331864E-2,1E0,-3.6691524E-2,-5.686376E-2,-0E0,1E0,1E0,1E0,-1.5769374E-2,7.493989E-2,-1.2781775E-2,1E0,-4.0345438E-2,1E0,3.5155524E-2,6.7612626E-2,-0E0,6.695651E-2,-0E0,4.110656E-2,-3.662424E-2,1.0441528E-2,-4.668822E-2],"split_indices":[802,1325,1060,781,1655,0,0,1039,0,440,1517,74,744,114,0,784,0,692,0,0,0,1599,1162,0,0,34,1060,890,1309,1179,0,1762,0,0,0,1758,1917,1419,0,0,0,359,0,1750,0,0,0,0,0,0,0,0,0],"split_type":[0,0,0,0,0,0,0,0,0,0,0,0,0,0,0,0,0,0,0,0,0,0,0,0,0,0,0,0,0,0,0,0,0,0,0,0,0,0,0,0,0,0,0,0,0,0,0,0,0,0,0,0,0],"sum_hessian":[1.7980873E2,1.6957257E2,1.0236148E1,6.206218E1,1.075104E2,7.8244314E0,2.4117167E0,5.6368645E1,5.6935344E0,1.00080505E2,7.4298964E0,4.985725E1,6.511393E0,8.323725E1,1.6843254E1,6.3173275E0,1.1125686E0,4.722033E1,2.6369207E0,5.0548606E0,1.4565325E0,5.118437E1,3.2052883E1,3.8778818E0,2.439446E0,4.3266064E1,3.9542668E0,3.447289E1,1.6711477E1,2.9683533E1,2.36935E0,4.0932846E1,2.3332183E0,2.5591013E0,1.3951653E0,2.7786457E1,6.6864324E0,1.5290235E1,1.4212431E0,2.7943012E1,1.740521E0,3.9452316E1,1.48053E0,2.4349957E1,3.4365003E0,4.8609614E0,1.8254712E0,1.4287878E1,1.0023564E0,3.8280266E1,1.1720512E0,3.4482782E0,2.090168E1],"tree_param":{"num_deleted":"0","num_feature":"2048","num_nodes":"53","size_leaf_vector":"1"}},{"base_weights":[1.5165736E-1,4.870327E-2,9.648157E-1,-2.2304896E-2,7.521082E-2,7.501962E-2,-5.1272674E-3,3.7977945E-2,-1.0953845E0,-1.9464867E-2,8.997744E-1,-8.819104E-2,-0E0,-2.5893074E-1,2.5840384E-1,7.363247E-2,-0E0,-3.6888286E-1,5.1460613E-2,3.8556936E-1,-5.235063E-1,-4.711668E-1,5.56193E-1,-0E0,6.0887074E-1,-5.112475E-2,-0E0,-5.458065E-1,5.7244897E-2,6.908087E-2,-2.5391694E-2,-4.5967856E-1,4.4444886E-1,7.1999747E-1,-0E0,-4.3110017E-2,4.73607E-2,-4.7407538E-2,3.929988E-3,5.7550035E-2,-0E0,5.5751607E-2,-1.3949743E-2,-1.8819312E-2,1.8972097E-2],"categories":[],"categories_nodes":[],"categories_segments":[],"categories_sizes":[],"default_left":[0,0,0,0,0,0,0,0,0,0,0,0,0,0,0,0,0,0,0,0,0,0,0,0,0,0,0,0,0,0,0,0,0,0,0,0,0,0,0,0,0,0,0,0,0],"id":18,"left_children":[1,3,5,7,-1,-1,-1,9,11,13,15,-1,-1,17,19,-1,-1,21,-1,23,25,27,29,31,33,-1,-1,35,-1,-1,-1,37,39,41,43,-1,-1,-1,-1,-1,-1,-1,-1,-1,-1],"loss_changes":[1.3865699E1,1.2751269E1,3.3226662E0,1.0655883E1,0E0,0E0,0E0,7.8092732E0,1.8870678E0,8.780742E0,1.4697018E0,0E0,0E0,7.814489E0,5.882047E0,0E0,0E0,6.3937693E0,0E0,4.5834665E0,1.1419444E0,5.9468517E0,3.2595801E0,4.129911E0,2.6898136E0,0E0,0E0,5.7472496E0,0E0,0E0,0E0,1.7892528E0,2.324207E0,2.9385548E0,4.091196E-1,0E0,0E0,0E0,0E0,0E0,0E0,0E0,0E0,0E0,0E0],"parents":[2147483647,0,0,1,1,2,2,3,3,7,7,8,8,9,9,10,10,13,13,14,14,17,17,19,19,20,20,21,21,22,22,23,23,24,24,27,27,31,31,32,32,33,33,34,34],"right_children":[2,4,6,8,-1,-1,-1,10,12,14,16,-1,-1,18,20,-1,-1,22,-1,24,26,28,30,32,34,-1,-1,36,-1,-1,-1,38,40,42,44,-1,-1,-1,-1,-1,-1,-1,-1,-1,-1],"split_conditions":[1E0,1E0,1E0,1E0,7.521082E-2,7.501962E-2,-5.1272674E-3,1E0,1E0,1E0,1E0,-8.819104E-2,-0E0,1E0,1E0,7.363247E-2,-0E0,1E0,5.1460613E-2,1E0,1E0,1E0,1E0,1E0,1E0,-5.112475E-2,-0E0,1E0,5.7244897E-2,6.908087E-2,-2.5391694E-2,1E0,1E0,1E0,1E0,-4.3110017E-2,4.73607E-2,-4.7407538E-2,3.929988E-3,5.7550035E-2,-0E0,5.5751607E-2,-1.3949743E-2,-1.8819312E-2,1.8972097E-2],"split_indices":[440,712,249,781,0,0,0,1990,283,389,114,0,0,798,1244,0,0,1004,0,1325,1754,1280,1104,1917,191,0,0,1347,0,0,0,1060,736,1946,903,0,0,0,0,0,0,0,0,0,0],"split_type":[0,0,0,0,0,0,0,0,0,0,0,0,0,0,0,0,0,0,0,0,0,0,0,0,0,0,0,0,0,0,0,0,0,0,0,0,0,0,0,0,0,0,0,0,0],"sum_hessian":[1.76903E2,1.5862933E2,1.8273678E1,1.4815208E2,1.0477243E1,1.721192E1,1.0617567E0,1.3998032E2,8.171771E0,1.3074722E2,9.233093E0,7.0604577E0,1.1113132E0,7.2091515E1,5.865571E1,7.749441E0,1.4836524E0,6.6161095E1,5.930417E0,5.1761906E1,6.893805E0,6.076807E1,5.393026E0,1.9001785E1,3.2760117E1,5.268445E0,1.6253603E0,5.8486813E1,2.2812598E0,4.315816E0,1.0772101E0,9.467042E0,9.534743E0,2.8445206E1,4.314913E0,5.6074795E1,2.4120164E0,7.7484627E0,1.7185789E0,5.669182E0,3.865562E0,2.706884E1,1.3763655E0,3.269874E0,1.0450388E0],"tree_param":{"num_deleted":"0","num_feature":"2048","num_nodes":"45","size_leaf_vector":"1"}},{"base_weights":[1.6533598E-1,6.501556E-2,8.586056E-1,-3.878331E-2,7.054224E-1,9.950716E-1,-2.4803659E-2,-1.594985E-1,8.2977706E-1,6.4211085E-2,7.747959E-2,-0E0,7.469624E-2,-2.6061308E-1,4.4147876E-1,7.118241E-2,-0E0,-5.9976947E-2,8.6029816E-1,-3.325853E-1,4.6565288E-1,5.829406E-1,-4.211228E-3,-2.6885612E-2,3.479753E-2,7.163172E-2,-0E0,-4.068317E-1,5.233399E-1,-2.3053259E-2,8.2254684E-1,7.794453E-1,-1.0264748E-3,-4.505026E-1,7.49538E-2,5.247058E-2,-0E0,-3.822318E-2,-0E0,7.053371E-2,-0E0,9.028352E-1,-0E0,-5.374686E-1,2.5148726E-1,6.881439E-2,-0E0,-4.138212E-2,3.721273E-2,2.8322352E-2,-0E0],"categories":[],"categories_nodes":[],"categories_segments":[],"categories_sizes":[],"default_left":[0,0,0,0,0,0,0,0,0,0,0,0,0,0,0,0,0,0,0,0,0,0,0,0,0,0,0,0,0,0,0,0,0,0,0,0,0,0,0,0,0,0,0,0,0,0,0,0,0,0,0],"id":19,"left_children":[1,3,5,7,9,11,-1,13,15,17,-1,-1,-1,19,21,-1,23,-1,25,27,29,31,-1,-1,-1,-1,-1,33,35,37,39,41,-1,43,-1,-1,-1,-1,-1,-1,-1,45,-1,47,49,-1,-1,-1,-1,-1,-1],"loss_changes":[1.1618168E1,1.1239237E1,4.396037E0,1.373598E1,5.057266E0,1.2995453E0,0E0,7.2603083E0,2.4338217E0,8.406471E0,0E0,0E0,0E0,5.478825E0,1.6785123E0,0E0,8.7062645E-1,0E0,9.5303106E-1,6.2129145E0,2.267576E0,2.4120855E0,0E0,0E0,0E0,0E0,0E0,5.61238E0,9.146415E-1,5.404599E-1,8.2965183E-1,1.5771284E0,0E0,5.819746E0,0E0,0E0,0E0,0E0,0E0,0E0,0E0,5.7951736E-1,0E0,5.459238E0,7.2041863E-1,0E0,0E0,0E0,0E0,0E0,0E0],"parents":[2147483647,0,0,1,1,2,2,3,3,4,4,5,5,7,7,8,8,9,9,13,13,14,14,16,16,18,18,19,19,20,20,21,21,27,27,28,28,29,29,30,30,31,31,33,33,41,41,43,43,44,44],"right_children":[2,4,6,8,10,12,-1,14,16,18,-1,-1,-1,20,22,-1,24,-1,26,28,30,32,-1,-1,-1,-1,-1,34,36,38,40,42,-1,44,-1,-1,-1,-1,-1,-1,-1,46,-1,48,50,-1,-1,-1,-1,-1,-1],"split_conditions":[1E0,1E0,1E0,1E0,1E0,1E0,-2.4803659E-2,1E0,1E0,1E0,7.747959E-2,-0E0,7.469624E-2,1E0,1E0,7.118241E-2,1E0,-5.9976947E-2,1E0,1E0,1E0,1E0,-4.211228E-3,-2.6885612E-2,3.479753E-2,7.163172E-2,-0E0,1E0,1E0,1E0,1E0,1E0,-1.0264748E-3,1E0,7.49538E-2,5.247058E-2,-0E0,-3.822318E-2,-0E0,7.053371E-2,-0E0,1E0,-0E0,1E0,1E0,6.881439E-2,-0E0,-4.138212E-2,3.721273E-2,2.8322352E-2,-0E0],"split_indices":[440,1599,653,1657,1917,1057,0,675,1634,389,0,0,0,1224,162,0,1517,0,1911,1143,1199,1623,0,0,0,0,0,770,1917,1487,1480,419,0,1771,0,0,0,0,0,0,0,653,0,1832,674,0,0,0,0,0,0],"split_type":[0,0,0,0,0,0,0,0,0,0,0,0,0,0,0,0,0,0,0,0,0,0,0,0,0,0,0,0,0,0,0,0,0,0,0,0,0,0,0,0,0,0,0,0,0,0,0,0,0,0,0],"sum_hessian":[1.7959338E2,1.5866687E2,2.092651E1,1.3574194E2,2.2924925E1,1.961913E1,1.3073794E0,1.2057335E2,1.5168597E1,1.0155948E1,1.2768977E1,1.876226E0,1.7742905E1,1.0485829E2,1.5715063E1,1.1991492E1,3.177105E0,4.1077104E0,6.0482373E0,9.689514E1,7.963147E0,1.3667345E1,2.0477185E0,1.7033968E0,1.4737082E0,4.8944993E0,1.153738E0,9.047657E1,6.4185753E0,2.4709425E0,5.4922047E0,1.1348757E1,2.3185883E0,8.892795E1,1.5486177E0,4.345615E0,2.0729604E0,1.1793762E0,1.2915663E0,4.177239E0,1.3149655E0,1.0240287E1,1.1084697E0,8.045951E1,8.468441E0,8.944665E0,1.2956216E0,7.7311745E1,3.1477633E0,7.1425977E0,1.3258426E0],"tree_param":{"num_deleted":"0","num_feature":"2048","num_nodes":"51","size_leaf_vector":"1"}},{"base_weights":[2.407821E-1,1.5174286E-1,9.0771157E-1,6.768385E-2,8.348338E-1,-0E0,7.328902E-2,-0E0,6.383798E-2,6.790705E-2,-0E0,-9.472305E-2,6.281955E-1,2.3651457E-1,-2.670162E-1,7.5728655E-1,-1.7601643E-2,3.7002668E-1,-5.5336833E-1,-4.0161246E-1,4.7945437E-1,8.7423915E-1,-0E0,4.711148E-1,-5.068695E-2,-5.6709334E-2,-0E0,-4.672507E-1,5.8156595E-2,8.0115765E-1,-7.898238E-3,9.997791E-1,-0E0,5.819807E-1,-4.660356E-2,-5.4884964E-1,5.3623414E-1,6.79767E-2,-0E0,7.813204E-2,-0E0,4.5251258E-2,-2.0876324E-2,-4.3896228E-2,1.7668081E-2,5.82812E-2,-0E0],"categories":[],"categories_nodes":[],"categories_segments":[],"categories_sizes":[],"default_left":[0,0,0,0,0,0,0,0,0,0,0,0,0,0,0,0,0,0,0,0,0,0,0,0,0,0,0,0,0,0,0,0,0,0,0,0,0,0,0,0,0,0,0,0,0,0,0],"id":20,"left_children":[1,3,5,7,9,-1,-1,11,-1,-1,-1,13,15,17,19,21,-1,23,25,27,29,31,-1,33,-1,-1,-1,35,-1,37,-1,39,-1,41,-1,43,45,-1,-1,-1,-1,-1,-1,-1,-1,-1,-1],"loss_changes":[9.067233E0,7.886675E0,3.5592194E0,8.148419E0,2.0753498E0,0E0,0E0,7.5731916E0,0E0,0E0,0E0,6.475646E0,2.490438E0,3.834453E0,7.6821566E0,2.0784655E0,0E0,3.6243267E0,6.5352905E-1,5.2441587E0,2.773808E0,2.2917862E0,0E0,4.11888E0,0E0,0E0,0E0,5.4008055E0,0E0,1.4337239E0,0E0,8.406162E-1,0E0,2.315011E0,0E0,4.5460777E0,1.035018E0,0E0,0E0,0E0,0E0,0E0,0E0,0E0,0E0,0E0,0E0],"parents":[2147483647,0,0,1,1,2,2,3,3,4,4,7,7,11,11,12,12,13,13,14,14,15,15,17,17,18,18,19,19,20,20,21,21,23,23,27,27,29,29,31,31,33,33,35,35,36,36],"right_children":[2,4,6,8,10,-1,-1,12,-1,-1,-1,14,16,18,20,22,-1,24,26,28,30,32,-1,34,-1,-1,-1,36,-1,38,-1,40,-1,42,-1,44,46,-1,-1,-1,-1,-1,-1,-1,-1,-1,-1],"split_conditions":[1E0,1E0,1E0,1E0,1E0,-0E0,7.328902E-2,1E0,6.383798E-2,6.790705E-2,-0E0,1E0,1E0,1E0,1E0,1E0,-1.7601643E-2,1E0,1E0,1E0,1E0,1E0,-0E0,1E0,-5.068695E-2,-5.6709334E-2,-0E0,1E0,5.8156595E-2,1E0,-7.898238E-3,1E0,-0E0,1E0,-4.660356E-2,1E0,1E0,6.79767E-2,-0E0,7.813204E-2,-0E0,4.5251258E-2,-2.0876324E-2,-4.3896228E-2,1.7668081E-2,5.82812E-2,-0E0],"split_indices":[715,527,1480,1965,274,0,0,890,0,0,0,1019,1910,322,1385,1998,0,359,881,803,1168,865,0,486,0,0,0,1758,0,602,0,109,0,1463,0,847,896,0,0,0,0,0,0,0,0,0,0],"split_type":[0,0,0,0,0,0,0,0,0,0,0,0,0,0,0,0,0,0,0,0,0,0,0,0,0,0,0,0,0,0,0,0,0,0,0,0,0,0,0,0,0,0,0,0,0,0,0],"sum_hessian":[1.7049614E2,1.523278E2,1.8168335E1,1.3746861E2,1.4859194E1,1.767073E0,1.6401262E1,1.2772686E2,9.741753E0,1.2776148E1,2.0830467E0,1.1169117E2,1.603569E1,3.624704E1,7.544413E1,1.5005967E1,1.0297227E0,3.231235E1,3.934689E0,6.523663E1,1.0207495E1,1.3828839E1,1.177128E0,3.070469E1,1.6076586E0,2.447343E0,1.487346E0,6.3045567E1,2.1910706E0,7.5245457E0,2.6829486E0,1.2725125E1,1.1037141E0,2.9020855E1,1.6838366E0,5.943536E1,3.6102066E0,6.3064156E0,1.2181304E0,1.0534554E1,2.1905718E0,2.8002161E1,1.0186949E0,5.495792E1,4.4774375E0,2.5726793E0,1.0375272E0],"tree_param":{"num_deleted":"0","num_feature":"2048","num_nodes":"47","size_leaf_vector":"1"}},{"base_weights":[2.0070751E-1,2.6637134E-1,-7.2078127E-1,3.2221985E-1,-5.781334E-1,-8.7218666E-1,-0E0,3.7168974E-1,-7.485889E-1,-6.0639415E-2,2.4344232E-4,-7.27802E-2,-0E0,4.423579E-1,-1.8844293E-1,-6.3914485E-2,-0E0,4.7506574E-1,-6.321675E-2,-4.39384E-1,4.6067957E-2,5.0723296E-1,-5.9634075E-2,-6.882866E-1,5.6146413E-2,3.7264475E-1,8.836731E-1,-8.5948217E-1,2.9597615E-3,2.3678239E-1,9.6544224E-1,1.121012E0,-1.2039932E-1,-7.904461E-2,-0E0,2.0853681E-2,-5.829747E-2,-0E0,7.749406E-2,8.299842E-2,-0E0,-2.9168138E-2,7.427262E-3],"categories":[],"categories_nodes":[],"categories_segments":[],"categories_sizes":[],"default_left":[0,0,0,0,0,0,0,0,0,0,0,0,0,0,0,0,0,0,0,0,0,0,0,0,0,0,0,0,0,0,0,0,0,0,0,0,0,0,0,0,0,0,0],"id":21,"left_children":[1,3,5,7,9,11,-1,13,15,-1,-1,-1,-1,17,19,-1,-1,21,-1,23,-1,25,-1,27,-1,29,31,33,-1,35,37,39,41,-1,-1,-1,-1,-1,-1,-1,-1,-1,-1],"loss_changes":[1.0104473E1,7.5177546E0,1.7537332E0,7.94345E0,2.4256265E0,1.2102203E0,0E0,6.152527E0,6.6966605E-1,0E0,0E0,0E0,0E0,5.7440796E0,3.2791197E0,0E0,0E0,5.558674E0,0E0,4.3254957E0,0E0,5.1442413E0,0E0,2.2988167E0,0E0,6.6088333E0,8.588036E0,3.007762E0,0E0,5.3014E0,3.2260113E0,2.9392242E0,7.255094E-1,0E0,0E0,0E0,0E0,0E0,0E0,0E0,0E0,0E0,0E0],"parents":[2147483647,0,0,1,1,2,2,3,3,4,4,5,5,7,7,8,8,13,13,14,14,17,17,19,19,21,21,23,23,25,25,26,26,27,27,29,29,30,30,31,31,32,32],"right_children":[2,4,6,8,10,12,-1,14,16,-1,-1,-1,-1,18,20,-1,-1,22,-1,24,-1,26,-1,28,-1,30,32,34,-1,36,38,40,42,-1,-1,-1,-1,-1,-1,-1,-1,-1,-1],"split_conditions":[1E0,1E0,1E0,1E0,1E0,1E0,-0E0,1E0,1E0,-6.0639415E-2,2.4344232E-4,-7.27802E-2,-0E0,1E0,1E0,-6.3914485E-2,-0E0,1E0,-6.321675E-2,1E0,4.6067957E-2,1E0,-5.9634075E-2,1E0,5.6146413E-2,1E0,1E0,1E0,2.9597615E-3,1E0,1E0,1E0,1E0,-7.904461E-2,-0E0,2.0853681E-2,-5.829747E-2,-0E0,7.749406E-2,8.299842E-2,-0E0,-2.9168138E-2,7.427262E-3],"split_indices":[802,1344,2013,692,1771,1060,0,1738,1060,0,0,0,0,1132,1143,0,0,34,0,1142,0,114,0,652,0,1854,1928,1152,0,781,1057,1179,699,0,0,0,0,0,0,0,0,0,0],"split_type":[0,0,0,0,0,0,0,0,0,0,0,0,0,0,0,0,0,0,0,0,0,0,0,0,0,0,0,0,0,0,0,0,0,0,0,0,0,0,0,0,0,0,0],"sum_hessian":[1.7164182E2,1.6158974E2,1.0052074E1,1.529745E2,8.615236E0,8.979641E0,1.0724336E0,1.4744603E2,5.528468E0,6.586655E0,2.0285811E0,7.100569E0,1.8790727E0,1.3255165E2,1.4894382E1,4.222114E0,1.3063539E0,1.3049568E2,2.0559669E0,1.259876E1,2.2956228E0,1.2848857E2,2.0071127E0,1.1367982E1,1.2307775E0,9.739682E1,3.1091751E1,1.0182004E1,1.1859783E0,8.123037E1,1.616645E1,2.585885E1,5.232899E0,7.8296504E0,2.3523533E0,7.7909546E1,3.3208287E0,1.6957632E0,1.4470688E1,2.461872E1,1.2401314E0,3.839758E0,1.3931413E0],"tree_param":{"num_deleted":"0","num_feature":"2048","num_nodes":"43","size_leaf_vector":"1"}},{"base_weights":[2.0087571E-1,8.141002E-2,6.872289E-1,-1.09832585E-2,8.9590883E-1,8.1736106E-1,-1.19332345E-2,-1.1140378E-1,6.806501E-1,7.106927E-2,-0E0,9.2014927E-1,-0E0,-2.2863995E-1,4.2764214E-1,8.836227E-1,-3.2176957E-2,9.8559546E-1,-0E0,-1.3908523E-2,2.7503747E-2,-3.1137848E-1,5.0761387E-2,5.784464E-1,-3.3017673E-2,-0E0,7.275889E-2,1.0970566E0,-0E0,-4.5622772E-1,2.9159087E-1,7.7958786E-1,-0E0,-0E0,7.902229E-2,-5.307177E-1,6.286242E-2,-1.7372514E-1,6.0212754E-2,9.554197E-1,-0E0,-3.310259E-2,1.5303485E-2,-6.2628746E-1,3.2050925E-1,-5.310965E-1,3.609259E-2,7.235276E-2,-0E0,-5.3909633E-2,-0E0,-2.0009712E-3,5.780277E-2,-6.826199E-2,2.0818736E-2],"categories":[],"categories_nodes":[],"categories_segments":[],"categories_sizes":[],"default_left":[0,0,0,0,0,0,0,0,0,0,0,0,0,0,0,0,0,0,0,0,0,0,0,0,0,0,0,0,0,0,0,0,0,0,0,0,0,0,0,0,0,0,0,0,0,0,0,0,0,0,0,0,0,0,0],"id":22,"left_children":[1,3,5,7,9,11,-1,13,15,-1,-1,17,19,21,23,25,-1,27,-1,-1,-1,29,-1,31,-1,-1,-1,33,-1,35,37,39,41,-1,-1,43,-1,45,-1,47,-1,-1,-1,49,51,53,-1,-1,-1,-1,-1,-1,-1,-1,-1],"loss_changes":[8.301186E0,1.0448012E1,3.9567957E0,7.427205E0,1.3668108E0,1.5638809E0,0E0,6.2739754E0,3.7485576E0,0E0,0E0,1.5057354E0,5.305629E-1,6.5032463E0,2.562223E0,2.4919205E0,0E0,1.6114941E0,0E0,0E0,0E0,7.196458E0,0E0,1.9737248E0,0E0,0E0,0E0,3.9097786E-1,0E0,6.609646E0,4.657052E0,2.1527767E0,5.7673717E-1,0E0,0E0,5.5695763E0,0E0,2.0706728E0,0E0,4.3554974E-1,0E0,0E0,0E0,5.8481655E0,1.8217392E0,3.188784E0,0E0,0E0,0E0,0E0,0E0,0E0,0E0,0E0,0E0],"parents":[2147483647,0,0,1,1,2,2,3,3,4,4,5,5,7,7,8,8,11,11,12,12,13,13,14,14,15,15,17,17,21,21,23,23,27,27,29,29,30,30,31,31,32,32,35,35,37,37,39,39,43,43,44,44,45,45],"right_children":[2,4,6,8,10,12,-1,14,16,-1,-1,18,20,22,24,26,-1,28,-1,-1,-1,30,-1,32,-1,-1,-1,34,-1,36,38,40,42,-1,-1,44,-1,46,-1,48,-1,-1,-1,50,52,54,-1,-1,-1,-1,-1,-1,-1,-1,-1],"split_conditions":[1E0,1E0,1E0,1E0,1E0,1E0,-1.19332345E-2,1E0,1E0,7.106927E-2,-0E0,1E0,1E0,1E0,1E0,1E0,-3.2176957E-2,1E0,-0E0,-1.3908523E-2,2.7503747E-2,1E0,5.0761387E-2,1E0,-3.3017673E-2,-0E0,7.275889E-2,1E0,-0E0,1E0,1E0,1E0,1E0,-0E0,7.902229E-2,1E0,6.286242E-2,1E0,6.0212754E-2,1E0,-0E0,-3.310259E-2,1.5303485E-2,1E0,1E0,1E0,3.609259E-2,7.235276E-2,-0E0,-5.3909633E-2,-0E0,-2.0009712E-3,5.780277E-2,-6.826199E-2,2.0818736E-2],"split_indices":[352,847,652,2,486,1168,0,881,1344,0,0,274,1691,1143,1114,1325,0,1812,0,0,0,1599,0,1292,0,0,0,1088,0,1542,1917,1410,1917,0,0,784,0,390,0,1196,0,0,0,1417,1504,1292,0,0,0,0,0,0,0,0,0],"split_type":[0,0,0,0,0,0,0,0,0,0,0,0,0,0,0,0,0,0,0,0,0,0,0,0,0,0,0,0,0,0,0,0,0,0,0,0,0,0,0,0,0,0,0,0,0,0,0,0,0,0,0,0,0,0,0],"sum_hessian":[1.5546257E2,1.2694368E2,2.8518896E1,1.13492615E2,1.3451061E1,2.575775E1,2.7611473E0,1.0074812E2,1.2744495E1,1.1417794E1,2.0332668E0,2.2044613E1,3.713136E0,8.448827E1,1.6259844E1,1.1649586E1,1.0949097E0,2.068697E1,1.3576422E0,1.4804488E0,2.2326872E0,7.908047E1,5.407812E0,1.5025191E1,1.2346525E0,1.3173984E0,1.0332188E1,1.7919807E1,2.7671623E0,6.515602E1,1.3924448E1,1.124918E1,3.7760122E0,1.0844271E0,1.683538E1,6.279247E1,2.3635492E0,7.0296E0,6.894848E0,9.646907E0,1.6022727E0,1.2580522E0,2.51796E0,5.7604218E1,5.18825E0,5.6415324E0,1.3880676E0,8.376567E0,1.2703397E0,4.6769295E1,1.0834925E1,2.3215368E0,2.8667135E0,4.3185425E0,1.3229898E0],"tree_param":{"num_deleted":"0","num_feature":"2048","num_nodes":"55","size_leaf_vector":"1"}},{"base_weights":[1.9107239E-1,1.08435735E-1,9.053619E-1,2.7240008E-2,9.0102935E-1,-0E0,6.82726E-2,-9.447845E-2,6.524729E-1,7.035896E-2,-0E0,-1.798473E-2,-8.453149E-1,-0E0,7.128494E-2,2.2083208E-2,-7.3708616E-2,-7.218204E-2,-0E0,-4.527856E-1,3.265805E-1,3.1365538E-1,-9.8581076E-2,-0E0,-5.277273E-2,5.514151E-1,-0E0,8.626835E-2,-0E0,-1.895462E-1,9.9101484E-1,5.729673E-2,-0E0,-1.0369902E-1,7.04822E-1,-2.8717577E-1,5.6744337E-2,8.283982E-2,-0E0,7.816143E-3,-6.213525E-2,-0E0,6.4251825E-2,-2.6409483E-2,5.9270956E-2],"categories":[],"categories_nodes":[],"categories_segments":[],"categories_sizes":[],"default_left":[0,0,0,0,0,0,0,0,0,0,0,0,0,0,0,0,0,0,0,0,0,0,0,0,0,0,0,0,0,0,0,0,0,0,0,0,0,0,0,0,0,0,0,0,0],"id":23,"left_children":[1,3,5,7,9,-1,-1,11,13,-1,-1,15,17,19,-1,21,-1,-1,-1,23,25,27,29,-1,-1,31,-1,-1,33,35,37,-1,-1,39,41,43,-1,-1,-1,-1,-1,-1,-1,-1,-1],"loss_changes":[8.65649E0,8.682798E0,1.3067713E0,1.0978239E1,1.3235435E0,0E0,0E0,5.7002E0,5.467779E0,0E0,0E0,5.4070277E0,1.7978773E0,1.4625955E0,0E0,3.7710192E0,0E0,0E0,0E0,7.6336974E-1,7.6687264E-1,8.171254E0,6.233357E0,0E0,0E0,1.0345228E0,0E0,0E0,2.4554133E0,6.075946E0,4.0623808E-1,0E0,0E0,4.4820566E0,6.87902E-1,6.2903543E0,0E0,0E0,0E0,0E0,0E0,0E0,0E0,0E0,0E0],"parents":[2147483647,0,0,1,1,2,2,3,3,4,4,7,7,8,8,11,11,12,12,13,13,15,15,19,19,20,20,21,21,22,22,25,25,28,28,29,29,30,30,33,33,34,34,35,35],"right_children":[2,4,6,8,10,-1,-1,12,14,-1,-1,16,18,20,-1,22,-1,-1,-1,24,26,28,30,-1,-1,32,-1,-1,34,36,38,-1,-1,40,42,44,-1,-1,-1,-1,-1,-1,-1,-1,-1],"split_conditions":[1E0,1E0,1E0,1E0,1E0,-0E0,6.82726E-2,1E0,1E0,7.035896E-2,-0E0,1E0,1E0,1E0,7.128494E-2,1E0,-7.3708616E-2,-7.218204E-2,-0E0,1E0,1E0,1E0,1E0,-0E0,-5.277273E-2,1E0,-0E0,8.626835E-2,1E0,1E0,1E0,5.729673E-2,-0E0,1E0,1E0,1E0,5.6744337E-2,8.283982E-2,-0E0,7.816143E-3,-6.213525E-2,-0E0,6.4251825E-2,-2.6409483E-2,5.9270956E-2],"split_indices":[440,1657,1854,1599,1623,0,0,322,1917,0,0,34,283,389,0,1019,0,0,0,1325,1911,1750,352,0,0,884,0,0,1162,343,1840,0,0,1480,561,960,0,0,0,0,0,0,0,0,0],"split_type":[0,0,0,0,0,0,0,0,0,0,0,0,0,0,0,0,0,0,0,0,0,0,0,0,0,0,0,0,0,0,0,0,0,0,0,0,0,0,0,0,0,0,0,0,0],"sum_hessian":[1.6342967E2,1.4830067E2,1.5128988E1,1.3617587E2,1.2124808E1,1.1052115E0,1.4023777E1,1.1313664E2,2.3039228E1,1.0701011E1,1.4237971E0,1.0438791E2,8.74873E0,8.967775E0,1.4071453E1,1.00225555E2,4.1623535E0,7.2107434E0,1.5379864E0,3.2388713E0,5.7289042E0,3.1367868E1,6.885769E1,1.16758E0,2.0712914E0,4.140945E0,1.5879595E0,6.6977024E0,2.4670166E1,6.481849E1,4.0391984E0,3.0196507E0,1.1212941E0,2.0792362E1,3.8778026E0,6.0352066E1,4.4664254E0,2.8708358E0,1.1683625E0,1.5794562E1,4.9978E0,1.0919852E0,2.7858174E0,5.690649E1,3.4455762E0],"tree_param":{"num_deleted":"0","num_feature":"2048","num_nodes":"45","size_leaf_vector":"1"}},{"base_weights":[2.6058608E-1,1.0943056E-1,7.117826E-1,1.86746E-1,-5.6593776E-1,7.813014E-1,-3.5097625E-2,-3.1990642E-4,4.0732706E-1,-7.0685166E-1,-0E0,8.2958645E-1,-0E0,-7.41235E-2,7.0620835E-2,5.0370616E-1,-5.410295E-2,-8.535525E-1,-0E0,9.111327E-1,-0E0,-1.7096128E-1,4.530478E-2,5.889486E-1,-4.548733E-2,-7.1250536E-2,-0E0,9.605796E-1,-0E0,-2.873947E-2,3.2120455E-2,-2.3566173E-1,5.213292E-2,6.7795265E-1,-4.0631726E-2,1.0242577E0,-0E0,-3.727441E-1,1.8760957E-1,7.243876E-1,-1.2455877E-2,7.6866664E-2,3.4160353E-3,-6.144007E-5,3.119511E-2,2.0575875E-1,-5.9044546E-1,4.3247718E-1,-3.519238E-2,7.7200145E-1,-7.297832E-3,2.937439E-2,-2.7994374E-2,-4.7463603E-2,3.57844E-2,5.1368717E-2,-1.9150097E-2,5.660093E-2,-1.5465165E-3],"categories":[],"categories_nodes":[],"categories_segments":[],"categories_sizes":[],"default_left":[0,0,0,0,0,0,0,0,0,0,0,0,0,0,0,0,0,0,0,0,0,0,0,0,0,0,0,0,0,0,0,0,0,0,0,0,0,0,0,0,0,0,0,0,0,0,0,0,0,0,0,0,0,0,0,0,0,0,0],"id":24,"left_children":[1,3,5,7,9,11,-1,13,15,17,-1,19,-1,21,-1,23,-1,25,-1,27,29,31,-1,33,-1,-1,-1,35,-1,-1,-1,37,-1,39,-1,41,43,45,47,49,-1,-1,-1,-1,-1,51,53,55,-1,57,-1,-1,-1,-1,-1,-1,-1,-1,-1],"loss_changes":[1.0221674E1,6.1598945E0,3.8009434E0,5.0381002E0,1.5572255E0,2.2017384E0,0E0,3.6020548E0,6.1623163E0,1.4304466E0,0E0,2.335415E0,0E0,3.6022716E0,0E0,5.222534E0,0E0,1.3944883E0,0E0,1.9001694E0,9.075363E-1,2.6999793E0,0E0,5.4201508E0,0E0,0E0,0E0,1.0165825E0,0E0,0E0,0E0,3.102036E0,0E0,2.4415283E0,0E0,1.2804222E0,4.1472146E-1,5.4070807E0,1.9091651E0,2.4660034E0,0E0,0E0,0E0,0E0,0E0,1.4570322E0,3.5159721E0,2.6182032E0,0E0,2.3315468E0,0E0,0E0,0E0,0E0,0E0,0E0,0E0,0E0,0E0],"parents":[2147483647,0,0,1,1,2,2,3,3,4,4,5,5,7,7,8,8,9,9,11,11,13,13,15,15,17,17,19,19,20,20,21,21,23,23,27,27,31,31,33,33,35,35,36,36,37,37,38,38,39,39,45,45,46,46,47,47,49,49],"right_children":[2,4,6,8,10,12,-1,14,16,18,-1,20,-1,22,-1,24,-1,26,-1,28,30,32,-1,34,-1,-1,-1,36,-1,-1,-1,38,-1,40,-1,42,44,46,48,50,-1,-1,-1,-1,-1,52,54,56,-1,58,-1,-1,-1,-1,-1,-1,-1,-1,-1],"split_conditions":[1E0,1E0,1E0,1E0,1E0,1E0,-3.5097625E-2,1E0,1E0,1E0,-0E0,1E0,-0E0,1E0,7.0620835E-2,1E0,-5.410295E-2,1E0,-0E0,1E0,1E0,1E0,4.530478E-2,1E0,-4.548733E-2,-7.1250536E-2,-0E0,1E0,-0E0,-2.873947E-2,3.2120455E-2,1E0,5.213292E-2,1E0,-4.0631726E-2,1E0,1E0,1E0,1E0,1E0,-1.2455877E-2,7.6866664E-2,3.4160353E-3,-6.144007E-5,3.119511E-2,1E0,1E0,1E0,-3.519238E-2,1E0,-7.297832E-3,2.937439E-2,-2.7994374E-2,-4.7463603E-2,3.57844E-2,5.1368717E-2,-1.9150097E-2,5.660093E-2,-1.5465165E-3],"split_indices":[1911,1866,1132,695,674,1184,0,816,250,294,0,316,0,847,0,850,0,1385,0,1675,800,90,0,865,0,0,0,804,0,0,0,890,0,467,0,1028,712,1019,734,1954,0,0,0,0,0,556,455,484,0,1298,0,0,0,0,0,0,0,0,0],"split_type":[0,0,0,0,0,0,0,0,0,0,0,0,0,0,0,0,0,0,0,0,0,0,0,0,0,0,0,0,0,0,0,0,0,0,0,0,0,0,0,0,0,0,0,0,0,0,0,0,0,0,0,0,0,0,0,0,0,0,0],"sum_hessian":[1.6144249E2,1.2307279E2,3.8369694E1,1.12088234E2,1.0984556E1,3.724308E1,1.1266117E0,5.8638042E1,5.345019E1,9.9421425E0,1.0424135E0,3.6165062E1,1.0780175E0,5.607242E1,2.565626E0,5.050285E1,2.947342E0,8.592622E0,1.3495203E0,3.2691517E1,3.4735482E0,5.105181E1,5.0206065E0,4.808792E1,2.4149313E0,7.0511017E0,1.5415207E0,3.1411446E1,1.2800698E0,1.6769547E0,1.7965934E0,4.909277E1,1.9590406E0,4.5693733E1,2.394188E0,2.8523657E1,2.8877883E0,3.883876E1,1.0254008E1,4.4490337E1,1.2033945E0,2.5256628E1,3.2670288E0,1.4437625E0,1.4440258E0,9.430949E0,2.9407812E1,8.766265E0,1.4877428E0,4.320217E1,1.2881646E0,8.232243E0,1.198706E0,2.8097382E1,1.3104304E0,7.0230503E0,1.7432145E0,4.200975E1,1.192422E0],"tree_param":{"num_deleted":"0","num_feature":"2048","num_nodes":"59","size_leaf_vector":"1"}},{"base_weights":[1.1941089E-1,2.9885646E-2,9.166623E-1,-6.67433E-2,7.852085E-1,6.747236E-2,-0E0,-1.4016227E-1,6.968692E-1,9.050082E-1,-0E0,-2.2458833E-1,5.3544027E-1,8.523133E-1,-0E0,-0E0,7.085294E-2,1.15126014E-1,-4.055613E-1,6.800038E-1,-0E0,6.590879E-2,-0E0,3.3478966E-1,-4.9592328E-1,-5.517247E-1,-0E0,5.4265656E-2,-0E0,8.1718355E-1,-0E0,-6.702944E-1,-0E0,-6.4600843E-1,3.591975E-2,-1.7280537E-1,6.493986E-1,6.442721E-2,-0E0,9.928544E-2,-4.169724E-2,-6.0292464E-2,-0E0,-7.2044665E-1,3.680573E-2,-3.7032858E-1,4.422944E-2,6.062429E-2,-0E0,1.9398503E-2,-3.7129752E-2,-5.6292832E-2,2.046634E-3,-3.882326E-2,1.7177891E-2],"categories":[],"categories_nodes":[],"categories_segments":[],"categories_sizes":[],"default_left":[0,0,0,0,0,0,0,0,0,0,0,0,0,0,0,0,0,0,0,0,0,0,0,0,0,0,0,0,0,0,0,0,0,0,0,0,0,0,0,0,0,0,0,0,0,0,0,0,0,0,0,0,0,0,0],"id":25,"left_children":[1,3,5,7,9,-1,-1,11,13,15,-1,17,19,21,-1,-1,-1,23,25,27,-1,-1,-1,29,31,33,35,-1,-1,37,39,41,-1,43,-1,45,47,-1,-1,49,-1,-1,-1,51,-1,53,-1,-1,-1,-1,-1,-1,-1,-1,-1],"loss_changes":[9.8787155E0,1.076732E1,5.0435543E-1,6.3410673E0,1.7606268E0,0E0,0E0,6.193096E0,9.4897413E-1,1.7312498E0,0E0,6.5565996E0,1.0963075E0,4.5391607E-1,0E0,0E0,0E0,4.5072803E0,4.168315E0,7.4137545E-1,0E0,0E0,0E0,4.7798424E0,1.0717833E0,5.4289513E0,2.2248106E0,0E0,0E0,1.4111576E0,1.2693132E0,1.2475994E0,0E0,4.5813065E0,0E0,2.2374663E0,6.5697443E-1,0E0,0E0,1.3322881E0,0E0,0E0,0E0,3.920601E0,0E0,1.9232858E0,0E0,0E0,0E0,0E0,0E0,0E0,0E0,0E0,0E0],"parents":[2147483647,0,0,1,1,2,2,3,3,4,4,7,7,8,8,9,9,11,11,12,12,13,13,17,17,18,18,19,19,23,23,24,24,25,25,26,26,29,29,30,30,31,31,33,33,35,35,36,36,39,39,43,43,45,45],"right_children":[2,4,6,8,10,-1,-1,12,14,16,-1,18,20,22,-1,-1,-1,24,26,28,-1,-1,-1,30,32,34,36,-1,-1,38,40,42,-1,44,-1,46,48,-1,-1,50,-1,-1,-1,52,-1,54,-1,-1,-1,-1,-1,-1,-1,-1,-1],"split_conditions":[1E0,1E0,1E0,1E0,1E0,6.747236E-2,-0E0,1E0,1E0,1E0,-0E0,1E0,1E0,1E0,-0E0,-0E0,7.085294E-2,1E0,1E0,1E0,-0E0,6.590879E-2,-0E0,1E0,1E0,1E0,1E0,5.4265656E-2,-0E0,1E0,1E0,1E0,-0E0,1E0,3.591975E-2,1E0,1E0,6.442721E-2,-0E0,1E0,-4.169724E-2,-6.0292464E-2,-0E0,1E0,3.680573E-2,1E0,4.422944E-2,6.062429E-2,-0E0,1.9398503E-2,-3.7129752E-2,-5.6292832E-2,2.046634E-3,-3.882326E-2,1.7177891E-2],"split_indices":[440,798,801,1657,804,0,0,2,1168,1873,0,1019,1998,1517,0,0,0,875,1754,1634,0,0,0,1199,1823,1126,585,0,0,718,693,745,0,960,0,216,122,0,0,1308,0,0,0,1224,0,675,0,0,0,0,0,0,0,0,0],"split_type":[0,0,0,0,0,0,0,0,0,0,0,0,0,0,0,0,0,0,0,0,0,0,0,0,0,0,0,0,0,0,0,0,0,0,0,0,0,0,0,0,0,0,0,0,0,0,0,0,0,0,0,0,0,0,0],"sum_hessian":[1.506815E2,1.3710588E2,1.3575626E1,1.2092246E2,1.6183407E1,1.2491823E1,1.0838023E0,1.1190329E2,9.019175E0,1.4183302E1,2.0001059E0,1.0108441E2,1.0818877E1,7.1361985E0,1.8829758E0,1.5498003E0,1.2633501E1,3.3378376E1,6.770604E1,8.850025E0,1.9688523E0,6.1117697E0,1.0244291E0,2.5900118E1,7.478258E0,5.0001286E1,1.7704752E1,7.731627E0,1.1183978E0,1.1004089E1,1.48960285E1,6.206632E0,1.2716259E0,4.699075E1,3.010535E0,1.4069867E1,3.634885E0,9.993481E0,1.0106088E0,1.2345598E1,2.55043E0,5.085353E0,1.1212792E0,4.517753E1,1.8132203E0,1.2522962E1,1.5469056E0,2.589997E0,1.044888E0,1.1042052E1,1.3035457E0,4.13276E1,3.8499327E0,1.0801842E1,1.7211201E0],"tree_param":{"num_deleted":"0","num_feature":"2048","num_nodes":"55","size_leaf_vector":"1"}},{"base_weights":[1.6240217E-1,2.1889095E-1,-6.240868E-2,1.1198396E-1,6.452956E-1,8.822765E-3,7.1266E-1,8.160809E-1,-1.923382E-3,-4.833631E-2,6.854719E-1,1.20924376E-1,8.805349E-1,8.8575405E-1,-0E0,-1.24653116E-1,6.138577E-1,5.7211723E-2,-0E0,-0E0,3.3912692E-2,6.8676785E-2,-0E0,6.981853E-2,-0E0,-2.0403841E-1,7.066803E-1,4.9642704E-2,-0E0,-2.762948E-1,3.9414102E-1,6.253037E-2,-0E0,-3.2045284E-1,6.852108E-2,4.109526E-2,-0E0,-2.5607046E-2,3.855087E-2],"categories":[],"categories_nodes":[],"categories_segments":[],"categories_sizes":[],"default_left":[0,0,0,0,0,0,0,0,0,0,0,0,0,0,0,0,0,0,0,0,0,0,0,0,0,0,0,0,0,0,0,0,0,0,0,0,0,0,0],"id":26,"left_children":[1,3,-1,5,7,9,11,13,-1,15,17,19,21,23,-1,25,27,-1,-1,-1,-1,-1,-1,-1,-1,29,31,-1,-1,33,35,-1,-1,37,-1,-1,-1,-1,-1],"loss_changes":[8.55673E0,5.8457503E0,0E0,6.6496825E0,3.8870745E0,4.613947E0,5.7069397E-1,1.2945242E0,0E0,4.3455515E0,1.1169257E0,4.030882E-1,5.13587E-1,1.4781704E0,0E0,5.3064203E0,5.148709E-1,0E0,0E0,0E0,0E0,0E0,0E0,0E0,0E0,3.4256275E0,5.9873796E-1,0E0,0E0,3.657445E0,8.788427E-1,0E0,0E0,3.0545917E0,0E0,0E0,0E0,0E0,0E0],"parents":[2147483647,0,0,1,1,3,3,4,4,5,5,6,6,7,7,9,9,10,10,11,11,12,12,13,13,15,15,16,16,25,25,26,26,29,29,30,30,33,33],"right_children":[2,4,-1,6,8,10,12,14,-1,16,18,20,22,24,-1,26,28,-1,-1,-1,-1,-1,-1,-1,-1,30,32,-1,-1,34,36,-1,-1,38,-1,-1,-1,-1,-1],"split_conditions":[1E0,1E0,-6.240868E-2,1E0,1E0,1E0,1E0,1E0,-1.923382E-3,1E0,1E0,1E0,1E0,1E0,-0E0,1E0,1E0,5.7211723E-2,-0E0,-0E0,3.3912692E-2,6.8676785E-2,-0E0,6.981853E-2,-0E0,1E0,1E0,4.9642704E-2,-0E0,1E0,1E0,6.253037E-2,-0E0,1E0,6.852108E-2,4.109526E-2,-0E0,-2.5607046E-2,3.855087E-2],"split_indices":[1603,1647,0,1126,1708,440,80,841,0,1070,576,431,875,1634,0,1143,1056,0,0,0,0,0,0,0,0,1771,1917,0,0,770,79,0,0,1875,0,0,0,0,0],"split_type":[0,0,0,0,0,0,0,0,0,0,0,0,0,0,0,0,0,0,0,0,0,0,0,0,0,0,0,0,0,0,0,0,0,0,0,0,0,0,0],"sum_hessian":[1.5072746E2,1.4442822E2,6.2992525E0,1.1787169E2,2.6556528E1,1.024711E2,1.5400593E1,2.2209665E1,4.3468633E0,9.370517E1,8.765926E0,4.887569E0,1.0513024E1,2.0412123E1,1.7975434E0,8.575091E1,7.954264E0,7.491818E0,1.2741086E0,3.4717882E0,1.4157807E0,8.69222E0,1.8208039E0,1.7089909E1,3.3222132E0,7.9737656E1,6.013248E0,6.6815186E0,1.2727453E0,7.285502E1,6.8826394E0,4.1891646E0,1.8240834E0,7.156049E1,1.294525E0,5.20129E0,1.6813494E0,6.9122826E1,2.437666E0],"tree_param":{"num_deleted":"0","num_feature":"2048","num_nodes":"39","size_leaf_vector":"1"}},{"base_weights":[1.562436E-1,6.915132E-2,6.643161E-2,-0E0,7.573208E-1,-1.9625342E-1,2.735926E-1,6.580345E-2,-1.48573E-2,-3.4089383E-1,6.340466E-1,3.6256957E-1,-6.780702E-2,-4.3794888E-1,5.3937143E-1,-0E0,5.4530073E-2,4.4532347E-1,-4.7993373E-2,-5.155424E-1,3.318175E-2,5.2026425E-2,-0E0,5.890226E-1,-0E0,-5.860775E-1,4.2973008E-2,6.6502917E-1,-3.176935E-2,8.884394E-2,-3.709521E-2,-6.498514E-1,3.938194E-2,7.516048E-1,-1.8980595E-1,2.8336653E-2,-5.885775E-2,-4.8544206E-2,1.8218007E-2,-0E0,5.5550437E-2,-0E0,-4.7607183E-2,-3.0748025E-2,9.818318E-3],"categories":[],"categories_nodes":[],"categories_segments":[],"categories_sizes":[],"default_left":[0,0,0,0,0,0,0,0,0,0,0,0,0,0,0,0,0,0,0,0,0,0,0,0,0,0,0,0,0,0,0,0,0,0,0,0,0,0,0,0,0,0,0,0,0],"id":27,"left_children":[1,3,-1,5,7,9,11,-1,-1,13,15,17,-1,19,21,-1,-1,23,-1,25,-1,-1,-1,27,29,31,-1,33,-1,35,-1,37,-1,39,41,-1,43,-1,-1,-1,-1,-1,-1,-1,-1],"loss_changes":[9.655141E0,6.89284E0,0E0,6.8209295E0,3.2883515E0,8.854049E0,5.481192E0,0E0,0E0,5.617189E0,1.5872021E0,4.334703E0,0E0,4.45547E0,3.4576142E-1,0E0,0E0,3.5038166E0,0E0,4.721427E0,0E0,0E0,0E0,3.3583355E0,8.8924754E-1,4.3052444E0,0E0,3.2832499E0,0E0,7.59948E-1,0E0,2.9673805E0,0E0,1.6998234E0,6.7898333E-1,0E0,6.690347E-1,0E0,0E0,0E0,0E0,0E0,0E0,0E0,0E0],"parents":[2147483647,0,0,1,1,3,3,4,4,5,5,6,6,9,9,10,10,11,11,13,13,14,14,17,17,19,19,23,23,24,24,25,25,27,27,29,29,31,31,33,33,34,34,36,36],"right_children":[2,4,-1,6,8,10,12,-1,-1,14,16,18,-1,20,22,-1,-1,24,-1,26,-1,-1,-1,28,30,32,-1,34,-1,36,-1,38,-1,40,42,-1,44,-1,-1,-1,-1,-1,-1,-1,-1],"split_conditions":[1E0,1E0,6.643161E-2,1E0,1E0,1E0,1E0,6.580345E-2,-1.48573E-2,1E0,1E0,1E0,-6.780702E-2,1E0,1E0,-0E0,5.4530073E-2,1E0,-4.7993373E-2,1E0,3.318175E-2,5.2026425E-2,-0E0,1E0,1E0,1E0,4.2973008E-2,1E0,-3.176935E-2,1E0,-3.709521E-2,1E0,3.938194E-2,1E0,1E0,2.8336653E-2,1E0,-4.8544206E-2,1.8218007E-2,-0E0,5.5550437E-2,-0E0,-4.7607183E-2,-3.0748025E-2,9.818318E-3],"split_indices":[440,832,0,389,389,310,534,0,0,1143,650,1236,0,401,1114,0,0,1152,0,431,0,0,0,611,1292,917,0,310,0,91,0,1280,0,1088,1057,0,1066,0,0,0,0,0,0,0,0],"split_type":[0,0,0,0,0,0,0,0,0,0,0,0,0,0,0,0,0,0,0,0,0,0,0,0,0,0,0,0,0,0,0,0,0,0,0,0,0,0,0,0,0,0,0,0,0],"sum_hessian":[1.521253E2,1.388945E2,1.3230813E1,1.2631506E2,1.2579433E1,7.436794E1,5.1947124E1,1.1330647E1,1.2487864E0,6.461492E1,9.7530155E0,4.961105E1,2.3360765E0,5.944616E1,5.168766E0,1.0719407E0,8.681074E0,4.7163822E1,2.4472265E0,5.6009457E1,3.4367037E0,2.9887946E0,2.1799717E0,3.6799698E1,1.0364124E1,5.379911E1,2.2103448E0,3.5363773E1,1.4359249E0,8.103405E0,2.2607203E0,5.2014736E1,1.7843757E0,3.3190395E1,2.1733768E0,4.260263E0,3.8431416E0,5.0395245E1,1.6194894E0,1.4511789E0,3.1739216E1,1.1252736E0,1.0481032E0,2.6950023E0,1.1481392E0],"tree_param":{"num_deleted":"0","num_feature":"2048","num_nodes":"45","size_leaf_vector":"1"}},{"base_weights":[1.2142934E-1,-0E0,6.483291E-1,-6.0633246E-2,6.460907E-1,8.398701E-1,-2.1907358E-1,-1.1277062E-1,5.6341343E-2,5.384858E-2,-0E0,9.402362E-1,-0E0,-0E0,-3.2018773E-2,-1.6298065E-1,5.4858528E-2,1.0239255E0,-0E0,-2.4916913E-1,3.1124717E-1,7.418723E-2,-0E0,-2.9659247E-1,4.7538906E-2,4.7839427E-1,-0E0,-3.4009925E-1,5.3613916E-2,-0E0,4.9207702E-2,-4.386225E-1,1.2489605E-1,-1.3643719E-2,3.535513E-2,-3.5284072E-2,1.063591E-2,5.1020965E-2,-3.41902E-2],"categories":[],"categories_nodes":[],"categories_segments":[],"categories_sizes":[],"default_left":[0,0,0,0,0,0,0,0,0,0,0,0,0,0,0,0,0,0,0,0,0,0,0,0,0,0,0,0,0,0,0,0,0,0,0,0,0,0,0],"id":28,"left_children":[1,3,5,7,9,11,13,15,-1,-1,-1,17,-1,-1,-1,19,-1,21,-1,23,25,-1,-1,27,-1,29,-1,31,-1,33,-1,35,37,-1,-1,-1,-1,-1,-1],"loss_changes":[9.146929E0,5.0101204E0,5.176443E0,4.422204E0,1.425189E0,1.9967175E0,4.5980215E-1,4.2855372E0,0E0,0E0,0E0,2.243723E0,0E0,0E0,0E0,4.14759E0,0E0,4.098587E-1,0E0,3.6615467E0,1.1626921E0,0E0,0E0,3.7172227E0,0E0,1.0406313E0,0E0,4.145651E0,0E0,6.068642E-1,0E0,3.3353643E0,5.490705E0,0E0,0E0,0E0,0E0,0E0,0E0],"parents":[2147483647,0,0,1,1,2,2,3,3,4,4,5,5,6,6,7,7,11,11,15,15,17,17,19,19,20,20,23,23,25,25,27,27,29,29,31,31,32,32],"right_children":[2,4,6,8,10,12,14,16,-1,-1,-1,18,-1,-1,-1,20,-1,22,-1,24,26,-1,-1,28,-1,30,-1,32,-1,34,-1,36,38,-1,-1,-1,-1,-1,-1],"split_conditions":[1E0,1E0,1E0,1E0,1E0,1E0,1E0,1E0,5.6341343E-2,5.384858E-2,-0E0,1E0,-0E0,-0E0,-3.2018773E-2,1E0,5.4858528E-2,1E0,-0E0,1E0,1E0,7.418723E-2,-0E0,1E0,4.7538906E-2,1E0,-0E0,1E0,5.3613916E-2,1E0,4.9207702E-2,1E0,1E0,-1.3643719E-2,3.535513E-2,-3.5284072E-2,1.063591E-2,5.1020965E-2,-3.41902E-2],"split_indices":[1647,1965,1708,593,790,1655,807,960,0,0,0,45,0,0,0,890,0,932,0,296,1344,0,0,1432,0,1873,0,147,0,1050,0,772,1480,0,0,0,0,0,0],"split_type":[0,0,0,0,0,0,0,0,0,0,0,0,0,0,0,0,0,0,0,0,0,0,0,0,0,0,0,0,0,0,0,0,0,0,0,0,0,0,0],"sum_hessian":[1.4666566E2,1.20340096E2,2.6325571E1,1.0991301E2,1.0427088E1,2.247987E1,3.8457022E0,1.0524847E2,4.6645393E0,9.379453E0,1.047635E0,2.0073757E1,2.4061122E0,1.2949994E0,2.5507028E0,1.0117959E2,4.068882E0,1.8972189E1,1.1015685E0,8.756185E1,1.3617731E1,1.7655367E1,1.3168222E0,8.469774E1,2.8641138E0,1.0497536E1,3.1201959E0,8.264017E1,2.0575774E0,4.0001965E0,6.4973392E0,6.9911865E1,1.2728295E1,2.7741156E0,1.2260808E0,6.3975094E1,5.936774E0,7.117244E0,5.611052E0],"tree_param":{"num_deleted":"0","num_feature":"2048","num_nodes":"39","size_leaf_vector":"1"}},{"base_weights":[1.4931865E-1,8.9218095E-2,6.966322E-2,-0E0,5.9468377E-1,-6.1986614E-2,6.697212E-1,7.9914844E-1,-2.8523652E-2,1.0101563E-2,-7.5893855E-1,5.8785815E-2,-0E0,1.5349992E-1,7.112434E-2,5.8689587E-2,-7.121125E-2,-1.0349034E0,-0E0,3.9517246E-2,-4.6652695E-3,-8.1386596E-2,2.8739333E-1,-8.718528E-2,-0E0,-2.062409E-1,7.596087E-1,4.5032257E-1,-5.1030796E-2,-3.4323448E-1,2.4420594E-1,-0E0,6.66446E-2,5.432799E-1,-3.642829E-2,2.2531776E-2,-3.159844E-2,3.3747405E-2,-1.9763531E-2,4.449202E-2,-1.5763465E-2],"categories":[],"categories_nodes":[],"categories_segments":[],"categories_sizes":[],"default_left":[0,0,0,0,0,0,0,0,0,0,0,0,0,0,0,0,0,0,0,0,0,0,0,0,0,0,0,0,0,0,0,0,0,0,0,0,0,0,0,0,0],"id":29,"left_children":[1,3,-1,5,7,9,11,13,-1,15,17,-1,-1,19,-1,21,-1,23,-1,-1,-1,25,27,-1,-1,29,31,33,-1,35,37,-1,-1,39,-1,-1,-1,-1,-1,-1,-1],"loss_changes":[6.4779406E0,6.353701E0,0E0,4.8813915E0,4.909286E0,6.216713E0,1.0470929E0,1.500453E0,0E0,4.0809946E0,3.3899784E0,0E0,0E0,1.1126806E0,0E0,3.272146E0,0E0,2.56252E0,0E0,0E0,0E0,5.5677195E0,6.4361134E0,0E0,0E0,3.30584E0,5.8807373E-1,3.3497367E0,0E0,3.317566E0,1.648639E0,0E0,0E0,2.9980564E0,0E0,0E0,0E0,0E0,0E0,0E0,0E0],"parents":[2147483647,0,0,1,1,3,3,4,4,5,5,6,6,7,7,9,9,10,10,13,13,15,15,17,17,21,21,22,22,25,25,26,26,27,27,29,29,30,30,33,33],"right_children":[2,4,-1,6,8,10,12,14,-1,16,18,-1,-1,20,-1,22,-1,24,-1,-1,-1,26,28,-1,-1,30,32,34,-1,36,38,-1,-1,40,-1,-1,-1,-1,-1,-1,-1],"split_conditions":[1E0,1E0,6.966322E-2,1E0,1E0,1E0,1E0,1E0,-2.8523652E-2,1E0,1E0,5.8785815E-2,-0E0,1E0,7.112434E-2,1E0,-7.121125E-2,1E0,-0E0,3.9517246E-2,-4.6652695E-3,1E0,1E0,-8.718528E-2,-0E0,1E0,1E0,1E0,-5.1030796E-2,1E0,1E0,-0E0,6.66446E-2,1E0,-3.642829E-2,2.2531776E-2,-3.159844E-2,3.3747405E-2,-1.9763531E-2,4.449202E-2,-1.5763465E-2],"split_indices":[334,585,0,1504,523,1039,1928,80,0,534,114,0,0,1057,0,695,0,736,0,0,0,1070,2000,0,0,352,389,486,0,926,2016,0,0,1236,0,0,0,0,0,0,0],"split_type":[0,0,0,0,0,0,0,0,0,0,0,0,0,0,0,0,0,0,0,0,0,0,0,0,0,0,0,0,0,0,0,0,0,0,0,0,0,0,0,0,0],"sum_hessian":[1.466303E2,1.386736E2,7.956703E0,1.1817448E2,2.0499119E1,1.08830574E2,9.343909E0,1.7928017E1,2.5711005E0,9.792669E1,1.0903885E1,7.0495253E0,2.294384E0,6.024164E0,1.1903852E1,9.4967316E1,2.9593723E0,8.751025E0,2.1528602E0,3.25156E0,2.7726045E0,5.655015E1,3.8417164E1,7.342743E0,1.4082819E0,5.0622665E1,5.9274836E0,3.423752E1,4.1796455E0,4.0550186E1,1.0072482E1,1.8217235E0,4.10576E0,3.239599E1,1.8415294E0,4.4720163E0,3.6078167E1,8.172596E0,1.8998861E0,2.9898254E1,2.4977336E0],"tree_param":{"num_deleted":"0",