{"learner":{"attributes":{"best_iteration":"114","best_score":"0.02417103637220531","scikit_learn":"{\"_estimator_type\": \"classifier\"}"},"feature_names":[],"feature_types":[],"gradient_booster":{"model":{"gbtree_model_param":{"num_parallel_tree":"1","num_trees":"130"},"iteration_indptr":[0,1,2,3,4,5,6,7,8,9,10,11,12,13,14,15,16,17,18,19,20,21,22,23,24,25,26,27,28,29,30,31,32,33,34,35,36,37,38,39,40,41,42,43,44,45,46,47,48,49,50,51,52,53,54,55,56,57,58,59,60,61,62,63,64,65,66,67,68,69,70,71,72,73,74,75,76,77,78,79,80,81,82,83,84,85,86,87,88,89,90,91,92,93,94,95,96,97,98,99,100,101,102,103,104,105,106,107,108,109,110,111,112,113,114,115,116,117,118,119,120,121,122,123,124,125,126,127,128,129,130],"tree_info":[0,0,0,0,0,0,0,0,0,0,0,0,0,0,0,0,0,0,0,0,0,0,0,0,0,0,0,0,0,0,0,0,0,0,0,0,0,0,0,0,0,0,0,0,0,0,0,0,0,0,0,0,0,0,0,0,0,0,0,0,0,0,0,0,0,0,0,0,0,0,0,0,0,0,0,0,0,0,0,0,0,0,0,0,0,0,0,0,0,0,0,0,0,0,0,0,0,0,0,0,0,0,0,0,0,0,0,0,0,0,0,0,0,0,0,0,0,0,0,0,0,0,0,0,0,0,0,0,0,0],"trees":[{"base_weights":[1.8504685E0,1.8984038E0,-4.4785345E-1,1.9245368E0,-4.349488E-1,1.9406161E0,-4.1781554E-1,1.9533426E0,-4.0633023E-1,4.5514363E-1,-4.0109283E-1],"categories":[],"categories_nodes":[],"categories_segments":[],"categories_sizes":[],"default_left":[0,0,0,0,0,0,0,0,0,0,0],"id":0,"left_children":[1,3,-1,5,-1,7,-1,9,-1,-1,-1],"loss_changes":[1.5936548E2,8.601294E1,0E0,5.22229E1,0E0,4.0972412E1,0E0,3.7335205E1,0E0,0E0,0E0],"parents":[2147483647,0,0,1,1,3,3,5,5,7,7],"right_children":[2,4,-1,6,-1,8,-1,10,-1,-1,-1],"split_conditions":[1E0,1E0,-4.4785345E-1,1E0,-4.349488E-1,1E0,-4.1781554E-1,1E0,-4.0633023E-1,4.5514363E-1,-4.0109283E-1],"split_indices":[561,1476,0,1536,0,115,0,119,0,0,0],"split_type":[0,0,0,0,0,0,0,0,0,0,0],"sum_hessian":[8.740413E2,8.632913E2,1.075E1,8.575413E2,5.75E0,8.540413E2,3.5E0,8.512913E2,2.75E0,8.487913E2,2.5E0],"tree_param":{"num_deleted":"0","num_feature":"2048","num_nodes":"11","size_leaf_vector":"1"}},{"base_weights":[1.5088751E0,1.557973E0,-3.7077972E-1,1.573455E0,-4.3695995E-1,-3.824981E-1,1.587085E0,1.6002606E0,-3.5261342E-1,3.7296376E-1,-4.469814E-1],"categories":[],"categories_nodes":[],"categories_segments":[],"categories_sizes":[],"default_left":[0,0,0,0,0,0,0,0,0,0,0],"id":1,"left_children":[1,3,-1,5,-1,-1,7,9,-1,-1,-1],"loss_changes":[1.314823E2,4.559131E1,0E0,3.7516113E1,0E0,0E0,3.4870605E1,2.982373E1,0E0,0E0,0E0],"parents":[2147483647,0,0,1,1,3,3,6,6,7,7],"right_children":[2,4,-1,6,-1,-1,8,10,-1,-1,-1],"split_conditions":[1E0,1E0,-3.7077972E-1,1E0,-4.3695995E-1,-3.824981E-1,1E0,1E0,-3.5261342E-1,3.7296376E-1,-4.469814E-1],"split_indices":[692,145,0,807,0,0,1431,511,0,0,0],"split_type":[0,0,0,0,0,0,0,0,0,0,0],"sum_hessian":[8.5749994E2,8.443714E2,1.3128548E1,8.407958E2,3.575582E0,3.337896E0,8.374579E2,8.3412366E2,3.3342428E0,8.319851E2,2.1385372E0],"tree_param":{"num_deleted":"0","num_feature":"2048","num_nodes":"11","size_leaf_vector":"1"}},{"base_weights":[1.3241416E0,1.3758334E0,-6.8796945E-1,1.3906128E0,-3.6222875E-1,-1.747611E0,4.4679865E-1,1.3997046E0,-3.825971E-1,-3.473087E-1,-6.516416E-1,1.4063351E0,-3.229976E-1,3.273176E-1,-3.1009713E-1],"categories":[],"categories_nodes":[],"categories_segments":[],"categories_sizes":[],"default_left":[0,0,0,0,0,0,0,0,0,0,0,0,0,0,0],"id":2,"left_children":[1,3,5,7,-1,9,-1,11,-1,-1,-1,13,-1,-1,-1],"loss_changes":[7.9381836E1,3.2592896E1,5.3420517E1,2.0813843E1,0E0,1.4442902E0,0E0,1.4046875E1,0E0,0E0,0E0,1.4098877E1,0E0,0E0,0E0],"parents":[2147483647,0,0,1,1,2,2,3,3,5,5,7,7,11,11],"right_children":[2,4,6,8,-1,10,-1,12,-1,-1,-1,14,-1,-1,-1],"split_conditions":[1E0,1E0,1E0,1E0,-3.6222875E-1,1E0,4.4679865E-1,1E0,-3.825971E-1,-3.473087E-1,-6.516416E-1,1E0,-3.229976E-1,3.273176E-1,-3.1009713E-1],"split_indices":[1199,1249,1514,1980,0,590,0,1089,0,0,0,760,0,0,0],"split_type":[0,0,0,0,0,0,0,0,0,0,0,0,0,0,0],"sum_hessian":[7.590714E2,7.4026886E2,1.8802553E1,7.3677936E2,3.489469E0,1.3514921E1,5.287632E0,7.347977E2,1.9816715E0,1.1610505E1,1.9044161E0,7.3327106E2,1.5266463E0,7.316748E2,1.5962644E0],"tree_param":{"num_deleted":"0","num_feature":"2048","num_nodes":"15","size_leaf_vector":"1"}},{"base_weights":[1.2086715E0,1.2528063E0,-5.2751005E-1,1.2623614E0,-2.7063558E-1,-3.327366E-1,3.60532E-1,1.2690128E0,-4.7468868E-1,1.2774065E0,-2.9677853E-1,2.97634E-1,-3.1835055E-1],"categories":[],"categories_nodes":[],"categories_segments":[],"categories_sizes":[],"default_left":[0,0,0,0,0,0,0,0,0,0,0,0,0],"id":3,"left_children":[1,3,5,7,-1,-1,-1,9,-1,11,-1,-1,-1],"loss_changes":[5.4468872E1,1.6285645E1,3.3590263E1,1.5454834E1,0E0,0E0,0E0,1.5023315E1,0E0,1.4061035E1,0E0,0E0,0E0],"parents":[2147483647,0,0,1,1,2,2,3,3,7,7,9,9],"right_children":[2,4,6,8,-1,-1,-1,10,-1,12,-1,-1,-1],"split_conditions":[1E0,1E0,1E0,1E0,-2.7063558E-1,-3.327366E-1,3.60532E-1,1E0,-4.7468868E-1,1E0,-2.9677853E-1,2.97634E-1,-3.1835055E-1],"split_indices":[1199,1431,502,915,0,0,0,715,0,92,0,0,0],"split_type":[0,0,0,0,0,0,0,0,0,0,0,0,0],"sum_hessian":[7.0595953E2,6.8868304E2,1.727649E1,6.862007E2,2.482312E0,1.2174979E1,5.101511E0,6.8504785E2,1.1528805E0,6.830238E2,2.0240183E0,6.813037E2,1.7200894E0],"tree_param":{"num_deleted":"0","num_feature":"2048","num_nodes":"13","size_leaf_vector":"1"}},{"base_weights":[1.1182855E0,1.1528497E0,-2.8292927E-1,1.1764361E0,-3.1596306E-1,1.1891017E0,-3.182158E-1,1.1986936E0,-3.531642E-1,2.4683028E-1,2.8965694E-1],"categories":[],"categories_nodes":[],"categories_segments":[],"categories_sizes":[],"default_left":[0,0,0,0,0,0,0,0,0,0,0],"id":4,"left_children":[1,3,-1,5,-1,7,-1,9,-1,-1,-1],"loss_changes":[4.8324036E1,3.5057373E1,0E0,1.904712E1,0E0,1.5340149E1,0E0,3.000183E0,0E0,0E0,0E0],"parents":[2147483647,0,0,1,1,3,3,5,5,7,7],"right_children":[2,4,-1,6,-1,8,-1,10,-1,-1,-1],"split_conditions":[1E0,1E0,-2.8292927E-1,1E0,-3.1596306E-1,1E0,-3.182158E-1,1E0,-3.531642E-1,2.4683028E-1,2.8965694E-1],"split_indices":[692,1855,0,552,0,1089,0,678,0,0,0],"split_type":[0,0,0,0,0,0,0,0,0,0,0],"sum_hessian":[5.937865E2,5.8537524E2,8.411249E0,5.8017126E2,5.203988E0,5.7753455E2,2.636723E0,5.7572955E2,1.805004E0,1.643189E2,4.1141064E2],"tree_param":{"num_deleted":"0","num_feature":"2048","num_nodes":"11","size_leaf_vector":"1"}},{"base_weights":[1.0536183E0,1.0913432E0,-2.692466E-1,1.1084322E0,-3.3899745E-1,1.1222527E0,-2.9497558E-1,1.1314943E0,-4.021333E-1,2.6443374E-1,-3.1911415E-1],"categories":[],"categories_nodes":[],"categories_segments":[],"categories_sizes":[],"default_left":[0,0,0,0,0,0,0,0,0,0,0],"id":5,"left_children":[1,3,-1,5,-1,7,-1,9,-1,-1,-1],"loss_changes":[3.822589E1,1.975708E1,0E0,1.4885803E1,0E0,1.1918701E1,0E0,1.1483215E1,0E0,0E0,0E0],"parents":[2147483647,0,0,1,1,3,3,5,5,7,7],"right_children":[2,4,-1,6,-1,8,-1,10,-1,-1,-1],"split_conditions":[1E0,1E0,-2.692466E-1,1E0,-3.3899745E-1,1E0,-2.9497558E-1,1E0,-4.021333E-1,2.6443374E-1,-3.1911415E-1],"split_indices":[692,561,0,675,0,519,0,1114,0,0,0],"split_type":[0,0,0,0,0,0,0,0,0,0,0],"sum_hessian":[4.5398834E2,4.466284E2,7.3599486E0,4.4389764E2,2.7307515E0,4.4157413E2,2.3234963E0,4.4038467E2,1.189478E0,4.3884695E2,1.5376947E0],"tree_param":{"num_deleted":"0","num_feature":"2048","num_nodes":"11","size_leaf_vector":"1"}},{"base_weights":[9.8770064E-1,1.0434676E0,-3.1182724E-1,1.058075E0,-3.13104E-1,1.0700423E0,-2.9293767E-1,1.0803539E0,-3.057448E-1,2.5615308E-1,1.2766336E-1],"categories":[],"categories_nodes":[],"categories_segments":[],"categories_sizes":[],"default_left":[0,0,0,0,0,0,0,0,0,0,0],"id":6,"left_children":[1,3,-1,5,-1,7,-1,9,-1,-1,-1],"loss_changes":[5.121811E1,1.3622833E1,0E0,1.0823822E1,0E0,9.583649E0,0E0,4.483307E0,0E0,0E0,0E0],"parents":[2147483647,0,0,1,1,3,3,5,5,7,7],"right_children":[2,4,-1,6,-1,8,-1,10,-1,-1,-1],"split_conditions":[1E0,1E0,-3.1182724E-1,1E0,-3.13104E-1,1E0,-2.9293767E-1,1E0,-3.057448E-1,2.5615308E-1,1.2766336E-1],"split_indices":[1199,561,0,92,0,41,0,716,0,0,0],"split_type":[0,0,0,0,0,0,0,0,0,0,0],"sum_hessian":[3.9163403E2,3.827354E2,8.898615E0,3.806583E2,2.0771224E0,3.7894995E2,1.7083465E0,3.7756335E2,1.3865945E0,3.594287E2,1.813464E1],"tree_param":{"num_deleted":"0","num_feature":"2048","num_nodes":"11","size_leaf_vector":"1"}},{"base_weights":[9.5920104E-1,1.0039617E0,-3.2049507E-1,1.0206012E0,-2.2800295E-1,-2.9342616E-1,2.8671214E-1,1.0323302E0,-3.1488565E-1,1.0413777E0,-2.610329E-1,2.4319391E-1,-6.6199345E-3],"categories":[],"categories_nodes":[],"categories_segments":[],"categories_sizes":[],"default_left":[0,0,0,0,0,0,0,0,0,0,0,0,0],"id":7,"left_children":[1,3,5,7,-1,-1,-1,9,-1,11,-1,-1,-1],"loss_changes":[2.0158356E1,1.1336304E1,1.7566225E1,9.509735E0,0E0,0E0,0E0,6.7119446E0,0E0,3.335907E0,0E0,0E0,0E0],"parents":[2147483647,0,0,1,1,2,2,3,3,7,7,9,9],"right_children":[2,4,6,8,-1,-1,-1,10,-1,12,-1,-1,-1],"split_conditions":[1E0,1E0,1E0,1E0,-2.2800295E-1,-2.9342616E-1,2.8671214E-1,1E0,-3.1488565E-1,1E0,-2.610329E-1,2.4319391E-1,-6.6199345E-3],"split_indices":[1199,1697,1462,1236,0,0,0,1536,0,1907,0,0,0],"split_type":[0,0,0,0,0,0,0,0,0,0,0,0,0],"sum_hessian":[3.4697064E2,3.3551242E2,1.1458238E1,3.3297983E2,2.532594E0,7.27202E0,4.1862183E0,3.315926E2,1.387236E0,3.3045694E2,1.1356581E0,3.2811185E2,2.3450925E0],"tree_param":{"num_deleted":"0","num_feature":"2048","num_nodes":"13","size_leaf_vector":"1"}},{"base_weights":[9.1370577E-1,9.4868857E-1,-1.9104707E0,-2.5018984E-1,9.861484E-1,-2.1679321E-1,-7.1153134E-1,1.0085835E0,-1.0702734E0,1.0228701E0,-4.2291304E-1,-8.729799E-1,1.8103273E-1,2.4059542E-1,-2.9827243E-1],"categories":[],"categories_nodes":[],"categories_segments":[],"categories_sizes":[],"default_left":[0,0,0,0,0,0,0,0,0,0,0,0,0,0,0],"id":8,"left_children":[1,3,5,-1,7,-1,-1,9,11,13,-1,-1,-1,-1,-1],"loss_changes":[2.6387787E1,2.0189209E1,1.8420315E0,0E0,1.2140503E1,0E0,0E0,1.0532135E1,1.5277673E1,9.550629E0,0E0,0E0,0E0,0E0,0E0],"parents":[2147483647,0,0,1,1,2,2,4,4,7,7,8,8,9,9],"right_children":[2,4,6,-1,8,-1,-1,10,12,14,-1,-1,-1,-1,-1],"split_conditions":[1E0,1E0,1E0,-2.5018984E-1,1E0,-2.1679321E-1,-7.1153134E-1,1E0,1E0,1E0,-4.2291304E-1,-8.729799E-1,1.8103273E-1,2.4059542E-1,-2.9827243E-1],"split_indices":[145,807,114,0,14,0,0,1249,13,1045,0,0,0,0,0],"split_type":[0,0,0,0,0,0,0,0,0,0,0,0,0,0,0],"sum_hessian":[2.6575778E2,2.6275174E2,3.0060525E0,4.511161E0,2.5824057E2,1.9858478E0,1.0202047E0,2.5570493E2,2.5356517E0,2.5466415E2,1.0407641E0,1.0051887E0,1.530463E0,2.5317479E2,1.4893667E0],"tree_param":{"num_deleted":"0","num_feature":"2048","num_nodes":"15","size_leaf_vector":"1"}},{"base_weights":[8.608228E-1,4.0082633E-1,1.0985962E0,-3.3015206E-1,7.0885456E-1,2.4646252E-1,4.253342E-1,7.724507E-1,-1.9437574E-1,8.1568104E-1,-2.652961E-1,1.9779252E-1,-7.211009E-2],"categories":[],"categories_nodes":[],"categories_segments":[],"categories_sizes":[],"default_left":[0,0,0,0,0,0,0,0,0,0,0,0,0],"id":9,"left_children":[1,3,5,-1,7,-1,-1,9,-1,11,-1,-1,-1],"loss_changes":[2.2507233E1,4.082554E1,2.246521E0,0E0,6.2616005E0,0E0,0E0,5.0973434E0,0E0,2.767517E0,0E0,0E0,0E0],"parents":[2147483647,0,0,1,1,2,2,4,4,7,7,9,9],"right_children":[2,4,6,-1,8,-1,-1,10,-1,12,-1,-1,-1],"split_conditions":[1E0,1E0,1E0,-3.3015206E-1,1E0,2.4646252E-1,4.253342E-1,1E0,-1.9437574E-1,1E0,-2.652961E-1,1.9779252E-1,-7.211009E-2],"split_indices":[1230,114,153,0,1194,0,0,1199,0,1145,0,0,0],"split_type":[0,0,0,0,0,0,0,0,0,0,0,0,0],"sum_hessian":[2.1047974E2,7.234478E1,1.3813496E2,1.0189572E1,6.2155205E1,1.328437E2,5.291258E0,5.9989964E1,2.16524E0,5.8939915E1,1.0500482E0,5.7309334E1,1.6305834E0],"tree_param":{"num_deleted":"0","num_feature":"2048","num_nodes":"13","size_leaf_vector":"1"}},{"base_weights":[9.031406E-1,9.2993677E-1,-2.1386376E-1,9.472708E-1,-3.2827657E-1,9.624187E-1,-2.137218E-1,7.8765035E-1,1.0621841E0,1.9334693E-1,-4.3813226E-1,2.4867922E-1,-0E0],"categories":[],"categories_nodes":[],"categories_segments":[],"categories_sizes":[],"default_left":[0,0,0,0,0,0,0,0,0,0,0,0,0],"id":10,"left_children":[1,3,-1,5,-1,7,-1,9,11,-1,-1,-1,-1],"loss_changes":[1.0132996E1,8.311493E0,0E0,5.850113E0,0E0,2.72464E0,0E0,9.347778E0,1.3606262E0,0E0,0E0,0E0,0E0],"parents":[2147483647,0,0,1,1,3,3,5,5,7,7,8,8],"right_children":[2,4,-1,6,-1,8,-1,10,12,-1,-1,-1,-1],"split_conditions":[1E0,1E0,-2.1386376E-1,1E0,-3.2827657E-1,1E0,-2.137218E-1,1E0,1E0,1.9334693E-1,-4.3813226E-1,2.4867922E-1,-0E0],"split_indices":[692,1524,0,92,0,678,0,145,1154,0,0,0,0],"split_type":[0,0,0,0,0,0,0,0,0,0,0,0,0],"sum_hessian":[2.029741E2,2.0030345E2,2.6706557E0,1.9908833E2,1.2151184E0,1.9774951E2,1.3388199E0,7.3638054E1,1.2411146E2,7.262141E1,1.0166517E0,1.22657745E2,1.4537154E0],"tree_param":{"num_deleted":"0","num_feature":"2048","num_nodes":"13","size_leaf_vector":"1"}},{"base_weights":[8.261512E-1,3.1582966E-1,1.0420029E0,-8.5316765E-1,5.7836604E-1,2.4772252E-1,-4.342567E-2,-3.085138E-1,1.7935821E-1,6.593596E-1,-3.802207E-1,7.031586E-1,-1.2229738E-1,1.8084916E-1,4.7721505E-2],"categories":[],"categories_nodes":[],"categories_segments":[],"categories_sizes":[],"default_left":[0,0,0,0,0,0,0,0,0,0,0,0,0,0,0],"id":11,"left_children":[1,3,5,7,9,-1,-1,-1,-1,11,-1,13,-1,-1,-1],"loss_changes":[1.6707031E1,1.447337E1,3.9902344E0,7.023313E0,6.917345E0,0E0,0E0,0E0,0E0,2.0925713E0,0E0,1.0897121E0,0E0,0E0,0E0],"parents":[2147483647,0,0,1,1,2,2,3,3,4,4,9,9,11,11],"right_children":[2,4,6,8,10,-1,-1,-1,-1,12,-1,14,-1,-1,-1],"split_conditions":[1E0,1E0,1E0,1E0,1E0,2.4772252E-1,-4.342567E-2,-3.085138E-1,1.7935821E-1,1E0,-3.802207E-1,1E0,-1.2229738E-1,1.8084916E-1,4.7721505E-2],"split_indices":[678,294,654,1366,145,0,0,0,0,1737,0,1977,0,0,0],"split_type":[0,0,0,0,0,0,0,0,0,0,0,0,0,0,0],"sum_hessian":[1.5573592E2,4.6856815E1,1.088791E2,8.297752E0,3.8559063E1,1.0676052E2,2.118578E0,6.582063E0,1.7156895E0,3.7477184E1,1.0818795E0,3.6468796E1,1.0083878E0,3.0923643E1,5.5451536E0],"tree_param":{"num_deleted":"0","num_feature":"2048","num_nodes":"15","size_leaf_vector":"1"}},{"base_weights":[7.947746E-1,3.812013E-1,1.0380272E0,-2.9176888E-1,6.4317244E-1,2.4335271E-1,-0E0,8.1856126E-1,-5.110832E-1,2.0608959E-1,-0E0,-1.1581264E0,1.7764825E-1,-2.5929174E-1,1.7792955E-1,7.930136E-2,-7.558915E-1],"categories":[],"categories_nodes":[],"categories_segments":[],"categories_sizes":[],"default_left":[0,0,0,0,0,0,0,0,0,0,0,0,0,0,0,0,0],"id":12,"left_children":[1,3,5,-1,7,-1,-1,9,11,-1,13,15,-1,-1,-1,-1,-1],"loss_changes":[1.2978233E1,2.1669718E1,1.007576E0,0E0,9.044813E0,0E0,0E0,2.3657513E0,5.01114E0,0E0,2.9171562E0,1.3787796E1,0E0,0E0,0E0,0E0,0E0],"parents":[2147483647,0,0,1,1,2,2,4,4,7,7,8,8,10,10,11,11],"right_children":[2,4,6,-1,8,-1,-1,10,12,-1,14,16,-1,-1,-1,-1,-1],"split_conditions":[1E0,1E0,1E0,-2.9176888E-1,1E0,2.4335271E-1,-0E0,1E0,1E0,2.0608959E-1,1E0,1E0,1.7764825E-1,-2.5929174E-1,1.7792955E-1,7.930136E-2,-7.558915E-1],"split_indices":[678,114,1160,0,1503,0,0,526,1911,0,1628,544,0,0,0,0,0],"split_type":[0,0,0,0,0,0,0,0,0,0,0,0,0,0,0,0,0],"sum_hessian":[1.3380092E2,5.0207928E1,8.3592995E1,6.643565E0,4.3564365E1,8.250838E1,1.0846202E0,3.8094505E1,5.46986E0,3.5197742E1,2.8967605E0,3.7980542E0,1.671806E0,1.2178252E0,1.6789353E0,2.2419658E0,1.5560884E0],"tree_param":{"num_deleted":"0","num_feature":"2048","num_nodes":"17","size_leaf_vector":"1"}},{"base_weights":[7.516192E-1,4.5459452E-1,1.0062737E0,-7.1907264E-1,6.2263817E-1,2.3849775E-1,-0E0,-2.7486017E-1,1.6525273E-1,6.881159E-1,-2.2028095E-1,5.481984E-1,2.4286827E-1,-5.7178175E-1,1.937215E-1,1.6852377E-1,-0E0],"categories":[],"categories_nodes":[],"categories_segments":[],"categories_sizes":[],"default_left":[0,0,0,0,0,0,0,0,0,0,0,0,0,0,0,0,0],"id":13,"left_children":[1,3,5,7,9,-1,-1,-1,-1,11,13,15,-1,-1,-1,-1,-1],"loss_changes":[8.433838E0,1.1041427E1,1.6248779E0,4.910938E0,2.8754215E0,0E0,0E0,0E0,0E0,1.716423E0,8.940327E0,3.4666595E0,0E0,0E0,0E0,0E0,0E0],"parents":[2147483647,0,0,1,1,2,2,3,3,4,4,9,9,10,10,11,11],"right_children":[2,4,6,8,10,-1,-1,-1,-1,12,14,16,-1,-1,-1,-1,-1],"split_conditions":[1E0,1E0,1E0,1E0,1E0,2.3849775E-1,-0E0,-2.7486017E-1,1.6525273E-1,1E0,1E0,1E0,2.4286827E-1,-5.7178175E-1,1.937215E-1,1.6852377E-1,-0E0],"split_indices":[243,114,112,23,334,0,0,0,0,881,1908,1365,0,0,0,0,0],"split_type":[0,0,0,0,0,0,0,0,0,0,0,0,0,0,0,0,0],"sum_hessian":[1.1829217E2,5.541717E1,6.2874992E1,6.6318316E0,4.8785343E1,6.1573936E1,1.3010559E0,5.1831317E0,1.4487E0,4.5630436E1,3.154906E0,3.3853615E1,1.1776823E1,1.0050974E0,2.1498086E0,2.5674295E1,8.179317E0],"tree_param":{"num_deleted":"0","num_feature":"2048","num_nodes":"17","size_leaf_vector":"1"}},{"base_weights":[6.915317E-1,3.0553612E-1,9.972525E-1,-4.6654978E-1,5.292537E-1,2.3716334E-1,-0E0,-1.0093995E0,2.2091928E-1,6.2239385E-1,-1.9285098E-1,-3.112356E-1,1.4261541E-1,7.0213544E-1,-1.4960216E-1,1.8972924E-1,1.7315457E-2],"categories":[],"categories_nodes":[],"categories_segments":[],"categories_sizes":[],"default_left":[0,0,0,0,0,0,0,0,0,0,0,0,0,0,0,0,0],"id":14,"left_children":[1,3,5,7,9,-1,-1,11,-1,13,-1,-1,-1,15,-1,-1,-1],"loss_changes":[1.1310581E1,7.808236E0,1.6033096E0,7.8442326E0,4.5057173E0,0E0,0E0,4.417004E0,0E0,3.4729147E0,0E0,0E0,0E0,2.0394144E0,0E0,0E0,0E0],"parents":[2147483647,0,0,1,1,2,2,3,3,4,4,7,7,9,9,13,13],"right_children":[2,4,6,8,10,-1,-1,12,-1,14,-1,-1,-1,16,-1,-1,-1],"split_conditions":[1E0,1E0,1E0,1E0,1E0,2.3716334E-1,-0E0,1E0,2.2091928E-1,1E0,-1.9285098E-1,-3.112356E-1,1.4261541E-1,1E0,-1.4960216E-1,1.8972924E-1,1.7315457E-2],"split_indices":[890,295,198,1642,1194,0,0,617,0,526,0,0,0,389,0,0,0],"split_type":[0,0,0,0,0,0,0,0,0,0,0,0,0,0,0,0,0],"sum_hessian":[9.944522E1,4.457037E1,5.487485E1,9.664166E0,3.4906204E1,5.3573795E1,1.3010559E0,7.187501E0,2.4766653E0,3.2984715E1,1.9214895E0,6.1429067E0,1.044594E0,3.1343431E1,1.6412843E0,2.596565E1,5.37778E0],"tree_param":{"num_deleted":"0","num_feature":"2048","num_nodes":"17","size_leaf_vector":"1"}},{"base_weights":[6.6157514E-1,2.9325467E-1,2.3081976E-1,-6.2147435E-2,8.2075906E-1,-7.26693E-1,6.461844E-1,9.1093487E-1,-0E0,-3.406366E-1,1.7046377E-2,2.0513487E-1,-2.2374602E-1,2.3339625E-1,-0E0,1.9326384E-1,-1.0034973E-1,-2.944761E-1,1.446429E-1],"categories":[],"categories_nodes":[],"categories_segments":[],"categories_sizes":[],"default_left":[0,0,0,0,0,0,0,0,0,0,0,0,0,0,0,0,0,0,0],"id":15,"left_children":[1,3,-1,5,7,9,11,13,-1,-1,15,-1,17,-1,-1,-1,-1,-1,-1],"loss_changes":[9.6092415E0,7.647136E0,0E0,1.1183091E1,1.4381027E0,7.3151493E0,2.5858493E0,1.0404015E0,0E0,0E0,2.4917076E0,0E0,2.442646E0,0E0,0E0,0E0,0E0,0E0,0E0],"parents":[2147483647,0,0,1,1,3,3,4,4,5,5,6,6,7,7,10,10,12,12],"right_children":[2,4,-1,6,8,10,12,14,-1,-1,16,-1,18,-1,-1,-1,-1,-1,-1],"split_conditions":[1E0,1E0,2.3081976E-1,1E0,1E0,1E0,1E0,1E0,-0E0,-3.406366E-1,1E0,2.0513487E-1,1E0,2.3339625E-1,-0E0,1.9326384E-1,-1.0034973E-1,-2.944761E-1,1.446429E-1],"split_indices":[678,1908,0,563,1436,1973,8,674,0,0,935,0,1911,0,0,0,0,0,0],"split_type":[0,0,0,0,0,0,0,0,0,0,0,0,0,0,0,0,0,0,0],"sum_hessian":[8.1272545E1,3.9320633E1,4.1951912E1,2.3273195E1,1.604744E1,1.2219577E1,1.10536175E1,1.4719734E1,1.3277057E0,6.2010565E0,6.018521E0,8.93055E0,2.1230679E0,1.3015013E1,1.7047217E0,2.3046863E0,3.7138345E0,1.0569321E0,1.0661359E0],"tree_param":{"num_deleted":"0","num_feature":"2048","num_nodes":"19","size_leaf_vector":"1"}},{"base_weights":[6.145758E-1,2.8829822E-1,2.2534363E-1,1.9436095E-2,2.0582213E-1,-2.0969562E-1,2.1810552E-1,6.634271E-1,-3.9657673E-1,2.2373162E-1,3.2568567E-2,-2.3094073E-1,8.063504E-2],"categories":[],"categories_nodes":[],"categories_segments":[],"categories_sizes":[],"default_left":[0,0,0,0,0,0,0,0,0,0,0,0,0],"id":16,"left_children":[1,3,-1,5,-1,-1,7,9,11,-1,-1,-1,-1],"loss_changes":[7.0627155E0,5.263933E0,0E0,4.2952757E0,0E0,0E0,5.719408E0,1.571743E0,4.035076E0,0E0,0E0,0E0,0E0],"parents":[2147483647,0,0,1,1,3,3,6,6,7,7,8,8],"right_children":[2,4,-1,6,-1,-1,8,10,12,-1,-1,-1,-1],"split_conditions":[1E0,1E0,2.2534363E-1,1E0,2.0582213E-1,-2.0969562E-1,1E0,1E0,1E0,2.2373162E-1,3.2568567E-2,-2.3094073E-1,8.063504E-2],"split_indices":[1950,1951,0,590,0,0,729,526,117,0,0,0,0],"split_type":[0,0,0,0,0,0,0,0,0,0,0,0,0],"sum_hessian":[6.3899136E1,3.4079712E1,2.9819422E1,2.4031668E1,1.0048043E1,3.8507879E0,2.018088E1,1.1970775E1,8.210106E0,7.109484E0,4.8612905E0,4.7236686E0,3.486437E0],"tree_param":{"num_deleted":"0","num_feature":"2048","num_nodes":"13","size_leaf_vector":"1"}},{"base_weights":[5.4683495E-1,1.5056236E-1,8.534552E-1,-1.5966843E-1,6.1480415E-1,2.1782391E-1,1.5900972E-1,9.6901745E-2,-1.3672023E0,2.1698403E-1,2.3386708E-1,-2.877584E-1,2.1138375E-1,4.1828138E-1,-2.5920087E-1,-4.2834532E-1,-4.5529574E-2,-6.088313E-2,1.8674755E-1,-1.6307877E-1,1.7393112E-1,-1.6777462E-1,1.6683738E-1],"categories":[],"categories_nodes":[],"categories_segments":[],"categories_sizes":[],"default_left":[0,0,0,0,0,0,0,0,0,0,0,0,0,0,0,0,0,0,0,0,0,0,0],"id":17,"left_children":[1,3,5,7,9,-1,11,13,15,-1,17,-1,-1,19,-1,-1,-1,21,-1,-1,-1,-1,-1],"loss_changes":[7.133629E0,4.10994E0,1.704668E0,5.4379306E0,1.0084662E0,0E0,4.835036E0,5.133111E0,1.0467405E0,0E0,1.2328309E0,0E0,0E0,4.2171917E0,0E0,0E0,0E0,2.0756135E0,0E0,0E0,0E0,0E0,0E0],"parents":[2147483647,0,0,1,1,2,2,3,3,4,4,6,6,7,7,8,8,10,10,13,13,17,17],"right_children":[2,4,6,8,10,-1,12,14,16,-1,18,-1,-1,20,-1,-1,-1,22,-1,-1,-1,-1,-1],"split_conditions":[1E0,1E0,1E0,1E0,1E0,2.1782391E-1,1E0,1E0,1E0,2.1698403E-1,1E0,-2.877584E-1,2.1138375E-1,1E0,-2.5920087E-1,-4.2834532E-1,-4.5529574E-2,1E0,1.8674755E-1,-1.6307877E-1,1.7393112E-1,-1.6777462E-1,1.6683738E-1],"split_indices":[8,1908,1564,389,1308,0,955,1365,1365,0,118,0,0,392,0,0,0,1163,0,0,0,0,0],"split_type":[0,0,0,0,0,0,0,0,0,0,0,0,0,0,0,0,0,0,0,0,0,0,0],"sum_hessian":[6.1159176E1,2.7239944E1,3.391923E1,1.6033167E1,1.12067795E1,2.9699106E1,4.2201266E0,1.3186896E1,2.8462698E0,5.4822154E0,5.7245636E0,1.2897286E0,2.930398E0,1.0734631E1,2.4522655E0,1.7484654E0,1.0978045E0,3.5668027E0,2.1577609E0,2.1960268E0,8.538604E0,2.141359E0,1.4254436E0],"tree_param":{"num_deleted":"0","num_feature":"2048","num_nodes":"23","size_leaf_vector":"1"}},{"base_weights":[5.9716266E-1,6.5871465E-1,-2.5192216E-1,4.0380198E-1,2.2596374E-1,-2.4516533E-1,5.4448766E-1,3.1118497E-1,2.3717912E-1,1.471726E-1,-0E0],"categories":[],"categories_nodes":[],"categories_segments":[],"categories_sizes":[],"default_left":[0,0,0,0,0,0,0,0,0,0,0],"id":18,"left_children":[1,3,-1,5,-1,-1,7,9,-1,-1,-1],"loss_changes":[5.398361E0,3.5666046E0,0E0,5.8849325E0,0E0,0E0,2.5060701E0,1.9552763E0,0E0,0E0,0E0],"parents":[2147483647,0,0,1,1,3,3,6,6,7,7],"right_children":[2,4,-1,6,-1,-1,8,10,-1,-1,-1],"split_conditions":[1E0,1E0,-2.5192216E-1,1E0,2.2596374E-1,-2.4516533E-1,1E0,1E0,2.3717912E-1,1.471726E-1,-0E0],"split_indices":[1199,678,0,114,0,0,1951,488,0,0,0],"split_type":[0,0,0,0,0,0,0,0,0,0,0],"sum_hessian":[5.1558327E1,5.0037518E1,1.5208085E0,2.8517773E1,2.1519747E1,2.1946523E0,2.632312E1,1.83618E1,7.9613204E0,9.08242E0,9.279379E0],"tree_param":{"num_deleted":"0","num_feature":"2048","num_nodes":"11","size_leaf_vector":"1"}},{"base_weights":[5.4700035E-1,2.9985383E-1,2.1823327E-1,3.6855683E-1,-1.6289707E-1,2.1221754E-1,1.6642836E-1,-0E0,1.5194033E-1,-9.262459E-2,1.1325437E-1],"categories":[],"categories_nodes":[],"categories_segments":[],"categories_sizes":[],"default_left":[0,0,0,0,0,0,0,0,0,0,0],"id":19,"left_children":[1,3,-1,5,-1,7,-1,9,-1,-1,-1],"loss_changes":[4.5507917E0,2.1724696E0,0E0,1.3609567E0,0E0,2.0001848E0,0E0,3.0313325E0,0E0,0E0,0E0],"parents":[2147483647,0,0,1,1,3,3,5,5,7,7],"right_children":[2,4,-1,6,-1,8,-1,10,-1,-1,-1],"split_conditions":[1E0,1E0,2.1823327E-1,1E0,-1.6289707E-1,1E0,1.6642836E-1,1E0,1.5194033E-1,-9.262459E-2,1.1325437E-1],"split_indices":[231,322,0,1951,0,1342,0,1070,0,0,0],"split_type":[0,0,0,0,0,0,0,0,0,0,0],"sum_hessian":[5.0755836E1,3.192047E1,1.8835365E1,3.0278059E1,1.6424096E0,2.175205E1,8.52601E0,1.5021467E1,6.730582E0,8.167269E0,6.8541985E0],"tree_param":{"num_deleted":"0","num_feature":"2048","num_nodes":"11","size_leaf_vector":"1"}},{"base_weights":[3.181834E-1,-3.449252E-2,2.1417071E-1,-2.9700917E-1,1.6321707E-1,-6.792802E-1,1.2802644E-1,-1.0349547E0,9.0592556E-2,-6.465574E-2,-4.6123904E-1,-1.4311412E-1,1.8732242E-1],"categories":[],"categories_nodes":[],"categories_segments":[],"categories_sizes":[],"default_left":[0,0,0,0,0,0,0,0,0,0,0,0,0],"id":20,"left_children":[1,3,-1,5,-1,7,-1,9,11,-1,-1,-1,-1],"loss_changes":[9.116688E0,4.9813843E0,0E0,6.509971E0,0E0,4.106892E0,0E0,6.2876787E0,2.3689933E0,0E0,0E0,0E0,0E0],"parents":[2147483647,0,0,1,1,3,3,5,5,7,7,8,8],"right_children":[2,4,-1,6,-1,8,-1,10,12,-1,-1,-1,-1],"split_conditions":[1E0,1E0,2.1417071E-1,1E0,1.6321707E-1,1E0,1.2802644E-1,1E0,1E0,-6.465574E-2,-4.6123904E-1,-1.4311412E-1,1.8732242E-1],"split_indices":[890,1070,0,117,0,881,0,1970,1099,0,0,0,0],"split_type":[0,0,0,0,0,0,0,0,0,0,0,0,0],"sum_hessian":[4.114844E1,2.5840094E1,1.5308347E1,1.9458109E1,6.381986E0,1.3689937E1,5.768172E0,9.574685E0,4.1152515E0,5.676951E0,3.897734E0,1.8801811E0,2.2350705E0],"tree_param":{"num_deleted":"0","num_feature":"2048","num_nodes":"13","size_leaf_vector":"1"}},{"base_weights":[4.1360217E-1,1.7423847E-1,2.0770706E-1,-2.1243721E-1,2.9423445E-1,6.176433E-1,-9.965922E-4,2.190619E-1,2.1914031E-2,-3.2838336E-1,1.52044E-1,-2.4311739E-1,4.8323058E-2],"categories":[],"categories_nodes":[],"categories_segments":[],"categories_sizes":[],"default_left":[0,0,0,0,0,0,0,0,0,0,0,0,0],"id":21,"left_children":[1,3,-1,-1,5,7,9,-1,-1,11,-1,-1,-1],"loss_changes":[4.1927314E0,3.4035766E0,0E0,0E0,2.538639E0,1.7771373E0,2.671388E0,0E0,0E0,3.7365172E0,0E0,0E0,0E0],"parents":[2147483647,0,0,1,1,4,4,5,5,6,6,9,9],"right_children":[2,4,-1,-1,6,8,10,-1,-1,12,-1,-1,-1],"split_conditions":[1E0,1E0,2.0770706E-1,-2.1243721E-1,1E0,1E0,1E0,2.190619E-1,2.1914031E-2,1E0,1.52044E-1,-2.4311739E-1,4.8323058E-2],"split_indices":[890,114,0,0,802,118,117,0,0,881,0,0,0],"split_type":[0,0,0,0,0,0,0,0,0,0,0,0,0],"sum_hessian":[3.906234E1,2.6726547E1,1.23357935E1,2.2611432E0,2.4465405E1,1.2038902E1,1.2426501E1,6.9437485E0,5.095154E0,8.667379E0,3.7591221E0,3.8450344E0,4.8223453E0],"tree_param":{"num_deleted":"0","num_feature":"2048","num_nodes":"13","size_leaf_vector":"1"}},{"base_weights":[4.188151E-1,2.1804383E-1,2.071938E-1,3.0972844E-1,-2.6190805E-1,4.6675107E-1,-6.4020246E-1,6.1413753E-1,-1.6089576E-1,-2.4459997E-1,-0E0,-5.448088E-2,1.694474E-1],"categories":[],"categories_nodes":[],"categories_segments":[],"categories_sizes":[],"default_left":[0,0,0,0,0,0,0,0,0,0,0,0,0],"id":22,"left_children":[1,3,-1,5,-1,7,9,11,-1,-1,-1,-1,-1],"loss_changes":[2.902244E0,2.9031808E0,0E0,3.5361118E0,0E0,3.6047707E0,9.9219716E-1,2.0456858E0,0E0,0E0,0E0,0E0,0E0],"parents":[2147483647,0,0,1,1,3,3,5,5,6,6,7,7],"right_children":[2,4,-1,6,-1,8,10,12,-1,-1,-1,-1,-1],"split_conditions":[1E0,1E0,2.071938E-1,1E0,-2.6190805E-1,1E0,1E0,1E0,-1.6089576E-1,-2.4459997E-1,-0E0,-5.448088E-2,1.694474E-1],"split_indices":[678,1194,0,13,0,1564,1342,1391,0,0,0,0,0],"split_type":[0,0,0,0,0,0,0,0,0,0,0,0,0],"sum_hessian":[3.4048637E1,2.4601826E1,9.446812E0,2.339727E1,1.204554E0,2.0439484E1,2.9577873E0,1.8453787E1,1.9856966E0,1.8394718E0,1.1183153E0,1.9098178E0,1.654397E1],"tree_param":{"num_deleted":"0","num_feature":"2048","num_nodes":"13","size_leaf_vector":"1"}},{"base_weights":[2.0747471E-1,3.2088184E-1,-2.9997936E-1,-3.526266E-2,1.9482036E-1,-3.4528285E-1,4.7106355E-1,-6.5927845E-1,1.9852212E-1,2.0569697E-1,-1.7256595E-2,-6.940643E-3,-3.3055332E-1],"categories":[],"categories_nodes":[],"categories_segments":[],"categories_sizes":[],"default_left":[0,0,0,0,0,0,0,0,0,0,0,0,0],"id":23,"left_children":[1,3,-1,5,-1,7,9,11,-1,-1,-1,-1,-1],"loss_changes":[4.953645E0,5.5170994E0,0E0,2.6301792E0,0E0,4.174238E0,1.6415375E0,3.8852305E0,0E0,0E0,0E0,0E0,0E0],"parents":[2147483647,0,0,1,1,3,3,5,5,6,6,7,7],"right_children":[2,4,-1,6,-1,8,10,12,-1,-1,-1,-1,-1],"split_conditions":[1E0,1E0,-2.9997936E-1,1E0,1.9482036E-1,1E0,1E0,1E0,1.9852212E-1,2.0569697E-1,-1.7256595E-2,-6.940643E-3,-3.3055332E-1],"split_indices":[1145,283,0,1908,0,425,1308,1365,0,0,0,0,0],"split_type":[0,0,0,0,0,0,0,0,0,0,0,0,0],"sum_hessian":[3.0008987E1,2.8244263E1,1.7647244E0,1.654979E1,1.1694474E1,1.0668748E1,5.881041E0,8.731759E0,1.936989E0,3.5623267E0,2.3187144E0,5.1337194E0,3.5980396E0],"tree_param":{"num_deleted":"0","num_feature":"2048","num_nodes":"13","size_leaf_vector":"1"}},{"base_weights":[2.4573177E-1,2.996475E-2,2.1688199E-1,-1.101904E-1,2.1401504E-1,-2.404085E-1,1.8316783E-1,-5.201E-1,2.0545806E-1,-5.710874E-2,-4.7147033E-1,-3.7059065E-2,1.966668E-1],"categories":[],"categories_nodes":[],"categories_segments":[],"categories_sizes":[],"default_left":[0,0,0,0,0,0,0,0,0,0,0,0,0],"id":24,"left_children":[1,3,-1,5,-1,7,-1,9,11,-1,-1,-1,-1],"loss_changes":[4.391677E0,3.331069E0,0E0,2.3525825E0,0E0,2.4695706E0,0E0,4.2197437E0,1.8849311E0,0E0,0E0,0E0,0E0],"parents":[2147483647,0,0,1,1,3,3,5,5,7,7,8,8],"right_children":[2,4,-1,6,-1,8,-1,10,12,-1,-1,-1,-1],"split_conditions":[1E0,1E0,2.1688199E-1,1E0,2.1401504E-1,1E0,1.8316783E-1,1E0,1E0,-5.710874E-2,-4.7147033E-1,-3.7059065E-2,1.966668E-1],"split_indices":[1122,195,0,1482,0,1908,0,1737,389,0,0,0,0],"split_type":[0,0,0,0,0,0,0,0,0,0,0,0,0],"sum_hessian":[3.1207819E1,2.42766E1,6.931218E0,2.0866007E1,3.4105928E0,1.865611E1,2.209897E0,1.1848586E1,6.8075247E0,1.0415525E1,1.4330604E0,4.1539536E0,2.6535711E0],"tree_param":{"num_deleted":"0","num_feature":"2048","num_nodes":"13","size_leaf_vector":"1"}},{"base_weights":[4.0563884E-1,4.9202648E-1,-1.2979674E-1,5.421354E-1,-8.790436E-2,1.3826133E-1,-3.252405E-2],"categories":[],"categories_nodes":[],"categories_segments":[],"categories_sizes":[],"default_left":[0,0,0,0,0,0,0],"id":25,"left_children":[1,3,-1,5,-1,-1,-1],"loss_changes":[2.5059261E0,1.2945833E0,0E0,1.1411748E0,0E0,0E0,0E0],"parents":[2147483647,0,0,1,1,3,3],"right_children":[2,4,-1,6,-1,-1,-1],"split_conditions":[1E0,1E0,-1.2979674E-1,1E0,-8.790436E-2,1.3826133E-1,-3.252405E-2],"split_indices":[1199,322,0,522,0,0,0],"split_type":[0,0,0,0,0,0,0],"sum_hessian":[2.9335321E1,2.7305248E1,2.0300722E0,2.6218203E1,1.0870463E0,2.4695475E1,1.5227286E0],"tree_param":{"num_deleted":"0","num_feature":"2048","num_nodes":"7","size_leaf_vector":"1"}},{"base_weights":[2.8802997E-1,3.780673E-1,-2.7087477E-1,4.614982E-1,-1.5219057E-1,5.410834E-1,-7.1138896E-2,6.6172963E-1,-0E0,-2.5782531E-1,1.6689853E-1,1.7194475E-1,-6.3104704E-3,-1.0577048E-1,1.6363351E-1],"categories":[],"categories_nodes":[],"categories_segments":[],"categories_sizes":[],"default_left":[0,0,0,0,0,0,0,0,0,0,0,0,0,0,0],"id":26,"left_children":[1,3,-1,5,-1,7,9,11,13,-1,-1,-1,-1,-1,-1],"loss_changes":[3.597851E0,2.3539193E0,0E0,1.229002E0,0E0,1.5729961E0,2.7883804E0,1.2581434E0,1.3757143E0,0E0,0E0,0E0,0E0,0E0,0E0],"parents":[2147483647,0,0,1,1,3,3,5,5,6,6,7,7,8,8],"right_children":[2,4,-1,6,-1,8,10,12,14,-1,-1,-1,-1,-1,-1],"split_conditions":[1E0,1E0,-2.7087477E-1,1E0,-1.5219057E-1,1E0,1E0,1E0,1E0,-2.5782531E-1,1.6689853E-1,1.7194475E-1,-6.3104704E-3,-1.0577048E-1,1.6363351E-1],"split_indices":[1199,745,0,1564,0,13,855,1163,1163,0,0,0,0,0,0],"split_type":[0,0,0,0,0,0,0,0,0,0,0,0,0,0,0],"sum_hessian":[2.8246014E1,2.6944613E1,1.3014015E0,2.5309813E1,1.6348007E0,2.2498257E1,2.8115547E0,1.8562635E1,3.9356217E0,1.336614E0,1.4749405E0,1.6986454E1,1.5761825E0,2.5542252E0,1.3813965E0],"tree_param":{"num_deleted":"0","num_feature":"2048","num_nodes":"15","size_leaf_vector":"1"}},{"base_weights":[1.843393E-1,2.574765E-1,-2.3907772E-1,3.4255674E-1,-4.2986825E-1,1.6670106E-1,1.6499639E-1,-3.1690663E-1,1.02594644E-1,2.6602778E-1,-1.1437305E-1,8.725262E-2,-8.884602E-2],"categories":[],"categories_nodes":[],"categories_segments":[],"categories_sizes":[],"default_left":[0,0,0,0,0,0,0,0,0,0,0,0,0],"id":27,"left_children":[1,3,-1,5,7,9,-1,-1,-1,11,-1,-1,-1],"loss_changes":[2.2592294E0,1.5363307E0,0E0,1.261745E0,2.5308828E0,1.0729165E0,0E0,0E0,0E0,1.1261978E0,0E0,0E0,0E0],"parents":[2147483647,0,0,1,1,3,3,4,4,5,5,9,9],"right_children":[2,4,-1,6,8,10,-1,-1,-1,12,-1,-1,-1],"split_conditions":[1E0,1E0,-2.3907772E-1,1E0,1E0,1E0,1.6499639E-1,-3.1690663E-1,1.02594644E-1,1E0,-1.1437305E-1,8.725262E-2,-8.884602E-2],"split_indices":[519,1199,0,283,488,473,0,0,0,14,0,0,0],"split_type":[0,0,0,0,0,0,0,0,0,0,0,0,0],"sum_hessian":[2.7093771E1,2.5947372E1,1.1463984E0,2.3567986E1,2.3793883E0,1.6726011E1,6.8419733E0,1.2500421E0,1.1293461E0,1.5040267E1,1.6857442E0,1.3316724E1,1.7235434E0],"tree_param":{"num_deleted":"0","num_feature":"2048","num_nodes":"13","size_leaf_vector":"1"}},{"base_weights":[1.8105541E-1,-4.4352207E-2,5.183815E-1,3.4343276E-2,-2.7453297E-1,1.620908E-1,-0E0,3.4014124E-1,-3.1159532E-1,6.75776E-1,-1.6585582E-1,-9.2039496E-1,1.4910696E-1,-0E0,2.0831014E-1,-6.1263925E-1,1.0057929E-1],"categories":[],"categories_nodes":[],"categories_segments":[],"categories_sizes":[],"default_left":[0,0,0,0,0,0,0,0,0,0,0,0,0,0,0,0,0],"id":28,"left_children":[1,3,5,7,-1,-1,-1,9,11,13,-1,15,-1,-1,-1,-1,-1],"loss_changes":[2.1765456E0,1.7572136E0,1.0792828E0,1.5813062E0,0E0,0E0,0E0,3.0471425E0,4.011173E0,1.0710344E0,0E0,1.087505E1,0E0,0E0,0E0,0E0,0E0],"parents":[2147483647,0,0,1,1,2,2,3,3,7,7,8,8,9,9,11,11],"right_children":[2,4,6,8,-1,-1,-1,10,12,14,-1,16,-1,-1,-1,-1,-1],"split_conditions":[1E0,1E0,1E0,1E0,-2.7453297E-1,1.620908E-1,-0E0,1E0,1E0,1E0,-1.6585582E-1,1E0,1.4910696E-1,-0E0,2.0831014E-1,-6.1263925E-1,1.0057929E-1],"split_indices":[8,1060,389,1365,0,0,0,1075,389,1391,0,1951,0,0,0,0,0],"split_type":[0,0,0,0,0,0,0,0,0,0,0,0,0,0,0,0,0],"sum_hessian":[2.6504362E1,1.5476982E1,1.1027379E1,1.4433622E1,1.0433596E0,8.157007E0,2.8703723E0,8.115597E0,6.318026E0,6.4297285E0,1.6858681E0,4.0522327E0,2.2657933E0,1.5696462E0,4.860082E0,1.787442E0,2.264791E0],"tree_param":{"num_deleted":"0","num_feature":"2048","num_nodes":"17","size_leaf_vector":"1"}},{"base_weights":[-0E0,1.4610492E-1,-3.832392E-1,-5.6902494E-2,1.5063344E-1,-2.3671949E-1,1.7744924E-1,-4.7925842E-1,1.2916869E-1,-3.195109E-3,-3.2700187E-1],"categories":[],"categories_nodes":[],"categories_segments":[],"categories_sizes":[],"default_left":[0,0,0,0,0,0,0,0,0,0,0],"id":29,"left_children":[1,3,-1,5,-1,7,-1,9,-1,-1,-1],"loss_changes":[5.2042403E0,2.3301084E0,0E0,2.064344E0,0E0,2.4538724E0,0E0,3.9243913E0,0E0,0E0,0E0],"parents":[2147483647,0,0,1,1,3,3,5,5,7,7],"right_children":[2,4,-1,6,-1,8,-1,10,-1,-1,-1],"split_conditions":[1E0,1E0,-3.832392E-1,1E0,1.5063344E-1,1E0,1.7744924E-1,1E0,1.2916869E-1,-3.195109E-3,-3.2700187E-1],"split_indices":[1145,283,0,1573,0,1951,0,1152,0,0,0],"split_type":[0,0,0,0,0,0,0,0,0,0,0],"sum_hessian":[2.2279053E1,2.0758747E1,1.5203053E0,1.4520534E1,6.2382135E0,1.2337806E1,2.182727E0,9.802276E0,2.53553E0,6.8964415E0,2.9058347E0],"tree_param":{"num_deleted":"0","num_feature":"2048","num_nodes":"11","size_leaf_vector":"1"}},{"base_weights":[2.3346807E-1,3.3355343E-1,-1.7647591E-1,1.6227786E-1,1.8597E-1,2.2704827E-3,1.5165344E-1,-1.9339927E-1,1.4588743E-1,-1.2826948E-1,9.681631E-2],"categories":[],"categories_nodes":[],"categories_segments":[],"categories_sizes":[],"default_left":[0,0,0,0,0,0,0,0,0,0,0],"id":30,"left_children":[1,3,-1,5,-1,7,-1,9,-1,-1,-1],"loss_changes":[2.2200937E0,1.4007816E0,0E0,1.094343E0,0E0,1.7527845E0,0E0,2.2332792E0,0E0,0E0,0E0],"parents":[2147483647,0,0,1,1,3,3,5,5,7,7],"right_children":[2,4,-1,6,-1,8,-1,10,-1,-1,-1],"split_conditions":[1E0,1E0,-1.7647591E-1,1E0,1.8597E-1,1E0,1.5165344E-1,1E0,1.4588743E-1,-1.2826948E-1,9.681631E-2],"split_indices":[111,1908,0,1656,0,1145,0,1951,0,0,0],"split_type":[0,0,0,0,0,0,0,0,0,0,0],"sum_hessian":[2.278172E1,2.1100628E1,1.6810918E0,1.6133438E1,4.9671893E0,1.2793473E1,3.339965E0,9.509093E0,3.2843804E0,6.2989187E0,3.2101738E0],"tree_param":{"num_deleted":"0","num_feature":"2048","num_nodes":"11","size_leaf_vector":"1"}},{"base_weights":[1.1983902E-1,2.1209514E-1,-2.5933912E-1,8.216129E-2,1.7990148E-1,2.0166162E-1,-2.8520152E-1,-0E0,1.2740283E-1,-5.4856945E-2,1.3592884E-1],"categories":[],"categories_nodes":[],"categories_segments":[],"categories_sizes":[],"default_left":[0,0,0,0,0,0,0,0,0,0,0],"id":31,"left_children":[1,3,-1,5,-1,7,-1,9,-1,-1,-1],"loss_changes":[2.3432612E0,1.2906804E0,0E0,2.5645175E0,0E0,1.2916195E0,0E0,1.4215705E0,0E0,0E0,0E0],"parents":[2147483647,0,0,1,1,3,3,5,5,7,7],"right_children":[2,4,-1,6,-1,8,-1,10,-1,-1,-1],"split_conditions":[1E0,1E0,-2.5933912E-1,1E0,1.7990148E-1,1E0,-2.8520152E-1,1E0,1.2740283E-1,-5.4856945E-2,1.3592884E-1],"split_indices":[1199,678,0,739,0,1773,0,1440,0,0,0],"split_type":[0,0,0,0,0,0,0,0,0,0,0],"sum_hessian":[2.2163748E1,2.1017292E1,1.1464564E0,1.771206E1,3.3052318E0,1.6609238E1,1.1028233E0,1.0295314E1,6.3139234E0,7.6690893E0,2.626225E0],"tree_param":{"num_deleted":"0","num_feature":"2048","num_nodes":"11","size_leaf_vector":"1"}},{"base_weights":[1.5284365E-1,2.7904862E-1,-3.4611332E-1,6.135876E-1,3.0530319E-2,1.7679928E-1,-0E0,-1.950298E-1,1.8773958E-1,3.244337E-1,-6.2273018E-2,-0E0,2.085996E-1],"categories":[],"categories_nodes":[],"categories_segments":[],"categories_sizes":[],"default_left":[0,0,0,0,0,0,0,0,0,0,0,0,0],"id":32,"left_children":[1,3,-1,5,7,-1,-1,-1,9,11,-1,-1,-1],"loss_changes":[4.4236174E0,1.5778298E0,0E0,5.736859E-1,1.6194245E0,0E0,0E0,0E0,7.497717E-1,1.5142331E0,0E0,0E0,0E0],"parents":[2147483647,0,0,1,1,3,3,4,4,8,8,9,9],"right_children":[2,4,-1,6,8,-1,-1,-1,10,12,-1,-1,-1],"split_conditions":[1E0,1E0,-3.4611332E-1,1E0,1E0,1.7679928E-1,-0E0,-1.950298E-1,1E0,1E0,-6.2273018E-2,-0E0,2.085996E-1],"split_indices":[658,935,0,519,1179,0,0,0,1737,1145,0,0,0],"split_type":[0,0,0,0,0,0,0,0,0,0,0,0,0],"sum_hessian":[2.235097E1,2.1094091E1,1.2568789E0,8.349356E0,1.2744735E1,6.3032393E0,2.0461166E0,1.5149816E0,1.12297535E1,9.187707E0,2.0420465E0,6.3173394E0,2.8703675E0],"tree_param":{"num_deleted":"0","num_feature":"2048","num_nodes":"13","size_leaf_vector":"1"}},{"base_weights":[1.6487857E-2,2.5864238E-1,-3.452959E-1,4.4629514E-1,-4.280939E-2,-6.5858793E-1,1.2665446E-1,1.4021055E-1,-1.855225E-2,-9.8358685E-1,1.6506722E-2,-3.8939106E-1,-5.5470716E-2],"categories":[],"categories_nodes":[],"categories_segments":[],"categories_sizes":[],"default_left":[0,0,0,0,0,0,0,0,0,0,0,0,0],"id":33,"left_children":[1,3,5,7,-1,9,-1,-1,-1,11,-1,-1,-1],"loss_changes":[1.5897856E0,1.0540798E0,2.042169E0,8.877444E-1,0E0,1.5784755E0,0E0,0E0,0E0,1.4585099E0,0E0,0E0,0E0],"parents":[2147483647,0,0,1,1,2,2,3,3,5,5,9,9],"right_children":[2,4,6,8,-1,10,-1,-1,-1,12,-1,-1,-1],"split_conditions":[1E0,1E0,1E0,1E0,-4.280939E-2,1E0,1.2665446E-1,1.4021055E-1,-1.855225E-2,1E0,1.6506722E-2,-3.8939106E-1,-5.5470716E-2],"split_indices":[802,389,283,1292,0,1163,0,0,0,1,0,0,0],"split_type":[0,0,0,0,0,0,0,0,0,0,0,0,0],"sum_hessian":[1.7999678E1,1.1307806E1,6.691871E0,8.411772E0,2.8960342E0,5.239257E0,1.4526144E0,6.8651767E0,1.5465955E0,3.8522952E0,1.3869615E0,1.6427069E0,2.2095883E0],"tree_param":{"num_deleted":"0","num_feature":"2048","num_nodes":"13","size_leaf_vector":"1"}},{"base_weights":[8.854362E-2,2.389976E-1,-2.3820351E-1,8.854586E-2,1.9930767E-1,-1.8943171E-1,2.3145965E-1,-1.581436E-2,1.6125672E-1,-5.7495408E-2,1.711717E-1],"categories":[],"categories_nodes":[],"categories_segments":[],"categories_sizes":[],"default_left":[0,0,0,0,0,0,0,0,0,0,0],"id":34,"left_children":[1,3,-1,5,-1,-1,7,9,-1,-1,-1],"loss_changes":[3.2641582E0,1.4304022E0,0E0,1.8749987E0,0E0,0E0,1.792548E0,1.4435958E0,0E0,0E0,0E0],"parents":[2147483647,0,0,1,1,3,3,6,6,7,7],"right_children":[2,4,-1,6,-1,-1,8,10,-1,-1,-1],"split_conditions":[1E0,1E0,-2.3820351E-1,1E0,1.9930767E-1,-1.8943171E-1,1E0,1E0,1.6125672E-1,-5.7495408E-2,1.711717E-1],"split_indices":[1145,1950,0,114,0,0,1951,1453,0,0,0],"split_type":[0,0,0,0,0,0,0,0,0,0,0],"sum_hessian":[2.0274101E1,1.8250404E1,2.0236974E0,1.5275011E1,2.9753933E0,1.6597875E0,1.3615224E1,8.609623E0,5.0056014E0,6.992854E0,1.6167684E0],"tree_param":{"num_deleted":"0","num_feature":"2048","num_nodes":"11","size_leaf_vector":"1"}},{"base_weights":[1.0650451E-1,6.231249E-3,1.9401398E-1,-9.407038E-2,1.2449529E-1,-2.408208E-1,3.585894E-1,-4.256664E-2,-3.42111E-1,1.8065318E-1,-1.434024E-2,-3.4476608E-2,1.4427254E-1],"categories":[],"categories_nodes":[],"categories_segments":[],"categories_sizes":[],"default_left":[0,0,0,0,0,0,0,0,0,0,0,0,0],"id":35,"left_children":[1,3,-1,5,-1,7,9,11,-1,-1,-1,-1,-1],"loss_changes":[1.3886325E0,1.2195909E0,0E0,1.095633E0,0E0,2.7877517E0,8.763519E-1,7.18815E-1,0E0,0E0,0E0,0E0,0E0],"parents":[2147483647,0,0,1,1,3,3,5,5,6,6,7,7],"right_children":[2,4,-1,6,-1,8,10,12,-1,-1,-1,-1,-1],"split_conditions":[1E0,1E0,1.9401398E-1,1E0,1.2449529E-1,1E0,1E0,1E0,-3.42111E-1,1.8065318E-1,-1.434024E-2,-3.4476608E-2,1.4427254E-1],"split_indices":[1840,1518,0,694,0,1019,650,1862,0,0,0,0,0],"split_type":[0,0,0,0,0,0,0,0,0,0,0,0,0],"sum_hessian":[2.2133614E1,2.0011314E1,2.1222978E0,1.6516685E1,3.49463E0,1.3041609E1,3.4750757E0,1.163826E1,1.4033489E0,1.9932834E0,1.4817923E0,1.0562889E1,1.0753704E0],"tree_param":{"num_deleted":"0","num_feature":"2048","num_nodes":"13","size_leaf_vector":"1"}},{"base_weights":[1.4107993E-2,-6.0681496E-2,1.7211927E-1,-2.0274888E-1,5.232258E-1,-2.0344207E-2,-3.924155E-1,-0E0,1.9162051E-1,-1.7562164E-1,1.20813906E-1,-7.5785264E-2,1.6684917E-1],"categories":[],"categories_nodes":[],"categories_segments":[],"categories_sizes":[],"default_left":[0,0,0,0,0,0,0,0,0,0,0,0,0],"id":36,"left_children":[1,3,-1,5,7,9,-1,-1,-1,11,-1,-1,-1],"loss_changes":[1.3669393E0,1.509958E0,0E0,3.811308E0,6.394152E-1,1.143064E0,0E0,0E0,0E0,1.5515375E0,0E0,0E0,0E0],"parents":[2147483647,0,0,1,1,3,3,4,4,5,5,9,9],"right_children":[2,4,-1,6,8,10,-1,-1,-1,12,-1,-1,-1],"split_conditions":[1E0,1E0,1.7211927E-1,1E0,1E0,1E0,-3.924155E-1,-0E0,1.9162051E-1,1E0,1.20813906E-1,-7.5785264E-2,1.6684917E-1],"split_indices":[195,656,0,1145,94,283,0,0,0,1171,0,0,0],"split_type":[0,0,0,0,0,0,0,0,0,0,0,0,0],"sum_hessian":[2.0985224E1,1.8846365E1,2.1388595E0,1.5678424E1,3.1679401E0,1.4342174E1,1.3362507E0,1.0967562E0,2.0711842E0,1.1684964E1,2.6572096E0,1.0393658E1,1.2913064E0],"tree_param":{"num_deleted":"0","num_feature":"2048","num_nodes":"13","size_leaf_vector":"1"}},{"base_weights":[2.3321399E-1,3.0279544E-1,-6.8220325E-2,3.9968404E-1,-6.2335636E-2,-4.9424507E-2,5.241715E-1,1.7116816E-1,-3.101792E-1,-1.4135233E-1,5.7868827E-2,1.5714009E-1,-0E0],"categories":[],"categories_nodes":[],"categories_segments":[],"categories_sizes":[],"default_left":[0,0,0,0,0,0,0,0,0,0,0,0,0],"id":37,"left_children":[1,3,-1,5,7,9,11,-1,-1,-1,-1,-1,-1],"loss_changes":[6.81033E-1,6.8723726E-1,0E0,9.102535E-1,3.4631727E0,5.8461004E-1,1.0358303E0,0E0,0E0,0E0,0E0,0E0,0E0],"parents":[2147483647,0,0,1,1,3,3,4,4,5,5,6,6],"right_children":[2,4,-1,6,8,10,12,-1,-1,-1,-1,-1,-1],"split_conditions":[1E0,1E0,-6.8220325E-2,1E0,1E0,1E0,1E0,1.7116816E-1,-3.101792E-1,-1.4135233E-1,5.7868827E-2,1.5714009E-1,-0E0],"split_indices":[1145,1194,0,294,392,243,13,0,0,0,0,0,0],"split_type":[0,0,0,0,0,0,0,0,0,0,0,0,0],"sum_hessian":[1.7735117E1,1.624454E1,1.490577E0,1.3459829E1,2.7847102E0,2.4356134E0,1.1024216E1,1.6252683E0,1.1594417E0,1.1116937E0,1.3239197E0,8.744156E0,2.2800596E0],"tree_param":{"num_deleted":"0","num_feature":"2048","num_nodes":"13","size_leaf_vector":"1"}},{"base_weights":[1.8372853E-1,2.8388914E-1,-7.920859E-2,4.4022474E-1,-2.1909271E-1,2.9444084E-1,-2.3035727E-1,5.770807E-1,-1.4934444E-1,2.4240475E-2,-1.9494803E-1,-9.658502E-2,1.850065E-1,7.33082E-1,-6.860687E-2,-0E0,1.9021977E-1],"categories":[],"categories_nodes":[],"categories_segments":[],"categories_sizes":[],"default_left":[0,0,0,0,0,0,0,0,0,0,0,0,0,0,0,0,0],"id":38,"left_children":[1,3,5,7,9,11,-1,13,-1,-1,-1,-1,-1,15,-1,-1,-1],"loss_changes":[5.9211624E-1,1.2929374E0,1.9378244E0,1.876451E0,9.0896E-1,1.4053192E0,0E0,1.7036242E0,0E0,0E0,0E0,0E0,0E0,6.61294E-1,0E0,0E0,0E0],"parents":[2147483647,0,0,1,1,2,2,3,3,4,4,5,5,7,7,13,13],"right_children":[2,4,6,8,10,12,-1,14,-1,-1,-1,-1,-1,16,-1,-1,-1],"split_conditions":[1E0,1E0,1E0,1E0,1E0,1E0,-2.3035727E-1,1E0,-1.4934444E-1,2.4240475E-2,-1.9494803E-1,-9.658502E-2,1.850065E-1,1E0,-6.860687E-2,-0E0,1.9021977E-1],"split_indices":[389,13,392,1194,482,488,0,1060,0,0,0,0,0,1724,0,0,0],"split_type":[0,0,0,0,0,0,0,0,0,0,0,0,0,0,0,0,0],"sum_hessian":[1.978921E1,1.5129787E1,4.6594224E0,1.2010093E1,3.1196954E0,3.1846137E0,1.4748087E0,1.0996448E1,1.0136449E0,1.859704E0,1.2599913E0,1.094083E0,2.0905306E0,9.645804E0,1.3506435E0,1.0232009E0,8.622603E0],"tree_param":{"num_deleted":"0","num_feature":"2048","num_nodes":"17","size_leaf_vector":"1"}},{"base_weights":[3.0351464E-2,-1.9583644E-1,4.221175E-1,-0E0,-1.9806518E-1,1.5898924E-1,-3.3528287E-2,3.0667873E-2,-1.9480056E-1],"categories":[],"categories_nodes":[],"categories_segments":[],"categories_sizes":[],"default_left":[0,0,0,0,0,0,0,0,0],"id":39,"left_children":[1,3,5,7,-1,-1,-1,-1,-1],"loss_changes":[1.4587969E0,1.0722736E0,1.1134093E0,1.0157617E0,0E0,0E0,0E0,0E0,0E0],"parents":[2147483647,0,0,1,1,2,2,3,3],"right_children":[2,4,6,8,-1,-1,-1,-1,-1],"split_conditions":[1E0,1E0,1E0,1E0,-1.9806518E-1,1.5898924E-1,-3.3528287E-2,3.0667873E-2,-1.9480056E-1],"split_indices":[8,1503,389,926,0,0,0,0,0],"split_type":[0,0,0,0,0,0,0,0,0],"sum_hessian":[1.5289935E1,9.28517E0,6.004765E0,7.537505E0,1.7476649E0,4.418895E0,1.58587E0,6.4846835E0,1.0528213E0],"tree_param":{"num_deleted":"0","num_feature":"2048","num_nodes":"9","size_leaf_vector":"1"}},{"base_weights":[2.590458E-1,3.8651738E-1,-1.4275704E-1,4.5230985E-1,-2.952008E-2,1.2719983E-1,-0E0],"categories":[],"categories_nodes":[],"categories_segments":[],"categories_sizes":[],"default_left":[0,0,0,0,0,0,0],"id":40,"left_children":[1,3,-1,5,-1,-1,-1],"loss_changes":[1.9144394E0,6.334026E-1,0E0,7.291863E-1,0E0,0E0,0E0],"parents":[2147483647,0,0,1,1,3,3],"right_children":[2,4,-1,6,-1,-1,-1],"split_conditions":[1E0,1E0,-1.4275704E-1,1E0,-2.952008E-2,1.2719983E-1,-0E0],"split_indices":[111,1194,0,1292,0,0,0],"split_type":[0,0,0,0,0,0,0],"sum_hessian":[1.7083157E1,1.531157E1,1.7715862E0,1.41055975E1,1.205973E0,1.19171505E1,2.1884468E0],"tree_param":{"num_deleted":"0","num_feature":"2048","num_nodes":"7","size_leaf_vector":"1"}},{"base_weights":[1.0271309E-1,-7.530154E-2,1.1816636E-1,-2.0040952E-1,9.2867866E-2,-0E0,-4.5122322E-1,-3.3771206E-2,1.4904046E-1,-6.97528E-1,1.0169106E-2,-3.251392E-1,-0E0],"categories":[],"categories_nodes":[],"categories_segments":[],"categories_sizes":[],"default_left":[0,0,0,0,0,0,0,0,0,0,0,0,0],"id":41,"left_children":[1,3,-1,5,-1,7,9,-1,-1,11,-1,-1,-1],"loss_changes":[1.4749649E0,7.047561E-1,0E0,6.208184E-1,0E0,6.491587E-1,8.251679E-1,0E0,0E0,1.8939973E0,0E0,0E0,0E0],"parents":[2147483647,0,0,1,1,3,3,5,5,6,6,9,9],"right_children":[2,4,-1,6,-1,8,10,-1,-1,12,-1,-1,-1],"split_conditions":[1E0,1E0,1.1816636E-1,1E0,9.2867866E-2,1E0,1E0,-3.3771206E-2,1.4904046E-1,1E0,1.0169106E-2,-3.251392E-1,-0E0],"split_indices":[8,1440,0,488,0,270,1951,0,0,1342,0,0,0],"split_type":[0,0,0,0,0,0,0,0,0,0,0,0,0],"sum_hessian":[1.8235796E1,1.231066E1,5.925135E0,1.0339369E1,1.9712921E0,5.4249334E0,4.914435E0,4.306475E0,1.1184583E0,3.6202016E0,1.2942334E0,1.6915661E0,1.9286356E0],"tree_param":{"num_deleted":"0","num_feature":"2048","num_nodes":"13","size_leaf_vector":"1"}},{"base_weights":[6.132938E-2,-4.384289E-2,1.531743E-1,-1.7280123E-1,2.9250281E-2,3.8877067E-1,-1.928391E-1,1.5942498E-1,-1.303402E-2,-4.7282457E-1,9.03579E-2,-1.9398877E-1,4.6191167E-2],"categories":[],"categories_nodes":[],"categories_segments":[],"categories_sizes":[],"default_left":[0,0,0,0,0,0,0,0,0,0,0,0,0],"id":42,"left_children":[1,3,-1,-1,5,7,9,-1,-1,11,-1,-1,-1],"loss_changes":[1.1676546E0,8.8282186E-1,0E0,0E0,9.9984205E-1,8.620784E-1,1.1752161E0,0E0,0E0,1.4593023E0,0E0,0E0,0E0],"parents":[2147483647,0,0,1,1,4,4,5,5,6,6,9,9],"right_children":[2,4,-1,-1,6,8,10,-1,-1,12,-1,-1,-1],"split_conditions":[1E0,1E0,1.531743E-1,-1.7280123E-1,1E0,1E0,1E0,1.5942498E-1,-1.303402E-2,1E0,9.03579E-2,-1.9398877E-1,4.6191167E-2],"split_indices":[1950,114,0,0,544,1075,1951,0,0,754,0,0,0],"split_type":[0,0,0,0,0,0,0,0,0,0,0,0,0],"sum_hessian":[1.5302904E1,1.2773647E1,2.5292573E0,1.396051E0,1.1377596E1,4.7892346E0,6.588361E0,3.1876876E0,1.6015471E0,4.820068E0,1.7682931E0,3.3745918E0,1.445476E0],"tree_param":{"num_deleted":"0","num_feature":"2048","num_nodes":"13","size_leaf_vector":"1"}},{"base_weights":[1.0434187E-1,-1.4865315E-2,1.1943194E-1,-3.5109127E-1,5.212213E-2,-8.9155096E-1,4.645937E-2,-3.3324704E-1,-0E0],"categories":[],"categories_nodes":[],"categories_segments":[],"categories_sizes":[],"default_left":[0,0,0,0,0,0,0,0,0],"id":43,"left_children":[1,3,-1,5,-1,7,-1,-1,-1],"loss_changes":[9.301712E-1,1.0225016E0,0E0,1.910661E0,0E0,1.6999245E0,0E0,0E0,0E0],"parents":[2147483647,0,0,1,1,3,3,5,5],"right_children":[2,4,-1,6,-1,8,-1,-1,-1],"split_conditions":[1E0,1E0,1.1943194E-1,1E0,5.212213E-2,1E0,4.645937E-2,-3.3324704E-1,-0E0],"split_indices":[1908,486,0,1773,0,1157,0,0,0],"split_type":[0,0,0,0,0,0,0,0,0],"sum_hessian":[1.5710024E1,1.1786318E1,3.9237053E0,5.3775644E0,6.408754E0,2.9187415E0,2.458823E0,1.8082783E0,1.1104633E0],"tree_param":{"num_deleted":"0","num_feature":"2048","num_nodes":"9","size_leaf_vector":"1"}},{"base_weights":[2.0299062E-1],"categories":[],"categories_nodes":[],"categories_segments":[],"categories_sizes":[],"default_left":[0],"id":44,"left_children":[-1],"loss_changes":[0E0],"parents":[2147483647],"right_children":[-1],"split_conditions":[4.7018148E-2],"split_indices":[0],"split_type":[0],"sum_hessian":[1.515405E1],"tree_param":{"num_deleted":"0","num_feature":"2048","num_nodes":"1","size_leaf_vector":"1"}},{"base_weights":[7.330315E-2,2.3390889E-1,-1.9989178E-1,-0E0,1.10171184E-1,-0E0,-2.1212734E-1,-4.750558E-2,1.4881222E-1],"categories":[],"categories_nodes":[],"categories_segments":[],"categories_sizes":[],"default_left":[0,0,0,0,0,0,0,0,0],"id":45,"left_children":[1,3,5,7,-1,-1,-1,-1,-1],"loss_changes":[7.273282E-1,6.3731444E-1,8.77216E-1,7.601193E-1,0E0,0E0,0E0,0E0,0E0],"parents":[2147483647,0,0,1,1,2,2,3,3],"right_children":[2,4,6,8,-1,-1,-1,-1,-1],"split_conditions":[1E0,1E0,1E0,1E0,1.10171184E-1,-0E0,-2.1212734E-1,-4.750558E-2,1.4881222E-1],"split_indices":[1075,392,389,1194,0,0,0,0,0],"split_type":[0,0,0,0,0,0,0,0,0],"sum_hessian":[1.5899433E1,1.0712297E1,5.187136E0,5.4691873E0,5.2431097E0,4.100959E0,1.086177E0,4.3057585E0,1.1634289E0],"tree_param":{"num_deleted":"0","num_feature":"2048","num_nodes":"9","size_leaf_vector":"1"}},{"base_weights":[3.410262E-2,1.9646433E-1,-1.6890197E-1,3.256168E-1,-1.7275074E-1,1.4467943E-2,1.3228868E-1,5.7429366E-2,-1.3181676E-1],"categories":[],"categories_nodes":[],"categories_segments":[],"categories_sizes":[],"default_left":[0,0,0,0,0,0,0,0,0],"id":46,"left_children":[1,3,-1,5,-1,7,-1,-1,-1],"loss_changes":[1.6301188E0,1.4104017E0,0E0,6.759995E-1,0E0,7.0744705E-1,0E0,0E0,0E0],"parents":[2147483647,0,0,1,1,3,3,5,5],"right_children":[2,4,-1,6,-1,8,-1,-1,-1],"split_conditions":[1E0,1E0,-1.6890197E-1,1E0,-1.7275074E-1,1E0,1.3228868E-1,5.7429366E-2,-1.3181676E-1],"split_indices":[716,1039,0,34,0,935,0,0,0],"split_type":[0,0,0,0,0,0,0,0,0],"sum_hessian":[1.3952552E1,1.1956765E1,1.9957861E0,1.0915647E1,1.0411191E0,5.4453363E0,5.4703097E0,4.3393674E0,1.1059688E0],"tree_param":{"num_deleted":"0","num_feature":"2048","num_nodes":"9","size_leaf_vector":"1"}},{"base_weights":[3.8454928E-2,-3.3991333E-2,1.6124833E-1,-2.0156153E-1,2.610894E-1,-9.948609E-2,1.8610215E-2,-0E0,1.6302402E-1],"categories":[],"categories_nodes":[],"categories_segments":[],"categories_sizes":[],"default_left":[0,0,0,0,0,0,0,0,0],"id":47,"left_children":[1,3,-1,5,7,-1,-1,-1,-1],"loss_changes":[8.3659065E-1,5.7889104E-1,0E0,6.4416754E-1,5.6679606E-1,0E0,0E0,0E0,0E0],"parents":[2147483647,0,0,1,1,3,3,4,4],"right_children":[2,4,-1,6,8,-1,-1,-1,-1],"split_conditions":[1E0,1E0,1.6124833E-1,1E0,1E0,-9.948609E-2,1.8610215E-2,-0E0,1.6302402E-1],"split_indices":[1440,283,0,563,34,0,0,0,0],"split_type":[0,0,0,0,0,0,0,0,0],"sum_hessian":[1.3135535E1,1.161395E1,1.5215861E0,8.08858E0,3.5253696E0,4.9876804E0,3.1008995E0,2.0833411E0,1.4420284E0],"tree_param":{"num_deleted":"0","num_feature":"2048","num_nodes":"9","size_leaf_vector":"1"}},{"base_weights":[-1.2342096E-1,-2.5393146E-1,1.5633136E-1,-4.3782067E-1,5.9297822E-2,-6.8963766E-1,2.5358472E-2,-4.9584232E-2,1.5793471E-1,3.5451286E-2,-9.903789E-1,-4.8114085E-1,-7.1190175E-4],"categories":[],"categories_nodes":[],"categories_segments":[],"categories_sizes":[],"default_left":[0,0,0,0,0,0,0,0,0,0,0,0,0],"id":48,"left_children":[1,3,-1,5,7,9,-1,-1,-1,-1,11,-1,-1],"loss_changes":[1.2394011E0,7.74789E-1,0E0,1.2640955E0,8.199071E-1,1.7367702E0,0E0,0E0,0E0,0E0,4.2395797E0,0E0,0E0],"parents":[2147483647,0,0,1,1,3,3,4,4,5,5,10,10],"right_children":[2,4,-1,6,8,10,-1,-1,-1,-1,12,-1,-1],"split_conditions":[1E0,1E0,1.5633136E-1,1E0,1E0,1E0,2.5358472E-2,-4.9584232E-2,1.5793471E-1,3.5451286E-2,1E0,-4.8114085E-1,-7.1190175E-4],"split_indices":[855,283,0,881,988,1724,0,0,0,0,563,0,0],"split_type":[0,0,0,0,0,0,0,0,0,0,0,0,0],"sum_hessian":[1.2512072E1,1.11987505E1,1.3133212E0,7.594851E0,3.6038997E0,5.5318217E0,2.0630295E0,2.2742107E0,1.329689E0,1.2251706E0,4.3066506E0,1.793717E0,2.512934E0],"tree_param":{"num_deleted":"0","num_feature":"2048","num_nodes":"13","size_leaf_vector":"1"}},{"base_weights":[1.597331E-1,3.7441334E-1,-8.2475536E-2,-0E0,2.0878416E-1,-3.2252452E-1,1.5188631E-1,-1.3564202E-1,1.4425121E-1,-7.490276E-1,1.23773135E-1,-1.1101186E-1,5.1017005E-2,-3.3624405E-1,-0E0],"categories":[],"categories_nodes":[],"categories_segments":[],"categories_sizes":[],"default_left":[0,0,0,0,0,0,0,0,0,0,0,0,0,0,0],"id":49,"left_children":[1,3,5,7,-1,9,-1,11,-1,13,-1,-1,-1,-1,-1],"loss_changes":[8.7379813E-1,1.4641454E0,1.1155574E0,6.196676E-1,0E0,2.131107E0,0E0,6.372079E-1,0E0,1.8677249E0,0E0,0E0,0E0,0E0,0E0],"parents":[2147483647,0,0,1,1,2,2,3,3,5,5,7,7,9,9],"right_children":[2,4,6,8,-1,10,-1,12,-1,14,-1,-1,-1,-1,-1],"split_conditions":[1E0,1E0,1E0,1E0,2.0878416E-1,1E0,1.5188631E-1,1E0,1.4425121E-1,1E0,1.23773135E-1,-1.1101186E-1,5.1017005E-2,-3.3624405E-1,-0E0],"split_indices":[850,270,1435,890,0,881,0,1908,0,1773,0,0,0,0,0],"split_type":[0,0,0,0,0,0,0,0,0,0,0,0,0,0,0],"sum_hessian":[1.48031845E1,8.429993E0,6.3731923E0,5.3531556E0,3.076837E0,5.202983E0,1.1702092E0,4.1812916E0,1.1718643E0,3.7218778E0,1.4811052E0,2.5104733E0,1.6708182E0,1.717831E0,2.004047E0],"tree_param":{"num_deleted":"0","num_feature":"2048","num_nodes":"15","size_leaf_vector":"1"}},{"base_weights":[-2.1239456E-4,1.164362E-1,-1.350274E-1,2.8996423E-1,-9.1128744E-2,1.0886257E-1,-4.6290625E-2],"categories":[],"categories_nodes":[],"categories_segments":[],"categories_sizes":[],"default_left":[0,0,0,0,0,0,0],"id":50,"left_children":[1,3,-1,5,-1,-1,-1],"loss_changes":[8.49521E-1,7.291451E-1,0E0,6.955468E-1,0E0,0E0,0E0],"parents":[2147483647,0,0,1,1,3,3],"right_children":[2,4,-1,6,-1,-1,-1],"split_conditions":[1E0,1E0,-1.350274E-1,1E0,-9.1128744E-2,1.0886257E-1,-4.6290625E-2],"split_indices":[716,658,0,1737,0,0,0],"split_type":[0,0,0,0,0,0,0],"sum_hessian":[1.0039984E1,8.08871E0,1.951274E0,6.536114E0,1.5525955E0,5.226037E0,1.3100768E0],"tree_param":{"num_deleted":"0","num_feature":"2048","num_nodes":"7","size_leaf_vector":"1"}},{"base_weights":[7.17496E-2,-1.1851009E-3,1.7485267E-1,-1.3751863E-1,1.1560864E-1,6.131109E-2,-4.0000835E-1,-8.05493E-1,-3.3879213E-2,-2.7396426E-1,-0E0,4.201285E-2,-1.7780396E-1],"categories":[],"categories_nodes":[],"categories_segments":[],"categories_sizes":[],"default_left":[0,0,0,0,0,0,0,0,0,0,0,0,0],"id":51,"left_children":[1,3,-1,5,-1,-1,7,9,11,-1,-1,-1,-1],"loss_changes":[8.695227E-1,6.969158E-1,0E0,1.0890381E0,0E0,0E0,6.984204E-1,5.6307137E-1,8.313888E-1,0E0,0E0,0E0,0E0],"parents":[2147483647,0,0,1,1,3,3,6,6,7,7,8,8],"right_children":[2,4,-1,6,-1,-1,8,10,12,-1,-1,-1,-1],"split_conditions":[1E0,1E0,1.7485267E-1,1E0,1.1560864E-1,6.131109E-2,1E0,1E0,1E0,-2.7396426E-1,-0E0,4.201285E-2,-1.7780396E-1],"split_indices":[754,881,0,650,0,0,34,694,222,0,0,0,0],"split_type":[0,0,0,0,0,0,0,0,0,0,0,0,0],"sum_hessian":[1.2770753E1,1.1344781E1,1.4259725E0,9.50219E0,1.8425914E0,3.3081157E0,6.1940737E0,2.4333155E0,3.7607582E0,1.4145571E0,1.0187584E0,2.7234716E0,1.0372866E0],"tree_param":{"num_deleted":"0","num_feature":"2048","num_nodes":"13","size_leaf_vector":"1"}},{"base_weights":[2.6843797E-2,-1.18718974E-1,1.7627634E-1,-3.343633E-1,1.5827256E-1,3.0243855E-3,-6.434489E-1,-0E0,-2.3623583E-1],"categories":[],"categories_nodes":[],"categories_segments":[],"categories_sizes":[],"default_left":[0,0,0,0,0,0,0,0,0],"id":52,"left_children":[1,3,-1,5,-1,-1,7,-1,-1],"loss_changes":[1.6218976E0,1.829498E0,0E0,1.1557084E0,0E0,0E0,1.4174201E0,0E0,0E0],"parents":[2147483647,0,0,1,1,3,3,6,6],"right_children":[2,4,-1,6,-1,-1,8,-1,-1],"split_conditions":[1E0,1E0,1.7627634E-1,1E0,1.5827256E-1,3.0243855E-3,1E0,-0E0,-2.3623583E-1],"split_indices":[841,656,0,935,0,0,1,0,0],"split_type":[0,0,0,0,0,0,0,0,0],"sum_hessian":[1.3003472E1,1.0668762E1,2.33471E0,8.797567E0,1.8711953E0,3.790783E0,5.006784E0,1.782023E0,3.2247612E0],"tree_param":{"num_deleted":"0","num_feature":"2048","num_nodes":"9","size_leaf_vector":"1"}},{"base_weights":[1.8241894E-1,3.927236E-1,-6.992981E-2,1.2316309E-1,-3.633871E-2],"categories":[],"categories_nodes":[],"categories_segments":[],"categories_sizes":[],"default_left":[0,0,0,0,0],"id":53,"left_children":[1,3,-1,-1,-1],"loss_changes":[1.5763924E0,9.652208E-1,0E0,0E0,0E0],"parents":[2147483647,0,0,1,1],"right_children":[2,4,-1,-1,-1],"split_conditions":[1E0,1E0,-6.992981E-2,1.2316309E-1,-3.633871E-2],"split_indices":[826,1292,0,0,0],"split_type":[0,0,0,0,0],"sum_hessian":[1.4743795E1,1.0733074E1,4.0107217E0,9.0002365E0,1.7328374E0],"tree_param":{"num_deleted":"0","num_feature":"2048","num_nodes":"5","size_leaf_vector":"1"}},{"base_weights":[1.8899123E-1,2.9946613E-1,-5.2769627E-2,5.2878886E-1,-0E0,-0E0,1.860619E-1,1.6443446E-1,-5.9504367E-2],"categories":[],"categories_nodes":[],"categories_segments":[],"categories_sizes":[],"default_left":[0,0,0,0,0,0,0,0,0],"id":54,"left_children":[1,3,-1,5,7,-1,-1,-1,-1],"loss_changes":[6.584147E-1,6.309099E-1,0E0,1.0382988E0,1.1990095E0,0E0,0E0,0E0,0E0],"parents":[2147483647,0,0,1,1,3,3,4,4],"right_children":[2,4,-1,6,8,-1,-1,-1,-1],"split_conditions":[1E0,1E0,-5.2769627E-2,1E0,1E0,-0E0,1.860619E-1,1.6443446E-1,-5.9504367E-2],"split_indices":[1911,1329,0,392,392,0,0,0,0],"split_type":[0,0,0,0,0,0,0,0,0],"sum_hessian":[1.3300943E1,1.1121659E1,2.1792839E0,5.675775E0,5.4458847E0,1.7301967E0,3.9455783E0,1.6343565E0,3.811528E0],"tree_param":{"num_deleted":"0","num_feature":"2048","num_nodes":"9","size_leaf_vector":"1"}},{"base_weights":[-0E0],"categories":[],"categories_nodes":[],"categories_segments":[],"categories_sizes":[],"default_left":[0],"id":55,"left_children":[-1],"loss_changes":[0E0],"parents":[2147483647],"right_children":[-1],"split_conditions":[-0E0],"split_indices":[0],"split_type":[0],"sum_hessian":[1.2808994E1],"tree_param":{"num_deleted":"0","num_feature":"2048","num_nodes":"1","size_leaf_vector":"1"}},{"base_weights":[1.6829503E-1,2.6906353E-1,-1.295276E-1,2.9533776E-2,1.7996262E-1,2.6266032E-1,-1.4561635E-1,-5.028472E-2,1.5022114E-1],"categories":[],"categories_nodes":[],"categories_segments":[],"categories_sizes":[],"default_left":[0,0,0,0,0,0,0,0,0],"id":56,"left_children":[1,3,-1,5,-1,7,-1,-1,-1],"loss_changes":[9.201937E-1,1.236681E0,0E0,1.291143E0,0E0,1.461898E0,0E0,0E0,0E0],"parents":[2147483647,0,0,1,1,3,3,5,5],"right_children":[2,4,-1,6,-1,8,-1,-1,-1],"split_conditions":[1E0,1E0,-1.295276E-1,1E0,1.7996262E-1,1E0,-1.4561635E-1,-5.028472E-2,1.5022114E-1],"split_indices":[1039,1908,0,389,0,486,0,0,0],"split_type":[0,0,0,0,0,0,0,0,0],"sum_hessian":[1.3056096E1,1.194384E1,1.112256E0,8.6667385E0,3.277101E0,6.827107E0,1.8396317E0,2.7451653E0,4.0819416E0],"tree_param":{"num_deleted":"0","num_feature":"2048","num_nodes":"9","size_leaf_vector":"1"}},{"base_weights":[7.039114E-2],"categories":[],"categories_nodes":[],"categories_segments":[],"categories_sizes":[],"default_left":[0],"id":57,"left_children":[-1],"loss_changes":[0E0],"parents":[2147483647],"right_children":[-1],"split_conditions":[1.6304502E-2],"split_indices":[0],"split_type":[0],"sum_hessian":[1.2582123E1],"tree_param":{"num_deleted":"0","num_feature":"2048","num_nodes":"1","size_leaf_vector":"1"}},{"base_weights":[9.092642E-2,2.676832E-1,-3.3779427E-2,-0E0,1.8608974E-1],"categories":[],"categories_nodes":[],"categories_segments":[],"categories_sizes":[],"default_left":[0,0,0,0,0],"id":58,"left_children":[1,3,-1,-1,-1],"loss_changes":[5.6291974E-1,8.967251E-1,0E0,0E0,0E0],"parents":[2147483647,0,0,1,1],"right_children":[2,4,-1,-1,-1],"split_conditions":[1E0,1E0,-3.3779427E-2,-0E0,1.8608974E-1],"split_indices":[850,1973,0,0,0],"split_type":[0,0,0,0,0],"sum_hessian":[1.2172931E1,7.6663866E0,4.506544E0,5.6191025E0,2.0472844E0],"tree_param":{"num_deleted":"0","num_feature":"2048","num_nodes":"5","size_leaf_vector":"1"}},{"base_weights":[1.8374245E-1,7.591075E-2,-7.198911E-2],"categories":[],"categories_nodes":[],"categories_segments":[],"categories_sizes":[],"default_left":[0,0,0],"id":59,"left_children":[1,-1,-1],"loss_changes":[8.0107546E-1,0E0,0E0],"parents":[2147483647,0,0],"right_children":[2,-1,-1],"split_conditions":[1E0,7.591075E-2,-7.198911E-2],"split_indices":[13,0,0],"split_type":[0,0,0],"sum_hessian":[1.0652036E1,8.768499E0,1.8835362E0],"tree_param":{"num_deleted":"0","num_feature":"2048","num_nodes":"3","size_leaf_vector":"1"}},{"base_weights":[7.498418E-2,-1.3101438E-1,1.7871213E-1,-0E0,-1.7269467E-1],"categories":[],"categories_nodes":[],"categories_segments":[],"categories_sizes":[],"default_left":[0,0,0,0,0],"id":60,"left_children":[1,3,-1,-1,-1],"loss_changes":[1.8467405E0,6.948587E-1,0E0,0E0,0E0],"parents":[2147483647,0,0,1,1],"right_children":[2,4,-1,-1,-1],"split_conditions":[1E0,1E0,1.7871213E-1,-0E0,-1.7269467E-1],"split_indices":[270,473,0,0,0],"split_type":[0,0,0,0,0],"sum_hessian":[1.1183744E1,8.440645E0,2.7430992E0,7.1404734E0,1.3001721E0],"tree_param":{"num_deleted":"0","num_feature":"2048","num_nodes":"5","size_leaf_vector":"1"}},{"base_weights":[-0E0],"categories":[],"categories_nodes":[],"categories_segments":[],"categories_sizes":[],"default_left":[0],"id":61,"left_children":[-1],"loss_changes":[0E0],"parents":[2147483647],"right_children":[-1],"split_conditions":[-0E0],"split_indices":[0],"split_type":[0],"sum_hessian":[1.1020765E1],"tree_param":{"num_deleted":"0","num_feature":"2048","num_nodes":"1","size_leaf_vector":"1"}},{"base_weights":[-0E0,-3.6088514E-1,3.9575968E-2,-0E0,-2.2717173E-1],"categories":[],"categories_nodes":[],"categories_segments":[],"categories_sizes":[],"default_left":[0,0,0,0,0],"id":62,"left_children":[1,3,-1,-1,-1],"loss_changes":[7.3936707E-1,1.0342078E0,0E0,0E0,0E0],"parents":[2147483647,0,0,1,1],"right_children":[2,4,-1,-1,-1],"split_conditions":[1E0,1E0,3.9575968E-2,-0E0,-2.2717173E-1],"split_indices":[1,988,0,0,0],"split_type":[0,0,0,0,0],"sum_hessian":[1.11306925E1,3.758706E0,7.371986E0,2.362402E0,1.396304E0],"tree_param":{"num_deleted":"0","num_feature":"2048","num_nodes":"5","size_leaf_vector":"1"}},{"base_weights":[-0E0,1.2027208E-1,-1.4743876E-1,-1.22677185E-1,4.3428132E-1,-2.6502056E-2,1.425508E-1],"categories":[],"categories_nodes":[],"categories_segments":[],"categories_sizes":[],"default_left":[0,0,0,0,0,0,0],"id":63,"left_children":[1,3,-1,-1,5,-1,-1],"loss_changes":[7.630496E-1,1.8115456E0,0E0,0E0,7.929934E-1,0E0,0E0],"parents":[2147483647,0,0,1,1,4,4],"right_children":[2,4,-1,-1,6,-1,-1],"split_conditions":[1E0,1E0,-1.4743876E-1,-1.22677185E-1,1E0,-2.6502056E-2,1.425508E-1],"split_indices":[473,1,0,0,114,0,0],"split_type":[0,0,0,0,0,0,0],"sum_hessian":[9.905554E0,8.552588E0,1.352966E0,2.4316869E0,6.1209016E0,1.1351328E0,4.985769E0],"tree_param":{"num_deleted":"0","num_feature":"2048","num_nodes":"7","size_leaf_vector":"1"}},{"base_weights":[-5.2950393E-2,-5.655516E-2,2.4570742E-1,1.2987965E-1,-5.6861993E-2],"categories":[],"categories_nodes":[],"categories_segments":[],"categories_sizes":[],"default_left":[0,0,0,0,0],"id":64,"left_children":[1,-1,3,-1,-1],"loss_changes":[6.262954E-1,0E0,6.9555444E-1,0E0,0E0],"parents":[2147483647,0,0,2,2],"right_children":[2,-1,4,-1,-1],"split_conditions":[1E0,-5.655516E-2,1E0,1.2987965E-1,-5.6861993E-2],"split_indices":[1908,0,1039,0,0],"split_type":[0,0,0,0,0],"sum_hessian":[1.0529538E1,7.0454907E0,3.484047E0,2.4696538E0,1.0143932E0],"tree_param":{"num_deleted":"0","num_feature":"2048","num_nodes":"5","size_leaf_vector":"1"}},{"base_weights":[1.1833899E-2,1.7371708E-1,-2.22753E-1,2.9707928E-3,1.6388607E-1,6.1168797E-2,-9.627425E-2],"categories":[],"categories_nodes":[],"categories_segments":[],"categories_sizes":[],"default_left":[0,0,0,0,0,0,0],"id":65,"left_children":[1,3,-1,5,-1,-1,-1],"loss_changes":[1.4531736E0,6.483495E-1,0E0,8.285555E-1,0E0,0E0,0E0],"parents":[2147483647,0,0,1,1,3,3],"right_children":[2,4,-1,6,-1,-1,-1],"split_conditions":[1E0,1E0,-2.22753E-1,1E0,1.6388607E-1,6.1168797E-2,-9.627425E-2],"split_indices":[1145,1342,0,1152,0,0,0],"split_type":[0,0,0,0,0,0,0],"sum_hessian":[1.0247501E1,9.199098E0,1.048403E0,7.5537024E0,1.6453955E0,5.1351166E0,2.4185863E0],"tree_param":{"num_deleted":"0","num_feature":"2048","num_nodes":"7","size_leaf_vector":"1"}},{"base_weights":[1.53573975E-2,4.9237598E-2,-5.906019E-2],"categories":[],"categories_nodes":[],"categories_segments":[],"categories_sizes":[],"default_left":[0,0,0],"id":66,"left_children":[1,-1,-1],"loss_changes":[6.2256455E-1,0E0,0E0],"parents":[2147483647,0,0],"right_children":[2,-1,-1],"split_conditions":[1E0,4.9237598E-2,-5.906019E-2],"split_indices":[1353,0,0],"split_type":[0,0,0],"sum_hessian":[1.1473705E1,7.291458E0,4.182247E0],"tree_param":{"num_deleted":"0","num_feature":"2048","num_nodes":"3","size_leaf_vector":"1"}},{"base_weights":[1.4136137E-1,3.3213982E-1,-1.11930735E-1,-2.1256125E-2,1.1636881E-1],"categories":[],"categories_nodes":[],"categories_segments":[],"categories_sizes":[],"default_left":[0,0,0,0,0],"id":67,"left_children":[1,3,-1,-1,-1],"loss_changes":[1.3128994E0,7.801042E-1,0E0,0E0,0E0],"parents":[2147483647,0,0,1,1],"right_children":[2,4,-1,-1,-1],"split_conditions":[1E0,1E0,-1.11930735E-1,-2.1256125E-2,1.1636881E-1],"split_indices":[13,294,0,0,0],"split_type":[0,0,0,0,0],"sum_hessian":[1.0882072E1,8.7754135E0,2.1066597E0,2.0470715E0,6.7283416E0],"tree_param":{"num_deleted":"0","num_feature":"2048","num_nodes":"5","size_leaf_vector":"1"}},{"base_weights":[-5.853109E-4],"categories":[],"categories_nodes":[],"categories_segments":[],"categories_sizes":[],"default_left":[0],"id":68,"left_children":[-1],"loss_changes":[0E0],"parents":[2147483647],"right_children":[-1],"split_conditions":[-1.3557392E-4],"split_indices":[0],"split_type":[0],"sum_hessian":[9.923297E0],"tree_param":{"num_deleted":"0","num_feature":"2048","num_nodes":"1","size_leaf_vector":"1"}},{"base_weights":[-7.269988E-2,1.1019993E-2,-2.0586349E-1,-2.7059117E-2,1.13947466E-1],"categories":[],"categories_nodes":[],"categories_segments":[],"categories_sizes":[],"default_left":[0,0,0,0,0],"id":69,"left_children":[1,3,-1,-1,-1],"loss_changes":[9.647599E-1,6.9058084E-1,0E0,0E0,0E0],"parents":[2147483647,0,0,1,1],"right_children":[2,4,-1,-1,-1],"split_conditions":[1E0,1E0,-2.0586349E-1,-2.7059117E-2,1.13947466E-1],"split_indices":[1145,283,0,0,0],"split_type":[0,0,0,0,0],"sum_hessian":[1.008486E1,9.013192E0,1.0716671E0,6.766009E0,2.2471836E0],"tree_param":{"num_deleted":"0","num_feature":"2048","num_nodes":"5","size_leaf_vector":"1"}},{"base_weights":[-1.204479E-2],"categories":[],"categories_nodes":[],"categories_segments":[],"categories_sizes":[],"default_left":[0],"id":70,"left_children":[-1],"loss_changes":[0E0],"parents":[2147483647],"right_children":[-1],"split_conditions":[-2.7899009E-3],"split_indices":[0],"split_type":[0],"sum_hessian":[1.1611098E1],"tree_param":{"num_deleted":"0","num_feature":"2048","num_nodes":"1","size_leaf_vector":"1"}},{"base_weights":[-1.0796846E-2,-1.9789053E-1,7.87021E-2,-4.1564667E-1,8.599044E-2,-6.4341074E-1,2.2717033E-2,-2.268906E-1,-0E0],"categories":[],"categories_nodes":[],"categories_segments":[],"categories_sizes":[],"default_left":[0,0,0,0,0,0,0,0,0],"id":71,"left_children":[1,3,-1,5,-1,7,-1,-1,-1],"loss_changes":[6.443996E-1,9.590193E-1,0E0,8.53359E-1,0E0,1.0214456E0,0E0,0E0,0E0],"parents":[2147483647,0,0,1,1,3,3,5,5],"right_children":[2,4,-1,6,-1,8,-1,-1,-1],"split_conditions":[1E0,1E0,7.87021E-2,1E0,8.599044E-2,1E0,2.2717033E-2,-2.268906E-1,-0E0],"split_indices":[1099,563,0,694,0,389,0,0,0],"split_type":[0,0,0,0,0,0,0,0,0],"sum_hessian":[1.00225115E1,7.1449795E0,2.8775322E0,5.5847874E0,1.5601918E0,4.228921E0,1.3558664E0,2.7655869E0,1.4633343E0],"tree_param":{"num_deleted":"0","num_feature":"2048","num_nodes":"9","size_leaf_vector":"1"}},{"base_weights":[-8.975428E-2,-2.9565996E-1,1.014211E-1,-1.0881285E-1,8.676392E-2],"categories":[],"categories_nodes":[],"categories_segments":[],"categories_sizes":[],"default_left":[0,0,0,0,0],"id":72,"left_children":[1,3,-1,-1,-1],"loss_changes":[1.138294E0,1.0185037E0,0E0,0E0,0E0],"parents":[2147483647,0,0,1,1],"right_children":[2,4,-1,-1,-1],"split_conditions":[1E0,1E0,1.014211E-1,-1.0881285E-1,8.676392E-2],"split_indices":[1908,656,0,0,0],"split_type":[0,0,0,0,0],"sum_hessian":[1.038762E1,7.9423466E0,2.4452736E0,6.7052875E0,1.2370592E0],"tree_param":{"num_deleted":"0","num_feature":"2048","num_nodes":"5","size_leaf_vector":"1"}},{"base_weights":[-3.8638495E-2],"categories":[],"categories_nodes":[],"categories_segments":[],"categories_sizes":[],"default_left":[0],"id":73,"left_children":[-1],"loss_changes":[0E0],"parents":[2147483647],"right_children":[-1],"split_conditions":[-8.949726E-3],"split_indices":[0],"split_type":[0],"sum_hessian":[7.809165E0],"tree_param":{"num_deleted":"0","num_feature":"2048","num_nodes":"1","size_leaf_vector":"1"}},{"base_weights":[9.25232E-2,-4.211312E-3,1.1087586E-1],"categories":[],"categories_nodes":[],"categories_segments":[],"categories_sizes":[],"default_left":[0,0,0],"id":74,"left_children":[1,-1,-1],"loss_changes":[5.5790496E-1,0E0,0E0],"parents":[2147483647,0,0],"right_children":[2,-1,-1],"split_conditions":[1E0,-4.211312E-3,1.1087586E-1],"split_indices":[283,0,0],"split_type":[0,0,0],"sum_hessian":[9.613252E0,7.038837E0,2.5744152E0],"tree_param":{"num_deleted":"0","num_feature":"2048","num_nodes":"3","size_leaf_vector":"1"}},{"base_weights":[-0E0],"categories":[],"categories_nodes":[],"categories_segments":[],"categories_sizes":[],"default_left":[0],"id":75,"left_children":[-1],"loss_changes":[0E0],"parents":[2147483647],"right_children":[-1],"split_conditions":[-0E0],"split_indices":[0],"split_type":[0],"sum_hessian":[1.0740011E1],"tree_param":{"num_deleted":"0","num_feature":"2048","num_nodes":"1","size_leaf_vector":"1"}},{"base_weights":[-2.516461E-2],"categories":[],"categories_nodes":[],"categories_segments":[],"categories_sizes":[],"default_left":[0],"id":76,"left_children":[-1],"loss_changes":[0E0],"parents":[2147483647],"right_children":[-1],"split_conditions":[-5.828808E-3],"split_indices":[0],"split_type":[0],"sum_hessian":[1.1521162E1],"tree_param":{"num_deleted":"0","num_feature":"2048","num_nodes":"1","size_leaf_vector":"1"}},{"base_weights":[6.876602E-2,2.0188767E-1,-1.06241286E-1,1.4037727E-1,-1.3193615E-2],"categories":[],"categories_nodes":[],"categories_segments":[],"categories_sizes":[],"default_left":[0,0,0,0,0],"id":77,"left_children":[1,3,-1,-1,-1],"loss_changes":[7.602634E-1,1.2024784E0,0E0,0E0,0E0],"parents":[2147483647,0,0,1,1],"right_children":[2,4,-1,-1,-1],"split_conditions":[1E0,1E0,-1.06241286E-1,1.4037727E-1,-1.3193615E-2],"split_indices":[1060,1365,0,0,0],"split_type":[0,0,0,0,0],"sum_hessian":[1.1402457E1,9.6579075E0,1.7445494E0,4.101525E0,5.5563827E0],"tree_param":{"num_deleted":"0","num_feature":"2048","num_nodes":"5","size_leaf_vector":"1"}},{"base_weights":[-1.962655E-1,2.5816236E-2,-1.041393E-1],"categories":[],"categories_nodes":[],"categories_segments":[],"categories_sizes":[],"default_left":[0,0,0],"id":78,"left_children":[1,-1,-1],"loss_changes":[8.997973E-1,0E0,0E0],"parents":[2147483647,0,0],"right_children":[2,-1,-1],"split_conditions":[1E0,2.5816236E-2,-1.041393E-1],"split_indices":[544,0,0],"split_type":[0,0,0],"sum_hessian":[9.906723E0,4.0026264E0,5.904096E0],"tree_param":{"num_deleted":"0","num_feature":"2048","num_nodes":"3","size_leaf_vector":"1"}},{"base_weights":[9.311484E-2],"categories":[],"categories_nodes":[],"categories_segments":[],"categories_sizes":[],"default_left":[0],"id":79,"left_children":[-1],"loss_changes":[0E0],"parents":[2147483647],"right_children":[-1],"split_conditions":[2.156793E-2],"split_indices":[0],"split_type":[0],"sum_hessian":[1.1309777E1],"tree_param":{"num_deleted":"0","num_feature":"2048","num_nodes":"1","size_leaf_vector":"1"}},{"base_weights":[-2.856766E-2,-1.5352933E-1,1.3815457E-1,-3.5604277E-1,1.0541233E-1,-5.0034136E-1,3.3381414E-2,-7.5270593E-1,-0E0,-2.6554552E-1,-0E0],"categories":[],"categories_nodes":[],"categories_segments":[],"categories_sizes":[],"default_left":[0,0,0,0,0,0,0,0,0,0,0],"id":80,"left_children":[1,3,-1,5,-1,7,-1,9,-1,-1,-1],"loss_changes":[6.397535E-1,1.0626856E0,0E0,6.199844E-1,0E0,8.817346E-1,0E0,1.2499588E0,0E0,0E0,0E0],"parents":[2147483647,0,0,1,1,3,3,5,5,7,7],"right_children":[2,4,-1,6,-1,8,-1,10,-1,-1,-1],"split_conditions":[1E0,1E0,1.3815457E-1,1E0,1.0541233E-1,1E0,3.3381414E-2,1E0,-0E0,-2.6554552E-1,-0E0],"split_indices":[1950,1951,0,656,0,1070,0,283,0,0,0],"split_type":[0,0,0,0,0,0,0,0,0,0,0],"sum_hessian":[9.391195E0,8.356089E0,1.035106E0,6.7009606E0,1.6551285E0,5.657985E0,1.0429752E0,3.9350758E0,1.7229096E0,2.5237772E0,1.4112984E0],"tree_param":{"num_deleted":"0","num_feature":"2048","num_nodes":"11","size_leaf_vector":"1"}},{"base_weights":[9.7088754E-2,5.6252867E-2,-1.1700394E-1],"categories":[],"categories_nodes":[],"categories_segments":[],"categories_sizes":[],"default_left":[0,0,0],"id":81,"left_children":[1,-1,-1],"loss_changes":[7.383661E-1,0E0,0E0],"parents":[2147483647,0,0],"right_children":[2,-1,-1],"split_conditions":[1E0,5.6252867E-2,-1.1700394E-1],"split_indices":[1194,0,0],"split_type":[0,0,0],"sum_hessian":[8.770994E0,7.5601926E0,1.2108014E0],"tree_param":{"num_deleted":"0","num_feature":"2048","num_nodes":"3","size_leaf_vector":"1"}},{"base_weights":[-0E0],"categories":[],"categories_nodes":[],"categories_segments":[],"categories_sizes":[],"default_left":[0],"id":82,"left_children":[-1],"loss_changes":[0E0],"parents":[2147483647],"right_children":[-1],"split_conditions":[-0E0],"split_indices":[0],"split_type":[0],"sum_hessian":[9.5186615E0],"tree_param":{"num_deleted":"0","num_feature":"2048","num_nodes":"1","size_leaf_vector":"1"}},{"base_weights":[-6.371219E-2],"categories":[],"categories_nodes":[],"categories_segments":[],"categories_sizes":[],"default_left":[0],"id":83,"left_children":[-1],"loss_changes":[0E0],"parents":[2147483647],"right_children":[-1],"split_conditions":[-1.4757475E-2],"split_indices":[0],"split_type":[0],"sum_hessian":[1.197314E1],"tree_param":{"num_deleted":"0","num_feature":"2048","num_nodes":"1","size_leaf_vector":"1"}},{"base_weights":[1.7507704E-1,7.523645E-2,-8.870582E-2],"categories":[],"categories_nodes":[],"categories_segments":[],"categories_sizes":[],"default_left":[0,0,0],"id":84,"left_children":[1,-1,-1],"loss_changes":[9.074364E-1,0E0,0E0],"parents":[2147483647,0,0],"right_children":[2,-1,-1],"split_conditions":[1E0,7.523645E-2,-8.870582E-2],"split_indices":[1060,0,0],"split_type":[0,0,0],"sum_hessian":[1.0524138E1,8.785752E0,1.7383863E0],"tree_param":{"num_deleted":"0","num_feature":"2048","num_nodes":"3","size_leaf_vector":"1"}},{"base_weights":[-0E0],"categories":[],"categories_nodes":[],"categories_segments":[],"categories_sizes":[],"default_left":[0],"id":85,"left_children":[-1],"loss_changes":[0E0],"parents":[2147483647],"right_children":[-1],"split_conditions":[-0E0],"split_indices":[0],"split_type":[0],"sum_hessian":[1.041322E1],"tree_param":{"num_deleted":"0","num_feature":"2048","num_nodes":"1","size_leaf_vector":"1"}},{"base_weights":[-7.7859335E-2],"categories":[],"categories_nodes":[],"categories_segments":[],"categories_sizes":[],"default_left":[0],"id":86,"left_children":[-1],"loss_changes":[0E0],"parents":[2147483647],"right_children":[-1],"split_conditions":[-1.8034339E-2],"split_indices":[0],"split_type":[0],"sum_hessian":[1.0464529E1],"tree_param":{"num_deleted":"0","num_feature":"2048","num_nodes":"1","size_leaf_vector":"1"}},{"base_weights":[-5.6193084E-2],"categories":[],"categories_nodes":[],"categories_segments":[],"categories_sizes":[],"default_left":[0],"id":87,"left_children":[-1],"loss_changes":[0E0],"parents":[2147483647],"right_children":[-1],"split_conditions":[-1.3015847E-2],"split_indices":[0],"split_type":[0],"sum_hessian":[8.875256E0],"tree_param":{"num_deleted":"0","num_feature":"2048","num_nodes":"1","size_leaf_vector":"1"}},{"base_weights":[4.796914E-2],"categories":[],"categories_nodes":[],"categories_segments":[],"categories_sizes":[],"default_left":[0],"id":88,"left_children":[-1],"loss_changes":[0E0],"parents":[2147483647],"right_children":[-1],"split_conditions":[1.1110958E-2],"split_indices":[0],"split_type":[0],"sum_hessian":[9.3887615E0],"tree_param":{"num_deleted":"0","num_feature":"2048","num_nodes":"1","size_leaf_vector":"1"}},{"base_weights":[-0E0,-1.3834792E-1,1.2565358E-1,-6.546394E-2,1.01596884E-1],"categories":[],"categories_nodes":[],"categories_segments":[],"categories_sizes":[],"default_left":[0,0,0,0,0],"id":89,"left_children":[1,3,-1,-1,-1],"loss_changes":[6.570164E-1,6.3869786E-1,0E0,0E0,0E0],"parents":[2147483647,0,0,1,1],"right_children":[2,4,-1,-1,-1],"split_conditions":[1E0,1E0,1.2565358E-1,-6.546394E-2,1.01596884E-1],"split_indices":[1070,117,0,0,0],"split_type":[0,0,0,0,0],"sum_hessian":[9.185886E0,7.684421E0,1.5014654E0,6.6446385E0,1.0397825E0],"tree_param":{"num_deleted":"0","num_feature":"2048","num_nodes":"5","size_leaf_vector":"1"}},{"base_weights":[-8.152954E-2],"categories":[],"categories_nodes":[],"categories_segments":[],"categories_sizes":[],"default_left":[0],"id":90,"left_children":[-1],"loss_changes":[0E0],"parents":[2147483647],"right_children":[-1],"split_conditions":[-1.888446E-2],"split_indices":[0],"split_type":[0],"sum_hessian":[1.0188023E1],"tree_param":{"num_deleted":"0","num_feature":"2048","num_nodes":"1","size_leaf_vector":"1"}},{"base_weights":[-1.02522895E-1,-3.3197343E-1,1.427719E-1,-4.9330327E-1,3.231058E-3,-0E0,-2.1771058E-1],"categories":[],"categories_nodes":[],"categories_segments":[],"categories_sizes":[],"default_left":[0,0,0,0,0,0,0],"id":91,"left_children":[1,3,-1,5,-1,-1,-1],"loss_changes":[1.4503975E0,5.501336E-1,0E0,9.8912024E-1,0E0,0E0,0E0],"parents":[2147483647,0,0,1,1,3,3],"right_children":[2,4,-1,6,-1,-1,-1],"split_conditions":[1E0,1E0,1.427719E-1,1E0,3.231058E-3,-0E0,-2.1771058E-1],"split_indices":[1145,881,0,802,0,0,0],"split_type":[0,0,0,0,0,0,0],"sum_hessian":[8.814446E0,7.0813336E0,1.7331133E0,5.347255E0,1.7340785E0,2.912086E0,2.435169E0],"tree_param":{"num_deleted":"0","num_feature":"2048","num_nodes":"7","size_leaf_vector":"1"}},{"base_weights":[4.19128E-2],"categories":[],"categories_nodes":[],"categories_segments":[],"categories_sizes":[],"default_left":[0],"id":92,"left_children":[-1],"loss_changes":[0E0],"parents":[2147483647],"right_children":[-1],"split_conditions":[9.708145E-3],"split_indices":[0],"split_type":[0],"sum_hessian":[1.0925971E1],"tree_param":{"num_deleted":"0","num_feature":"2048","num_nodes":"1","size_leaf_vector":"1"}},{"base_weights":[2.0673105E-1,-0E0,1.16508305E-1,6.482496E-2,-7.981706E-2],"categories":[],"categories_nodes":[],"categories_segments":[],"categories_sizes":[],"default_left":[0,0,0,0,0],"id":93,"left_children":[1,3,-1,-1,-1],"loss_changes":[5.9778345E-1,6.6362643E-1,0E0,0E0,0E0],"parents":[2147483647,0,0,1,1],"right_children":[2,4,-1,-1,-1],"split_conditions":[1E0,1E0,1.16508305E-1,6.482496E-2,-7.981706E-2],"split_indices":[197,935,0,0,0],"split_type":[0,0,0,0,0],"sum_hessian":[1.0474487E1,6.5229554E0,3.9515314E0,3.8036969E0,2.7192585E0],"tree_param":{"num_deleted":"0","num_feature":"2048","num_nodes":"5","size_leaf_vector":"1"}},{"base_weights":[8.278096E-2,-3.7859716E-2,1.01144455E-1,2.6998485E-2,-1.0620897E-1],"categories":[],"categories_nodes":[],"categories_segments":[],"categories_sizes":[],"default_left":[0,0,0,0,0],"id":94,"left_children":[1,3,-1,-1,-1],"loss_changes":[6.0259354E-1,6.313403E-1,0E0,0E0,0E0],"parents":[2147483647,0,0,1,1],"right_children":[2,4,-1,-1,-1],"split_conditions":[1E0,1E0,1.01144455E-1,2.6998485E-2,-1.0620897E-1],"split_indices":[8,227,0,0,0],"split_type":[0,0,0,0,0],"sum_hessian":[1.1059141E1,7.7708955E0,3.2882457E0,5.2865148E0,2.484381E0],"tree_param":{"num_deleted":"0","num_feature":"2048","num_nodes":"5","size_leaf_vector":"1"}},{"base_weights":[4.138917E-2,1.8964298E-1,-1.555419E-1,3.231978E-4,1.5437336E-1],"categories":[],"categories_nodes":[],"categories_segments":[],"categories_sizes":[],"default_left":[0,0,0,0,0],"id":95,"left_children":[1,3,-1,-1,-1],"loss_changes":[9.614774E-1,6.052587E-1,0E0,0E0,0E0],"parents":[2147483647,0,0,1,1],"right_children":[2,4,-1,-1,-1],"split_conditions":[1E0,1E0,-1.555419E-1,3.231978E-4,1.5437336E-1],"split_indices":[1145,1342,0,0,0],"split_type":[0,0,0,0,0],"sum_hessian":[9.962333E0,8.721589E0,1.2407432E0,6.852445E0,1.8691446E0],"tree_param":{"num_deleted":"0","num_feature":"2048","num_nodes":"5","size_leaf_vector":"1"}},{"base_weights":[-0E0],"categories":[],"categories_nodes":[],"categories_segments":[],"categories_sizes":[],"default_left":[0],"id":96,"left_children":[-1],"loss_changes":[0E0],"parents":[2147483647],"right_children":[-1],"split_conditions":[-0E0],"split_indices":[0],"split_type":[0],"sum_hessian":[9.931303E0],"tree_param":{"num_deleted":"0","num_feature":"2048","num_nodes":"1","size_leaf_vector":"1"}},{"base_weights":[-9.1450075E-3,8.228932E-2,-2.906801E-1,-4.7396863E-1,2.8383303E-2,-2.0029739E-1,-7.5691463E-3],"categories":[],"categories_nodes":[],"categories_segments":[],"categories_sizes":[],"default_left":[0,0,0,0,0,0,0],"id":97,"left_children":[1,-1,3,5,-1,-1,-1],"loss_changes":[1.0785918E0,0E0,6.076334E-1,5.9727407E-1,0E0,0E0,0E0],"parents":[2147483647,0,0,2,2,3,3],"right_children":[2,-1,4,6,-1,-1,-1],"split_conditions":[1E0,8.228932E-2,1E0,1E0,2.8383303E-2,-2.0029739E-1,-7.5691463E-3],"split_indices":[1,0,1162,563,0,0,0],"split_type":[0,0,0,0,0,0,0],"sum_hessian":[1.0262935E1,3.9918766E0,6.271058E0,4.816285E0,1.454773E0,2.0894904E0,2.726795E0],"tree_param":{"num_deleted":"0","num_feature":"2048","num_nodes":"7","size_leaf_vector":"1"}},{"base_weights":[9.572784E-2],"categories":[],"categories_nodes":[],"categories_segments":[],"categories_sizes":[],"default_left":[0],"id":98,"left_children":[-1],"loss_changes":[0E0],"parents":[2147483647],"right_children":[-1],"split_conditions":[2.217317E-2],"split_indices":[0],"split_type":[0],"sum_hessian":[1.0319988E1],"tree_param":{"num_deleted":"0","num_feature":"2048","num_nodes":"1","size_leaf_vector":"1"}},{"base_weights":[-0E0,2.8453328E-2,-1.2445583E-1],"categories":[],"categories_nodes":[],"categories_segments":[],"categories_sizes":[],"default_left":[0,0,0],"id":99,"left_children":[1,-1,-1],"loss_changes":[6.5264726E-1,0E0,0E0],"parents":[2147483647,0,0],"right_children":[2,-1,-1],"split_conditions":[1E0,2.8453328E-2,-1.2445583E-1],"split_indices":[1060,0,0],"split_type":[0,0,0],"sum_hessian":[9.010838E0,7.3636484E0,1.6471896E0],"tree_param":{"num_deleted":"0","num_feature":"2048","num_nodes":"3","size_leaf_vector":"1"}},{"base_weights":[-7.741653E-2],"categories":[],"categories_nodes":[],"categories_segments":[],"categories_sizes":[],"default_left":[0],"id":100,"left_children":[-1],"loss_changes":[0E0],"parents":[2147483647],"right_children":[-1],"split_conditions":[-1.7931774E-2],"split_indices":[0],"split_type":[0],"sum_hessian":[1.0047328E1],"tree_param":{"num_deleted":"0","num_feature":"2048","num_nodes":"1","size_leaf_vector":"1"}},{"base_weights":[9.969818E-2,5.0610483E-2,-1.0421181E-1],"categories":[],"categories_nodes":[],"categories_segments":[],"categories_sizes":[],"default_left":[0,0,0],"id":101,"left_children":[1,-1,-1],"loss_changes":[6.1932063E-1,0E0,0E0],"parents":[2147483647,0,0],"right_children":[2,-1,-1],"split_conditions":[1E0,5.0610483E-2,-1.0421181E-1],"split_indices":[526,0,0],"split_type":[0,0,0],"sum_hessian":[9.985733E0,8.75957E0,1.2261631E0],"tree_param":{"num_deleted":"0","num_feature":"2048","num_nodes":"3","size_leaf_vector":"1"}},{"base_weights":[1.223248E-2],"categories":[],"categories_nodes":[],"categories_segments":[],"categories_sizes":[],"default_left":[0],"id":102,"left_children":[-1],"loss_changes":[0E0],"parents":[2147483647],"right_children":[-1],"split_conditions":[2.833375E-3],"split_indices":[0],"split_type":[0],"sum_hessian":[9.048414E0],"tree_param":{"num_deleted":"0","num_feature":"2048","num_nodes":"1","size_leaf_vector":"1"}},{"base_weights":[-0E0,1.0339997E-1,-2.3428825E-1,-6.0362375E-1,1.5101703E-1,-0E0,-2.5085846E-1],"categories":[],"categories_nodes":[],"categories_segments":[],"categories_sizes":[],"default_left":[0,0,0,0,0,0,0],"id":103,"left_children":[1,-1,3,5,-1,-1,-1],"loss_changes":[8.49674E-1,0E0,1.7421536E0,1.0664927E0,0E0,0E0,0E0],"parents":[2147483647,0,0,2,2,3,3],"right_children":[2,-1,4,6,-1,-1,-1],"split_conditions":[1E0,1.0339997E-1,1E0,1E0,1.5101703E-1,-0E0,-2.5085846E-1],"split_indices":[935,0,841,1,0,0,0],"split_type":[0,0,0,0,0,0,0],"sum_hessian":[7.527986E0,2.6404634E0,4.8875227E0,3.733561E0,1.1539617E0,1.8142587E0,1.9193025E0],"tree_param":{"num_deleted":"0","num_feature":"2048","num_nodes":"7","size_leaf_vector":"1"}},{"base_weights":[1.5456221E-2],"categories":[],"categories_nodes":[],"categories_segments":[],"categories_sizes":[],"default_left":[0],"id":104,"left_children":[-1],"loss_changes":[0E0],"parents":[2147483647],"right_children":[-1],"split_conditions":[3.580081E-3],"split_indices":[0],"split_type":[0],"sum_hessian":[8.09044E0],"tree_param":{"num_deleted":"0","num_feature":"2048","num_nodes":"1","size_leaf_vector":"1"}},{"base_weights":[7.469532E-2,-2.7634334E-2,1.2675375E-1],"categories":[],"categories_nodes":[],"categories_segments":[],"categories_sizes":[],"default_left":[0,0,0],"id":105,"left_children":[1,-1,-1],"loss_changes":[1.0771396E0,0E0,0E0],"parents":[2147483647,0,0],"right_children":[2,-1,-1],"split_conditions":[1E0,-2.7634334E-2,1.2675375E-1],"split_indices":[8,0,0],"split_type":[0,0,0],"sum_hessian":[1.0001772E1,6.7634606E0,3.2383118E0],"tree_param":{"num_deleted":"0","num_feature":"2048","num_nodes":"3","size_leaf_vector":"1"}},{"base_weights":[-5.5728152E-2,-4.1633406E-1,5.1744826E-2,-8.336996E-3,-2.1468665E-1],"categories":[],"categories_nodes":[],"categories_segments":[],"categories_sizes":[],"default_left":[0,0,0,0,0],"id":106,"left_children":[1,3,-1,-1,-1],"loss_changes":[1.0946527E0,6.69594E-1,0E0,0E0,0E0],"parents":[2147483647,0,0,1,1],"right_children":[2,4,-1,-1,-1],"split_conditions":[1E0,1E0,5.1744826E-2,-8.336996E-3,-2.1468665E-1],"split_indices":[118,850,0,0,0],"split_type":[0,0,0,0,0],"sum_hessian":[9.8923645E0,4.7304745E0,5.1618905E0,3.1750643E0,1.5554101E0],"tree_param":{"num_deleted":"0","num_feature":"2048","num_nodes":"5","size_leaf_vector":"1"}},{"base_weights":[-0E0,-5.1238015E-2,8.76943E-2],"categories":[],"categories_nodes":[],"categories_segments":[],"categories_sizes":[],"default_left":[0,0,0],"id":107,"left_children":[1,-1,-1],"loss_changes":[7.359376E-1,0E0,0E0],"parents":[2147483647,0,0],"right_children":[2,-1,-1],"split_conditions":[1E0,-5.1238015E-2,8.76943E-2],"split_indices":[1908,0,0],"split_type":[0,0,0],"sum_hessian":[8.70635E0,5.8659816E0,2.8403683E0],"tree_param":{"num_deleted":"0","num_feature":"2048","num_nodes":"3","size_leaf_vector":"1"}},{"base_weights":[2.1994175E-1,3.380128E-1,-7.756156E-2,1.0470426E-1,-5.5278387E-2],"categories":[],"categories_nodes":[],"categories_segments":[],"categories_sizes":[],"default_left":[0,0,0,0,0],"id":108,"left_children":[1,3,-1,-1,-1],"loss_changes":[8.051007E-1,7.67491E-1,0E0,0E0,0E0],"parents":[2147483647,0,0,1,1],"right_children":[2,4,-1,-1,-1],"split_conditions":[1E0,1E0,-7.756156E-2,1.0470426E-1,-5.5278387E-2],"split_indices":[1292,1194,0,0,0],"split_type":[0,0,0,0,0],"sum_hessian":[1.1683903E1,1.0141814E1,1.542089E0,8.933561E0,1.2082525E0],"tree_param":{"num_deleted":"0","num_feature":"2048","num_nodes":"5","size_leaf_vector":"1"}},{"base_weights":[-0E0],"categories":[],"categories_nodes":[],"categories_segments":[],"categories_sizes":[],"default_left":[0],"id":109,"left_children":[-1],"loss_changes":[0E0],"parents":[2147483647],"right_children":[-1],"split_conditions":[-0E0],"split_indices":[0],"split_type":[0],"sum_hessian":[8.681908E0],"tree_param":{"num_deleted":"0","num_feature":"2048","num_nodes":"1","size_leaf_vector":"1"}},{"base_weights":[-0E0],"categories":[],"categories_nodes":[],"categories_segments":[],"categories_sizes":[],"default_left":[0],"id":110,"left_children":[-1],"loss_changes":[0E0],"parents":[2147483647],"right_children":[-1],"split_conditions":[-0E0],"split_indices":[0],"split_type":[0],"sum_hessian":[9.67411E0],"tree_param":{"num_deleted":"0","num_feature":"2048","num_nodes":"1","size_leaf_vector":"1"}},{"base_weights":[-2.9222613E-2],"categories":[],"categories_nodes":[],"categories_segments":[],"categories_sizes":[],"default_left":[0],"id":111,"left_children":[-1],"loss_changes":[0E0],"parents":[2147483647],"right_children":[-1],"split_conditions":[-6.768752E-3],"split_indices":[0],"split_type":[0],"sum_hessian":[1.0206139E1],"tree_param":{"num_deleted":"0","num_feature":"2048","num_nodes":"1","size_leaf_vector":"1"}},{"base_weights":[-0E0,-9.895627E-2,8.3809756E-2],"categories":[],"categories_nodes":[],"categories_segments":[],"categories_sizes":[],"default_left":[0,0,0],"id":112,"left_children":[1,-1,-1],"loss_changes":[1.5428498E0,0E0,0E0],"parents":[2147483647,0,0],"right_children":[2,-1,-1],"split_conditions":[1E0,-9.895627E-2,8.3809756E-2],"split_indices":[486,0,0],"split_type":[0,0,0],"sum_hessian":[9.657597E0,4.07749E0,5.5801067E0],"tree_param":{"num_deleted":"0","num_feature":"2048","num_nodes":"3","size_leaf_vector":"1"}},{"base_weights":[-2.01003E-2],"categories":[],"categories_nodes":[],"categories_segments":[],"categories_sizes":[],"default_left":[0],"id":113,"left_children":[-1],"loss_changes":[0E0],"parents":[2147483647],"right_children":[-1],"split_conditions":[-4.655776E-3],"split_indices":[0],"split_type":[0],"sum_hessian":[8.803129E0],"tree_param":{"num_deleted":"0","num_feature":"2048","num_nodes":"1","size_leaf_vector":"1"}},{"base_weights":[-1.621269E-1,-4.4356167E-1,4.4956803E-2,-1.8810526E-1,4.0608402E-2],"categories":[],"categories_nodes":[],"categories_segments":[],"categories_sizes":[],"default_left":[0,0,0,0,0],"id":114,"left_children":[1,3,-1,-1,-1],"loss_changes":[8.9469767E-1,1.3590765E0,0E0,0E0,0E0],"parents":[2147483647,0,0,1,1],"right_children":[2,4,-1,-1,-1],"split_conditions":[1E0,1E0,4.4956803E-2,-1.8810526E-1,4.0608402E-2],"split_indices":[563,8,0,0,0],"split_type":[0,0,0,0,0],"sum_hessian":[7.7871146E0,4.7827983E0,3.004316E0,3.2537618E0,1.5290368E0],"tree_param":{"num_deleted":"0","num_feature":"2048","num_nodes":"5","size_leaf_vector":"1"}},{"base_weights":[6.48978E-2],"categories":[],"categories_nodes":[],"categories_segments":[],"categories_sizes":[],"default_left":[0],"id":115,"left_children":[-1],"loss_changes":[0E0],"parents":[2147483647],"right_children":[-1],"split_conditions":[1.5032095E-2],"split_indices":[0],"split_type":[0],"sum_hessian":[9.619275E0],"tree_param":{"num_deleted":"0","num_feature":"2048","num_nodes":"1","size_leaf_vector":"1"}},{"base_weights":[4.028744E-2],"categories":[],"categories_nodes":[],"categories_segments":[],"categories_sizes":[],"default_left":[0],"id":116,"left_children":[-1],"loss_changes":[0E0],"parents":[2147483647],"right_children":[-1],"split_conditions":[9.331667E-3],"split_indices":[0],"split_type":[0],"sum_hessian":[1.003435E1],"tree_param":{"num_deleted":"0","num_feature":"2048","num_nodes":"1","size_leaf_vector":"1"}},{"base_weights":[6.378186E-2,-5.5914085E-2,1.2480918E-1],"categories":[],"categories_nodes":[],"categories_segments":[],"categories_sizes":[],"default_left":[0,0,0],"id":117,"left_children":[1,-1,-1],"loss_changes":[1.4794909E0,0E0,0E0],"parents":[2147483647,0,0],"right_children":[2,-1,-1],"split_conditions":[1E0,-5.5914085E-2,1.2480918E-1],"split_indices":[118,0,0],"split_type":[0,0,0],"sum_hessian":[9.1881E0,5.281463E0,3.906637E0],"tree_param":{"num_deleted":"0","num_feature":"2048","num_nodes":"3","size_leaf_vector":"1"}},{"base_weights":[1.0253427E-1],"categories":[],"categories_nodes":[],"categories_segments":[],"categories_sizes":[],"default_left":[0],"id":118,"left_children":[-1],"loss_changes":[0E0],"parents":[2147483647],"right_children":[-1],"split_conditions":[2.3749726E-2],"split_indices":[0],"split_type":[0],"sum_hessian":[9.0310135E0],"tree_param":{"num_deleted":"0","num_feature":"2048","num_nodes":"1","size_leaf_vector":"1"}},{"base_weights":[-5.947951E-2],"categories":[],"categories_nodes":[],"categories_segments":[],"categories_sizes":[],"default_left":[0],"id":119,"left_children":[-1],"loss_changes":[0E0],"parents":[2147483647],"right_children":[-1],"split_conditions":[-1.3777072E-2],"split_indices":[0],"split_type":[0],"sum_hessian":[9.624104E0],"tree_param":{"num_deleted":"0","num_feature":"2048","num_nodes":"1","size_leaf_vector":"1"}},{"base_weights":[7.4254565E-2,-2.6285486E-2,1.2816323E-1],"categories":[],"categories_nodes":[],"categories_segments":[],"categories_sizes":[],"default_left":[0,0,0],"id":120,"left_children":[1,-1,-1],"loss_changes":[1.0145708E0,0E0,0E0],"parents":[2147483647,0,0],"right_children":[2,-1,-1],"split_conditions":[1E0,-2.6285486E-2,1.2816323E-1],"split_indices":[1908,0,0],"split_type":[0,0,0],"sum_hessian":[9.470194E0,6.480801E0,2.9893928E0],"tree_param":{"num_deleted":"0","num_feature":"2048","num_nodes":"3","size_leaf_vector":"1"}},{"base_weights":[9.3482904E-2],"categories":[],"categories_nodes":[],"categories_segments":[],"categories_sizes":[],"default_left":[0],"id":121,"left_children":[-1],"loss_changes":[0E0],"parents":[2147483647],"right_children":[-1],"split_conditions":[2.1653183E-2],"split_indices":[0],"split_type":[0],"sum_hessian":[9.779879E0],"tree_param":{"num_deleted":"0","num_feature":"2048","num_nodes":"1","size_leaf_vector":"1"}},{"base_weights":[-1.8460872E-2],"categories":[],"categories_nodes":[],"categories_segments":[],"categories_sizes":[],"default_left":[0],"id":122,"left_children":[-1],"loss_changes":[0E0],"parents":[2147483647],"right_children":[-1],"split_conditions":[-4.27604E-3],"split_indices":[0],"split_type":[0],"sum_hessian":[1.1586676E1],"tree_param":{"num_deleted":"0","num_feature":"2048","num_nodes":"1","size_leaf_vector":"1"}},{"base_weights":[-7.522964E-2],"categories":[],"categories_nodes":[],"categories_segments":[],"categories_sizes":[],"default_left":[0],"id":123,"left_children":[-1],"loss_changes":[0E0],"parents":[2147483647],"right_children":[-1],"split_conditions":[-1.742523E-2],"split_indices":[0],"split_type":[0],"sum_hessian":[8.564842E0],"tree_param":{"num_deleted":"0","num_feature":"2048","num_nodes":"1","size_leaf_vector":"1"}},{"base_weights":[9.278067E-2,8.335749E-2,-3.445046E-2],"categories":[],"categories_nodes":[],"categories_segments":[],"categories_sizes":[],"default_left":[0,0,0],"id":124,"left_children":[1,-1,-1],"loss_changes":[6.4131266E-1,0E0,0E0],"parents":[2147483647,0,0],"right_children":[2,-1,-1],"split_conditions":[1E0,8.335749E-2,-3.445046E-2],"split_indices":[1152,0,0],"split_type":[0,0,0],"sum_hessian":[8.579255E0,4.602972E0,3.9762833E0],"tree_param":{"num_deleted":"0","num_feature":"2048","num_nodes":"3","size_leaf_vector":"1"}},{"base_weights":[-0E0],"categories":[],"categories_nodes":[],"categories_segments":[],"categories_sizes":[],"default_left":[0],"id":125,"left_children":[-1],"loss_changes":[0E0],"parents":[2147483647],"right_children":[-1],"split_conditions":[-0E0],"split_indices":[0],"split_type":[0],"sum_hessian":[1.084914E1],"tree_param":{"num_deleted":"0","num_feature":"2048","num_nodes":"1","size_leaf_vector":"1"}},{"base_weights":[-0E0],"categories":[],"categories_nodes":[],"categories_segments":[],"categories_sizes":[],"default_left":[0],"id":126,"left_children":[-1],"loss_changes":[0E0],"parents":[2147483647],"right_children":[-1],"split_conditions":[-0E0],"split_indices":[0],"split_type":[0],"sum_hessian":[9.666219E0],"tree_param":{"num_deleted":"0","num_feature":"2048","num_nodes":"1","size_leaf_vector":"1"}},{"base_weights":[-0E0],"categories":[],"categories_nodes":[],"categories_segments":[],"categories_sizes":[],"default_left":[0],"id":127,"left_children":[-1],"loss_changes":[0E0],"parents":[2147483647],"right_children":[-1],"split_conditions":[-0E0],"split_indices":[0],"split_type":[0],"sum_hessian":[9.484787E0],"tree_param":{"num_deleted":"0","num_feature":"2048","num_nodes":"1","size_leaf_vector":"1"}},{"base_weights":[-3.948066E-2,1.9661354E-2,-1.5250838E-1],"categories":[],"categories_nodes":[],"categories_segments":[],"categories_sizes":[],"default_left":[0,0,0],"id":128,"left_children":[1,-1,-1],"loss_changes":[8.071672E-1,0E0,0E0],"parents":[2147483647,0,0],"right_children":[2,-1,-1],"split_conditions":[1E0,1.9661354E-2,-1.5250838E-1],"split_indices":[389,0,0],"split_type":[0,0,0],"sum_hessian":[7.914566E0,6.3497715E0,1.5647945E0],"tree_param":{"num_deleted":"0","num_feature":"2048","num_nodes":"3","size_leaf_vector":"1"}},{"base_weights":[7.3845394E-2],"categories":[],"categories_nodes":[],"categories_segments":[],"categories_sizes":[],"default_left":[0],"id":129,"left_children":[-1],"loss_changes":[0E0],"parents":[2147483647],"right_children":[-1],"split_conditions":[1.7104601E-2],"split_indices":[0],"split_type":[0],"sum_hessian":[9.981842E0],"tree_param":{"num_deleted":"0","num_feature":"2048","num_nodes":"1","size_leaf_vector":"1"}}]},"name":"gbtree"},"learner_model_param":{"base_score":"5E-1","boost_from_average":"0","num_class":"0","num_feature":"2048","num_target":"1"},"objective":{"name":"binary:logistic","reg_loss_param":{"scale_pos_weight":"21.1708508"}}},"version":[2,0,3]}