{"learner":{"attributes":{"best_iteration":"347","best_score":"0.07569916103651764","scikit_learn":"{\"_estimator_type\": \"classifier\"}"},"feature_names":[],"feature_types":[],"gradient_booster":{"model":{"gbtree_model_param":{"num_parallel_tree":"1","num_trees":"363"},"iteration_indptr":[0,1,2,3,4,5,6,7,8,9,10,11,12,13,14,15,16,17,18,19,20,21,22,23,24,25,26,27,28,29,30,31,32,33,34,35,36,37,38,39,40,41,42,43,44,45,46,47,48,49,50,51,52,53,54,55,56,57,58,59,60,61,62,63,64,65,66,67,68,69,70,71,72,73,74,75,76,77,78,79,80,81,82,83,84,85,86,87,88,89,90,91,92,93,94,95,96,97,98,99,100,101,102,103,104,105,106,107,108,109,110,111,112,113,114,115,116,117,118,119,120,121,122,123,124,125,126,127,128,129,130,131,132,133,134,135,136,137,138,139,140,141,142,143,144,145,146,147,148,149,150,151,152,153,154,155,156,157,158,159,160,161,162,163,164,165,166,167,168,169,170,171,172,173,174,175,176,177,178,179,180,181,182,183,184,185,186,187,188,189,190,191,192,193,194,195,196,197,198,199,200,201,202,203,204,205,206,207,208,209,210,211,212,213,214,215,216,217,218,219,220,221,222,223,224,225,226,227,228,229,230,231,232,233,234,235,236,237,238,239,240,241,242,243,244,245,246,247,248,249,250,251,252,253,254,255,256,257,258,259,260,261,262,263,264,265,266,267,268,269,270,271,272,273,274,275,276,277,278,279,280,281,282,283,284,285,286,287,288,289,290,291,292,293,294,295,296,297,298,299,300,301,302,303,304,305,306,307,308,309,310,311,312,313,314,315,316,317,318,319,320,321,322,323,324,325,326,327,328,329,330,331,332,333,334,335,336,337,338,339,340,341,342,343,344,345,346,347,348,349,350,351,352,353,354,355,356,357,358,359,360,361,362,363],"tree_info":[0,0,0,0,0,0,0,0,0,0,0,0,0,0,0,0,0,0,0,0,0,0,0,0,0,0,0,0,0,0,0,0,0,0,0,0,0,0,0,0,0,0,0,0,0,0,0,0,0,0,0,0,0,0,0,0,0,0,0,0,0,0,0,0,0,0,0,0,0,0,0,0,0,0,0,0,0,0,0,0,0,0,0,0,0,0,0,0,0,0,0,0,0,0,0,0,0,0,0,0,0,0,0,0,0,0,0,0,0,0,0,0,0,0,0,0,0,0,0,0,0,0,0,0,0,0,0,0,0,0,0,0,0,0,0,0,0,0,0,0,0,0,0,0,0,0,0,0,0,0,0,0,0,0,0,0,0,0,0,0,0,0,0,0,0,0,0,0,0,0,0,0,0,0,0,0,0,0,0,0,0,0,0,0,0,0,0,0,0,0,0,0,0,0,0,0,0,0,0,0,0,0,0,0,0,0,0,0,0,0,0,0,0,0,0,0,0,0,0,0,0,0,0,0,0,0,0,0,0,0,0,0,0,0,0,0,0,0,0,0,0,0,0,0,0,0,0,0,0,0,0,0,0,0,0,0,0,0,0,0,0,0,0,0,0,0,0,0,0,0,0,0,0,0,0,0,0,0,0,0,0,0,0,0,0,0,0,0,0,0,0,0,0,0,0,0,0,0,0,0,0,0,0,0,0,0,0,0,0,0,0,0,0,0,0,0,0,0,0,0,0,0,0,0,0,0,0,0,0,0,0,0,0,0,0,0,0,0,0,0,0,0,0,0,0,0,0,0,0,0,0,0,0,0,0,0,0,0,0,0,0,0,0],"trees":[{"base_weights":[1.5276897E0,1.5600144E0,-1.5115847E-1,1.348671E0,1.929989E0,1.5092093E0,1.6763093E-1,1.654353E-1,7.0469424E-2,1.5743512E0,-9.886252E-1,-3.4568056E-1,1.6012694E-1,1.6178273E0,-7.807182E-2,5.482406E-2,-1.520465E-1,-9.1920334E-1,1.3223687E-1,1.6547635E0,2.7541816E-1,4.5689728E-2,-1.323355E-1,-1.5973659E0,1.0136408E0,2.3362534E-2,1.4369018E-1,-3.1730235E-2,1.016936E-1,-1.6381584E-1,1.4387307E-2,-0E0,1.4225203E-1],"categories":[],"categories_nodes":[],"categories_segments":[],"categories_sizes":[],"default_left":[0,0,0,0,0,0,0,0,0,0,0,0,0,0,0,0,0,0,0,0,0,0,0,0,0,0,0,0,0,0,0,0,0],"id":0,"left_children":[1,3,-1,5,7,9,11,-1,-1,13,15,17,-1,19,21,-1,-1,23,-1,25,27,-1,-1,29,31,-1,-1,-1,-1,-1,-1,-1,-1],"loss_changes":[5.6391724E1,3.7805786E1,0E0,6.1728516E1,1.9785156E0,4.8148376E1,3.6861095E1,0E0,0E0,2.1490784E1,1.0566434E1,3.3743412E1,0E0,1.23793335E1,7.340418E0,0E0,0E0,3.2489418E1,0E0,1.3159668E1,5.5403056E0,0E0,0E0,1.2025135E1,3.073556E0,0E0,0E0,0E0,0E0,0E0,0E0,0E0,0E0],"parents":[2147483647,0,0,1,1,3,3,4,4,5,5,6,6,9,9,10,10,11,11,13,13,14,14,17,17,19,19,20,20,23,23,24,24],"right_children":[2,4,-1,6,8,10,12,-1,-1,14,16,18,-1,20,22,-1,-1,24,-1,26,28,-1,-1,30,32,-1,-1,-1,-1,-1,-1,-1,-1],"split_conditions":[1E0,1E0,-1.5115847E-1,1E0,1E0,1E0,1E0,1.654353E-1,7.0469424E-2,1E0,1E0,1E0,1.6012694E-1,1E0,1E0,5.482406E-2,-1.520465E-1,1E0,1.3223687E-1,1E0,1E0,4.5689728E-2,-1.323355E-1,1E0,1E0,2.3362534E-2,1.4369018E-1,-3.1730235E-2,1.016936E-1,-1.6381584E-1,1.4387307E-2,-0E0,1.4225203E-1],"split_indices":[597,502,0,102,1607,831,1616,0,0,771,1602,1989,0,1563,1476,0,0,1634,0,1152,457,0,0,1440,1984,0,0,0,0,0,0,0,0],"split_type":[0,0,0,0,0,0,0,0,0,0,0,0,0,0,0,0,0,0,0,0,0,0,0,0,0,0,0,0,0,0,0,0,0],"sum_hessian":[5.2292554E2,5.1817554E2,4.75E0,3.3154703E2,1.8662854E2,2.9132437E2,4.0222645E1,1.824896E2,4.1389494E0,2.842549E2,7.0694747E0,3.0805798E1,9.416848E0,2.7736597E2,6.8889494E0,2.0694747E0,5E0,2.4027899E1,6.777899E0,2.6940753E2,7.958424E0,4.6389494E0,2.25E0,1.8069475E1,5.958424E0,7.958424E0,2.614491E2,4.3194747E0,3.6389494E0,1.55E1,2.5694747E0,2.8194747E0,3.1389494E0],"tree_param":{"num_deleted":"0","num_feature":"2048","num_nodes":"33","size_leaf_vector":"1"}},{"base_weights":[1.4258341E0,1.4583416E0,-1.4131272E-1,1.1599699E0,1.6799878E0,1.2435055E0,-3.163178E-1,1.6979128E0,-0E0,1.2867082E0,-4.9307436E-1,-1.077412E0,9.878912E-2,1.7346284E0,1.0062433E0,9.222342E-1,1.5472164E0,-1.261396E-1,2.9312208E-2,-1.5196256E-1,3.6111824E-2,1.747892E0,1.7669115E-3,-3.1536426E-2,1.5435676E-1,1.442918E-1,1.5341665E0,1.6058933E0,-7.328572E-3,1.7578487E0,2.0408046E-2,-4.3651274E-1,4.8513036E-2,-1.6601255E-2,1.2627758E-1,-0E0,1.4003153E-1,1.4124896E-1,-8.697654E-3,1.4996044E-1,2.1531621E-2,-1.23737745E-1,3.6035854E-2],"categories":[],"categories_nodes":[],"categories_segments":[],"categories_sizes":[],"default_left":[0,0,0,0,0,0,0,0,0,0,0,0,0,0,0,0,0,0,0,0,0,0,0,0,0,0,0,0,0,0,0,0,0,0,0,0,0,0,0,0,0,0,0],"id":1,"left_children":[1,3,-1,5,7,9,11,13,-1,15,17,19,-1,21,23,25,27,-1,-1,-1,-1,29,-1,31,-1,33,35,37,-1,39,-1,41,-1,-1,-1,-1,-1,-1,-1,-1,-1,-1,-1],"loss_changes":[5.391333E1,3.2592407E1,0E0,2.8673676E1,9.415405E0,1.6802826E1,1.3594845E1,5.3745728E0,0E0,1.8029266E1,5.033395E0,9.92969E0,0E0,5.2141113E0,1.5072817E1,4.13264E1,1.2671509E1,0E0,0E0,0E0,0E0,2.7669678E0,0E0,1.6861694E0,0E0,1.9211756E1,9.344086E0,1.2978363E1,0E0,2.727539E0,0E0,5.224332E0,0E0,0E0,0E0,0E0,0E0,0E0,0E0,0E0,0E0,0E0,0E0],"parents":[2147483647,0,0,1,1,3,3,4,4,5,5,6,6,7,7,9,9,10,10,11,11,13,13,14,14,15,15,16,16,21,21,23,23,25,25,26,26,27,27,29,29,31,31],"right_children":[2,4,-1,6,8,10,12,14,-1,16,18,20,-1,22,24,26,28,-1,-1,-1,-1,30,-1,32,-1,34,36,38,-1,40,-1,42,-1,-1,-1,-1,-1,-1,-1,-1,-1,-1,-1],"split_conditions":[1E0,1E0,-1.4131272E-1,1E0,1E0,1E0,1E0,1E0,-0E0,1E0,1E0,1E0,9.878912E-2,1E0,1E0,1E0,1E0,-1.261396E-1,2.9312208E-2,-1.5196256E-1,3.6111824E-2,1E0,1.7669115E-3,1E0,1.5435676E-1,1E0,1E0,1E0,-7.328572E-3,1E0,2.0408046E-2,1E0,4.8513036E-2,-1.6601255E-2,1.2627758E-1,-0E0,1.4003153E-1,1.4124896E-1,-8.697654E-3,1.4996044E-1,2.1531621E-2,-1.23737745E-1,3.6035854E-2],"split_indices":[597,1581,0,949,141,325,926,102,0,1917,1039,1928,0,809,785,378,1417,0,0,0,0,1034,0,1270,0,4,1152,675,0,1193,0,389,0,0,0,0,0,0,0,0,0,0,0],"split_type":[0,0,0,0,0,0,0,0,0,0,0,0,0,0,0,0,0,0,0,0,0,0,0,0,0,0,0,0,0,0,0,0,0,0,0,0,0,0,0,0,0,0,0],"sum_hessian":[5.3261316E2,5.2739307E2,5.220125E0,2.2662233E2,3.0077072E2,2.1494481E2,1.1677517E1,2.977153E2,3.0554075E0,2.1015472E2,4.790078E0,8.048509E0,3.6290078E0,2.8149588E2,1.6219427E1,8.905697E1,1.2109776E2,2.4836862E0,2.3063922E0,5.730994E0,2.3175147E0,2.7894308E2,2.552807E0,6.853132E0,9.366295E0,3.9802807E1,4.925416E1,1.1729714E2,3.8006232E0,2.7663815E2,2.3049266E0,4.7976866E0,2.0554452E0,3.1512287E1,8.290518E0,3.3141148E0,4.594005E1,1.13747E2,3.5501375E0,2.743306E2,2.3075433E0,2.4833026E0,2.3143842E0],"tree_param":{"num_deleted":"0","num_feature":"2048","num_nodes":"43","size_leaf_vector":"1"}},{"base_weights":[1.3759221E0,1.3957399E0,-1.3492201E-1,1.4148504E0,-1.2490965E-1,1.4461948E0,1.8153425E-1,1.5181452E0,8.54736E-1,-1.4469896E-1,1.3756469E-1,1.5291985E0,-0E0,9.7214717E-1,-1.1752495E-1,1.5398868E0,-0E0,6.205085E-1,1.3484408E-1,1.3226223E-1,2.751198E-2,7.093282E-2,-1.3918667E-1],"categories":[],"categories_nodes":[],"categories_segments":[],"categories_sizes":[],"default_left":[0,0,0,0,0,0,0,0,0,0,0,0,0,0,0,0,0,0,0,0,0,0,0],"id":2,"left_children":[1,3,-1,5,-1,7,9,11,13,-1,-1,15,-1,17,-1,19,-1,21,-1,-1,-1,-1,-1],"loss_changes":[3.1847046E1,2.960254E1,0E0,1.9336182E1,0E0,2.0107422E1,3.827877E1,8.339355E0,1.5111454E1,0E0,0E0,7.7249756E0,0E0,1.0260502E1,0E0,9.278076E0,0E0,1.7337984E1,0E0,0E0,0E0,0E0,0E0],"parents":[2147483647,0,0,1,1,3,3,5,5,6,6,7,7,8,8,11,11,13,13,15,15,17,17],"right_children":[2,4,-1,6,-1,8,10,12,14,-1,-1,16,-1,18,-1,20,-1,22,-1,-1,-1,-1,-1],"split_conditions":[1E0,1E0,-1.3492201E-1,1E0,-1.2490965E-1,1E0,1E0,1E0,1E0,-1.4469896E-1,1.3756469E-1,1E0,-0E0,1E0,-1.1752495E-1,1E0,-0E0,1E0,1.3484408E-1,1.3226223E-1,2.751198E-2,7.093282E-2,-1.3918667E-1],"split_indices":[1436,1489,0,831,0,102,843,1034,325,0,0,968,0,4,0,274,0,1476,0,0,0,0,0],"split_type":[0,0,0,0,0,0,0,0,0,0,0,0,0,0,0,0,0,0,0,0,0,0,0],"sum_hessian":[5.359357E2,5.3271136E2,3.2244017E0,5.2952075E2,3.1906044E0,5.158336E2,1.368712E1,4.585934E2,5.7240196E1,5.7066364E0,7.980484E0,4.55551E2,3.042437E0,5.4783905E1,2.4562902E0,4.525039E2,3.0470626E0,3.5859394E1,1.8924511E1,4.4481976E2,7.684158E0,3.312502E1,2.734376E0],"tree_param":{"num_deleted":"0","num_feature":"2048","num_nodes":"23","size_leaf_vector":"1"}},{"base_weights":[1.2768401E0,1.3022232E0,-1.2464647E-1,1.3210584E0,-1.2936106E-1,1.3508967E0,-0E0,1.3788639E0,3.2653147E-1,-7.227288E-1,9.0738046E-1,1.2491125E0,1.3375463E-1,8.092692E-1,-1.3787271E-1,-1.2817666E-1,3.685817E-2,3.604343E-3,1.15644336E-1,-6.809902E-1,1.3086344E0,4.5030013E-1,1.302286E-1,2.8733541E-3,-1.6195297E-1,1.185401E-1,5.6407087E-2,-2.51904E-2,9.578712E-2],"categories":[],"categories_nodes":[],"categories_segments":[],"categories_sizes":[],"default_left":[0,0,0,0,0,0,0,0,0,0,0,0,0,0,0,0,0,0,0,0,0,0,0,0,0,0,0,0,0],"id":3,"left_children":[1,3,-1,5,-1,7,9,11,13,15,17,19,-1,21,-1,-1,-1,-1,-1,23,25,27,-1,-1,-1,-1,-1,-1,-1],"loss_changes":[3.7747864E1,2.8655518E1,0E0,2.0389465E1,0E0,1.35997925E1,8.185991E0,1.0631958E1,1.3543408E1,6.9387255E0,1.3009982E0,3.587619E1,0E0,1.702023E0,0E0,0E0,0E0,0E0,0E0,9.155585E0,1.548172E1,5.216707E0,0E0,0E0,0E0,0E0,0E0,0E0,0E0],"parents":[2147483647,0,0,1,1,3,3,5,5,6,6,7,7,8,8,9,9,10,10,11,11,13,13,19,19,20,20,21,21],"right_children":[2,4,-1,6,-1,8,10,12,14,16,18,20,-1,22,-1,-1,-1,-1,-1,24,26,28,-1,-1,-1,-1,-1,-1,-1],"split_conditions":[1E0,1E0,-1.2464647E-1,1E0,-1.2936106E-1,1E0,1E0,1E0,1E0,1E0,1E0,1E0,1.3375463E-1,1E0,-1.3787271E-1,-1.2817666E-1,3.685817E-2,3.604343E-3,1.15644336E-1,1E0,1E0,1E0,1.302286E-1,2.8733541E-3,-1.6195297E-1,1.185401E-1,5.6407087E-2,-2.51904E-2,9.578712E-2],"split_indices":[597,110,0,831,0,1992,102,502,575,1683,4,227,0,1997,0,0,0,0,0,1199,102,1917,0,0,0,0,0,0,0],"split_type":[0,0,0,0,0,0,0,0,0,0,0,0,0,0,0,0,0,0,0,0,0,0,0,0,0,0,0,0,0],"sum_hessian":[5.3723956E2,5.3266797E2,4.571602E0,5.2948663E2,3.18129E0,5.1751843E2,1.1968195E1,5.0306027E2,1.4458169E1,6.4628057E0,5.505389E0,3.0682806E2,1.9623224E2,1.1962614E1,2.4955554E0,4.1500726E0,2.3127327E0,2.4840815E0,3.021308E0,8.778884E0,2.9804916E2,8.844006E0,3.1186078E0,5.3320303E0,3.4468539E0,2.6078314E2,3.7266026E1,3.7968094E0,5.0471964E0],"tree_param":{"num_deleted":"0","num_feature":"2048","num_nodes":"29","size_leaf_vector":"1"}},{"base_weights":[1.1507975E0,1.17656E0,-1.173592E-1,1.2195166E0,-1.9531444E-1,1.2557031E0,-6.5067327E-3,-1.3605127E0,1.01210825E-1,1.3133894E0,5.202154E-1,-8.0353385E-1,9.031191E-2,-0E0,-1.6693795E-1,1.3294638E0,-4.343101E-2,7.443825E-1,-1.3281523E-1,1.183724E-2,-1.2973568E-1,5.957848E-1,1.3668864E0,-0E0,1.3851708E0,-5.264551E-2,1.2086529E-1,1.1997974E-1,6.33131E-2,-1.5005955E-1,5.335696E-2,1.2471515E-1,2.973446E-2],"categories":[],"categories_nodes":[],"categories_segments":[],"categories_sizes":[],"default_left":[0,0,0,0,0,0,0,0,0,0,0,0,0,0,0,0,0,0,0,0,0,0,0,0,0,0,0,0,0,0,0,0,0],"id":4,"left_children":[1,3,-1,5,7,9,11,13,-1,15,17,19,-1,-1,-1,21,-1,23,-1,-1,-1,25,27,29,31,-1,-1,-1,-1,-1,-1,-1,-1],"loss_changes":[3.2849365E1,2.9930298E1,0E0,2.217163E1,2.4306248E1,1.8474976E1,1.1495823E1,7.592922E0,0E0,1.3381531E1,1.6148655E1,6.582405E0,0E0,0E0,0E0,1.0307556E1,0E0,1.608002E1,0E0,0E0,0E0,2.297376E1,1.0357483E1,1.7212957E1,2.3368454E-1,0E0,0E0,0E0,0E0,0E0,0E0,0E0,0E0],"parents":[2147483647,0,0,1,1,3,3,4,4,5,5,6,6,7,7,9,9,10,10,11,11,15,15,17,17,21,21,22,22,23,23,24,24],"right_children":[2,4,-1,6,8,10,12,14,-1,16,18,20,-1,-1,-1,22,-1,24,-1,-1,-1,26,28,30,32,-1,-1,-1,-1,-1,-1,-1,-1],"split_conditions":[1E0,1E0,-1.173592E-1,1E0,1E0,1E0,1E0,1E0,1.01210825E-1,1E0,1E0,1E0,9.031191E-2,-0E0,-1.6693795E-1,1E0,-4.343101E-2,1E0,-1.3281523E-1,1.183724E-2,-1.2973568E-1,1E0,1E0,1E0,1E0,-5.264551E-2,1.2086529E-1,1.1997974E-1,6.33131E-2,-1.5005955E-1,5.335696E-2,1.2471515E-1,2.973446E-2],"split_indices":[597,901,0,831,1114,13,843,1088,0,1564,235,1452,0,0,0,227,0,1039,0,0,0,1685,947,875,430,0,0,0,0,0,0,0,0],"split_type":[0,0,0,0,0,0,0,0,0,0,0,0,0,0,0,0,0,0,0,0,0,0,0,0,0,0,0,0,0,0,0,0,0],"sum_hessian":[4.9989523E2,4.9523505E2,4.660176E0,4.806934E2,1.4541653E1,4.6743686E2,1.32565365E1,8.170454E0,6.371198E0,4.3244827E2,3.49886E1,7.988143E0,5.2683935E0,2.4128726E0,5.757581E0,4.2909174E2,3.3565326E0,3.200238E1,2.9862177E0,3.1464255E0,4.8417172E0,2.186016E1,4.0723157E2,1.4526272E1,1.747611E1,8.55472E0,1.3305441E1,3.770059E2,3.022569E1,3.928088E0,1.0598184E1,1.5471253E1,2.0048575E0],"tree_param":{"num_deleted":"0","num_feature":"2048","num_nodes":"33","size_leaf_vector":"1"}},{"base_weights":[1.0954665E0,7.8108656E-1,1.3336489E0,5.7467264E-1,1.4023863E0,1.39879E0,9.2210025E-1,1.948825E-1,1.1375297E0,1.2307763E-1,4.6032604E-2,1.4093686E0,-0E0,1.2086575E-1,-1.1439575E-1,5.6002307E-1,-8.487959E-1,1.2658046E0,-1.156226E-1,1.2168147E-1,7.4349093E-1,-6.338009E-1,1.0891941E-1,3.583888E-2,1.0064889E0,-1.6004586E0,9.9270605E-2,1.319001E0,-0E0,-2.2895388E-2,1.24749295E-1,-1.4946507E0,9.917258E-2,-3.0254072E-1,1.257541E-1,-0E0,1.1034441E0,-1.5897281E-1,-0E0,6.237837E-1,1.1691075E-1,-2.0150934E-1,2.9929185E-3,4.4197578E-2,-1.171546E-1,1.0525866E-1,2.747499E-2,-0E0,1.0144711E-1],"categories":[],"categories_nodes":[],"categories_segments":[],"categories_sizes":[],"default_left":[0,0,0,0,0,0,0,0,0,0,0,0,0,0,0,0,0,0,0,0,0,0,0,0,0,0,0,0,0,0,0,0,0,0,0,0,0,0,0,0,0,0,0,0,0,0,0,0,0],"id":5,"left_children":[1,3,5,7,9,11,13,15,17,-1,-1,19,-1,-1,21,23,25,27,-1,-1,29,31,-1,33,35,37,-1,39,-1,-1,-1,41,-1,43,-1,-1,45,-1,-1,47,-1,-1,-1,-1,-1,-1,-1,-1,-1],"loss_changes":[3.4475037E1,2.5384636E1,5.4971313E0,3.2932922E1,6.4741516E-1,2.6895752E0,2.1382809E1,3.6322464E1,2.0525383E1,0E0,0E0,2.198639E0,0E0,0E0,8.877576E0,1.6004013E1,3.7667503E1,3.539772E0,0E0,0E0,8.11614E0,1.55802E1,0E0,1.7397337E1,4.2415466E0,8.860584E0,0E0,8.587494E-1,0E0,0E0,0E0,1.085848E1,0E0,2.4832403E1,0E0,0E0,2.6194344E0,0E0,0E0,2.083989E0,0E0,0E0,0E0,0E0,0E0,0E0,0E0,0E0,0E0],"parents":[2147483647,0,0,1,1,2,2,3,3,4,4,5,5,6,6,7,7,8,8,11,11,14,14,15,15,16,16,17,17,20,20,21,21,23,23,24,24,25,25,27,27,31,31,33,33,36,36,39,39],"right_children":[2,4,6,8,10,12,14,16,18,-1,-1,20,-1,-1,22,24,26,28,-1,-1,30,32,-1,34,36,38,-1,40,-1,-1,-1,42,-1,44,-1,-1,46,-1,-1,48,-1,-1,-1,-1,-1,-1,-1,-1,-1],"split_conditions":[1E0,1E0,1E0,1E0,1E0,1E0,1E0,1E0,1E0,1.2307763E-1,4.6032604E-2,1E0,-0E0,1.2086575E-1,1E0,1E0,1E0,1E0,-1.156226E-1,1.2168147E-1,1E0,1E0,1.0891941E-1,1E0,1E0,1E0,9.9270605E-2,1E0,-0E0,-2.2895388E-2,1.24749295E-1,1E0,9.917258E-2,1E0,1.257541E-1,-0E0,1E0,-1.5897281E-1,-0E0,1E0,1.1691075E-1,-2.0150934E-1,2.9929185E-3,4.4197578E-2,-1.171546E-1,1.0525866E-1,2.747499E-2,-0E0,1.0144711E-1],"split_indices":[1581,4,1816,1970,575,1163,1243,1243,1261,0,0,1034,0,0,1264,1325,255,781,0,0,785,1989,0,1050,606,283,0,650,0,0,0,1756,0,1476,0,0,1816,0,0,407,0,0,0,0,0,0,0,0,0],"split_type":[0,0,0,0,0,0,0,0,0,0,0,0,0,0,0,0,0,0,0,0,0,0,0,0,0,0,0,0,0,0,0,0,0,0,0,0,0,0,0,0,0,0,0,0,0,0,0,0,0],"sum_hessian":[4.8193704E2,2.0932881E2,2.7260825E2,1.5823186E2,5.109695E1,2.3352681E2,3.9081417E1,9.5355194E1,6.2876667E1,4.7495182E1,3.6017685E0,2.3138527E2,2.1415415E0,2.6698303E1,1.2383115E1,7.11859E1,2.4169302E1,6.0159615E1,2.7170522E0,2.2177747E2,9.607802E0,9.460011E0,2.923104E0,3.3533894E1,3.7652004E1,1.788483E1,6.2844706E0,5.742324E1,2.7363725E0,3.6841705E0,5.923632E0,6.6775336E0,2.7824771E0,2.6934895E1,6.599E0,2.8770442E0,3.477496E1,1.551008E1,2.3747501E0,5.581567E0,5.1841675E1,4.44242E0,2.2351139E0,1.4982025E1,1.1952868E1,2.8730482E1,6.044476E0,2.7561584E0,2.8254085E0],"tree_param":{"num_deleted":"0","num_feature":"2048","num_nodes":"49","size_leaf_vector":"1"}},{"base_weights":[1.0353923E0,1.0650237E0,-1.1426494E-1,8.9456683E-1,1.3553035E0,6.377712E-1,1.21467456E-1,1.3696486E0,-0E0,-1.1246557E0,7.137017E-1,1.3850332E0,3.5775818E-2,-1.5748732E-1,4.941518E-2,9.894294E-1,2.7103552E-1,1.18445896E-1,4.6422545E-2,1.0713459E0,-2.8639188E-1,6.4941204E-1,-1.3127885E0,9.548415E-2,-3.715579E-2,-1.3039769E-1,7.9720035E-2,7.496718E-2,-4.7089577E-2,-1.390316E-1,-0E0],"categories":[],"categories_nodes":[],"categories_segments":[],"categories_sizes":[],"default_left":[0,0,0,0,0,0,0,0,0,0,0,0,0,0,0,0,0,0,0,0,0,0,0,0,0,0,0,0,0,0,0],"id":6,"left_children":[1,3,-1,5,7,9,-1,11,-1,13,15,17,-1,-1,-1,19,21,-1,-1,23,25,27,29,-1,-1,-1,-1,-1,-1,-1,-1],"loss_changes":[3.3100555E1,2.1107056E1,0E0,3.8882355E1,2.727234E0,2.6597435E1,0E0,1.1078186E0,0E0,1.1020169E1,2.251448E1,9.3688965E-2,0E0,0E0,0E0,1.2834946E1,4.457952E1,0E0,0E0,9.630867E0,1.1035967E1,1.7508226E1,6.319025E0,0E0,0E0,0E0,0E0,0E0,0E0,0E0,0E0],"parents":[2147483647,0,0,1,1,3,3,4,4,5,5,7,7,9,9,10,10,11,11,15,15,16,16,19,19,20,20,21,21,22,22],"right_children":[2,4,-1,6,8,10,-1,12,-1,14,16,18,-1,-1,-1,20,22,-1,-1,24,26,28,30,-1,-1,-1,-1,-1,-1,-1,-1],"split_conditions":[1E0,1E0,-1.1426494E-1,1E0,1E0,1E0,1.21467456E-1,1E0,-0E0,1E0,1E0,1E0,3.5775818E-2,-1.5748732E-1,4.941518E-2,1E0,1E0,1.18445896E-1,4.6422545E-2,1E0,1E0,1E0,1E0,9.548415E-2,-3.715579E-2,-1.3039769E-1,7.9720035E-2,7.496718E-2,-4.7089577E-2,-1.390316E-1,-0E0],"split_indices":[1489,502,0,1991,1475,227,0,562,0,87,1004,1089,0,0,0,781,102,0,0,1564,222,926,703,0,0,0,0,0,0,0,0],"split_type":[0,0,0,0,0,0,0,0,0,0,0,0,0,0,0,0,0,0,0,0,0,0,0,0,0,0,0,0,0,0,0],"sum_hessian":[4.6715228E2,4.6180313E2,5.3491573E0,2.9293216E2,1.6887099E2,1.9936153E2,9.3570625E1,1.6680165E2,2.0693424E0,7.75325E0,1.9160828E2,1.6335043E2,3.4512134E0,5.6879525E0,2.0652976E0,1.1697984E2,7.4628426E1,1.602517E2,3.09874E0,1.1044526E2,6.5345874E0,6.067632E1,1.3952107E1,1.0708747E2,3.3577847E0,3.4786386E0,3.0559487E0,5.1303802E1,9.372518E0,1.1229017E1,2.723091E0],"tree_param":{"num_deleted":"0","num_feature":"2048","num_nodes":"31","size_leaf_vector":"1"}},{"base_weights":[1.0261995E0,8.425695E-1,1.354405E0,-1.0658576E0,9.0851396E-1,1.1586903E-1,4.045482E-2,-1.3628002E-1,4.6156608E-2,6.5450555E-1,1.2616677E0,6.9879323E-1,-1.654447E-1,1.3322897E0,-6.099441E-2,5.002958E-1,1.1848487E0,1.14508905E-1,1.2606828E-2,1.6181901E-1,1.0551968E0,1.2758769E0,-1.2183447E-2,-8.758938E-3,1.0718574E-1,9.463186E-2,-0E0,1.1388318E-1,-0E0],"categories":[],"categories_nodes":[],"categories_segments":[],"categories_sizes":[],"default_left":[0,0,0,0,0,0,0,0,0,0,0,0,0,0,0,0,0,0,0,0,0,0,0,0,0,0,0,0,0],"id":7,"left_children":[1,3,5,7,9,-1,-1,-1,-1,11,13,15,-1,17,-1,19,21,-1,-1,23,25,27,-1,-1,-1,-1,-1,-1,-1],"loss_changes":[2.5930786E1,3.732933E1,2.864685E-1,9.281103E0,2.4243698E1,0E0,0E0,0E0,0E0,1.8841362E1,1.7184433E1,1.474115E1,0E0,1.3552551E0,0E0,2.1503006E1,6.4692764E0,0E0,0E0,2.2679533E1,2.3621063E0,3.338089E0,0E0,0E0,0E0,0E0,0E0,0E0,0E0],"parents":[2147483647,0,0,1,1,2,2,3,3,4,4,9,9,10,10,11,11,13,13,15,15,16,16,19,19,20,20,21,21],"right_children":[2,4,6,8,10,-1,-1,-1,-1,12,14,16,-1,18,-1,20,22,-1,-1,24,26,28,-1,-1,-1,-1,-1,-1,-1],"split_conditions":[1E0,1E0,1E0,1E0,1E0,1.1586903E-1,4.045482E-2,-1.3628002E-1,4.6156608E-2,1E0,1E0,1E0,-1.654447E-1,1E0,-6.099441E-2,1E0,1E0,1.14508905E-1,1.2606828E-2,1E0,1E0,1E0,-1.2183447E-2,-8.758938E-3,1.0718574E-1,9.463186E-2,-0E0,1.1388318E-1,-0E0],"split_indices":[502,1152,760,1017,1160,0,0,0,0,1256,980,1114,0,1816,0,1019,1299,0,0,1990,1481,13,0,0,0,0,0,0,0],"split_type":[0,0,0,0,0,0,0,0,0,0,0,0,0,0,0,0,0,0,0,0,0,0,0,0,0,0,0,0,0],"sum_hessian":[4.5830978E2,2.956602E2,1.626496E2,9.432282E0,2.862279E2,1.5966966E2,2.9799442E0,7.371833E0,2.0604491E0,1.679261E2,1.1830179E2,1.6551938E2,2.4067314E0,1.1461989E2,3.6818976E0,1.1879742E2,4.672196E1,1.1235185E2,2.2680328E0,7.4701584E1,4.4095833E1,4.4204185E1,2.5177748E0,5.9876347E1,1.4825236E1,4.132598E1,2.7698536E0,4.175438E1,2.4498043E0],"tree_param":{"num_deleted":"0","num_feature":"2048","num_nodes":"29","size_leaf_vector":"1"}},{"base_weights":[9.564936E-1,9.975807E-1,-8.00863E-1,-1.440188E-1,1.0435417E0,-1.4138466E-1,1.9623378E-2,-1.0514809E0,1.0138018E-1,1.0675694E0,-9.2517585E-1,-1.2911725E-1,3.5711184E-2,1.1218642E0,3.942841E-1,-1.5689765E-1,-0E0,1.1378603E0,-1.0437707E-1,-5.3986117E-2,8.0109376E-1,1.1988429E0,7.5984263E-1,-1.6946359E-1,6.531332E-1,1.02400996E-1,-8.2935614E-4,5.486051E-2,1.04164936E-1,7.532994E-2,-9.989071E-2,8.658743E-2,-1.7944816E-2,6.740139E-2,-9.7854465E-2],"categories":[],"categories_nodes":[],"categories_segments":[],"categories_sizes":[],"default_left":[0,0,0,0,0,0,0,0,0,0,0,0,0,0,0,0,0,0,0,0,0,0,0,0,0,0,0,0,0,0,0,0,0,0,0],"id":8,"left_children":[1,3,5,7,9,-1,-1,11,-1,13,15,-1,-1,17,19,-1,-1,21,-1,23,25,27,29,-1,31,-1,33,-1,-1,-1,-1,-1,-1,-1,-1],"loss_changes":[3.130716E1,2.2676239E1,9.578622E0,1.9459751E1,1.943155E1,0E0,0E0,7.7096777E0,0E0,1.351886E1,5.0243225E0,0E0,0E0,1.4116852E1,6.1772165E0,0E0,0E0,6.9645996E0,0E0,2.0687704E1,6.3723803E0,3.638977E0,1.3205204E1,0E0,3.8648052E0,0E0,5.379005E0,0E0,0E0,0E0,0E0,0E0,0E0,0E0,0E0],"parents":[2147483647,0,0,1,1,2,2,3,3,4,4,7,7,9,9,10,10,13,13,14,14,17,17,19,19,20,20,21,21,22,22,24,24,26,26],"right_children":[2,4,6,8,10,-1,-1,12,-1,14,16,-1,-1,18,20,-1,-1,22,-1,24,26,28,30,-1,32,-1,34,-1,-1,-1,-1,-1,-1,-1,-1],"split_conditions":[1E0,1E0,1E0,1E0,1E0,-1.4138466E-1,1.9623378E-2,1E0,1.0138018E-1,1E0,1E0,-1.2911725E-1,3.5711184E-2,1E0,1E0,-1.5689765E-1,-0E0,1E0,-1.0437707E-1,1E0,1E0,1E0,1E0,-1.6946359E-1,1E0,1.02400996E-1,1E0,5.486051E-2,1.04164936E-1,7.532994E-2,-9.989071E-2,8.658743E-2,-1.7944816E-2,6.740139E-2,-9.7854465E-2],"split_indices":[1992,1152,1917,1511,739,0,0,1171,0,947,1045,0,0,110,695,0,0,102,0,926,1917,650,1756,0,458,0,1536,0,0,0,0,0,0,0,0],"split_type":[0,0,0,0,0,0,0,0,0,0,0,0,0,0,0,0,0,0,0,0,0,0,0,0,0,0,0,0,0,0,0,0,0,0,0],"sum_hessian":[4.2928152E2,4.1993283E2,9.348702E0,1.5672566E1,4.0426025E2,5.366978E0,3.9817245E0,9.665918E0,6.006648E0,3.998144E2,4.4458704E0,7.6632366E0,2.0026815E0,3.6893323E2,3.0881157E1,2.4263175E0,2.019553E0,3.6682925E2,2.103972E0,1.3995556E1,1.6885601E1,3.1396463E2,5.2864635E1,3.884922E0,1.0110634E1,1.1693138E1,5.1924624E0,1.7132362E1,2.9683228E2,5.0011585E1,2.8530502E0,7.6104383E0,2.5001953E0,2.7673807E0,2.4250817E0],"tree_param":{"num_deleted":"0","num_feature":"2048","num_nodes":"35","size_leaf_vector":"1"}},{"base_weights":[8.9345217E-1,6.734752E-1,1.2516938E0,8.234444E-1,-3.9438915E-1,1.2629752E0,3.3431903E-2,8.8174856E-1,-1.1919173E-1,-7.7446926E-1,1.0605173E-1,1.0811732E-1,3.4854203E-2,9.3321633E-1,-1.11259736E-1,-1.258841E0,5.3548414E-1,9.6976185E-1,-1.3245082E-1,-1.4197755E-1,8.879963E-2,-0E0,9.535375E-2,1.0382146E0,4.901061E-2,9.6766636E-2,5.000309E-2,5.4797083E-2,-1.8892434E-1],"categories":[],"categories_nodes":[],"categories_segments":[],"categories_sizes":[],"default_left":[0,0,0,0,0,0,0,0,0,0,0,0,0,0,0,0,0,0,0,0,0,0,0,0,0,0,0,0,0],"id":9,"left_children":[1,3,5,7,9,11,-1,13,-1,15,-1,-1,-1,17,-1,19,21,23,-1,-1,-1,-1,-1,25,27,-1,-1,-1,-1],"loss_changes":[3.0209381E1,4.0484238E1,2.5576782E-1,2.8536163E1,1.8915022E1,2.3616028E-1,0E0,2.428682E1,0E0,1.660571E1,0E0,0E0,0E0,1.9119705E1,0E0,1.8788628E1,1.7908128E0,1.2371628E1,0E0,0E0,0E0,0E0,0E0,7.5826874E0,2.0009117E1,0E0,0E0,0E0,0E0],"parents":[2147483647,0,0,1,1,2,2,3,3,4,4,5,5,7,7,9,9,13,13,15,15,16,16,17,17,23,23,24,24],"right_children":[2,4,6,8,10,12,-1,14,-1,16,-1,-1,-1,18,-1,20,22,24,-1,-1,-1,-1,-1,26,28,-1,-1,-1,-1],"split_conditions":[1E0,1E0,1E0,1E0,1E0,1E0,3.3431903E-2,1E0,-1.1919173E-1,1E0,1.0605173E-1,1.0811732E-1,3.4854203E-2,1E0,-1.11259736E-1,1E0,1E0,1E0,-1.3245082E-1,-1.4197755E-1,8.879963E-2,-0E0,9.535375E-2,1E0,1E0,9.6766636E-2,5.000309E-2,5.4797083E-2,-1.8892434E-1],"split_indices":[502,102,957,831,482,1564,0,1791,0,1569,0,0,0,1184,0,67,875,186,0,0,0,0,0,1270,1199,0,0,0,0],"split_type":[0,0,0,0,0,0,0,0,0,0,0,0,0,0,0,0,0,0,0,0,0,0,0,0,0,0,0,0,0],"sum_hessian":[4.0166632E2,2.503802E2,1.5128613E2,2.2013736E2,3.0242847E1,1.4845656E2,2.829572E0,2.1493855E2,5.198807E0,2.4984222E1,5.2586246E0,1.4558699E2,2.869567E0,2.1042401E2,4.514543E0,1.8618073E1,6.366149E0,2.077741E2,2.6499188E0,1.6072142E1,2.5459318E0,3.6637287E0,2.7024202E0,1.926962E2,1.5077886E1,1.5537836E2,3.7317852E1,1.2294574E1,2.7833118E0],"tree_param":{"num_deleted":"0","num_feature":"2048","num_nodes":"29","size_leaf_vector":"1"}},{"base_weights":[8.858726E-1,6.942419E-1,1.2220745E0,4.8214123E-1,1.2309811E0,1.0470413E-1,2.5464052E-2,5.234234E-1,-1.6178167E-1,1.0862497E-1,-5.8955066E-3,3.661659E-1,1.074467E0,4.5736465E-1,-1.565775E-1,9.763865E-2,2.659618E-2,5.561727E-1,-7.7814597E-1,3.0511076E-2,1.06544584E-1,-0E0,-1.2078193E-1],"categories":[],"categories_nodes":[],"categories_segments":[],"categories_sizes":[],"default_left":[0,0,0,0,0,0,0,0,0,0,0,0,0,0,0,0,0,0,0,0,0,0,0],"id":10,"left_children":[1,3,5,7,9,-1,-1,11,-1,-1,-1,13,15,17,-1,-1,-1,19,21,-1,-1,-1,-1],"loss_changes":[2.420752E1,2.7814919E1,5.166931E-1,1.7463455E1,5.4273224E0,0E0,0E0,1.4696339E1,0E0,0E0,0E0,2.8007126E1,1.2358894E0,1.6711746E1,0E0,0E0,0E0,1.6404709E1,5.1332808E0,0E0,0E0,0E0,0E0],"parents":[2147483647,0,0,1,1,2,2,3,3,4,4,7,7,11,11,12,12,13,13,17,17,18,18],"right_children":[2,4,6,8,10,-1,-1,12,-1,-1,-1,14,16,18,-1,-1,-1,20,22,-1,-1,-1,-1],"split_conditions":[1E0,1E0,1E0,1E0,1E0,1.0470413E-1,2.5464052E-2,1E0,-1.6178167E-1,1.0862497E-1,-5.8955066E-3,1E0,1E0,1E0,-1.565775E-1,9.763865E-2,2.659618E-2,1E0,1E0,3.0511076E-2,1.06544584E-1,-0E0,-1.2078193E-1],"split_indices":[502,1991,115,890,1447,0,0,1323,0,0,0,656,1640,745,0,0,0,1990,322,0,0,0,0],"split_type":[0,0,0,0,0,0,0,0,0,0,0,0,0,0,0,0,0,0,0,0,0,0,0],"sum_hessian":[3.981213E2,2.552509E2,1.4287039E2,1.8412666E2,7.112423E1,1.4020956E2,2.660837E0,1.8143262E2,2.6940517E0,6.900991E1,2.1143203E0,1.4236113E2,3.9071484E1,1.3717139E2,5.1897516E0,3.4604874E1,4.4666095E0,1.2761938E2,9.552003E0,1.00634155E2,2.698522E1,4.3119226E0,5.240081E0],"tree_param":{"num_deleted":"0","num_feature":"2048","num_nodes":"23","size_leaf_vector":"1"}},{"base_weights":[8.704792E-1,7.3769456E-1,1.0311295E-1,2.972516E-1,9.3615115E-1,5.784304E-1,-8.002154E-1,9.68422E-1,-1.1438742E-1,6.804137E-1,-1.3825017E-1,-1.5472441E0,8.8553774E-1,1.0283663E0,1.827063E-1,8.232256E-1,-9.000599E-1,-1.5623444E-1,-0E0,-0E0,1.22797124E-1,-2.05884E-2,1.0606341E0,-1.5132244E-1,6.274039E-1,-5.498653E-1,9.7072893E-1,-1.6591005E-1,4.641369E-2,1.0807054E0,-2.2695143E-2,9.04124E-1,-0E0,-1.1899262E-1,5.9795946E-2,9.327921E-2,-1.4368757E-2,9.315226E-2,-0E0,3.4353763E-2,1.0559345E-1],"categories":[],"categories_nodes":[],"categories_segments":[],"categories_sizes":[],"default_left":[0,0,0,0,0,0,0,0,0,0,0,0,0,0,0,0,0,0,0,0,0,0,0,0,0,0,0,0,0,0,0,0,0,0,0,0,0,0,0,0,0],"id":11,"left_children":[1,3,-1,5,7,9,11,13,-1,15,-1,17,19,21,23,25,27,-1,-1,-1,-1,-1,29,-1,31,33,35,-1,-1,37,-1,39,-1,-1,-1,-1,-1,-1,-1,-1,-1],"loss_changes":[1.686676E1,2.457219E1,0E0,2.8275902E1,1.4731827E1,1.6187988E1,2.3801537E1,8.441681E0,0E0,1.6096386E1,0E0,5.5756454E0,2.1794286E0,8.081497E0,1.2595349E1,1.3654835E1,9.693612E0,0E0,0E0,0E0,0E0,0E0,5.3602295E0,0E0,2.644002E0,7.139511E0,9.428059E0,0E0,0E0,4.0565186E0,0E0,3.821988E-1,0E0,0E0,0E0,0E0,0E0,0E0,0E0,0E0,0E0],"parents":[2147483647,0,0,1,1,3,3,4,4,5,5,6,6,7,7,9,9,11,11,12,12,13,13,14,14,15,15,16,16,22,22,24,24,25,25,26,26,29,29,31,31],"right_children":[2,4,-1,6,8,10,12,14,-1,16,-1,18,20,22,24,26,28,-1,-1,-1,-1,-1,30,-1,32,34,36,-1,-1,38,-1,40,-1,-1,-1,-1,-1,-1,-1,-1,-1],"split_conditions":[1E0,1E0,1.0311295E-1,1E0,1E0,1E0,1E0,1E0,-1.1438742E-1,1E0,-1.3825017E-1,1E0,1E0,1E0,1E0,1E0,1E0,-1.5623444E-1,-0E0,-0E0,1.22797124E-1,-2.05884E-2,1E0,-1.5132244E-1,1E0,1E0,1E0,-1.6591005E-1,4.641369E-2,1E0,-2.2695143E-2,1E0,-0E0,-1.1899262E-1,5.9795946E-2,9.327921E-2,-1.4368757E-2,9.315226E-2,-0E0,3.4353763E-2,1.0559345E-1],"split_indices":[743,1917,0,1243,744,800,169,1445,0,857,0,1114,389,227,1754,1152,656,0,0,0,0,0,1682,0,41,1607,1034,0,0,158,0,1634,0,0,0,0,0,0,0,0,0],"split_type":[0,0,0,0,0,0,0,0,0,0,0,0,0,0,0,0,0,0,0,0,0,0,0,0,0,0,0,0,0,0,0,0,0,0,0,0,0,0,0,0,0],"sum_hessian":[4.0037833E2,2.9099646E2,1.09381874E2,9.159583E1,1.9940062E2,7.347687E1,1.811896E1,1.9702881E2,2.371814E0,7.065885E1,2.8180172E0,1.2841604E1,5.277355E0,1.8221321E2,1.4815601E1,6.528155E1,5.3773055E0,1.064522E1,2.1963847E0,2.3916674E0,2.8856876E0,3.9652102E0,1.78248E2,2.3407004E0,1.2474901E1,5.8385863E0,5.9442963E1,3.3341112E0,2.0431945E0,1.7612787E2,2.1201253E0,9.134851E0,3.3400497E0,3.778437E0,2.0601494E0,5.393696E1,5.506004E0,1.7393036E2,2.1975098E0,4.6844773E0,4.450374E0],"tree_param":{"num_deleted":"0","num_feature":"2048","num_nodes":"41","size_leaf_vector":"1"}},{"base_weights":[7.886693E-1,8.1052667E-1,-1.0131456E-1,8.997535E-1,3.0847874E-1,-2.2151922E-1,9.7862804E-1,1.0209979E-1,8.645316E-2,-8.3258015E-1,5.57996E-1,1.0045564E0,-5.2578453E-2,-1.65431E-1,8.188128E-2,-1.3593274E-1,3.7177388E-2,-0E0,1.10876895E-1,1.02852E0,-4.1020945E-1,-4.6863922E-1,8.483938E-1,-1.444394E-1,1.05248295E-1,1.0468516E0,-0E0,-1.6909428E-1,7.616697E-2,-5.949125E-2,-1.6084214E-1,1.3322876E-1,-0E0,9.0025984E-2,-5.657276E-5,3.9827563E-2,-5.4548725E-2,8.699339E-2,-3.5917573E-2],"categories":[],"categories_nodes":[],"categories_segments":[],"categories_sizes":[],"default_left":[0,0,0,0,0,0,0,0,0,0,0,0,0,0,0,0,0,0,0,0,0,0,0,0,0,0,0,0,0,0,0,0,0,0,0,0,0,0,0],"id":12,"left_children":[1,3,-1,5,7,9,11,13,-1,15,17,19,-1,21,-1,-1,-1,23,-1,25,27,29,31,-1,-1,33,35,-1,-1,37,-1,-1,-1,-1,-1,-1,-1,-1,-1],"loss_changes":[1.6248184E1,1.582341E1,0E0,2.8415817E1,7.6867394E0,9.95752E0,1.2610413E1,1.1107611E1,0E0,1.2618243E1,4.0329323E0,1.0357239E1,0E0,1.0411574E1,0E0,0E0,0E0,1.0852253E1,0E0,5.928894E0,1.0473937E1,1.4522989E1,4.0175686E0,0E0,0E0,4.9769287E0,1.580898E0,0E0,0E0,8.245495E0,0E0,0E0,0E0,0E0,0E0,0E0,0E0,0E0,0E0],"parents":[2147483647,0,0,1,1,3,3,4,4,5,5,6,6,7,7,9,9,10,10,11,11,13,13,17,17,19,19,20,20,21,21,22,22,25,25,26,26,29,29],"right_children":[2,4,-1,6,8,10,12,14,-1,16,18,20,-1,22,-1,-1,-1,24,-1,26,28,30,32,-1,-1,34,36,-1,-1,38,-1,-1,-1,-1,-1,-1,-1,-1,-1],"split_conditions":[1E0,1E0,-1.0131456E-1,1E0,1E0,1E0,1E0,1E0,8.645316E-2,1E0,1E0,1E0,-5.2578453E-2,1E0,8.188128E-2,-1.3593274E-1,3.7177388E-2,1E0,1.10876895E-1,1E0,1E0,1E0,1E0,-1.444394E-1,1.05248295E-1,1E0,1E0,-1.6909428E-1,7.616697E-2,1E0,-1.6084214E-1,1.3322876E-1,-0E0,9.0025984E-2,-5.657276E-5,3.9827563E-2,-5.4548725E-2,8.699339E-2,-3.5917573E-2],"split_indices":[1922,1475,0,650,675,875,407,249,0,1147,1114,1564,0,1665,0,0,0,552,0,366,591,322,389,0,0,1256,1602,0,0,650,0,0,0,0,0,0,0,0,0],"split_type":[0,0,0,0,0,0,0,0,0,0,0,0,0,0,0,0,0,0,0,0,0,0,0,0,0,0,0,0,0,0,0,0,0,0,0,0,0,0,0],"sum_hessian":[3.759693E2,3.7232437E2,3.644949E0,3.148697E2,5.7454678E1,2.0112204E1,2.9475748E2,4.5436516E1,1.2018163E1,1.1746931E1,8.3652725E0,2.9053934E2,4.218158E0,3.4222427E1,1.1214087E1,7.609123E0,4.137808E0,4.648965E0,3.7163076E0,2.8621982E2,4.3194933E0,2.693639E1,7.2860384E0,2.0442364E0,2.6047287E0,2.8168646E2,4.533381E0,2.1364932E0,2.183E0,2.1466543E1,5.469846E0,3.608532E0,3.6775064E0,2.7847906E2,3.2073915E0,2.1986454E0,2.3347359E0,4.8364215E0,1.6630123E1],"tree_param":{"num_deleted":"0","num_feature":"2048","num_nodes":"39","size_leaf_vector":"1"}},{"base_weights":[7.7677786E-1,8.070793E-1,-7.3759633E-1,6.6267246E-1,1.117132E0,-1.6950853E-1,5.8037862E-2,4.5092052E-1,1.0212324E0,1.1404362E0,2.903246E-2,5.6346625E-1,-5.732431E-1,1.1319013E0,-7.6341367E-1,1.155532E0,1.9412903E-2,6.305864E-1,-6.00504E-1,-1.1000797E0,8.723421E-2,5.155683E-1,1.1673272E0,-0E0,-1.3696007E-1,1.00768514E-1,6.228458E-1,-3.1819972E-1,6.9407636E-1,-1.2369801E-1,-0E0,-1.2657249E-1,3.7198104E-2,-1.7637424E-2,8.986528E-2,1.1873494E0,2.662187E-2,7.7446066E-2,-0E0,3.1553697E-2,-1.407869E-1,7.037712E-2,1.4648262E-2,1.0249406E-1,2.9868202E-2],"categories":[],"categories_nodes":[],"categories_segments":[],"categories_sizes":[],"default_left":[0,0,0,0,0,0,0,0,0,0,0,0,0,0,0,0,0,0,0,0,0,0,0,0,0,0,0,0,0,0,0,0,0,0,0,0,0,0,0,0,0,0,0,0,0],"id":13,"left_children":[1,3,5,7,9,-1,-1,11,13,15,-1,17,19,21,23,25,-1,27,29,31,-1,33,35,-1,-1,-1,37,39,41,-1,-1,-1,-1,-1,-1,43,-1,-1,-1,-1,-1,-1,-1,-1,-1],"loss_changes":[1.7052704E1,1.48324585E1,1.3515126E1,1.7784012E1,9.696655E-1,0E0,0E0,1.8241291E1,1.8378944E1,5.1756287E-1,0E0,1.1255188E1,1.3049217E1,6.299591E-1,3.8655443E0,4.7218323E-1,0E0,8.468971E0,4.679633E0,7.956997E0,0E0,3.0030007E0,2.90123E-1,0E0,0E0,0E0,1.4500291E0,8.385829E0,8.341419E0,0E0,0E0,0E0,0E0,0E0,0E0,2.2506714E-1,0E0,0E0,0E0,0E0,0E0,0E0,0E0,0E0,0E0],"parents":[2147483647,0,0,1,1,2,2,3,3,4,4,7,7,8,8,9,9,11,11,12,12,13,13,14,14,15,15,17,17,18,18,19,19,21,21,22,22,26,26,27,27,28,28,35,35],"right_children":[2,4,6,8,10,-1,-1,12,14,16,-1,18,20,22,24,26,-1,28,30,32,-1,34,36,-1,-1,-1,38,40,42,-1,-1,-1,-1,-1,-1,44,-1,-1,-1,-1,-1,-1,-1,-1,-1],"split_conditions":[1E0,1E0,1E0,1E0,1E0,-1.6950853E-1,5.8037862E-2,1E0,1E0,1E0,2.903246E-2,1E0,1E0,1E0,1E0,1E0,1.9412903E-2,1E0,1E0,1E0,8.723421E-2,1E0,1E0,-0E0,-1.3696007E-1,1.00768514E-1,1E0,1E0,1E0,-1.2369801E-1,-0E0,-1.2657249E-1,3.7198104E-2,-1.7637424E-2,8.986528E-2,1E0,2.662187E-2,7.7446066E-2,-0E0,3.1553697E-2,-1.407869E-1,7.037712E-2,1.4648262E-2,1.0249406E-1,2.9868202E-2],"split_indices":[1564,502,1357,1970,1260,0,0,1481,1984,87,0,1034,1685,650,800,575,0,606,1270,772,0,249,1738,0,0,0,1685,1057,1270,0,0,0,0,0,0,104,0,0,0,0,0,0,0,0,0],"split_type":[0,0,0,0,0,0,0,0,0,0,0,0,0,0,0,0,0,0,0,0,0,0,0,0,0,0,0,0,0,0,0,0,0,0,0,0,0,0,0,0,0,0,0,0,0],"sum_hessian":[3.6772586E2,3.6103925E2,6.6866E0,2.4822871E2,1.1281054E2,3.7488332E0,2.937767E0,1.5752771E2,9.0701004E1,1.0858528E2,4.225256E0,1.4260225E2,1.4925471E1,8.5828445E1,4.872559E0,1.0604108E2,2.544204E0,1.3545952E2,7.1427264E0,1.1593642E1,3.3318286E0,5.86461E0,7.996383E1,2.4605584E0,2.4120004E0,9.853677E1,7.504299E0,7.7840815E0,1.2767544E2,3.2406244E0,3.9021022E0,9.590323E0,2.0033188E0,2.0440555E0,3.8205547E0,7.728719E1,2.6766384E0,5.1217437E0,2.3825555E0,4.9092865E0,2.8747947E0,1.00211334E2,2.74641E1,7.452662E1,2.7605774E0],"tree_param":{"num_deleted":"0","num_feature":"2048","num_nodes":"45","size_leaf_vector":"1"}},{"base_weights":[7.9963756E-1,5.653437E-1,1.002997E0,6.344072E-1,-4.8279938E-1,1.0451864E0,-0E0,7.2599566E-1,-2.3247021E-1,-3.4478866E-2,-1.2207875E-1,1.0623804E0,-0E0,7.740895E-2,-1.9061238E-1,7.694663E-1,-1.2101937E-1,-6.502002E-1,8.8464424E-2,-4.1637078E-2,8.076527E-2,1.0960656E0,3.966023E-1,8.051584E-1,-8.005479E-2,-9.874986E-2,-1.2298362E-1,-0E0,2.093643E-2,1.1118574E0,1.6151693E-2,-2.6504086E-2,7.041559E-1,8.3436906E-1,-7.625311E-3,-6.107905E-2,3.0352306E-2,1.1223358E0,-0E0,8.320034E-2,1.1475278E-2,7.287134E-2,8.2901E-4,9.604198E-2,1.0727457E-2],"categories":[],"categories_nodes":[],"categories_segments":[],"categories_sizes":[],"default_left":[0,0,0,0,0,0,0,0,0,0,0,0,0,0,0,0,0,0,0,0,0,0,0,0,0,0,0,0,0,0,0,0,0,0,0,0,0,0,0,0,0,0,0,0,0],"id":14,"left_children":[1,3,5,7,9,11,13,15,17,19,-1,21,-1,-1,-1,23,-1,25,-1,-1,27,29,31,33,-1,35,-1,-1,-1,37,-1,-1,39,41,-1,-1,-1,43,-1,-1,-1,-1,-1,-1,-1],"loss_changes":[1.6212418E1,1.2576756E1,8.176498E0,1.3191391E1,3.3436735E0,3.7090607E0,1.6864437E1,1.3530533E1,7.8138256E0,6.806509E-1,0E0,3.0163116E0,0E0,0E0,0E0,8.893639E0,0E0,4.1139817E0,0E0,0E0,1.1810228E-1,1.5615692E0,2.5073462E0,4.2239914E0,0E0,2.4697156E0,0E0,0E0,0E0,1.3417969E0,0E0,0E0,4.4794917E-1,2.2327957E0,0E0,0E0,0E0,7.7716064E-1,0E0,0E0,0E0,0E0,0E0,0E0,0E0],"parents":[2147483647,0,0,1,1,2,2,3,3,4,4,5,5,6,6,7,7,8,8,9,9,11,11,15,15,17,17,20,20,21,21,22,22,23,23,25,25,29,29,32,32,33,33,37,37],"right_children":[2,4,6,8,10,12,14,16,18,20,-1,22,-1,-1,-1,24,-1,26,-1,-1,28,30,32,34,-1,36,-1,-1,-1,38,-1,-1,40,42,-1,-1,-1,44,-1,-1,-1,-1,-1,-1,-1],"split_conditions":[1E0,1E0,1E0,1E0,1E0,1E0,1E0,1E0,1E0,1E0,-1.2207875E-1,1E0,-0E0,7.740895E-2,-1.9061238E-1,1E0,-1.2101937E-1,1E0,8.8464424E-2,-4.1637078E-2,1E0,1E0,1E0,1E0,-8.005479E-2,1E0,-1.2298362E-1,-0E0,2.093643E-2,1E0,1.6151693E-2,-2.6504086E-2,1E0,1E0,-7.625311E-3,-6.107905E-2,3.0352306E-2,1E0,-0E0,8.320034E-2,1.1475278E-2,7.287134E-2,8.2901E-4,9.604198E-2,1.0727457E-2],"split_indices":[1581,949,1722,13,1917,221,1535,1948,140,274,0,1971,0,0,0,1489,0,978,0,0,562,1602,4,1737,0,293,0,0,0,1060,0,0,383,458,0,0,0,1163,0,0,0,0,0,0,0],"split_type":[0,0,0,0,0,0,0,0,0,0,0,0,0,0,0,0,0,0,0,0,0,0,0,0,0,0,0,0,0,0,0,0,0,0,0,0,0,0,0,0,0,0,0,0,0],"sum_hessian":[3.6451038E2,1.712618E2,1.932486E2,1.6134914E2,9.912651E0,1.8543086E2,7.81773E0,1.4665848E2,1.4690664E1,7.370034E0,2.5426173E0,1.8275687E2,2.673998E0,5.6498494E0,2.1678808E0,1.441896E2,2.4688666E0,1.1536874E1,3.1537905E0,2.5193138E0,4.8507204E0,1.7287346E2,9.883419E0,1.4173605E2,2.453549E0,7.4597E0,4.0771737E0,2.5767152E0,2.2740052E0,1.6913948E2,3.733973E0,2.3317688E0,7.5516505E0,1.3799306E2,3.7430046E0,3.7293108E0,3.7303896E0,1.6705737E2,2.0821013E0,4.1899447E0,3.3617055E0,1.3318431E2,4.8087497E0,1.6472206E2,2.3353121E0],"tree_param":{"num_deleted":"0","num_feature":"2048","num_nodes":"45","size_leaf_vector":"1"}},{"base_weights":[6.976703E-1,4.6271876E-1,9.1903484E-1,3.0165294E-1,1.0287039E0,9.7779524E-1,-7.4429125E-2,4.765529E-1,-5.5872494E-1,9.120474E-2,5.9626414E-3,1.0030817E0,-4.3470755E-2,-6.9607395E-1,4.1058324E-2,5.692706E-1,-7.8409797E-1,-1.1880581E0,9.367387E-2,1.0222138E0,-3.634613E-4,-1.3268815E-1,6.4221798E-3,6.456159E-1,-6.0654044E-1,-1.0779819E-1,4.896225E-4,-1.2899308E-1,-0E0,1.0383748E0,-0E0,8.637222E-1,3.129386E-1,-1.2698719E-1,3.734508E-2,1.0503807E0,-0E0,9.555192E-2,-3.917153E-3,-8.649947E-2,4.4571657E-2,8.985995E-2,2.091936E-2],"categories":[],"categories_nodes":[],"categories_segments":[],"categories_sizes":[],"default_left":[0,0,0,0,0,0,0,0,0,0,0,0,0,0,0,0,0,0,0,0,0,0,0,0,0,0,0,0,0,0,0,0,0,0,0,0,0,0,0,0,0,0,0],"id":15,"left_children":[1,3,5,7,9,11,13,15,17,-1,-1,19,-1,21,-1,23,25,27,-1,29,-1,-1,-1,31,33,-1,-1,-1,-1,35,-1,37,39,-1,-1,41,-1,-1,-1,-1,-1,-1,-1],"loss_changes":[1.5890533E1,1.35895E1,1.0288498E1,1.8869469E1,7.4916077E-1,6.3518677E0,3.2686129E0,1.2217585E1,2.1921816E1,0E0,0E0,3.66716E0,0E0,4.247594E0,0E0,8.9390335E0,3.454956E0,5.205673E0,0E0,2.4679565E0,0E0,0E0,0E0,5.907799E0,6.035657E0,0E0,0E0,0E0,0E0,1.3959045E0,0E0,1.3846451E1,1.0647813E1,0E0,0E0,1.4117432E-1,0E0,0E0,0E0,0E0,0E0,0E0,0E0],"parents":[2147483647,0,0,1,1,2,2,3,3,4,4,5,5,6,6,7,7,8,8,11,11,13,13,15,15,16,16,17,17,19,19,23,23,24,24,29,29,31,31,32,32,35,35],"right_children":[2,4,6,8,10,12,14,16,18,-1,-1,20,-1,22,-1,24,26,28,-1,30,-1,-1,-1,32,34,-1,-1,-1,-1,36,-1,38,40,-1,-1,42,-1,-1,-1,-1,-1,-1,-1],"split_conditions":[1E0,1E0,1E0,1E0,1E0,1E0,1E0,1E0,1E0,9.120474E-2,5.9626414E-3,1E0,-4.3470755E-2,1E0,4.1058324E-2,1E0,1E0,1E0,9.367387E-2,1E0,-3.634613E-4,-1.3268815E-1,6.4221798E-3,1E0,1E0,-1.0779819E-1,4.896225E-4,-1.2899308E-1,-0E0,1E0,-0E0,1E0,1E0,-1.2698719E-1,3.734508E-2,1E0,-0E0,9.555192E-2,-3.917153E-3,-8.649947E-2,4.4571657E-2,8.985995E-2,2.091936E-2],"split_indices":[1581,743,102,102,53,1475,389,831,482,0,0,1034,0,1243,0,1855,191,149,0,158,0,0,0,350,1124,0,0,0,0,202,0,935,409,0,0,105,0,0,0,0,0,0,0],"split_type":[0,0,0,0,0,0,0,0,0,0,0,0,0,0,0,0,0,0,0,0,0,0,0,0,0,0,0,0,0,0,0,0,0,0,0,0,0,0,0,0,0,0,0],"sum_hessian":[3.2475967E2,1.5931828E2,1.6544139E2,1.2518906E2,3.412922E1,1.5684056E2,8.600826E0,1.04761444E2,2.0427614E1,3.1861162E1,2.2680566E0,1.5473088E2,2.1096778E0,4.6123223E0,3.9885044E0,9.818339E1,6.578055E0,1.5153732E1,5.273883E0,1.5249492E2,2.2359612E0,2.478431E0,2.133891E0,9.281796E1,5.365432E0,4.5157948E0,2.0622604E0,1.1420269E1,3.7334628E0,1.5006761E2,2.4273005E0,5.4650814E1,3.8167145E1,3.196144E0,2.1692877E0,1.4791714E2,2.1504679E0,4.2938007E1,1.1712806E1,4.709064E0,3.345808E1,1.4539809E2,2.5190582E0],"tree_param":{"num_deleted":"0","num_feature":"2048","num_nodes":"43","size_leaf_vector":"1"}},{"base_weights":[6.447272E-1,4.5333263E-1,1.0553997E0,2.2892267E-1,1.0971777E0,1.0950636E0,1.19912155E-1,-8.211075E-2,6.419493E-1,9.971121E-2,-2.484499E-2,1.1160076E0,1.5164349E-2,-2.3277942E-2,6.63505E-2,-4.825482E-1,5.1552016E-1,7.459723E-1,-1.349237E-1,9.6003614E-2,1.3518501E-2,-6.8944263E-1,7.829787E-1,-2.9502916E-1,8.6643904E-1,8.420797E-1,-3.4826615E-1,-4.1469017E-1,-1.5529507E-1,1.3173084E-1,-0E0,-8.4646034E-1,7.294871E-2,9.5804614E-1,2.4185157E-3,9.1932315E-1,9.1017865E-2,-1.1787896E-1,4.5528617E-2,-4.9048364E-2,5.970088E-2,-0E0,-1.6977401E-1,9.0783164E-2,-0E0,8.259503E-2,-0E0,-7.545017E-2,8.381154E-2],"categories":[],"categories_nodes":[],"categories_segments":[],"categories_sizes":[],"default_left":[0,0,0,0,0,0,0,0,0,0,0,0,0,0,0,0,0,0,0,0,0,0,0,0,0,0,0,0,0,0,0,0,0,0,0,0,0,0,0,0,0,0,0,0,0,0,0,0,0],"id":16,"left_children":[1,3,5,7,9,11,13,15,17,-1,-1,19,-1,-1,-1,21,23,25,-1,-1,-1,27,29,31,33,35,37,39,-1,-1,-1,41,-1,43,-1,45,47,-1,-1,-1,-1,-1,-1,-1,-1,-1,-1,-1,-1],"loss_changes":[2.1839851E1,2.8046547E1,2.5577698E0,1.962723E1,6.2147675E0,7.653961E-1,1.5953571E0,2.029978E1,1.484289E1,0E0,0E0,3.7332916E-1,0E0,0E0,0E0,1.353172E1,9.938677E0,6.995716E0,0E0,0E0,0E0,1.2398542E1,3.3515706E0,6.3025117E0,1.1732864E0,2.693386E0,5.014499E0,6.7429647E0,0E0,0E0,0E0,7.0268865E0,0E0,1.5854168E0,0E0,2.9260979E0,5.944453E0,0E0,0E0,0E0,0E0,0E0,0E0,0E0,0E0,0E0,0E0,0E0,0E0],"parents":[2147483647,0,0,1,1,2,2,3,3,4,4,5,5,6,6,7,7,8,8,11,11,15,15,16,16,17,17,21,21,22,22,23,23,24,24,25,25,26,26,27,27,31,31,33,33,35,35,36,36],"right_children":[2,4,6,8,10,12,14,16,18,-1,-1,20,-1,-1,-1,22,24,26,-1,-1,-1,28,30,32,34,36,38,40,-1,-1,-1,42,-1,44,-1,46,48,-1,-1,-1,-1,-1,-1,-1,-1,-1,-1,-1,-1],"split_conditions":[1E0,1E0,1E0,1E0,1E0,1E0,1E0,1E0,1E0,9.971121E-2,-2.484499E-2,1E0,1.5164349E-2,-2.3277942E-2,6.63505E-2,1E0,1E0,1E0,-1.349237E-1,9.6003614E-2,1.3518501E-2,1E0,1E0,1E0,1E0,1E0,1E0,1E0,-1.5529507E-1,1.3173084E-1,-0E0,1E0,7.294871E-2,1E0,2.4185157E-3,1E0,1E0,-1.1787896E-1,4.5528617E-2,-4.9048364E-2,5.970088E-2,-0E0,-1.6977401E-1,9.0783164E-2,-0E0,8.259503E-2,-0E0,-7.545017E-2,8.381154E-2],"split_indices":[502,1991,917,1039,935,562,875,1480,1143,0,0,771,0,0,0,1050,1602,1480,0,0,0,947,968,1586,102,350,421,1385,0,0,0,1057,0,1385,0,1728,1573,0,0,0,0,0,0,0,0,0,0,0,0],"split_type":[0,0,0,0,0,0,0,0,0,0,0,0,0,0,0,0,0,0,0,0,0,0,0,0,0,0,0,0,0,0,0,0,0,0,0,0,0,0,0,0,0,0,0,0,0,0,0,0,0],"sum_hessian":[2.9173355E2,2.0039835E2,9.1335205E1,1.4958E2,5.0818336E1,8.6901245E1,4.4339643E0,8.4496544E1,6.508346E1,4.8593456E1,2.2248802E0,8.420245E1,2.6987865E0,2.2225058E0,2.2114582E0,5.128872E1,3.320783E1,6.2603104E1,2.4803553E0,8.211284E1,2.0896213E0,4.4616436E1,6.6722813E0,9.467847E0,2.3739983E1,5.8153584E1,4.4495187E0,3.6658104E1,7.95833E0,2.9320784E0,3.740203E0,6.837183E0,2.630664E0,2.0654902E1,3.08508E0,5.188193E1,6.271652E0,2.3369818E0,2.112537E0,3.2590084E1,4.0680227E0,4.029351E0,2.8078318E0,1.7894814E1,2.760088E0,4.9312595E1,2.5693362E0,2.641372E0,3.6302803E0],"tree_param":{"num_deleted":"0","num_feature":"2048","num_nodes":"49","size_leaf_vector":"1"}},{"base_weights":[6.9216E-1,7.1236044E-1,-9.1751814E-2,6.0376316E-1,1.0054923E0,2.0676047E-1,7.897742E-1,1.0498252E0,-1.4567793E-2,2.9617634E-1,-1.652478E-1,8.293987E-1,-1.3677527E-1,1.0694242E0,1.0430627E-2,4.1784087E-1,-7.9252267E-1,8.712589E-1,-4.059744E-2,9.260004E-2,2.0312238E-2,5.4888684E-1,-8.1510895E-1,-1.1547964E-1,-0E0,9.027779E-1,-4.036423E-2,6.401486E-2,5.176636E-4,-1.7232706E-1,4.8144467E-2,8.031586E-2,-0E0],"categories":[],"categories_nodes":[],"categories_segments":[],"categories_sizes":[],"default_left":[0,0,0,0,0,0,0,0,0,0,0,0,0,0,0,0,0,0,0,0,0,0,0,0,0,0,0,0,0,0,0,0,0],"id":17,"left_children":[1,3,-1,5,7,9,11,13,-1,15,-1,17,-1,19,-1,21,23,25,-1,-1,-1,27,29,-1,-1,31,-1,-1,-1,-1,-1,-1,-1],"loss_changes":[1.1048264E1,8.597458E0,0E0,1.6046288E1,4.8632507E0,1.3229885E1,1.4334579E1,6.086502E-1,0E0,9.263607E0,0E0,8.622566E0,0E0,4.677658E-1,0E0,1.0389252E1,3.271819E0,6.615402E0,0E0,0E0,0E0,6.1046124E0,1.1007655E1,0E0,0E0,6.0755997E0,0E0,0E0,0E0,0E0,0E0,0E0,0E0],"parents":[2147483647,0,0,1,1,3,3,4,4,5,5,6,6,7,7,9,9,11,11,13,13,15,15,16,16,17,17,21,21,22,22,25,25],"right_children":[2,4,-1,6,8,10,12,14,-1,16,-1,18,-1,20,-1,22,24,26,-1,-1,-1,28,30,-1,-1,32,-1,-1,-1,-1,-1,-1,-1],"split_conditions":[1E0,1E0,-9.1751814E-2,1E0,1E0,1E0,1E0,1E0,-1.4567793E-2,1E0,-1.652478E-1,1E0,-1.3677527E-1,1E0,1.0430627E-2,1E0,1E0,1E0,-4.059744E-2,9.260004E-2,2.0312238E-2,1E0,1E0,-1.1547964E-1,-0E0,1E0,-4.036423E-2,6.401486E-2,5.176636E-4,-1.7232706E-1,4.8144467E-2,8.031586E-2,-0E0],"split_indices":[1261,743,0,1917,458,366,2004,1564,0,1911,0,335,0,562,0,1535,1199,1312,0,0,0,409,392,0,0,1313,0,0,0,0,0,0,0],"split_type":[0,0,0,0,0,0,0,0,0,0,0,0,0,0,0,0,0,0,0,0,0,0,0,0,0,0,0,0,0,0,0,0,0],"sum_hessian":[3.1058356E2,3.075808E2,3.0027263E0,2.2655766E2,8.1023155E1,7.356836E1,1.529893E2,7.8651146E1,2.372007E0,7.110571E1,2.462644E0,1.5091312E2,2.0761929E0,7.628544E1,2.3657048E0,6.462455E1,6.481164E0,1.4679486E2,4.1182485E0,7.34484E1,2.8370395E0,5.9009003E1,5.615549E0,3.8255103E0,2.655654E0,1.4398987E2,2.8050003E0,4.1836666E1,1.7172335E1,3.1929743E0,2.4225748E0,1.3766022E2,6.329648E0],"tree_param":{"num_deleted":"0","num_feature":"2048","num_nodes":"33","size_leaf_vector":"1"}},{"base_weights":[6.145707E-1,4.4741544E-1,1.0055774E0,2.5438685E-2,7.6291656E-1,-0E0,1.0665859E0,-1.5362288E-1,1.0065913E-1,8.0226165E-1,-2.3732893E-2,7.171523E-2,-9.399806E-2,9.236694E-2,-0E0,1.5182357E-2,-1.5316585E-1,8.3534086E-1,-2.2201395E-2,-5.136246E-1,3.7813982E-1,8.6020434E-1,-7.430213E-3,-1.1014686E0,2.707893E-1,7.008712E-1,-4.4457817E-1,1.0320425E0,6.327681E-1,2.2218093E-2,-1.17214516E-1,5.3958725E-2,-3.0314086E-2,6.9192864E-2,-0E0,-9.312816E-2,4.9011014E-2,9.2574745E-2,9.413187E-3,1.8053783E-2,7.8876585E-2],"categories":[],"categories_nodes":[],"categories_segments":[],"categories_sizes":[],"default_left":[0,0,0,0,0,0,0,0,0,0,0,0,0,0,0,0,0,0,0,0,0,0,0,0,0,0,0,0,0,0,0,0,0,0,0,0,0,0,0,0,0],"id":18,"left_children":[1,3,5,7,9,11,13,15,-1,17,-1,-1,-1,-1,-1,19,-1,21,-1,23,25,27,-1,29,31,33,35,37,39,-1,-1,-1,-1,-1,-1,-1,-1,-1,-1,-1,-1],"loss_changes":[1.7052948E1,2.552951E1,5.655121E0,1.837295E1,4.9528503E0,4.3886776E0,1.2620087E0,2.1617485E1,0E0,4.2197037E0,0E0,0E0,0E0,0E0,0E0,1.2666725E1,0E0,2.9442596E0,0E0,1.2746516E1,1.0898214E1,2.7822647E0,0E0,6.7723465E0,2.7453403E0,1.9072304E0,7.730089E0,2.270584E0,5.006716E0,0E0,0E0,0E0,0E0,0E0,0E0,0E0,0E0,0E0,0E0,0E0,0E0],"parents":[2147483647,0,0,1,1,2,2,3,3,4,4,5,5,6,6,7,7,9,9,15,15,17,17,19,19,20,20,21,21,23,23,24,24,25,25,26,26,27,27,28,28],"right_children":[2,4,6,8,10,12,14,16,-1,18,-1,-1,-1,-1,-1,20,-1,22,-1,24,26,28,-1,30,32,34,36,38,40,-1,-1,-1,-1,-1,-1,-1,-1,-1,-1,-1,-1],"split_conditions":[1E0,1E0,1E0,1E0,1E0,1E0,1E0,1E0,1.0065913E-1,1E0,-2.3732893E-2,7.171523E-2,-9.399806E-2,9.236694E-2,-0E0,1E0,-1.5316585E-1,1E0,-2.2201395E-2,1E0,1E0,1E0,-7.430213E-3,1E0,1E0,1E0,1E0,1E0,1E0,2.2218093E-2,-1.17214516E-1,5.3958725E-2,-3.0314086E-2,6.9192864E-2,-0E0,-9.312816E-2,4.9011014E-2,9.2574745E-2,9.413187E-3,1.8053783E-2,7.8876585E-2],"split_indices":[896,191,650,249,1665,1535,1816,857,0,1436,0,0,0,0,0,1365,0,1034,0,335,1243,1045,0,80,1519,782,745,947,743,0,0,0,0,0,0,0,0,0,0,0,0],"split_type":[0,0,0,0,0,0,0,0,0,0,0,0,0,0,0,0,0,0,0,0,0,0,0,0,0,0,0,0,0,0,0,0,0,0,0,0,0,0,0,0,0],"sum_hessian":[2.7697995E2,1.9553831E2,8.144163E1,8.465476E1,1.10883545E2,4.1022625E0,7.733936E1,7.300135E1,1.1653419E1,1.07514946E2,3.3686016E0,2.0445662E0,2.0576963E0,7.52577E1,2.081666E0,6.605194E1,6.949404E0,1.0492514E2,2.5898056E0,2.6099731E1,3.9952213E1,1.0289127E2,2.0338678E0,1.5358484E1,1.0741247E1,2.93009E1,1.0651313E1,5.652041E1,4.6370865E1,2.2153695E0,1.3143114E1,7.4623766E0,3.278871E0,2.4444075E1,4.8568254E0,6.888093E0,3.76322E0,5.2383743E1,4.1366673E0,2.029199E1,2.6078875E1],"tree_param":{"num_deleted":"0","num_feature":"2048","num_nodes":"41","size_leaf_vector":"1"}},{"base_weights":[6.756917E-1,7.259115E-1,-4.1077748E-1,7.8349745E-1,-0E0,-1.0330621E0,1.1260798E-1,7.9992056E-1,-3.737138E-2,-5.9564054E-1,8.953088E-2,-1.2060408E-1,-0E0,8.2306755E-1,-3.3295877E-2,-1.0364413E0,8.74761E-2,8.4000003E-1,-1.7598217E-2,-8.5656196E-2,6.0182583E-2,-1.3010797E-1,-0E0,8.54132E-1,-3.657396E-2,7.370972E-2,-2.309005E-2],"categories":[],"categories_nodes":[],"categories_segments":[],"categories_sizes":[],"default_left":[0,0,0,0,0,0,0,0,0,0,0,0,0,0,0,0,0,0,0,0,0,0,0,0,0,0,0],"id":19,"left_children":[1,3,5,7,9,11,-1,13,-1,15,-1,-1,-1,17,19,21,-1,23,-1,-1,-1,-1,-1,25,-1,-1,-1],"loss_changes":[1.6263184E1,1.214003E1,1.3599165E1,5.5558624E0,1.2585946E1,4.6419497E0,0E0,5.5086823E0,0E0,9.796423E0,0E0,0E0,0E0,4.8520966E0,4.9836626E0,5.911666E0,0E0,4.820709E0,0E0,0E0,0E0,0E0,0E0,4.558914E0,0E0,0E0,0E0],"parents":[2147483647,0,0,1,1,2,2,3,3,4,4,5,5,7,7,9,9,13,13,14,14,15,15,17,17,23,23],"right_children":[2,4,6,8,10,12,-1,14,-1,16,-1,-1,-1,18,20,22,-1,24,-1,-1,-1,-1,-1,26,-1,-1,-1],"split_conditions":[1E0,1E0,1E0,1E0,1E0,1E0,1.1260798E-1,1E0,-3.737138E-2,1E0,8.953088E-2,-1.2060408E-1,-0E0,1E0,1E0,1E0,8.74761E-2,1E0,-1.7598217E-2,-8.5656196E-2,6.0182583E-2,-1.3010797E-1,-0E0,1E0,-3.657396E-2,7.370972E-2,-2.309005E-2],"split_indices":[781,13,1530,1436,1970,843,0,1564,0,216,0,0,0,1245,1077,703,0,1963,0,0,0,0,0,1261,0,0,0],"split_type":[0,0,0,0,0,0,0,0,0,0,0,0,0,0,0,0,0,0,0,0,0,0,0,0,0,0,0],"sum_hessian":[2.928742E2,2.80588E2,1.2286184E1,2.6060522E2,1.9982777E1,9.392012E0,2.8941722E0,2.5776413E2,2.841093E0,1.3142276E1,6.8405013E0,7.157399E0,2.2346125E0,2.5157962E2,6.184525E0,1.0722554E1,2.4197216E0,2.4818817E2,3.39145E0,3.0285273E0,3.1559975E0,7.2966895E0,3.4258647E0,2.4604608E2,2.1420898E0,2.4348207E2,2.5640068E0],"tree_param":{"num_deleted":"0","num_feature":"2048","num_nodes":"27","size_leaf_vector":"1"}},{"base_weights":[5.9595895E-1,4.3339518E-1,9.3981266E-1,1.5148571E-1,8.898103E-1,9.8309046E-1,-0E0,-9.569664E-2,8.226026E-1,9.66734E-1,-9.186598E-2,1.0145851E0,-0E0,-2.9924476E-1,8.033116E-2,-1.7931538E-2,9.441358E-1,1.0054237E0,-0E0,8.8688746E-2,3.2055236E-2,-1.2928456E-1,-1.517126E-1,8.7330565E-2,-0E0,2.8411365E-1,1.0488539E0,-2.8282043E-1,8.854137E-2,-2.7971095E-3,6.71699E-2,9.3774475E-2,5.407812E-1,-3.888918E-2,6.958391E-2,-0E0,8.82718E-2],"categories":[],"categories_nodes":[],"categories_segments":[],"categories_sizes":[],"default_left":[0,0,0,0,0,0,0,0,0,0,0,0,0,0,0,0,0,0,0,0,0,0,0,0,0,0,0,0,0,0,0,0,0,0,0,0,0],"id":20,"left_children":[1,3,5,7,9,11,-1,13,15,17,-1,19,-1,21,-1,-1,23,25,-1,-1,-1,27,-1,-1,-1,29,31,33,-1,-1,-1,-1,35,-1,-1,-1,-1],"loss_changes":[1.4158623E1,2.3189548E1,3.6338882E0,1.975203E1,1.0763351E1,2.4014587E0,0E0,1.7509947E1,4.550102E0,2.9035187E0,0E0,5.3001404E-1,0E0,1.6691418E1,0E0,0E0,2.485241E0,1.1021652E0,0E0,0E0,0E0,1.1174332E1,0E0,0E0,0E0,1.2982173E0,5.293884E-1,1.1020117E1,0E0,0E0,0E0,0E0,1.5781391E0,0E0,0E0,0E0,0E0],"parents":[2147483647,0,0,1,1,2,2,3,3,4,4,5,5,7,7,8,8,9,9,11,11,13,13,16,16,17,17,21,21,25,25,26,26,27,27,32,32],"right_children":[2,4,6,8,10,12,-1,14,16,18,-1,20,-1,22,-1,-1,24,26,-1,-1,-1,28,-1,-1,-1,30,32,34,-1,-1,-1,-1,36,-1,-1,-1,-1],"split_conditions":[1E0,1E0,1E0,1E0,1E0,1E0,-0E0,1E0,1E0,1E0,-9.186598E-2,1E0,-0E0,1E0,8.033116E-2,-1.7931538E-2,1E0,1E0,-0E0,8.8688746E-2,3.2055236E-2,1E0,-1.517126E-1,8.7330565E-2,-0E0,1E0,1E0,1E0,8.854137E-2,-2.7971095E-3,6.71699E-2,9.3774475E-2,1E0,-3.888918E-2,6.958391E-2,-0E0,8.82718E-2],"split_indices":[502,1970,1607,216,800,562,0,263,1362,781,0,1260,0,949,0,0,1728,606,0,0,0,591,0,0,0,785,1245,1424,0,0,0,0,1683,0,0,0,0],"split_type":[0,0,0,0,0,0,0,0,0,0,0,0,0,0,0,0,0,0,0,0,0,0,0,0,0,0,0,0,0,0,0,0,0,0,0,0,0],"sum_hessian":[2.7100378E2,1.856454E2,8.53584E1,1.158364E2,6.980899E1,8.175072E1,3.6076796E0,8.4057816E1,3.1778593E1,6.7616325E1,2.1926668E0,7.907441E1,2.6763086E0,7.0988014E1,1.3069801E1,2.7480524E0,2.903054E1,6.536928E1,2.2470434E0,7.4281006E1,4.793398E0,6.432032E1,6.6676884E0,2.6726349E1,2.304192E0,4.674395E0,6.0694885E1,5.7518272E1,6.80205E0,2.1860235E0,2.4883718E0,5.320573E1,7.4891543E0,5.02446E1,7.2736735E0,4.159825E0,3.3293297E0],"tree_param":{"num_deleted":"0","num_feature":"2048","num_nodes":"37","size_leaf_vector":"1"}},{"base_weights":[5.134695E-1,3.5309294E-1,8.8184E-1,1.4245498E-1,8.0989367E-1,9.81819E-1,-0E0,-4.430005E-1,4.4560134E-1,8.650046E-1,-0E0,8.711942E-2,-0E0,-6.543773E-2,6.3839614E-2,-7.674181E-1,6.04262E-1,6.541258E-1,-3.932822E-1,8.9010954E-1,5.1233447E-3,-1.3859816E-1,-6.962133E-2,1.999735E-3,7.275441E-2,8.070289E-1,-1.3235813E-1,-1.341854E0,4.016253E-1,8.0087796E-2,4.156812E-1,-3.8784182E-1,8.1776336E-2,9.15047E-1,-9.4803594E-2,-1.9264795E-1,1.1067901E-2,-0E0,8.159817E-2,-0E0,7.458992E-2,-5.5385217E-2,5.9080105E-2,8.293012E-2,-5.2208896E-3,-1.0510004E-2,3.171325E-2],"categories":[],"categories_nodes":[],"categories_segments":[],"categories_sizes":[],"default_left":[0,0,0,0,0,0,0,0,0,0,0,0,0,0,0,0,0,0,0,0,0,0,0,0,0,0,0,0,0,0,0,0,0,0,0,0,0,0,0,0,0,0,0,0,0,0,0],"id":21,"left_children":[1,3,5,7,9,11,13,15,17,19,-1,-1,-1,-1,-1,21,23,25,27,29,-1,-1,31,-1,-1,33,-1,35,37,-1,39,41,-1,43,-1,-1,-1,45,-1,-1,-1,-1,-1,-1,-1,-1,-1],"loss_changes":[1.4388023E1,1.682952E1,6.5896034E0,2.2343493E1,2.8035889E0,3.0901184E0,4.911643E0,1.4548392E1,1.4858704E1,4.2678452E-1,0E0,0E0,0E0,0E0,0E0,1.8677353E1,8.21738E-1,2.2681467E1,1.2911501E1,3.1001282E-1,0E0,0E0,5.8818045E0,0E0,0E0,1.3329147E1,0E0,1.215047E1,1.5436041E0,0E0,1.7171885E0,4.3847103E0,0E0,4.3422203E0,0E0,0E0,0E0,3.6851463E-1,0E0,0E0,0E0,0E0,0E0,0E0,0E0,0E0,0E0],"parents":[2147483647,0,0,1,1,2,2,3,3,4,4,5,5,6,6,7,7,8,8,9,9,15,15,16,16,17,17,18,18,19,19,22,22,25,25,27,27,28,28,30,30,31,31,33,33,37,37],"right_children":[2,4,6,8,10,12,14,16,18,20,-1,-1,-1,-1,-1,22,24,26,28,30,-1,-1,32,-1,-1,34,-1,36,38,-1,40,42,-1,44,-1,-1,-1,46,-1,-1,-1,-1,-1,-1,-1,-1,-1],"split_conditions":[1E0,1E0,1E0,1E0,1E0,1E0,1E0,1E0,1E0,1E0,-0E0,8.711942E-2,-0E0,-6.543773E-2,6.3839614E-2,1E0,1E0,1E0,1E0,1E0,5.1233447E-3,-1.3859816E-1,1E0,1.999735E-3,7.275441E-2,1E0,-1.3235813E-1,1E0,1E0,8.0087796E-2,1E0,1E0,8.1776336E-2,1E0,-9.4803594E-2,-1.9264795E-1,1.1067901E-2,1E0,8.159817E-2,-0E0,7.458992E-2,-5.5385217E-2,5.9080105E-2,8.293012E-2,-5.2208896E-3,-1.0510004E-2,3.171325E-2],"split_indices":[1970,502,1480,1917,1260,104,407,1424,935,947,0,0,0,0,0,1270,1602,1958,409,917,0,0,89,0,0,1313,0,1101,1903,0,1928,430,0,1978,0,0,0,591,0,0,0,0,0,0,0,0,0],"split_type":[0,0,0,0,0,0,0,0,0,0,0,0,0,0,0,0,0,0,0,0,0,0,0,0,0,0,0,0,0,0,0,0,0,0,0,0,0,0,0,0,0,0,0,0,0,0,0],"sum_hessian":[2.5839035E2,1.8156184E2,7.6828514E1,1.2544868E2,5.6113163E1,6.87743E1,8.054217E0,4.201241E1,8.3436264E1,5.2912315E1,3.2008474E0,6.576301E1,3.0112903E0,3.839652E0,4.2145653E0,3.2605186E1,9.407221E0,6.749956E1,1.5936711E1,5.048477E1,2.4275439E0,1.3993917E1,1.8611269E1,3.7277243E0,5.679497E0,6.3544743E1,3.9548113E0,7.5846186E0,8.352093E0,4.3875042E1,6.60973E0,1.4823124E1,3.7881458E0,6.0599037E1,2.9457068E0,4.859536E0,2.7250824E0,5.3982873E0,2.9538052E0,3.0719428E0,3.5377872E0,1.2472243E1,2.3508804E0,5.7591026E1,3.0080118E0,3.3595753E0,2.0387123E0],"tree_param":{"num_deleted":"0","num_feature":"2048","num_nodes":"47","size_leaf_vector":"1"}},{"base_weights":[6.0820353E-1,6.492665E-1,-1.2338907E-1,6.78487E-1,-3.3860907E-1,7.587748E-1,2.2685955E-1,-1.4933182E-1,1.9701514E-2,7.8577954E-1,-1.9662862E-1,-2.431211E-3,7.61545E-1,8.095547E-1,-2.0819971E-2,-8.957631E-2,3.752708E-2,-1.1616112E0,4.3019E-1,-2.2247162E-2,9.2061415E-2,8.2383996E-1,-0E0,-3.5651643E-2,-1.304668E-1,8.008598E-1,-9.223232E-2,7.135886E-2,-0E0,8.87119E-2,-0E0],"categories":[],"categories_nodes":[],"categories_segments":[],"categories_sizes":[],"default_left":[0,0,0,0,0,0,0,0,0,0,0,0,0,0,0,0,0,0,0,0,0,0,0,0,0,0,0,0,0,0,0],"id":22,"left_children":[1,3,-1,5,7,9,11,-1,-1,13,15,17,19,21,-1,-1,-1,23,25,-1,-1,27,-1,-1,-1,29,-1,-1,-1,-1,-1],"loss_changes":[2.0620132E1,7.2923126E0,0E0,7.8944473E0,6.353077E0,5.579445E0,5.080743E0,0E0,0E0,5.1986084E0,3.2388992E0,1.3348226E1,4.6095967E0,2.693901E0,0E0,0E0,0E0,6.202011E-1,1.0256258E1,0E0,0E0,2.4585114E0,0E0,0E0,0E0,3.4836864E0,0E0,0E0,0E0,0E0,0E0],"parents":[2147483647,0,0,1,1,3,3,4,4,5,5,6,6,9,9,10,10,11,11,12,12,13,13,17,17,18,18,21,21,25,25],"right_children":[2,4,-1,6,8,10,12,-1,-1,14,16,18,20,22,-1,-1,-1,24,26,-1,-1,28,-1,-1,-1,30,-1,-1,-1,-1,-1],"split_conditions":[1E0,1E0,-1.2338907E-1,1E0,1E0,1E0,1E0,-1.4933182E-1,1.9701514E-2,1E0,1E0,1E0,1E0,1E0,-2.0819971E-2,-8.957631E-2,3.752708E-2,1E0,1E0,-2.2247162E-2,9.2061415E-2,1E0,-0E0,-3.5651643E-2,-1.304668E-1,1E0,-9.223232E-2,7.135886E-2,-0E0,8.87119E-2,-0E0],"split_indices":[1992,1145,0,102,1911,1564,1270,0,0,1465,1267,389,1313,1284,0,0,0,1057,1243,0,0,428,0,0,0,1519,0,0,0,0,0],"split_type":[0,0,0,0,0,0,0,0,0,0,0,0,0,0,0,0,0,0,0,0,0,0,0,0,0,0,0,0,0,0,0],"sum_hessian":[2.4728075E2,2.429105E2,4.3702426E0,2.366515E2,6.258998E0,1.9955588E2,3.7095634E1,2.0052986E0,4.2536993E0,1.9478616E2,4.7697177E0,2.5231222E1,1.1864413E1,1.9107317E2,3.7129889E0,2.4227107E0,2.347007E0,7.182709E0,1.8048512E1,2.3640175E0,9.500396E0,1.8846631E2,2.6068628E0,3.163757E0,4.0189524E0,1.493751E1,3.111003E0,1.842156E2,4.2507052E0,1.1859442E1,3.0780675E0],"tree_param":{"num_deleted":"0","num_feature":"2048","num_nodes":"31","size_leaf_vector":"1"}},{"base_weights":[5.37982E-1,4.5566523E-1,8.9367025E-2,3.2629076E-1,8.5383856E-1,4.798929E-1,-4.7336817E-2,8.833865E-1,-0E0,5.587526E-1,-6.720293E-1,-3.4119385E-1,9.6900433E-1,7.864843E-2,2.742531E-1,6.054891E-1,-5.7824705E-2,-1.2865287E-1,2.585166E-3,-5.842335E-1,8.589791E-2,9.658125E-2,9.166222E-3,-0E0,6.403684E-2,6.474832E-1,-6.0006164E-2,-8.122286E-1,4.3544214E-2,4.4923134E-2,9.664947E-2,-8.78375E-2,5.824837E-2],"categories":[],"categories_nodes":[],"categories_segments":[],"categories_sizes":[],"default_left":[0,0,0,0,0,0,0,0,0,0,0,0,0,0,0,0,0,0,0,0,0,0,0,0,0,0,0,0,0,0,0,0,0],"id":23,"left_children":[1,3,-1,5,7,9,11,13,-1,15,17,19,21,-1,23,25,-1,-1,-1,27,-1,-1,-1,-1,-1,29,-1,31,-1,-1,-1,-1,-1],"loss_changes":[9.179977E0,9.998142E0,0E0,9.503962E0,9.624481E-1,1.04497795E1,1.3290177E1,4.294548E-1,0E0,6.312851E0,5.1087236E0,1.1711893E1,5.707178E-1,0E0,1.0759435E0,5.843319E0,0E0,0E0,0E0,8.080594E0,0E0,0E0,0E0,0E0,0E0,4.6954308E0,0E0,9.206968E0,0E0,0E0,0E0,0E0,0E0],"parents":[2147483647,0,0,1,1,3,3,4,4,5,5,6,6,7,7,9,9,10,10,11,11,12,12,14,14,15,15,19,19,25,25,27,27],"right_children":[2,4,-1,6,8,10,12,14,-1,16,18,20,22,-1,24,26,-1,-1,-1,28,-1,-1,-1,-1,-1,30,-1,32,-1,-1,-1,-1,-1],"split_conditions":[1E0,1E0,8.9367025E-2,1E0,1E0,1E0,1E0,1E0,-0E0,1E0,1E0,1E0,1E0,7.864843E-2,1E0,1E0,-5.7824705E-2,-1.2865287E-1,2.585166E-3,1E0,8.589791E-2,9.658125E-2,9.166222E-3,-0E0,6.403684E-2,1E0,-6.0006164E-2,1E0,4.3544214E-2,4.4923134E-2,9.664947E-2,-8.78375E-2,5.824837E-2],"split_indices":[67,743,0,1243,1665,1034,1990,1910,0,1922,1790,559,1501,0,1928,1481,0,0,0,1385,0,0,0,0,0,1349,0,1384,0,0,0,0,0],"split_type":[0,0,0,0,0,0,0,0,0,0,0,0,0,0,0,0,0,0,0,0,0,0,0,0,0,0,0,0,0,0,0,0,0],"sum_hessian":[2.42198E2,2.1030396E2,3.1894035E1,1.6027924E2,5.0024727E1,1.1480955E2,4.546968E1,4.7953953E1,2.0707757E0,1.0809562E2,6.713932E0,3.5887756E1,9.581927E0,4.3613976E1,4.3399744E0,1.0479154E2,3.304075E0,3.3719406E0,3.3419912E0,3.0943525E1,4.9442306E0,7.301226E0,2.2807012E0,2.058227E0,2.281747E0,1.02137985E2,2.6535566E0,2.6169735E1,4.773789E0,8.3833084E1,1.8304903E1,2.322035E1,2.9493847E0],"tree_param":{"num_deleted":"0","num_feature":"2048","num_nodes":"33","size_leaf_vector":"1"}},{"base_weights":[5.180039E-1,3.8351402E-1,8.9391196E-1,-2.3447594E-2,6.470014E-1,7.915021E-2,1.0231967E-3,1.641377E-1,-1.502708E0,8.2826144E-1,1.8629958E-1,-8.8080175E-2,7.0295686E-1,-1.6811188E-1,-3.370966E-2,8.767419E-1,-2.3017393E-2,-1.2926809E0,4.791334E-1,-4.6943122E-1,6.272565E-1,8.897259E-2,-1.5026319E-1,9.213117E-1,-0E0,-1.7816144E-1,-0E0,7.172614E-1,-1.4502673E-1,-8.8414127E-1,8.334129E-2,-1.7375678E-2,9.204736E-1,-1.1975852E-1,7.082071E-2,3.349224E-2,9.6807164E-1,8.289078E-1,-1.485182E-2,-1.22240275E-1,1.2820635E-3,9.066543E-2,1.8335758E-2,-2.5131604E-2,5.898267E-2,8.6534195E-2,3.7003316E-2,-8.317897E-3,8.074159E-2],"categories":[],"categories_nodes":[],"categories_segments":[],"categories_sizes":[],"default_left":[0,0,0,0,0,0,0,0,0,0,0,0,0,0,0,0,0,0,0,0,0,0,0,0,0,0,0,0,0,0,0,0,0,0,0,0,0,0,0,0,0,0,0,0,0,0,0,0,0],"id":24,"left_children":[1,3,5,7,9,-1,-1,11,13,15,17,19,21,-1,-1,23,-1,25,27,29,31,-1,33,35,-1,-1,-1,37,-1,39,-1,-1,41,-1,-1,43,45,47,-1,-1,-1,-1,-1,-1,-1,-1,-1,-1,-1],"loss_changes":[1.1209785E1,1.955365E1,1.5007019E0,2.018321E1,8.418926E0,0E0,0E0,8.755884E0,2.6029987E0,4.577034E0,1.3517898E1,1.1167496E1,6.658988E0,0E0,0E0,2.9066696E0,0E0,4.4105644E0,1.3862261E1,1.6693893E1,3.8769975E0,0E0,7.480109E0,2.2751312E0,0E0,0E0,0E0,2.9690914E0,0E0,1.1917948E1,0E0,0E0,2.2384357E-1,0E0,0E0,1.2880063E0,7.851944E-1,3.2138062E0,0E0,0E0,0E0,0E0,0E0,0E0,0E0,0E0,0E0,0E0,0E0],"parents":[2147483647,0,0,1,1,2,2,3,3,4,4,7,7,8,8,9,9,10,10,11,11,12,12,15,15,17,17,18,18,19,19,20,20,22,22,23,23,27,27,29,29,32,32,35,35,36,36,37,37],"right_children":[2,4,6,8,10,-1,-1,12,14,16,18,20,22,-1,-1,24,-1,26,28,30,32,-1,34,36,-1,-1,-1,38,-1,40,-1,-1,42,-1,-1,44,46,48,-1,-1,-1,-1,-1,-1,-1,-1,-1,-1,-1],"split_conditions":[1E0,1E0,1E0,1E0,1E0,7.915021E-2,1.0231967E-3,1E0,1E0,1E0,1E0,1E0,1E0,-1.6811188E-1,-3.370966E-2,1E0,-2.3017393E-2,1E0,1E0,1E0,1E0,8.897259E-2,1E0,1E0,-0E0,-1.7816144E-1,-0E0,1E0,-1.4502673E-1,1E0,8.334129E-2,-1.7375678E-2,1E0,-1.1975852E-1,7.082071E-2,1E0,1E0,1E0,-1.485182E-2,-1.22240275E-1,1.2820635E-3,9.066543E-2,1.8335758E-2,-2.5131604E-2,5.898267E-2,8.6534195E-2,3.7003316E-2,-8.317897E-3,8.074159E-2],"split_indices":[502,1917,1971,1169,1199,0,0,1970,389,1728,1754,1168,935,0,0,901,0,102,1866,269,130,0,407,606,0,0,0,745,0,592,0,0,1057,0,0,67,13,310,0,0,0,0,0,0,0,0,0,0,0],"split_type":[0,0,0,0,0,0,0,0,0,0,0,0,0,0,0,0,0,0,0,0,0,0,0,0,0,0,0,0,0,0,0,0,0,0,0,0,0,0,0,0,0,0,0,0,0,0,0,0,0],"sum_hessian":[2.3980583E2,1.7823286E2,6.1572964E1,6.912296E1,1.0910991E2,5.8216724E1,3.3562381E0,6.1105724E1,8.017238E0,7.714349E1,3.1966417E1,4.0895287E1,2.0210438E1,5.057042E0,2.9601953E0,7.450796E1,2.6355321E0,4.789749E0,2.717667E1,2.7330267E1,1.3565021E1,1.4903704E1,5.3067346E0,7.0878395E1,3.6295633E0,2.6861084E0,2.1036408E0,2.4910477E1,2.2661934E0,2.1678993E1,5.6512747E0,2.9569914E0,1.0608029E1,2.5851936E0,2.721541E0,4.2789187E0,6.659947E1,2.2818916E1,2.0915592E0,1.3769781E1,7.909212E0,7.8904476E0,2.717581E0,2.2581244E0,2.0207944E0,5.9343845E1,7.255629E0,2.0405874E0,2.077833E1],"tree_param":{"num_deleted":"0","num_feature":"2048","num_nodes":"49","size_leaf_vector":"1"}},{"base_weights":[4.9320552E-1,3.291781E-1,9.147096E-1,2.0824188E-1,8.969462E-2,9.522975E-1,4.166964E-1,9.553248E-2,9.832818E-1,8.405053E-2,3.6755908E-1,-0E0,6.328418E-2,-7.719452E-2,6.901877E-1,9.249974E-2,-0E0,-0E0,5.741727E-2,-1.8205626E-1,9.544132E-2,7.812598E-1,-0E0,-3.715474E-2,-1.4204068E0,7.475034E-2,-0E0,1.1498788E-1,-9.6603865E-3,-1.4324237E-1,-2.2759235E-2],"categories":[],"categories_nodes":[],"categories_segments":[],"categories_sizes":[],"default_left":[0,0,0,0,0,0,0,0,0,0,0,0,0,0,0,0,0,0,0,0,0,0,0,0,0,0,0,0,0,0,0],"id":25,"left_children":[1,3,5,7,-1,9,11,13,15,-1,17,-1,-1,19,21,-1,-1,-1,-1,23,-1,25,-1,27,29,-1,-1,-1,-1,-1,-1],"loss_changes":[1.35491295E1,1.24809265E1,7.5344086E-2,1.0725547E1,0E0,1.8611145E-1,4.5977432E-1,1.2291354E1,1.1006517E0,0E0,4.023137E-1,0E0,0E0,1.0617196E1,1.8527603E0,0E0,0E0,0E0,0E0,1.380684E1,0E0,2.1272078E0,0E0,7.162774E0,1.1168098E0,0E0,0E0,0E0,0E0,0E0,0E0],"parents":[2147483647,0,0,1,1,2,2,3,3,5,5,6,6,7,7,8,8,10,10,13,13,14,14,19,19,21,21,23,23,24,24],"right_children":[2,4,6,8,-1,10,12,14,16,-1,18,-1,-1,20,22,-1,-1,-1,-1,24,-1,26,-1,28,30,-1,-1,-1,-1,-1,-1],"split_conditions":[1E0,1E0,1E0,1E0,8.969462E-2,1E0,1E0,1E0,1E0,8.405053E-2,1E0,-0E0,6.328418E-2,1E0,1E0,9.249974E-2,-0E0,-0E0,5.741727E-2,1E0,9.544132E-2,1E0,-0E0,1E0,1E0,7.475034E-2,-0E0,1.1498788E-1,-9.6603865E-3,-1.4324237E-1,-2.2759235E-2],"split_indices":[502,67,917,1990,0,575,699,1323,718,0,1530,0,0,1530,1754,0,0,0,0,841,0,585,0,1380,562,0,0,0,0,0,0],"split_type":[0,0,0,0,0,0,0,0,0,0,0,0,0,0,0,0,0,0,0,0,0,0,0,0,0,0,0,0,0,0,0],"sum_hessian":[2.0868462E2,1.5163037E2,5.7054253E1,1.3104953E2,2.0580833E1,5.1627865E1,5.4263854E0,1.1536621E2,1.5683327E1,4.7227287E1,4.4005785E0,3.0493417E0,2.3770435E0,8.866719E1,2.6699018E1,1.3638758E1,2.0445683E0,2.3702903E0,2.0302882E0,8.22265E1,6.440684E0,2.3827398E1,2.8716204E0,7.428608E1,7.9404273E0,2.1423374E1,2.4040246E0,3.2448428E0,7.104124E1,5.89243E0,2.0479975E0],"tree_param":{"num_deleted":"0","num_feature":"2048","num_nodes":"31","size_leaf_vector":"1"}},{"base_weights":[4.927058E-1,3.6773494E-1,9.3836486E-1,-6.783495E-2,6.0683614E-1,8.4569E-2,9.589933E-3,-2.2875118E-1,8.4934875E-2,6.71388E-1,-9.470692E-2,-7.5209665E-1,1.5504716E-1,7.2812057E-1,-1.0374712E-1,4.983979E-2,-9.372237E-1,-9.69117E-2,8.7249406E-2,7.77253E-1,-1.21448636E-1,-7.8983344E-2,4.050755E-2,-1.0902026E0,-0E0,-1.311513E-1,3.2858333E-1,8.238881E-1,-0E0,-1.1852139E-1,7.147296E-2,-1.1540056E-1,-0E0,-1.3328569E-1,5.8957513E-2,7.694533E-2,2.1657119E-2,-4.7269378E-2,6.4892724E-2],"categories":[],"categories_nodes":[],"categories_segments":[],"categories_sizes":[],"default_left":[0,0,0,0,0,0,0,0,0,0,0,0,0,0,0,0,0,0,0,0,0,0,0,0,0,0,0,0,0,0,0,0,0,0,0,0,0,0,0],"id":26,"left_children":[1,3,5,7,9,-1,-1,11,-1,13,-1,15,17,19,21,-1,23,25,-1,27,29,-1,-1,31,-1,-1,33,35,37,-1,-1,-1,-1,-1,-1,-1,-1,-1,-1],"loss_changes":[1.0862431E1,1.7767942E1,1.4176292E0,9.578684E0,1.1968296E1,0E0,0E0,1.0761972E1,0E0,5.069626E0,0E0,5.939596E0,7.0544553E0,4.5933914E0,3.5537171E0,0E0,3.5346317E0,1.4609906E1,0E0,3.1713371E0,6.5802608E0,0E0,0E0,4.4175625E0,0E0,0E0,1.1460166E1,3.3729935E0,2.6760502E0,0E0,0E0,0E0,0E0,0E0,0E0,0E0,0E0,0E0,0E0],"parents":[2147483647,0,0,1,1,2,2,3,3,4,4,7,7,9,9,11,11,12,12,13,13,14,14,16,16,17,17,19,19,20,20,23,23,26,26,27,27,28,28],"right_children":[2,4,6,8,10,-1,-1,12,-1,14,-1,16,18,20,22,-1,24,26,-1,28,30,-1,-1,32,-1,-1,34,36,38,-1,-1,-1,-1,-1,-1,-1,-1,-1,-1],"split_conditions":[1E0,1E0,1E0,1E0,1E0,8.4569E-2,9.589933E-3,1E0,8.4934875E-2,1E0,-9.470692E-2,1E0,1E0,1E0,1E0,4.983979E-2,1E0,1E0,8.7249406E-2,1E0,1E0,-7.8983344E-2,4.050755E-2,1E0,-0E0,-1.311513E-1,1E0,1E0,1E0,-1.1852139E-1,7.147296E-2,-1.1540056E-1,-0E0,-1.3328569E-1,5.8957513E-2,7.694533E-2,2.1657119E-2,-4.7269378E-2,6.4892724E-2],"split_indices":[743,1917,575,1530,1778,0,0,1602,0,901,0,1750,407,197,1114,0,89,1088,0,656,374,0,0,130,0,0,695,1270,1172,0,0,0,0,0,0,0,0,0,0],"split_type":[0,0,0,0,0,0,0,0,0,0,0,0,0,0,0,0,0,0,0,0,0,0,0,0,0,0,0,0,0,0,0,0,0,0,0,0,0,0,0],"sum_hessian":[2.117769E2,1.668615E2,4.4915413E1,5.819713E1,1.0866437E2,4.1141296E1,3.774117E0,5.1267723E1,6.9294076E0,1.0523603E2,3.4283347E0,2.2343437E1,2.8924284E1,9.88739E1,6.362126E0,2.2201476E0,2.012329E1,2.1997673E1,6.926612E0,9.42285E1,4.645401E0,3.0484653E0,3.3136606E0,1.7792181E1,2.3311088E0,5.225896E0,1.6771776E1,8.851239E1,5.716115E0,2.257856E0,2.3875453E0,1.3738756E1,4.0534244E0,2.3075256E0,1.44642515E1,7.608011E1,1.243228E1,3.108506E0,2.607609E0],"tree_param":{"num_deleted":"0","num_feature":"2048","num_nodes":"39","size_leaf_vector":"1"}},{"base_weights":[4.899726E-1,3.6125946E-1,8.316172E-1,2.5627616E-1,8.7541215E-2,8.741272E-1,-0E0,8.08728E-2,7.9064196E-1,9.0260404E-1,-0E0,1.3473509E-1,-1.1331511E-1,1.0335573E0,-0E0,9.323999E-1,6.6818628E-3,7.378652E-2,1.0162982E-1,8.3548087E-1,1.21939845E-1,-6.0988176E-1,7.147112E-2,8.329433E-2,4.4269335E-1,-6.6871256E-2,5.514584E-1,7.911669E-4,7.80709E-2,-1.0607518E-1,-0E0,-1.2929128E-2,7.6733336E-2,-1.1431747E-2,1.0161788E-1,5.6805506E-2,-2.5098972E-2],"categories":[],"categories_nodes":[],"categories_segments":[],"categories_sizes":[],"default_left":[0,0,0,0,0,0,0,0,0,0,0,0,0,0,0,0,0,0,0,0,0,0,0,0,0,0,0,0,0,0,0,0,0,0,0,0,0],"id":27,"left_children":[1,3,5,7,-1,9,-1,11,13,15,-1,17,-1,19,21,23,-1,25,-1,27,-1,29,-1,-1,31,33,35,-1,-1,-1,-1,-1,-1,-1,-1,-1,-1],"loss_changes":[8.390068E0,9.968321E0,2.5219727E0,1.2037047E1,0E0,7.4464035E-1,0E0,7.0668945E0,6.1666393E0,5.740814E-1,0E0,5.582085E0,0E0,2.099762E-1,4.149669E0,1.4564514E-1,0E0,6.71037E0,0E0,6.516447E-1,0E0,1.8876166E0,0E0,0E0,2.2105813E0,5.544508E0,2.5644722E0,0E0,0E0,0E0,0E0,0E0,0E0,0E0,0E0,0E0,0E0],"parents":[2147483647,0,0,1,1,2,2,3,3,5,5,7,7,8,8,9,9,11,11,13,13,14,14,15,15,17,17,19,19,21,21,24,24,25,25,26,26],"right_children":[2,4,6,8,-1,10,-1,12,14,16,-1,18,-1,20,22,24,-1,26,-1,28,-1,30,-1,-1,32,34,36,-1,-1,-1,-1,-1,-1,-1,-1,-1,-1],"split_conditions":[1E0,1E0,1E0,1E0,8.7541215E-2,1E0,-0E0,1E0,1E0,1E0,-0E0,1E0,-1.1331511E-1,1E0,1E0,1E0,6.6818628E-3,1E0,1.0162982E-1,1E0,1.21939845E-1,1E0,7.147112E-2,8.329433E-2,1E0,1E0,1E0,7.911669E-4,7.80709E-2,-1.0607518E-1,-0E0,-1.2929128E-2,7.6733336E-2,-1.1431747E-2,1.0161788E-1,5.6805506E-2,-2.5098972E-2],"split_indices":[502,67,87,216,0,1453,0,744,310,1626,0,269,0,1607,1697,575,0,1634,0,1581,0,843,0,0,1114,589,585,0,0,0,0,0,0,0,0,0,0],"split_type":[0,0,0,0,0,0,0,0,0,0,0,0,0,0,0,0,0,0,0,0,0,0,0,0,0,0,0,0,0,0,0,0,0,0,0,0,0],"sum_hessian":[2.1012315E2,1.5435173E2,5.577142E1,1.3457045E2,1.9781277E1,5.375986E1,2.011559E0,1.0243452E2,3.2135937E1,5.1322376E1,2.4374866E0,9.93168E1,3.117712E0,2.4492544E1,7.643394E0,4.8722004E1,2.6003735E0,9.4735695E1,4.5811048E0,1.7968718E1,6.523826E0,4.437017E0,3.2063773E0,4.2818127E1,5.9038754E0,7.2241554E1,2.2494139E1,2.4290016E0,1.5539716E1,2.105351E0,2.3316658E0,2.008166E0,3.8957095E0,6.923736E1,3.0041993E0,2.0470095E1,2.0240445E0],"tree_param":{"num_deleted":"0","num_feature":"2048","num_nodes":"37","size_leaf_vector":"1"}},{"base_weights":[4.9717298E-1,3.6222544E-1,9.225154E-1,4.057918E-1,-1.8171528E-1,9.554387E-1,9.417387E-3,2.4285139E-1,9.63986E-1,8.514228E-2,2.9901415E-1,1.3933381E-1,9.7304516E-2,1.0130856E0,8.388036E-3,-0E0,6.088878E-2,-0E0,5.526988E-1,9.006038E-2,2.6048437E-2,-1.6807838E-1,4.1569006E-1,1.6917583E-2,8.606421E-1,-2.203476E-2,1.09560035E-1,-3.537713E-2,6.286986E-2,-4.048531E-2,6.6548415E-2,1.1721007E-2,9.06712E-2],"categories":[],"categories_nodes":[],"categories_segments":[],"categories_sizes":[],"default_left":[0,0,0,0,0,0,0,0,0,0,0,0,0,0,0,0,0,0,0,0,0,0,0,0,0,0,0,0,0,0,0,0,0],"id":28,"left_children":[1,3,5,7,-1,9,-1,11,13,-1,15,17,-1,19,-1,-1,-1,21,23,-1,-1,25,27,29,31,-1,-1,-1,-1,-1,-1,-1,-1],"loss_changes":[1.1010971E1,1.6413826E1,5.6850815E-1,1.3437178E1,0E0,5.274658E-1,0E0,1.0605452E1,7.0215607E-1,0E0,8.399228E-1,6.57108E0,0E0,1.1338806E-1,0E0,0E0,0E0,5.7189884E0,4.1248226E0,0E0,0E0,7.356204E0,6.6096897E0,4.618715E0,1.773324E0,0E0,0E0,0E0,0E0,0E0,0E0,0E0,0E0],"parents":[2147483647,0,0,1,1,2,2,3,3,5,5,7,7,8,8,10,10,11,11,13,13,17,17,18,18,21,21,22,22,23,23,24,24],"right_children":[2,4,6,8,-1,10,-1,12,14,-1,16,18,-1,20,-1,-1,-1,22,24,-1,-1,26,28,30,32,-1,-1,-1,-1,-1,-1,-1,-1],"split_conditions":[1E0,1E0,1E0,1E0,-1.8171528E-1,1E0,9.417387E-3,1E0,1E0,8.514228E-2,1E0,1E0,9.7304516E-2,1E0,8.388036E-3,-0E0,6.088878E-2,1E0,1E0,9.006038E-2,2.6048437E-2,1E0,1E0,1E0,1E0,-2.203476E-2,1.09560035E-1,-3.537713E-2,6.286986E-2,-4.048531E-2,6.6548415E-2,1.1721007E-2,9.06712E-2],"split_indices":[502,1578,1260,456,0,575,0,888,1567,0,1854,1970,0,106,0,0,0,1480,1917,0,0,1997,875,1362,310,0,0,0,0,0,0,0,0],"split_type":[0,0,0,0,0,0,0,0,0,0,0,0,0,0,0,0,0,0,0,0,0,0,0,0,0,0,0,0,0,0,0,0,0],"sum_hessian":[2.0778189E2,1.5921933E2,4.856257E1,1.56929E2,2.2903235E0,4.5842724E1,2.7198448E0,1.2262645E2,3.430255E1,4.165143E1,4.191293E0,1.1090693E2,1.17195215E1,3.1695982E1,2.6065676E0,2.0042634E0,2.1870296E0,8.2540565E1,2.8366364E1,2.8670998E1,3.0249846E0,5.939432E1,2.3146244E1,1.122449E1,1.7141872E1,5.6474213E1,2.92011E0,5.9111953E0,1.7235048E1,6.3462567E0,4.8782334E0,4.6304665E0,1.2511407E1],"tree_param":{"num_deleted":"0","num_feature":"2048","num_nodes":"33","size_leaf_vector":"1"}},{"base_weights":[4.4706655E-1,2.8182265E-1,6.543783E-1,3.1823468E-1,-8.29428E-2,7.123425E-1,-2.6778782E-2,3.592254E-1,-5.657178E-2,8.227456E-1,2.50331E-1,1.6600621E-1,5.51053E-1,8.8600343E-1,-1.3755725E-3,-7.382073E-1,9.342747E-2,-2.8038493E-1,4.3611988E-1,-0E0,8.3342594E-1,8.172969E-2,4.3303496E-1,-1.4281948E0,7.3508315E-2,-8.294421E-1,6.716024E-1,9.43479E-1,1.6752295E-1,-4.2355084E-1,6.4683527E-1,8.942999E-1,-0E0,7.8719825E-2,-4.2320922E-2,-1.5995072E-1,-3.9182283E-2,-1.3655211E-1,-0E0,-0E0,7.646933E-2,8.8472925E-2,1.1797987E-2,-8.568246E-2,3.045363E-2,-7.475758E-2,4.0526375E-2,6.344501E-4,6.723207E-2,7.9637736E-2,2.3739414E-2,-5.745435E-2,3.3324294E-2],"categories":[],"categories_nodes":[],"categories_segments":[],"categories_sizes":[],"default_left":[0,0,0,0,0,0,0,0,0,0,0,0,0,0,0,0,0,0,0,0,0,0,0,0,0,0,0,0,0,0,0,0,0,0,0,0,0,0,0,0,0,0,0,0,0,0,0,0,0,0,0,0,0],"id":29,"left_children":[1,3,5,7,-1,9,-1,11,-1,13,15,17,19,21,-1,23,-1,25,27,29,31,-1,33,35,-1,37,39,41,43,45,47,49,-1,-1,51,-1,-1,-1,-1,-1,-1,-1,-1,-1,-1,-1,-1,-1,-1,-1,-1,-1,-1],"loss_changes":[6.3083076E0,4.9165173E0,5.2774963E0,4.4002333E0,0E0,3.527832E0,0E0,3.5461903E0,0E0,4.117775E0,1.528061E1,6.9283986E0,8.511389E0,1.1804619E0,0E0,9.419289E0,0E0,1.0909829E1,4.150601E0,4.8433943E0,1.93857E0,0E0,3.1382945E0,8.685198E-1,0E0,8.551022E0,8.8045096E-1,1.0930729E-1,5.21973E0,4.9588237E0,9.7244024E-2,3.907776E-2,0E0,0E0,1.6298809E0,0E0,0E0,0E0,0E0,0E0,0E0,0E0,0E0,0E0,0E0,0E0,0E0,0E0,0E0,0E0,0E0,0E0,0E0],"parents":[2147483647,0,0,1,1,2,2,3,3,5,5,7,7,9,9,10,10,11,11,12,12,13,13,15,15,17,17,18,18,19,19,20,20,22,22,23,23,25,25,26,26,27,27,28,28,29,29,30,30,31,31,34,34],"right_children":[2,4,6,8,-1,10,-1,12,-1,14,16,18,20,22,-1,24,-1,26,28,30,32,-1,34,36,-1,38,40,42,44,46,48,50,-1,-1,52,-1,-1,-1,-1,-1,-1,-1,-1,-1,-1,-1,-1,-1,-1,-1,-1,-1,-1],"split_conditions":[1E0,1E0,1E0,1E0,-8.29428E-2,1E0,-2.6778782E-2,1E0,-5.657178E-2,1E0,1E0,1E0,1E0,1E0,-1.3755725E-3,1E0,9.342747E-2,1E0,1E0,1E0,1E0,8.172969E-2,1E0,1E0,7.3508315E-2,1E0,1E0,1E0,1E0,1E0,1E0,1E0,-0E0,7.8719825E-2,1E0,-1.5995072E-1,-3.9182283E-2,-1.3655211E-1,-0E0,-0E0,7.646933E-2,8.8472925E-2,1.1797987E-2,-8.568246E-2,3.045363E-2,-7.475758E-2,4.0526375E-2,6.344501E-4,6.723207E-2,7.9637736E-2,2.3739414E-2,-5.745435E-2,3.3324294E-2],"split_indices":[1581,1922,1971,1737,0,1077,0,310,0,857,1114,1607,1917,1028,0,1252,0,1738,1476,249,1683,0,843,935,0,1984,1917,1243,141,715,169,1756,0,0,392,0,0,0,0,0,0,0,0,0,0,0,0,0,0,0,0,0,0],"split_type":[0,0,0,0,0,0,0,0,0,0,0,0,0,0,0,0,0,0,0,0,0,0,0,0,0,0,0,0,0,0,0,0,0,0,0,0,0,0,0,0,0,0,0,0,0,0,0,0,0,0,0,0,0],"sum_hessian":[2.0331049E2,1.1519799E2,8.811249E1,1.12626816E2,2.571176E0,8.384603E1,4.2664576E0,1.08904686E2,3.7221298E0,6.637721E1,1.7468819E1,5.6182434E1,5.2722248E1,6.2453114E1,3.924099E0,7.7311707E0,9.737649E0,2.0244602E1,3.5937836E1,1.7535892E1,3.5186356E1,5.187105E1,1.0582062E1,5.713618E0,2.0175529E0,1.3301433E1,6.943169E0,1.1399466E1,2.4538368E1,1.09489E1,6.586993E0,3.2955986E1,2.2303672E0,5.7764277E0,4.8056345E0,3.2753813E0,2.4382367E0,6.679532E0,6.6219E0,2.0979533E0,4.845216E0,9.350799E0,2.0486674E0,2.8207607E0,2.1717607E1,7.7557993E0,3.1931007E0,2.1141655E0,4.472828E0,2.9613071E1,3.3429158E0,2.5318704E0,2.273764E0],"tree_param":{"num_deleted":"0","num_feature":"2048","num_nodes":"53","size_leaf_vector":"1"}},{"base_weights":[3.9852735E-1,4.3309113E-1,-1.0582878E-1,-4.5386624E-1,4.9551678E-1,-1.2956136E-1,5.737271E-1,3.6065435E-1,9.238347E-1,-0E0,6.932618E-2,2.4715117E-1,8.96882E-2,9.7646993E-1,-0E0,1.0078251E-1,7.829512E-1,3.1243076E-3,8.594239E-2,2.4154922E-1,-9.2940915E-1,4.4446623E-1,8.54002E-2,2.7198985E-2,-6.490001E-2,-1.2416198E-1,2.400995E-2,-4.240733E-4,7.80938E-2],"categories":[],"categories_nodes":[],"categories_segments":[],"categories_sizes":[],"default_left":[0,0,0,0,0,0,0,0,0,0,0,0,0,0,0,0,0,0,0,0,0,0,0,0,0,0,0,0,0],"id":30,"left_children":[1,3,-1,5,7,-1,9,11,13,-1,-1,15,-1,17,-1,19,21,-1,-1,23,25,27,-1,-1,-1,-1,-1,-1,-1],"loss_changes":[1.0244133E1,1.0281315E1,0E0,1.3531967E1,9.06786E0,0E0,5.8993006E-1,9.600758E0,2.0073662E0,0E0,0E0,8.456179E0,0E0,6.014023E-1,0E0,1.2925791E1,7.4007607E-1,0E0,0E0,6.25554E0,7.695896E0,2.9723756E0,0E0,0E0,0E0,0E0,0E0,0E0,0E0],"parents":[2147483647,0,0,1,1,3,3,4,4,6,6,7,7,8,8,11,11,13,13,15,15,16,16,19,19,20,20,21,21],"right_children":[2,4,-1,6,8,-1,10,12,14,-1,-1,16,-1,18,-1,20,22,-1,-1,24,26,28,-1,-1,-1,-1,-1,-1,-1],"split_conditions":[1E0,1E0,-1.0582878E-1,1E0,1E0,-1.2956136E-1,1E0,1E0,1E0,-0E0,6.932618E-2,1E0,8.96882E-2,1E0,-0E0,1E0,1E0,3.1243076E-3,8.594239E-2,1E0,1E0,1E0,8.54002E-2,2.7198985E-2,-6.490001E-2,-1.2416198E-1,2.400995E-2,-4.240733E-4,7.80938E-2],"split_indices":[1992,227,0,502,896,0,2022,1349,809,0,0,502,0,650,0,1866,926,0,0,781,1798,1313,0,0,0,0,0,0,0],"split_type":[0,0,0,0,0,0,0,0,0,0,0,0,0,0,0,0,0,0,0,0,0,0,0,0,0,0,0,0,0],"sum_hessian":[1.8745003E2,1.8414145E2,3.3085868E0,1.1319221E1,1.7282222E2,5.804878E0,5.5143423E0,1.3291246E2,3.9909763E1,2.0182338E0,3.4961088E0,1.1535664E2,1.755581E1,3.7806816E1,2.10295E0,9.177716E1,2.3579485E1,2.1208367E0,3.5685978E1,8.145364E1,1.0323516E1,1.0818917E1,1.2760567E1,7.626542E1,5.188229E0,7.5185237E0,2.8049922E0,4.948623E0,5.8702946E0],"tree_param":{"num_deleted":"0","num_feature":"2048","num_nodes":"29","size_leaf_vector":"1"}},{"base_weights":[4.6669054E-1,2.5260836E-1,6.670873E-1,-1.3009675E-1,6.0534483E-1,7.750987E-1,5.7021078E-2,-5.277555E-1,5.6822443E-1,7.868859E-1,-6.685383E-2,8.126989E-1,-1.026217E-2,-3.2665354E-1,6.3457704E-1,-8.510729E-1,5.8040813E-2,-2.542667E-2,8.168312E-2,8.877059E-1,-1.2562594E-2,-1.0500576E-1,3.6139733E-1,8.776509E-1,9.190727E-2,-9.598839E-2,2.7857607E-2,7.109797E-2,4.5631486E-3,-1.8925157E-1,-1.4182387E-1,9.889539E-1,3.82297E-1,-6.2827426E-3,6.1837055E-2,9.319008E-1,3.3165547E-1,5.0101686E-2,-4.2751152E-2,1.4072222E-1,-1.0137034E-1,8.834857E-2,1.5977366E-2,-0E0,7.722334E-2,9.60192E-1,5.7330704E-3,-0E0,6.5046236E-2,8.797696E-2,-4.0088277E-3,-5.5717807E-2,6.504041E-2,8.412436E-2,8.353467E-3],"categories":[],"categories_nodes":[],"categories_segments":[],"categories_sizes":[],"default_left":[0,0,0,0,0,0,0,0,0,0,0,0,0,0,0,0,0,0,0,0,0,0,0,0,0,0,0,0,0,0,0,0,0,0,0,0,0,0,0,0,0,0,0,0,0,0,0,0,0,0,0,0,0,0,0],"id":31,"left_children":[1,3,5,7,9,11,13,15,17,19,21,23,-1,25,27,29,-1,-1,-1,31,-1,-1,33,35,37,-1,-1,-1,-1,39,-1,41,43,-1,-1,45,47,-1,-1,49,-1,-1,-1,51,-1,53,-1,-1,-1,-1,-1,-1,-1,-1,-1],"loss_changes":[7.0522804E0,1.2312996E1,5.430233E0,1.1648636E1,6.242378E0,3.0549622E0,3.5366404E0,1.095451E1,5.526832E0,4.0940323E0,5.4058437E0,2.8009071E0,0E0,5.0197363E0,1.8551898E-1,1.0713152E1,0E0,0E0,0E0,7.9102135E-1,0E0,0E0,1.5124047E0,1.077343E0,2.2588716E0,0E0,0E0,0E0,0E0,5.0318956E0,0E0,3.0934334E-1,8.987639E-1,0E0,0E0,7.607155E-1,1.4726875E0,0E0,0E0,2.2594976E0,0E0,0E0,0E0,2.7415266E0,0E0,8.028679E-1,0E0,0E0,0E0,0E0,0E0,0E0,0E0,0E0,0E0],"parents":[2147483647,0,0,1,1,2,2,3,3,4,4,5,5,6,6,7,7,8,8,9,9,10,10,11,11,13,13,14,14,15,15,19,19,22,22,23,23,24,24,29,29,31,31,32,32,35,35,36,36,39,39,43,43,45,45],"right_children":[2,4,6,8,10,12,14,16,18,20,22,24,-1,26,28,30,-1,-1,-1,32,-1,-1,34,36,38,-1,-1,-1,-1,40,-1,42,44,-1,-1,46,48,-1,-1,50,-1,-1,-1,52,-1,54,-1,-1,-1,-1,-1,-1,-1,-1,-1],"split_conditions":[1E0,1E0,1E0,1E0,1E0,1E0,1E0,1E0,1E0,1E0,1E0,1E0,-1.026217E-2,1E0,1E0,1E0,5.8040813E-2,-2.542667E-2,8.168312E-2,1E0,-1.2562594E-2,-1.0500576E-1,1E0,1E0,1E0,-9.598839E-2,2.7857607E-2,7.109797E-2,4.5631486E-3,1E0,-1.4182387E-1,1E0,1E0,-6.2827426E-3,6.1837055E-2,1E0,1E0,5.0101686E-2,-4.2751152E-2,1E0,-1.0137034E-1,8.834857E-2,1.5977366E-2,1E0,7.722334E-2,1E0,5.7330704E-3,-0E0,6.5046236E-2,8.797696E-2,-4.0088277E-3,-5.5717807E-2,6.504041E-2,8.412436E-2,8.353467E-3],"split_indices":[191,1917,102,335,935,1978,4,249,1602,1958,1365,197,0,703,1088,1476,0,0,0,2018,0,0,1088,901,1088,0,0,0,0,926,0,1440,1440,0,0,1910,1114,0,0,1152,0,0,0,1160,0,575,0,0,0,0,0,0,0,0,0],"split_type":[0,0,0,0,0,0,0,0,0,0,0,0,0,0,0,0,0,0,0,0,0,0,0,0,0,0,0,0,0,0,0,0,0,0,0,0,0,0,0,0,0,0,0,0,0,0,0,0,0,0,0,0,0,0,0],"sum_hessian":[1.7931104E2,8.8532646E1,9.077839E1,4.1616386E1,4.691626E1,7.614586E1,1.4632535E1,2.7158289E1,1.44580965E1,3.769483E1,9.22143E0,7.381343E1,2.3324275E0,8.150658E0,6.4818773E0,2.1922752E1,5.235536E0,4.006025E0,1.0452072E1,3.4680294E1,3.0145369E0,2.782685E0,6.4387445E0,6.682025E1,6.993174E0,4.0473323E0,4.103325E0,3.8799567E0,2.6019206E0,1.2728319E1,9.194433E0,2.76266E1,7.053693E0,2.1905992E0,4.2481456E0,5.9535362E1,7.2848926E0,4.4183445E0,2.5748298E0,9.217342E0,3.510977E0,2.5082733E1,2.5438676E0,4.895192E0,2.1585004E0,5.6877674E1,2.6576884E0,3.5852659E0,3.6996267E0,2.0525453E0,7.1647973E0,2.215066E0,2.6801262E0,5.4091343E1,2.7863317E0],"tree_param":{"num_deleted":"0","num_feature":"2048","num_nodes":"55","size_leaf_vector":"1"}},{"base_weights":[4.272559E-1,3.0790225E-1,8.1979835E-1,-2.6341299E-2,5.024231E-1,8.5857886E-1,-0E0,-5.4129416E-1,3.0028513E-1,6.533502E-1,-7.286002E-2,9.2136633E-1,1.2322452E-2,-0E0,-1.5953755E0,4.4192873E-2,6.820866E-2,7.1978885E-1,-2.9523684E-2,-6.404542E-1,6.806186E-2,8.251134E-2,4.933194E-3,7.256123E-2,-1.4627728E-1,-1.755442E-1,-1.5340594E-2,2.4632972E-1,-1.01701304E-1,8.329362E-1,1.0210912E-1,-1.4969978E0,2.1365923E-1,-5.6104666E-1,4.0073343E-2,5.4703695E-1,-2.9090384E-1,8.883711E-1,-4.0817386E-3,-4.769587E-1,7.8404404E-2,-1.6917999E-1,-2.4897192E-2,-9.703485E-3,5.502729E-2,-1.0806771E-1,3.6170818E-2,2.268765E-2,9.7500734E-2,-1.2128257E-1,1.736039E-2,7.882156E-2,3.0766197E-2,-1.0059873E-1,1.8019373E-2],"categories":[],"categories_nodes":[],"categories_segments":[],"categories_sizes":[],"default_left":[0,0,0,0,0,0,0,0,0,0,0,0,0,0,0,0,0,0,0,0,0,0,0,0,0,0,0,0,0,0,0,0,0,0,0,0,0,0,0,0,0,0,0,0,0,0,0,0,0,0,0,0,0,0,0],"id":32,"left_children":[1,3,5,7,9,11,-1,13,15,17,19,21,-1,23,25,27,-1,29,-1,31,-1,-1,-1,-1,33,-1,-1,35,-1,37,39,41,43,45,-1,47,49,51,-1,53,-1,-1,-1,-1,-1,-1,-1,-1,-1,-1,-1,-1,-1,-1,-1],"loss_changes":[7.5118027E0,9.278242E0,9.101677E-1,8.539593E0,8.069704E0,9.4678307E-1,0E0,1.1880143E1,3.2575297E0,5.019655E0,8.755609E0,7.9428864E-1,0E0,1.8727345E0,3.102972E0,4.6477246E0,0E0,4.0554276E0,0E0,9.169775E0,0E0,0E0,0E0,0E0,3.019651E0,0E0,0E0,3.1946845E0,0E0,3.2988777E0,5.8915906E0,1.9690866E0,1.1478195E0,5.972281E0,0E0,1.1351595E0,4.254394E0,2.1142578E-1,0E0,3.8498712E0,0E0,0E0,0E0,0E0,0E0,0E0,0E0,0E0,0E0,0E0,0E0,0E0,0E0,0E0,0E0],"parents":[2147483647,0,0,1,1,2,2,3,3,4,4,5,5,7,7,8,8,9,9,10,10,11,11,13,13,14,14,15,15,17,17,19,19,24,24,27,27,29,29,30,30,31,31,32,32,33,33,35,35,36,36,37,37,39,39],"right_children":[2,4,6,8,10,12,-1,14,16,18,20,22,-1,24,26,28,-1,30,-1,32,-1,-1,-1,-1,34,-1,-1,36,-1,38,40,42,44,46,-1,48,50,52,-1,54,-1,-1,-1,-1,-1,-1,-1,-1,-1,-1,-1,-1,-1,-1,-1],"split_conditions":[1E0,1E0,1E0,1E0,1E0,1E0,-0E0,1E0,1E0,1E0,1E0,1E0,1.2322452E-2,1E0,1E0,1E0,6.820866E-2,1E0,-2.9523684E-2,1E0,6.806186E-2,8.251134E-2,4.933194E-3,7.256123E-2,1E0,-1.755442E-1,-1.5340594E-2,1E0,-1.01701304E-1,1E0,1E0,1E0,1E0,1E0,4.0073343E-2,1E0,1E0,1E0,-4.0817386E-3,1E0,7.8404404E-2,-1.6917999E-1,-2.4897192E-2,-9.703485E-3,5.502729E-2,-1.0806771E-1,3.6170818E-2,2.268765E-2,9.7500734E-2,-1.2128257E-1,1.736039E-2,7.882156E-2,3.0766197E-2,-1.0059873E-1,1.8019373E-2],"split_indices":[502,1917,92,1602,935,114,0,650,335,947,1410,1066,0,1750,694,926,0,1481,0,1475,0,0,0,0,1581,0,0,1563,0,656,1906,1586,29,335,0,1357,457,1978,0,703,0,0,0,0,0,0,0,0,0,0,0,0,0,0,0],"split_type":[0,0,0,0,0,0,0,0,0,0,0,0,0,0,0,0,0,0,0,0,0,0,0,0,0,0,0,0,0,0,0,0,0,0,0,0,0,0,0,0,0,0,0,0,0,0,0,0,0,0,0,0,0,0,0],"sum_hessian":[1.7731993E2,1.3756342E2,3.9756516E1,4.9408493E1,8.815493E1,3.7462658E1,2.2938576E0,1.9917358E1,2.9491133E1,7.073175E1,1.7423178E1,3.3515667E1,3.9469876E0,1.3139331E1,6.778028E0,2.0580484E1,8.910649E0,6.701107E1,3.7206807E0,1.1065718E1,6.357461E0,3.0878569E1,2.637099E0,2.022027E0,1.1117304E1,4.65128E0,2.126748E0,1.8306593E1,2.273892E0,5.5661354E1,1.1349712E1,5.8381147E0,5.227603E0,7.3135433E0,3.80376E0,1.2531993E1,5.7746E0,5.30784E1,2.582958E0,6.2334185E0,5.1162934E0,3.6420383E0,2.1960764E0,2.1913257E0,3.0362773E0,4.6053176E0,2.708226E0,9.520382E0,3.0116112E0,2.0418258E0,3.732774E0,4.7925064E1,5.1533346E0,3.477636E0,2.7557821E0],"tree_param":{"num_deleted":"0","num_feature":"2048","num_nodes":"55","size_leaf_vector":"1"}},{"base_weights":[3.5351935E-1,2.3981577E-1,6.956672E-1,1.1596776E-1,7.2969985E-1,7.836648E-1,-0E0,1.6232406E-1,-1.3255464E-1,-3.939037E-2,8.617093E-1,6.9520034E-2,-0E0,-4.2990096E-2,2.5108803E-2,8.9787036E-2,8.963446E-2,9.0819746E-1,1.30677065E-2,-5.417969E-2,5.5844724E-1,8.3719656E-2,2.475674E-2,-1.7638065E-1,4.6702158E-1,9.05557E-1,-4.1128898E-1,-2.1814285E-2,1.0156759E-1,-2.8441375E-2,6.498637E-2,8.976281E-2,-0E0,-9.8946996E-2,-0E0],"categories":[],"categories_nodes":[],"categories_segments":[],"categories_sizes":[],"default_left":[0,0,0,0,0,0,0,0,0,0,0,0,0,0,0,0,0,0,0,0,0,0,0,0,0,0,0,0,0,0,0,0,0,0,0],"id":33,"left_children":[1,3,5,7,9,11,13,15,-1,-1,17,-1,-1,-1,-1,19,-1,21,-1,23,25,-1,-1,27,29,31,33,-1,-1,-1,-1,-1,-1,-1,-1],"loss_changes":[6.206217E0,7.5620465E0,2.9038734E0,7.558469E0,4.4402447E0,5.718994E-1,7.844137E-1,6.100464E0,0E0,0E0,4.938698E-2,0E0,0E0,0E0,0E0,7.0294394E0,0E0,1.3222313E-1,0E0,4.593711E0,8.6191025E0,0E0,0E0,6.3013167E0,3.5192142E0,3.1972942E0,2.4909763E0,0E0,0E0,0E0,0E0,0E0,0E0,0E0,0E0],"parents":[2147483647,0,0,1,1,2,2,3,3,4,4,5,5,6,6,7,7,10,10,15,15,17,17,19,19,20,20,23,23,24,24,25,25,26,26],"right_children":[2,4,6,8,10,12,14,16,-1,-1,18,-1,-1,-1,-1,20,-1,22,-1,24,26,-1,-1,28,30,32,34,-1,-1,-1,-1,-1,-1,-1,-1],"split_conditions":[1E0,1E0,1E0,1E0,1E0,1E0,1E0,1E0,-1.3255464E-1,-3.939037E-2,1E0,6.9520034E-2,-0E0,-4.2990096E-2,2.5108803E-2,1E0,8.963446E-2,1E0,1.30677065E-2,1E0,1E0,8.3719656E-2,2.475674E-2,1E0,1E0,1E0,1E0,-2.1814285E-2,1.0156759E-1,-2.8441375E-2,6.498637E-2,8.976281E-2,-0E0,-9.8946996E-2,-0E0],"split_indices":[502,456,917,1728,1362,1453,1430,1050,0,0,857,0,0,0,0,1114,0,2018,0,335,1019,0,0,1997,1602,389,378,0,0,0,0,0,0,0,0],"split_type":[0,0,0,0,0,0,0,0,0,0,0,0,0,0,0,0,0,0,0,0,0,0,0,0,0,0,0,0,0,0,0,0,0,0,0],"sum_hessian":[1.7627379E2,1.3403458E2,4.2239212E1,1.082793E2,2.5755276E1,3.797047E1,4.2687426E0,1.0593805E2,2.3412526E0,2.008364E0,2.3746912E1,3.5550728E1,2.4197452E0,2.0053763E0,2.2633662E0,9.8891464E1,7.0465837E0,2.1342241E1,2.4046707E0,7.470088E1,2.4190584E1,1.7852745E1,3.489496E0,6.166198E1,1.3038899E1,1.8331598E1,5.8589864E0,5.8854885E1,2.807095E0,2.9273741E0,1.0111526E1,1.622443E1,2.1071672E0,2.3785706E0,3.4804158E0],"tree_param":{"num_deleted":"0","num_feature":"2048","num_nodes":"35","size_leaf_vector":"1"}},{"base_weights":[4.376933E-1,3.2953534E-1,8.711682E-1,5.0064784E-1,5.392651E-2,9.602433E-1,1.7958368E-1,5.6789726E-1,-5.0714795E-2,-1.1158059E-1,6.317575E-1,9.202726E-2,-0E0,-0E0,2.7980559E-2,6.086958E-1,-4.7841366E-2,-3.6176956E-1,6.6252875E-1,8.116429E-1,-2.0595149E-3,6.481419E-1,-1.4090211E-2,-6.085586E-1,7.4256144E-2,7.50553E-2,-0E0,8.1716515E-2,-0E0,6.917266E-1,-0E0,-8.286113E-1,2.2861716E-1,6.11059E-2,-0E0,-9.74229E-2,-1.4116091E-2,5.5908035E-2,-8.917793E-4],"categories":[],"categories_nodes":[],"categories_segments":[],"categories_sizes":[],"default_left":[0,0,0,0,0,0,0,0,0,0,0,0,0,0,0,0,0,0,0,0,0,0,0,0,0,0,0,0,0,0,0,0,0,0,0,0,0,0,0],"id":34,"left_children":[1,3,5,7,9,11,13,15,-1,17,19,-1,-1,-1,-1,21,-1,23,25,27,-1,29,-1,31,-1,-1,-1,-1,-1,33,-1,35,37,-1,-1,-1,-1,-1,-1],"loss_changes":[7.4884377E0,6.419608E0,1.3099823E0,6.505331E0,5.8058996E0,3.8472595E0,8.847611E-2,3.9345055E0,0E0,8.278074E0,2.135569E0,0E0,0E0,0E0,0E0,2.8138046E0,0E0,1.0214506E1,1.020865E0,9.999833E-1,0E0,2.4813423E0,0E0,5.717985E0,0E0,0E0,0E0,0E0,0E0,1.9001045E0,0E0,4.031206E0,1.0002277E0,0E0,0E0,0E0,0E0,0E0,0E0],"parents":[2147483647,0,0,1,1,2,2,3,3,4,4,5,5,6,6,7,7,9,9,10,10,15,15,17,17,18,18,19,19,21,21,23,23,29,29,31,31,32,32],"right_children":[2,4,6,8,10,12,14,16,-1,18,20,-1,-1,-1,-1,22,-1,24,26,28,-1,30,-1,32,-1,-1,-1,-1,-1,34,-1,36,38,-1,-1,-1,-1,-1,-1],"split_conditions":[1E0,1E0,1E0,1E0,1E0,1E0,1E0,1E0,-5.0714795E-2,1E0,1E0,9.202726E-2,-0E0,-0E0,2.7980559E-2,1E0,-4.7841366E-2,1E0,1E0,1E0,-2.0595149E-3,1E0,-1.4090211E-2,1E0,7.4256144E-2,7.50553E-2,-0E0,8.1716515E-2,-0E0,1E0,-0E0,1E0,1E0,6.11059E-2,-0E0,-9.74229E-2,-1.4116091E-2,5.5908035E-2,-8.917793E-4],"split_indices":[1349,1199,1184,1034,502,1816,1028,325,0,169,1928,0,0,0,0,1722,0,785,1501,695,0,458,0,119,0,0,0,0,0,1501,0,562,1745,0,0,0,0,0,0],"split_type":[0,0,0,0,0,0,0,0,0,0,0,0,0,0,0,0,0,0,0,0,0,0,0,0,0,0,0,0,0,0,0,0,0,0,0,0,0,0,0],"sum_hessian":[1.7789175E2,1.4389284E2,3.3998928E1,8.7176414E1,5.671642E1,2.919271E1,4.8062162E0,8.281449E1,4.361928E0,4.3318718E1,1.3397698E1,2.6093647E1,3.0990636E0,2.7135723E0,2.092644E0,8.0595085E1,2.2194018E0,3.3473263E1,9.845456E0,1.1275543E1,2.122155E0,7.754335E1,3.051738E0,2.8444092E1,5.029172E0,6.733351E0,3.1121047E0,9.021625E0,2.2539194E0,7.324008E1,4.3032703E0,2.3157381E1,5.2867107E0,7.117697E1,2.063106E0,1.4831928E1,8.325452E0,2.756553E0,2.5301578E0],"tree_param":{"num_deleted":"0","num_feature":"2048","num_nodes":"39","size_leaf_vector":"1"}},{"base_weights":[3.6299294E-1,2.2574466E-1,7.1681875E-1,2.956787E-1,-7.6465195E-1,8.6866105E-1,1.5185263E-2,3.4769404E-1,-6.1751413E-1,-1.100633E-1,2.7444207E-3,-0E0,9.551341E-1,-4.956704E-2,5.22399E-1,3.091802E-1,1.251801E-1,-1.2595639E-1,3.1647142E-2,8.593123E-2,-0E0,-0E0,6.659532E-2,2.0115332E-1,6.357114E-1,-6.2395267E-2,3.6279488E-1,-2.0225367E-2,7.696381E-1,-1.6772188E-2,6.643933E-2,5.642101E-2,1.47406105E-2,8.114466E-2,1.940923E-2],"categories":[],"categories_nodes":[],"categories_segments":[],"categories_sizes":[],"default_left":[0,0,0,0,0,0,0,0,0,0,0,0,0,0,0,0,0,0,0,0,0,0,0,0,0,0,0,0,0,0,0,0,0,0,0],"id":35,"left_children":[1,3,5,7,9,11,13,15,17,-1,-1,-1,19,-1,21,23,-1,-1,-1,-1,-1,-1,-1,25,27,29,31,-1,33,-1,-1,-1,-1,-1,-1],"loss_changes":[7.2275467E0,7.957194E0,4.0898438E0,5.1689463E0,3.9367251E0,3.130642E0,2.7015324E0,3.3397312E0,5.4974213E0,0E0,0E0,0E0,1.3268776E0,0E0,5.5227077E-1,3.0761633E0,0E0,0E0,0E0,0E0,0E0,0E0,0E0,3.6066298E0,3.222661E0,2.9545443E0,2.3353806E0,0E0,1.3542557E0,0E0,0E0,0E0,0E0,0E0,0E0],"parents":[2147483647,0,0,1,1,2,2,3,3,4,4,5,5,6,6,7,7,8,8,12,12,14,14,15,15,23,23,24,24,25,25,26,26,28,28],"right_children":[2,4,6,8,10,12,14,16,18,-1,-1,-1,20,-1,22,24,-1,-1,-1,-1,-1,-1,-1,26,28,30,32,-1,34,-1,-1,-1,-1,-1,-1],"split_conditions":[1E0,1E0,1E0,1E0,1E0,1E0,1E0,1E0,1E0,-1.100633E-1,2.7444207E-3,-0E0,1E0,-4.956704E-2,1E0,1E0,1.251801E-1,-1.2595639E-1,3.1647142E-2,8.593123E-2,-0E0,-0E0,6.659532E-2,1E0,1E0,1E0,1E0,-2.0225367E-2,1E0,-1.6772188E-2,6.643933E-2,5.642101E-2,1.47406105E-2,8.114466E-2,1.940923E-2],"split_indices":[1970,841,926,1034,1169,1088,1147,1470,1722,0,0,0,38,0,1028,216,0,0,0,0,0,0,0,191,1362,1645,1507,0,2018,0,0,0,0,0,0],"split_type":[0,0,0,0,0,0,0,0,0,0,0,0,0,0,0,0,0,0,0,0,0,0,0,0,0,0,0,0,0,0,0,0,0,0,0],"sum_hessian":[1.6228105E2,1.1852974E2,4.375132E1,1.1147735E2,7.0523925E0,3.514427E1,8.60705E0,1.06282845E2,5.194498E0,4.651394E0,2.4009984E0,2.6794863E0,3.2464787E1,3.3264759E0,5.280574E0,1.03600685E2,2.6821632E0,3.0742877E0,2.1202104E0,3.0129913E1,2.3348727E0,2.161385E0,3.1191888E0,7.96345E1,2.3966185E1,2.8750742E1,5.088376E1,2.499815E0,2.146637E1,2.5601727E1,3.149015E0,1.8014488E1,3.2869267E1,1.4915888E1,6.5504827E0],"tree_param":{"num_deleted":"0","num_feature":"2048","num_nodes":"35","size_leaf_vector":"1"}},{"base_weights":[4.711688E-1,3.885854E-1,8.365866E-1,4.2970234E-1,-7.2534695E-2,9.4391996E-1,-0E0,2.0062393E-1,5.562249E-1,8.47079E-2,1.7324308E-2,4.895862E-1,-5.2056845E-2,6.0405576E-1,-2.484555E-2,5.959113E-1,-1.1242141E-2,-6.0598123E-1,5.611845E-1,6.566132E-1,-8.349241E-2,6.781728E-1,-0E0,-9.649978E-1,4.9368314E-2,6.398103E-2,-2.7445453E-4,6.9681585E-1,-0E0,-3.090303E-2,-0E0,6.2074054E-2,-0E0,-3.9753754E-2,-1.1069205E-1,2.76898E-2,7.128032E-2],"categories":[],"categories_nodes":[],"categories_segments":[],"categories_sizes":[],"default_left":[0,0,0,0,0,0,0,0,0,0,0,0,0,0,0,0,0,0,0,0,0,0,0,0,0,0,0,0,0,0,0,0,0,0,0,0,0],"id":36,"left_children":[1,3,5,7,-1,9,-1,11,13,-1,-1,15,17,19,-1,21,-1,23,25,27,29,31,-1,33,-1,-1,-1,35,-1,-1,-1,-1,-1,-1,-1,-1,-1],"loss_changes":[4.220173E0,6.944563E0,3.0705662E0,3.4148502E0,0E0,2.3167801E-1,0E0,3.9930582E0,3.7232418E0,0E0,0E0,1.9705997E0,8.916317E0,3.3537788E0,0E0,1.0783076E0,0E0,6.4741483E0,1.7939346E0,2.3052406E0,2.6537344E-1,2.999096E-1,0E0,6.2870884E-1,0E0,0E0,0E0,3.050621E0,0E0,0E0,0E0,0E0,0E0,0E0,0E0,0E0,0E0],"parents":[2147483647,0,0,1,1,2,2,3,3,5,5,7,7,8,8,11,11,12,12,13,13,15,15,17,17,18,18,19,19,20,20,21,21,23,23,27,27],"right_children":[2,4,6,8,-1,10,-1,12,14,-1,-1,16,18,20,-1,22,-1,24,26,28,30,32,-1,34,-1,-1,-1,36,-1,-1,-1,-1,-1,-1,-1,-1,-1],"split_conditions":[1E0,1E0,1E0,1E0,-7.2534695E-2,1E0,-0E0,1E0,1E0,8.47079E-2,1.7324308E-2,1E0,1E0,1E0,-2.484555E-2,1E0,-1.1242141E-2,1E0,1E0,1E0,1E0,1E0,-0E0,1E0,4.9368314E-2,6.398103E-2,-2.7445453E-4,1E0,-0E0,-3.090303E-2,-0E0,6.2074054E-2,-0E0,-3.9753754E-2,-1.1069205E-1,2.76898E-2,7.128032E-2],"split_indices":[119,881,800,875,0,458,0,1699,1728,0,0,283,4,140,0,1129,0,283,1349,978,274,1855,0,1581,0,0,0,1362,0,0,0,0,0,0,0,0,0],"split_type":[0,0,0,0,0,0,0,0,0,0,0,0,0,0,0,0,0,0,0,0,0,0,0,0,0,0,0,0,0,0,0,0,0,0,0,0,0],"sum_hessian":[1.6898718E2,1.3967496E2,2.9312231E1,1.3585568E2,3.819273E0,2.6427073E1,2.885158E0,5.040601E1,8.544967E1,2.3699291E1,2.727781E0,2.4658236E1,2.5747774E1,8.169427E1,3.755402E0,2.1983747E1,2.674488E0,1.4101913E1,1.1645862E1,7.6804306E1,4.8899617E0,1.9271582E1,2.7121656E0,1.1290865E1,2.811048E0,9.50784E0,2.1380212E0,7.292209E1,3.882212E0,2.0609484E0,2.8290136E0,1.7082272E1,2.1893113E0,5.5878963E0,5.702969E0,2.1851912E1,5.107018E1],"tree_param":{"num_deleted":"0","num_feature":"2048","num_nodes":"37","size_leaf_vector":"1"}},{"base_weights":[4.057562E-1,3.6014315E-1,1.0841255E-1,4.453025E-1,-8.697458E-2,4.814214E-1,-3.531419E-1,-7.008094E-1,6.157359E-1,5.114664E-1,-3.6509052E-2,-1.0468358E-1,1.845339E-2,-1.2130544E-1,7.7719346E-2,9.354046E-2,2.0834811E-2,6.214816E-1,1.4955965E-1,-8.081418E-2,8.039048E-2,6.6175497E-1,-9.88338E-3,3.481166E-1,-1.10344104E-1,5.920284E-2,-2.145457E-2,1.2933664E-4,7.3472E-2],"categories":[],"categories_nodes":[],"categories_segments":[],"categories_sizes":[],"default_left":[0,0,0,0,0,0,0,0,0,0,0,0,0,0,0,0,0,0,0,0,0,0,0,0,0,0,0,0,0],"id":37,"left_children":[1,3,-1,5,7,9,11,13,15,17,-1,-1,-1,-1,-1,-1,19,21,23,-1,-1,25,-1,27,-1,-1,-1,-1,-1],"loss_changes":[4.979313E0,5.8960457E0,0E0,3.7517262E0,9.916646E0,3.4238453E0,3.131363E0,1.5582942E1,2.1890912E0,4.17486E0,0E0,0E0,0E0,0E0,0E0,0E0,5.057969E0,3.0320396E0,7.8832912E0,0E0,0E0,3.1630592E0,0E0,4.1429014E0,0E0,0E0,0E0,0E0,0E0],"parents":[2147483647,0,0,1,1,3,3,4,4,5,5,6,6,7,7,8,8,9,9,16,16,17,17,18,18,21,21,23,23],"right_children":[2,4,-1,6,8,10,12,14,16,18,-1,-1,-1,-1,-1,-1,20,22,24,-1,-1,26,-1,28,-1,-1,-1,-1,-1],"split_conditions":[1E0,1E0,1.0841255E-1,1E0,1E0,1E0,1E0,1E0,1E0,1E0,-3.6509052E-2,-1.0468358E-1,1.845339E-2,-1.2130544E-1,7.7719346E-2,9.354046E-2,1E0,1E0,1E0,-8.081418E-2,8.039048E-2,1E0,-9.88338E-3,1E0,-1.10344104E-1,5.920284E-2,-2.145457E-2,1.2933664E-4,7.3472E-2],"split_indices":[1050,141,0,366,926,1578,1362,1544,1634,1077,0,0,0,0,0,0,675,1034,1160,0,0,1791,0,1114,0,0,0,0,0],"split_type":[0,0,0,0,0,0,0,0,0,0,0,0,0,0,0,0,0,0,0,0,0,0,0,0,0,0,0,0,0],"sum_hessian":[1.5483366E2,1.4814442E2,6.689234E0,1.2569872E2,2.2445705E1,1.2113757E2,4.561151E0,1.2488288E1,9.957417E0,1.18070404E2,3.067168E0,2.1591957E0,2.4019551E0,8.908018E0,3.5802698E0,4.76088E0,5.1965365E0,8.901639E1,2.905402E1,2.1800745E0,3.0164623E0,8.528876E1,3.7276304E0,2.609853E1,2.9554915E0,8.2793205E1,2.4955459E0,1.653343E1,9.565098E0],"tree_param":{"num_deleted":"0","num_feature":"2048","num_nodes":"29","size_leaf_vector":"1"}},{"base_weights":[3.7667027E-1,4.0822983E-1,-7.015567E-2,4.4520965E-1,-3.8629195E-1,3.5618898E-1,8.6671865E-1,-1.0774479E-1,3.2631524E-2,3.1844682E-1,1.3439973E-1,8.812444E-2,2.6288646E-1,1.05552554E-1,2.726664E-1,-1.2532226E-2,5.765053E-2,1.5847333E-1,6.6417354E-1,-2.243647E-2,2.8931657E-2,6.587295E-2,-0E0],"categories":[],"categories_nodes":[],"categories_segments":[],"categories_sizes":[],"default_left":[0,0,0,0,0,0,0,0,0,0,0,0,0,0,0,0,0,0,0,0,0,0,0],"id":38,"left_children":[1,3,-1,5,7,9,11,-1,-1,13,-1,-1,15,-1,17,-1,-1,19,21,-1,-1,-1,-1],"loss_changes":[5.943962E0,4.7329082E0,0E0,4.8372936E0,5.0249243E0,4.533781E0,1.6853142E0,0E0,0E0,4.1920595E0,0E0,0E0,1.5244006E0,0E0,4.7733135E0,0E0,0E0,7.3409824E0,1.7969723E0,0E0,0E0,0E0,0E0],"parents":[2147483647,0,0,1,1,3,3,4,4,5,5,6,6,9,9,12,12,14,14,17,17,18,18],"right_children":[2,4,-1,6,8,10,12,-1,-1,14,-1,-1,16,-1,18,-1,-1,20,22,-1,-1,-1,-1],"split_conditions":[1E0,1E0,-7.015567E-2,1E0,1E0,1E0,1E0,-1.0774479E-1,3.2631524E-2,1E0,1.3439973E-1,8.812444E-2,1E0,1.05552554E-1,1E0,-1.2532226E-2,5.765053E-2,1E0,1E0,-2.243647E-2,2.8931657E-2,6.587295E-2,-0E0],"split_indices":[1564,1060,0,216,409,479,1045,0,0,1750,0,0,1917,0,502,0,0,1754,114,0,0,0,0],"split_type":[0,0,0,0,0,0,0,0,0,0,0,0,0,0,0,0,0,0,0,0,0,0,0],"sum_hessian":[1.6179303E2,1.5833315E2,3.4598794E0,1.521817E2,6.151455E0,1.2726872E2,2.4912973E1,3.2074301E0,2.9440248E0,1.24254166E2,3.0145574E0,1.8408958E1,6.504016E0,4.912253E0,1.1934191E2,2.535518E0,3.9684982E0,9.39386E1,2.5403313E1,2.719408E1,6.6744514E1,2.1506472E1,3.896842E0],"tree_param":{"num_deleted":"0","num_feature":"2048","num_nodes":"23","size_leaf_vector":"1"}},{"base_weights":[1.8305773E-1,6.0755387E-2,6.345453E-1,-5.080003E-2,7.2847706E-1,7.1344155E-1,-3.5755353E-3,9.24463E-3,-8.777887E-1,8.179335E-1,-0E0,6.819586E-2,-0E0,-7.126016E-2,6.4507835E-2,2.2433894E-2,-1.3063648E-1,2.8728187E-1,8.135682E-2,-1.7372344E-1,5.5963403E-1,-0E0,4.535287E-2,-2.5696823E-1,6.402049E-2,-0E0,9.967663E-2,-3.0719003E-2,5.197867E-2,-5.195896E-2,4.6282843E-2],"categories":[],"categories_nodes":[],"categories_segments":[],"categories_sizes":[],"default_left":[0,0,0,0,0,0,0,0,0,0,0,0,0,0,0,0,0,0,0,0,0,0,0,0,0,0,0,0,0,0,0],"id":39,"left_children":[1,3,5,7,9,11,-1,13,15,17,-1,-1,-1,19,-1,-1,-1,21,-1,23,25,-1,-1,27,-1,29,-1,-1,-1,-1,-1],"loss_changes":[7.187161E0,8.694515E0,1.9699688E0,5.252345E0,9.4953346E-1,2.0556736E0,0E0,5.741555E0,6.32398E0,2.0880318E-1,0E0,0E0,0E0,4.8100977E0,0E0,0E0,0E0,3.0117053E-1,0E0,4.9820895E0,2.80008E0,0E0,0E0,5.6819E0,0E0,2.0189555E0,0E0,0E0,0E0,0E0,0E0],"parents":[2147483647,0,0,1,1,2,2,3,3,4,4,5,5,7,7,8,8,9,9,13,13,17,17,19,19,20,20,23,23,25,25],"right_children":[2,4,6,8,10,12,-1,14,16,18,-1,-1,-1,20,-1,-1,-1,22,-1,24,26,-1,-1,28,-1,30,-1,-1,-1,-1,-1],"split_conditions":[1E0,1E0,1E0,1E0,1E0,1E0,-3.5755353E-3,1E0,1E0,1E0,-0E0,6.819586E-2,-0E0,1E0,6.4507835E-2,2.2433894E-2,-1.3063648E-1,1E0,8.135682E-2,1E0,1E0,-0E0,4.535287E-2,1E0,6.402049E-2,1E0,9.967663E-2,-3.0719003E-2,5.197867E-2,-5.195896E-2,4.6282843E-2],"split_indices":[502,456,1910,13,106,312,0,1989,1088,1581,0,0,0,1349,0,0,0,667,0,1457,1475,0,0,1671,0,79,0,0,0,0,0],"split_type":[0,0,0,0,0,0,0,0,0,0,0,0,0,0,0,0,0,0,0,0,0,0,0,0,0,0,0,0,0,0,0],"sum_hessian":[1.3851112E2,1.1033626E2,2.817487E1,9.384714E1,1.6489122E1,2.610723E1,2.0676396E0,8.693127E1,6.9158673E0,1.4456234E1,2.0328872E0,2.369636E1,2.4108713E0,7.788227E1,9.048999E0,2.2133234E0,4.702544E0,4.1637774E0,1.0292457E1,6.8040344E1,9.841926E0,2.054738E0,2.1090393E0,6.3239117E1,4.8012295E0,5.7411427E0,4.1007824E0,5.720953E1,6.0295844E0,2.207326E0,3.533817E0],"tree_param":{"num_deleted":"0","num_feature":"2048","num_nodes":"31","size_leaf_vector":"1"}},{"base_weights":[3.8827172E-1,2.9950902E-1,7.849356E-1,4.41287E-2,4.968781E-1,9.5074713E-1,4.5766664E-1,-1.4043893E-1,8.152411E-2,5.59302E-1,-3.7492454E-2,9.101324E-2,-0E0,6.5217234E-2,-1.5102733E-2,-3.357186E-1,6.424308E-1,3.486927E-1,7.662627E-1,-5.418979E-1,6.586957E-1,-0E0,7.111987E-2,9.895345E-2,7.8932546E-2,8.232507E-1,-0E0,-7.516506E-1,8.205542E-2,9.6378274E-2,-0E0,5.420391E-1,-3.580948E-1,7.406934E-2,2.0613862E-2,-8.035115E-2,8.424373E-2,5.805065E-2,-0E0,-2.0981057E-1,1.0800274E-2],"categories":[],"categories_nodes":[],"categories_segments":[],"categories_sizes":[],"default_left":[0,0,0,0,0,0,0,0,0,0,0,0,0,0,0,0,0,0,0,0,0,0,0,0,0,0,0,0,0,0,0,0,0,0,0,0,0,0,0,0,0],"id":40,"left_children":[1,3,5,7,9,11,13,15,-1,17,-1,-1,-1,-1,-1,19,21,23,25,27,29,-1,-1,31,-1,33,-1,35,-1,-1,-1,37,39,-1,-1,-1,-1,-1,-1,-1,-1],"loss_changes":[4.4865494E0,5.87288E0,3.6990356E-1,9.996148E0,4.1335964E0,1.2063932E0,2.486681E0,6.857831E0,0E0,2.0253582E0,0E0,0E0,0E0,0E0,0E0,7.696612E0,7.0189023E-1,4.2489758E0,1.017313E0,1.006639E1,2.4217434E0,0E0,0E0,5.204938E0,0E0,3.0254364E-2,0E0,9.858099E0,0E0,0E0,0E0,1.0550456E0,1.358213E1,0E0,0E0,0E0,0E0,0E0,0E0,0E0,0E0],"parents":[2147483647,0,0,1,1,2,2,3,3,4,4,5,5,6,6,7,7,9,9,15,15,16,16,17,17,18,18,19,19,20,20,23,23,25,25,27,27,31,31,32,32],"right_children":[2,4,6,8,10,12,14,16,-1,