{"learner":{"attributes":{"best_iteration":"80","best_score":"0.05167861338557755","scikit_learn":"{\"_estimator_type\": \"classifier\"}"},"feature_names":[],"feature_types":[],"gradient_booster":{"model":{"gbtree_model_param":{"num_parallel_tree":"1","num_trees":"96"},"iteration_indptr":[0,1,2,3,4,5,6,7,8,9,10,11,12,13,14,15,16,17,18,19,20,21,22,23,24,25,26,27,28,29,30,31,32,33,34,35,36,37,38,39,40,41,42,43,44,45,46,47,48,49,50,51,52,53,54,55,56,57,58,59,60,61,62,63,64,65,66,67,68,69,70,71,72,73,74,75,76,77,78,79,80,81,82,83,84,85,86,87,88,89,90,91,92,93,94,95,96],"tree_info":[0,0,0,0,0,0,0,0,0,0,0,0,0,0,0,0,0,0,0,0,0,0,0,0,0,0,0,0,0,0,0,0,0,0,0,0,0,0,0,0,0,0,0,0,0,0,0,0,0,0,0,0,0,0,0,0,0,0,0,0,0,0,0,0,0,0,0,0,0,0,0,0,0,0,0,0,0,0,0,0,0,0,0,0,0,0,0,0,0,0,0,0,0,0,0,0],"trees":[{"base_weights":[9.4686046E-2,3.2150075E-1,-1.4898154E0,6.039268E-1,-1.0557041E0,-1.0030166E0,8.729946E-1,3.173175E-2,-1.282116E0,-1.3348101E0,3.173175E-2,1.0816385E0,-1.1738148E0,-6.3615486E-2,1.2730294E0,6.080617E-1,-1.0064753E0,1.4565883E0,-1.5209475E-1,1.6493202E0,5.7357067E-1,1.6888926E0,4.5941645E-1,-3.755302E-1,1.2690184E0],"categories":[],"categories_nodes":[],"categories_segments":[],"categories_sizes":[],"default_left":[0,0,0,0,0,0,0,0,0,0,0,0,0,0,0,0,0,0,0,0,0,0,0,0,0],"id":0,"left_children":[1,3,-1,5,7,9,11,-1,-1,-1,-1,13,-1,15,17,-1,-1,19,-1,21,23,-1,-1,-1,-1],"loss_changes":[1.461646E1,1.4027267E1,0E0,1.3580824E1,2.1158433E0,2.0992947E0,1.2574949E1,0E0,0E0,0E0,0E0,5.5535107E0,0E0,3.6441104E0,5.901058E0,0E0,0E0,1.8875427E0,0E0,6.689491E-1,4.2562747E0,0E0,0E0,0E0,0E0],"parents":[2147483647,0,0,1,1,3,3,4,4,5,5,6,6,11,11,13,13,14,14,17,17,19,19,20,20],"right_children":[2,4,-1,6,8,10,12,-1,-1,-1,-1,14,-1,16,18,-1,-1,20,-1,22,24,-1,-1,-1,-1],"split_conditions":[1E0,1E0,-1.4898154E0,1E0,1E0,1E0,1E0,3.173175E-2,-1.282116E0,-1.3348101E0,3.173175E-2,1E0,-1.1738148E0,1E0,1E0,6.080617E-1,-1.0064753E0,1E0,-1.5209475E-1,1E0,1E0,1.6888926E0,4.5941645E-1,-3.755302E-1,1.2690184E0],"split_indices":[233,1860,0,926,1088,1101,1280,0,0,0,0,1088,0,875,1410,0,0,1573,0,231,30,0,0,0,0],"split_type":[0,0,0,0,0,0,0,0,0,0,0,0,0,0,0,0,0,0,0,0,0,0,0,0,0],"sum_hessian":[3.739641E1,3.364641E1,3.75E0,2.8475487E1,5.1709256E0,3.6139503E0,2.4861536E1,1.1139504E0,4.0569754E0,2.5E0,1.1139504E0,2.3111536E1,1.75E0,3.2848759E0,1.982666E1,2.0348759E0,1.25E0,1.7655735E1,2.1709256E0,1.3642958E1,4.012777E0,1.1915057E1,1.7279007E0,1.8639504E0,2.1488264E0],"tree_param":{"num_deleted":"0","num_feature":"2048","num_nodes":"25","size_leaf_vector":"1"}},{"base_weights":[3.8731804E-1,6.566739E-1,-1.2643808E0,4.004801E-1,1.8652698E0,5.6489104E-1,-1.1535256E0,1.0641935E0,-2.2636805E-1,1.1816446E0,-1.0665282E-1,-5.465668E-1,9.559956E-1,1.3583416E0,2.3036482E-2,-8.365454E-1,5.791292E-1,1.5019817E0,3.5034683E-1,1.6976012E0,6.1151546E-1],"categories":[],"categories_nodes":[],"categories_segments":[],"categories_sizes":[],"default_left":[0,0,0,0,0,0,0,0,0,0,0,0,0,0,0,0,0,0,0,0,0],"id":1,"left_children":[1,3,-1,5,-1,7,-1,9,11,13,-1,15,-1,17,-1,-1,-1,19,-1,-1,-1],"loss_changes":[1.48223715E1,7.822274E0,0E0,6.8966827E0,0E0,9.286514E0,0E0,2.2496986E0,4.1486325E0,2.4193707E0,0E0,3.612927E0,0E0,7.616997E-1,0E0,0E0,0E0,6.4515877E-1,0E0,0E0,0E0],"parents":[2147483647,0,0,1,1,3,3,5,5,7,7,8,8,9,9,11,11,13,13,17,17],"right_children":[2,4,-1,6,-1,8,-1,10,12,14,-1,16,-1,18,-1,-1,-1,20,-1,-1,-1],"split_conditions":[1E0,1E0,-1.2643808E0,1E0,1.8652698E0,1E0,-1.1535256E0,1E0,1E0,1E0,-1.0665282E-1,1E0,9.559956E-1,1E0,2.3036482E-2,-8.365454E-1,5.791292E-1,1E0,3.5034683E-1,1.6976012E0,6.1151546E-1],"split_indices":[843,1312,0,622,0,695,0,1754,1039,1224,0,1905,0,1325,0,0,0,656,0,0,0],"split_type":[0,0,0,0,0,0,0,0,0,0,0,0,0,0,0,0,0,0,0,0,0],"sum_hessian":[2.9699059E1,2.6246435E1,3.4526231E0,2.3062277E1,3.1841593E0,2.1582533E1,1.4797447E0,1.3146926E1,8.435607E0,1.20701E1,1.0768254E0,7.2174516E0,1.2181549E0,1.020471E1,1.8653897E0,5.9246197E0,1.2928321E0,8.33619E0,1.86852E0,5.4594717E0,2.8767185E0],"tree_param":{"num_deleted":"0","num_feature":"2048","num_nodes":"21","size_leaf_vector":"1"}},{"base_weights":[1.0864425E-1,2.8600106E-1,-1.5229192E0,2.91578E-2,1.3192948E0,-2.5710842E-1,7.593763E-1,1.567979E0,1.3482463E-1,-4.747104E-1,8.2905614E-1,1.1611797E0,-0E0,5.6730397E-4,-8.03685E-1,5.574639E-1,-5.9669435E-1,3.5805297E-1,-7.61706E-1,-1.1173443E0,1.5579681E-1,-0E0,5.925644E-1,-1.3443985E0,4.1760977E-2],"categories":[],"categories_nodes":[],"categories_segments":[],"categories_sizes":[],"default_left":[0,0,0,0,0,0,0,0,0,0,0,0,0,0,0,0,0,0,0,0,0,0,0,0,0],"id":2,"left_children":[1,3,-1,5,7,9,11,-1,-1,13,-1,-1,15,17,19,-1,-1,21,-1,23,-1,-1,-1,-1,-1],"loss_changes":[7.721302E0,5.976136E0,0E0,4.437289E0,1.1599393E0,3.9714427E0,2.1441686E0,0E0,0E0,2.1956568E0,0E0,0E0,1.495276E0,1.9681252E0,2.7575712E0,0E0,0E0,5.587612E-1,0E0,2.3333006E0,0E0,0E0,0E0,0E0,0E0],"parents":[2147483647,0,0,1,1,3,3,4,4,5,5,6,6,9,9,12,12,13,13,14,14,17,17,19,19],"right_children":[2,4,-1,6,8,10,12,-1,-1,14,-1,-1,16,18,20,-1,-1,22,-1,24,-1,-1,-1,-1,-1],"split_conditions":[1E0,1E0,-1.5229192E0,1E0,1E0,1E0,1E0,1.567979E0,1.3482463E-1,1E0,8.2905614E-1,1.1611797E0,1E0,1E0,1E0,5.574639E-1,-5.9669435E-1,1E0,-7.61706E-1,1E0,1.5579681E-1,-0E0,5.925644E-1,-1.3443985E0,4.1760977E-2],"split_indices":[1162,314,0,313,1039,1586,1019,0,0,935,0,0,1860,1866,1911,0,0,1088,0,841,0,0,0,0,0],"split_type":[0,0,0,0,0,0,0,0,0,0,0,0,0,0,0,0,0,0,0,0,0,0,0,0,0],"sum_hessian":[2.3922565E1,2.2480808E1,1.4417559E0,1.8939936E1,3.5408733E0,1.390878E1,5.031155E0,2.3939543E0,1.1469191E0,1.22397375E1,1.6690426E0,2.859603E0,2.1715522E0,5.211923E0,7.027815E0,1.0919886E0,1.0795635E0,4.1032195E0,1.1087036E0,5.3121343E0,1.7156808E0,1.9032071E0,2.2000124E0,4.222338E0,1.0897957E0],"tree_param":{"num_deleted":"0","num_feature":"2048","num_nodes":"25","size_leaf_vector":"1"}},{"base_weights":[-2.3530205E-1,-6.1486095E-1,4.1088763E-1,-7.6277125E-1,5.6674117E-1,7.442194E-1,-6.7618996E-1,-9.2221165E-1,5.115512E-1,9.2077905E-1,-5.827813E-2,-1.2669282E0,5.091823E-2,1.0563836E0,5.5317808E-2,-1.4108378E0,-7.830048E-2,4.0434688E-1,-1.6069543E-1,1.2263578E0,1.7516387E-3,-1.6116201E0,-1.4768119E-1,-3.3949855E-1,-1.7434338E0],"categories":[],"categories_nodes":[],"categories_segments":[],"categories_sizes":[],"default_left":[0,0,0,0,0,0,0,0,0,0,0,0,0,0,0,0,0,0,0,0,0,0,0,0,0],"id":3,"left_children":[1,3,5,7,-1,9,-1,11,-1,13,-1,15,17,19,-1,21,-1,-1,-1,-1,-1,23,-1,-1,-1],"loss_changes":[5.720287E0,3.057744E0,3.7330327E0,3.3288193E0,0E0,1.2203984E0,0E0,4.4397774E0,0E0,4.845667E-1,0E0,1.248066E0,4.3943807E-1,9.787154E-1,0E0,1.5390587E0,0E0,0E0,0E0,0E0,0E0,7.664223E-1,0E0,0E0,0E0],"parents":[2147483647,0,0,1,1,2,2,3,3,5,5,7,7,9,9,11,11,12,12,13,13,15,15,21,21],"right_children":[2,4,6,8,-1,10,-1,12,-1,14,-1,16,18,20,-1,22,-1,-1,-1,-1,-1,24,-1,-1,-1],"split_conditions":[1E0,1E0,1E0,1E0,5.6674117E-1,1E0,-6.7618996E-1,1E0,5.115512E-1,1E0,-5.827813E-2,1E0,1E0,1E0,5.5317808E-2,1E0,-7.830048E-2,4.0434688E-1,-1.6069543E-1,1.2263578E0,1.7516387E-3,1E0,-1.4768119E-1,-3.3949855E-1,-1.7434338E0],"split_indices":[1145,1449,1410,1586,0,1708,0,1325,0,875,0,745,1750,197,0,1905,0,0,0,0,0,926,0,0,0],"split_type":[0,0,0,0,0,0,0,0,0,0,0,0,0,0,0,0,0,0,0,0,0,0,0,0,0],"sum_hessian":[2.1189787E1,1.3533604E1,7.656183E0,1.2492794E1,1.0408099E0,6.2551265E0,1.4010562E0,1.1485058E1,1.0077356E0,5.174968E0,1.0801587E0,8.381424E0,3.103634E0,4.123003E0,1.0519648E0,7.1876907E0,1.193733E0,1.081464E0,2.0221703E0,3.1163213E0,1.0066817E0,5.84943E0,1.338261E0,1.2944324E0,4.5549974E0],"tree_param":{"num_deleted":"0","num_feature":"2048","num_nodes":"25","size_leaf_vector":"1"}},{"base_weights":[1.3997678E-1,-1.17195345E-1,1.2440317E0,-5.1863676E-1,1.0956633E0,-6.9180655E-1,2.3092197E-1,1.401101E0,-0E0,-8.103771E-1,8.0501236E-2,-1.0369092E0,-1.15044825E-1,-3.5679024E-1,-1.2968199E0,3.1136087E-1,-4.8301223E-1,-0E0,-5.684058E-1],"categories":[],"categories_nodes":[],"categories_segments":[],"categories_sizes":[],"default_left":[0,0,0,0,0,0,0,0,0,0,0,0,0,0,0,0,0,0,0],"id":4,"left_children":[1,3,-1,5,7,9,-1,-1,-1,11,-1,13,15,17,-1,-1,-1,-1,-1],"loss_changes":[5.367867E0,7.602149E0,0E0,1.7829506E0,1.4263964E0,1.102798E0,0E0,0E0,0E0,1.1100807E0,0E0,6.275244E-1,7.811066E-1,3.4671053E-1,0E0,0E0,0E0,0E0,0E0],"parents":[2147483647,0,0,1,1,3,3,4,4,5,5,9,9,11,11,12,12,13,13],"right_children":[2,4,-1,6,8,10,-1,-1,-1,12,-1,14,16,18,-1,-1,-1,-1,-1],"split_conditions":[1E0,1E0,1.2440317E0,1E0,1E0,1E0,2.3092197E-1,1.401101E0,-0E0,1E0,8.0501236E-2,1E0,1E0,1E0,-1.2968199E0,3.1136087E-1,-4.8301223E-1,-0E0,-5.684058E-1],"split_indices":[1647,1855,0,119,1152,694,0,0,0,1114,0,1057,1199,935,0,0,0,0,0],"split_type":[0,0,0,0,0,0,0,0,0,0,0,0,0,0,0,0,0,0,0],"sum_hessian":[1.5961223E1,1.3665453E1,2.2957695E0,1.0789277E1,2.8761759E0,9.025884E0,1.7633934E0,1.8665313E0,1.0096446E0,7.9679565E0,1.0579274E0,5.472727E0,2.4952297E0,2.5473201E0,2.9254067E0,1.0538794E0,1.4413503E0,1.2562448E0,1.2910753E0],"tree_param":{"num_deleted":"0","num_feature":"2048","num_nodes":"19","size_leaf_vector":"1"}},{"base_weights":[6.2156003E-2,2.321236E-1,-7.2365165E-1,3.570816E-1,-5.27619E-1,-1.0564839E0,-0E0,8.376897E-2,6.960337E-1,3.4040588E-1,-2.7572906E-1,7.332665E-1,-3.6330777E-1,6.11161E-2,-5.776026E-1,1.0276449E0,-0E0],"categories":[],"categories_nodes":[],"categories_segments":[],"categories_sizes":[],"default_left":[0,0,0,0,0,0,0,0,0,0,0,0,0,0,0,0,0],"id":5,"left_children":[1,3,5,7,-1,-1,-1,9,-1,11,13,15,-1,-1,-1,-1,-1],"loss_changes":[2.302101E0,1.5824224E0,8.4293854E-1,1.1478205E0,0E0,0E0,0E0,9.324467E-1,0E0,2.0076818E0,5.680557E-1,1.0372844E0,0E0,0E0,0E0,0E0,0E0],"parents":[2147483647,0,0,1,1,2,2,3,3,7,7,9,9,10,10,11,11],"right_children":[2,4,6,8,-1,-1,-1,10,-1,12,14,16,-1,-1,-1,-1,-1],"split_conditions":[1E0,1E0,1E0,1E0,-5.27619E-1,-1.0564839E0,-0E0,1E0,6.960337E-1,1E0,1E0,1E0,-3.6330777E-1,6.11161E-2,-5.776026E-1,1.0276449E0,-0E0],"split_indices":[1946,739,978,695,0,0,0,875,0,1325,1088,378,0,0,0,0,0],"split_type":[0,0,0,0,0,0,0,0,0,0,0,0,0,0,0,0,0],"sum_hessian":[1.5594404E1,1.3558147E1,2.0362566E0,1.232469E1,1.2334583E0,1.0212619E0,1.0149946E0,8.007027E0,4.317663E0,4.9597945E0,3.047232E0,3.3359926E0,1.623802E0,1.6409984E0,1.4062334E0,1.9536481E0,1.3823446E0],"tree_param":{"num_deleted":"0","num_feature":"2048","num_nodes":"17","size_leaf_vector":"1"}},{"base_weights":[6.091448E-2,-2.526772E-1,1.2589165E0,-7.918056E-1,1.0044022E-1,1.6043868E0,2.973184E-2,-1.0049756E0,3.778996E-2,-3.9887485E-1,6.089985E-1,-6.5258825E-1,1.3209379E-1],"categories":[],"categories_nodes":[],"categories_segments":[],"categories_sizes":[],"default_left":[0,0,0,0,0,0,0,0,0,0,0,0,0],"id":6,"left_children":[1,3,5,7,9,-1,-1,-1,-1,11,-1,-1,-1],"loss_changes":[6.439887E0,2.720694E0,1.4764605E0,1.3721976E0,2.6123216E0,0E0,0E0,0E0,0E0,9.2360735E-1,0E0,0E0,0E0],"parents":[2147483647,0,0,1,1,2,2,3,3,4,4,9,9],"right_children":[2,4,6,8,10,-1,-1,-1,-1,12,-1,-1,-1],"split_conditions":[1E0,1E0,1E0,1E0,1E0,1.6043868E0,2.973184E-2,-1.0049756E0,3.778996E-2,1E0,6.089985E-1,-6.5258825E-1,1.3209379E-1],"split_indices":[1236,80,656,1152,378,0,0,0,0,1325,0,0,0],"split_type":[0,0,0,0,0,0,0,0,0,0,0,0,0],"sum_hessian":[1.4896749E1,1.231784E1,2.5789092E0,4.5680256E0,7.749814E0,1.5703998E0,1.0085093E0,3.4502084E0,1.1178172E0,3.976979E0,3.772835E0,2.6342137E0,1.3427655E0],"tree_param":{"num_deleted":"0","num_feature":"2048","num_nodes":"13","size_leaf_vector":"1"}},{"base_weights":[-1.3402823E-2,5.5093586E-1,-4.189758E-1,8.523344E-1,-0E0,-6.421539E-1,4.1790688E-1,1.057675E0,5.988378E-2,-4.6751678E-1,4.368843E-1,-9.134556E-1,-0E0,-1.1482197E0,1.525363E-1],"categories":[],"categories_nodes":[],"categories_segments":[],"categories_sizes":[],"default_left":[0,0,0,0,0,0,0,0,0,0,0,0,0,0,0],"id":7,"left_children":[1,3,5,7,9,11,-1,-1,-1,-1,-1,13,-1,-1,-1],"loss_changes":[3.730895E0,1.2211373E0,2.1532059E0,6.2670064E-1,9.3106794E-1,1.5685525E0,0E0,0E0,0E0,0E0,0E0,2.1437836E0,0E0,0E0,0E0],"parents":[2147483647,0,0,1,1,2,2,3,3,4,4,5,5,11,11],"right_children":[2,4,6,8,10,12,-1,-1,-1,-1,-1,14,-1,-1,-1],"split_conditions":[1E0,1E0,1E0,1E0,1E0,1E0,4.1790688E-1,1.057675E0,5.988378E-2,-4.6751678E-1,4.368843E-1,1E0,-0E0,-1.1482197E0,1.525363E-1],"split_indices":[80,1019,656,935,656,1114,0,0,0,0,0,1163,0,0,0],"split_type":[0,0,0,0,0,0,0,0,0,0,0,0,0,0,0],"sum_hessian":[1.4412258E1,5.7153296E0,8.696928E0,3.494987E0,2.2203429E0,7.2357116E0,1.4612167E0,2.2118304E0,1.2831566E0,1.1743544E0,1.0459883E0,4.9571815E0,2.2785301E0,3.9546974E0,1.0024838E0],"tree_param":{"num_deleted":"0","num_feature":"2048","num_nodes":"15","size_leaf_vector":"1"}},{"base_weights":[-3.3918798E-1,-5.316323E-1,8.067279E-1,-1.6545185E-1,-1.3487755E0,-4.1075927E-1,7.122599E-1,-6.363807E-1,2.887687E-1,-8.8315535E-1,3.006096E-1,-1.3315742E0,-9.837664E-2],"categories":[],"categories_nodes":[],"categories_segments":[],"categories_sizes":[],"default_left":[0,0,0,0,0,0,0,0,0,0,0,0,0],"id":8,"left_children":[1,3,-1,5,-1,7,-1,9,-1,11,-1,-1,-1],"loss_changes":[3.9640865E0,4.0750475E0,0E0,2.7581167E0,0E0,1.7912743E0,0E0,2.193533E0,0E0,2.210832E0,0E0,0E0,0E0],"parents":[2147483647,0,0,1,1,3,3,5,5,7,7,9,9],"right_children":[2,4,-1,6,-1,8,-1,10,-1,12,-1,-1,-1],"split_conditions":[1E0,1E0,8.067279E-1,1E0,-1.3487755E0,1E0,7.122599E-1,1E0,2.887687E-1,1E0,3.006096E-1,-1.3315742E0,-9.837664E-2],"split_indices":[1984,389,0,1980,0,1410,0,1028,0,80,0,0,0],"split_type":[0,0,0,0,0,0,0,0,0,0,0,0,0],"sum_hessian":[1.4766844E1,1.3274966E1,1.4918779E0,1.0302475E1,2.9724917E0,8.670432E0,1.6320425E0,6.8303757E0,1.8400564E0,5.6079974E0,1.222378E0,2.8241422E0,2.7838554E0],"tree_param":{"num_deleted":"0","num_feature":"2048","num_nodes":"13","size_leaf_vector":"1"}},{"base_weights":[4.5235172E-1,7.050553E-1,-5.844704E-1,9.548932E-1,-6.2096983E-1,3.2660982E-1,1.4426222E0,-1.1900179E-1,6.2199885E-1,4.0400434E-1,2.0158963E0],"categories":[],"categories_nodes":[],"categories_segments":[],"categories_sizes":[],"default_left":[0,0,0,0,0,0,0,0,0,0,0],"id":9,"left_children":[1,3,-1,5,-1,7,9,-1,-1,-1,-1],"loss_changes":[3.573257E0,4.041328E0,0E0,1.9998102E0,0E0,9.3185353E-1,1.8197203E0,0E0,0E0,0E0,0E0],"parents":[2147483647,0,0,1,1,3,3,5,5,6,6],"right_children":[2,4,-1,6,-1,8,10,-1,-1,-1,-1],"split_conditions":[1E0,1E0,-5.844704E-1,1E0,-6.2096983E-1,1E0,1E0,-1.1900179E-1,6.2199885E-1,4.0400434E-1,2.0158963E0],"split_indices":[1224,1349,0,1199,0,378,1152,0,0,0,0],"split_type":[0,0,0,0,0,0,0,0,0,0,0],"sum_hessian":[1.0713003E1,9.039069E0,1.6739339E0,7.97159E0,1.0674794E0,4.345152E0,3.626438E0,1.852678E0,2.4924738E0,2.142787E0,1.483651E0],"tree_param":{"num_deleted":"0","num_feature":"2048","num_nodes":"11","size_leaf_vector":"1"}},{"base_weights":[-9.741992E-2,2.4781069E-1,-6.405242E-1,-5.2422047E-1,6.097468E-1,-8.1599814E-1,-0E0,7.112552E-2,-9.4347554E-1,8.768549E-1,-2.2235383E-1],"categories":[],"categories_nodes":[],"categories_segments":[],"categories_sizes":[],"default_left":[0,0,0,0,0,0,0,0,0,0,0],"id":10,"left_children":[1,3,5,7,9,-1,-1,-1,-1,-1,-1],"loss_changes":[2.7122009E0,2.749226E0,8.5141206E-1,1.0791161E0,1.9691353E0,0E0,0E0,0E0,0E0,0E0,0E0],"parents":[2147483647,0,0,1,1,2,2,3,3,4,4],"right_children":[2,4,6,8,10,-1,-1,-1,-1,-1,-1],"split_conditions":[1E0,1E0,1E0,1E0,1E0,-8.1599814E-1,-0E0,7.112552E-2,-9.4347554E-1,8.768549E-1,-2.2235383E-1],"split_indices":[1152,926,585,378,1791,0,0,0,0,0,0],"split_type":[0,0,0,0,0,0,0,0,0,0,0],"sum_hessian":[1.2313064E1,7.677032E0,4.6360316E0,2.169426E0,5.507606E0,3.3944108E0,1.2416205E0,1.1479973E0,1.0214288E0,4.127389E0,1.3802167E0],"tree_param":{"num_deleted":"0","num_feature":"2048","num_nodes":"11","size_leaf_vector":"1"}},{"base_weights":[3.7679917E-1,5.880133E-1,-3.2633877E-1,8.5168046E-1,-4.8961687E-1,1.0465741E0,-1.24944404E-1,1.4410301E0,1.849995E-1,-9.3681395E-2,5.078447E-1],"categories":[],"categories_nodes":[],"categories_segments":[],"categories_sizes":[],"default_left":[0,0,0,0,0,0,0,0,0,0,0],"id":11,"left_children":[1,3,-1,5,-1,7,-1,-1,9,-1,-1],"loss_changes":[2.3766634E0,3.7972784E0,0E0,2.1397376E0,0E0,2.7200584E0,0E0,0E0,5.1921815E-1,0E0,0E0],"parents":[2147483647,0,0,1,1,3,3,5,5,8,8],"right_children":[2,4,-1,6,-1,8,-1,-1,10,-1,-1],"split_conditions":[1E0,1E0,-3.2633877E-1,1E0,-4.8961687E-1,1E0,-1.24944404E-1,1.4410301E0,1E0,-9.3681395E-2,5.078447E-1],"split_indices":[1855,1970,0,1039,0,80,0,0,1480,0,0],"split_type":[0,0,0,0,0,0,0,0,0,0,0],"sum_hessian":[1.3160625E1,1.0471264E1,2.6893618E0,8.7373905E0,1.7338732E0,7.370517E0,1.3668735E0,4.232061E0,3.138456E0,1.8560507E0,1.2824054E0],"tree_param":{"num_deleted":"0","num_feature":"2048","num_nodes":"11","size_leaf_vector":"1"}},{"base_weights":[-5.8186375E-2,1.2548849E-1,-1.0928912E0,4.4108945E-1,-3.1994376E-1,-2.2774908E-1,6.7093045E-1,-9.150134E-1,5.949298E-2,7.801778E-1,-0E0,4.7035298E-1,-2.897675E-1],"categories":[],"categories_nodes":[],"categories_segments":[],"categories_sizes":[],"default_left":[0,0,0,0,0,0,0,0,0,0,0,0,0],"id":12,"left_children":[1,3,-1,5,7,-1,9,-1,11,-1,-1,-1,-1],"loss_changes":[2.7623143E0,1.7572925E0,0E0,1.3601354E0,1.415885E0,0E0,4.5787525E-1,0E0,7.8763735E-1,0E0,0E0,0E0,0E0],"parents":[2147483647,0,0,1,1,3,3,4,4,6,6,8,8],"right_children":[2,4,-1,6,8,-1,10,-1,12,-1,-1,-1,-1],"split_conditions":[1E0,1E0,-1.0928912E0,1E0,1E0,-2.2774908E-1,1E0,-9.150134E-1,1E0,7.801778E-1,-0E0,4.7035298E-1,-2.897675E-1],"split_indices":[984,650,0,378,1088,0,43,0,1573,0,0,0,0],"split_type":[0,0,0,0,0,0,0,0,0,0,0,0,0],"sum_hessian":[1.1432794E1,1.038853E1,1.0442631E0,6.2943907E0,4.0941396E0,1.411028E0,4.8833623E0,1.1343746E0,2.959765E0,3.717806E0,1.1655566E0,1.3913765E0,1.5683885E0],"tree_param":{"num_deleted":"0","num_feature":"2048","num_nodes":"13","size_leaf_vector":"1"}},{"base_weights":[-2.5037E-1,3.219074E-2,-1.1094589E0,-3.2813975E-1,8.417921E-1,-7.9530805E-1,6.7658476E-3,1.1439326E0,1.0236793E-1,-1.0256459E0,-0E0,2.537442E-1,-4.6020153E-1,5.7285297E-1,-2.0569575E-1],"categories":[],"categories_nodes":[],"categories_segments":[],"categories_sizes":[],"default_left":[0,0,0,0,0,0,0,0,0,0,0,0,0,0,0],"id":13,"left_children":[1,3,-1,5,7,9,11,-1,-1,-1,-1,13,-1,-1,-1],"loss_changes":[3.6151855E0,3.5531619E0,0E0,1.4075329E0,6.405833E-1,6.7698836E-1,7.478598E-1,0E0,0E0,0E0,0E0,9.116674E-1,0E0,0E0,0E0],"parents":[2147483647,0,0,1,1,3,3,4,4,5,5,6,6,11,11],"right_children":[2,4,-1,6,8,10,12,-1,-1,-1,-1,14,-1,-1,-1],"split_conditions":[1E0,1E0,-1.1094589E0,1E0,1E0,1E0,1E0,1.1439326E0,1.0236793E-1,-1.0256459E0,-0E0,1E0,-4.6020153E-1,5.7285297E-1,-2.0569575E-1],"split_indices":[1573,807,0,1088,1019,80,1410,0,0,0,0,656,0,0,0],"split_type":[0,0,0,0,0,0,0,0,0,0,0,0,0,0,0],"sum_hessian":[1.2326082E1,9.981632E0,2.3444495E0,7.1774664E0,2.8041658E0,2.6288455E0,4.548621E0,1.3422307E0,1.4619352E0,1.6159247E0,1.0129206E0,3.5436246E0,1.0049963E0,2.0857978E0,1.457827E0],"tree_param":{"num_deleted":"0","num_feature":"2048","num_nodes":"15","size_leaf_vector":"1"}},{"base_weights":[-1.08140394E-1,-3.5232982E-1,1.1214851E0,-5.106813E-1,6.087287E-1,-7.192355E-1,5.4322267E-1,-1.0172135E0,-5.396423E-2,-1.1363211E0,-1.3436693E-1,-3.9190692E-1,4.615425E-1],"categories":[],"categories_nodes":[],"categories_segments":[],"categories_sizes":[],"default_left":[0,0,0,0,0,0,0,0,0,0,0,0,0],"id":14,"left_children":[1,3,-1,5,-1,7,-1,9,11,-1,-1,-1,-1],"loss_changes":[4.690591E0,2.2912273E0,0E0,3.045741E0,0E0,1.8257394E0,0E0,6.3052034E-1,1.014054E0,0E0,0E0,0E0,0E0],"parents":[2147483647,0,0,1,1,3,3,5,5,7,7,8,8],"right_children":[2,4,-1,6,-1,8,-1,10,12,-1,-1,-1,-1],"split_conditions":[1E0,1E0,1.1214851E0,1E0,6.087287E-1,1E0,5.4322267E-1,1E0,1E0,-1.1363211E0,-1.3436693E-1,-3.9190692E-1,4.615425E-1],"split_indices":[849,1856,0,1984,0,656,0,875,1738,0,0,0,0],"split_type":[0,0,0,0,0,0,0,0,0,0,0,0,0],"sum_hessian":[1.3192085E1,1.17748375E1,1.4172479E0,1.0693005E1,1.081833E0,9.354026E0,1.338979E0,5.9356194E0,3.418406E0,4.5547194E0,1.3809E0,2.3752725E0,1.0431335E0],"tree_param":{"num_deleted":"0","num_feature":"2048","num_nodes":"13","size_leaf_vector":"1"}},{"base_weights":[5.319755E-1,8.990742E-1,-0E0,1.1701262E0,-2.8650048E-1,4.493931E-1,-3.1766856E-1,1.4202111E0,2.3488356E-1,-5.030058E-1,5.264279E-2],"categories":[],"categories_nodes":[],"categories_segments":[],"categories_sizes":[],"default_left":[0,0,0,0,0,0,0,0,0,0,0],"id":15,"left_children":[1,3,5,7,-1,-1,9,-1,-1,-1,-1],"loss_changes":[2.4349554E0,2.8227077E0,9.88361E-1,1.13377E0,0E0,0E0,4.2083868E-1,0E0,0E0,0E0,0E0],"parents":[2147483647,0,0,1,1,2,2,3,3,6,6],"right_children":[2,4,6,8,-1,-1,10,-1,-1,-1,-1],"split_conditions":[1E0,1E0,1E0,1E0,-2.8650048E-1,4.493931E-1,1E0,1.4202111E0,2.3488356E-1,-5.030058E-1,5.264279E-2],"split_indices":[1019,675,1057,881,0,0,1279,0,0,0,0],"split_type":[0,0,0,0,0,0,0,0,0,0,0],"sum_hessian":[1.1012416E1,6.227153E0,4.7852635E0,5.203734E0,1.0234187E0,1.6174216E0,3.1678421E0,3.3358521E0,1.8678819E0,2.0575292E0,1.1103128E0],"tree_param":{"num_deleted":"0","num_feature":"2048","num_nodes":"11","size_leaf_vector":"1"}},{"base_weights":[-2.0897184E-1,-4.9086052E-1,5.052638E-1,-0E0,-7.8592217E-1,8.161997E-1,-1.0783796E-2,4.35416E-1,-2.8554562E-1,-9.2350954E-1,-0E0,-1.0934566E0,-0E0],"categories":[],"categories_nodes":[],"categories_segments":[],"categories_sizes":[],"default_left":[0,0,0,0,0,0,0,0,0,0,0,0,0],"id":16,"left_children":[1,3,5,7,9,-1,-1,-1,-1,11,-1,-1,-1],"loss_changes":[2.792021E0,1.5308654E0,8.371322E-1,7.5530374E-1,5.547161E-1,0E0,0E0,0E0,0E0,8.8336515E-1,0E0,0E0,0E0],"parents":[2147483647,0,0,1,1,2,2,3,3,4,4,9,9],"right_children":[2,4,6,8,10,-1,-1,-1,-1,12,-1,-1,-1],"split_conditions":[1E0,1E0,1E0,1E0,1E0,8.161997E-1,-1.0783796E-2,4.35416E-1,-2.8554562E-1,1E0,-0E0,-1.0934566E0,-0E0],"split_indices":[1325,935,378,926,1922,0,0,0,0,841,0,0,0],"split_type":[0,0,0,0,0,0,0,0,0,0,0,0,0],"sum_hessian":[1.1678954E1,8.754208E0,2.924746E0,3.462098E0,5.29211E0,1.5584847E0,1.3662614E0,1.370161E0,2.0919368E0,4.211287E0,1.0808233E0,3.1204164E0,1.0908705E0],"tree_param":{"num_deleted":"0","num_feature":"2048","num_nodes":"13","size_leaf_vector":"1"}},{"base_weights":[-1.467677E-2,1.7588866E-1,-9.396812E-1,-1.21865794E-1,4.2795256E-1],"categories":[],"categories_nodes":[],"categories_segments":[],"categories_sizes":[],"default_left":[0,0,0,0,0],"id":17,"left_children":[1,3,-1,-1,-1],"loss_changes":[2.244508E0,8.856181E-1,0E0,0E0,0E0],"parents":[2147483647,0,0,1,1],"right_children":[2,4,-1,-1,-1],"split_conditions":[1E0,1E0,-9.396812E-1,-1.21865794E-1,4.2795256E-1],"split_indices":[1980,1088,0,0,0],"split_type":[0,0,0,0,0],"sum_hessian":[9.6271E0,8.572037E0,1.0550634E0,4.005248E0,4.5667887E0],"tree_param":{"num_deleted":"0","num_feature":"2048","num_nodes":"5","size_leaf_vector":"1"}},{"base_weights":[1.9600783E-1,4.4030547E-1,-7.9778814E-1,5.767038E-1,-1.2423852E-1,2.9281104E-1,1.1276243E0,4.4218674E-1,-1.8109968E-1],"categories":[],"categories_nodes":[],"categories_segments":[],"categories_sizes":[],"default_left":[0,0,0,0,0,0,0,0,0],"id":18,"left_children":[1,3,-1,5,-1,7,-1,-1,-1],"loss_changes":[3.282253E0,9.510646E-1,0E0,9.163401E-1,0E0,7.2792107E-1,0E0,0E0,0E0],"parents":[2147483647,0,0,1,1,3,3,5,5],"right_children":[2,4,-1,6,-1,8,-1,-1,-1],"split_conditions":[1E0,1E0,-7.9778814E-1,1E0,-1.2423852E-1,1E0,1.1276243E0,4.4218674E-1,-1.8109968E-1],"split_indices":[1060,1452,0,1855,0,1357,0,0,0],"split_type":[0,0,0,0,0,0,0,0,0],"sum_hessian":[1.0916788E1,9.396922E0,1.5198662E0,7.7960696E0,1.6008527E0,6.45833E0,1.3377395E0,5.06892E0,1.3894098E0],"tree_param":{"num_deleted":"0","num_feature":"2048","num_nodes":"9","size_leaf_vector":"1"}},{"base_weights":[-3.2927552E-1,-5.814696E-1,9.867116E-1,-8.360836E-1,6.4373374E-1,-1.1037663E0,-1.8882908E-1,-4.6263885E-1,-1.4141724E0,-4.263311E-1,8.399E-2],"categories":[],"categories_nodes":[],"categories_segments":[],"categories_sizes":[],"default_left":[0,0,0,0,0,0,0,0,0,0,0],"id":19,"left_children":[1,3,-1,5,-1,7,9,-1,-1,-1,-1],"loss_changes":[4.4989533E0,3.9376438E0,0E0,1.2017288E0,0E0,4.1241884E-1,3.82187E-1,0E0,0E0,0E0,0E0],"parents":[2147483647,0,0,1,1,3,3,5,5,6,6],"right_children":[2,4,-1,6,-1,8,10,-1,-1,-1,-1],"split_conditions":[1E0,1E0,9.867116E-1,1E0,6.4373374E-1,1E0,1E0,-4.6263885E-1,-1.4141724E0,-4.263311E-1,8.399E-2],"split_indices":[1060,1647,0,695,0,935,378,0,0,0,0],"split_type":[0,0,0,0,0,0,0,0,0,0,0],"sum_hessian":[1.0655746E1,9.5580635E0,1.0976828E0,8.319118E0,1.2389463E0,5.2200623E0,3.0990553E0,2.944371E0,2.275691E0,1.5999697E0,1.4990854E0],"tree_param":{"num_deleted":"0","num_feature":"2048","num_nodes":"11","size_leaf_vector":"1"}},{"base_weights":[-2.9799284E-2,-2.4308129E-1,5.807417E-1,-4.635641E-2,-7.5706476E-1,9.192821E-1,-1.2497015E-2,-2.785238E-1,4.9984023E-1,-5.0177E-1,2.8886214E-1,-7.6346844E-2,-6.882956E-1,1.706834E-1,-3.7547064E-1],"categories":[],"categories_nodes":[],"categories_segments":[],"categories_sizes":[],"default_left":[0,0,0,0,0,0,0,0,0,0,0,0,0,0,0],"id":20,"left_children":[1,3,5,7,-1,-1,-1,9,-1,11,-1,13,-1,-1,-1],"loss_changes":[1.7234774E0,9.256554E-1,9.104575E-1,1.2567302E0,0E0,0E0,0E0,1.092633E0,0E0,3.3665764E-1,0E0,3.6144158E-1,0E0,0E0,0E0],"parents":[2147483647,0,0,1,1,2,2,3,3,7,7,9,9,11,11],"right_children":[2,4,6,8,-1,-1,-1,10,-1,12,-1,14,-1,-1,-1],"split_conditions":[1E0,1E0,1E0,1E0,-7.5706476E-1,9.192821E-1,-1.2497015E-2,1E0,4.9984023E-1,1E0,2.8886214E-1,1E0,-6.882956E-1,1.706834E-1,-3.7547064E-1],"split_indices":[1357,841,950,1145,0,0,0,1856,0,1057,0,875,0,0,0],"split_type":[0,0,0,0,0,0,0,0,0,0,0,0,0,0,0],"sum_hessian":[1.1592282E1,9.22327E0,2.369012E0,7.775642E0,1.4476286E0,1.245442E0,1.1235702E0,6.069162E0,1.7064799E0,4.673106E0,1.3960557E0,2.2618806E0,2.4112253E0,1.209284E0,1.0525967E0],"tree_param":{"num_deleted":"0","num_feature":"2048","num_nodes":"15","size_leaf_vector":"1"}},{"base_weights":[8.407618E-2,3.4281018E-1,-3.9253652E-1,5.952192E-1,-4.8272175E-1,-7.116397E-1,1.8358064E-1],"categories":[],"categories_nodes":[],"categories_segments":[],"categories_sizes":[],"default_left":[0,0,0,0,0,0,0],"id":21,"left_children":[1,3,5,-1,-1,-1,-1],"loss_changes":[1.3955107E0,2.0595617E0,1.0123283E0,0E0,0E0,0E0,0E0],"parents":[2147483647,0,0,1,1,2,2],"right_children":[2,4,6,-1,-1,-1,-1],"split_conditions":[1E0,1E0,1E0,5.952192E-1,-4.8272175E-1,-7.116397E-1,1.8358064E-1],"split_indices":[875,1422,1791,0,0,0,0],"split_type":[0,0,0,0,0,0,0],"sum_hessian":[9.31917E0,6.4351926E0,2.883978E0,5.188343E0,1.2468493E0,1.8108622E0,1.0731158E0],"tree_param":{"num_deleted":"0","num_feature":"2048","num_nodes":"7","size_leaf_vector":"1"}},{"base_weights":[-2.7602953E-1,-6.4540684E-1,1.5026677E-1,-1.09840944E-1,-7.90299E-1,-2.2630404E-1,5.718279E-1,1.12781666E-1,-5.035999E-1,-0E0,7.723616E-1],"categories":[],"categories_nodes":[],"categories_segments":[],"categories_sizes":[],"default_left":[0,0,0,0,0,0,0,0,0,0,0],"id":22,"left_children":[1,3,5,-1,-1,7,9,-1,-1,-1,-1],"loss_changes":[2.1246026E0,4.1871476E-1,1.1904966E0,0E0,0E0,5.2022254E-1,3.9334977E-1,0E0,0E0,0E0,0E0],"parents":[2147483647,0,0,1,1,2,2,5,5,6,6],"right_children":[2,4,6,-1,-1,8,10,-1,-1,-1,-1],"split_conditions":[1E0,1E0,1E0,-1.09840944E-1,-7.90299E-1,1E0,1E0,1.12781666E-1,-5.035999E-1,-0E0,7.723616E-1],"split_indices":[1019,1057,656,0,0,1480,935,0,0,0,0],"split_type":[0,0,0,0,0,0,0,0,0,0,0],"sum_hessian":[1.1401182E1,6.0362415E0,5.364941E0,2.1378367E0,3.8984048E0,2.876144E0,2.488797E0,1.3650154E0,1.5111285E0,1.1065567E0,1.3822403E0],"tree_param":{"num_deleted":"0","num_feature":"2048","num_nodes":"11","size_leaf_vector":"1"}},{"base_weights":[8.483977E-2,4.0873903E-1,-2.1783432E-1,7.9962105E-1,-3.907485E-1,-0E0,-5.943563E-1,-2.8926736E-1,3.302858E-1],"categories":[],"categories_nodes":[],"categories_segments":[],"categories_sizes":[],"default_left":[0,0,0,0,0,0,0,0,0],"id":23,"left_children":[1,3,5,-1,-1,7,-1,-1,-1],"loss_changes":[1.0396838E0,2.1739376E0,5.172973E-1,0E0,0E0,5.438058E-1,0E0,0E0,0E0],"parents":[2147483647,0,0,1,1,2,2,5,5],"right_children":[2,4,6,-1,-1,8,-1,-1,-1],"split_conditions":[1E0,1E0,1E0,7.9962105E-1,-3.907485E-1,1E0,-5.943563E-1,-2.8926736E-1,3.302858E-1],"split_indices":[1019,1,1482,0,0,1152,0,0,0],"split_type":[0,0,0,0,0,0,0,0,0],"sum_hessian":[8.415419E0,4.151396E0,4.2640224E0,2.8473687E0,1.3040273E0,3.2460003E0,1.018022E0,1.6473445E0,1.5986557E0],"tree_param":{"num_deleted":"0","num_feature":"2048","num_nodes":"9","size_leaf_vector":"1"}},{"base_weights":[-7.0056096E-2,-2.4358198E-1,4.1374013E-1,-0E0,-6.7992234E-1],"categories":[],"categories_nodes":[],"categories_segments":[],"categories_sizes":[],"default_left":[0,0,0,0,0],"id":24,"left_children":[1,3,-1,-1,-1],"loss_changes":[9.852811E-1,9.392789E-1,0E0,0E0,0E0],"parents":[2147483647,0,0,1,1],"right_children":[2,4,-1,-1,-1],"split_conditions":[1E0,1E0,4.1374013E-1,-0E0,-6.7992234E-1],"split_indices":[1482,650,0,0,0],"split_type":[0,0,0,0,0],"sum_hessian":[9.508545E0,7.671892E0,1.8366529E0,5.7548723E0,1.9170201E0],"tree_param":{"num_deleted":"0","num_feature":"2048","num_nodes":"5","size_leaf_vector":"1"}},{"base_weights":[2.0524758E-1,5.6050997E-2,7.2152126E-1,-1.2766656E-1,2.3771009E-1],"categories":[],"categories_nodes":[],"categories_segments":[],"categories_sizes":[],"default_left":[0,0,0,0,0],"id":25,"left_children":[1,3,-1,-1,-1],"loss_changes":[7.1455187E-1,4.054615E-1,0E0,0E0,0E0],"parents":[2147483647,0,0,1,1],"right_children":[2,4,-1,-1,-1],"split_conditions":[1E0,1E0,7.2152126E-1,-1.2766656E-1,2.3771009E-1],"split_indices":[1163,1019,0,0,0],"split_type":[0,0,0,0,0],"sum_hessian":[9.87505E0,8.836129E0,1.038921E0,4.1804667E0,4.655662E0],"tree_param":{"num_deleted":"0","num_feature":"2048","num_nodes":"5","size_leaf_vector":"1"}},{"base_weights":[4.0935248E-2,-1.4645202E-1,8.011304E-1,-3.2546848E-1,2.9043597E-1,-4.7596714E-1,1.2288383E-1,-6.4835197E-1,1.5241838E-1],"categories":[],"categories_nodes":[],"categories_segments":[],"categories_sizes":[],"default_left":[0,0,0,0,0,0,0,0,0],"id":26,"left_children":[1,3,-1,5,-1,7,-1,-1,-1],"loss_changes":[1.8009045E0,8.4230894E-1,0E0,6.15133E-1,0E0,9.4029987E-1,0E0,0E0,0E0],"parents":[2147483647,0,0,1,1,3,3,5,5],"right_children":[2,4,-1,6,-1,8,-1,-1,-1],"split_conditions":[1E0,1E0,8.011304E-1,1E0,2.9043597E-1,1E0,1.2288383E-1,-6.4835197E-1,1.5241838E-1],"split_indices":[592,656,0,1163,0,1236,0,0,0],"split_type":[0,0,0,0,0,0,0,0,0],"sum_hessian":[9.594707E0,8.248364E0,1.3463422E0,6.342011E0,1.9063532E0,4.987005E0,1.3550061E0,3.9408116E0,1.0461934E0],"tree_param":{"num_deleted":"0","num_feature":"2048","num_nodes":"9","size_leaf_vector":"1"}},{"base_weights":[8.0830855E-3,-1.14230104E-1,6.8820107E-1,-2.5392616E-1,4.496007E-1,1.4841016E-1,-5.071116E-1,3.6934292E-1,-1.1836306E-1,-0E0,-6.26763E-1,-7.2823876E-1,-0E0],"categories":[],"categories_nodes":[],"categories_segments":[],"categories_sizes":[],"default_left":[0,0,0,0,0,0,0,0,0,0,0,0,0],"id":27,"left_children":[1,3,-1,5,-1,7,9,-1,-1,-1,11,-1,-1],"loss_changes":[1.1522237E0,9.1829467E-1,0E0,1.0622509E0,0E0,3.4762585E-1,3.7422156E-1,0E0,0E0,0E0,3.093871E-1,0E0,0E0],"parents":[2147483647,0,0,1,1,3,3,5,5,6,6,10,10],"right_children":[2,4,-1,6,-1,8,10,-1,-1,-1,12,-1,-1],"split_conditions":[1E0,1E0,6.8820107E-1,1E0,4.496007E-1,1E0,1E0,3.6934292E-1,-1.1836306E-1,-0E0,1E0,-7.2823876E-1,-0E0],"split_indices":[849,366,0,1088,0,1057,926,0,0,0,1060,0,0],"split_type":[0,0,0,0,0,0,0,0,0,0,0,0,0],"sum_hessian":[1.0286125E1,9.284851E0,1.0012745E0,8.155611E0,1.1292399E0,3.0656276E0,5.0899835E0,1.7340072E0,1.3316202E0,1.1456927E0,3.9442906E0,2.9257982E0,1.0184927E0],"tree_param":{"num_deleted":"0","num_feature":"2048","num_nodes":"13","size_leaf_vector":"1"}},{"base_weights":[3.5450575E-1,-1.502015E-1,5.7223314E-1,-2.1951484E-2,7.0109934E-1],"categories":[],"categories_nodes":[],"categories_segments":[],"categories_sizes":[],"default_left":[0,0,0,0,0],"id":28,"left_children":[1,-1,3,-1,-1],"loss_changes":[1.2424583E0,0E0,8.109009E-1,0E0,0E0],"parents":[2147483647,0,0,2,2],"right_children":[2,-1,4,-1,-1],"split_conditions":[1E0,-1.502015E-1,1E0,-2.1951484E-2,7.0109934E-1],"split_indices":[1057,0,1088,0,0],"split_type":[0,0,0,0,0],"sum_hessian":[8.800268E0,2.4955094E0,6.304759E0,1.2835146E0,5.021244E0],"tree_param":{"num_deleted":"0","num_feature":"2048","num_nodes":"5","size_leaf_vector":"1"}},{"base_weights":[-1.7321531E-1,1.0436987E-2,-7.0725405E-1,2.119347E-1,-5.93369E-1,-3.8862523E-2,5.1211506E-1,2.7383512E-1,-4.3895665E-1,2.1524502E-2,8.161827E-1,-2.0150255E-2,4.9224454E-1],"categories":[],"categories_nodes":[],"categories_segments":[],"categories_sizes":[],"default_left":[0,0,0,0,0,0,0,0,0,0,0,0,0],"id":29,"left_children":[1,3,-1,5,-1,7,9,11,-1,-1,-1,-1,-1],"loss_changes":[1.2738397E0,1.2233095E0,0E0,6.862557E-1,0E0,7.93852E-1,4.926293E-1,3.1387866E-1,0E0,0E0,0E0,0E0,0E0],"parents":[2147483647,0,0,1,1,3,3,5,5,6,6,7,7],"right_children":[2,4,-1,6,-1,8,10,12,-1,-1,-1,-1,-1],"split_conditions":[1E0,1E0,-7.0725405E-1,1E0,-5.93369E-1,1E0,1E0,1E0,-4.3895665E-1,2.1524502E-2,8.161827E-1,-2.0150255E-2,4.9224454E-1],"split_indices":[1060,1724,0,80,0,1199,1152,1114,0,0,0,0,0],"split_type":[0,0,0,0,0,0,0,0,0,0,0,0,0],"sum_hessian":[1.0153952E1,8.172385E0,1.9815662E0,6.872407E0,1.299978E0,3.9238791E0,2.948528E0,2.2217515E0,1.7021277E0,1.8226715E0,1.1258564E0,1.0978088E0,1.1239426E0],"tree_param":{"num_deleted":"0","num_feature":"2048","num_nodes":"13","size_leaf_vector":"1"}},{"base_weights":[-0E0,-1.1702617E-1,4.012605E-1],"categories":[],"categories_nodes":[],"categories_segments":[],"categories_sizes":[],"default_left":[0,0,0],"id":30,"left_children":[1,-1,-1],"loss_changes":[5.611748E-1,0E0,0E0],"parents":[2147483647,0,0],"right_children":[2,-1,-1],"split_conditions":[1E0,-1.1702617E-1,4.012605E-1],"split_indices":[1722,0,0],"split_type":[0,0,0],"sum_hessian":[9.08798E0,7.5835876E0,1.5043924E0],"tree_param":{"num_deleted":"0","num_feature":"2048","num_nodes":"3","size_leaf_vector":"1"}},{"base_weights":[5.3541847E-2,2.8250244E-1,-8.5821897E-1,4.679197E-1,-4.918383E-2,6.120621E-1,-3.7512355E-2,-3.732136E-1,3.733264E-1],"categories":[],"categories_nodes":[],"categories_segments":[],"categories_sizes":[],"default_left":[0,0,0,0,0,0,0,0,0],"id":31,"left_children":[1,3,-1,5,7,-1,-1,-1,-1],"loss_changes":[2.4330025E0,6.646739E-1,0E0,6.678184E-1,7.3369265E-1,0E0,0E0,0E0,0E0],"parents":[2147483647,0,0,1,1,3,3,4,4],"right_children":[2,4,-1,6,8,-1,-1,-1,-1],"split_conditions":[1E0,1E0,-8.5821897E-1,1E0,1E0,6.120621E-1,-3.7512355E-2,-3.732136E-1,3.733264E-1],"split_indices":[197,1480,0,875,389,0,0,0,0],"split_type":[0,0,0,0,0,0,0,0,0],"sum_hessian":[9.539777E0,8.373408E0,1.1663687E0,5.417933E0,2.955475E0,4.1087074E0,1.3092259E0,1.9317776E0,1.0236974E0],"tree_param":{"num_deleted":"0","num_feature":"2048","num_nodes":"9","size_leaf_vector":"1"}},{"base_weights":[-1.4470097E-1,-4.0140632E-1,1.6989923E-1,3.687467E-1,-2.736002E-1],"categories":[],"categories_nodes":[],"categories_segments":[],"categories_sizes":[],"default_left":[0,0,0,0,0],"id":32,"left_children":[1,-1,3,-1,-1],"loss_changes":[1.0029777E0,0E0,6.351567E-1,0E0,0E0],"parents":[2147483647,0,0,2,2],"right_children":[2,-1,4,-1,-1],"split_conditions":[1E0,-4.0140632E-1,1E0,3.687467E-1,-2.736002E-1],"split_indices":[807,0,197,0,0],"split_type":[0,0,0,0,0],"sum_hessian":[9.421032E0,5.1410947E0,4.2799373E0,3.2527003E0,1.0272372E0],"tree_param":{"num_deleted":"0","num_feature":"2048","num_nodes":"5","size_leaf_vector":"1"}},{"base_weights":[3.4844372E-3,1.356015E-1,-4.79347E-1,-0E0,4.422838E-1,1.6706666E-1,-3.2402736E-1,-3.8106363E-2,4.3151018E-1],"categories":[],"categories_nodes":[],"categories_segments":[],"categories_sizes":[],"default_left":[0,0,0,0,0,0,0,0,0],"id":33,"left_children":[1,3,-1,5,-1,7,-1,-1,-1],"loss_changes":[6.954852E-1,3.4857517E-1,0E0,4.7125491E-1,0E0,4.3741748E-1,0E0,0E0,0E0],"parents":[2147483647,0,0,1,1,3,3,5,5],"right_children":[2,4,-1,6,-1,8,-1,-1,-1],"split_conditions":[1E0,1E0,-4.79347E-1,1E0,4.422838E-1,1E0,-3.2402736E-1,-3.8106363E-2,4.3151018E-1],"split_indices":[1224,1,0,389,0,650,0,0,0],"split_type":[0,0,0,0,0,0,0,0,0],"sum_hessian":[9.358238E0,8.228984E0,1.1292547E0,6.768942E0,1.4600419E0,5.104538E0,1.6644039E0,3.109392E0,1.995146E0],"tree_param":{"num_deleted":"0","num_feature":"2048","num_nodes":"9","size_leaf_vector":"1"}},{"base_weights":[4.53351E-2,-2.1221894E-1,2.633986E-1,-3.9097807E-1,1.675587E-1,-2.257384E-1,4.8039594E-1,7.7400826E-2,-6.038669E-1,6.971677E-1,-0E0],"categories":[],"categories_nodes":[],"categories_segments":[],"categories_sizes":[],"default_left":[0,0,0,0,0,0,0,0,0,0,0],"id":34,"left_children":[1,3,5,7,-1,-1,9,-1,-1,-1,-1],"loss_changes":[6.73563E-1,4.6053845E-1,8.700837E-1,5.997787E-1,0E0,0E0,7.217846E-1,0E0,0E0,0E0,0E0],"parents":[2147483647,0,0,1,1,2,2,3,3,6,6],"right_children":[2,4,6,8,-1,-1,10,-1,-1,-1,-1],"split_conditions":[1E0,1E0,1E0,1E0,1.675587E-1,-2.257384E-1,1E0,7.7400826E-2,-6.038669E-1,6.971677E-1,-0E0],"split_indices":[378,389,926,80,0,0,881,0,0,0,0],"split_type":[0,0,0,0,0,0,0,0,0,0,0],"sum_hessian":[9.881722E0,4.2093287E0,5.672394E0,3.151144E0,1.0581845E0,1.4744846E0,4.1979094E0,1.0495635E0,2.1015806E0,2.6589842E0,1.538925E0],"tree_param":{"num_deleted":"0","num_feature":"2048","num_nodes":"11","size_leaf_vector":"1"}},{"base_weights":[-6.968831E-2,9.567789E-2,-5.735542E-1,2.1564066E-1,-3.0172867E-1,3.969636E-3,5.9589356E-1,-3.9408183E-1,3.1840935E-1,4.6339005E-1,-9.611283E-3],"categories":[],"categories_nodes":[],"categories_segments":[],"categories_sizes":[],"default_left":[0,0,0,0,0,0,0,0,0,0,0],"id":35,"left_children":[1,3,-1,5,-1,7,-1,-1,9,-1,-1],"loss_changes":[1.0530323E0,4.7527122E-1,0E0,5.457375E-1,0E0,9.2285585E-1,0E0,0E0,3.11063E-1,0E0,0E0],"parents":[2147483647,0,0,1,1,3,3,5,5,8,8],"right_children":[2,4,-1,6,-1,8,-1,-1,10,-1,-1],"split_conditions":[1E0,1E0,-5.735542E-1,1E0,-3.0172867E-1,1E0,5.9589356E-1,-3.9408183E-1,1E0,4.6339005E-1,-9.611283E-3],"split_indices":[656,283,0,305,0,1199,0,0,695,0,0],"split_type":[0,0,0,0,0,0,0,0,0,0,0],"sum_hessian":[9.537355E0,7.644981E0,1.8923749E0,6.573782E0,1.0711989E0,5.2259912E0,1.3477906E0,1.9086943E0,3.3172972E0,2.2277021E0,1.0895952E0],"tree_param":{"num_deleted":"0","num_feature":"2048","num_nodes":"11","size_leaf_vector":"1"}},{"base_weights":[-4.877408E-2,-1.6696067E-1,3.899072E-1,-1.5093243E-2,-5.073435E-1,1.0489142E-1,-3.2675746E-1],"categories":[],"categories_nodes":[],"categories_segments":[],"categories_sizes":[],"default_left":[0,0,0,0,0,0,0],"id":36,"left_children":[1,3,-1,5,-1,-1,-1],"loss_changes":[5.6520784E-1,3.9385453E-1,0E0,3.7947208E-1,0E0,0E0,0E0],"parents":[2147483647,0,0,1,1,3,3],"right_children":[2,4,-1,6,-1,-1,-1],"split_conditions":[1E0,1E0,3.899072E-1,1E0,-5.073435E-1,1.0489142E-1,-3.2675746E-1],"split_indices":[1905,1060,0,1,0,0,0],"split_type":[0,0,0,0,0,0,0],"sum_hessian":[8.998446E0,7.9131937E0,1.0852525E0,6.601807E0,1.3113866E0,4.896185E0,1.7056223E0],"tree_param":{"num_deleted":"0","num_feature":"2048","num_nodes":"7","size_leaf_vector":"1"}},{"base_weights":[-2.395833E-1,-3.7166277E-1,2.5054786E-1,-4.679225E-1,-0E0],"categories":[],"categories_nodes":[],"categories_segments":[],"categories_sizes":[],"default_left":[0,0,0,0,0],"id":37,"left_children":[1,3,-1,-1,-1],"loss_changes":[6.689043E-1,3.414923E-1,0E0,0E0,0E0],"parents":[2147483647,0,0,1,1],"right_children":[2,4,-1,-1,-1],"split_conditions":[1E0,1E0,2.5054786E-1,-4.679225E-1,-0E0],"split_indices":[1647,875,0,0,0],"split_type":[0,0,0,0,0],"sum_hessian":[7.42554E0,6.325871E0,1.0996691E0,4.7150064E0,1.6108645E0],"tree_param":{"num_deleted":"0","num_feature":"2048","num_nodes":"5","size_leaf_vector":"1"}},{"base_weights":[4.1205842E-2,-1.0034994E-1,4.130015E-1,-2.6951158E-1,2.0096853E-1],"categories":[],"categories_nodes":[],"categories_segments":[],"categories_sizes":[],"default_left":[0,0,0,0,0],"id":38,"left_children":[1,3,-1,-1,-1],"loss_changes":[5.613186E-1,4.435141E-1,0E0,0E0,0E0],"parents":[2147483647,0,0,1,1],"right_children":[2,4,-1,-1,-1],"split_conditions":[1E0,1E0,4.130015E-1,-2.6951158E-1,2.0096853E-1],"split_indices":[1349,875,0,0,0],"split_type":[0,0,0,0,0],"sum_hessian":[7.497404E0,5.7320724E0,1.7653319E0,4.005808E0,1.7262645E0],"tree_param":{"num_deleted":"0","num_feature":"2048","num_nodes":"5","size_leaf_vector":"1"}},{"base_weights":[3.855154E-1,5.6078035E-1,-2.3395446E-1,6.273189E-1,-0E0],"categories":[],"categories_nodes":[],"categories_segments":[],"categories_sizes":[],"default_left":[0,0,0,0,0],"id":39,"left_children":[1,3,-1,-1,-1],"loss_changes":[1.1461412E0,3.626716E-1,0E0,0E0,0E0],"parents":[2147483647,0,0,1,1],"right_children":[2,4,-1,-1,-1],"split_conditions":[1E0,1E0,-2.3395446E-1,6.273189E-1,-0E0],"split_indices":[1573,875,0,0,0],"split_type":[0,0,0,0,0],"sum_hessian":[7.7344136E0,6.329582E0,1.4048313E0,5.264443E0,1.0651393E0],"tree_param":{"num_deleted":"0","num_feature":"2048","num_nodes":"5","size_leaf_vector":"1"}},{"base_weights":[3.4022927E-2,-1.8315835E-1,3.480618E-1,-0E0,6.423296E-1,-2.864682E-1,3.1864065E-1],"categories":[],"categories_nodes":[],"categories_segments":[],"categories_sizes":[],"default_left":[0,0,0,0,0,0,0],"id":40,"left_children":[1,-1,3,5,-1,-1,-1],"loss_changes":[7.8746825E-1,0E0,4.347446E-1,4.466632E-1,0E0,0E0,0E0],"parents":[2147483647,0,0,2,2,3,3],"right_children":[2,-1,4,6,-1,-1,-1],"split_conditions":[1E0,-1.8315835E-1,1E0,1E0,6.423296E-1,-2.864682E-1,3.1864065E-1],"split_indices":[695,0,1292,1114,0,0,0],"split_type":[0,0,0,0,0,0,0],"sum_hessian":[8.897351E0,5.1187987E0,3.7785528E0,2.499074E0,1.2794787E0,1.1392677E0,1.3598064E0],"tree_param":{"num_deleted":"0","num_feature":"2048","num_nodes":"7","size_leaf_vector":"1"}},{"base_weights":[1.08978316E-1,-1.54204E-1,3.143545E-1,1.277232E-1,-3.413584E-1,5.5223286E-1,-2.2461578E-2],"categories":[],"categories_nodes":[],"categories_segments":[],"categories_sizes":[],"default_left":[0,0,0,0,0,0,0],"id":41,"left_children":[1,3,5,-1,-1,-1,-1],"loss_changes":[5.690352E-1,3.3245888E-1,6.118521E-1,0E0,0E0,0E0,0E0],"parents":[2147483647,0,0,1,1,2,2],"right_children":[2,4,6,-1,-1,-1,-1],"split_conditions":[1E0,1E0,1E0,1.277232E-1,-3.413584E-1,5.5223286E-1,-2.2461578E-2],"split_indices":[80,1057,1152,0,0,0,0],"split_type":[0,0,0,0,0,0,0],"sum_hessian":[8.188125E0,3.3581996E0,4.829925E0,1.1955163E0,2.1626832E0,2.6024382E0,2.2274866E0],"tree_param":{"num_deleted":"0","num_feature":"2048","num_nodes":"7","size_leaf_vector":"1"}},{"base_weights":[1.4128947E-2,-1.1713485E-1,3.1229743E-1],"categories":[],"categories_nodes":[],"categories_segments":[],"categories_sizes":[],"default_left":[0,0,0],"id":42,"left_children":[1,-1,-1],"loss_changes":[4.506869E-1,0E0,0E0],"parents":[2147483647,0,0],"right_children":[2,-1,-1],"split_conditions":[1E0,-1.1713485E-1,3.1229743E-1],"split_indices":[389,0,0],"split_type":[0,0,0],"sum_hessian":[7.9893384E0,5.6194243E0,2.3699138E0],"tree_param":{"num_deleted":"0","num_feature":"2048","num_nodes":"3","size_leaf_vector":"1"}},{"base_weights":[-9.400691E-2,6.786034E-2,-5.1775944E-1,-4.131923E-2,3.7062013E-1,1.5179984E-1,-2.9252928E-1],"categories":[],"categories_nodes":[],"categories_segments":[],"categories_sizes":[],"default_left":[0,0,0,0,0,0,0],"id":43,"left_children":[1,3,-1,5,-1,-1,-1],"loss_changes":[7.5168824E-1,3.181042E-1,0E0,3.7648386E-1,0E0,0E0,0E0],"parents":[2147483647,0,0,1,1,3,3],"right_children":[2,4,-1,6,-1,-1,-1],"split_conditions":[1E0,1E0,-5.1775944E-1,1E0,3.7062013E-1,1.5179984E-1,-2.9252928E-1],"split_indices":[389,361,0,1088,0,0,0],"split_type":[0,0,0,0,0,0,0],"sum_hessian":[7.917997E0,6.156193E0,1.7618043E0,4.848867E0,1.3073257E0,2.640103E0,2.2087638E0],"tree_param":{"num_deleted":"0","num_feature":"2048","num_nodes":"7","size_leaf_vector":"1"}},{"base_weights":[1.391626E-1,-2.7693007E-2,3.1170318E-1,1.0368915E-1,-3.5312313E-1,3.460232E-1,-1.2937923E-1],"categories":[],"categories_nodes":[],"categories_segments":[],"categories_sizes":[],"default_left":[0,0,0,0,0,0,0],"id":44,"left_children":[1,3,-1,5,-1,-1,-1],"loss_changes":[3.3536133E-1,3.1218264E-1,0E0,3.397163E-1,0E0,0E0,0E0],"parents":[2147483647,0,0,1,1,3,3],"right_children":[2,4,-1,6,-1,-1,-1],"split_conditions":[1E0,1E0,3.1170318E-1,1E0,-3.5312313E-1,3.460232E-1,-1.2937923E-1],"split_indices":[1019,807,0,1866,0,0,0],"split_type":[0,0,0,0,0,0,0],"sum_hessian":[8.058988E0,4.2297673E0,3.8292203E0,3.20754E0,1.022227E0,1.6232257E0,1.5843145E0],"tree_param":{"num_deleted":"0","num_feature":"2048","num_nodes":"7","size_leaf_vector":"1"}},{"base_weights":[6.986312E-2,-8.206518E-2,4.871368E-1,-2.3628056E-1,1.4922312E-1],"categories":[],"categories_nodes":[],"categories_segments":[],"categories_sizes":[],"default_left":[0,0,0,0,0],"id":45,"left_children":[1,3,-1,-1,-1],"loss_changes":[7.183522E-1,3.3952415E-1,0E0,0E0,0E0],"parents":[2147483647,0,0,1,1],"right_children":[2,4,-1,-1,-1],"split_conditions":[1E0,1E0,4.871368E-1,-2.3628056E-1,1.4922312E-1],"split_indices":[1357,313,0,0,0],"split_type":[0,0,0,0,0],"sum_hessian":[8.201212E0,6.410447E0,1.7907649E0,4.1672225E0,2.2432249E0],"tree_param":{"num_deleted":"0","num_feature":"2048","num_nodes":"5","size_leaf_vector":"1"}},{"base_weights":[3.502975E-2,2.389548E-1,-5.520215E-1,4.743022E-1,8.5666537E-4],"categories":[],"categories_nodes":[],"categories_segments":[],"categories_sizes":[],"default_left":[0,0,0,0,0],"id":46,"left_children":[1,3,-1,-1,-1],"loss_changes":[1.2438244E0,3.9965826E-1,0E0,0E0,0E0],"parents":[2147483647,0,0,1,1],"right_children":[2,4,-1,-1,-1],"split_conditions":[1E0,1E0,-5.520215E-1,4.743022E-1,8.5666537E-4],"split_indices":[622,1088,0,0,0],"split_type":[0,0,0,0,0],"sum_hessian":[8.361973E0,6.9094114E0,1.4525613E0,2.5058322E0,4.403579E0],"tree_param":{"num_deleted":"0","num_feature":"2048","num_nodes":"5","size_leaf_vector":"1"}},{"base_weights":[-0E0,-3.037917E-1,2.3254049E-1],"categories":[],"categories_nodes":[],"categories_segments":[],"categories_sizes":[],"default_left":[0,0,0],"id":47,"left_children":[1,-1,-1],"loss_changes":[6.7219746E-1,0E0,0E0],"parents":[2147483647,0,0],"right_children":[2,-1,-1],"split_conditions":[1E0,-3.037917E-1,2.3254049E-1],"split_indices":[1199,0,0],"split_type":[0,0,0],"sum_hessian":[6.873175E0,2.7446802E0,4.1284947E0],"tree_param":{"num_deleted":"0","num_feature":"2048","num_nodes":"3","size_leaf_vector":"1"}},{"base_weights":[-8.517888E-2,9.468508E-2,-2.701702E-1],"categories":[],"categories_nodes":[],"categories_segments":[],"categories_sizes":[],"default_left":[0,0,0],"id":48,"left_children":[1,-1,-1],"loss_changes":[3.7663862E-1,0E0,0E0],"parents":[2147483647,0,0],"right_children":[2,-1,-1],"split_conditions":[1E0,9.468508E-2,-2.701702E-1],"split_indices":[80,0,0],"split_type":[0,0,0],"sum_hessian":[7.914706E0,3.9202366E0,3.9944696E0],"tree_param":{"num_deleted":"0","num_feature":"2048","num_nodes":"3","size_leaf_vector":"1"}},{"base_weights":[6.962328E-2,3.3190802E-1,-2.4186258E-1,-0E0,5.791918E-1,2.576515E-1,-2.9378527E-1],"categories":[],"categories_nodes":[],"categories_segments":[],"categories_sizes":[],"default_left":[0,0,0,0,0,0,0],"id":49,"left_children":[1,3,-1,5,-1,-1,-1],"loss_changes":[7.810427E-1,4.664017E-1,0E0,3.520896E-1,0E0,0E0,0E0],"parents":[2147483647,0,0,1,1,3,3],"right_children":[2,4,-1,6,-1,-1,-1],"split_conditions":[1E0,1E0,-2.4186258E-1,1E0,5.791918E-1,2.576515E-1,-2.9378527E-1],"split_indices":[1114,389,0,935,0,0,0],"split_type":[0,0,0,0,0,0,0],"sum_hessian":[7.1545424E0,4.192788E0,2.961754E0,2.3238199E0,1.8689684E0,1.299729E0,1.0240908E0],"tree_param":{"num_deleted":"0","num_feature":"2048","num_nodes":"7","size_leaf_vector":"1"}},{"base_weights":[7.9918146E-2,-7.923567E-2,4.9157402E-1],"categories":[],"categories_nodes":[],"categories_segments":[],"categories_sizes":[],"default_left":[0,0,0],"id":50,"left_children":[1,-1,-1],"loss_changes":[6.242604E-1,0E0,0E0],"parents":[2147483647,0,0],"right_children":[2,-1,-1],"split_conditions":[1E0,-7.923567E-2,4.9157402E-1],"split_indices":[656,0,0],"split_type":[0,0,0],"sum_hessian":[6.35851E0,4.9327564E0,1.4257537E0],"tree_param":{"num_deleted":"0","num_feature":"2048","num_nodes":"3","size_leaf_vector":"1"}},{"base_weights":[1.6107698E-1,-4.1642103E-2,3.7133148E-1],"categories":[],"categories_nodes":[],"categories_segments":[],"categories_sizes":[],"default_left":[0,0,0],"id":51,"left_children":[1,-1,-1],"loss_changes":[4.7051466E-1,0E0,0E0],"parents":[2147483647,0,0],"right_children":[2,-1,-1],"split_conditions":[1E0,-4.1642103E-2,3.7133148E-1],"split_indices":[1114,0,0],"split_type":[0,0,0],"sum_hessian":[7.6910048E0,4.080996E0,3.6100085E0],"tree_param":{"num_deleted":"0","num_feature":"2048","num_nodes":"3","size_leaf_vector":"1"}},{"base_weights":[-2.4299803E-1,-1.7391767E-2,-5.750116E-1,1.19620614E-1,-3.962728E-1],"categories":[],"categories_nodes":[],"categories_segments":[],"categories_sizes":[],"default_left":[0,0,0,0,0],"id":52,"left_children":[1,3,-1,-1,-1],"loss_changes":[5.9446114E-1,4.6866855E-1,0E0,0E0,0E0],"parents":[2147483647,0,0,1,1],"right_children":[2,4,-1,-1,-1],"split_conditions":[1E0,1E0,-5.750116E-1,1.19620614E-1,-3.962728E-1],"split_indices":[389,656,0,0,0],"split_type":[0,0,0,0,0],"sum_hessian":[7.775669E0,5.6613755E0,2.1142933E0,4.366508E0,1.2948674E0],"tree_param":{"num_deleted":"0","num_feature":"2048","num_nodes":"5","size_leaf_vector":"1"}},{"base_weights":[2.3964E-1,-0E0,6.189259E-1],"categories":[],"categories_nodes":[],"categories_segments":[],"categories_sizes":[],"default_left":[0,0,0],"id":53,"left_children":[1,-1,-1],"loss_changes":[9.176713E-1,0E0,0E0],"parents":[2147483647,0,0],"right_children":[2,-1,-1],"split_conditions":[1E0,-0E0,6.189259E-1],"split_indices":[1145,0,0],"split_type":[0,0,0],"sum_hessian":[7.4918213E0,5.091258E0,2.4005632E0],"tree_param":{"num_deleted":"0","num_feature":"2048","num_nodes":"3","size_leaf_vector":"1"}},{"base_weights":[-5.648199E-2,-2.7349102E-1,2.1568967E-1],"categories":[],"categories_nodes":[],"categories_segments":[],"categories_sizes":[],"default_left":[0,0,0],"id":54,"left_children":[1,-1,-1],"loss_changes":[7.2609705E-1,0E0,0E0],"parents":[2147483647,0,0],"right_children":[2,-1,-1],"split_conditions":[1E0,-2.7349102E-1,2.1568967E-1],"split_indices":[807,0,0],"split_type":[0,0,0],"sum_hessian":[9.214508E0,5.3897643E0,3.8247442E0],"tree_param":{"num_deleted":"0","num_feature":"2048","num_nodes":"3","size_leaf_vector":"1"}},{"base_weights":[-1.8912971E-1,-2.8179532E-1,1.880026E-1,-3.6846706E-1,1.3240224E-1],"categories":[],"categories_nodes":[],"categories_segments":[],"categories_sizes":[],"default_left":[0,0,0,0,0],"id":55,"left_children":[1,3,-1,-1,-1],"loss_changes":[4.085661E-1,4.505939E-1,0E0,0E0,0E0],"parents":[2147483647,0,0,1,1],"right_children":[2,4,-1,-1,-1],"split_conditions":[1E0,1E0,1.880026E-1,-3.6846706E-1,1.3240224E-1],"split_indices":[283,1280,0,0,0],"split_type":[0,0,0,0,0],"sum_hessian":[8.566294E0,7.4483333E0,1.1179607E0,6.3687844E0,1.0795485E0],"tree_param":{"num_deleted":"0","num_feature":"2048","num_nodes":"5","size_leaf_vector":"1"}},{"base_weights":[2.888647E-1],"categories":[],"categories_nodes":[],"categories_segments":[],"categories_sizes":[],"default_left":[0],"id":56,"left_children":[-1],"loss_changes":[0E0],"parents":[2147483647],"right_children":[-1],"split_conditions":[2.7760717E-1],"split_indices":[0],"split_type":[0],"sum_hessian":[6.9700336E0],"tree_param":{"num_deleted":"0","num_feature":"2048","num_nodes":"1","size_leaf_vector":"1"}},{"base_weights":[-1.717702E-1],"categories":[],"categories_nodes":[],"categories_segments":[],"categories_sizes":[],"default_left":[0],"id":57,"left_children":[-1],"loss_changes":[0E0],"parents":[2147483647],"right_children":[-1],"split_conditions":[-1.6507603E-1],"split_indices":[0],"split_type":[0],"sum_hessian":[6.958539E0],"tree_param":{"num_deleted":"0","num_feature":"2048","num_nodes":"1","size_leaf_vector":"1"}},{"base_weights":[1.0495978E-1,-1.7499757E-1,3.5959035E-1,5.095155E-1,-4.731811E-2],"categories":[],"categories_nodes":[],"categories_segments":[],"categories_sizes":[],"default_left":[0,0,0,0,0],"id":58,"left_children":[1,-1,3,-1,-1],"loss_changes":[6.9211924E-1,0E0,4.4860733E-1,0E0,0E0],"parents":[2147483647,0,0,2,2],"right_children":[2,-1,4,-1,-1],"split_conditions":[1E0,-1.7499757E-1,1E0,5.095155E-1,-4.731811E-2],"split_indices":[80,0,667,0,0],"split_type":[0,0,0,0,0],"sum_hessian":[7.215258E0,3.2309425E0,3.9843156E0,2.8785198E0,1.105796E0],"tree_param":{"num_deleted":"0","num_feature":"2048","num_nodes":"5","size_leaf_vector":"1"}},{"base_weights":[-0E0,2.1114333E-1,-2.7398717E-1,1.7433515E-1,-5.573049E-1],"categories":[],"categories_nodes":[],"categories_segments":[],"categories_sizes":[],"default_left":[0,0,0,0,0],"id":59,"left_children":[1,-1,3,-1,-1],"loss_changes":[5.8516693E-1,0E0,7.688297E-1,0E0,0E0],"parents":[2147483647,0,0,2,2],"right_children":[2,-1,4,-1,-1],"split_conditions":[1E0,2.1114333E-1,1E0,1.7433515E-1,-5.573049E-1],"split_indices":[1480,0,1019,0,0],"split_type":[0,0,0,0,0],"sum_hessian":[7.752447E0,4.4173203E0,3.3351269E0,1.2930785E0,2.0420485E0],"tree_param":{"num_deleted":"0","num_feature":"2048","num_nodes":"5","size_leaf_vector":"1"}},{"base_weights":[-7.2695087E-3,-4.4454205E-1,1.3855152E-1,2.818005E-1,-2.429765E-1],"categories":[],"categories_nodes":[],"categories_segments":[],"categories_sizes":[],"default_left":[0,0,0,0,0],"id":60,"left_children":[1,-1,3,-1,-1],"loss_changes":[7.082075E-1,0E0,5.1942396E-1,0E0,0E0],"parents":[2147483647,0,0,2,2],"right_children":[2,-1,4,-1,-1],"split_conditions":[1E0,-4.4454205E-1,1E0,2.818005E-1,-2.429765E-1],"split_indices":[926,0,1791,0,0],"split_type":[0,0,0,0,0],"sum_hessian":[7.95591E0,1.6743618E0,6.2815485E0,4.969809E0,1.3117394E0],"tree_param":{"num_deleted":"0","num_feature":"2048","num_nodes":"5","size_leaf_vector":"1"}},{"base_weights":[-1.1257177E-1,1.7923647E-1,-3.1335774E-1],"categories":[],"categories_nodes":[],"categories_segments":[],"categories_sizes":[],"default_left":[0,0,0],"id":61,"left_children":[1,-1,-1],"loss_changes":[5.878928E-1,0E0,0E0],"parents":[2147483647,0,0],"right_children":[2,-1,-1],"split_conditions":[1E0,1.7923647E-1,-3.1335774E-1],"split_indices":[1057,0,0],"split_type":[0,0,0],"sum_hessian":[6.936185E0,2.631559E0,4.304626E0],"tree_param":{"num_deleted":"0","num_feature":"2048","num_nodes":"3","size_leaf_vector":"1"}},{"base_weights":[5.999813E-2,2.3650505E-1,-2.7712858E-1,4.9266088E-1,-0E0],"categories":[],"categories_nodes":[],"categories_segments":[],"categories_sizes":[],"default_left":[0,0,0,0,0],"id":62,"left_children":[1,3,-1,-1,-1],"loss_changes":[5.170078E-1,3.0213413E-1,0E0,0E0,0E0],"parents":[2147483647,0,0,1,1],"right_children":[2,4,-1,-1,-1],"split_conditions":[1E0,1E0,-2.7712858E-1,4.9266088E-1,-0E0],"split_indices":[1866,926,0,0,0],"split_type":[0,0,0,0,0],"sum_hessian":[6.4629207E0,4.801721E0,1.6611993E0,1.3957827E0,3.4059384E0],"tree_param":{"num_deleted":"0","num_feature":"2048","num_nodes":"5","size_leaf_vector":"1"}},{"base_weights":[-0E0,1.1277966E-1,-3.7106785E-1],"categories":[],"categories_nodes":[],"categories_segments":[],"categories_sizes":[],"default_left":[0,0,0],"id":63,"left_children":[1,-1,-1],"loss_changes":[4.2723355E-1,0E0,0E0],"parents":[2147483647,0,0],"right_children":[2,-1,-1],"split_conditions":[1E0,1.1277966E-1,-3.7106785E-1],"split_indices":[407,0,0],"split_type":[0,0,0],"sum_hessian":[7.656485E0,6.464716E0,1.1917689E0],"tree_param":{"num_deleted":"0","num_feature":"2048","num_nodes":"3","size_leaf_vector":"1"}},{"base_weights":[-0E0,1.8188809E-1,-1.879546E-1],"categories":[],"categories_nodes":[],"categories_segments":[],"categories_sizes":[],"default_left":[0,0,0],"id":64,"left_children":[1,-1,-1],"loss_changes":[3.1924826E-1,0E0,0E0],"parents":[2147483647,0,0],"right_children":[2,-1,-1],"split_conditions":[1E0,1.8188809E-1,-1.879546E-1],"split_indices":[807,0,0],"split_type":[0,0,0],"sum_hessian":[6.675264E0,3.7433197E0,2.9319441E0],"tree_param":{"num_deleted":"0","num_feature":"2048","num_nodes":"3","size_leaf_vector":"1"}},{"base_weights":[-0E0,1.24468364E-1,-3.9523235E-1],"categories":[],"categories_nodes":[],"categories_segments":[],"categories_sizes":[],"default_left":[0,0,0],"id":65,"left_children":[1,-1,-1],"loss_changes":[5.1761776E-1,0E0,0E0],"parents":[2147483647,0,0],"right_children":[2,-1,-1],"split_conditions":[1E0,1.24468364E-1,-3.9523235E-1],"split_indices":[1452,0,0],"split_type":[0,0,0],"sum_hessian":[7.3953376E0,6.014957E0,1.3803807E0],"tree_param":{"num_deleted":"0","num_feature":"2048","num_nodes":"3","size_leaf_vector":"1"}},{"base_weights":[-1.3428976E-1],"categories":[],"categories_nodes":[],"categories_segments":[],"categories_sizes":[],"default_left":[0],"id":66,"left_children":[-1],"loss_changes":[0E0],"parents":[2147483647],"right_children":[-1],"split_conditions":[-1.2905626E-1],"split_indices":[0],"split_type":[0],"sum_hessian":[7.0829062E0],"tree_param":{"num_deleted":"0","num_feature":"2048","num_nodes":"1","size_leaf_vector":"1"}},{"base_weights":[2.0106965E-1,-3.4852616E-2,3.911163E-1,-2.622087E-1,1.9840455E-1],"categories":[],"categories_nodes":[],"categories_segments":[],"categories_sizes":[],"default_left":[0,0,0,0,0],"id":67,"left_children":[1,3,-1,-1,-1],"loss_changes":[4.5655885E-1,3.0890018E-1,0E0,0E0,0E0],"parents":[2147483647,0,0,1,1],"right_children":[2,4,-1,-1,-1],"split_conditions":[1E0,1E0,3.911163E-1,-2.622087E-1,1.9840455E-1],"split_indices":[80,1860,0,0,0],"split_type":[0,0,0,0,0],"sum_hessian":[6.9102144E0,3.2431026E0,3.667112E0,1.898749E0,1.3443534E0],"tree_param":{"num_deleted":"0","num_feature":"2048","num_nodes":"5","size_leaf_vector":"1"}},{"base_weights":[-0E0,2.5813138E-1,-2.17523E-1],"categories":[],"categories_nodes":[],"categories_segments":[],"categories_sizes":[],"default_left":[0,0,0],"id":68,"left_children":[1,-1,-1],"loss_changes":[4.925605E-1,0E0,0E0],"parents":[2147483647,0,0],"right_children":[2,-1,-1],"split_conditions":[1E0,2.5813138E-1,-2.17523E-1],"split_indices":[80,0,0],"split_type":[0,0,0],"sum_hessian":[6.042825E0,2.9341273E0,3.108698E0],"tree_param":{"num_deleted":"0","num_feature":"2048","num_nodes":"3","size_leaf_vector":"1"}},{"base_weights":[-3.8918756E-2],"categories":[],"categories_nodes":[],"categories_segments":[],"categories_sizes":[],"default_left":[0],"id":69,"left_children":[-1],"loss_changes":[0E0],"parents":[2147483647],"right_children":[-1],"split_conditions":[-3.7402026E-2],"split_indices":[0],"split_type":[0],"sum_hessian":[8.14545E0],"tree_param":{"num_deleted":"0","num_feature":"2048","num_nodes":"1","size_leaf_vector":"1"}},{"base_weights":[-4.5843422E-3],"categories":[],"categories_nodes":[],"categories_segments":[],"categories_sizes":[],"default_left":[0],"id":70,"left_children":[-1],"loss_changes":[0E0],"parents":[2147483647],"right_children":[-1],"split_conditions":[-4.405683E-3],"split_indices":[0],"split_type":[0],"sum_hessian":[7.7539973E0],"tree_param":{"num_deleted":"0","num_feature":"2048","num_nodes":"1","size_leaf_vector":"1"}},{"base_weights":[-3.31177E-2],"categories":[],"categories_nodes":[],"categories_segments":[],"categories_sizes":[],"default_left":[0],"id":71,"left_children":[-1],"loss_changes":[0E0],"parents":[2147483647],"right_children":[-1],"split_conditions":[-3.1827047E-2],"split_indices":[0],"split_type":[0],"sum_hessian":[7.992132E0],"tree_param":{"num_deleted":"0","num_feature":"2048","num_nodes":"1","size_leaf_vector":"1"}},{"base_weights":[-1.7404575E-2,-2.5042933E-1,3.8847527E-1,-4.089196E-1,8.525947E-2],"categories":[],"categories_nodes":[],"categories_segments":[],"categories_sizes":[],"default_left":[0,0,0,0,0],"id":72,"left_children":[1,3,-1,-1,-1],"loss_changes":[9.656792E-1,4.876462E-1,0E0,0E0,0E0],"parents":[2147483647,0,0,1,1],"right_children":[2,4,-1,-1,-1],"split_conditions":[1E0,1E0,3.8847527E-1,-4.089196E-1,8.525947E-2],"split_indices":[650,1480,0,0,0],"split_type":[0,0,0,0,0],"sum_hessian":[8.075627E0,5.7011175E0,2.3745096E0,3.902938E0,1.7981796E0],"tree_param":{"num_deleted":"0","num_feature":"2048","num_nodes":"5","size_leaf_vector":"1"}},{"base_weights":[1.8680982E-1,3.0790636E-1,-1.2214112E-1,4.0459415E-1,-3.737081E-2],"categories":[],"categories_nodes":[],"categories_segments":[],"categories_sizes":[],"default_left":[0,0,0,0,0],"id":73,"left_children":[1,3,-1,-1,-1],"loss_changes":[3.6826095E-1,3.2644272E-1,0E0,0E0,0E0],"parents":[2147483647,0,0,1,1],"right_children":[2,4,-1,-1,-1],"split_conditions":[1E0,1E0,-1.2214112E-1,4.0459415E-1,-3.737081E-2],"split_indices":[1917,656,0,0,0],"split_type":[0,0,0,0,0],"sum_hessian":[6.9331155E0,5.381184E0,1.5519315E0,4.243604E0,1.1375798E0],"tree_param":{"num_deleted":"0","num_feature":"2048","num_nodes":"5","size_leaf_vector":"1"}},{"base_weights":[-1.1910965E-1,-2.3128718E-1,2.0301078E-1],"categories":[],"categories_nodes":[],"categories_segments":[],"categories_sizes":[],"default_left":[0,0,0],"id":74,"left_children":[1,-1,-1],"loss_changes":[3.4898296E-1,0E0,0E0],"parents":[2147483647,0,0],"right_children":[2,-1,-1],"split_conditions":[1E0,-2.3128718E-1,2.0301078E-1],"split_indices":[1791,0,0],"split_type":[0,0,0],"sum_hessian":[6.3407426E0,5.1817007E0,1.1590418E0],"tree_param":{"num_deleted":"0","num_feature":"2048","num_nodes":"3","size_leaf_vector":"1"}},{"base_weights":[-2.0845527E-2,9.642642E-2,-3.0551744E-1],"categories":[],"categories_nodes":[],"categories_segments":[],"categories_sizes":[],"default_left":[0,0,0],"id":75,"left_children":[1,-1,-1],"loss_changes":[3.406189E-1,0E0,0E0],"parents":[2147483647,0,0],"right_children":[2,-1,-1],"split_conditions":[1E0,9.642642E-2,-3.0551744E-1],"split_indices":[881,0,0],"split_type":[0,0,0],"sum_hessian":[6.6445093E0,4.8038154E0,1.8406941E0],"tree_param":{"num_deleted":"0","num_feature":"2048","num_nodes":"3","size_leaf_vector":"1"}},{"base_weights":[-4.3450262E-2,1.4007515E-1,-2.3132797E-1],"categories":[],"categories_nodes":[],"categories_segments":[],"categories_sizes":[],"default_left":[0,0,0],"id":76,"left_children":[1,-1,-1],"loss_changes":[3.6752856E-1,0E0,0E0],"parents":[2147483647,0,0],"right_children":[2,-1,-1],"split_conditions":[1E0,1.4007515E-1,-2.3132797E-1],"split_indices":[935,0,0],"split_type":[0,0,0],"sum_hessian":[7.531656E0,3.5653398E0,3.9663157E0],"tree_param":{"num_deleted":"0","num_feature":"2048","num_nodes":"3","size_leaf_vector":"1"}},{"base_weights":[1.6049351E-1,2.7183807E-1,-2.5001165E-1],"categories":[],"categories_nodes":[],"categories_segments":[],"categories_sizes":[],"default_left":[0,0,0],"id":77,"left_children":[1,-1,-1],"loss_changes":[5.2662224E-1,0E0,0E0],"parents":[2147483647,0,0],"right_children":[2,-1,-1],"split_conditions":[1E0,2.7183807E-1,-2.5001165E-1],"split_indices":[1028,0,0],"split_type":[0,0,0],"sum_hessian":[7.766136E0,6.558165E0,1.207971E0],"tree_param":{"num_deleted":"0","num_feature":"2048","num_nodes":"3","size_leaf_vector":"1"}},{"base_weights":[-2.57999E-1,-4.2396992E-1,1.3652745E-1],"categories":[],"categories_nodes":[],"categories_segments":[],"categories_sizes":[],"default_left":[0,0,0],"id":78,"left_children":[1,-1,-1],"loss_changes":[6.9429266E-1,0E0,0E0],"parents":[2147483647,0,0],"right_children":[2,-1,-1],"split_conditions":[1E0,-4.2396992E-1,1.3652745E-1],"split_indices":[695,0,0],"split_type":[0,0,0],"sum_hessian":[6.998881E0,5.003293E0,1.9955877E0],"tree_param":{"num_deleted":"0","num_feature":"2048","num_nodes":"3","size_leaf_vector":"1"}},{"base_weights":[5.028443E-2,1.8207774E-1,-3.416136E-1],"categories":[],"categories_nodes":[],"categories_segments":[],"categories_sizes":[],"default_left":[0,0,0],"id":79,"left_children":[1,-1,-1],"loss_changes":[5.3288555E-1,0E0,0E0],"parents":[2147483647,0,0],"right_children":[2,-1,-1],"split_conditions":[1E0,1.8207774E-1,-3.416136E-1],"split_indices":[283,0,0],"split_type":[0,0,0],"sum_hessian":[7.741322E0,6.446393E0,1.2949289E0],"tree_param":{"num_deleted":"0","num_feature":"2048","num_nodes":"3","size_leaf_vector":"1"}},{"base_weights":[-5.1460457E-3,3.2738483E-1,-1.4395715E-1,1.5775637E-1,-3.0246636E-1],"categories":[],"categories_nodes":[],"categories_segments":[],"categories_sizes":[],"default_left":[0,0,0,0,0],"id":80,"left_children":[1,-1,3,-1,-1],"loss_changes":[4.039508E-1,0E0,4.3102902E-1,0E0,0E0],"parents":[2147483647,0,0,2,2],"right_children":[2,-1,4,-1,-1],"split_conditions":[1E0,3.2738483E-1,1E0,1.5775637E-1,-3.0246636E-1],"split_indices":[1750,0,1057,0,0],"split_type":[0,0,0,0,0],"sum_hessian":[7.072393E0,1.2880034E0,5.7843895E0,1.7452623E0,4.039127E0],"tree_param":{"num_deleted":"0","num_feature":"2048","num_nodes":"5","size_leaf_vector":"1"}},{"base_weights":[-8.099646E-2,8.923917E-2,-3.8943255E-1,2.8293738E-1,-1.844564E-1],"categories":[],"categories_nodes":[],"categories_segments":[],"categories_sizes":[],"default_left":[0,0,0,0,0],"id":81,"left_children":[1,3,-1,-1,-1],"loss_changes":[5.476061E-1,4.1658124E-1,0E0,0E0,0E0],"parents":[2147483647,0,0,1,1],"right_children":[2,4,-1,-1,-1],"split_conditions":[1E0,1E0,-3.8943255E-1,2.8293738E-1,-1.844564E-1],"split_indices":[807,1866,0,0,0],"split_type":[0,0,0,0,0],"sum_hessian":[7.3819513E0,4.988217E0,2.3937347E0,3.1830988E0,1.8051178E0],"tree_param":{"num_deleted":"0","num_feature":"2048","num_nodes":"5","size_leaf_vector":"1"}},{"base_weights":[8.75909E-2,-1.4377949E-3,4.0261015E-1],"categories":[],"categories_nodes":[],"categories_segments":[],"categories_sizes":[],"default_left":[0,0,0],"id":82,"left_children":[1,-1,-1],"loss_changes":[2.9864717E-1,0E0,0E0],"parents":[2147483647,0,0],"right_children":[2,-1,-1],"split_conditions":[1E0,-1.4377949E-3,4.0261015E-1],"split_indices":[1097,0,0],"split_type":[0,0,0],"sum_hessian":[6.868139E0,5.808987E0,1.0591515E0],"tree_param":{"num_deleted":"0","num_feature":"2048","num_nodes":"3","size_leaf_vector":"1"}},{"base_weights":[1.5739894E-1,2.7947482E-1,-2.3702972E-1],"categories":[],"categories_nodes":[],"categories_segments":[],"categories_sizes":[],"default_left":[0,0,0],"id":83,"left_children":[1,-1,-1],"loss_changes":[5.152491E-1,0E0,0E0],"parents":[2147483647,0,0],"right_children":[2,-1,-1],"split_conditions":[1E0,2.7947482E-1,-2.3702972E-1],"split_indices":[1236,0,0],"split_type":[0,0,0],"sum_hessian":[7.131619E0,5.864084E0,1.2675352E0],"tree_param":{"num_deleted":"0","num_feature":"2048","num_nodes":"3","size_leaf_vector":"1"}},{"base_weights":[-1.9995871E-1,-4.263801E-1,2.3690577E-1],"categories":[],"categories_nodes":[],"categories_segments":[],"categories_sizes":[],"default_left":[0,0,0],"id":84,"left_children":[1,-1,-1],"loss_changes":[9.7257745E-1,0E0,0E0],"parents":[2147483647,0,0],"right_children":[2,-1,-1],"split_conditions":[1E0,-4.263801E-1,2.3690577E-1],"split_indices":[1917,0,0],"split_type":[0,0,0],"sum_hessian":[6.674472E0,4.551392E0,2.1230798E0],"tree_param":{"num_deleted":"0","num_feature":"2048","num_nodes":"3","size_leaf_vector":"1"}},{"base_weights":[1.7523837E-1,-9.331657E-2,2.9510996E-1],"categories":[],"categories_nodes":[],"categories_segments":[],"categories_sizes":[],"default_left":[0,0,0],"id":85,"left_children":[1,-1,-1],"loss_changes":[3.520729E-1,0E0,0E0],"parents":[2147483647,0,0],"right_children":[2,-1,-1],"split_conditions":[1E0,-9.331657E-2,2.9510996E-1],"split_indices":[1057,0,0],"split_type":[0,0,0],"sum_hessian":[7.074072E0,1.9998759E0,5.074196E0],"tree_param":{"num_deleted":"0","num_feature":"2048","num_nodes":"3","size_leaf_vector":"1"}},{"base_weights":[-6.001618E-3],"categories":[],"categories_nodes":[],"categories_segments":[],"categories_sizes":[],"default_left":[0],"id":86,"left_children":[-1],"loss_changes":[0E0],"parents":[2147483647],"right_children":[-1],"split_conditions":[-5.7677254E-3],"split_indices":[0],"split_type":[0],"sum_hessian":[7.856055E0],"tree_param":{"num_deleted":"0","num_feature":"2048","num_nodes":"1","size_leaf_vector":"1"}},{"base_weights":[9.913468E-3,2.6347986E-1,-2.1973884E-1],"categories":[],"categories_nodes":[],"categories_segments":[],"categories_sizes":[],"default_left":[0,0,0],"id":87,"left_children":[1,-1,-1],"loss_changes":[6.03497E-1,0E0,0E0],"parents":[2147483647,0,0],"right_children":[2,-1,-1],"split_conditions":[1E0,2.6347986E-1,-2.1973884E-1],"split_indices":[935,0,0],"split_type":[0,0,0],"sum_hessian":[7.492781E0,3.8005743E0,3.692207E0],"tree_param":{"num_deleted":"0","num_feature":"2048","num_nodes":"3","size_leaf_vector":"1"}},{"base_weights":[1.3833164E-1],"categories":[],"categories_nodes":[],"categories_segments":[],"categories_sizes":[],"default_left":[0],"id":88,"left_children":[-1],"loss_changes":[0E0],"parents":[2147483647],"right_children":[-1],"split_conditions":[1.3294062E-1],"split_indices":[0],"split_type":[0],"sum_hessian":[8.0911875E0],"tree_param":{"num_deleted":"0","num_feature":"2048","num_nodes":"1","size_leaf_vector":"1"}},{"base_weights":[-3.4838092E-1,-4.6221185E-1,-0E0],"categories":[],"categories_nodes":[],"categories_segments":[],"categories_sizes":[],"default_left":[0,0,0],"id":89,"left_children":[1,-1,-1],"loss_changes":[3.6024535E-1,0E0,0E0],"parents":[2147483647,0,0],"right_children":[2,-1,-1],"split_conditions":[1E0,-4.6221185E-1,-0E0],"split_indices":[1325,0,0],"split_type":[0,0,0],"sum_hessian":[6.389188E0,4.441154E0,1.9480338E0],"tree_param":{"num_deleted":"0","num_feature":"2048","num_nodes":"3","size_leaf_vector":"1"}},{"base_weights":[-9.8755464E-2,-2.8235888E-1,2.714879E-1,-4.1866136E-1,7.911559E-3],"categories":[],"categories_nodes":[],"categories_segments":[],"categories_sizes":[],"default_left":[0,0,0,0,0],"id":90,"left_children":[1,3,-1,-1,-1],"loss_changes":[5.38364E-1,3.032336E-1,0E0,0E0,0E0],"parents":[2147483647,0,0,1,1],"right_children":[2,4,-1,-1,-1],"split_conditions":[1E0,1E0,2.714879E-1,-4.1866136E-1,7.911559E-3],"split_indices":[1039,656,0,0,0],"split_type":[0,0,0,0,0],"sum_hessian":[5.582377E0,4.2211623E0,1.3612145E0,2.7986326E0,1.4225297E0],"tree_param":{"num_deleted":"0","num_feature":"2048","num_nodes":"5","size_leaf_vector":"1"}},{"base_weights":[2.4608439E-1,-1.3071229E-1,4.179875E-1],"categories":[],"categories_nodes":[],"categories_segments":[],"categories_sizes":[],"default_left":[0,0,0],"id":91,"left_children":[1,-1,-1],"loss_changes":[6.425178E-1,0E0,0E0],"parents":[2147483647,0,0],"right_children":[2,-1,-1],"split_conditions":[1E0,-1.3071229E-1,4.179875E-1],"split_indices":[1088,0,0],"split_type":[0,0,0],"sum_hessian":[6.4533563E0,1.9480658E0,4.5052905E0],"tree_param":{"num_deleted":"0","num_feature":"2048","num_nodes":"3","size_leaf_vector":"1"}},{"base_weights":[-0E0],"categories":[],"categories_nodes":[],"categories_segments":[],"categories_sizes":[],"default_left":[0],"id":92,"left_children":[-1],"loss_changes":[0E0],"parents":[2147483647],"right_children":[-1],"split_conditions":[-0E0],"split_indices":[0],"split_type":[0],"sum_hessian":[5.6596484E0],"tree_param":{"num_deleted":"0","num_feature":"2048","num_nodes":"1","size_leaf_vector":"1"}},{"base_weights":[2.849715E-1,4.0434614E-1,-1.477167E-1,4.94429E-1,-0E0],"categories":[],"categories_nodes":[],"categories_segments":[],"categories_sizes":[],"default_left":[0,0,0,0,0],"id":93,"left_children":[1,3,-1,-1,-1],"loss_changes":[4.875697E-1,3.606367E-1,0E0,0E0,0E0],"parents":[2147483647,0,0,1,1],"right_children":[2,4,-1,-1,-1],"split_conditions":[1E0,1E0,-1.477167E-1,4.94429E-1,-0E0],"split_indices":[1163,1086,0,0,0],"split_type":[0,0,0,0,0],"sum_hessian":[6.3960943E0,5.372685E0,1.0234092E0,4.304309E0,1.068376E0],"tree_param":{"num_deleted":"0","num_feature":"2048","num_nodes":"5","size_leaf_vector":"1"}},{"base_weights":[-1.180827E-1,-0E0,-4.8739856E-1],"categories":[],"categories_nodes":[],"categories_segments":[],"categories_sizes":[],"default_left":[0,0,0],"id":94,"left_children":[1,-1,-1],"loss_changes":[4.5286286E-1,0E0,0E0],"parents":[2147483647,0,0],"right_children":[2,-1,-1],"split_conditions":[1E0,-0E0,-4.8739856E-1],"split_indices":[1946,0,0],"split_type":[0,0,0],"sum_hessian":[7.4462156E0,6.2141848E0,1.2320309E0],"tree_param":{"num_deleted":"0","num_feature":"2048","num_nodes":"3","size_leaf_vector":"1"}},{"base_weights":[-1.8668608E-1,-4.9222472E-1,1.8703012E-1],"categories":[],"categories_nodes":[],"categories_segments":[],"categories_sizes":[],"default_left":[0,0,0],"id":95,"left_children":[1,-1,-1],"loss_changes":[1.105988E0,0E0,0E0],"parents":[2147483647,0,0],"right_children":[2,-1,-1],"split_conditions":[1E0,-4.9222472E-1,1.8703012E-1],"split_indices":[1114,0,0],"split_type":[0,0,0],"sum_hessian":[6.7280407E0,3.6714296E0,3.056611E0],"tree_param":{"num_deleted":"0","num_feature":"2048","num_nodes":"3","size_leaf_vector":"1"}}]},"name":"gbtree"},"learner_model_param":{"base_score":"5E-1","boost_from_average":"0","num_class":"0","num_feature":"2048","num_target":"1"},"objective":{"name":"binary:logistic","reg_loss_param":{"scale_pos_weight":"1.22790074"}}},"version":[2,0,3]}