{"learner":{"attributes":{"best_iteration":"49","best_score":"0.03315387142769539","scikit_learn":"{\"_estimator_type\": \"classifier\"}"},"feature_names":[],"feature_types":[],"gradient_booster":{"model":{"gbtree_model_param":{"num_parallel_tree":"1","num_trees":"65"},"iteration_indptr":[0,1,2,3,4,5,6,7,8,9,10,11,12,13,14,15,16,17,18,19,20,21,22,23,24,25,26,27,28,29,30,31,32,33,34,35,36,37,38,39,40,41,42,43,44,45,46,47,48,49,50,51,52,53,54,55,56,57,58,59,60,61,62,63,64,65],"tree_info":[0,0,0,0,0,0,0,0,0,0,0,0,0,0,0,0,0,0,0,0,0,0,0,0,0,0,0,0,0,0,0,0,0,0,0,0,0,0,0,0,0,0,0,0,0,0,0,0,0,0,0,0,0,0,0,0,0,0,0,0,0,0,0,0,0],"trees":[{"base_weights":[1.629772E0,1.6651541E0,-1.5348271E0,1.6966842E0,-1.4957649E0,1.7365893E0,-5.460026E-1,1.7600809E0,-1.3760301E0,-1.5657791E0,1.3213549E0,1.779088E0,-1.2773936E0,7.6888174E-1,1.8264945E0,1.0944316E0,-1.2773936E0,1.8460016E0,-0E0,1.4299999E-1,1.2935288E0,1.8659532E0,-0E0,1.3213549E0,-1.2773936E0,1.5084084E0,1.4299999E-1,1.7356883E0,1.088918E0,-1.2773936E0,1.3213549E0],"categories":[],"categories_nodes":[],"categories_segments":[],"categories_sizes":[],"default_left":[0,0,0,0,0,0,0,0,0,0,0,0,0,0,0,0,0,0,0,0,0,0,0,0,0,0,0,0,0,0,0],"id":0,"left_children":[1,3,-1,5,-1,7,9,11,-1,-1,-1,13,-1,15,17,19,-1,21,23,-1,25,27,29,-1,-1,-1,-1,-1,-1,-1,-1],"loss_changes":[2.4660095E1,2.1793274E1,0E0,1.8814697E1,0E0,1.5736694E1,8.597558E0,1.2459534E1,0E0,0E0,0E0,8.250671E0,0E0,6.818012E0,6.3480225E0,9.979391E-1,0E0,6.493103E0,4.8641806E0,0E0,1.9317093E0,1.9394531E0,4.8641806E0,0E0,0E0,0E0,0E0,0E0,0E0,0E0,0E0],"parents":[2147483647,0,0,1,1,3,3,5,5,6,6,7,7,11,11,13,13,14,14,15,15,17,17,18,18,20,20,21,21,22,22],"right_children":[2,4,-1,6,-1,8,10,12,-1,-1,-1,14,-1,16,18,20,-1,22,24,-1,26,28,30,-1,-1,-1,-1,-1,-1,-1,-1],"split_conditions":[1E0,1E0,-1.5348271E0,1E0,-1.4957649E0,1E0,1E0,1E0,-1.3760301E0,-1.5657791E0,1.3213549E0,1E0,-1.2773936E0,1E0,1E0,1E0,-1.2773936E0,1E0,1E0,1.4299999E-1,1E0,1E0,1E0,1.3213549E0,-1.2773936E0,1.5084084E0,1.4299999E-1,1.7356883E0,1.088918E0,-1.2773936E0,1.3213549E0],"split_indices":[831,896,0,302,0,1539,18,496,0,0,0,926,0,1602,350,1057,0,1308,313,0,875,1280,1280,0,0,0,0,0,0,0,0],"split_type":[0,0,0,0,0,0,0,0,0,0,0,0,0,0,0,0,0,0,0,0,0,0,0,0,0,0,0,0,0,0,0],"sum_hessian":[2.070171E2,2.050171E2,2E0,2.032671E2,1.75E0,1.9991759E2,3.3495152E0,1.9866759E2,1.25E0,2.25E0,1.0995152E0,1.9766759E2,1E0,9.347092E0,1.883205E2,8.347092E0,1E0,1.8622098E2,2.0995152E0,1.8495152E0,6.4975758E0,1.8412146E2,2.0995152E0,1.0995152E0,1E0,4.648061E0,1.8495152E0,1.7602437E2,8.097092E0,1E0,1.0995152E0],"tree_param":{"num_deleted":"0","num_feature":"2048","num_nodes":"31","size_leaf_vector":"1"}},{"base_weights":[9.168147E-1,8.505321E-1,3.36798E0,8.924124E-1,-5.6141144E-1,9.2934066E-1,-6.2905693E-1,3.5247353E-3,9.872406E-1,-1.5933242E0,1.15090154E-1,9.872108E-1,-3.4782696E-1,1.0156416E0,-1.731514E-2,-1.7062726E0,6.1984E-1,9.872511E-1,2.4314487E0,-8.033585E-1,6.6824603E-1,1.2800646E-1,1.0238662E0,-8.9575404E-1,9.009869E-1,1.05247E0,-0E0,9.3770933E-1,2.3174736E0,-1.1155918E0,9.2349124E-1],"categories":[],"categories_nodes":[],"categories_segments":[],"categories_sizes":[],"default_left":[0,0,0,0,0,0,0,0,0,0,0,0,0,0,0,0,0,0,0,0,0,0,0,0,0,0,0,0,0,0,0],"id":1,"left_children":[1,3,-1,5,-1,7,9,11,13,-1,-1,-1,15,17,19,-1,-1,21,-1,-1,-1,23,25,-1,-1,27,29,-1,-1,-1,-1],"loss_changes":[1.9723885E1,7.4045563E0,0E0,6.653549E0,0E0,5.637459E0,2.8043208E0,3.041981E0,3.3922806E0,0E0,0E0,0E0,8.787627E0,2.959488E0,1.8751862E0,0E0,0E0,2.728775E0,0E0,0E0,0E0,4.653773E0,2.619667E0,0E0,0E0,2.2919312E0,3.817124E0,0E0,0E0,0E0,0E0],"parents":[2147483647,0,0,1,1,3,3,5,5,6,6,7,7,8,8,12,12,13,13,14,14,17,17,21,21,22,22,25,25,26,26],"right_children":[2,4,-1,6,-1,8,10,12,14,-1,-1,-1,16,18,20,-1,-1,22,-1,-1,-1,24,26,-1,-1,28,30,-1,-1,-1,-1],"split_conditions":[1E0,1E0,3.36798E0,1E0,-5.6141144E-1,1E0,1E0,1E0,1E0,-1.5933242E0,1.15090154E-1,9.872108E-1,1E0,1E0,1E0,-1.7062726E0,6.1984E-1,1E0,2.4314487E0,-8.033585E-1,6.6824603E-1,1E0,1E0,-8.9575404E-1,9.009869E-1,1E0,1E0,9.3770933E-1,2.3174736E0,-1.1155918E0,9.2349124E-1],"split_indices":[589,130,0,1803,0,926,841,1750,1951,0,0,0,1199,1610,352,0,0,1750,0,0,0,1152,1856,0,0,1981,1296,0,0,0,0],"split_type":[0,0,0,0,0,0,0,0,0,0,0,0,0,0,0,0,0,0,0,0,0,0,0,0,0,0,0,0,0,0,0],"sum_hessian":[1.1998734E2,1.1751011E2,2.4772398E0,1.1455636E2,2.9537458E0,1.1214944E2,2.4069235E0,7.0029726E0,1.0514646E2,1.0978634E0,1.3090601E0,1.9168406E0,5.086132E0,1.0262725E2,2.5192137E0,2.1521263E0,2.9340055E0,1.013589E2,1.2683511E0,1.3985614E0,1.1206523E0,4.602368E0,9.675653E1,1.8007371E0,2.8016307E0,9.392526E1,2.83127E0,9.261519E1,1.3100756E0,1.1740127E0,1.6572573E0],"tree_param":{"num_deleted":"0","num_feature":"2048","num_nodes":"31","size_leaf_vector":"1"}},{"base_weights":[6.2255186E-1,6.657374E-1,-1.0623921E0,7.155987E-1,-3.651701E-1,7.541334E-1,-6.4878297E-1,-1.5305824E0,8.6723375E-1,7.993719E-1,-1.120686E-1,8.3582187E-1,-5.400995E-1,-1.6194185E0,7.2768664E-1,8.7241685E-1,-8.940063E-2,9.246053E-1,-0E0,9.6324927E-1,-4.18175E-1,-1.2826054E0,7.295613E-1,9.053062E-1,-0E0],"categories":[],"categories_nodes":[],"categories_segments":[],"categories_sizes":[],"default_left":[0,0,0,0,0,0,0,0,0,0,0,0,0,0,0,0,0,0,0,0,0,0,0,0,0],"id":2,"left_children":[1,3,-1,5,7,9,-1,-1,-1,11,13,15,-1,-1,-1,17,-1,19,21,23,-1,-1,-1,-1,-1],"loss_changes":[5.7783165E0,4.0058594E0,0E0,4.022743E0,5.9790273E0,3.0194702E0,0E0,0E0,0E0,3.5592918E0,5.3748727E0,2.55048E0,0E0,0E0,0E0,2.7736244E0,0E0,3.453415E0,4.418644E0,1.5981369E0,0E0,0E0,0E0,0E0,0E0],"parents":[2147483647,0,0,1,1,3,3,4,4,5,5,9,9,10,10,11,11,15,15,17,17,18,18,19,19],"right_children":[2,4,-1,6,8,10,-1,-1,-1,12,14,16,-1,-1,-1,18,-1,20,22,24,-1,-1,-1,-1,-1],"split_conditions":[1E0,1E0,-1.0623921E0,1E0,1E0,1E0,-6.4878297E-1,-1.5305824E0,8.6723375E-1,1E0,1E0,1E0,-5.400995E-1,-1.6194185E0,7.2768664E-1,1E0,-8.940063E-2,1E0,1E0,1E0,-4.18175E-1,-1.2826054E0,7.295613E-1,9.053062E-1,-0E0],"split_indices":[1637,556,0,1603,297,1083,0,0,0,1921,322,1985,0,0,0,1765,0,84,1970,1168,0,0,0,0,0],"split_type":[0,0,0,0,0,0,0,0,0,0,0,0,0,0,0,0,0,0,0,0,0,0,0,0,0],"sum_hessian":[7.582549E1,7.433926E1,1.4862362E0,7.13127E1,3.026561E0,6.976939E1,1.5433131E0,1.6428369E0,1.383724E0,6.67413E1,3.028084E0,6.536634E1,1.3749614E0,1.1687919E0,1.8592921E0,6.3307842E1,2.058496E0,5.9589886E1,3.7179575E0,5.8285957E1,1.3039277E0,1.2474315E0,2.470526E0,5.7054794E1,1.2311618E0],"tree_param":{"num_deleted":"0","num_feature":"2048","num_nodes":"25","size_leaf_vector":"1"}},{"base_weights":[2.8314355E-1,3.9817852E-1,-1.099871E0,-2.3309273E-1,6.9706535E-1,-1.7893599E0,4.7902524E-2,-7.2001714E-1,9.219411E-1,1.0494814E0,9.491275E-2,-2.9957335E0,-3.845403E-1,-9.485401E-1,6.402379E-1,-0E0,1.0944226E0,-0E0,1.035587E0,-2.2785471E-1,9.059799E-1,-5.127626E-1,-1.7045109E0,-7.9074156E-1,1.0736848E0,-9.3322814E-1,1.7954202E-1,-2.4151857E0,-6.3812387E-1,-1.9959475E0,-3.2972327E-1,-1.1776292E0,-0E0,-9.5390934E-1,-6.8030865E-3,3.035358E-1,-8.2570165E-1],"categories":[],"categories_nodes":[],"categories_segments":[],"categories_sizes":[],"default_left":[0,0,0,0,0,0,0,0,0,0,0,0,0,0,0,0,0,0,0,0,0,0,0,0,0,0,0,0,0,0,0,0,0,0,0,0,0],"id":3,"left_children":[1,3,5,7,9,11,-1,13,15,17,19,-1,-1,21,-1,-1,-1,-1,-1,23,-1,25,27,29,-1,31,-1,-1,-1,-1,33,-1,-1,-1,35,-1,-1],"loss_changes":[9.00751E0,1.0357873E1,4.044667E0,9.585406E0,7.389179E0,4.1554937E0,0E0,4.1818438E0,9.7908163E-1,1.8215599E0,4.4331117E0,0E0,0E0,2.5895634E0,0E0,0E0,0E0,0E0,0E0,8.084924E0,0E0,2.5330405E0,1.7892437E0,3.7861843E0,0E0,1.8110576E0,0E0,0E0,0E0,0E0,9.9722993E-1,0E0,0E0,0E0,1.6972306E0,0E0,0E0],"parents":[2147483647,0,0,1,1,2,2,3,3,4,4,5,5,7,7,8,8,9,9,10,10,13,13,19,19,21,21,22,22,23,23,25,25,30,30,34,34],"right_children":[2,4,6,8,10,12,-1,14,16,18,20,-1,-1,22,-1,-1,-1,-1,-1,24,-1,26,28,30,-1,32,-1,-1,-1,-1,34,-1,-1,-1,36,-1,-1],"split_conditions":[1E0,1E0,1E0,1E0,1E0,1E0,4.7902524E-2,1E0,1E0,1E0,1E0,-2.9957335E0,-3.845403E-1,1E0,6.402379E-1,-0E0,1.0944226E0,-0E0,1.035587E0,1E0,9.059799E-1,1E0,1E0,1E0,1.0736848E0,1E0,1.7954202E-1,-2.4151857E0,-6.3812387E-1,-1.9959475E0,1E0,-1.1776292E0,-0E0,-9.5390934E-1,1E0,3.035358E-1,-8.2570165E-1],"split_indices":[1160,378,401,1683,1866,1480,0,689,1145,1750,1791,0,0,1114,0,0,0,0,0,738,0,1325,1199,305,0,1009,0,0,0,0,1057,0,0,0,392,0,0],"split_type":[0,0,0,0,0,0,0,0,0,0,0,0,0,0,0,0,0,0,0,0,0,0,0,0,0,0,0,0,0,0,0,0,0,0,0,0,0],"sum_hessian":[5.7725113E1,5.36539E1,4.071212E0,1.6837006E1,3.6816895E1,2.7017372E0,1.3694746E0,1.2120823E1,4.7161837E0,2.2746264E1,1.4070629E1,1.0581074E0,1.6436298E0,1.0718512E1,1.4023113E0,1.2823477E0,3.433836E0,1.7194905E0,2.1026773E1,1.0106422E1,3.964207E0,7.2912292E0,3.4272816E0,7.4529853E0,2.653437E0,4.8863225E0,2.404907E0,1.450459E0,1.9768226E0,1.5035281E0,5.949457E0,3.599643E0,1.2866796E0,1.3750936E0,4.5743637E0,3.0786967E0,1.495667E0],"tree_param":{"num_deleted":"0","num_feature":"2048","num_nodes":"37","size_leaf_vector":"1"}},{"base_weights":[6.440193E-1,5.5145335E-1,2.6264203E0,6.5224355E-1,-8.1901854E-1,7.317145E-1,-1.0543895E0,8.3001983E-1,-0E0,9.113878E-1,-1.5428632E-1,9.807477E-1,-4.5718333E-1,1.04797E0,-1.0731753E-2,1.1028143E0,-0E0,1.0967296E0,2.4472037E-1],"categories":[],"categories_nodes":[],"categories_segments":[],"categories_sizes":[],"default_left":[0,0,0,0,0,0,0,0,0,0,0,0,0,0,0,0,0,0,0],"id":4,"left_children":[1,3,-1,5,-1,7,-1,9,-1,11,-1,13,-1,15,-1,17,-1,-1,-1],"loss_changes":[6.838661E0,5.7677193E0,0E0,5.324543E0,0E0,2.7487335E0,0E0,2.9133587E0,0E0,3.1980572E0,0E0,2.330532E0,0E0,1.4859085E0,0E0,1.4245281E0,0E0,0E0,0E0],"parents":[2147483647,0,0,1,1,3,3,5,5,7,7,9,9,11,11,13,13,15,15],"right_children":[2,4,-1,6,-1,8,-1,10,-1,12,-1,14,-1,16,-1,18,-1,-1,-1],"split_conditions":[1E0,1E0,2.6264203E0,1E0,-8.1901854E-1,1E0,-1.0543895E0,1E0,-0E0,1E0,-1.5428632E-1,1E0,-4.5718333E-1,1E0,-1.0731753E-2,1E0,-0E0,1.0967296E0,2.4472037E-1],"split_indices":[1597,664,0,1696,0,622,0,1405,0,1160,0,1662,0,1939,0,1855,0,0,0],"split_type":[0,0,0,0,0,0,0,0,0,0,0,0,0,0,0,0,0,0,0],"sum_hessian":[4.0720078E1,3.944758E1,1.2724961E0,3.720631E1,2.2412689E0,3.593031E1,1.2760001E0,3.1877937E1,4.052374E0,2.9845661E1,2.0322754E0,2.8753202E1,1.09246E0,2.7284962E1,1.4682398E0,2.584504E1,1.4399225E0,2.2759508E1,3.0855312E0],"tree_param":{"num_deleted":"0","num_feature":"2048","num_nodes":"19","size_leaf_vector":"1"}},{"base_weights":[1.8973845E-1,2.8834593E-1,-1.1631595E0,-8.6070046E-2,5.836991E-1,-3.9608958E-1,6.495625E-1,6.810915E-1,-6.839004E-1,-1.2536855E0,-0E0,8.457422E-1,-2.2204536E-1,2.7175622E-2,-1.8398987E0,-8.4637886E-1,3.9204636E-1,9.470831E-1,-0E0,-2.6144714E0,3.4114373E-1,6.222086E-1,-3.7117448E-1,1.0950335E0,5.0031696E-2],"categories":[],"categories_nodes":[],"categories_segments":[],"categories_sizes":[],"default_left":[0,0,0,0,0,0,0,0,0,0,0,0,0,0,0,0,0,0,0,0,0,0,0,0,0],"id":5,"left_children":[1,3,-1,5,7,9,-1,11,-1,13,15,17,-1,-1,-1,19,21,23,-1,-1,-1,-1,-1,-1,-1],"loss_changes":[4.978348E0,4.056959E0,0E0,3.6057715E0,2.6579328E0,3.4679165E0,0E0,3.1654053E0,0E0,3.9887128E0,2.8403077E0,1.6484699E0,0E0,0E0,0E0,7.995564E0,1.3796747E0,2.8371553E0,0E0,0E0,0E0,0E0,0E0,0E0,0E0],"parents":[2147483647,0,0,1,1,3,3,4,4,5,5,7,7,9,9,10,10,11,11,15,15,16,16,17,17],"right_children":[2,4,-1,6,8,10,-1,12,-1,14,16,18,-1,-1,-1,20,22,24,-1,-1,-1,-1,-1,-1,-1],"split_conditions":[1E0,1E0,-1.1631595E0,1E0,1E0,1E0,6.495625E-1,1E0,-6.839004E-1,1E0,1E0,1E0,-2.2204536E-1,2.7175622E-2,-1.8398987E0,1E0,1E0,1E0,-0E0,-2.6144714E0,3.4114373E-1,6.222086E-1,-3.7117448E-1,1.0950335E0,5.0031696E-2],"split_indices":[653,1199,0,1951,366,378,0,1855,0,1057,1057,1295,0,0,0,738,1309,389,0,0,0,0,0,0,0],"split_type":[0,0,0,0,0,0,0,0,0,0,0,0,0,0,0,0,0,0,0,0,0,0,0,0,0],"sum_hessian":[3.6675846E1,3.472039E1,1.955456E0,1.4784353E1,1.9936035E1,1.1042094E1,3.7422595E0,1.8917875E1,1.0181593E0,3.1662707E0,7.8758235E0,1.6420872E1,2.4970045E0,1.0385394E0,2.1277313E0,2.6520386E0,5.223785E0,1.4900506E1,1.5203655E0,1.0416105E0,1.610428E0,4.214437E0,1.009348E0,1.1282866E1,3.6176407E0],"tree_param":{"num_deleted":"0","num_feature":"2048","num_nodes":"25","size_leaf_vector":"1"}},{"base_weights":[4.0419438E-1,1.1834364E-1,1.6841586E0,-1.816481E-3,2.0204372E0,7.779723E-2,-1.4378854E0,3.069411E-1,-2.8771782E-1,5.219252E-1,-4.271084E-1,-5.898375E-1,6.190768E-1,-0E0,7.2228074E-1,-1.3332397E0,6.038487E-1,-8.165701E-1,2.2132589E-1,7.872566E-1,-0E0,-1.0943043E0,9.315777E-3,-1.3445449E0,-0E0],"categories":[],"categories_nodes":[],"categories_segments":[],"categories_sizes":[],"default_left":[0,0,0,0,0,0,0,0,0,0,0,0,0,0,0,0,0,0,0,0,0,0,0,0,0],"id":6,"left_children":[1,3,-1,5,-1,7,-1,9,11,13,15,17,-1,-1,19,-1,-1,21,-1,-1,-1,23,-1,-1,-1],"loss_changes":[1.1442923E1,7.1881332E0,0E0,3.5749362E0,0E0,1.9184588E0,0E0,2.3833358E0,2.4048047E0,1.2851233E0,3.8049383E0,1.4973705E0,0E0,0E0,1.1201434E0,0E0,0E0,1.7029831E0,0E0,0E0,0E0,1.7771802E0,0E0,0E0,0E0],"parents":[2147483647,0,0,1,1,3,3,5,5,7,7,8,8,9,9,10,10,11,11,14,14,17,17,21,21],"right_children":[2,4,-1,6,-1,8,-1,10,12,14,16,18,-1,-1,20,-1,-1,22,-1,-1,-1,24,-1,-1,-1],"split_conditions":[1E0,1E0,1.6841586E0,1E0,2.0204372E0,1E0,-1.4378854E0,1E0,1E0,1E0,1E0,1E0,6.190768E-1,-0E0,1E0,-1.3332397E0,6.038487E-1,1E0,2.2132589E-1,7.872566E-1,-0E0,1E0,9.315777E-3,-1.3445449E0,-0E0],"split_indices":[1673,800,0,854,0,1114,0,1236,736,926,1855,119,0,0,1808,0,0,1696,0,0,0,389,0,0,0],"split_type":[0,0,0,0,0,0,0,0,0,0,0,0,0,0,0,0,0,0,0,0,0,0,0,0,0],"sum_hessian":[2.9694138E1,2.512426E1,4.569879E0,2.3730537E1,1.3937213E0,2.2491999E1,1.2385392E0,1.4489315E1,8.002684E0,1.1648898E1,2.8404171E0,6.4434447E0,1.5592387E0,3.1784809E0,8.470417E0,1.6143512E0,1.226066E0,5.429487E0,1.0139575E0,7.460509E0,1.0099084E0,4.3751354E0,1.0543519E0,3.1898408E0,1.1852944E0],"tree_param":{"num_deleted":"0","num_feature":"2048","num_nodes":"25","size_leaf_vector":"1"}},{"base_weights":[4.1479033E-1,5.503393E-1,-9.6188104E-1,6.6712385E-1,-4.538316E-1,7.757996E-1,-9.839815E-1,-1.2235273E0,1.8528335E-1,8.4334004E-1,-0E0,8.2547015E-1,-0E0],"categories":[],"categories_nodes":[],"categories_segments":[],"categories_sizes":[],"default_left":[0,0,0,0,0,0,0,0,0,0,0,0,0],"id":7,"left_children":[1,3,-1,5,7,9,-1,-1,-1,11,-1,-1,-1],"loss_changes":[5.5637426E0,3.2340517E0,0E0,4.5794945E0,1.9291519E0,1.1601667E0,0E0,0E0,0E0,9.7945786E-1,0E0,0E0,0E0],"parents":[2147483647,0,0,1,1,3,3,4,4,5,5,9,9],"right_children":[2,4,-1,6,8,10,-1,-1,-1,12,-1,-1,-1],"split_conditions":[1E0,1E0,-9.6188104E-1,1E0,1E0,1E0,-9.839815E-1,-1.2235273E0,1.8528335E-1,1E0,-0E0,8.2547015E-1,-0E0],"split_indices":[1171,1508,0,222,1405,1487,0,0,0,622,0,0,0],"split_type":[0,0,0,0,0,0,0,0,0,0,0,0,0],"sum_hessian":[2.8382572E1,2.6309336E1,2.0732355E0,2.3960049E1,2.3492868E0,2.2843233E1,1.1168159E0,1.1836646E0,1.1656222E0,2.0937773E1,1.9054601E0,1.9544209E1,1.3935641E0],"tree_param":{"num_deleted":"0","num_feature":"2048","num_nodes":"13","size_leaf_vector":"1"}},{"base_weights":[3.7757596E-1,4.464242E-1,-5.3363526E-1,5.505722E-1,-2.2480749E-2,6.2093574E-1,-1.7108008E-1,-1.0862497E0,3.702318E-1,7.0782405E-1,-0E0,8.2853925E-1,1.4374463E-1],"categories":[],"categories_nodes":[],"categories_segments":[],"categories_sizes":[],"default_left":[0,0,0,0,0,0,0,0,0,0,0,0,0],"id":8,"left_children":[1,3,-1,5,7,9,-1,-1,-1,11,-1,-1,-1],"loss_changes":[1.8845263E0,1.5356116E0,0E0,1.3770566E0,2.5728173E0,1.3244104E0,0E0,0E0,0E0,1.6408806E0,0E0,0E0,0E0],"parents":[2147483647,0,0,1,1,3,3,4,4,5,5,9,9],"right_children":[2,4,-1,6,8,10,-1,-1,-1,12,-1,-1,-1],"split_conditions":[1E0,1E0,-5.3363526E-1,1E0,1E0,1E0,-1.7108008E-1,-1.0862497E0,3.702318E-1,1E0,-0E0,8.2853925E-1,1.4374463E-1],"split_indices":[255,1855,0,1028,80,379,0,0,0,807,0,0,0],"split_type":[0,0,0,0,0,0,0,0,0,0,0,0,0],"sum_hessian":[2.8530241E1,2.7074709E1,1.4555328E0,2.2804735E1,4.2699733E0,2.1318298E1,1.4864366E0,1.3130468E0,2.9569263E0,1.9012724E1,2.3055742E0,1.3428952E1,5.583772E0],"tree_param":{"num_deleted":"0","num_feature":"2048","num_nodes":"13","size_leaf_vector":"1"}},{"base_weights":[-2.7480075E-1,-7.107086E-1,5.416234E-1,-9.2264915E-1,6.8230814E-1,7.455267E-1,-3.406398E-2,-1.725113E0,-5.365306E-1,9.047667E-1,-0E0,-8.599058E-3,-1.0849674E0,-4.6043855E-1,3.578603E-1,-1.9478449E0,2.290958E-1,-1.1576023E0,-0E0,-2.8445854E0,-0E0],"categories":[],"categories_nodes":[],"categories_segments":[],"categories_sizes":[],"default_left":[0,0,0,0,0,0,0,0,0,0,0,0,0,0,0,0,0,0,0,0,0],"id":9,"left_children":[1,3,5,7,-1,9,-1,-1,11,-1,-1,13,15,17,-1,19,-1,-1,-1,-1,-1],"loss_changes":[7.9164987E0,4.6947455E0,1.1511145E0,3.7564774E0,0E0,1.453938E0,0E0,0E0,2.4257362E0,0E0,0E0,1.0528578E0,5.8771014E0,1.5345875E0,0E0,6.610406E0,0E0,0E0,0E0,0E0,0E0],"parents":[2147483647,0,0,1,1,2,2,3,3,5,5,8,8,11,11,12,12,13,13,15,15],"right_children":[2,4,6,8,-1,10,-1,-1,12,-1,-1,14,16,18,-1,20,-1,-1,-1,-1,-1],"split_conditions":[1E0,1E0,1E0,1E0,6.8230814E-1,1E0,-3.406398E-2,-1.725113E0,1E0,9.047667E-1,-0E0,1E0,1E0,1E0,3.578603E-1,1E0,2.290958E-1,-1.1576023E0,-0E0,-2.8445854E0,-0E0],"split_indices":[1145,739,1060,378,0,1325,0,0,1199,0,0,1860,736,875,0,1416,0,0,0,0,0],"split_type":[0,0,0,0,0,0,0,0,0,0,0,0,0,0,0,0,0,0,0,0,0],"sum_hessian":[2.1731989E1,1.4488979E1,7.2430096E0,1.292893E1,1.5600489E0,5.8152876E0,1.4277223E0,3.2469661E0,9.681965E0,4.7403746E0,1.074913E0,5.373454E0,4.3085103E0,2.9620628E0,2.4113915E0,2.748381E0,1.5601294E0,1.2183685E0,1.7436943E0,1.6727544E0,1.0756266E0],"tree_param":{"num_deleted":"0","num_feature":"2048","num_nodes":"21","size_leaf_vector":"1"}},{"base_weights":[6.791191E-1,9.2587346E-1,-3.7237835E-1,1.5091184E0,5.1551753E-1,-1.0170926E0,7.4118584E-1,1.103264E0,2.1744742E0,-5.5914474E-1,7.322929E-1,-1.5756562E0,1.1145429E-1,8.8304913E-1,-3.6362723E-2,-2.0475488E0,-4.0675697E-1,9.2252684E-1,-6.0233142E-2],"categories":[],"categories_nodes":[],"categories_segments":[],"categories_sizes":[],"default_left":[0,0,0,0,0,0,0,0,0,0,0,0,0,0,0,0,0,0,0],"id":10,"left_children":[1,3,5,7,9,11,-1,-1,-1,-1,13,15,-1,17,-1,-1,-1,-1,-1],"loss_changes":[9.085203E0,5.7653217E0,4.988401E0,1.0788136E0,4.2624426E0,3.3518343E0,0E0,0E0,0E0,0E0,2.030281E0,1.1581411E0,0E0,1.855133E0,0E0,0E0,0E0,0E0,0E0],"parents":[2147483647,0,0,1,1,2,2,3,3,4,4,5,5,10,10,11,11,13,13],"right_children":[2,4,6,8,10,12,-1,-1,-1,-1,14,16,-1,18,-1,-1,-1,-1,-1],"split_conditions":[1E0,1E0,1E0,1E0,1E0,1E0,7.4118584E-1,1.103264E0,2.1744742E0,-5.5914474E-1,1E0,1E0,1.1145429E-1,1E0,-3.6362723E-2,-2.0475488E0,-4.0675697E-1,9.2252684E-1,-6.0233142E-2],"split_indices":[807,1057,1475,352,1088,486,0,0,0,0,1295,378,0,1452,0,0,0,0,0],"split_type":[0,0,0,0,0,0,0,0,0,0,0,0,0,0,0,0,0,0,0],"sum_hessian":[3.382434E1,2.7707916E1,6.1164265E0,1.0880184E1,1.6827732E1,4.1821494E0,1.9342769E0,8.647817E0,2.2323675E0,2.3837068E0,1.4444025E1,2.9923954E0,1.1897541E0,1.2483179E1,1.9608462E0,1.5789447E0,1.4134508E0,1.1396229E1,1.0869502E0],"tree_param":{"num_deleted":"0","num_feature":"2048","num_nodes":"19","size_leaf_vector":"1"}},{"base_weights":[5.535997E-1,6.288924E-1,-1.1432291E0,1.3870682E0,4.6380866E-1,2.3169136E0,7.33255E-1,1.440375E-1,8.970716E-1,-3.007213E-3,1.0183266E0,9.672569E-1,-2.2498505E-1,2.0685892E-1,-1.0013415E0,-6.7361116E-1,5.034959E-1,7.0387316E-1,-6.195202E-1,7.980411E-1,-0E0],"categories":[],"categories_nodes":[],"categories_segments":[],"categories_sizes":[],"default_left":[0,0,0,0,0,0,0,0,0,0,0,0,0,0,0,0,0,0,0,0,0],"id":11,"left_children":[1,3,-1,5,7,-1,-1,9,11,13,-1,-1,-1,15,-1,-1,17,19,-1,-1,-1],"loss_changes":[4.481097E0,3.2947369E0,0E0,1.9960442E0,3.4051762E0,0E0,0E0,2.7878375E0,2.3772707E0,3.6281295E0,0E0,0E0,0E0,3.2537332E0,0E0,0E0,2.2947574E0,1.0347557E0,0E0,0E0,0E0],"parents":[2147483647,0,0,1,1,3,3,4,4,7,7,8,8,9,9,13,13,16,16,17,17],"right_children":[2,4,-1,6,8,-1,-1,10,12,14,-1,-1,-1,16,-1,-1,18,20,-1,-1,-1],"split_conditions":[1E0,1E0,-1.1432291E0,1E0,1E0,2.3169136E0,7.33255E-1,1E0,1E0,1E0,1.0183266E0,9.672569E-1,-2.2498505E-1,1E0,-1.0013415E0,-6.7361116E-1,1E0,1E0,-6.195202E-1,7.980411E-1,-0E0],"split_indices":[687,1750,0,926,1970,0,0,1025,389,89,0,0,0,926,0,0,1279,1928,0,0,0],"split_type":[0,0,0,0,0,0,0,0,0,0,0,0,0,0,0,0,0,0,0,0,0],"sum_hessian":[3.3732376E1,3.268315E1,1.0492235E0,5.2167587E0,2.7466394E1,1.3712465E0,3.8455122E0,1.6436502E1,1.1029892E1,1.40577755E1,2.378726E0,9.994641E0,1.0352509E0,1.1597943E1,2.4598331E0,2.4104211E0,9.187522E0,8.187424E0,1.0000976E0,6.6597104E0,1.5277135E0],"tree_param":{"num_deleted":"0","num_feature":"2048","num_nodes":"21","size_leaf_vector":"1"}},{"base_weights":[-0E0,2.4591313E-1,-1.1924338E0,4.111267E-1,-8.45842E-1,1.9436195E-1,8.1714106E-1,-5.502808E-2,6.46387E-1,2.3353311E-1,-1.2272226E0],"categories":[],"categories_nodes":[],"categories_segments":[],"categories_sizes":[],"default_left":[0,0,0,0,0,0,0,0,0,0,0],"id":12,"left_children":[1,3,-1,5,-1,7,-1,9,-1,-1,-1],"loss_changes":[7.293516E0,3.6401193E0,0E0,1.38023E0,0E0,1.8931968E0,0E0,3.7617643E0,0E0,0E0,0E0],"parents":[2147483647,0,0,1,1,3,3,5,5,7,7],"right_children":[2,4,-1,6,-1,8,-1,10,-1,-1,-1],"split_conditions":[1E0,1E0,-1.1924338E0,1E0,-8.45842E-1,1E0,8.1714106E-1,1E0,6.46387E-1,2.3353311E-1,-1.2272226E0],"split_indices":[1452,1160,0,1791,0,695,0,935,0,0,0],"split_type":[0,0,0,0,0,0,0,0,0,0,0],"sum_hessian":[2.2855299E1,1.940381E1,3.4514873E0,1.7379765E1,2.0240457E0,1.2682926E1,4.6968393E0,8.110263E0,4.572663E0,6.3937464E0,1.7165169E0],"tree_param":{"num_deleted":"0","num_feature":"2048","num_nodes":"11","size_leaf_vector":"1"}},{"base_weights":[5.8392924E-1,6.556357E-1,-0E0,7.2631115E-1,-0E0,9.4705963E-1,2.9033175E-1,9.6551263E-1,-0E0,-0E0,7.245574E-1,-3.139212E-1,6.345832E-1,-8.2703567E-1,5.657668E-1,-0E0,-1.5230482E0],"categories":[],"categories_nodes":[],"categories_segments":[],"categories_sizes":[],"default_left":[0,0,0,0,0,0,0,0,0,0,0,0,0,0,0,0,0],"id":13,"left_children":[1,3,-1,5,-1,7,9,-1,-1,11,-1,13,-1,15,-1,-1,-1],"loss_changes":[1.4440184E0,1.4925928E0,0E0,1.8128643E0,0E0,1.4427538E0,1.4895086E0,0E0,0E0,1.1471546E0,0E0,2.1448967E0,0E0,1.7559214E0,0E0,0E0,0E0],"parents":[2147483647,0,0,1,1,3,3,5,5,6,6,9,9,11,11,13,13],"right_children":[2,4,-1,6,-1,8,10,-1,-1,12,-1,14,-1,16,-1,-1,-1],"split_conditions":[1E0,1E0,-0E0,1E0,-0E0,1E0,1E0,9.6551263E-1,-0E0,1E0,7.245574E-1,1E0,6.345832E-1,1E0,5.657668E-1,-0E0,-1.5230482E0],"split_indices":[366,1896,0,935,0,1325,407,0,0,352,0,1738,0,875,0,0,0],"split_type":[0,0,0,0,0,0,0,0,0,0,0,0,0,0,0,0,0],"sum_hessian":[2.874454E1,2.6127419E1,2.6171207E0,2.409016E1,2.037258E0,1.52821455E1,8.808015E0,1.361988E1,1.6622661E0,5.3738103E0,3.434205E0,3.9923468E0,1.3814633E0,2.852547E0,1.1398E0,1.6292242E0,1.2233226E0],"tree_param":{"num_deleted":"0","num_feature":"2048","num_nodes":"17","size_leaf_vector":"1"}},{"base_weights":[7.996847E-2,1.8756674E-1,-1.1676605E0,3.939393E-1,-2.5341794E-1,5.0430864E-1,-1.0622278E-1,3.790456E-1,-6.503236E-1],"categories":[],"categories_nodes":[],"categories_segments":[],"categories_sizes":[],"default_left":[0,0,0,0,0,0,0,0,0],"id":14,"left_children":[1,3,-1,5,7,-1,-1,-1,-1],"loss_changes":[2.4370964E0,1.7375214E0,0E0,1.2248771E0,1.7858405E0,0E0,0E0,0E0,0E0],"parents":[2147483647,0,0,1,1,3,3,4,4],"right_children":[2,4,-1,6,8,-1,-1,-1,-1],"split_conditions":[1E0,1E0,-1.1676605E0,1E0,1E0,5.0430864E-1,-1.0622278E-1,3.790456E-1,-6.503236E-1],"split_indices":[1091,1866,0,1292,1152,0,0,0,0],"split_type":[0,0,0,0,0,0,0,0,0],"sum_hessian":[1.918716E1,1.8164839E1,1.0223205E0,1.2981441E1,5.183399E0,1.0504695E1,2.476745E0,1.7677191E0,3.4156802E0],"tree_param":{"num_deleted":"0","num_feature":"2048","num_nodes":"9","size_leaf_vector":"1"}},{"base_weights":[-1.6839634E-1,-4.354081E-1,6.1335236E-1,-6.5649444E-1,5.3352094E-1,-1.0969337E-2,8.657577E-1,-8.416127E-1,6.3854057E-1,-1.1717596E0,2.294968E-2,-1.4882461E0,-4.05738E-1,-2.1052496E0,-6.8668264E-1,-8.6626583E-1,5.9587296E-2],"categories":[],"categories_nodes":[],"categories_segments":[],"categories_sizes":[],"default_left":[0,0,0,0,0,0,0,0,0,0,0,0,0,0,0,0,0],"id":15,"left_children":[1,3,5,7,-1,-1,-1,9,-1,11,-1,13,15,-1,-1,-1,-1],"loss_changes":[3.8184392E0,3.2814732E0,1.2705147E0,3.1655478E0,0E0,0E0,0E0,3.5704627E0,0E0,1.1692677E0,0E0,1.7855186E0,1.1060997E0,0E0,0E0,0E0,0E0],"parents":[2147483647,0,0,1,1,2,2,3,3,7,7,9,9,11,11,12,12],"right_children":[2,4,6,8,-1,-1,-1,10,-1,12,-1,14,16,-1,-1,-1,-1],"split_conditions":[1E0,1E0,1E0,1E0,5.3352094E-1,-1.0969337E-2,8.657577E-1,1E0,6.3854057E-1,1E0,2.294968E-2,1E0,1E0,-2.1052496E0,-6.8668264E-1,-8.6626583E-1,5.9587296E-2],"split_indices":[1740,1171,1160,252,0,0,0,1145,0,875,0,1152,656,0,0,0,0],"split_type":[0,0,0,0,0,0,0,0,0,0,0,0,0,0,0,0,0],"sum_hessian":[1.8261513E1,1.4032243E1,4.2292695E0,1.1885145E1,2.1470983E0,1.114205E0,3.1150644E0,1.0758298E1,1.1268467E0,8.072554E0,2.6857448E0,5.250543E0,2.8220103E0,2.0983655E0,3.1521776E0,1.6226306E0,1.1993798E0],"tree_param":{"num_deleted":"0","num_feature":"2048","num_nodes":"17","size_leaf_vector":"1"}},{"base_weights":[4.1505557E-1,5.797548E-1,-5.135463E-1,-0E0,8.0555356E-1,-4.3072698E-1,6.998993E-1,8.674396E-1,-3.1139177E-1],"categories":[],"categories_nodes":[],"categories_segments":[],"categories_sizes":[],"default_left":[0,0,0,0,0,0,0,0,0],"id":16,"left_children":[1,3,-1,5,7,-1,-1,-1,-1],"loss_changes":[3.256269E0,2.4146848E0,0E0,1.7481385E0,2.343934E0,0E0,0E0,0E0,0E0],"parents":[2147483647,0,0,1,1,3,3,4,4],"right_children":[2,4,-1,6,8,-1,-1,-1,-1],"split_conditions":[1E0,1E0,-5.135463E-1,1E0,1E0,-4.3072698E-1,6.998993E-1,8.674396E-1,-3.1139177E-1],"split_indices":[1060,1088,0,1896,984,0,0,0,0],"split_type":[0,0,0,0,0,0,0,0,0],"sum_hessian":[1.9745094E1,1.7285954E1,2.4591396E0,4.6875796E0,1.2598374E1,3.0713716E0,1.6162081E0,1.154239E1,1.0559847E0],"tree_param":{"num_deleted":"0","num_feature":"2048","num_nodes":"9","size_leaf_vector":"1"}},{"base_weights":[1.4380081E-1,2.7359152E-1,-8.4698206E-1,8.2029894E-2,7.571247E-1],"categories":[],"categories_nodes":[],"categories_segments":[],"categories_sizes":[],"default_left":[0,0,0,0,0],"id":17,"left_children":[1,3,-1,-1,-1],"loss_changes":[2.2129414E0,1.2661805E0,0E0,0E0,0E0],"parents":[2147483647,0,0,1,1],"right_children":[2,4,-1,-1,-1],"split_conditions":[1E0,1E0,-8.4698206E-1,8.2029894E-2,7.571247E-1],"split_indices":[1722,1928,0,0,0],"split_type":[0,0,0,0,0],"sum_hessian":[1.7329027E1,1.5878193E1,1.4508346E0,1.2571626E1,3.3065677E0],"tree_param":{"num_deleted":"0","num_feature":"2048","num_nodes":"5","size_leaf_vector":"1"}},{"base_weights":[9.139151E-2,2.305192E-1,-1.0446273E0,-0E0,8.989572E-1,-2.0438991E-1,6.481676E-1],"categories":[],"categories_nodes":[],"categories_segments":[],"categories_sizes":[],"default_left":[0,0,0,0,0,0,0],"id":18,"left_children":[1,3,-1,5,-1,-1,-1],"loss_changes":[2.3021693E0,2.0731626E0,0E0,1.9940388E0,0E0,0E0,0E0],"parents":[2147483647,0,0,1,1,3,3],"right_children":[2,4,-1,6,-1,-1,-1],"split_conditions":[1E0,1E0,-1.0446273E0,1E0,8.989572E-1,-2.0438991E-1,6.481676E-1],"split_indices":[1296,1357,0,352,0,0,0],"split_type":[0,0,0,0,0,0,0],"sum_hessian":[1.508686E1,1.3952127E1,1.1347325E0,1.1176137E1,2.7759898E0,8.176357E0,2.99978E0],"tree_param":{"num_deleted":"0","num_feature":"2048","num_nodes":"7","size_leaf_vector":"1"}},{"base_weights":[2.4537046E-1,5.1864403E-1,-1.5820134E-1,-4.7222328E-1,3.9299703E-1],"categories":[],"categories_nodes":[],"categories_segments":[],"categories_sizes":[],"default_left":[0,0,0,0,0],"id":19,"left_children":[1,-1,3,-1,-1],"loss_changes":[2.432705E0,0E0,1.6043655E0,0E0,0E0],"parents":[2147483647,0,0,2,2],"right_children":[2,-1,4,-1,-1],"split_conditions":[1E0,5.1864403E-1,1E0,-4.7222328E-1,3.9299703E-1],"split_indices":[80,0,1866,0,0],"split_type":[0,0,0,0,0],"sum_hessian":[1.7322477E1,1.0151785E1,7.1706924E0,4.879327E0,2.2913654E0],"tree_param":{"num_deleted":"0","num_feature":"2048","num_nodes":"5","size_leaf_vector":"1"}},{"base_weights":[-5.4512985E-2,-8.0987513E-1,3.9982924E-1,-1.3020808E0,4.0217277E-1,5.602504E-1,-2.6364657E-1,-2.2101505E0,-8.473912E-2,6.5894467E-1,-1.8495794E-2],"categories":[],"categories_nodes":[],"categories_segments":[],"categories_sizes":[],"default_left":[0,0,0,0,0,0,0,0,0,0,0],"id":20,"left_children":[1,3,5,7,-1,9,-1,-1,-1,-1,-1],"loss_changes":[5.875053E0,4.4623384E0,1.2440492E0,5.6753626E0,0E0,1.0729117E0,0E0,0E0,0E0,0E0,0E0],"parents":[2147483647,0,0,1,1,2,2,3,3,5,5],"right_children":[2,4,6,8,-1,10,-1,-1,-1,-1,-1],"split_conditions":[1E0,1E0,1E0,1E0,4.0217277E-1,1E0,-2.6364657E-1,-2.2101505E0,-8.473912E-2,6.5894467E-1,-1.8495794E-2],"split_indices":[80,1722,1722,1019,0,1754,0,0,0,0,0],"split_type":[0,0,0,0,0,0,0,0,0,0,0],"sum_hessian":[1.6350508E1,6.41336E0,9.937148E0,4.8168516E0,1.5965086E0,8.535802E0,1.4013466E0,2.2641258E0,2.5527256E0,7.1949687E0,1.3408328E0],"tree_param":{"num_deleted":"0","num_feature":"2048","num_nodes":"11","size_leaf_vector":"1"}},{"base_weights":[1.9134826E-3,1.5262673E0,-1.0440422E-1,2.237955E-2,-1.1448216E0,-7.232356E-2,8.6479396E-1,-2.2355257E-1,4.926491E-1,-4.3580094E-1,3.7966627E-1,-6.356785E-1,5.888247E-4,-7.881567E-1,-0E0],"categories":[],"categories_nodes":[],"categories_segments":[],"categories_sizes":[],"default_left":[0,0,0,0,0,0,0,0,0,0,0,0,0,0,0],"id":21,"left_children":[1,-1,3,5,-1,7,-1,9,-1,11,-1,13,-1,-1,-1],"loss_changes":[3.6190667E0,0E0,2.7735116E0,1.5764472E0,0E0,1.0550607E0,0E0,1.4816322E0,0E0,9.8990345E-1,0E0,9.739101E-1,0E0,0E0,0E0],"parents":[2147483647,0,0,2,2,3,3,5,5,7,7,9,9,11,11],"right_children":[2,-1,4,6,-1,8,-1,10,-1,12,-1,14,-1,-1,-1],"split_conditions":[1E0,1.5262673E0,1E0,1E0,-1.1448216E0,1E0,8.6479396E-1,1E0,4.926491E-1,1E0,3.7966627E-1,1E0,5.888247E-4,-7.881567E-1,-0E0],"split_indices":[1380,0,1536,1481,0,1034,0,1928,0,1740,0,1236,0,0,0],"split_type":[0,0,0,0,0,0,0,0,0,0,0,0,0,0,0],"sum_hessian":[1.6745235E1,1.0846289E0,1.5660606E1,1.3935287E1,1.7253188E0,1.2388677E1,1.5466101E0,1.0514192E1,1.8744855E0,8.380353E0,2.1338384E0,6.3046994E0,2.0756536E0,4.689969E0,1.6147306E0],"tree_param":{"num_deleted":"0","num_feature":"2048","num_nodes":"15","size_leaf_vector":"1"}},{"base_weights":[6.923808E-1,5.024599E-1,2.1479707E0,5.435213E-1,-4.925899E-1],"categories":[],"categories_nodes":[],"categories_segments":[],"categories_sizes":[],"default_left":[0,0,0,0,0],"id":22,"left_children":[1,3,-1,-1,-1],"loss_changes":[5.17976E0,1.8519411E0,0E0,0E0,0E0],"parents":[2147483647,0,0,1,1],"right_children":[2,4,-1,-1,-1],"split_conditions":[1E0,1E0,2.1479707E0,5.435213E-1,-4.925899E-1],"split_indices":[800,1091,0,0,0],"split_type":[0,0,0,0,0],"sum_hessian":[2.0452707E1,1.873756E1,1.7151463E0,1.763988E1,1.097681E0],"tree_param":{"num_deleted":"0","num_feature":"2048","num_nodes":"5","size_leaf_vector":"1"}},{"base_weights":[2.3516081E-2,-3.3123832E-2,9.573603E-1,-2.9913014E-1,2.8772914E-1,-0E0,-6.5233874E-1],"categories":[],"categories_nodes":[],"categories_segments":[],"categories_sizes":[],"default_left":[0,0,0,0,0,0,0],"id":23,"left_children":[1,3,-1,5,-1,-1,-1],"loss_changes":[1.2964778E0,1.3526694E0,0E0,1.1977402E0,0E0,0E0,0E0],"parents":[2147483647,0,0,1,1,3,3],"right_children":[2,4,-1,6,-1,-1,-1],"split_conditions":[1E0,1E0,9.573603E-1,1E0,2.8772914E-1,-0E0,-6.5233874E-1],"split_indices":[1579,695,0,881,0,0,0],"split_type":[0,0,0,0,0,0,0],"sum_hessian":[1.5417585E1,1.439434E1,1.0232457E0,8.790434E0,5.6039057E0,5.004017E0,3.7864177E0],"tree_param":{"num_deleted":"0","num_feature":"2048","num_nodes":"7","size_leaf_vector":"1"}},{"base_weights":[2.2748211E-1,-3.902093E-2,4.0136445E-1,-3.9067933E-1,4.4953147E-1],"categories":[],"categories_nodes":[],"categories_segments":[],"categories_sizes":[],"default_left":[0,0,0,0,0],"id":24,"left_children":[1,3,-1,-1,-1],"loss_changes":[9.9053246E-1,1.2175511E0,0E0,0E0,0E0],"parents":[2147483647,0,0,1,1],"right_children":[2,4,-1,-1,-1],"split_conditions":[1E0,1E0,4.0136445E-1,-3.9067933E-1,4.4953147E-1],"split_indices":[1199,305,0,0,0],"split_type":[0,0,0,0,0],"sum_hessian":[1.4710492E1,5.7389584E0,8.971534E0,3.7533436E0,1.985615E0],"tree_param":{"num_deleted":"0","num_feature":"2048","num_nodes":"5","size_leaf_vector":"1"}},{"base_weights":[-9.092983E-2,2.745815E-1,-4.3959677E-1,-0E0,7.4278724E-1,-6.2850153E-1,8.772764E-2],"categories":[],"categories_nodes":[],"categories_segments":[],"categories_sizes":[],"default_left":[0,0,0,0,0,0,0],"id":25,"left_children":[1,3,5,-1,-1,-1,-1],"loss_changes":[1.7009518E0,1.048582E0,1.1735954E0,0E0,0E0,0E0,0E0],"parents":[2147483647,0,0,1,1,2,2],"right_children":[2,4,6,-1,-1,-1,-1],"split_conditions":[1E0,1E0,1E0,-0E0,7.4278724E-1,-6.2850153E-1,8.772764E-2],"split_indices":[1088,656,1,0,0,0,0],"split_type":[0,0,0,0,0,0,0],"sum_hessian":[1.253944E1,5.5980873E0,6.941353E0,3.4991956E0,2.098892E0,5.2179713E0,1.7233815E0],"tree_param":{"num_deleted":"0","num_feature":"2048","num_nodes":"7","size_leaf_vector":"1"}},{"base_weights":[2.4214774E-1,-1.294333E-1,4.005271E-1],"categories":[],"categories_nodes":[],"categories_segments":[],"categories_sizes":[],"default_left":[0,0,0],"id":26,"left_children":[1,-1,-1],"loss_changes":[1.0768304E0,0E0,0E0],"parents":[2147483647,0,0],"right_children":[2,-1,-1],"split_conditions":[1E0,-1.294333E-1,4.005271E-1],"split_indices":[1088,0,0],"split_type":[0,0,0],"sum_hessian":[1.2597153E1,3.5928977E0,9.004255E0],"tree_param":{"num_deleted":"0","num_feature":"2048","num_nodes":"3","size_leaf_vector":"1"}},{"base_weights":[3.815744E-2,2.6740456E-1,-4.4529828E-1,-0E0,8.7057394E-1,-0E0,-1.3590525E0],"categories":[],"categories_nodes":[],"categories_segments":[],"categories_sizes":[],"default_left":[0,0,0,0,0,0,0],"id":27,"left_children":[1,3,5,-1,-1,-1,-1],"loss_changes":[1.5225319E0,1.5772041E0,2.2791102E0,0E0,0E0,0E0,0E0],"parents":[2147483647,0,0,1,1,2,2],"right_children":[2,4,6,-1,-1,-1,-1],"split_conditions":[1E0,1E0,1E0,-0E0,8.7057394E-1,-0E0,-1.3590525E0],"split_indices":[650,1896,881,0,0,0,0],"split_type":[0,0,0,0,0,0,0],"sum_hessian":[1.4028569E1,1.0105381E1,3.9231873E0,7.702235E0,2.403146E0,2.6768656E0,1.2463218E0],"tree_param":{"num_deleted":"0","num_feature":"2048","num_nodes":"7","size_leaf_vector":"1"}},{"base_weights":[1.7928413E-1,-5.987531E-2,5.3952885E-1,7.26097E-1,-0E0],"categories":[],"categories_nodes":[],"categories_segments":[],"categories_sizes":[],"default_left":[0,0,0,0,0],"id":28,"left_children":[1,-1,3,-1,-1],"loss_changes":[1.3516668E0,0E0,1.0393878E0,0E0,0E0],"parents":[2147483647,0,0,2,2],"right_children":[2,-1,4,-1,-1],"split_conditions":[1E0,-5.987531E-2,1E0,7.26097E-1,-0E0],"split_indices":[1152,0,1280,0,0],"split_type":[0,0,0,0,0],"sum_hessian":[1.3041359E1,7.2065425E0,5.8348165E0,4.277073E0,1.5577437E0],"tree_param":{"num_deleted":"0","num_feature":"2048","num_nodes":"5","size_leaf_vector":"1"}},{"base_weights":[-3.229237E-2,4.8709255E-2,-1.0145023E0],"categories":[],"categories_nodes":[],"categories_segments":[],"categories_sizes":[],"default_left":[0,0,0],"id":29,"left_children":[1,-1,-1],"loss_changes":[1.4908667E0,0E0,0E0],"parents":[2147483647,0,0],"right_children":[2,-1,-1],"split_conditions":[1E0,4.8709255E-2,-1.0145023E0],"split_indices":[1091,0,0],"split_type":[0,0,0],"sum_hessian":[1.1550107E1,1.0506175E1,1.0439324E0],"tree_param":{"num_deleted":"0","num_feature":"2048","num_nodes":"3","size_leaf_vector":"1"}},{"base_weights":[-1.5412669E-1,-2.7468333E-1,6.159212E-1],"categories":[],"categories_nodes":[],"categories_segments":[],"categories_sizes":[],"default_left":[0,0,0],"id":30,"left_children":[1,-1,-1],"loss_changes":[1.2775205E0,0E0,0E0],"parents":[2147483647,0,0],"right_children":[2,-1,-1],"split_conditions":[1E0,-2.7468333E-1,6.159212E-1],"split_indices":[739,0,0],"split_type":[0,0,0],"sum_hessian":[1.1392453E1,1.016833E1,1.2241229E0],"tree_param":{"num_deleted":"0","num_feature":"2048","num_nodes":"3","size_leaf_vector":"1"}},{"base_weights":[8.8251315E-2],"categories":[],"categories_nodes":[],"categories_segments":[],"categories_sizes":[],"default_left":[0],"id":31,"left_children":[-1],"loss_changes":[0E0],"parents":[2147483647],"right_children":[-1],"split_conditions":[8.088123E-2],"split_indices":[0],"split_type":[0],"sum_hessian":[1.2546014E1],"tree_param":{"num_deleted":"0","num_feature":"2048","num_nodes":"1","size_leaf_vector":"1"}},{"base_weights":[-0E0,-1.1397075E-1,7.509232E-1,-2.9442734E-1,3.729648E-1,-4.5301938E-1,3.2006398E-1],"categories":[],"categories_nodes":[],"categories_segments":[],"categories_sizes":[],"default_left":[0,0,0,0,0,0,0],"id":32,"left_children":[1,3,-1,5,-1,-1,-1],"loss_changes":[1.2395473E0,1.088682E0,0E0,1.2972713E0,0E0,0E0,0E0],"parents":[2147483647,0,0,1,1,3,3],"right_children":[2,4,-1,6,-1,-1,-1],"split_conditions":[1E0,1E0,7.509232E-1,1E0,3.729648E-1,-4.5301938E-1,3.2006398E-1],"split_indices":[14,441,0,1039,0,0,0],"split_type":[0,0,0,0,0,0,0],"sum_hessian":[1.3142439E1,1.1683311E1,1.4591274E0,9.27842E0,2.4048915E0,7.565254E0,1.7131656E0],"tree_param":{"num_deleted":"0","num_feature":"2048","num_nodes":"7","size_leaf_vector":"1"}},{"base_weights":[2.674062E-1],"categories":[],"categories_nodes":[],"categories_segments":[],"categories_sizes":[],"default_left":[0],"id":33,"left_children":[-1],"loss_changes":[0E0],"parents":[2147483647],"right_children":[-1],"split_conditions":[2.4507444E-1],"split_indices":[0],"split_type":[0],"sum_hessian":[1.3855967E1],"tree_param":{"num_deleted":"0","num_feature":"2048","num_nodes":"1","size_leaf_vector":"1"}},{"base_weights":[4.3652784E-2],"categories":[],"categories_nodes":[],"categories_segments":[],"categories_sizes":[],"default_left":[0],"id":34,"left_children":[-1],"loss_changes":[0E0],"parents":[2147483647],"right_children":[-1],"split_conditions":[4.000723E-2],"split_indices":[0],"split_type":[0],"sum_hessian":[1.2603788E1],"tree_param":{"num_deleted":"0","num_feature":"2048","num_nodes":"1","size_leaf_vector":"1"}},{"base_weights":[-0E0,1.4739992E-1,-1.0022519E0,-0E0,5.5833274E-1],"categories":[],"categories_nodes":[],"categories_segments":[],"categories_sizes":[],"default_left":[0,0,0,0,0],"id":35,"left_children":[1,3,-1,-1,-1],"loss_changes":[1.7760336E0,9.699179E-1,0E0,0E0,0E0],"parents":[2147483647,0,0,1,1],"right_children":[2,4,-1,-1,-1],"split_conditions":[1E0,1E0,-1.0022519E0,-0E0,5.5833274E-1],"split_indices":[249,1683,0,0,0],"split_type":[0,0,0,0,0],"sum_hessian":[1.2838368E1,1.172737E1,1.1109982E0,8.576357E0,3.1510139E0],"tree_param":{"num_deleted":"0","num_feature":"2048","num_nodes":"5","size_leaf_vector":"1"}},{"base_weights":[-1.4596511E-2,8.898033E-2,-6.970675E-1],"categories":[],"categories_nodes":[],"categories_segments":[],"categories_sizes":[],"default_left":[0,0,0],"id":36,"left_children":[1,-1,-1],"loss_changes":[1.2012593E0,0E0,0E0],"parents":[2147483647,0,0],"right_children":[2,-1,-1],"split_conditions":[1E0,8.898033E-2,-6.970675E-1],"split_indices":[1039,0,0],"split_type":[0,0,0],"sum_hessian":[1.1047662E1,9.278921E0,1.7687408E0],"tree_param":{"num_deleted":"0","num_feature":"2048","num_nodes":"3","size_leaf_vector":"1"}},{"base_weights":[-1.061989E-1,3.5892393E-2,-7.104444E-1],"categories":[],"categories_nodes":[],"categories_segments":[],"categories_sizes":[],"default_left":[0,0,0],"id":37,"left_children":[1,-1,-1],"loss_changes":[1.4240377E0,0E0,0E0],"parents":[2147483647,0,0],"right_children":[2,-1,-1],"split_conditions":[1E0,3.5892393E-2,-7.104444E-1],"split_indices":[1683,0,0],"split_type":[0,0,0],"sum_hessian":[1.1516532E1,9.109408E0,2.407124E0],"tree_param":{"num_deleted":"0","num_feature":"2048","num_nodes":"3","size_leaf_vector":"1"}},{"base_weights":[1.1485438E-1,4.3898824E-1,-1.4623626E-1,5.99461E-1,-8.1362054E-2],"categories":[],"categories_nodes":[],"categories_segments":[],"categories_sizes":[],"default_left":[0,0,0,0,0],"id":38,"left_children":[1,3,-1,-1,-1],"loss_changes":[1.3004073E0,9.965626E-1,0E0,0E0,0E0],"parents":[2147483647,0,0,1,1],"right_children":[2,4,-1,-1,-1],"split_conditions":[1E0,1E0,-1.4623626E-1,5.99461E-1,-8.1362054E-2],"split_indices":[1199,1325,0,0,0],"split_type":[0,0,0,0,0],"sum_hessian":[1.3125341E1,6.618578E0,6.506764E0,5.1945677E0,1.42401E0],"tree_param":{"num_deleted":"0","num_feature":"2048","num_nodes":"5","size_leaf_vector":"1"}},{"base_weights":[1.373585E-1,-0E0,6.434454E-1],"categories":[],"categories_nodes":[],"categories_segments":[],"categories_sizes":[],"default_left":[0,0,0],"id":39,"left_children":[1,-1,-1],"loss_changes":[1.1391416E0,0E0,0E0],"parents":[2147483647,0,0],"right_children":[2,-1,-1],"split_conditions":[1E0,-0E0,6.434454E-1],"split_indices":[1236,0,0],"split_type":[0,0,0],"sum_hessian":[1.2755832E1,1.0108635E1,2.647197E0],"tree_param":{"num_deleted":"0","num_feature":"2048","num_nodes":"3","size_leaf_vector":"1"}},{"base_weights":[-2.6852602E-2],"categories":[],"categories_nodes":[],"categories_segments":[],"categories_sizes":[],"default_left":[0],"id":40,"left_children":[-1],"loss_changes":[0E0],"parents":[2147483647],"right_children":[-1],"split_conditions":[-2.4610074E-2],"split_indices":[0],"split_type":[0],"sum_hessian":[1.0235859E1],"tree_param":{"num_deleted":"0","num_feature":"2048","num_nodes":"1","size_leaf_vector":"1"}},{"base_weights":[-1.07976675E-1,1.2299935E-1,-5.3964263E-1,-9.438072E-1,-0E0],"categories":[],"categories_nodes":[],"categories_segments":[],"categories_sizes":[],"default_left":[0,0,0,0,0],"id":41,"left_children":[1,-1,3,-1,-1],"loss_changes":[1.2788291E0,0E0,1.5528507E0,0E0,0E0],"parents":[2147483647,0,0,2,2],"right_children":[2,-1,4,-1,-1],"split_conditions":[1E0,1.2299935E-1,1E0,-9.438072E-1,-0E0],"split_indices":[935,0,695,0,0],"split_type":[0,0,0,0,0],"sum_hessian":[1.0468797E1,6.203599E0,4.265198E0,2.520747E0,1.7444512E0],"tree_param":{"num_deleted":"0","num_feature":"2048","num_nodes":"5","size_leaf_vector":"1"}},{"base_weights":[-1.5169876E-2,-4.0937817E-1,4.023023E-1,-6.783631E-1,2.345223E-2,-8.155993E-1,-0E0],"categories":[],"categories_nodes":[],"categories_segments":[],"categories_sizes":[],"default_left":[0,0,0,0,0,0,0],"id":42,"left_children":[1,3,-1,5,-1,-1,-1],"loss_changes":[2.4875083E0,1.1816661E0,0E0,9.770849E-1,0E0,0E0,0E0],"parents":[2147483647,0,0,1,1,3,3],"right_children":[2,4,-1,6,-1,-1,-1],"split_conditions":[1E0,1E0,4.023023E-1,1E0,2.345223E-2,-8.155993E-1,-0E0],"split_indices":[935,1,0,1896,0,0,0],"split_type":[0,0,0,0,0,0,0],"sum_hessian":[1.3641812E1,7.7657847E0,5.876028E0,5.291753E0,2.474032E0,4.2423525E0,1.0494003E0],"tree_param":{"num_deleted":"0","num_feature":"2048","num_nodes":"7","size_leaf_vector":"1"}},{"base_weights":[-0E0],"categories":[],"categories_nodes":[],"categories_segments":[],"categories_sizes":[],"default_left":[0],"id":43,"left_children":[-1],"loss_changes":[0E0],"parents":[2147483647],"right_children":[-1],"split_conditions":[-0E0],"split_indices":[0],"split_type":[0],"sum_hessian":[1.1726922E1],"tree_param":{"num_deleted":"0","num_feature":"2048","num_nodes":"1","size_leaf_vector":"1"}},{"base_weights":[6.347685E-2],"categories":[],"categories_nodes":[],"categories_segments":[],"categories_sizes":[],"default_left":[0],"id":44,"left_children":[-1],"loss_changes":[0E0],"parents":[2147483647],"right_children":[-1],"split_conditions":[5.8175743E-2],"split_indices":[0],"split_type":[0],"sum_hessian":[1.2353515E1],"tree_param":{"num_deleted":"0","num_feature":"2048","num_nodes":"1","size_leaf_vector":"1"}},{"base_weights":[1.2995593E-1,3.5378245E-1,-1.5882987E-1],"categories":[],"categories_nodes":[],"categories_segments":[],"categories_sizes":[],"default_left":[0,0,0],"id":45,"left_children":[1,-1,-1],"loss_changes":[1.0467541E0,0E0,0E0],"parents":[2147483647,0,0],"right_children":[2,-1,-1],"split_conditions":[1E0,3.5378245E-1,-1.5882987E-1],"split_indices":[935,0,0],"split_type":[0,0,0],"sum_hessian":[1.2128629E1,7.2423244E0,4.886305E0],"tree_param":{"num_deleted":"0","num_feature":"2048","num_nodes":"3","size_leaf_vector":"1"}},{"base_weights":[-0E0,-1.7066164E-1,4.3093535E-1],"categories":[],"categories_nodes":[],"categories_segments":[],"categories_sizes":[],"default_left":[0,0,0],"id":46,"left_children":[1,-1,-1],"loss_changes":[9.536048E-1,0E0,0E0],"parents":[2147483647,0,0],"right_children":[2,-1,-1],"split_conditions":[1E0,-1.7066164E-1,4.3093535E-1],"split_indices":[1145,0,0],"split_type":[0,0,0],"sum_hessian":[1.1342083E1,8.553343E0,2.7887406E0],"tree_param":{"num_deleted":"0","num_feature":"2048","num_nodes":"3","size_leaf_vector":"1"}},{"base_weights":[-1.8307944E-1],"categories":[],"categories_nodes":[],"categories_segments":[],"categories_sizes":[],"default_left":[0],"id":47,"left_children":[-1],"loss_changes":[0E0],"parents":[2147483647],"right_children":[-1],"split_conditions":[-1.6779001E-1],"split_indices":[0],"split_type":[0],"sum_hessian":[1.0261944E1],"tree_param":{"num_deleted":"0","num_feature":"2048","num_nodes":"1","size_leaf_vector":"1"}},{"base_weights":[1.4475992E-1,2.3525861E-1,-6.7072564E-1],"categories":[],"categories_nodes":[],"categories_segments":[],"categories_sizes":[],"default_left":[0,0,0],"id":48,"left_children":[1,-1,-1],"loss_changes":[1.162518E0,0E0,0E0],"parents":[2147483647,0,0],"right_children":[2,-1,-1],"split_conditions":[1E0,2.3525861E-1,-6.7072564E-1],"split_indices":[896,0,0],"split_type":[0,0,0],"sum_hessian":[1.3254596E1,1.2243152E1,1.0114439E0],"tree_param":{"num_deleted":"0","num_feature":"2048","num_nodes":"3","size_leaf_vector":"1"}},{"base_weights":[-2.0937175E-1,-3.583674E-1,4.334035E-1],"categories":[],"categories_nodes":[],"categories_segments":[],"categories_sizes":[],"default_left":[0,0,0],"id":49,"left_children":[1,-1,-1],"loss_changes":[1.2197038E0,0E0,0E0],"parents":[2147483647,0,0],"right_children":[2,-1,-1],"split_conditions":[1E0,-3.583674E-1,4.334035E-1],"split_indices":[1647,0,0],"split_type":[0,0,0],"sum_hessian":[9.702232E0,8.162059E0,1.5401738E0],"tree_param":{"num_deleted":"0","num_feature":"2048","num_nodes":"3","size_leaf_vector":"1"}},{"base_weights":[-0E0],"categories":[],"categories_nodes":[],"categories_segments":[],"categories_sizes":[],"default_left":[0],"id":50,"left_children":[-1],"loss_changes":[0E0],"parents":[2147483647],"right_children":[-1],"split_conditions":[-0E0],"split_indices":[0],"split_type":[0],"sum_hessian":[1.0294794E1],"tree_param":{"num_deleted":"0","num_feature":"2048","num_nodes":"1","size_leaf_vector":"1"}},{"base_weights":[4.4467352E-2],"categories":[],"categories_nodes":[],"categories_segments":[],"categories_sizes":[],"default_left":[0],"id":51,"left_children":[-1],"loss_changes":[0E0],"parents":[2147483647],"right_children":[-1],"split_conditions":[4.0753774E-2],"split_indices":[0],"split_type":[0],"sum_hessian":[1.1609709E1],"tree_param":{"num_deleted":"0","num_feature":"2048","num_nodes":"1","size_leaf_vector":"1"}},{"base_weights":[2.2351593E-1],"categories":[],"categories_nodes":[],"categories_segments":[],"categories_sizes":[],"default_left":[0],"id":52,"left_children":[-1],"loss_changes":[0E0],"parents":[2147483647],"right_children":[-1],"split_conditions":[2.0484956E-1],"split_indices":[0],"split_type":[0],"sum_hessian":[1.2688791E1],"tree_param":{"num_deleted":"0","num_feature":"2048","num_nodes":"1","size_leaf_vector":"1"}},{"base_weights":[-0E0],"categories":[],"categories_nodes":[],"categories_segments":[],"categories_sizes":[],"default_left":[0],"id":53,"left_children":[-1],"loss_changes":[0E0],"parents":[2147483647],"right_children":[-1],"split_conditions":[-0E0],"split_indices":[0],"split_type":[0],"sum_hessian":[1.1614564E1],"tree_param":{"num_deleted":"0","num_feature":"2048","num_nodes":"1","size_leaf_vector":"1"}},{"base_weights":[4.9230224E-3],"categories":[],"categories_nodes":[],"categories_segments":[],"categories_sizes":[],"default_left":[0],"id":54,"left_children":[-1],"loss_changes":[0E0],"parents":[2147483647],"right_children":[-1],"split_conditions":[4.5118886E-3],"split_indices":[0],"split_type":[0],"sum_hessian":[1.1760545E1],"tree_param":{"num_deleted":"0","num_feature":"2048","num_nodes":"1","size_leaf_vector":"1"}},{"base_weights":[1.7529858E-2],"categories":[],"categories_nodes":[],"categories_segments":[],"categories_sizes":[],"default_left":[0],"id":55,"left_children":[-1],"loss_changes":[0E0],"parents":[2147483647],"right_children":[-1],"split_conditions":[1.6065896E-2],"split_indices":[0],"split_type":[0],"sum_hessian":[1.2283181E1],"tree_param":{"num_deleted":"0","num_feature":"2048","num_nodes":"1","size_leaf_vector":"1"}},{"base_weights":[-1.2152252E-1],"categories":[],"categories_nodes":[],"categories_segments":[],"categories_sizes":[],"default_left":[0],"id":56,"left_children":[-1],"loss_changes":[0E0],"parents":[2147483647],"right_children":[-1],"split_conditions":[-1.1137388E-1],"split_indices":[0],"split_type":[0],"sum_hessian":[9.99046E0],"tree_param":{"num_deleted":"0","num_feature":"2048","num_nodes":"1","size_leaf_vector":"1"}},{"base_weights":[5.989017E-3],"categories":[],"categories_nodes":[],"categories_segments":[],"categories_sizes":[],"default_left":[0],"id":57,"left_children":[-1],"loss_changes":[0E0],"parents":[2147483647],"right_children":[-1],"split_conditions":[5.4888595E-3],"split_indices":[0],"split_type":[0],"sum_hessian":[1.0776862E1],"tree_param":{"num_deleted":"0","num_feature":"2048","num_nodes":"1","size_leaf_vector":"1"}},{"base_weights":[1.7699192E-1],"categories":[],"categories_nodes":[],"categories_segments":[],"categories_sizes":[],"default_left":[0],"id":58,"left_children":[-1],"loss_changes":[0E0],"parents":[2147483647],"right_children":[-1],"split_conditions":[1.622109E-1],"split_indices":[0],"split_type":[0],"sum_hessian":[1.1847611E1],"tree_param":{"num_deleted":"0","num_feature":"2048","num_nodes":"1","size_leaf_vector":"1"}},{"base_weights":[-5.706751E-2],"categories":[],"categories_nodes":[],"categories_segments":[],"categories_sizes":[],"default_left":[0],"id":59,"left_children":[-1],"loss_changes":[0E0],"parents":[2147483647],"right_children":[-1],"split_conditions":[-5.230166E-2],"split_indices":[0],"split_type":[0],"sum_hessian":[1.0698908E1],"tree_param":{"num_deleted":"0","num_feature":"2048","num_nodes":"1","size_leaf_vector":"1"}},{"base_weights":[-1.0829716E-1,1.4123066E-1,-6.089103E-1],"categories":[],"categories_nodes":[],"categories_segments":[],"categories_sizes":[],"default_left":[0,0,0],"id":60,"left_children":[1,-1,-1],"loss_changes":[1.7621477E0,0E0,0E0],"parents":[2147483647,0,0],"right_children":[2,-1,-1],"split_conditions":[1E0,1.4123066E-1,-6.089103E-1],"split_indices":[1866,0,0],"split_type":[0,0,0],"sum_hessian":[1.0458015E1,6.711694E0,3.7463214E0],"tree_param":{"num_deleted":"0","num_feature":"2048","num_nodes":"3","size_leaf_vector":"1"}},{"base_weights":[-0E0],"categories":[],"categories_nodes":[],"categories_segments":[],"categories_sizes":[],"default_left":[0],"id":61,"left_children":[-1],"loss_changes":[0E0],"parents":[2147483647],"right_children":[-1],"split_conditions":[-0E0],"split_indices":[0],"split_type":[0],"sum_hessian":[9.902054E0],"tree_param":{"num_deleted":"0","num_feature":"2048","num_nodes":"1","size_leaf_vector":"1"}},{"base_weights":[1.6072123E-1,-5.4721773E-2,4.521627E-1],"categories":[],"categories_nodes":[],"categories_segments":[],"categories_sizes":[],"default_left":[0,0,0],"id":62,"left_children":[1,-1,-1],"loss_changes":[9.8972845E-1,0E0,0E0],"parents":[2147483647,0,0],"right_children":[2,-1,-1],"split_conditions":[1E0,-5.4721773E-2,4.521627E-1],"split_indices":[305,0,0],"split_type":[0,0,0],"sum_hessian":[1.09946995E1,5.9932594E0,5.00144E0],"tree_param":{"num_deleted":"0","num_feature":"2048","num_nodes":"3","size_leaf_vector":"1"}},{"base_weights":[1.1653262E-1],"categories":[],"categories_nodes":[],"categories_segments":[],"categories_sizes":[],"default_left":[0],"id":63,"left_children":[-1],"loss_changes":[0E0],"parents":[2147483647],"right_children":[-1],"split_conditions":[1.0680069E-1],"split_indices":[0],"split_type":[0],"sum_hessian":[1.0212966E1],"tree_param":{"num_deleted":"0","num_feature":"2048","num_nodes":"1","size_leaf_vector":"1"}},{"base_weights":[-0E0],"categories":[],"categories_nodes":[],"categories_segments":[],"categories_sizes":[],"default_left":[0],"id":64,"left_children":[-1],"loss_changes":[0E0],"parents":[2147483647],"right_children":[-1],"split_conditions":[-0E0],"split_indices":[0],"split_type":[0],"sum_hessian":[1.065169E1],"tree_param":{"num_deleted":"0","num_feature":"2048","num_nodes":"1","size_leaf_vector":"1"}}]},"name":"gbtree"},"learner_model_param":{"base_score":"5E-1","boost_from_average":"0","num_class":"0","num_feature":"2048","num_target":"1"},"objective":{"name":"binary:logistic","reg_loss_param":{"scale_pos_weight":"4.3980608"}}},"version":[2,0,3]}