{"learner":{"attributes":{"best_iteration":"16","best_score":"0.4340835398670965","scikit_learn":"{\"_estimator_type\": \"classifier\"}"},"feature_names":[],"feature_types":[],"gradient_booster":{"model":{"gbtree_model_param":{"num_parallel_tree":"1","num_trees":"32"},"iteration_indptr":[0,1,2,3,4,5,6,7,8,9,10,11,12,13,14,15,16,17,18,19,20,21,22,23,24,25,26,27,28,29,30,31,32],"tree_info":[0,0,0,0,0,0,0,0,0,0,0,0,0,0,0,0,0,0,0,0,0,0,0,0,0,0,0,0,0,0,0,0],"trees":[{"base_weights":[1.9815762E0,1.9822127E0,-9.081423E-2,1.9828494E0,-9.081423E-2,1.9834863E0,-9.081423E-2,1.9865503E0,1.6629642E0,1.9878008E0,1.5744659E0,1.7984291E0,-1.1648768E-1,1.487482E-1,1.7057658E0,-1.1332115E-1,1.4475353E-1,1.4521268E-1,1.4942101E0,1.471055E-1,-1.21406645E-1,-1.1914494E-1,1.4475353E-1],"categories":[],"categories_nodes":[],"categories_segments":[],"categories_sizes":[],"default_left":[0,0,0,0,0,0,0,0,0,0,0,0,0,0,0,0,0,0,0,0,0,0,0],"id":0,"left_children":[1,3,-1,5,-1,7,-1,9,11,13,15,17,-1,-1,19,-1,-1,-1,21,-1,-1,-1,-1],"loss_changes":[1.4228516E1,1.4232422E1,0E0,1.42421875E1,0E0,3.9628906E0,0E0,1.1230469E0,2.9245209E1,7.441406E-1,2.6132126E1,7.371216E-1,0E0,0E0,3.828933E1,0E0,0E0,0E0,3.2278667E1,0E0,0E0,0E0,0E0],"parents":[2147483647,0,0,1,1,3,3,5,5,7,7,8,8,9,9,10,10,11,11,14,14,18,18],"right_children":[2,4,-1,6,-1,8,-1,10,12,14,16,18,-1,-1,20,-1,-1,-1,22,-1,-1,-1,-1],"split_conditions":[1E0,1E0,-9.081423E-2,1E0,-9.081423E-2,1E0,-9.081423E-2,1E0,1E0,1E0,1E0,1E0,-1.1648768E-1,1.487482E-1,1E0,-1.1332115E-1,1.4475353E-1,1.4521268E-1,1E0,1.471055E-1,-1.21406645E-1,-1.1914494E-1,1.4475353E-1],"split_indices":[1071,677,0,1286,0,265,0,638,833,1312,2045,140,0,0,80,0,0,0,1121,0,0,0,0],"split_type":[0,0,0,0,0,0,0,0,0,0,0,0,0,0,0,0,0,0,0,0,0,0,0],"sum_hessian":[6.255609E3,6.254609E3,1E0,6.253609E3,1E0,6.252609E3,1E0,6.190128E3,6.2481007E1,6.168968E3,2.1160336E1,6.0231007E1,2.25E0,6.127897E3,4.107067E1,2E0,1.9160336E1,3.857067E1,2.1660336E1,3.832067E1,2.75E0,2.5E0,1.9160336E1],"tree_param":{"num_deleted":"0","num_feature":"2048","num_nodes":"23","size_leaf_vector":"1"}},{"base_weights":[1.8470973E0,1.3818435E-1,1.4562265E0,-1.10629246E-1,1.3471414E-1],"categories":[],"categories_nodes":[],"categories_segments":[],"categories_sizes":[],"default_left":[0,0,0,0,0],"id":1,"left_children":[1,-1,3,-1,-1],"loss_changes":[1.0703125E0,0E0,2.3609821E1,0E0,0E0],"parents":[2147483647,0,0,2,2],"right_children":[2,-1,4,-1,-1],"split_conditions":[1E0,1.3818435E-1,1E0,-1.10629246E-1,1.3471414E-1],"split_indices":[513,0,536,0,0],"split_type":[0,0,0,0,0],"sum_hessian":[6.50511E3,6.484063E3,2.1046858E1,1.9921181E0,1.9054739E1],"tree_param":{"num_deleted":"0","num_feature":"2048","num_nodes":"5","size_leaf_vector":"1"}},{"base_weights":[1.7387701E0,1.3014083E-1,-1.2987328E-1],"categories":[],"categories_nodes":[],"categories_segments":[],"categories_sizes":[],"default_left":[0,0,0],"id":2,"left_children":[1,-1,-1],"loss_changes":[4.483203E1,0E0,0E0],"parents":[2147483647,0,0],"right_children":[2,-1,-1],"split_conditions":[1E0,1.3014083E-1,-1.2987328E-1],"split_indices":[1856,0,0],"split_type":[0,0,0],"sum_hessian":[6.6153467E3,6.6121074E3,3.2390542E0],"tree_param":{"num_deleted":"0","num_feature":"2048","num_nodes":"3","size_leaf_vector":"1"}},{"base_weights":[1.6454183E0,1.6466979E0,-1.2194495E-1,1.6474411E0,-1.1293175E-1,1.6490096E0,1.1305139E0,1.6504478E0,1.1667433E0,-1.3131604E-1,1.19950786E-1,1.2347569E-1,1.2736782E0,-1.3123338E-1,1.2004283E-1,-1.3133112E-1,1.19871005E-1],"categories":[],"categories_nodes":[],"categories_segments":[],"categories_sizes":[],"default_left":[0,0,0,0,0,0,0,0,0,0,0,0,0,0,0,0,0],"id":3,"left_children":[1,3,-1,5,-1,7,9,11,13,-1,-1,-1,15,-1,-1,-1,-1],"loss_changes":[2.890625E1,1.678125E1,0E0,4.0097656E0,0E0,3.1933594E0,3.1381664E1,1.1289062E0,2.9202122E1,0E0,0E0,0E0,2.2336159E1,0E0,0E0,0E0,0E0],"parents":[2147483647,0,0,1,1,3,3,5,5,6,6,7,7,8,8,12,12],"right_children":[2,4,-1,6,-1,8,10,12,14,-1,-1,-1,16,-1,-1,-1,-1],"split_conditions":[1E0,1E0,-1.2194495E-1,1E0,-1.1293175E-1,1E0,1E0,1E0,1E0,-1.3131604E-1,1.19950786E-1,1.2347569E-1,1E0,-1.3123338E-1,1.2004283E-1,-1.3133112E-1,1.19871005E-1],"split_indices":[1220,376,0,1312,0,265,534,100,994,0,0,0,554,0,0,0,0],"split_type":[0,0,0,0,0,0,0,0,0,0,0,0,0,0,0,0,0],"sum_hessian":[6.5044897E3,6.502267E3,2.2224493E0,6.5010425E3,1.2248387E0,6.479959E3,2.1083479E1,6.459127E3,2.0831942E1,2.7266207E0,1.835686E1,6.439082E3,2.0044863E1,2.46798E0,1.8363962E1,1.6941873E0,1.8350676E1],"tree_param":{"num_deleted":"0","num_feature":"2048","num_nodes":"17","size_leaf_vector":"1"}},{"base_weights":[1.5698937E0,1.5719807E0,1.2561518E0,1.1762173E-1,1.1649173E0,1.5422778E0,-1.2772407E-1,-1.2733853E-1,1.1437446E-1,1.1572227E0,1.4174885E-1,-1.1245206E-1,1.1452034E-1],"categories":[],"categories_nodes":[],"categories_segments":[],"categories_sizes":[],"default_left":[0,0,0,0,0,0,0,0,0,0,0,0,0],"id":4,"left_children":[1,3,5,-1,7,9,-1,-1,-1,11,-1,-1,-1],"loss_changes":[2.6484375E0,1.7441406E0,3.8355927E1,0E0,2.2947838E1,3.9513855E0,0E0,0E0,0E0,2.2039211E1,0E0,0E0,0E0],"parents":[2147483647,0,0,1,1,2,2,4,4,5,5,9,9],"right_children":[2,4,6,-1,8,10,-1,-1,-1,12,-1,-1,-1],"split_conditions":[1E0,1E0,1E0,1.1762173E-1,1E0,1E0,-1.2772407E-1,-1.2733853E-1,1.1437446E-1,1E0,1.4174885E-1,-1.1245206E-1,1.1452034E-1],"split_indices":[265,100,1088,0,554,1157,0,0,0,29,0,0,0],"split_type":[0,0,0,0,0,0,0,0,0,0,0,0,0],"sum_hessian":[6.0771997E3,6.034471E3,4.2728546E1,6.014658E3,1.981278E1,3.9247944E1,3.480604E0,1.9697237E0,1.7843058E1,2.0096186E1,1.9151758E1,2.2374296E0,1.7858755E1],"tree_param":{"num_deleted":"0","num_feature":"2048","num_nodes":"13","size_leaf_vector":"1"}},{"base_weights":[1.5041612E0,1.505427E0,-1.19486034E-1,1.5062476E0,-1.13210626E-1,1.12740986E-1,1.2660705E0,-1.2288421E-1,1.62752E0,9.6651345E-2,1.4098752E-1],"categories":[],"categories_nodes":[],"categories_segments":[],"categories_sizes":[],"default_left":[0,0,0,0,0,0,0,0,0,0,0],"id":5,"left_children":[1,3,-1,5,-1,-1,7,-1,9,-1,-1],"loss_changes":[2.3793945E1,1.54765625E1,0E0,9.892578E-1,0E0,0E0,4.7057144E1,0E0,1.7193604E0,0E0,0E0],"parents":[2147483647,0,0,1,1,3,3,6,6,8,8],"right_children":[2,4,-1,6,-1,-1,8,-1,10,-1,-1],"split_conditions":[1E0,1E0,-1.19486034E-1,1E0,-1.13210626E-1,1.12740986E-1,1E0,-1.2288421E-1,1E0,9.6651345E-2,1.4098752E-1],"split_indices":[236,376,0,265,0,0,1970,0,1410,0,0],"split_type":[0,0,0,0,0,0,0,0,0,0,0],"sum_hessian":[5.6867686E3,5.6847773E3,1.9912558E0,5.683553E3,1.2241142E0,5.640966E3,4.2587334E1,4.4531555E0,3.813418E1,1.8273474E1,1.9860706E1],"tree_param":{"num_deleted":"0","num_feature":"2048","num_nodes":"11","size_leaf_vector":"1"}},{"base_weights":[1.4531051E0,1.4547305E0,-1.3891824E-1,1.4555466E0,-1.1444243E-1,1.4522939E0,1.302847E-1,1.0865404E-1,1.1177685E0,-1.2009644E-1,1.0527798E-1],"categories":[],"categories_nodes":[],"categories_segments":[],"categories_sizes":[],"default_left":[0,0,0,0,0,0,0,0,0,0,0],"id":6,"left_children":[1,3,-1,5,-1,7,-1,-1,9,-1,-1],"loss_changes":[3.184082E1,1.5024414E1,0E0,3.5498047E0,0E0,6.7285156E-1,0E0,0E0,1.6108324E1,0E0,0E0],"parents":[2147483647,0,0,1,1,3,3,5,5,8,8],"right_children":[2,4,-1,6,-1,8,-1,-1,10,-1,-1],"split_conditions":[1E0,1E0,-1.3891824E-1,1E0,-1.1444243E-1,1E0,1.302847E-1,1.0865404E-1,1E0,-1.2009644E-1,1.0527798E-1],"split_indices":[638,1856,0,1580,0,1489,0,0,1039,0,0],"split_type":[0,0,0,0,0,0,0,0,0,0,0],"sum_hessian":[5.613007E3,5.610608E3,2.3990815E0,5.609402E3,1.2058977E0,5.5503516E3,5.9050472E1,5.5323228E3,1.8028957E1,1.4554455E0,1.6573511E1],"tree_param":{"num_deleted":"0","num_feature":"2048","num_nodes":"11","size_leaf_vector":"1"}},{"base_weights":[1.4079133E0,1.4049804E0,1.3444479E-1,1.4062328E0,9.882589E-1,1.0521222E-1,1.0577942E0,-1.1954592E-1,1.0167835E-1,-1.298323E-1,1.0167835E-1],"categories":[],"categories_nodes":[],"categories_segments":[],"categories_sizes":[],"default_left":[0,0,0,0,0,0,0,0,0,0,0],"id":7,"left_children":[1,3,-1,5,7,-1,9,-1,-1,-1,-1],"loss_changes":[4.5908203E0,1.8857422E0,0E0,8.4277344E-1,1.907394E1,0E0,1.6519266E1,0E0,0E0,0E0,0E0],"parents":[2147483647,0,0,1,1,3,3,4,4,6,6],"right_children":[2,4,-1,6,8,-1,10,-1,-1,-1,-1],"split_conditions":[1E0,1E0,1.3444479E-1,1E0,1E0,1.0521222E-1,1E0,-1.1954592E-1,1.0167835E-1,-1.298323E-1,1.0167835E-1],"split_indices":[916,738,0,227,9,0,1617,0,0,0,0],"split_type":[0,0,0,0,0,0,0,0,0,0,0],"sum_hessian":[5.4806846E3,5.4427017E3,3.798243E1,5.4248413E3,1.7860424E1,5.407568E3,1.7273571E1,1.9756031E0,1.588482E1,1.388751E0,1.588482E1],"tree_param":{"num_deleted":"0","num_feature":"2048","num_nodes":"11","size_leaf_vector":"1"}},{"base_weights":[1.3639696E0,1.3613057E0,1.2674172E-1,1.3632494E0,1.0440284E0,1.3644099E0,9.813328E-1,-1.5880159E-1,1.0056253E-1,1.3629403E0,1.2684005E-1,9.3887724E-2,-1.0198424E-1,1.0196819E-1,1.0515331E0,-1.2019357E-1,9.851435E-2],"categories":[],"categories_nodes":[],"categories_segments":[],"categories_sizes":[],"default_left":[0,0,0,0,0,0,0,0,0,0,0,0,0,0,0,0,0],"id":8,"left_children":[1,3,-1,5,7,9,11,-1,-1,13,-1,-1,-1,-1,15,-1,-1],"loss_changes":[2.9414062E0,2.1357422E0,0E0,1.2998047E0,3.362563E1,8.8964844E-1,1.228676E1,0E0,0E0,3.9453125E-1,0E0,0E0,0E0,0E0,1.3289534E1,0E0,0E0],"parents":[2147483647,0,0,1,1,3,3,4,4,5,5,6,6,9,9,14,14],"right_children":[2,4,-1,6,8,10,12,-1,-1,14,-1,-1,-1,-1,16,-1,-1],"split_conditions":[1E0,1E0,1.2674172E-1,1E0,1E0,1E0,1E0,-1.5880159E-1,1.0056253E-1,1E0,1.2684005E-1,9.3887724E-2,-1.0198424E-1,1.0196819E-1,1E0,-1.2019357E-1,9.851435E-2],"split_indices":[228,1182,0,1796,1017,1129,8,0,0,491,0,0,0,0,1017,0,0],"split_type":[0,0,0,0,0,0,0,0,0,0,0,0,0,0,0,0,0],"sum_hessian":[5.0839473E3,5.0466084E3,3.7338898E1,5.013741E3,3.286723E1,4.9968726E3,1.6868502E1,2.518667E0,3.0348562E1,4.9780894E3,1.8783176E1,1.5372272E1,1.4962301E0,4.961721E3,1.6368393E1,1.1941113E0,1.5174281E1],"tree_param":{"num_deleted":"0","num_feature":"2048","num_nodes":"17","size_leaf_vector":"1"}},{"base_weights":[1.3214148E0,1.3226702E0,-1.7879389E-1,1.3239665E0,-1.2363684E-1,1.3274784E0,4.6458113E-1,1.325053E0,1.2035161E-1,-1.376836E-1,9.641109E-2,9.925278E-2,1.1269678E0,-1.7060342E-1,9.8920986E-2],"categories":[],"categories_nodes":[],"categories_segments":[],"categories_sizes":[],"default_left":[0,0,0,0,0,0,0,0,0,0,0,0,0,0,0],"id":9,"left_children":[1,3,-1,5,-1,7,9,11,-1,-1,-1,-1,13,-1,-1],"loss_changes":[2.3891602E1,1.9535156E1,0E0,1.37890625E1,0E0,1.7851562E0,3.984891E1,1.2470703E0,0E0,0E0,0E0,0E0,4.284809E1,0E0,0E0],"parents":[2147483647,0,0,1,1,3,3,5,5,6,6,7,7,12,12],"right_children":[2,4,-1,6,-1,8,10,12,-1,-1,-1,-1,14,-1,-1],"split_conditions":[1E0,1E0,-1.7879389E-1,1E0,-1.2363684E-1,1E0,1E0,1E0,1.2035161E-1,-1.376836E-1,9.641109E-2,9.925278E-2,1E0,-1.7060342E-1,9.8920986E-2],"split_indices":[981,1458,0,265,0,916,592,1182,0,0,0,0,2037,0,0],"split_type":[0,0,0,0,0,0,0,0,0,0,0,0,0,0,0],"sum_hessian":[4.7223633E3,4.7211714E3,1.1920763E0,4.719469E3,1.7019898E0,4.699878E3,1.9591476E1,4.6634307E3,3.6447212E1,4.949386E0,1.4642091E1,4.602626E3,6.0804543E1,2.942749E0,5.7861794E1],"tree_param":{"num_deleted":"0","num_feature":"2048","num_nodes":"15","size_leaf_vector":"1"}},{"base_weights":[1.292929E0,1.294174E0,-1.7592047E-1,1.2951376E0,-1.4231747E-1,1.2963039E0,-1.0117431E-1,1.2996206E0,1.0772479E0,1.2977183E0,1.2744156E-1,-1.6254094E-1,9.461149E-2,9.713041E-2,-1.1013626E-1],"categories":[],"categories_nodes":[],"categories_segments":[],"categories_sizes":[],"default_left":[0,0,0,0,0,0,0,0,0,0,0,0,0,0,0],"id":10,"left_children":[1,3,-1,5,-1,7,-1,9,11,13,-1,-1,-1,-1,-1],"loss_changes":[2.2995605E1,1.5858398E1,0E0,1.5479492E1,0E0,2.4282227E0,0E0,2.053711E0,4.650907E1,1.8967285E1,0E0,0E0,0E0,0E0,0E0],"parents":[2147483647,0,0,1,1,3,3,5,5,7,7,8,8,9,9],"right_children":[2,4,-1,6,-1,8,-1,10,12,14,-1,-1,-1,-1,-1],"split_conditions":[1E0,1E0,-1.7592047E-1,1E0,-1.4231747E-1,1E0,-1.0117431E-1,1E0,1E0,1E0,1.2744156E-1,-1.6254094E-1,9.461149E-2,9.713041E-2,-1.1013626E-1],"split_indices":[1270,1952,0,236,0,23,0,30,1095,1580,0,0,0,0,0],"split_type":[0,0,0,0,0,0,0,0,0,0,0,0,0,0,0],"sum_hessian":[4.668463E3,4.667275E3,1.188305E0,4.666245E3,1.0297945E0,4.664519E3,1.7259004E0,4.5917817E3,7.273702E1,4.5729707E3,1.8811232E1,3.6148806E0,6.912214E1,4.570992E3,1.9785798E0],"tree_param":{"num_deleted":"0","num_feature":"2048","num_nodes":"15","size_leaf_vector":"1"}},{"base_weights":[1.2693506E0,1.2705104E0,-1.2196304E-1,1.2717063E0,-9.9014886E-2,1.2669604E0,1.2087455E-1,1.2680255E0,6.6596165E-2,1.2705789E0,1.0957992E0,9.506199E-2,7.11028E-2,8.9765936E-2,6.9625974E-1,-1.4593826E-1,9.102877E-2],"categories":[],"categories_nodes":[],"categories_segments":[],"categories_sizes":[],"default_left":[0,0,0,0,0,0,0,0,0,0,0,0,0,0,0,0,0],"id":11,"left_children":[1,3,-1,5,-1,7,-1,9,-1,11,13,-1,-1,-1,15,-1,-1],"loss_changes":[1.6296387E1,1.4902344E1,0E0,5.940918E0,0E0,9.819336E-1,0E0,9.790039E-1,0E0,3.7939453E-1,2.2920685E0,0E0,0E0,0E0,2.3321732E1,0E0,0E0],"parents":[2147483647,0,0,1,1,3,3,5,5,7,7,9,9,10,10,14,14],"right_children":[2,4,-1,6,-1,8,-1,10,-1,12,14,-1,-1,-1,16,-1,-1],"split_conditions":[1E0,1E0,-1.2196304E-1,1E0,-9.9014886E-2,1E0,1.2087455E-1,1E0,6.6596165E-2,1E0,1E0,9.506199E-2,7.11028E-2,8.9765936E-2,1E0,-1.4593826E-1,9.102877E-2],"split_indices":[955,236,0,1580,0,130,0,769,0,484,23,0,0,0,145,0,0],"split_type":[0,0,0,0,0,0,0,0,0,0,0,0,0,0,0,0,0],"sum_hessian":[4.473279E3,4.4718486E3,1.4301177E0,4.4701167E3,1.7320986E0,4.412395E3,5.77217E1,4.398379E3,1.40160675E1,4.3300337E3,6.834507E1,4.316198E3,1.3835741E1,5.308273E1,1.5262339E1,2.2207875E0,1.3041551E1],"tree_param":{"num_deleted":"0","num_feature":"2048","num_nodes":"17","size_leaf_vector":"1"}},{"base_weights":[1.2412645E0,1.2420809E0,-8.166311E-2,1.243629E0,7.278467E-1,1.2452924E0,7.7666235E-1,-1.7460713E-1,8.893724E-2,1.2428756E0,1.4828216E0,-1.550597E-1,9.468888E-2,1.2407473E0,1.10558584E-1,-1.02063775E-1,1.22345574E-1,1.2422763E0,7.424016E-1,9.2948526E-2,6.777306E-2,-1.6929123E-1,8.893724E-2],"categories":[],"categories_nodes":[],"categories_segments":[],"categories_sizes":[],"default_left":[0,0,0,0,0,0,0,0,0,0,0,0,0,0,0,0,0,0,0,0,0,0,0],"id":12,"left_children":[1,3,-1,5,7,9,11,-1,-1,13,15,-1,-1,17,-1,-1,-1,19,21,-1,-1,-1,-1],"loss_changes":[8.988281E0,2.7646484E0,0E0,2.631836E0,2.2005913E1,1.1923828E0,2.5099026E1,0E0,0E0,8.720703E-1,1.8627457E1,0E0,0E0,2.5302734E0,0E0,0E0,0E0,4.9414062E-1,2.0923855E1,0E0,0E0,0E0,0E0],"parents":[2147483647,0,0,1,1,3,3,4,4,5,5,6,6,9,9,10,10,13,13,17,17,18,18],"right_children":[2,4,-1,6,8,10,12,-1,-1,14,16,-1,-1,18,-1,-1,-1,20,22,-1,-1,-1,-1],"split_conditions":[1E0,1E0,-8.166311E-2,1E0,1E0,1E0,1E0,-1.7460713E-1,8.893724E-2,1E0,1E0,-1.550597E-1,9.468888E-2,1E0,1.10558584E-1,-1.02063775E-1,1.22345574E-1,1E0,1E0,9.2948526E-2,6.777306E-2,-1.6929123E-1,8.893724E-2],"split_indices":[236,1250,0,638,1527,513,2045,0,0,1203,114,0,0,1922,0,0,0,1888,1087,0,0,0,0],"split_type":[0,0,0,0,0,0,0,0,0,0,0,0,0,0,0,0,0,0,0,0,0,0,0],"sum_hessian":[4.2799585E3,4.278766E3,1.1926565E0,4.264974E3,1.379209E1,4.2487256E3,1.6248363E1,1.4698427E0,1.23222475E1,4.2098784E3,3.8847393E1,2.080055E0,1.4168309E1,4.176199E3,3.3678936E1,1.7264057E0,3.7120987E1,4.1624277E3,1.3771534E1,4.1493477E3,1.307987E1,1.4492862E0,1.23222475E1],"tree_param":{"num_deleted":"0","num_feature":"2048","num_nodes":"23","size_leaf_vector":"1"}},{"base_weights":[1.2143308E0,1.2157165E0,-1.6974615E-1,1.2169352E0,-1.163195E-1,1.2200364E0,1.0337582E0,1.2218256E0,1.0071349E0,1.1349016E0,-1.7330554E-1,1.2227942E0,6.419061E-2,-1.342509E-1,8.8249385E-2,5.8910698E-2,8.9661755E-2,1.2238232E0,9.0229213E-1,9.139205E-2,1.1201463E-1,-1.1860887E-1,9.180233E-2],"categories":[],"categories_nodes":[],"categories_segments":[],"categories_sizes":[],"default_left":[0,0,0,0,0,0,0,0,0,0,0,0,0,0,0,0,0,0,0,0,0,0,0],"id":13,"left_children":[1,3,-1,5,-1,7,9,11,13,15,-1,17,-1,-1,-1,-1,-1,19,21,-1,-1,-1,-1],"loss_changes":[2.1628418E1,1.5119141E1,0E0,1.4799805E0,0E0,6.972656E-1,2.633966E1,6.8408203E-1,1.9496246E1,9.275818E-1,0E0,5.551758E-1,0E0,0E0,0E0,0E0,0E0,3.5302734E-1,1.3578165E1,0E0,0E0,0E0,0E0],"parents":[2147483647,0,0,1,1,3,3,5,5,6,6,7,7,8,8,9,9,11,11,17,17,18,18],"right_children":[2,4,-1,6,-1,8,10,12,14,16,-1,18,-1,-1,-1,-1,-1,20,22,-1,-1,-1,-1],"split_conditions":[1E0,1E0,-1.6974615E-1,1E0,-1.163195E-1,1E0,1E0,1E0,1E0,1E0,-1.7330554E-1,1E0,6.419061E-2,-1.342509E-1,8.8249385E-2,5.8910698E-2,8.9661755E-2,1E0,1E0,9.139205E-2,1.1201463E-1,-1.1860887E-1,9.180233E-2],"split_indices":[100,955,0,1765,0,147,1738,1291,145,314,0,738,0,0,0,0,0,916,504,0,0,0,0],"split_type":[0,0,0,0,0,0,0,0,0,0,0,0,0,0,0,0,0,0,0,0,0,0,0],"sum_hessian":[4.1404146E3,4.139178E3,1.2363839E0,4.137717E3,1.4613385E0,4.0651938E3,7.252284E1,4.028242E3,3.6952065E1,7.080264E1,1.7202033E0,4.0159668E3,1.2275003E1,1.8033338E0,3.514873E1,1.2446805E1,5.8355835E1,4.001261E3,1.4705789E1,3.9836907E3,1.7570456E1,1.4121866E0,1.3293602E1],"tree_param":{"num_deleted":"0","num_feature":"2048","num_nodes":"23","size_leaf_vector":"1"}},{"base_weights":[1.2048751E0,1.2058692E0,-9.9771835E-2,1.207433E0,6.727663E-1,1.2088124E0,7.3123264E-1,8.546238E-2,-1.4298998E-1,1.2101148E0,7.5015867E-1,-1.1874537E-1,8.548324E-2,1.2073166E0,1.0461058E-1,-1.2520982E-1,8.545235E-2,9.042178E-2,1.0593785E0,-1.4236182E-1,8.919988E-2],"categories":[],"categories_nodes":[],"categories_segments":[],"categories_sizes":[],"default_left":[0,0,0,0,0,0,0,0,0,0,0,0,0,0,0,0,0,0,0,0,0],"id":14,"left_children":[1,3,-1,5,7,9,11,-1,-1,13,15,-1,-1,17,-1,-1,-1,-1,19,-1,-1],"loss_changes":[1.1162109E1,2.7832031E0,0E0,2.0151367E0,1.74206E1,1.7524414E0,1.3754618E1,0E0,0E0,9.667969E-1,1.3574482E1,0E0,0E0,3.2861328E-1,0E0,0E0,0E0,0E0,2.5062927E1,0E0,0E0],"parents":[2147483647,0,0,1,1,3,3,4,4,5,5,6,6,9,9,10,10,13,13,18,18],"right_children":[2,4,-1,6,8,10,12,-1,-1,14,16,-1,-1,18,-1,-1,-1,-1,20,-1,-1],"split_conditions":[1E0,1E0,-9.9771835E-2,1E0,1E0,1E0,1E0,8.546238E-2,-1.4298998E-1,1E0,1E0,-1.1874537E-1,8.548324E-2,1E0,1.0461058E-1,-1.2520982E-1,8.545235E-2,9.042178E-2,1E0,-1.4236182E-1,8.919988E-2],"split_indices":[82,1250,0,1312,1,491,534,0,0,1580,94,0,0,292,0,0,0,0,676,0,0],"split_type":[0,0,0,0,0,0,0,0,0,0,0,0,0,0,0,0,0,0,0,0,0],"sum_hessian":[4.0355168E3,4.0342754E3,1.2415049E0,4.021622E3,1.26533165E1,4.0089766E3,1.2645328E1,1.100815E1,1.6451659E0,3.9965308E3,1.2445804E1,1.6288695E0,1.10164585E1,3.9429126E3,5.361812E1,1.4416537E0,1.100415E1,3.883663E3,5.9249508E1,2.1943917E0,5.705512E1],"tree_param":{"num_deleted":"0","num_feature":"2048","num_nodes":"21","size_leaf_vector":"1"}},{"base_weights":[1.1728897E0,1.1742296E0,-1.1828249E-1,1.1754888E0,-8.624889E-2,1.177018E0,6.5814656E-1,1.179363E0,9.2035234E-1,-1.8344961E-1,8.386794E-2,1.1805527E0,7.71089E-1,-1.2717596E-1,1.3394637E0,1.1817307E0,6.0972184E-2,8.39668E-2,-1.1894578E-1,1.1236284E-1,7.8677885E-2,8.847413E-2,9.839001E-1,4.6409212E-2,8.637334E-2],"categories":[],"categories_nodes":[],"categories_segments":[],"categories_sizes":[],"default_left":[0,0,0,0,0,0,0,0,0,0,0,0,0,0,0,0,0,0,0,0,0,0,0,0,0],"id":15,"left_children":[1,3,-1,5,-1,7,9,11,13,-1,-1,15,17,-1,19,21,-1,-1,-1,-1,-1,-1,23,-1,-1],"loss_changes":[1.4447266E1,1.1411133E1,0E0,2.2998047E0,0E0,1.4082031E0,1.9081549E1,1.0874023E0,4.0396843E1,0E0,0E0,8.491211E-1,1.1226049E1,0E0,3.7366867E-1,3.2226562E-1,0E0,0E0,0E0,0E0,0E0,0E0,1.5040627E0,0E0,0E0],"parents":[2147483647,0,0,1,1,3,3,5,5,6,6,7,7,8,8,11,11,12,12,14,14,15,15,22,22],"right_children":[2,4,-1,6,-1,8,10,12,14,-1,-1,16,18,-1,20,22,-1,-1,-1,-1,-1,-1,24,-1,-1],"split_conditions":[1E0,1E0,-1.1828249E-1,1E0,-8.624889E-2,1E0,1E0,1E0,1E0,-1.8344961E-1,8.386794E-2,1E0,1E0,-1.2717596E-1,1E0,1E0,6.0972184E-2,8.39668E-2,-1.1894578E-1,1.1236284E-1,7.8677885E-2,8.847413E-2,1E0,4.6409212E-2,8.637334E-2],"split_indices":[1489,236,0,401,0,265,49,1250,809,0,0,743,1,0,1683,233,0,0,0,0,0,0,1855,0,0],"split_type":[0,0,0,0,0,0,0,0,0,0,0,0,0,0,0,0,0,0,0,0,0,0,0,0,0],"sum_hessian":[3.6118782E3,3.6104883E3,1.3900485E0,3.6088572E3,1.6309569E0,3.5973584E3,1.149888E1,3.5624448E3,3.4913563E1,1.1392576E0,1.0359623E1,3.550833E3,1.1611651E1,4.5409045E0,3.037266E1,3.537929E3,1.2904238E1,1.0400576E1,1.2110753E0,1.7612955E1,1.2759705E1,3.5060452E3,3.1883743E1,1.1208606E1,2.0675137E1],"tree_param":{"num_deleted":"0","num_feature":"2048","num_nodes":"25","size_leaf_vector":"1"}},{"base_weights":[1.1578048E0,1.1604847E0,-2.0027176E-1,1.1616617E0,-9.34479E-2,1.1638048E0,9.330355E-1,1.164985E0,5.79816E-2,8.59673E-2,-1.08321734E-1,1.1631337E0,1.07853785E-1,8.709684E-2,9.6032214E-1,-1.6315809E-1,1.1907321E0,-1.2155341E-1,1.00845896E-1],"categories":[],"categories_nodes":[],"categories_segments":[],"categories_sizes":[],"default_left":[0,0,0,0,0,0,0,0,0,0,0,0,0,0,0,0,0,0,0],"id":16,"left_children":[1,3,-1,5,-1,7,9,11,-1,-1,-1,13,-1,-1,15,-1,17,-1,-1],"loss_changes":[3.379297E1,9.698242E0,0E0,7.651367E-1,0E0,7.7001953E-1,1.7584614E1,4.3408203E-1,0E0,0E0,0E0,3.28125E-1,0E0,0E0,2.3520035E1,0E0,1.409856E1,0E0,0E0],"parents":[2147483647,0,0,1,1,3,3,5,5,6,6,7,7,11,11,14,14,16,16],"right_children":[2,4,-1,6,-1,8,10,12,-1,-1,-1,14,-1,-1,16,-1,18,-1,-1],"split_conditions":[1E0,1E0,-2.0027176E-1,1E0,-9.34479E-2,1E0,1E0,1E0,5.79816E-2,8.59673E-2,-1.08321734E-1,1E0,1.07853785E-1,8.709684E-2,1E0,-1.6315809E-1,1E0,-1.2155341E-1,1.00845896E-1],"split_indices":[1440,82,0,1123,0,130,310,1129,0,0,0,1888,0,0,411,0,1088,0,0],"split_type":[0,0,0,0,0,0,0,0,0,0,0,0,0,0,0,0,0,0,0],"sum_hessian":[3.1090115E3,3.1072776E3,1.7338313E0,3.1060952E3,1.1824118E0,3.0745857E3,3.1509523E1,3.0639375E3,1.0648322E1,2.9187244E1,2.3222783E0,3.0469412E3,1.699624E1,3.0171897E3,2.9751402E1,1.6664194E0,2.8084982E1,1.1767684E0,2.6908215E1],"tree_param":{"num_deleted":"0","num_feature":"2048","num_nodes":"19","size_leaf_vector":"1"}},{"base_weights":[1.144784E0,1.1465641E0,-1.10315286E-1,1.1478984E0,-1.3071576E-1,1.1492425E0,-1.0397828E-1,8.600267E-2,-8.787128E-2],"categories":[],"categories_nodes":[],"categories_segments":[],"categories_sizes":[],"default_left":[0,0,0,0,0,0,0,0,0],"id":17,"left_children":[1,3,-1,5,-1,7,-1,-1,-1],"loss_changes":[1.6550781E1,1.4052734E1,0E0,1.2316406E1,0E0,8.918945E0,0E0,0E0,0E0],"parents":[2147483647,0,0,1,1,3,3,5,5],"right_children":[2,4,-1,6,-1,8,-1,-1,-1],"split_conditions":[1E0,1E0,-1.10315286E-1,1E0,-1.3071576E-1,1E0,-1.0397828E-1,8.600267E-2,-8.787128E-2],"split_indices":[1580,100,0,1627,0,1510,0,0,0],"split_type":[0,0,0,0,0,0,0,0,0],"sum_hessian":[3.3300986E3,3.3281975E3,1.901139E0,3.327047E3,1.150207E0,3.3256377E3,1.4095557E0,3.3244673E3,1.1703206E0],"tree_param":{"num_deleted":"0","num_feature":"2048","num_nodes":"9","size_leaf_vector":"1"}},{"base_weights":[1.1334512E0,1.135328E0,-1.5557407E-1,1.1374431E0,7.813721E-1,1.1345501E0,1.0309399E-1,7.8531906E-2,-1.4487112E-1,1.136393E0,5.7703227E-1,1.1379803E0,8.592071E-1,-1.3563891E-1,7.98782E-2,1.1391557E0,5.9591364E-2,4.6081424E-2,7.973136E-2,8.524212E-2,5.8953922E-2],"categories":[],"categories_nodes":[],"categories_segments":[],"categories_sizes":[],"default_left":[0,0,0,0,0,0,0,0,0,0,0,0,0,0,0,0,0,0,0,0,0],"id":18,"left_children":[1,3,-1,5,7,9,-1,-1,-1,11,13,15,17,-1,-1,19,-1,-1,-1,-1,-1],"loss_changes":[1.8831543E1,1.5336914E0,0E0,9.3725586E-1,1.5267026E1,2.4399414E0,0E0,0E0,0E0,5.588379E-1,1.3688573E1,4.8510742E-1,4.6705627E-1,0E0,0E0,3.0810547E-1,0E0,0E0,0E0,0E0,0E0],"parents":[2147483647,0,0,1,1,3,3,4,4,5,5,9,9,10,10,11,11,12,12,15,15],"right_children":[2,4,-1,6,8,10,-1,-1,-1,12,14,16,18,-1,-1,20,-1,-1,-1,-1,-1],"split_conditions":[1E0,1E0,-1.5557407E-1,1E0,1E0,1E0,1.0309399E-1,7.8531906E-2,-1.4487112E-1,1E0,1E0,1E0,1E0,-1.3563891E-1,7.98782E-2,1E0,5.9591364E-2,4.6081424E-2,7.973136E-2,8.524212E-2,5.8953922E-2],"split_indices":[1071,1765,0,766,1028,1312,0,0,0,652,1573,744,2045,0,0,854,0,0,0,0,0],"split_type":[0,0,0,0,0,0,0,0,0,0,0,0,0,0,0,0,0,0,0,0,0],"sum_hessian":[2.8897373E3,2.8884587E3,1.2785363E0,2.869833E3,1.862582E1,2.8394705E3,3.0362505E1,1.730439E1,1.3214296E0,2.829404E3,1.0066519E1,2.811248E3,1.8155804E1,1.4205738E0,8.645945E0,2.8000356E3,1.1212561E1,9.574449E0,8.581356E0,2.790881E3,9.154534E0],"tree_param":{"num_deleted":"0","num_feature":"2048","num_nodes":"21","size_leaf_vector":"1"}},{"base_weights":[1.1177608E0,1.119318E0,-1.0225433E-1,1.1215569E0,4.5813113E-1,1.1227899E0,5.0850283E-2,-1.086856E-1,7.873725E-2,1.1267996E0,9.7370917E-1,1.1247327E0,1.0617605E-1,-1.3285184E-1,1.0656531E0,1.1227698E0,1.0489046E-1,8.3203E-2,4.7501005E-2,8.379947E-2,1.0451094E-1],"categories":[],"categories_nodes":[],"categories_segments":[],"categories_sizes":[],"default_left":[0,0,0,0,0,0,0,0,0,0,0,0,0,0,0,0,0,0,0,0,0],"id":19,"left_children":[1,3,-1,5,7,9,-1,-1,-1,11,13,15,-1,-1,17,19,-1,-1,-1,-1,-1],"loss_changes":[1.2269287E1,3.9533691E0,0E0,1.0422363E0,1.3413996E1,9.760742E-1,0E0,0E0,0E0,6.2719727E-1,2.1613762E1,4.6191406E-1,0E0,0E0,1.0898819E0,4.2993164E-1,0E0,0E0,0E0,0E0,0E0],"parents":[2147483647,0,0,1,1,3,3,4,4,5,5,9,9,10,10,11,11,14,14,15,15],"right_children":[2,4,-1,6,8,10,-1,-1,-1,12,14,16,-1,-1,18,20,-1,-1,-1,-1,-1],"split_conditions":[1E0,1E0,-1.0225433E-1,1E0,1E0,1E0,5.0850283E-2,-1.086856E-1,7.873725E-2,1E0,1E0,1E0,1.0617605E-1,-1.3285184E-1,1E0,1E0,1.0489046E-1,8.3203E-2,4.7501005E-2,8.379947E-2,1.0451094E-1],"split_indices":[1458,1312,0,130,534,292,0,0,0,228,314,30,0,0,216,944,0,0,0,0,0],"split_type":[0,0,0,0,0,0,0,0,0,0,0,0,0,0,0,0,0,0,0,0,0],"sum_hessian":[2.9317437E3,2.9302607E3,1.4827355E0,2.9198804E3,1.0380373E1,2.9107063E3,9.174134E0,2.2369356E0,8.143437E0,2.8302822E3,8.0423996E1,2.8135552E3,1.6727179E1,2.2243307E0,7.819967E1,2.79705E3,1.650505E1,6.950536E1,8.694307E0,2.7806133E3,1.6436722E1],"tree_param":{"num_deleted":"0","num_feature":"2048","num_nodes":"21","size_leaf_vector":"1"}},{"base_weights":[1.0947778E0,1.0973059E0,-1.1987444E-1,1.0996377E0,-1.1755962E-1,1.1010493E0,4.324286E-2,1.1041533E0,8.6815476E-1,1.106543E0,8.87726E-1,-1.2614152E-1,9.727633E-2,1.1079844E0,4.4741053E-2,2.9395822E-2,7.8770556E-2,1.1090908E0,5.1063992E-2,8.299671E-2,5.6532845E-2],"categories":[],"categories_nodes":[],"categories_segments":[],"categories_sizes":[],"default_left":[0,0,0,0,0,0,0,0,0,0,0,0,0,0,0,0,0,0,0,0,0],"id":20,"left_children":[1,3,-1,5,-1,7,-1,9,11,13,15,-1,-1,17,-1,-1,-1,19,-1,-1,-1],"loss_changes":[1.9409668E1,1.7774414E1,0E0,1.5131836E0,0E0,1.2631836E0,0E0,6.7700195E-1,4.3674423E1,1.4301758E0,2.3175411E0,0E0,0E0,6.804199E-1,0E0,0E0,0E0,3.137207E-1,0E0,0E0,0E0],"parents":[2147483647,0,0,1,1,3,3,5,5,7,7,8,8,9,9,10,10,13,13,17,17],"right_children":[2,4,-1,6,-1,8,-1,10,12,14,16,-1,-1,18,-1,-1,-1,20,-1,-1,-1],"split_conditions":[1E0,1E0,-1.1987444E-1,1E0,-1.1755962E-1,1E0,4.324286E-2,1E0,1E0,1E0,1E0,-1.2614152E-1,9.727633E-2,1E0,4.4741053E-2,2.9395822E-2,7.8770556E-2,1E0,5.1063992E-2,8.299671E-2,5.6532845E-2],"split_indices":[1856,1312,0,230,0,265,0,687,1453,383,667,0,0,640,0,0,0,130,0,0,0],"split_type":[0,0,0,0,0,0,0,0,0,0,0,0,0,0,0,0,0,0,0,0,0],"sum_hessian":[2.6912122E3,2.6890708E3,2.1414723E0,2.687099E3,1.9717567E0,2.6790789E3,8.02012E0,2.6414001E3,3.767882E1,2.6098682E3,3.1531778E1,5.1878576E0,3.2490963E1,2.601679E3,8.189418E0,8.5028305E0,2.3028948E1,2.5938384E3,7.8405886E0,2.585123E3,8.715329E0],"tree_param":{"num_deleted":"0","num_feature":"2048","num_nodes":"21","size_leaf_vector":"1"}},{"base_weights":[1.0859023E0,1.0878392E0,-1.2636106E-1,1.0894767E0,-1.05246864E-1,1.0904768E0,-6.3263424E-2,1.0919684E0,4.172729E-2,1.0961208E0,8.976059E-1,1.0975308E0,5.0254226E-2,-1.6493161E-1,7.90598E-2,1.0986401E0,5.0549116E-2,1.1005564E0,8.585482E-1,8.236446E-2,5.2983757E-2,3.9776023E-2,7.464296E-2],"categories":[],"categories_nodes":[],"categories_segments":[],"categories_sizes":[],"default_left":[0,0,0,0,0,0,0,0,0,0,0,0,0,0,0,0,0,0,0,0,0,0,0],"id":21,"left_children":[1,3,-1,5,-1,7,-1,9,-1,11,13,15,-1,-1,-1,17,-1,19,21,-1,-1,-1,-1],"loss_changes":[1.4692139E1,1.1249023E1,0E0,5.4645996E0,0E0,1.559082E0,0E0,1.3415527E0,0E0,9.4189453E-1,2.927435E1,6.1328125E-1,0E0,0E0,0E0,4.6020508E-1,0E0,4.5996094E-1,6.256294E-1,0E0,0E0,0E0,0E0],"parents":[2147483647,0,0,1,1,3,3,5,5,7,7,9,9,10,10,11,11,15,15,17,17,18,18],"right_children":[2,4,-1,6,-1,8,-1,10,-1,12,14,16,-1,-1,-1,18,-1,20,22,-1,-1,-1,-1],"split_conditions":[1E0,1E0,-1.2636106E-1,1E0,-1.05246864E-1,1E0,-6.3263424E-2,1E0,4.172729E-2,1E0,1E0,1E0,5.0254226E-2,-1.6493161E-1,7.90598E-2,1E0,5.0549116E-2,1E0,1E0,8.236446E-2,5.2983757E-2,3.9776023E-2,7.464296E-2],"split_indices":[1071,955,0,236,0,230,0,1560,0,896,1095,1150,0,0,0,1708,0,1554,683,0,0,0,0],"split_type":[0,0,0,0,0,0,0,0,0,0,0,0,0,0,0,0,0,0,0,0,0,0,0],"sum_hessian":[2.5287454E3,2.5273687E3,1.3766856E0,2.5260725E3,1.2960415E0,2.5250574E3,1.0151014E0,2.5172783E3,7.7792277E0,2.4616262E3,5.5652035E1,2.4523953E3,9.230855E0,2.329722E0,5.3322315E1,2.4448733E3,7.522156E0,2.4231594E3,2.171385E1,2.4153325E3,7.826889E0,7.484842E0,1.4229008E1],"tree_param":{"num_deleted":"0","num_feature":"2048","num_nodes":"23","size_leaf_vector":"1"}},{"base_weights":[1.0860935E0,1.0877726E0,-1.0883017E-1,1.0898608E0,2.7041065E-2,1.0914568E0,3.981308E-2,1.0926135E0,4.8869804E-2,1.0894481E0,9.7749054E-2,1.0917363E0,4.1145822E-1,1.0928758E0,5.126313E-2,-1.5150733E-1,7.5705685E-2,1.0950816E0,8.596167E-1,8.196299E-2,5.4316755E-2,3.9208695E-2,7.626936E-2],"categories":[],"categories_nodes":[],"categories_segments":[],"categories_sizes":[],"default_left":[0,0,0,0,0,0,0,0,0,0,0,0,0,0,0,0,0,0,0,0,0,0,0],"id":22,"left_children":[1,3,-1,5,-1,7,-1,9,-1,11,-1,13,15,17,-1,-1,-1,19,21,-1,-1,-1,-1],"loss_changes":[1.0936279E1,3.2402344E0,0E0,1.6462402E0,0E0,6.6259766E-1,0E0,5.986328E-1,0E0,3.2075195E0,0E0,5.175781E-1,1.4011466E1,5.0634766E-1,0E0,0E0,0E0,4.0722656E-1,9.1148376E-1,0E0,0E0,0E0,0E0],"parents":[2147483647,0,0,1,1,3,3,5,5,7,7,9,9,11,11,12,12,13,13,17,17,18,18],"right_children":[2,4,-1,6,-1,8,-1,10,-1,12,-1,14,16,18,-1,-1,-1,20,22,-1,-1,-1,-1],"split_conditions":[1E0,1E0,-1.0883017E-1,1E0,2.7041065E-2,1E0,3.981308E-2,1E0,4.8869804E-2,1E0,9.7749054E-2,1E0,1E0,1E0,5.126313E-2,-1.5150733E-1,7.5705685E-2,1E0,1E0,8.196299E-2,5.4316755E-2,3.9208695E-2,7.626936E-2],"split_indices":[491,694,0,1150,0,1659,0,1203,0,1260,0,1554,497,1946,0,0,0,744,1673,0,0,0,0],"split_type":[0,0,0,0,0,0,0,0,0,0,0,0,0,0,0,0,0,0,0,0,0,0,0],"sum_hessian":[2.3398855E3,2.3387068E3,1.1787053E0,2.3316333E3,7.073531E0,2.3243123E3,7.321068E0,2.317175E3,7.137045E0,2.287376E3,2.979926E1,2.2792444E3,8.131569E0,2.271727E3,7.5172286E0,1.3077829E0,6.823786E0,2.2480234E3,2.3703674E1,2.2395452E3,8.478292E0,8.6082325E0,1.5095442E1],"tree_param":{"num_deleted":"0","num_feature":"2048","num_nodes":"23","size_leaf_vector":"1"}},{"base_weights":[1.07079E0,1.0729911E0,-1.2583052E-1,1.0747753E0,5.07234E-1,1.0764463E0,3.528775E-2,-9.1494955E-2,7.4182294E-2,1.0779116E0,4.291663E-2,1.0810947E0,8.3069307E-1,1.0824059E0,4.3960534E-2,-1.2707822E-1,8.136168E-2,1.083804E0,5.0060596E-2,1.0860116E0,6.0327057E-2,8.094579E-2,9.749578E-2],"categories":[],"categories_nodes":[],"categories_segments":[],"categories_sizes":[],"default_left":[0,0,0,0,0,0,0,0,0,0,0,0,0,0,0,0,0,0,0,0,0,0,0],"id":23,"left_children":[1,3,-1,5,7,9,-1,-1,-1,11,-1,13,15,17,-1,-1,-1,19,-1,21,-1,-1,-1],"loss_changes":[1.4598633E1,1.8469238E0,0E0,1.8588867E0,7.649955E0,1.1789551E0,0E0,0E0,0E0,1.1037598E0,0E0,9.445801E-1,2.1226114E1,7.312012E-1,0E0,0E0,0E0,7.023926E-1,0E0,6.008301E-1,0E0,0E0,0E0],"parents":[2147483647,0,0,1,1,3,3,4,4,5,5,9,9,11,11,12,12,13,13,17,17,19,19],"right_children":[2,4,-1,6,8,10,-1,-1,-1,12,-1,14,16,18,-1,-1,-1,20,-1,22,-1,-1,-1],"split_conditions":[1E0,1E0,-1.2583052E-1,1E0,1E0,1E0,3.528775E-2,-9.1494955E-2,7.4182294E-2,1E0,4.291663E-2,1E0,1E0,1E0,4.3960534E-2,-1.2707822E-1,8.136168E-2,1E0,5.0060596E-2,1E0,6.0327057E-2,8.094579E-2,9.749578E-2],"split_indices":[491,325,0,263,504,1250,0,0,0,23,0,262,218,694,0,0,0,469,0,916,0,0,0],"split_type":[0,0,0,0,0,0,0,0,0,0,0,0,0,0,0,0,0,0,0,0,0,0,0],"sum_hessian":[2.2310366E3,2.2296428E3,1.3939233E0,2.2220068E3,7.636062E0,2.2153113E3,6.695394E0,1.4474895E0,6.1885724E0,2.2080833E3,7.2280607E0,2.1778037E3,3.02797E1,2.1712097E3,6.5939474E0,2.465604E0,2.7814095E1,2.1627852E3,8.424591E0,2.1437515E3,1.9033688E1,2.1150151E3,2.8736217E1],"tree_param":{"num_deleted":"0","num_feature":"2048","num_nodes":"23","size_leaf_vector":"1"}},{"base_weights":[1.0574691E0,1.0587325E0,-6.758549E-2,1.0635633E0,5.67999E-1,1.0678933E0,6.643139E-1,-2.1246974E-1,8.514681E-1,1.069726E0,3.047111E-2,-2.0873068E-1,1.092695E0,7.942627E-2,-8.065793E-2,1.0714015E0,3.6368206E-2,5.6924768E-2,9.291133E-2,1.073004E0,4.8666377E-2,1.0743299E0,4.4496678E-2,1.075597E0,4.6801254E-2,8.050697E-2,4.647242E-2],"categories":[],"categories_nodes":[],"categories_segments":[],"categories_sizes":[],"default_left":[0,0,0,0,0,0,0,0,0,0,0,0,0,0,0,0,0,0,0,0,0,0,0,0,0,0,0],"id":24,"left_children":[1,3,-1,5,7,9,11,-1,13,15,-1,-1,17,-1,-1,19,-1,-1,-1,21,-1,23,-1,25,-1,-1,-1],"loss_changes":[5.904785E0,4.6394043E0,0E0,3.1572266E0,2.2933258E1,2.2060547E0,3.8039642E1,0E0,9.271353E0,1.6555176E0,0E0,0E0,4.3743896E-1,0E0,0E0,9.0112305E-1,0E0,0E0,0E0,8.498535E-1,0E0,6.882324E-1,0E0,6.269531E-1,0E0,0E0,0E0],"parents":[2147483647,0,0,1,1,3,3,4,4,5,5,6,6,8,8,9,9,12,12,15,15,19,19,21,21,23,23],"right_children":[2,4,-1,6,8,10,12,-1,14,16,-1,-1,18,-1,-1,20,-1,-1,-1,22,-1,24,-1,26,-1,-1,-1],"split_conditions":[1E0,1E0,-6.758549E-2,1E0,1E0,1E0,1E0,-2.1246974E-1,1E0,1E0,3.047111E-2,-2.0873068E-1,1E0,7.942627E-2,-8.065793E-2,1E0,3.6368206E-2,5.6924768E-2,9.291133E-2,1E0,4.8666377E-2,1E0,4.4496678E-2,1E0,4.6801254E-2,8.050697E-2,4.647242E-2],"split_indices":[796,23,0,1888,1876,1110,1410,0,8,930,0,0,213,0,0,981,0,0,0,230,0,1554,0,640,0,0,0],"split_type":[0,0,0,0,0,0,0,0,0,0,0,0,0,0,0,0,0,0,0,0,0,0,0,0,0,0,0],"sum_hessian":[2.1441704E3,2.1430935E3,1.0768886E0,2.121406E3,2.168752E1,2.0975234E3,2.3882393E1,1.2304137E0,2.0457106E1,2.0912727E3,6.250905E0,2.2515116E0,2.163088E1,1.871066E1,1.746445E0,2.0846968E3,6.575862E0,7.9890246E0,1.3641856E1,2.075732E3,8.96483E0,2.069135E3,6.5967994E0,2.0623523E3,6.7827773E0,2.056039E3,6.3132825E0],"tree_param":{"num_deleted":"0","num_feature":"2048","num_nodes":"27","size_leaf_vector":"1"}},{"base_weights":[1.0404632E0,1.0447432E0,-1.1608945E-1,1.0476694E0,-1.3727929E-1,1.0514957E0,7.465449E-1,1.0573848E0,8.626382E-1,7.761862E-2,4.153972E-1,1.0590541E0,3.7921663E-2,7.549859E-2,-1.296562E-1,-2.4738477E-1,6.995152E-2,1.0611407E0,7.2222394E-1,1.0648602E0,8.639245E-1,2.9822715E-2,7.328677E-2,1.066605E0,3.7750926E-2,2.7708841E-2,7.155697E-2,7.9847805E-2,4.732193E-2],"categories":[],"categories_nodes":[],"categories_segments":[],"categories_sizes":[],"default_left":[0,0,0,0,0,0,0,0,0,0,0,0,0,0,0,0,0,0,0,0,0,0,0,0,0,0,0,0,0],"id":25,"left_children":[1,3,-1,5,-1,7,9,11,13,-1,15,17,-1,-1,-1,-1,-1,19,21,23,25,-1,-1,27,-1,-1,-1,-1,-1],"loss_changes":[2.0756958E1,1.6147095E1,0E0,1.4899902E0,0E0,1.3092041E0,2.0440903E0,1.1619873E0,2.2671608E1,0E0,2.6179977E1,6.4208984E-1,0E0,0E0,0E0,0E0,0E0,5.852051E-1,7.3891497E-1,1.210083E0,1.3126087E0,0E0,0E0,4.810791E-1,0E0,0E0,0E0,0E0,0E0],"parents":[2147483647,0,0,1,1,3,3,5,5,6,6,7,7,8,8,10,10,11,11,17,17,18,18,19,19,20,20,23,23],"right_children":[2,4,-1,6,-1,8,10,12,14,-1,16,18,-1,-1,-1,-1,-1,20,22,24,26,-1,-1,28,-1,-1,-1,-1,-1],"split_conditions":[1E0,1E0,-1.1608945E-1,1E0,-1.3727929E-1,1E0,1E0,1E0,1E0,7.761862E-2,1E0,1E0,3.7921663E-2,7.549859E-2,-1.296562E-1,-2.4738477E-1,6.995152E-2,1E0,1E0,1E0,1E0,2.9822715E-2,7.328677E-2,1E0,3.7750926E-2,2.7708841E-2,7.155697E-2,7.9847805E-2,4.732193E-2],"split_indices":[1856,1250,0,1365,0,266,1145,1425,265,0,235,1445,0,0,0,0,0,207,594,600,1199,0,0,536,0,0,0,0,0],"split_type":[0,0,0,0,0,0,0,0,0,0,0,0,0,0,0,0,0,0,0,0,0,0,0,0,0,0,0,0,0],"sum_hessian":[1.7827357E3,1.7801788E3,2.5569105E0,1.7787754E3,1.4034138E0,1.7548081E3,2.396732E1,1.6987926E3,5.6015434E1,1.1979764E1,1.1987556E1,1.6930094E3,5.783186E0,5.338015E1,2.635283E0,1.0584136E0,1.0929143E1,1.6811499E3,1.1859554E1,1.6471731E3,3.3976803E1,6.0298934E0,5.8296604E0,1.6414258E3,5.7473254E0,5.9563117E0,2.802049E1,1.63529E3,6.1357784E0],"tree_param":{"num_deleted":"0","num_feature":"2048","num_nodes":"29","size_leaf_vector":"1"}},{"base_weights":[1.0422125E0,1.0460774E0,-1.1339831E-1,1.0478933E0,-9.8510206E-2,1.0494903E0,-7.7324204E-2,1.0515487E0,2.5404878E-2,1.0534992E0,3.18414E-2,1.0555964E0,4.9874043E-1,1.0571789E0,3.3370957E-2,7.452489E-2,-1.1426141E-1,1.0601785E0,7.1771896E-1,7.938397E-2,3.4920875E-2,1.1074492E-2,7.1627684E-2],"categories":[],"categories_nodes":[],"categories_segments":[],"categories_sizes":[],"default_left":[0,0,0,0,0,0,0,0,0,0,0,0,0,0,0,0,0,0,0,0,0,0,0],"id":26,"left_children":[1,3,-1,5,-1,7,-1,9,-1,11,-1,13,15,17,-1,-1,-1,19,21,-1,-1,-1,-1],"loss_changes":[1.929187E1,8.780029E0,0E0,6.8187256E0,0E0,2.4223633E0,0E0,1.9106445E0,0E0,1.7474365E0,0E0,1.4093018E0,9.141617E0,1.3146973E0,0E0,0E0,0E0,1.3288574E0,2.3282738E0,0E0,0E0,0E0,0E0],"parents":[2147483647,0,0,1,1,3,3,5,5,7,7,9,9,11,11,12,12,13,13,17,17,18,18],"right_children":[2,4,-1,6,-1,8,-1,10,-1,12,-1,14,16,18,-1,-1,-1,20,22,-1,-1,-1,-1],"split_conditions":[1E0,1E0,-1.1339831E-1,1E0,-9.8510206E-2,1E0,-7.7324204E-2,1E0,2.5404878E-2,1E0,3.18414E-2,1E0,1E0,1E0,3.3370957E-2,7.452489E-2,-1.1426141E-1,1E0,1E0,7.938397E-2,3.4920875E-2,1.1074492E-2,7.1627684E-2],"split_indices":[1312,956,0,1458,0,1110,0,1554,0,1250,0,273,504,233,0,0,0,1899,1754,0,0,0,0],"split_type":[0,0,0,0,0,0,0,0,0,0,0,0,0,0,0,0,0,0,0,0,0,0,0],"sum_hessian":[1.8545181E3,1.8520986E3,2.4195182E0,1.8510349E3,1.0636923E0,1.84994E3,1.0949955E0,1.8442329E3,5.7069936E0,1.8380134E3,6.2194357E0,1.8304615E3,7.5519247E0,1.825198E3,5.263559E0,6.328947E0,1.2229774E0,1.8077957E3,1.7402283E1,1.8024186E3,5.37709E0,5.5119424E0,1.1890341E1],"tree_param":{"num_deleted":"0","num_feature":"2048","num_nodes":"23","size_leaf_vector":"1"}},{"base_weights":[1.0262942E0,1.0323858E0,-1.8220063E-1,1.0374916E0,2.1078262E-2,1.0397084E0,-7.463718E-2,-1.21306404E-1,7.34031E-2,1.0423499E0,1.4148717E-2,1.0453439E0,6.905479E-1,1.046961E0,3.3777464E-2,-1.4980476E-1,8.061105E-2,1.050815E0,8.2739687E-1,1.0539098E0,8.27336E-1,7.466416E-2,-1.4047448E-1,7.8949586E-2,5.0685667E-2,9.161943E-3,7.463676E-2],"categories":[],"categories_nodes":[],"categories_segments":[],"categories_sizes":[],"default_left":[0,0,0,0,0,0,0,0,0,0,0,0,0,0,0,0,0,0,0,0,0,0,0,0,0,0,0],"id":27,"left_children":[1,3,-1,5,7,9,-1,-1,-1,11,-1,13,15,17,-1,-1,-1,19,21,23,25,-1,-1,-1,-1,-1,-1],"loss_changes":[3.9235107E1,9.167969E0,0E0,8.659912E0,1.6170874E1,3.8154297E0,0E0,0E0,0E0,1.3466797E0,0E0,1.3277588E0,1.889008E1,8.651123E-1,0E0,0E0,0E0,5.7055664E-1,1.6510809E1,7.8466797E-1,3.0651245E0,0E0,0E0,0E0,0E0,0E0,0E0],"parents":[2147483647,0,0,1,1,3,3,4,4,5,5,9,9,11,11,12,12,13,13,17,17,18,18,19,19,20,20],"right_children":[2,4,-1,6,8,10,-1,-1,-1,12,-1,14,16,18,-1,-1,-1,20,22,24,26,-1,-1,-1,-1,-1,-1],"split_conditions":[1E0,1E0,-1.8220063E-1,1E0,1E0,1E0,-7.463718E-2,-1.21306404E-1,7.34031E-2,1E0,1.4148717E-2,1E0,1E0,1E0,3.3777464E-2,-1.4980476E-1,8.061105E-2,1E0,1E0,1E0,1E0,7.466416E-2,-1.4047448E-1,7.8949586E-2,5.0685667E-2,9.161943E-3,7.463676E-2],"split_indices":[1888,265,0,236,592,1150,0,0,0,638,0,976,1564,1765,0,0,0,687,1978,33,531,0,0,0,0,0,0],"split_type":[0,0,0,0,0,0,0,0,0,0,0,0,0,0,0,0,0,0,0,0,0,0,0,0,0,0,0],"sum_hessian":[1.7896104E3,1.7869078E3,2.702439E0,1.777871E3,9.036953E0,1.7762571E3,1.6138145E0,3.1613708E0,5.8755817E0,1.7705665E3,5.6906204E0,1.7543064E3,1.6260109E1,1.7489994E3,5.306976E0,1.7110457E0,1.4549064E1,1.7163583E3,3.264117E1,1.6904806E3,2.5877617E1,3.1075935E1,1.5652356E0,1.6801213E3,1.0359352E1,5.30739E0,2.0570227E1],"tree_param":{"num_deleted":"0","num_feature":"2048","num_nodes":"27","size_leaf_vector":"1"}},{"base_weights":[1.0218978E0,1.0256815E0,-1.0818866E-1,1.0284827E0,5.03095E-3,1.0312409E0,9.027063E-3,1.0332135E0,2.6942953E-2,1.0362407E0,6.172549E-1,1.0410588E0,7.942249E-1,1.0088629E-2,7.5752474E-2,1.0444242E0,7.589982E-1,-1.4948055E-1,7.620196E-2,1.0455948E0,4.1450407E-2,6.0124713E-1,7.557477E-2,7.82625E-2,4.155409E-2,6.648958E-2,5.5523654E-3],"categories":[],"categories_nodes":[],"categories_segments":[],"categories_sizes":[],"default_left":[0,0,0,0,0,0,0,0,0,0,0,0,0,0,0,0,0,0,0,0,0,0,0,0,0,0,0],"id":28,"left_children":[1,3,-1,5,-1,7,-1,9,-1,11,13,15,17,-1,-1,19,21,-1,-1,23,-1,25,-1,-1,-1,-1,-1],"loss_changes":[1.6853027E1,4.4903564E0,0E0,4.1330566E0,0E0,1.954956E0,0E0,1.6646729E0,0E0,1.3693848E0,2.5063787E0,9.94751E-1,2.3513512E1,0E0,0E0,5.0439453E-1,4.207182E-1,0E0,0E0,4.9890137E-1,0E0,2.1920295E0,0E0,0E0,0E0,0E0,0E0],"parents":[2147483647,0,0,1,1,3,3,5,5,7,7,9,9,10,10,11,11,12,12,15,15,16,16,19,19,21,21],"right_children":[2,4,-1,6,-1,8,-1,10,-1,12,14,16,18,-1,-1,20,22,-1,-1,24,-1,26,-1,-1,-1,-1,-1],"split_conditions":[1E0,1E0,-1.0818866E-1,1E0,5.03095E-3,1E0,9.027063E-3,1E0,2.6942953E-2,1E0,1E0,1E0,1E0,1.0088629E-2,7.5752474E-2,1E0,1E0,-1.4948055E-1,7.620196E-2,1E0,4.1450407E-2,1E0,7.557477E-2,7.82625E-2,4.155409E-2,6.648958E-2,5.5523654E-3],"split_indices":[1856,687,0,230,0,930,0,981,0,1560,1700,1765,218,0,0,26,2,0,0,1153,0,1647,0,0,0,0,0],"split_type":[0,0,0,0,0,0,0,0,0,0,0,0,0,0,0,0,0,0,0,0,0,0,0,0,0,0,0],"sum_hessian":[1.7087395E3,1.7064987E3,2.2408478E0,1.7014336E3,5.0650573E0,1.6961464E3,5.2872467E0,1.690778E3,5.368403E0,1.6775511E3,1.3226807E1,1.64265E3,3.4901134E1,6.3831105E0,6.843696E0,1.621495E3,2.1155016E1,2.2282188E0,3.2672913E1,1.6168485E3,4.64643E0,1.4386844E1,6.7681723E0,1.6122131E3,4.6354947E0,8.975349E0,5.4114943E0],"tree_param":{"num_deleted":"0","num_feature":"2048","num_nodes":"27","size_leaf_vector":"1"}},{"base_weights":[1.0141068E0,1.0192133E0,-1.6002218E-1,1.0213908E0,-7.133243E-2,6.831753E-2,-1.29985E-1,1.0259155E0,6.8675363E-1,1.0277437E0,2.4926934E-2,-1.8515667E-1,7.337091E-2,1.0295951E0,2.5799358E-2,1.0338063E0,7.588965E-1,1.0364333E0,6.903917E-1,-1.3316031E-1,7.540887E-2,1.0378479E0,3.7397128E-2,2.1261718E-2,7.52198E-2,7.717034E-2,9.1398865E-2],"categories":[],"categories_nodes":[],"categories_segments":[],"categories_sizes":[],"default_left":[0,0,0,0,0,0,0,0,0,0,0,0,0,0,0,0,0,0,0,0,0,0,0,0,0,0,0],"id":29,"left_children":[1,3,5,7,-1,-1,-1,9,11,13,-1,-1,-1,15,-1,17,19,21,23,-1,-1,25,-1,-1,-1,-1,-1],"loss_changes":[9.552124E0,7.313843E0,1.3355138E1,1.857666E0,0E0,0E0,0E0,1.6784668E0,2.2671238E1,1.6612549E0,0E0,0E0,0E0,1.1851807E0,0E0,8.433838E-1,1.7488415E1,7.458496E-1,1.4823375E0,0E0,0E0,6.920166E-1,0E0,0E0,0E0,0E0,0E0],"parents":[2147483647,0,0,1,1,2,2,3,3,7,7,8,8,9,9,13,13,15,15,16,16,17,17,18,18,21,21],"right_children":[2,4,6,8,-1,-1,-1,10,12,14,-1,-1,-1,16,-1,18,20,22,24,-1,-1,26,-1,-1,-1,-1,-1],"split_conditions":[1E0,1E0,1E0,1E0,-7.133243E-2,6.831753E-2,-1.29985E-1,1E0,1E0,1E0,2.4926934E-2,-1.8515667E-1,7.337091E-2,1E0,2.5799358E-2,1E0,1E0,1E0,1E0,-1.3316031E-1,7.540887E-2,1E0,3.7397128E-2,2.1261718E-2,7.52198E-2,7.717034E-2,9.1398865E-2],"split_indices":[146,236,1,724,0,0,0,476,1357,640,0,0,0,23,0,1888,1483,728,1548,0,0,265,0,0,0,0,0],"split_type":[0,0,0,0,0,0,0,0,0,0,0,0,0,0,0,0,0,0,0,0,0,0,0,0,0,0,0],"sum_hessian":[1.5694294E3,1.5627521E3,6.677373E0,1.5613461E3,1.4059807E0,4.1094275E0,2.5679457E0,1.53914E3,2.2206026E1,1.5347275E3,4.4124236E0,1.4943753E0,2.071165E1,1.5302013E3,4.5263286E0,1.5049043E3,2.5296976E1,1.4921277E3,1.2776595E1,1.913696E0,2.338328E1,1.4875491E3,4.5786057E0,6.158324E0,6.6182714E0,1.4471985E3,4.0350586E1],"tree_param":{"num_deleted":"0","num_feature":"2048","num_nodes":"27","size_leaf_vector":"1"}},{"base_weights":[1.0013133E0,1.0077678E0,-6.457391E-1,1.0105491E0,-8.523074E-2,-2.8013998E-1,6.745332E-2,1.0163232E0,-6.784044E-2,1.0180131E0,-6.2438335E-2,-1.5598127E-1,7.168204E-2,1.0213621E0,-0E0,1.0261074E0,5.1051956E-1,1.0298486E0,5.5563587E-1,-1.6716766E-1,6.6724405E-2,1.0319178E0,2.0073423E-2,4.1414527E-3,7.3819935E-2,-2.1532309E-1,6.759786E-2,7.7254616E-2,3.5356533E-2],"categories":[],"categories_nodes":[],"categories_segments":[],"categories_sizes":[],"default_left":[0,0,0,0,0,0,0,0,0,0,0,0,0,0,0,0,0,0,0,0,0,0,0,0,0,0,0,0,0],"id":30,"left_children":[1,3,5,7,-1,-1,-1,9,11,13,-1,-1,-1,15,-1,17,19,21,23,25,-1,27,-1,-1,-1,-1,-1,-1,-1],"loss_changes":[1.5772949E1,9.293945E0,3.0911186E1,9.039551E0,0E0,0E0,0E0,5.0010986E0,1.8233871E1,4.828247E0,0E0,0E0,0E0,3.064331E0,0E0,2.0622559E0,3.8544152E0,1.975708E0,2.6291115E0,1.813808E1,0E0,6.989746E-1,0E0,0E0,0E0,0E0,0E0,0E0,0E0],"parents":[2147483647,0,0,1,1,2,2,3,3,7,7,8,8,9,9,13,13,15,15,16,16,17,17,18,18,19,19,21,21],"right_children":[2,4,6,8,-1,-1,-1,10,12,14,-1,-1,-1,16,-1,18,20,22,24,26,-1,28,-1,-1,-1,-1,-1,-1,-1],"split_conditions":[1E0,1E0,1E0,1E0,-8.523074E-2,-2.8013998E-1,6.745332E-2,1E0,1E0,1E0,-6.2438335E-2,-1.5598127E-1,7.168204E-2,1E0,-0E0,1E0,1E0,1E0,1E0,1E0,6.6724405E-2,1E0,2.0073423E-2,4.1414527E-3,7.3819935E-2,-2.1532309E-1,6.759786E-2,7.7254616E-2,3.5356533E-2],"split_indices":[401,1856,49,1888,0,0,0,796,1039,1405,0,0,0,147,0,981,378,1993,626,1560,0,251,0,0,0,0,0,0,0],"split_type":[0,0,0,0,0,0,0,0,0,0,0,0,0,0,0,0,0,0,0,0,0,0,0,0,0,0,0,0,0],"sum_hessian":[1.4442532E3,1.4388787E3,5.3745613E0,1.4373611E3,1.5176086E0,1.5113345E0,3.863227E0,1.4297828E3,7.5782013E0,1.4287776E3,1.0052485E0,2.358048E0,5.2201533E0,1.4240476E3,4.729938E0,1.4102438E3,1.3803912E1,1.3983033E3,1.19404125E1,5.0556436E0,8.748268E0,1.3942375E3,4.065805E0,5.8985276E0,6.041885E0,1.1523477E0,3.903296E0,1.3902412E3,3.9963052E0],"tree_param":{"num_deleted":"0","num_feature":"2048","num_nodes":"29","size_leaf_vector":"1"}},{"base_weights":[1.0187618E0,1.0242844E0,6.932146E-1,1.0261761E0,2.2840071E-2,1.9680709E-1,7.677002E-2,1.0198648E0,9.4617166E-2,-4.7194394E-1,7.059385E-2,1.0244483E0,7.546732E-1,-3.1924012E-1,6.930276E-2,1.0266389E0,3.8144853E-2,-2.5464255E-1,8.953154E-2,1.0280955E0,3.208201E-2,1.029557E0,3.279216E-2,1.0310184E0,3.29115E-2,7.729199E-2,5.3415753E-2],"categories":[],"categories_nodes":[],"categories_segments":[],"categories_sizes":[],"default_left":[0,0,0,0,0,0,0,0,0,0,0,0,0,0,0,0,0,0,0,0,0,0,0,0,0,0,0],"id":31,"left_children":[1,3,5,7,-1,9,-1,11,-1,13,-1,15,17,-1,-1,19,-1,-1,-1,21,-1,23,-1,25,-1,-1,-1],"loss_changes":[2.012085E0,1.6226807E0,4.032178E0,1.185791E0,0E0,5.805655E0,0E0,1.0797119E0,0E0,3.5473507E1,0E0,1.0953369E0,4.8979424E1,0E0,0E0,8.0651855E-1,0E0,0E0,0E0,7.8466797E-1,0E0,7.796631E-1,0E0,6.0876465E-1,0E0,0E0,0E0],"parents":[2147483647,0,0,1,1,2,2,3,3,5,5,7,7,9,9,11,11,12,12,15,15,19,19,21,21,23,23],"right_children":[2,4,6,8,-1,10,-1,12,-1,14,-1,16,18,-1,-1,20,-1,-1,-1,22,-1,24,-1,26,-1,-1,-1],"split_conditions":[1E0,1E0,1E0,1E0,2.2840071E-2,1E0,7.677002E-2,1E0,9.4617166E-2,1E0,7.059385E-2,1E0,1E0,-3.1924012E-1,6.930276E-2,1E0,3.8144853E-2,-2.5464255E-1,8.953154E-2,1E0,3.208201E-2,1E0,3.279216E-2,1E0,3.29115E-2,7.729199E-2,5.3415753E-2],"split_indices":[687,1605,218,1264,0,1246,0,1440,0,757,0,1086,1670,0,0,1000,0,0,0,1291,0,1036,0,638,0,0,0],"split_type":[0,0,0,0,0,0,0,0,0,0,0,0,0,0,0,0,0,0,0,0,0,0,0,0,0,0,0],"sum_hessian":[1.402725E3,1.377903E3,2.482195E1,1.3739628E3,3.9402318E0,1.0420575E1,1.4401377E1,1.3419692E3,3.1993534E1,5.5857196E0,4.834855E0,1.3172858E3,2.4683432E1,1.175994E0,4.4097257E0,1.3110057E3,6.280057E0,1.9725376E0,2.2710894E1,1.3073037E3,3.7021065E0,1.3035398E3,3.7638812E0,1.2997828E3,3.7569253E0,1.2870159E3,1.2767007E1],"tree_param":{"num_deleted":"0","num_feature":"2048","num_nodes":"27","size_leaf_vector":"1"}}]},"name":"gbtree"},"learner_model_param":{"base_score":"5E-1","boost_from_average":"0","num_class":"0","num_feature":"2048","num_target":"1"},"objective":{"name":"binary:logistic","reg_loss_param":{"scale_pos_weight":"76.6413422"}}},"version":[2,0,3]}