{"learner":{"attributes":{"best_iteration":"122","best_score":"0.02671375622353412","scikit_learn":"{\"_estimator_type\": \"classifier\"}"},"feature_names":[],"feature_types":[],"gradient_booster":{"model":{"gbtree_model_param":{"num_parallel_tree":"1","num_trees":"138"},"iteration_indptr":[0,1,2,3,4,5,6,7,8,9,10,11,12,13,14,15,16,17,18,19,20,21,22,23,24,25,26,27,28,29,30,31,32,33,34,35,36,37,38,39,40,41,42,43,44,45,46,47,48,49,50,51,52,53,54,55,56,57,58,59,60,61,62,63,64,65,66,67,68,69,70,71,72,73,74,75,76,77,78,79,80,81,82,83,84,85,86,87,88,89,90,91,92,93,94,95,96,97,98,99,100,101,102,103,104,105,106,107,108,109,110,111,112,113,114,115,116,117,118,119,120,121,122,123,124,125,126,127,128,129,130,131,132,133,134,135,136,137,138],"tree_info":[0,0,0,0,0,0,0,0,0,0,0,0,0,0,0,0,0,0,0,0,0,0,0,0,0,0,0,0,0,0,0,0,0,0,0,0,0,0,0,0,0,0,0,0,0,0,0,0,0,0,0,0,0,0,0,0,0,0,0,0,0,0,0,0,0,0,0,0,0,0,0,0,0,0,0,0,0,0,0,0,0,0,0,0,0,0,0,0,0,0,0,0,0,0,0,0,0,0,0,0,0,0,0,0,0,0,0,0,0,0,0,0,0,0,0,0,0,0,0,0,0,0,0,0,0,0,0,0,0,0,0,0,0,0,0,0,0,0],"trees":[{"base_weights":[1.0823648E0,-9.547321E-1,1.6346002E0,-1.3900408E0,2.298634E-1,-1.493123E0,1.8322462E0,-2.4378105E-1,2.531394E-1,-2.5743088E-1,1.3525896E-1,2.5102654E-1,-3.4085833E-2],"categories":[],"categories_nodes":[],"categories_segments":[],"categories_sizes":[],"default_left":[0,0,0,0,0,0,0,0,0,0,0,0,0],"id":0,"left_children":[1,3,5,7,-1,9,11,-1,-1,-1,-1,-1,-1],"loss_changes":[1.9306981E2,4.3410816E1,8.378906E1,4.8997597E1,0E0,9.746616E0,2.0174194E1,0E0,0E0,0E0,0E0,0E0,0E0],"parents":[2147483647,0,0,1,1,2,2,3,3,5,5,6,6],"right_children":[2,4,6,8,-1,10,12,-1,-1,-1,-1,-1,-1],"split_conditions":[1E0,1E0,1E0,1E0,2.298634E-1,1E0,1E0,-2.4378105E-1,2.531394E-1,-2.5743088E-1,1.3525896E-1,2.5102654E-1,-3.4085833E-2],"split_indices":[699,1254,378,2026,0,1325,1313,0,0,0,0,0,0],"split_type":[0,0,0,0,0,0,0,0,0,0,0,0,0],"sum_hessian":[1.7128131E2,3.6498657E1,1.3478265E2,3.1499329E1,4.9993277E0,7.9498653E0,1.26832794E2,2.7699865E1,3.7994623E0,6.75E0,1.1998656E0,1.2243306E2,4.399731E0],"tree_param":{"num_deleted":"0","num_feature":"2048","num_nodes":"13","size_leaf_vector":"1"}},{"base_weights":[9.069689E-1,-1.0492977E0,1.408399E0,-1.4015334E0,1.1131811E0,-2.2987658E-1,1.585011E0,-2.1425213E-1,2.160928E-1,7.494419E-3,2.240234E-1,2.1910031E-1,-1.18301086E-1],"categories":[],"categories_nodes":[],"categories_segments":[],"categories_sizes":[],"default_left":[0,0,0,0,0,0,0,0,0,0,0,0,0],"id":1,"left_children":[1,3,5,7,9,-1,11,-1,-1,-1,-1,-1,-1],"loss_changes":[1.5641472E2,2.5020222E1,7.105167E1,1.9742157E1,2.8226576E0,0E0,2.4154846E1,0E0,0E0,0E0,0E0,0E0,0E0],"parents":[2147483647,0,0,1,1,2,2,3,3,4,4,6,6],"right_children":[2,4,6,8,10,-1,12,-1,-1,-1,-1,-1,-1],"split_conditions":[1E0,1E0,1E0,1E0,1E0,-2.2987658E-1,1E0,-2.1425213E-1,2.160928E-1,7.494419E-3,2.240234E-1,2.1910031E-1,-1.18301086E-1],"split_indices":[699,262,1855,482,1754,0,1313,0,0,0,0,0,0],"split_type":[0,0,0,0,0,0,0,0,0,0,0,0,0],"sum_hessian":[1.591021E2,3.241986E1,1.2668224E2,2.793037E1,4.489488E0,6.6423483E0,1.20039894E2,2.6060751E1,1.8696197E0,1.6772034E0,2.8122845E0,1.163411E2,3.6987913E0],"tree_param":{"num_deleted":"0","num_feature":"2048","num_nodes":"13","size_leaf_vector":"1"}},{"base_weights":[8.864651E-1,-1.0846547E0,1.2284147E0,-1.4372902E0,2.0235613E-1,-8.750468E-1,1.4449308E0,-2.12901E-1,-6.883866E-2,-1.7704952E-1,2.2774217E-1,2.0086923E-1,2.2555336E-2],"categories":[],"categories_nodes":[],"categories_segments":[],"categories_sizes":[],"default_left":[0,0,0,0,0,0,0,0,0,0,0,0,0],"id":2,"left_children":[1,3,5,7,-1,9,11,-1,-1,-1,-1,-1,-1],"loss_changes":[1.0675628E2,2.1974655E1,6.158539E1,3.2565002E0,0E0,1.5828417E1,1.2642502E1,0E0,0E0,0E0,0E0,0E0,0E0],"parents":[2147483647,0,0,1,1,2,2,3,3,5,5,6,6],"right_children":[2,4,6,8,-1,10,12,-1,-1,-1,-1,-1,-1],"split_conditions":[1E0,1E0,1E0,1E0,2.0235613E-1,1E0,1E0,-2.12901E-1,-6.883866E-2,-1.7704952E-1,2.2774217E-1,2.0086923E-1,2.2555336E-2],"split_indices":[1928,482,378,590,0,310,1199,0,0,0,0,0,0],"split_type":[0,0,0,0,0,0,0,0,0,0,0,0,0],"sum_hessian":[1.579726E2,2.3298706E1,1.3467389E2,2.0600384E1,2.698323E0,1.2518855E1,1.2215503E2,1.7087982E1,3.5124018E0,1.0668536E1,1.8503191E0,1.14748055E2,7.406976E0],"tree_param":{"num_deleted":"0","num_feature":"2048","num_nodes":"13","size_leaf_vector":"1"}},{"base_weights":[8.174967E-1,-1.09123E0,1.1209587E0,-1.3183432E0,1.821504E-1,-8.850863E-1,1.3342617E0,-1.9693585E-1,-6.1161846E-2,-2.0008153E-1,9.248564E-2,1.8513764E-1,-1.2131849E-1],"categories":[],"categories_nodes":[],"categories_segments":[],"categories_sizes":[],"default_left":[0,0,0,0,0,0,0,0,0,0,0,0,0],"id":3,"left_children":[1,3,5,7,-1,9,11,-1,-1,-1,-1,-1,-1],"loss_changes":[8.937902E1,1.2160196E1,5.706984E1,2.8215675E0,0E0,1.3136669E1,1.9940552E1,0E0,0E0,0E0,0E0,0E0,0E0],"parents":[2147483647,0,0,1,1,2,2,3,3,5,5,6,6],"right_children":[2,4,6,8,-1,10,12,-1,-1,-1,-1,-1,-1],"split_conditions":[1E0,1E0,1E0,1E0,1.821504E-1,1E0,1E0,-1.9693585E-1,-6.1161846E-2,-2.0008153E-1,9.248564E-2,1.8513764E-1,-1.2131849E-1],"split_indices":[1928,2026,1754,409,0,1270,1313,0,0,0,0,0,0],"split_type":[0,0,0,0,0,0,0,0,0,0,0,0,0],"sum_hessian":[1.5387935E2,2.104847E1,1.3283087E2,1.9347818E1,1.7006526E0,1.2713553E1,1.2011732E2,1.5893289E1,3.454529E0,9.095186E0,3.6183672E0,1.1642415E2,3.693174E0],"tree_param":{"num_deleted":"0","num_feature":"2048","num_nodes":"13","size_leaf_vector":"1"}},{"base_weights":[7.9684675E-1,-5.8726037E-1,1.1641834E0,-9.537604E-1,1.1417094E0,-9.189686E-1,1.275947E0,-1.6892663E-1,1.788536E-1,5.4459956E-2,1.8103537E-1,-1.8293391E-1,1.3223109E-1,1.8681052E-1,7.101609E-2],"categories":[],"categories_nodes":[],"categories_segments":[],"categories_sizes":[],"default_left":[0,0,0,0,0,0,0,0,0,0,0,0,0,0,0],"id":4,"left_children":[1,3,5,7,9,11,13,-1,-1,-1,-1,-1,-1,-1,-1],"loss_changes":[7.644303E1,2.0146809E1,2.780774E1,2.0189344E1,8.2621527E-1,5.7447147E0,1.1781952E1,0E0,0E0,0E0,0E0,0E0,0E0,0E0,0E0],"parents":[2147483647,0,0,1,1,2,2,3,3,4,4,5,5,6,6],"right_children":[2,4,6,8,10,12,14,-1,-1,-1,-1,-1,-1,-1,-1],"split_conditions":[1E0,1E0,1E0,1E0,1E0,1E0,1E0,-1.6892663E-1,1.788536E-1,5.4459956E-2,1.8103537E-1,-1.8293391E-1,1.3223109E-1,1.8681052E-1,7.101609E-2],"split_indices":[699,1254,1855,2026,80,114,1603,0,0,0,0,0,0,0,0],"split_type":[0,0,0,0,0,0,0,0,0,0,0,0,0,0,0],"sum_hessian":[1.4999977E2,3.1428366E1,1.185714E2,2.5994316E1,5.4340487E0,5.9756126E0,1.12595795E2,2.2811007E1,3.183309E0,1.4414362E0,3.9926126E0,4.8408475E0,1.134765E0,9.405973E1,1.8536062E1],"tree_param":{"num_deleted":"0","num_feature":"2048","num_nodes":"15","size_leaf_vector":"1"}},{"base_weights":[6.5471023E-1,-6.570048E-1,1.0137216E0,-1.0336257E0,1.0618927E0,1.1191434E0,-1.7363782E-1,-1.80284E-1,1.6940302E-1,4.8146755E-2,1.7145461E-1,1.5862116E-1,-1.2821415E-1],"categories":[],"categories_nodes":[],"categories_segments":[],"categories_sizes":[],"default_left":[0,0,0,0,0,0,0,0,0,0,0,0,0],"id":5,"left_children":[1,3,5,7,9,11,-1,-1,-1,-1,-1,-1,-1],"loss_changes":[6.342386E1,1.889978E1,2.6184288E1,1.8865868E1,7.755313E-1,1.8461685E1,0E0,0E0,0E0,0E0,0E0,0E0,0E0],"parents":[2147483647,0,0,1,1,2,2,3,3,4,4,5,5],"right_children":[2,4,6,8,10,12,-1,-1,-1,-1,-1,-1,-1],"split_conditions":[1E0,1E0,1E0,1E0,1E0,1E0,-1.7363782E-1,-1.80284E-1,1.6940302E-1,4.8146755E-2,1.7145461E-1,1.5862116E-1,-1.2821415E-1],"split_indices":[699,1254,1034,2026,310,1313,0,0,0,0,0,0,0],"split_type":[0,0,0,0,0,0,0,0,0,0,0,0,0],"sum_hessian":[1.3433014E2,2.882574E1,1.05504395E2,2.3701897E1,5.123844E0,1.0102243E2,4.481966E0,2.0759098E1,2.9427993E0,1.4344069E0,3.6894374E0,9.70868E1,3.9356322E0],"tree_param":{"num_deleted":"0","num_feature":"2048","num_nodes":"13","size_leaf_vector":"1"}},{"base_weights":[6.581133E-1,5.6594305E-2,1.7178282E-1,-3.658338E-1,1.6348486E-1,-9.274265E-2,1.17177896E-1],"categories":[],"categories_nodes":[],"categories_segments":[],"categories_sizes":[],"default_left":[0,0,0,0,0,0,0],"id":6,"left_children":[1,3,-1,5,-1,-1,-1],"loss_changes":[4.971235E1,3.3344765E1,0E0,2.0971619E1,0E0,0E0,0E0],"parents":[2147483647,0,0,1,1,3,3],"right_children":[2,4,-1,6,-1,-1,-1],"split_conditions":[1E0,1E0,1.7178282E-1,1E0,1.6348486E-1,-9.274265E-2,1.17177896E-1],"split_indices":[896,622,0,1564,0,0,0],"split_type":[0,0,0,0,0,0,0],"sum_hessian":[1.2762496E2,6.625636E1,6.1368595E1,4.8908363E1,1.7348005E1,3.8578884E1,1.0329477E1],"tree_param":{"num_deleted":"0","num_feature":"2048","num_nodes":"7","size_leaf_vector":"1"}},{"base_weights":[6.311715E-1,-5.4125243E-1,9.481035E-1,-7.803185E-1,1.6588682E-1,-9.458029E-1,1.084949E0,-1.22649364E-1,2.558081E-1,-1.7138678E-1,1.02115445E-1,1.6393034E-1,4.345278E-2],"categories":[],"categories_nodes":[],"categories_segments":[],"categories_sizes":[],"default_left":[0,0,0,0,0,0,0,0,0,0,0,0,0],"id":7,"left_children":[1,3,5,7,-1,9,11,-1,-1,-1,-1,-1,-1],"loss_changes":[4.3712566E1,1.09177265E1,2.4118439E1,9.414077E0,0E0,4.0184283E0,1.0390678E1,0E0,0E0,0E0,0E0,0E0,0E0],"parents":[2147483647,0,0,1,1,2,2,3,3,5,5,6,6],"right_children":[2,4,6,8,-1,10,12,-1,-1,-1,-1,-1,-1],"split_conditions":[1E0,1E0,1E0,1E0,1.6588682E-1,1E0,1E0,-1.22649364E-1,2.558081E-1,-1.7138678E-1,1.02115445E-1,1.6393034E-1,4.345278E-2],"split_indices":[699,90,378,1978,0,1039,1301,0,0,0,0,0,0],"split_type":[0,0,0,0,0,0,0,0,0,0,0,0,0],"sum_hessian":[1.1728575E2,2.4920572E1,9.236518E1,2.2082727E1,2.8378453E0,6.1570864E0,8.620809E1,2.1011412E1,1.0713159E0,5.1402006E0,1.0168854E0,7.0955414E1,1.5252677E1],"tree_param":{"num_deleted":"0","num_feature":"2048","num_nodes":"13","size_leaf_vector":"1"}},{"base_weights":[6.054815E-1,-5.107885E-1,9.0555775E-1,-8.831672E-1,1.585903E-1,-8.6315566E-1,1.0246433E0,-1.6339052E-1,2.2563215E-2,-1.6565037E-1,7.703409E-2,1.5941308E-1,3.692686E-2],"categories":[],"categories_nodes":[],"categories_segments":[],"categories_sizes":[],"default_left":[0,0,0,0,0,0,0,0,0,0,0,0,0],"id":8,"left_children":[1,3,5,7,-1,9,11,-1,-1,-1,-1,-1,-1],"loss_changes":[3.5573288E1,1.4531291E1,1.7732735E1,7.0903835E0,0E0,3.1766279E0,1.0817146E1,0E0,0E0,0E0,0E0,0E0,0E0],"parents":[2147483647,0,0,1,1,2,2,3,3,5,5,6,6],"right_children":[2,4,6,8,-1,10,12,-1,-1,-1,-1,-1,-1],"split_conditions":[1E0,1E0,1E0,1E0,1.585903E-1,1E0,1E0,-1.6339052E-1,2.2563215E-2,-1.6565037E-1,7.703409E-2,1.5941308E-1,3.692686E-2],"split_indices":[699,1254,378,1224,0,1480,489,0,0,0,0,0,0],"split_type":[0,0,0,0,0,0,0,0,0,0,0,0,0],"sum_hessian":[1.0584319E2,2.2386396E1,8.34568E1,1.8461643E1,3.9247527E0,5.1971455E0,7.825965E1,1.3776764E1,4.684879E0,4.109674E0,1.0874717E0,6.2451027E1,1.5808627E1],"tree_param":{"num_deleted":"0","num_feature":"2048","num_nodes":"13","size_leaf_vector":"1"}},{"base_weights":[5.3751415E-1,8.763485E-1,-4.7877684E-1,-8.4269696E-1,1.073273E0,-1.5448288E0,6.4084485E-2,-1.5650761E-1,1.12878844E-1,1.5302707E-1,8.811952E-2,-3.306326E-1,-1.4260107E-1,-2.4958586E-2,1.6327915E-1],"categories":[],"categories_nodes":[],"categories_segments":[],"categories_sizes":[],"default_left":[0,0,0,0,0,0,0,0,0,0,0,0,0,0,0],"id":9,"left_children":[1,3,5,7,9,11,13,-1,-1,-1,-1,-1,-1,-1,-1],"loss_changes":[3.2931614E1,2.4381943E1,1.390141E1,4.528142E0,2.1773453E0,3.148922E0,4.829397E0,0E0,0E0,0E0,0E0,0E0,0E0,0E0,0E0],"parents":[2147483647,0,0,1,1,2,2,3,3,4,4,5,5,6,6],"right_children":[2,4,6,8,10,12,14,-1,-1,-1,-1,-1,-1,-1,-1],"split_conditions":[1E0,1E0,1E0,1E0,1E0,1E0,1E0,-1.5650761E-1,1.12878844E-1,1.5302707E-1,8.811952E-2,-3.306326E-1,-1.4260107E-1,-2.4958586E-2,1.6327915E-1],"split_indices":[1088,1754,1057,419,489,807,2026,0,0,0,0,0,0,0,0],"split_type":[0,0,0,0,0,0,0,0,0,0,0,0,0,0,0],"sum_hessian":[9.529935E1,7.150357E1,2.3795784E1,7.2897563E0,6.421381E1,7.959108E0,1.5836676E1,6.1016445E0,1.1881118E0,5.2270008E1,1.1943803E1,2.3531637E0,5.6059437E0,1.31045475E1,2.7321281E0],"tree_param":{"num_deleted":"0","num_feature":"2048","num_nodes":"15","size_leaf_vector":"1"}},{"base_weights":[5.096732E-1,3.0051237E-2,1.5352508E-1,-3.743204E-1,1.4683628E-1,-1.7721024E-1,3.737672E-3],"categories":[],"categories_nodes":[],"categories_segments":[],"categories_sizes":[],"default_left":[0,0,0,0,0,0,0],"id":10,"left_children":[1,3,-1,5,-1,-1,-1],"loss_changes":[2.9676392E1,2.407722E1,0E0,1.5670399E1,0E0,0E0,0E0],"parents":[2147483647,0,0,1,1,3,3],"right_children":[2,4,-1,6,-1,-1,-1],"split_conditions":[1E0,1E0,1.5352508E-1,1E0,1.4683628E-1,-1.7721024E-1,3.737672E-3],"split_indices":[1964,622,0,1057,0,0,0],"split_type":[0,0,0,0,0,0,0],"sum_hessian":[9.4133575E1,5.452134E1,3.9612232E1,3.9776176E1,1.4745162E1,1.1572471E1,2.8203707E1],"tree_param":{"num_deleted":"0","num_feature":"2048","num_nodes":"7","size_leaf_vector":"1"}},{"base_weights":[4.8896548E-1,4.0511776E-2,1.4705594E-1,-2.4889103E-1,1.4112659E-1,-7.82049E-2,1.5076251E-1],"categories":[],"categories_nodes":[],"categories_segments":[],"categories_sizes":[],"default_left":[0,0,0,0,0,0,0],"id":11,"left_children":[1,3,-1,5,-1,-1,-1],"loss_changes":[2.4387283E1,1.5208373E1,0E0,1.9212519E1,0E0,0E0,0E0],"parents":[2147483647,0,0,1,1,3,3],"right_children":[2,4,-1,6,-1,-1,-1],"split_conditions":[1E0,1E0,1.4705594E-1,1E0,1.4112659E-1,-7.82049E-2,1.5076251E-1],"split_indices":[881,622,0,2045,0,0,0],"split_type":[0,0,0,0,0,0,0],"sum_hessian":[8.649051E1,5.058923E1,3.590128E1,3.9572308E1,1.101692E1,3.1793747E1,7.778562E0],"tree_param":{"num_deleted":"0","num_feature":"2048","num_nodes":"7","size_leaf_vector":"1"}},{"base_weights":[4.8713925E-1,6.9682315E-2,1.4790551E-1,-4.3551153E-1,7.048615E-1,-1.01260975E-1,1.4603195E-1,1.1738291E-1,-1.6623501E-1],"categories":[],"categories_nodes":[],"categories_segments":[],"categories_sizes":[],"default_left":[0,0,0,0,0,0,0,0,0],"id":12,"left_children":[1,3,-1,5,7,-1,-1,-1,-1],"loss_changes":[2.1818947E1,1.6039625E1,0E0,1.4470705E1,8.309213E0,0E0,0E0,0E0,0E0],"parents":[2147483647,0,0,1,1,3,3,4,4],"right_children":[2,4,-1,6,8,-1,-1,-1,-1],"split_conditions":[1E0,1E0,1.4790551E-1,1E0,1E0,-1.01260975E-1,1.4603195E-1,1.1738291E-1,-1.6623501E-1],"split_indices":[896,1683,0,2045,1765,0,0,0,0],"split_type":[0,0,0,0,0,0,0,0,0],"sum_hessian":[8.207388E1,4.969532E1,3.2378563E1,2.7681837E1,2.2013485E1,2.2831371E1,4.8504653E0,2.0181353E1,1.8321323E0],"tree_param":{"num_deleted":"0","num_feature":"2048","num_nodes":"9","size_leaf_vector":"1"}},{"base_weights":[4.263294E-1,1.2762791E-2,1.455465E-1,-4.1469145E-1,6.096763E-1,-1.1329763E-1,7.76812E-2,-5.0745953E-2,1.19335346E-1],"categories":[],"categories_nodes":[],"categories_segments":[],"categories_sizes":[],"default_left":[0,0,0,0,0,0,0,0,0],"id":13,"left_children":[1,3,-1,5,7,-1,-1,-1,-1],"loss_changes":[2.057798E1,1.1709245E1,0E0,1.2058799E1,5.7319713E0,0E0,0E0,0E0,0E0],"parents":[2147483647,0,0,1,1,3,3,4,4],"right_children":[2,4,-1,6,8,-1,-1,-1,-1],"split_conditions":[1E0,1E0,1.455465E-1,1E0,1E0,-1.1329763E-1,7.76812E-2,-5.0745953E-2,1.19335346E-1],"split_indices":[896,1683,0,294,1928,0,0,0,0],"split_type":[0,0,0,0,0,0,0,0,0],"sum_hessian":[7.316099E1,4.559853E1,2.7562456E1,2.6570702E1,1.9027828E1,1.8430197E1,8.140504E0,4.3471093E0,1.4680719E1],"tree_param":{"num_deleted":"0","num_feature":"2048","num_nodes":"9","size_leaf_vector":"1"}},{"base_weights":[4.7095016E-1,-8.834875E-1,6.4542013E-1,-1.6118048E-1,8.225367E-2,8.0269927E-1,-1.7115143E-1,1.24146424E-1,4.65551E-2],"categories":[],"categories_nodes":[],"categories_segments":[],"categories_sizes":[],"default_left":[0,0,0,0,0,0,0,0,0],"id":14,"left_children":[1,3,5,-1,-1,7,-1,-1,-1],"loss_changes":[1.6620811E1,4.2585387E0,1.914948E1,0E0,0E0,3.5614166E0,0E0,0E0,0E0],"parents":[2147483647,0,0,1,1,2,2,5,5],"right_children":[2,4,6,-1,-1,8,-1,-1,-1],"split_conditions":[1E0,1E0,1E0,-1.6118048E-1,8.225367E-2,1E0,-1.7115143E-1,1.24146424E-1,4.65551E-2],"split_indices":[378,310,1066,0,0,1603,0,0,0],"split_type":[0,0,0,0,0,0,0,0,0],"sum_hessian":[6.989215E1,7.895543E0,6.1996613E1,6.472869E0,1.4226742E0,5.7447613E1,4.5489984E0,4.3571404E1,1.387621E1],"tree_param":{"num_deleted":"0","num_feature":"2048","num_nodes":"9","size_leaf_vector":"1"}},{"base_weights":[3.6576453E-1,2.1318184E-2,1.4165734E-1,-2.9186603E-1,9.2156947E-1,-1.1026021E-1,5.4197986E-2,2.6654819E-2,1.4839318E-1],"categories":[],"categories_nodes":[],"categories_segments":[],"categories_sizes":[],"default_left":[0,0,0,0,0,0,0,0,0],"id":15,"left_children":[1,3,-1,5,7,-1,-1,-1,-1],"loss_changes":[1.5937124E1,1.2484775E1,0E0,1.2663239E1,1.6304903E0,0E0,0E0,0E0,0E0],"parents":[2147483647,0,0,1,1,3,3,4,4],"right_children":[2,4,-1,6,8,-1,-1,-1,-1],"split_conditions":[1E0,1E0,1.4165734E-1,1E0,1E0,-1.1026021E-1,5.4197986E-2,2.6654819E-2,1.4839318E-1],"split_indices":[896,666,0,1152,1855,0,0,0,0],"split_type":[0,0,0,0,0,0,0,0,0],"sum_hessian":[6.50794E1,4.3956467E1,2.1122929E1,3.265946E1,1.1297009E1,1.8394953E1,1.4264506E1,2.605919E0,8.691091E0],"tree_param":{"num_deleted":"0","num_feature":"2048","num_nodes":"9","size_leaf_vector":"1"}},{"base_weights":[3.5860324E-1,5.110278E-2,1.3506624E-1,-1.3651334E-1,1.3955367E-1,-5.748748E-2,1.0214004E-1],"categories":[],"categories_nodes":[],"categories_segments":[],"categories_sizes":[],"default_left":[0,0,0,0,0,0,0],"id":16,"left_children":[1,3,-1,5,-1,-1,-1],"loss_changes":[1.2481001E1,7.978461E0,0E0,9.75301E0,0E0,0E0,0E0],"parents":[2147483647,0,0,1,1,3,3],"right_children":[2,4,-1,6,-1,-1,-1],"split_conditions":[1E0,1E0,1.3506624E-1,1E0,1.3955367E-1,-5.748748E-2,1.0214004E-1],"split_indices":[1314,2045,0,809,0,0,0],"split_type":[0,0,0,0,0,0,0],"sum_hessian":[6.080009E1,4.175964E1,1.9040451E1,3.5294003E1,6.4656386E0,2.6629496E1,8.664507E0],"tree_param":{"num_deleted":"0","num_feature":"2048","num_nodes":"7","size_leaf_vector":"1"}},{"base_weights":[3.6482012E-1,6.9505984E-1,-2.8219205E-1,7.7844644E-1,-1.4510874E-1,-1.6696443E-1,1.4937398E-1,1.1223152E-1,-1.296166E-1,-1.837624E-2,1.6349295E-1],"categories":[],"categories_nodes":[],"categories_segments":[],"categories_sizes":[],"default_left":[0,0,0,0,0,0,0,0,0,0,0],"id":17,"left_children":[1,3,5,7,-1,-1,9,-1,-1,-1,-1],"loss_changes":[1.225832E1,5.796604E0,8.315567E0,4.888321E0,0E0,0E0,4.349339E0,0E0,0E0,0E0,0E0],"parents":[2147483647,0,0,1,1,2,2,3,3,6,6],"right_children":[2,4,6,8,-1,-1,10,-1,-1,-1,-1],"split_conditions":[1E0,1E0,1E0,1E0,-1.4510874E-1,-1.6696443E-1,1E0,1.1223152E-1,-1.296166E-1,-1.837624E-2,1.6349295E-1],"split_indices":[1088,784,1057,1034,0,0,2026,0,0,0,0],"split_type":[0,0,0,0,0,0,0,0,0,0,0],"sum_hessian":[5.7058628E1,3.779604E1,1.9262587E1,3.6208527E1,1.5875129E0,5.7980094E0,1.3464578E1,3.4822296E1,1.3862295E0,1.0725437E1,2.739141E0],"tree_param":{"num_deleted":"0","num_feature":"2048","num_nodes":"11","size_leaf_vector":"1"}},{"base_weights":[3.5045442E-1,-3.968756E-3,1.3375601E-1,-2.0628826E-1,1.4113066E-1,-5.738296E-2,1.3553822E-1],"categories":[],"categories_nodes":[],"categories_segments":[],"categories_sizes":[],"default_left":[0,0,0,0,0,0,0],"id":18,"left_children":[1,3,-1,5,-1,-1,-1],"loss_changes":[1.3274488E1,8.011005E0,0E0,8.873273E0,0E0,0E0,0E0],"parents":[2147483647,0,0,1,1,3,3],"right_children":[2,4,-1,6,-1,-1,-1],"split_conditions":[1E0,1E0,1.3375601E-1,1E0,1.4113066E-1,-5.738296E-2,1.3553822E-1],"split_indices":[1160,622,0,2045,0,0,0],"split_type":[0,0,0,0,0,0,0],"sum_hessian":[5.598106E1,3.6603344E1,1.9377716E1,3.0925817E1,5.677527E0,2.6170385E1,4.755432E0],"tree_param":{"num_deleted":"0","num_feature":"2048","num_nodes":"7","size_leaf_vector":"1"}},{"base_weights":[2.3937619E-1,-8.816234E-2,1.3752747E-1,-3.3507407E-1,1.22685105E-1,-6.476369E-2,1.590349E-1],"categories":[],"categories_nodes":[],"categories_segments":[],"categories_sizes":[],"default_left":[0,0,0,0,0,0,0],"id":19,"left_children":[1,3,-1,5,-1,-1,-1],"loss_changes":[1.34084835E1,9.130975E0,0E0,7.1487327E0,0E0,0E0,0E0],"parents":[2147483647,0,0,1,1,3,3],"right_children":[2,4,-1,6,-1,-1,-1],"split_conditions":[1E0,1E0,1.3752747E-1,1E0,1.22685105E-1,-6.476369E-2,1.590349E-1],"split_indices":[896,622,0,2026,0,0,0],"split_type":[0,0,0,0,0,0,0],"sum_hessian":[5.052411E1,3.5987614E1,1.4536493E1,2.907119E1,6.916424E0,2.648518E1,2.5860102E0],"tree_param":{"num_deleted":"0","num_feature":"2048","num_nodes":"7","size_leaf_vector":"1"}},{"base_weights":[2.281495E-1,-7.923123E-2,1.3650267E-1,-5.8138025E-1,5.8213353E-1,-1.2738419E-1,1.2427704E-1,-2.8847296E-2,1.140215E-1],"categories":[],"categories_nodes":[],"categories_segments":[],"categories_sizes":[],"default_left":[0,0,0,0,0,0,0,0,0],"id":20,"left_children":[1,3,-1,5,7,-1,-1,-1,-1],"loss_changes":[1.149766E1,1.1171644E1,0E0,1.1416424E1,3.3485231E0,0E0,0E0,0E0,0E0],"parents":[2147483647,0,0,1,1,3,3,4,4],"right_children":[2,4,-1,6,8,-1,-1,-1,-1],"split_conditions":[1E0,1E0,1.3650267E-1,1E0,1E0,-1.2738419E-1,1.2427704E-1,-2.8847296E-2,1.140215E-1],"split_indices":[896,1683,0,592,1928,0,0,0,0],"split_type":[0,0,0,0,0,0,0,0,0],"sum_hessian":[4.594095E1,3.336198E1,1.257897E1,1.8994732E1,1.4367247E1,1.5207112E1,3.7876194E0,3.7486022E0,1.0618645E1],"tree_param":{"num_deleted":"0","num_feature":"2048","num_nodes":"9","size_leaf_vector":"1"}},{"base_weights":[2.0421839E-1,-5.8605915E-1,5.449109E-1,-1.0273867E0,7.697811E-1,-3.5824648E-1,7.7337843E-1,-1.6312441E-1,-2.6870176E-2,9.169584E-3,1.5394825E-1,-1.2731992E-1,1.6906124E-1,1.1503999E-1,-1.3640183E-1],"categories":[],"categories_nodes":[],"categories_segments":[],"categories_sizes":[],"default_left":[0,0,0,0,0,0,0,0,0,0,0,0,0,0,0],"id":21,"left_children":[1,3,5,7,9,11,13,-1,-1,-1,-1,-1,-1,-1,-1],"loss_changes":[1.1491823E1,7.806181E0,6.1989326E0,1.6367426E0,8.600209E-1,6.259887E0,4.47826E0,0E0,0E0,0E0,0E0,0E0,0E0,0E0,0E0],"parents":[2147483647,0,0,1,1,2,2,3,3,4,4,5,5,6,6],"right_children":[2,4,6,8,10,12,14,-1,-1,-1,-1,-1,-1,-1,-1],"split_conditions":[1E0,1E0,1E0,1E0,1E0,1E0,1E0,-1.6312441E-1,-2.6870176E-2,9.169584E-3,1.5394825E-1,-1.2731992E-1,1.6906124E-1,1.1503999E-1,-1.3640183E-1],"split_indices":[699,489,1057,310,2026,561,1089,0,0,0,0,0,0,0,0],"split_type":[0,0,0,0,0,0,0,0,0,0,0,0,0,0,0],"sum_hessian":[4.2386013E1,1.2716255E1,2.9669756E1,9.632661E0,3.0835943E0,5.9521008E0,2.3717655E1,7.5776615E0,2.0549996E0,1.2031578E0,1.8804365E0,4.394182E0,1.5579183E0,2.2545385E1,1.1722707E0],"tree_param":{"num_deleted":"0","num_feature":"2048","num_nodes":"15","size_leaf_vector":"1"}},{"base_weights":[2.4382989E-1,-3.988485E-2,1.3495915E-1,-2.1648087E-1,1.1268628E-1,-6.662149E-2,9.6967414E-2],"categories":[],"categories_nodes":[],"categories_segments":[],"categories_sizes":[],"default_left":[0,0,0,0,0,0,0],"id":22,"left_children":[1,3,-1,5,-1,-1,-1],"loss_changes":[9.133546E0,4.7925014E0,0E0,7.058625E0,0E0,0E0,0E0],"parents":[2147483647,0,0,1,1,3,3],"right_children":[2,4,-1,6,-1,-1,-1],"split_conditions":[1E0,1E0,1.3495915E-1,1E0,1.1268628E-1,-6.662149E-2,9.6967414E-2],"split_indices":[896,622,0,1224,0,0,0],"split_type":[0,0,0,0,0,0,0],"sum_hessian":[4.089966E1,3.008186E1,1.08178E1,2.5240948E1,4.8409114E0,1.9426193E1,5.814754E0],"tree_param":{"num_deleted":"0","num_feature":"2048","num_nodes":"7","size_leaf_vector":"1"}},{"base_weights":[2.973298E-1,4.1273004E-1,-1.4750578E-1,4.8630852E-1,-2.0379834E-1,7.3340446E-2,-1.4203615E-1],"categories":[],"categories_nodes":[],"categories_segments":[],"categories_sizes":[],"default_left":[0,0,0,0,0,0,0],"id":23,"left_children":[1,3,-1,5,-1,-1,-1],"loss_changes":[6.765371E0,5.57298E0,0E0,4.167618E0,0E0,0E0,0E0],"parents":[2147483647,0,0,1,1,3,3],"right_children":[2,4,-1,6,-1,-1,-1],"split_conditions":[1E0,1E0,-1.4750578E-1,1E0,-2.0379834E-1,7.3340446E-2,-1.4203615E-1],"split_indices":[1066,1274,0,784,0,0,0],"split_type":[0,0,0,0,0,0,0],"sum_hessian":[4.0916523E1,3.7944427E1,2.9720953E0,3.668449E1,1.259935E0,3.5191414E1,1.4930767E0],"tree_param":{"num_deleted":"0","num_feature":"2048","num_nodes":"7","size_leaf_vector":"1"}},{"base_weights":[1.6118701E-1,-8.181388E-2,1.3342716E-1,-2.9805028E-1,7.2203916E-1,-6.986031E-2,1.2312647E-1,1.6820966E-1,-8.5768744E-2],"categories":[],"categories_nodes":[],"categories_segments":[],"categories_sizes":[],"default_left":[0,0,0,0,0,0,0,0,0],"id":24,"left_children":[1,3,-1,5,7,-1,-1,-1,-1],"loss_changes":[7.8340597E0,5.1277494E0,0E0,6.7482243E0,4.9042506E0,0E0,0E0,0E0,0E0],"parents":[2147483647,0,0,1,1,3,3,4,4],"right_children":[2,4,-1,6,8,-1,-1,-1,-1],"split_conditions":[1E0,1E0,1.3342716E-1,1E0,1E0,-6.986031E-2,1.2312647E-1,1.6820966E-1,-8.5768744E-2],"split_indices":[896,191,0,592,4,0,0,0,0],"split_type":[0,0,0,0,0,0,0,0,0],"sum_hessian":[3.749502E1,2.92543E1,8.240723E0,2.3145807E1,6.108492E0,1.9553572E1,3.5922356E0,4.367677E0,1.7408144E0],"tree_param":{"num_deleted":"0","num_feature":"2048","num_nodes":"9","size_leaf_vector":"1"}},{"base_weights":[2.510853E-1,-0E0,9.756419E-1,-3.6619535E-1,5.2061886E-1,1.4244197E-1,3.164506E-2,-7.899991E-2,1.0092682E-1,-1.3552366E-1,9.823563E-2],"categories":[],"categories_nodes":[],"categories_segments":[],"categories_sizes":[],"default_left":[0,0,0,0,0,0,0,0,0,0,0],"id":25,"left_children":[1,3,5,7,9,-1,-1,-1,-1,-1,-1],"loss_changes":[6.856366E0,5.4110065E0,6.9384575E-1,4.4726677E0,4.210724E0,0E0,0E0,0E0,0E0,0E0,0E0],"parents":[2147483647,0,0,1,1,2,2,3,3,4,4],"right_children":[2,4,6,8,10,-1,-1,-1,-1,-1,-1],"split_conditions":[1E0,1E0,1E0,1E0,1E0,1.4244197E-1,3.164506E-2,-7.899991E-2,1.0092682E-1,-1.3552366E-1,9.823563E-2],"split_indices":[809,1683,1573,841,1855,0,0,0,0,0,0],"split_type":[0,0,0,0,0,0,0,0,0,0,0],"sum_hessian":[3.766021E1,2.8091095E1,9.569116E0,1.6492172E1,1.1598922E1,8.267487E0,1.3016295E0,1.3739435E1,2.7527378E0,1.3990412E0,1.0199881E1],"tree_param":{"num_deleted":"0","num_feature":"2048","num_nodes":"11","size_leaf_vector":"1"}},{"base_weights":[2.343867E-1,4.776073E-2,1.3220058E-1,-2.7727947E-1,5.408015E-1,-6.2367067E-2,1.4791588E-1,4.6644274E-2,2.833692E-1],"categories":[],"categories_nodes":[],"categories_segments":[],"categories_sizes":[],"default_left":[0,0,0,0,0,0,0,0,0],"id":26,"left_children":[1,3,-1,5,7,-1,-1,-1,-1],"loss_changes":[5.294224E0,4.8349123E0,0E0,5.0576234E0,3.436686E0,0E0,0E0,0E0,0E0],"parents":[2147483647,0,0,1,1,3,3,4,4],"right_children":[2,4,-1,6,8,-1,-1,-1,-1],"split_conditions":[1E0,1E0,1.3220058E-1,1E0,1E0,-6.2367067E-2,1.4791588E-1,4.6644274E-2,2.833692E-1],"split_indices":[1964,1683,0,2026,703,0,0,0,0],"split_type":[0,0,0,0,0,0,0,0,0],"sum_hessian":[3.6918495E1,2.9862408E1,7.056086E0,1.8002836E1,1.18595705E1,1.5882348E1,2.1204886E0,1.0795573E1,1.0639974E0],"tree_param":{"num_deleted":"0","num_feature":"2048","num_nodes":"9","size_leaf_vector":"1"}},{"base_weights":[2.4808183E-1,5.926786E-1,-3.6250776E-1,-3.3787E-1,8.199929E-1,-6.353103E-1,7.466797E-1,-1.3448071E-1,6.547214E-2,1.3494234E-1,6.573138E-2,-1.1588516E-1,1.2310048E-1,-3.2144121E-3,1.9328518E-1],"categories":[],"categories_nodes":[],"categories_segments":[],"categories_sizes":[],"default_left":[0,0,0,0,0,0,0,0,0,0,0,0,0,0,0],"id":27,"left_children":[1,3,5,7,9,11,13,-1,-1,-1,-1,-1,-1,-1,-1],"loss_changes":[7.137886E0,4.6311812E0,3.7650368E0,2.5564647E0,1.0418129E0,3.9337068E0,1.4117068E0,0E0,0E0,0E0,0E0,0E0,0E0,0E0,0E0],"parents":[2147483647,0,0,1,1,2,2,3,3,4,4,5,5,6,6],"right_children":[2,4,6,8,10,12,14,-1,-1,-1,-1,-1,-1,-1,-1],"split_conditions":[1E0,1E0,1E0,1E0,1E0,1E0,1E0,-1.3448071E-1,6.547214E-2,1.3494234E-1,6.573138E-2,-1.1588516E-1,1.2310048E-1,-3.2144121E-3,1.9328518E-1],"split_indices":[1088,1855,191,1254,1603,896,389,0,0,0,0,0,0,0,0],"split_type":[0,0,0,0,0,0,0,0,0,0,0,0,0,0,0],"sum_hessian":[3.361918E1,2.1519566E1,1.2099611E1,4.1898856E0,1.732968E1,9.776477E0,2.3231351E0,2.303225E0,1.8866608E0,1.032497E1,7.00471E0,8.521499E0,1.254978E0,1.1708473E0,1.1522878E0],"tree_param":{"num_deleted":"0","num_feature":"2048","num_nodes":"15","size_leaf_vector":"1"}},{"base_weights":[1.13002874E-1,-6.319227E-2,1.3049023E-1,-2.3286256E-1,1.3130225E-1,-6.3057296E-2,1.0278592E-1],"categories":[],"categories_nodes":[],"categories_segments":[],"categories_sizes":[],"default_left":[0,0,0,0,0,0,0],"id":28,"left_children":[1,3,-1,5,-1,-1,-1],"loss_changes":[4.8605895E0,4.708487E0,0E0,5.6947746E0,0E0,0E0,0E0],"parents":[2147483647,0,0,1,1,3,3],"right_children":[2,4,-1,6,-1,-1,-1],"split_conditions":[1E0,1E0,1.3049023E-1,1E0,1.3130225E-1,-6.3057296E-2,1.0278592E-1],"split_indices":[1964,2045,0,1254,0,0,0],"split_type":[0,0,0,0,0,0,0],"sum_hessian":[3.1049543E1,2.5945786E1,5.103758E0,2.2481808E1,3.463978E0,1.8165495E1,4.3163123E0],"tree_param":{"num_deleted":"0","num_feature":"2048","num_nodes":"7","size_leaf_vector":"1"}},{"base_weights":[1.4166367E-1,-1.8028213E-1,5.7742274E-1,-3.6556658E-1,1.264976E-1,1.5252766E-2,1.370811E-1,-1.0475138E-1,6.503642E-2,-9.587859E-2,1.838861E-1],"categories":[],"categories_nodes":[],"categories_segments":[],"categories_sizes":[],"default_left":[0,0,0,0,0,0,0,0,0,0,0],"id":29,"left_children":[1,3,5,7,-1,9,-1,-1,-1,-1,-1],"loss_changes":[4.4686413E0,3.9022183E0,3.5025158E0,5.9311495E0,0E0,6.6175523E0,0E0,0E0,0E0,0E0,0E0],"parents":[2147483647,0,0,1,1,2,2,3,3,5,5],"right_children":[2,4,6,8,-1,10,-1,-1,-1,-1,-1],"split_conditions":[1E0,1E0,1E0,1E0,1.264976E-1,1E0,1.370811E-1,-1.0475138E-1,6.503642E-2,-9.587859E-2,1.838861E-1],"split_indices":[1683,896,699,1444,0,389,0,0,0,0,0],"split_type":[0,0,0,0,0,0,0,0,0,0,0],"sum_hessian":[3.154223E1,1.8153055E1,1.3389175E1,1.5717591E1,2.4354637E0,6.145678E0,7.2434974E0,1.0499642E1,5.2179484E0,4.0257254E0,2.119953E0],"tree_param":{"num_deleted":"0","num_feature":"2048","num_nodes":"11","size_leaf_vector":"1"}},{"base_weights":[1.1332448E-1,-3.752657E-2,1.2903689E-1,-2.0130557E-1,1.216454E-1,-8.222367E-2,3.940044E-2],"categories":[],"categories_nodes":[],"categories_segments":[],"categories_sizes":[],"default_left":[0,0,0,0,0,0,0],"id":30,"left_children":[1,3,-1,5,-1,-1,-1],"loss_changes":[3.8994436E0,3.9947038E0,0E0,4.649653E0,0E0,0E0,0E0],"parents":[2147483647,0,0,1,1,3,3],"right_children":[2,4,-1,6,-1,-1,-1],"split_conditions":[1E0,1E0,1.2903689E-1,1E0,1.216454E-1,-8.222367E-2,3.940044E-2],"split_indices":[896,1391,0,1683,0,0,0],"split_type":[0,0,0,0,0,0,0],"sum_hessian":[2.9445007E1,2.5169727E1,4.2752786E0,2.1623276E1,3.546452E0,1.1722907E1,9.900369E0],"tree_param":{"num_deleted":"0","num_feature":"2048","num_nodes":"7","size_leaf_vector":"1"}},{"base_weights":[4.338807E-2,-4.6813634E-1,4.2971784E-1,-8.2909787E-1,5.8298886E-1,6.0042197E-1,-1.620429E-1,-1.4698635E-1,-8.614299E-3,1.2544772E-1,4.5137694E-3,1.2371373E-1,3.4959767E-2],"categories":[],"categories_nodes":[],"categories_segments":[],"categories_sizes":[],"default_left":[0,0,0,0,0,0,0,0,0,0,0,0,0],"id":31,"left_children":[1,3,5,7,9,11,-1,-1,-1,-1,-1,-1,-1],"loss_changes":[5.630471E0,4.716247E0,4.695245E0,1.9801812E0,6.192138E-1,1.623981E0,0E0,0E0,0E0,0E0,0E0,0E0,0E0],"parents":[2147483647,0,0,1,1,2,2,3,3,4,4,5,5],"right_children":[2,4,6,8,10,12,-1,-1,-1,-1,-1,-1,-1],"split_conditions":[1E0,1E0,1E0,1E0,1E0,1E0,-1.620429E-1,-1.4698635E-1,-8.614299E-3,1.2544772E-1,4.5137694E-3,1.2371373E-1,3.4959767E-2],"split_indices":[90,1254,389,1840,4,489,0,0,0,0,0,0,0],"split_type":[0,0,0,0,0,0,0,0,0,0,0,0,0],"sum_hessian":[2.8219769E1,1.2101844E1,1.6117926E1,9.047775E0,3.0540688E0,1.4709272E1,1.4086522E0,6.499811E0,2.5479643E0,1.7353398E0,1.318729E0,7.1386604E0,7.5706124E0],"tree_param":{"num_deleted":"0","num_feature":"2048","num_nodes":"13","size_leaf_vector":"1"}},{"base_weights":[1.7400078E-1,7.433506E-3,1.13861665E-1,-8.762136E-2,2.2596245E-1,-3.464213E-2,1.1560865E-1],"categories":[],"categories_nodes":[],"categories_segments":[],"categories_sizes":[],"default_left":[0,0,0,0,0,0,0],"id":32,"left_children":[1,3,-1,5,-1,-1,-1],"loss_changes":[3.1420302E0,3.6887531E0,0E0,3.6241922E0,0E0,0E0,0E0],"parents":[2147483647,0,0,1,1,3,3],"right_children":[2,4,-1,6,-1,-1,-1],"split_conditions":[1E0,1E0,1.13861665E-1,1E0,2.2596245E-1,-3.464213E-2,1.1560865E-1],"split_indices":[881,703,0,592,0,0,0],"split_type":[0,0,0,0,0,0,0],"sum_hessian":[2.7346405E1,2.217821E1,5.1681957E0,2.1119608E1,1.058602E0,1.7977354E1,3.1422534E0],"tree_param":{"num_deleted":"0","num_feature":"2048","num_nodes":"7","size_leaf_vector":"1"}},{"base_weights":[1.1265656E-1,-1.7947564E-2,1.2755333E-1,-1.4071923E-1,1.4668064E-1,-4.6833105E-2,7.653714E-2],"categories":[],"categories_nodes":[],"categories_segments":[],"categories_sizes":[],"default_left":[0,0,0,0,0,0,0],"id":33,"left_children":[1,3,-1,5,-1,-1,-1],"loss_changes":[2.945756E0,3.1604917E0,0E0,3.2356548E0,0E0,0E0,0E0],"parents":[2147483647,0,0,1,1,3,3],"right_children":[2,4,-1,6,-1,-1,-1],"split_conditions":[1E0,1E0,1.2755333E-1,1E0,1.4668064E-1,-4.6833105E-2,7.653714E-2],"split_indices":[896,1351,0,666,0,0,0],"split_type":[0,0,0,0,0,0,0],"sum_hessian":[2.5952938E1,2.261103E1,3.3419077E0,2.0528486E1,2.082544E0,1.5897065E1,4.63142E0],"tree_param":{"num_deleted":"0","num_feature":"2048","num_nodes":"7","size_leaf_vector":"1"}},{"base_weights":[1.7073266E-1,-2.0662989E-1,4.930178E-1,3.362813E-2,-1.2605427E-1,6.7215466E-1,-1.7104077E-1,-4.2756688E-2,1.3299188E-1,1.1907433E-1,4.8375167E-2],"categories":[],"categories_nodes":[],"categories_segments":[],"categories_sizes":[],"default_left":[0,0,0,0,0,0,0,0,0,0,0],"id":34,"left_children":[1,3,5,7,-1,9,-1,-1,-1,-1,-1],"loss_changes":[3.0419953E0,2.10418E0,4.431472E0,3.1535652E0,0E0,7.979593E-1,0E0,0E0,0E0,0E0,0E0],"parents":[2147483647,0,0,1,1,2,2,3,3,5,5],"right_children":[2,4,6,8,-1,10,-1,-1,-1,-1,-1],"split_conditions":[1E0,1E0,1E0,1E0,-1.2605427E-1,1E0,-1.7104077E-1,-4.2756688E-2,1.3299188E-1,1.1907433E-1,4.8375167E-2],"split_indices":[90,1349,389,389,0,1603,0,0,0,0,0],"split_type":[0,0,0,0,0,0,0,0,0,0,0],"sum_hessian":[2.4701048E1,1.1364914E1,1.3336134E1,8.685305E0,2.6796088E0,1.22155075E1,1.1206262E0,6.40178E0,2.2835243E0,6.7223253E0,5.493182E0],"tree_param":{"num_deleted":"0","num_feature":"2048","num_nodes":"11","size_leaf_vector":"1"}},{"base_weights":[1.0327976E-1,-1.8911848E-2,1.2709895E-1,1.5141456E-1,-9.6521497E-1,3.1215351E-2,-1.4363526E-1,-2.071779E-1,3.0628039E-2],"categories":[],"categories_nodes":[],"categories_segments":[],"categories_sizes":[],"default_left":[0,0,0,0,0,0,0,0,0],"id":35,"left_children":[1,3,-1,5,7,-1,-1,-1,-1],"loss_changes":[2.8264265E0,3.808367E0,0E0,2.1376734E0,2.7171416E0,0E0,0E0,0E0,0E0],"parents":[2147483647,0,0,1,1,3,3,4,4],"right_children":[2,4,-1,6,8,-1,-1,-1,-1],"split_conditions":[1E0,1E0,1.2709895E-1,1E0,1E0,3.1215351E-2,-1.4363526E-1,-2.071779E-1,3.0628039E-2],"split_indices":[2045,1589,0,1647,816,0,0,0,0],"split_type":[0,0,0,0,0,0,0,0,0],"sum_hessian":[2.6425583E1,2.3238962E1,3.186619E0,1.9769297E1,3.469667E0,1.8615381E1,1.1539155E0,2.2852223E0,1.1844447E0],"tree_param":{"num_deleted":"0","num_feature":"2048","num_nodes":"9","size_leaf_vector":"1"}},{"base_weights":[5.346776E-2,-6.7625865E-2,1.2615322E-1,-1.9594541E-1,1.2983918E-1,2.6791712E-2,-9.255579E-2],"categories":[],"categories_nodes":[],"categories_segments":[],"categories_sizes":[],"default_left":[0,0,0,0,0,0,0],"id":36,"left_children":[1,3,-1,5,-1,-1,-1],"loss_changes":[2.67724E0,2.9008908E0,0E0,3.9267812E0,0E0,0E0,0E0],"parents":[2147483647,0,0,1,1,3,3],"right_children":[2,4,-1,6,-1,-1,-1],"split_conditions":[1E0,1E0,1.2615322E-1,1E0,1.2983918E-1,2.6791712E-2,-9.255579E-2],"split_indices":[896,2045,0,1349,0,0,0],"split_type":[0,0,0,0,0,0,0],"sum_hessian":[2.3998117E1,2.125427E1,2.7438474E0,1.9069237E1,2.1850343E0,1.0687203E1,8.382032E0],"tree_param":{"num_deleted":"0","num_feature":"2048","num_nodes":"7","size_leaf_vector":"1"}},{"base_weights":[1.3574915E-1,-7.324307E-1,2.994495E-1,-1.6956544E-1,7.5559504E-2,3.793769E-1,-1.3709906E-1,6.4261824E-2,-1.0659204E-1],"categories":[],"categories_nodes":[],"categories_segments":[],"categories_sizes":[],"default_left":[0,0,0,0,0,0,0,0,0],"id":37,"left_children":[1,3,5,-1,-1,7,-1,-1,-1],"loss_changes":[3.4470842E0,2.9120722E0,2.226341E0,0E0,0E0,2.559911E0,0E0,0E0,0E0],"parents":[2147483647,0,0,1,1,2,2,5,5],"right_children":[2,4,6,-1,-1,8,-1,-1,-1],"split_conditions":[1E0,1E0,1E0,-1.6956544E-1,7.5559504E-2,1E0,-1.3709906E-1,6.4261824E-2,-1.0659204E-1],"split_indices":[378,1385,106,0,0,1765,0,0,0],"split_type":[0,0,0,0,0,0,0,0,0],"sum_hessian":[2.3982292E1,3.7045355E0,2.0277756E1,2.6132357E0,1.0912997E0,1.9248093E1,1.0296636E0,1.7725641E1,1.5224509E0],"tree_param":{"num_deleted":"0","num_feature":"2048","num_nodes":"9","size_leaf_vector":"1"}},{"base_weights":[-5.299973E-3,-1.6935262E-1,1.0279752E-1,-3.023254E-1,1.1201963E-1,-6.1271623E-2,1.0192047E-1],"categories":[],"categories_nodes":[],"categories_segments":[],"categories_sizes":[],"default_left":[0,0,0,0,0,0,0],"id":38,"left_children":[1,3,-1,5,-1,-1,-1],"loss_changes":[2.8514485E0,2.519661E0,0E0,2.9279299E0,0E0,0E0,0E0],"parents":[2147483647,0,0,1,1,3,3],"right_children":[2,4,-1,6,-1,-1,-1],"split_conditions":[1E0,1E0,1.0279752E-1,1E0,1.1201963E-1,-6.1271623E-2,1.0192047E-1],"split_indices":[881,885,0,592,0,0,0],"split_type":[0,0,0,0,0,0,0],"sum_hessian":[2.1939354E1,1.826881E1,3.670543E0,1.627047E1,1.9983402E0,1.4215648E1,2.054823E0],"tree_param":{"num_deleted":"0","num_feature":"2048","num_nodes":"7","size_leaf_vector":"1"}},{"base_weights":[1.3539836E-1,-2.260753E-2,7.311214E-1,-1.4364605E-1,1.2901938E-1,4.2910576E-3,1.330634E-1,-1.2989578E-1,3.4360193E-2],"categories":[],"categories_nodes":[],"categories_segments":[],"categories_sizes":[],"default_left":[0,0,0,0,0,0,0,0,0],"id":39,"left_children":[1,3,5,-1,7,-1,-1,-1,-1],"loss_changes":[2.109316E0,2.9034746E0,8.8704896E-1,0E0,2.3107305E0,0E0,0E0,0E0,0E0],"parents":[2147483647,0,0,1,1,2,2,4,4],"right_children":[2,4,6,-1,8,-1,-1,-1,-1],"split_conditions":[1E0,1E0,1E0,-1.4364605E-1,1E0,4.2910576E-3,1.330634E-1,-1.2989578E-1,3.4360193E-2],"split_indices":[809,807,1754,0,378,0,0,0,0],"split_type":[0,0,0,0,0,0,0,0,0],"sum_hessian":[2.2057915E1,1.7504765E1,4.55315E0,2.0892255E0,1.5415539E1,1.3730603E0,3.18009E0,1.5172936E0,1.3898245E1],"tree_param":{"num_deleted":"0","num_feature":"2048","num_nodes":"9","size_leaf_vector":"1"}},{"base_weights":[9.181273E-2,9.554561E-4,1.3791798E-1,-3.7904456E-1,4.050849E-1,-7.750308E-2,1.22146204E-1,8.804389E-2,-1.027025E-1],"categories":[],"categories_nodes":[],"categories_segments":[],"categories_sizes":[],"default_left":[0,0,0,0,0,0,0,0,0],"id":40,"left_children":[1,3,-1,5,7,-1,-1,-1,-1],"loss_changes":[1.8025861E0,2.9988246E0,0E0,2.8199458E0,3.0408912E0,0E0,0E0,0E0,0E0],"parents":[2147483647,0,0,1,1,3,3,4,4],"right_children":[2,4,-1,6,8,-1,-1,-1,-1],"split_conditions":[1E0,1E0,1.3791798E-1,1E0,1E0,-7.750308E-2,1.22146204E-1,8.804389E-2,-1.027025E-1],"split_indices":[482,1683,0,2045,843,0,0,0,0],"split_type":[0,0,0,0,0,0,0,0,0],"sum_hessian":[2.0913696E1,1.924877E1,1.664928E0,9.892778E0,9.35599E0,8.605332E0,1.287446E0,7.7181373E0,1.6378533E0],"tree_param":{"num_deleted":"0","num_feature":"2048","num_nodes":"9","size_leaf_vector":"1"}},{"base_weights":[1.0793026E-1,9.450686E-3,1.1100481E-1,2.3921275E-1,-7.646195E-1,-1.0871332E-4,9.648615E-2,-1.6163157E-1,6.7478076E-2],"categories":[],"categories_nodes":[],"categories_segments":[],"categories_sizes":[],"default_left":[0,0,0,0,0,0,0,0,0],"id":41,"left_children":[1,3,-1,5,7,-1,-1,-1,-1],"loss_changes":[1.5261095E0,3.394809E0,0E0,1.7734973E0,2.6883957E0,0E0,0E0,0E0,0E0],"parents":[2147483647,0,0,1,1,3,3,4,4],"right_children":[2,4,-1,6,8,-1,-1,-1,-1],"split_conditions":[1E0,1E0,1.1100481E-1,1E0,1E0,-1.0871332E-4,9.648615E-2,-1.6163157E-1,6.7478076E-2],"split_indices":[592,1603,0,747,875,0,0,0,0],"split_type":[0,0,0,0,0,0,0,0,0],"sum_hessian":[2.1238398E1,1.8883944E1,2.3544533E0,1.4659943E1,4.224002E0,9.924398E0,4.7355437E0,3.1172724E0,1.1067296E0],"tree_param":{"num_deleted":"0","num_feature":"2048","num_nodes":"9","size_leaf_vector":"1"}},{"base_weights":[1.51957E-1,2.0869346E-2,1.1539341E-1,-1.1598846E-1,1.3834584E-1,7.1029493E-4,1.13919206E-1],"categories":[],"categories_nodes":[],"categories_segments":[],"categories_sizes":[],"default_left":[0,0,0,0,0,0,0],"id":42,"left_children":[1,3,-1,-1,5,-1,-1],"loss_changes":[1.9687991E0,1.8994956E0,0E0,0E0,1.526166E0,0E0,0E0],"parents":[2147483647,0,0,1,1,4,4],"right_children":[2,4,-1,-1,6,-1,-1],"split_conditions":[1E0,1E0,1.1539341E-1,-1.1598846E-1,1E0,7.1029493E-4,1.13919206E-1],"split_indices":[1254,378,0,0,1391,0,0],"split_type":[0,0,0,0,0,0,0],"sum_hessian":[2.0842154E1,1.7799887E1,3.0422668E0,1.922799E0,1.5877089E1,1.3569972E1,2.3071165E0],"tree_param":{"num_deleted":"0","num_feature":"2048","num_nodes":"7","size_leaf_vector":"1"}},{"base_weights":[6.9081515E-2,-1.0120908E-1,5.8414525E-1,-7.379264E-1,2.1624991E-1,1.6145603E-1,1.2974186E-1,-1.4292067E-1,-1.038586E-2,7.711577E-2,-2.4850061E-2,-5.8969688E-2,8.5643545E-2],"categories":[],"categories_nodes":[],"categories_segments":[],"categories_sizes":[],"default_left":[0,0,0,0,0,0,0,0,0,0,0,0,0],"id":43,"left_children":[1,3,5,7,9,-1,11,-1,-1,-1,-1,-1,-1],"loss_changes":[1.6241117E0,2.8289542E0,1.2879441E0,1.0275095E0,1.4190421E0,0E0,9.1009665E-1,0E0,0E0,0E0,0E0,0E0,0E0],"parents":[2147483647,0,0,1,1,2,2,3,3,4,4,6,6],"right_children":[2,4,6,8,10,-1,12,-1,-1,-1,-1,-1,-1],"split_conditions":[1E0,1E0,1E0,1E0,1E0,1.6145603E-1,1E0,-1.4292067E-1,-1.038586E-2,7.711577E-2,-2.4850061E-2,-5.8969688E-2,8.5643545E-2],"split_indices":[191,1410,843,1452,1603,0,419,0,0,0,0,0,0],"split_type":[0,0,0,0,0,0,0,0,0,0,0,0,0],"sum_hessian":[1.8148125E1,1.3684924E1,4.4632E0,4.51899E0,9.165935E0,1.7285877E0,2.7346125E0,2.8732486E0,1.6457415E0,4.7920938E0,4.3738403E0,1.2828598E0,1.4517527E0],"tree_param":{"num_deleted":"0","num_feature":"2048","num_nodes":"13","size_leaf_vector":"1"}},{"base_weights":[1.7843235E-2,-3.2455125E-1,3.883007E-1,-5.3514266E-1,1.2232179E-1,1.8241955E-1,1.03599794E-1,-1.0809209E-1,9.6223794E-2,-5.5730544E-2,5.5726286E-2],"categories":[],"categories_nodes":[],"categories_segments":[],"categories_sizes":[],"default_left":[0,0,0,0,0,0,0,0,0,0,0],"id":44,"left_children":[1,3,5,7,-1,9,-1,-1,-1,-1,-1],"loss_changes":[2.2980936E0,2.5351243E0,6.72958E-1,3.0344448E0,0E0,8.9804757E-1,0E0,0E0,0E0,0E0,0E0],"parents":[2147483647,0,0,1,1,2,2,3,3,5,5],"right_children":[2,4,6,8,-1,10,-1,-1,-1,-1,-1],"split_conditions":[1E0,1E0,1E0,1E0,1.2232179E-1,1E0,1.03599794E-1,-1.0809209E-1,9.6223794E-2,-5.5730544E-2,5.5726286E-2],"split_indices":[1683,841,1452,592,0,1476,0,0,0,0,0],"split_type":[0,0,0,0,0,0,0,0,0,0,0],"sum_hessian":[1.7831404E1,9.2401495E0,8.591254E0,7.9962935E0,1.2438558E0,5.8409863E0,2.7502677E0,6.577224E0,1.4190698E0,1.603181E0,4.2378054E0],"tree_param":{"num_deleted":"0","num_feature":"2048","num_nodes":"11","size_leaf_vector":"1"}},{"base_weights":[-9.89967E-2,-2.2890736E-1,1.23494565E-1,-2.3577008E-2,-9.040267E-1,-5.7174053E-2,5.244899E-2,-3.0408405E-2,-1.526074E-1],"categories":[],"categories_nodes":[],"categories_segments":[],"categories_sizes":[],"default_left":[0,0,0,0,0,0,0,0,0],"id":45,"left_children":[1,3,-1,5,7,-1,-1,-1,-1],"loss_changes":[2.3586738E0,2.1371906E0,0E0,2.1304274E0,5.4908633E-1,0E0,0E0,0E0,0E0],"parents":[2147483647,0,0,1,1,3,3,4,4],"right_children":[2,4,-1,6,8,-1,-1,-1,-1],"split_conditions":[1E0,1E0,1.23494565E-1,1E0,1E0,-5.7174053E-2,5.244899E-2,-3.0408405E-2,-1.526074E-1],"split_indices":[1964,1199,0,1683,1855,0,0,0,0],"split_type":[0,0,0,0,0,0,0,0,0],"sum_hessian":[1.7275637E1,1.5469949E1,1.8056887E0,1.1999745E1,3.4702036E0,6.109079E0,5.890666E0,1.0548995E0,2.4153042E0],"tree_param":{"num_deleted":"0","num_feature":"2048","num_nodes":"9","size_leaf_vector":"1"}},{"base_weights":[-5.3534128E-2,-1.0826869E-1,1.3299322E-1,-6.521538E-1,3.3676344E-1,-1.7098486E-1,1.9703517E-2,8.368639E-2,-1.8282525E-2],"categories":[],"categories_nodes":[],"categories_segments":[],"categories_sizes":[],"default_left":[0,0,0,0,0,0,0,0,0],"id":46,"left_children":[1,-1,3,5,7,-1,-1,-1,-1],"loss_changes":[2.5093553E0,0E0,2.259564E0,1.5625453E0,1.6217887E0,0E0,0E0,0E0,0E0],"parents":[2147483647,0,0,2,2,3,3,4,4],"right_children":[2,-1,4,6,8,-1,-1,-1,-1],"split_conditions":[1E0,-1.0826869E-1,1E0,1E0,1E0,-1.7098486E-1,1.9703517E-2,8.368639E-2,-1.8282525E-2],"split_indices":[1928,0,1917,1452,1589,0,0,0,0],"split_type":[0,0,0,0,0,0,0,0,0],"sum_hessian":[1.7123936E1,3.2766695E0,1.3847265E1,2.765554E0,1.1081712E1,1.5005313E0,1.2650225E0,6.806625E0,4.275087E0],"tree_param":{"num_deleted":"0","num_feature":"2048","num_nodes":"9","size_leaf_vector":"1"}},{"base_weights":[2.4156702E-1,1.0320115E-1,1.3884687E-1,-5.0261628E-2,1.1013232E-1,-2.223023E-2,1.232899E-1],"categories":[],"categories_nodes":[],"categories_segments":[],"categories_sizes":[],"default_left":[0,0,0,0,0,0,0],"id":47,"left_children":[1,3,-1,5,-1,-1,-1],"loss_changes":[1.9701695E0,1.7677233E0,0E0,1.513406E0,0E0,0E0,0E0],"parents":[2147483647,0,0,1,1,3,3],"right_children":[2,4,-1,6,-1,-1,-1],"split_conditions":[1E0,1E0,1.3884687E-1,1E0,1.1013232E-1,-2.223023E-2,1.232899E-1],"split_indices":[1314,1391,0,622,0,0,0],"split_type":[0,0,0,0,0,0,0],"sum_hessian":[1.775443E1,1.5332733E1,2.4216974E0,1.2758088E1,2.5746458E0,1.151327E1,1.2448171E0],"tree_param":{"num_deleted":"0","num_feature":"2048","num_nodes":"7","size_leaf_vector":"1"}},{"base_weights":[1.5882605E-1,8.099783E-2,1.3146849E-1,-5.762569E-1,2.4087876E-1,-1.345799E-1,3.0434133E-2,2.1128736E-2,1.401846E-1],"categories":[],"categories_nodes":[],"categories_segments":[],"categories_sizes":[],"default_left":[0,0,0,0,0,0,0,0,0],"id":48,"left_children":[1,3,-1,5,7,-1,-1,-1,-1],"loss_changes":[1.1752746E0,1.8138301E0,0E0,1.2666922E0,8.679184E-1,0E0,0E0,0E0,0E0],"parents":[2147483647,0,0,1,1,3,3,4,4],"right_children":[2,4,-1,6,8,-1,-1,-1,-1],"split_conditions":[1E0,1E0,1.3146849E-1,1E0,1E0,-1.345799E-1,3.0434133E-2,2.1128736E-2,1.401846E-1],"split_indices":[482,1917,0,1453,1254,0,0,0,0],"split_type":[0,0,0,0,0,0,0,0,0],"sum_hessian":[1.8419062E1,1.7022959E1,1.3961028E0,3.2299204E0,1.3793038E1,2.0763862E0,1.1535343E0,1.2746259E1,1.0467803E0],"tree_param":{"num_deleted":"0","num_feature":"2048","num_nodes":"9","size_leaf_vector":"1"}},{"base_weights":[1.6564363E-1,-4.5661232E-1,3.126814E-1,-1.1098366E-1,3.9577615E-2,4.008323E-1,-6.467152E-2,-1.259651E-2,7.435011E-2],"categories":[],"categories_nodes":[],"categories_segments":[],"categories_sizes":[],"default_left":[0,0,0,0,0,0,0,0,0],"id":49,"left_children":[1,3,5,-1,-1,7,-1,-1,-1],"loss_changes":[1.5075341E0,9.6824753E-1,9.676235E-1,0E0,0E0,1.0052571E0,0E0,0E0,0E0],"parents":[2147483647,0,0,1,1,2,2,5,5],"right_children":[2,4,6,-1,-1,8,-1,-1,-1],"split_conditions":[1E0,1E0,1E0,-1.1098366E-1,3.9577615E-2,1E0,-6.467152E-2,-1.259651E-2,7.435011E-2],"split_indices":[1855,389,1065,0,0,1057,0,0,0],"split_type":[0,0,0,0,0,0,0,0,0],"sum_hessian":[1.616492E1,3.0016472E0,1.3163274E1,1.9985327E0,1.0031146E0,1.1953219E1,1.2100546E0,2.946855E0,9.006364E0],"tree_param":{"num_deleted":"0","num_feature":"2048","num_nodes":"9","size_leaf_vector":"1"}},{"base_weights":[8.1241004E-2,-3.1621185E-1,4.0405822E-1,-7.299459E-1,7.466966E-2,6.2249595E-1,-1.3256024E-1,-1.3213587E-1,1.6851597E-2,1.0505908E-1,-3.6928173E-2],"categories":[],"categories_nodes":[],"categories_segments":[],"categories_sizes":[],"default_left":[0,0,0,0,0,0,0,0,0,0,0],"id":50,"left_children":[1,3,5,7,-1,9,-1,-1,-1,-1,-1],"loss_changes":[2.0203183E0,2.6313527E0,2.7586079E0,1.1853929E0,0E0,1.2569351E0,0E0,0E0,0E0,0E0,0E0],"parents":[2147483647,0,0,1,1,2,2,3,3,5,5],"right_children":[2,4,6,8,-1,10,-1,-1,-1,-1,-1],"split_conditions":[1E0,1E0,1E0,1E0,7.466966E-2,1E0,-1.3256024E-1,-1.3213587E-1,1.6851597E-2,1.0505908E-1,-3.6928173E-2],"split_indices":[90,1840,389,389,0,1718,0,0,0,0,0],"split_type":[0,0,0,0,0,0,0,0,0,0,0],"sum_hessian":[1.5455082E1,6.8930464E0,8.562036E0,4.7306557E0,2.1623907E0,7.496509E0,1.0655267E0,3.5892482E0,1.1414077E0,6.310832E0,1.1856772E0],"tree_param":{"num_deleted":"0","num_feature":"2048","num_nodes":"11","size_leaf_vector":"1"}},{"base_weights":[2.490051E-2,-7.308107E-2,1.2318426E-1,-4.217742E-1,2.829413E-1,-8.89796E-2,1.2561086E-1,4.987412E-3,1.3527912E-1],"categories":[],"categories_nodes":[],"categories_segments":[],"categories_sizes":[],"default_left":[0,0,0,0,0,0,0,0,0],"id":51,"left_children":[1,3,-1,5,7,-1,-1,-1,-1],"loss_changes":[1.5516362E0,1.9413044E0,0E0,2.8522186E0,1.3746204E0,0E0,0E0,0E0,0E0],"parents":[2147483647,0,0,1,1,3,3,4,4],"right_children":[2,4,-1,6,8,-1,-1,-1,-1],"split_conditions":[1E0,1E0,1.2318426E-1,1E0,1E0,-8.89796E-2,1.2561086E-1,4.987412E-3,1.3527912E-1],"split_indices":[2045,1683,0,2026,389,0,0,0,0],"split_type":[0,0,0,0,0,0,0,0,0],"sum_hessian":[1.6891115E1,1.5340322E1,1.550794E0,7.772912E0,7.56741E0,6.6344633E0,1.1384484E0,5.828808E0,1.7386019E0],"tree_param":{"num_deleted":"0","num_feature":"2048","num_nodes":"9","size_leaf_vector":"1"}},{"base_weights":[4.880742E-2,-4.3149795E-2,1.2066242E-1,-2.3228058E-1,3.5856754E-1,-5.225155E-2,7.237757E-2,-3.20048E-3,9.019654E-2],"categories":[],"categories_nodes":[],"categories_segments":[],"categories_sizes":[],"default_left":[0,0,0,0,0,0,0,0,0],"id":52,"left_children":[1,3,-1,5,7,-1,-1,-1,-1],"loss_changes":[1.2930573E0,1.1052228E0,0E0,1.3082869E0,5.989089E-1,0E0,0E0,0E0,0E0],"parents":[2147483647,0,0,1,1,3,3,4,4],"right_children":[2,4,-1,6,8,-1,-1,-1,-1],"split_conditions":[1E0,1E0,1.2066242E-1,1E0,1E0,-5.225155E-2,7.237757E-2,-3.20048E-3,9.019654E-2],"split_indices":[896,667,0,233,699,0,0,0,0],"split_type":[0,0,0,0,0,0,0,0,0],"sum_hessian":[1.5714294E1,1.4301006E1,1.4132879E0,9.805285E0,4.495721E0,8.181375E0,1.6239105E0,2.093622E0,2.402099E0],"tree_param":{"num_deleted":"0","num_feature":"2048","num_nodes":"9","size_leaf_vector":"1"}},{"base_weights":[5.7914466E-2,1.738788E-1,-1.5328136E-1,4.176114E-3,7.5449884E-1,-1.9018432E-2,1.07755914E-1,1.5572296E-1,2.8681092E-2],"categories":[],"categories_nodes":[],"categories_segments":[],"categories_sizes":[],"default_left":[0,0,0,0,0,0,0,0,0],"id":53,"left_children":[1,3,-1,5,7,-1,-1,-1,-1],"loss_changes":[2.0918605E0,1.3198725E0,0E0,1.3286724E0,6.290052E-1,0E0,0E0,0E0,0E0],"parents":[2147483647,0,0,1,1,3,3,4,4],"right_children":[2,4,-1,6,8,-1,-1,-1,-1],"split_conditions":[1E0,1E0,-1.5328136E-1,1E0,1E0,-1.9018432E-2,1.07755914E-1,1.5572296E-1,2.8681092E-2],"split_indices":[580,191,0,1391,843,0,0,0,0],"split_type":[0,0,0,0,0,0,0,0,0],"sum_hessian":[1.459432E1,1.3456577E1,1.137743E0,1.0553641E1,2.9029365E0,8.993959E0,1.5596814E0,1.49502E0,1.4079165E0],"tree_param":{"num_deleted":"0","num_feature":"2048","num_nodes":"9","size_leaf_vector":"1"}},{"base_weights":[1.1150442E-1,-8.044049E-2,6.823664E-2,-2.8325677E-1,4.4000298E-2,-7.822382E-2,7.18964E-2],"categories":[],"categories_nodes":[],"categories_segments":[],"categories_sizes":[],"default_left":[0,0,0,0,0,0,0],"id":54,"left_children":[1,3,-1,5,-1,-1,-1],"loss_changes":[1.2020941E0,8.8550603E-1,0E0,1.876756E0,0E0,0E0,0E0],"parents":[2147483647,0,0,1,1,3,3],"right_children":[2,4,-1,6,-1,-1,-1],"split_conditions":[1E0,1E0,6.823664E-2,1E0,4.4000298E-2,-7.822382E-2,7.18964E-2],"split_indices":[1312,1224,0,809,0,0,0],"split_type":[0,0,0,0,0,0,0],"sum_hessian":[1.5031912E1,1.0248126E1,4.7837853E0,6.9530983E0,3.2950284E0,5.106659E0,1.846439E0],"tree_param":{"num_deleted":"0","num_feature":"2048","num_nodes":"7","size_leaf_vector":"1"}},{"base_weights":[4.8320986E-2,-3.923894E-2,9.529425E-2,-1.6448292E-1,7.9403125E-2,-3.7705176E-2,9.5415264E-2],"categories":[],"categories_nodes":[],"categories_segments":[],"categories_sizes":[],"default_left":[0,0,0,0,0,0,0],"id":55,"left_children":[1,3,-1,5,-1,-1,-1],"loss_changes":[9.593551E-1,1.1400474E0,0E0,1.3171724E0,0E0,0E0,0E0],"parents":[2147483647,0,0,1,1,3,3],"right_children":[2,4,-1,6,-1,-1,-1],"split_conditions":[1E0,1E0,9.529425E-2,1E0,7.9403125E-2,-3.7705176E-2,9.5415264E-2],"split_indices":[1840,881,0,885,0,0,0],"split_type":[0,0,0,0,0,0,0],"sum_hessian":[1.5714848E1,1.3994003E1,1.7208446E0,1.1830041E1,2.1639616E0,1.0509323E1,1.3207179E0],"tree_param":{"num_deleted":"0","num_feature":"2048","num_nodes":"7","size_leaf_vector":"1"}},{"base_weights":[-1.3718313E-2,-1.2298287E-1,1.006581E-1,-2.3938301E-1,9.6596524E-2,-5.10635E-2,6.798533E-2],"categories":[],"categories_nodes":[],"categories_segments":[],"categories_sizes":[],"default_left":[0,0,0,0,0,0,0],"id":56,"left_children":[1,3,-1,5,-1,-1,-1],"loss_changes":[1.2632687E0,1.3286291E0,0E0,1.3454843E0,0E0,0E0,0E0],"parents":[2147483647,0,0,1,1,3,3],"right_children":[2,4,-1,6,-1,-1,-1],"split_conditions":[1E0,1E0,1.006581E-1,1E0,9.6596524E-2,-5.10635E-2,6.798533E-2],"split_indices":[1391,592,0,881,0,0,0],"split_type":[0,0,0,0,0,0,0],"sum_hessian":[1.47480955E1,1.306313E1,1.6849656E0,1.1614212E1,1.4489186E0,9.789088E0,1.8251234E0],"tree_param":{"num_deleted":"0","num_feature":"2048","num_nodes":"7","size_leaf_vector":"1"}},{"base_weights":[4.844354E-2,-2.4146099E-2,1.1730318E-1,-1.15921296E-1,9.443623E-2,-5.396472E-2,2.5211826E-2],"categories":[],"categories_nodes":[],"categories_segments":[],"categories_sizes":[],"default_left":[0,0,0,0,0,0,0],"id":57,"left_children":[1,3,-1,5,-1,-1,-1],"loss_changes":[9.685232E-1,9.7012985E-1,0E0,1.1814693E0,0E0,0E0,0E0],"parents":[2147483647,0,0,1,1,3,3],"right_children":[2,4,-1,6,-1,-1,-1],"split_conditions":[1E0,1E0,1.1730318E-1,1E0,9.443623E-2,-5.396472E-2,2.5211826E-2],"split_indices":[896,1391,0,1683,0,0,0],"split_type":[0,0,0,0,0,0,0],"sum_hessian":[1.5283182E1,1.4166793E1,1.1163889E0,1.2740476E1,1.426317E0,6.5297503E0,6.210726E0],"tree_param":{"num_deleted":"0","num_feature":"2048","num_nodes":"7","size_leaf_vector":"1"}},{"base_weights":[2.438735E-2,-5.4526206E-2,9.342023E-2,-1.4300764E-1,1.03277795E-1,-3.5274524E-2,6.530513E-2],"categories":[],"categories_nodes":[],"categories_segments":[],"categories_sizes":[],"default_left":[0,0,0,0,0,0,0],"id":58,"left_children":[1,3,-1,5,-1,-1,-1],"loss_changes":[7.772848E-1,9.362739E-1,0E0,9.366329E-1,0E0,0E0,0E0],"parents":[2147483647,0,0,1,1,3,3],"right_children":[2,4,-1,6,-1,-1,-1],"split_conditions":[1E0,1E0,9.342023E-2,1E0,1.03277795E-1,-3.5274524E-2,6.530513E-2],"split_indices":[233,1978,0,881,0,0,0],"split_type":[0,0,0,0,0,0,0],"sum_hessian":[1.3825558E1,1.2478798E1,1.3467597E0,1.1419073E1,1.0597243E0,9.650218E0,1.7688551E0],"tree_param":{"num_deleted":"0","num_feature":"2048","num_nodes":"7","size_leaf_vector":"1"}},{"base_weights":[3.2873407E-3,-9.2785425E-2,1.01292334E-1,-4.2923442E-1,1.7838104E-1,-9.376025E-2,4.5176852E-2,-9.507958E-3,1.110799E-1],"categories":[],"categories_nodes":[],"categories_segments":[],"categories_sizes":[],"default_left":[0,0,0,0,0,0,0,0,0],"id":59,"left_children":[1,3,-1,5,7,-1,-1,-1,-1],"loss_changes":[9.877503E-1,1.0831485E0,0E0,1.2026191E0,1.117127E0,0E0,0E0,0E0,0E0],"parents":[2147483647,0,0,1,1,3,3,4,4],"right_children":[2,4,-1,6,8,-1,-1,-1,-1],"split_conditions":[1E0,1E0,1.01292334E-1,1E0,1E0,-9.376025E-2,4.5176852E-2,-9.507958E-3,1.110799E-1],"split_indices":[1876,875,0,1951,389,0,0,0,0],"split_type":[0,0,0,0,0,0,0,0,0],"sum_hessian":[1.2910405E1,1.1550478E1,1.3599268E0,5.1605444E0,6.389934E0,3.8074474E0,1.3530968E0,4.703752E0,1.686182E0],"tree_param":{"num_deleted":"0","num_feature":"2048","num_nodes":"9","size_leaf_vector":"1"}},{"base_weights":[1.9625439E-1,7.453656E-2,1.307089E-1,-3.2274164E-2,1.129354E-1,-5.0289776E-2,4.0257905E-2],"categories":[],"categories_nodes":[],"categories_segments":[],"categories_sizes":[],"default_left":[0,0,0,0,0,0,0],"id":60,"left_children":[1,3,-1,5,-1,-1,-1],"loss_changes":[1.2754288E0,1.0218059E0,0E0,1.2710128E0,0E0,0E0,0E0],"parents":[2147483647,0,0,1,1,3,3],"right_children":[2,4,-1,6,-1,-1,-1],"split_conditions":[1E0,1E0,1.307089E-1,1E0,1.129354E-1,-5.0289776E-2,4.0257905E-2],"split_indices":[1314,2045,0,1683,0,0,0],"split_type":[0,0,0,0,0,0,0],"sum_hessian":[1.33903E1,1.1774173E1,1.6161269E0,1.0449556E1,1.3246162E0,5.163868E0,5.2856884E0],"tree_param":{"num_deleted":"0","num_feature":"2048","num_nodes":"7","size_leaf_vector":"1"}},{"base_weights":[7.2405234E-2,-7.2845355E-2,1.8262964E-1,9.745855E-2,1.1687866E-1,-1.5917611E-3,1.0197808E-1],"categories":[],"categories_nodes":[],"categories_segments":[],"categories_sizes":[],"default_left":[0,0,0,0,0,0,0],"id":61,"left_children":[1,-1,3,5,-1,-1,-1],"loss_changes":[9.339051E-1,0E0,6.598108E-1,8.020111E-1,0E0,0E0,0E0],"parents":[2147483647,0,0,2,2,3,3],"right_children":[2,-1,4,6,-1,-1,-1],"split_conditions":[1E0,-7.2845355E-2,1E0,1E0,1.1687866E-1,-1.5917611E-3,1.0197808E-1],"split_indices":[807,0,2045,1391,0,0,0],"split_type":[0,0,0,0,0,0,0],"sum_hessian":[1.33313E1,1.8789121E0,1.1452388E1,1.039024E1,1.0621483E0,9.028087E0,1.3621526E0],"tree_param":{"num_deleted":"0","num_feature":"2048","num_nodes":"7","size_leaf_vector":"1"}},{"base_weights":[6.4056486E-2,1.4872621E-1,-9.116421E-2,3.7131008E-2,1.27652E-1,-7.478401E-3,1.1082257E-1],"categories":[],"categories_nodes":[],"categories_segments":[],"categories_sizes":[],"default_left":[0,0,0,0,0,0,0],"id":62,"left_children":[1,3,-1,5,-1,-1,-1],"loss_changes":[8.5742044E-1,1.0852531E0,0E0,8.498177E-1,0E0,0E0,0E0],"parents":[2147483647,0,0,1,1,3,3],"right_children":[2,4,-1,6,-1,-1,-1],"split_conditions":[1E0,1E0,-9.116421E-2,1E0,1.27652E-1,-7.478401E-3,1.1082257E-1],"split_indices":[1065,881,0,1876,0,0,0],"split_type":[0,0,0,0,0,0,0],"sum_hessian":[1.3235164E1,1.2032743E1,1.2024207E0,1.0746882E1,1.2858609E0,9.709866E0,1.0370167E0],"tree_param":{"num_deleted":"0","num_feature":"2048","num_nodes":"7","size_leaf_vector":"1"}},{"base_weights":[6.297506E-2,1.3221346E-1,-7.648298E-2,-1.4360143E-2,5.1781356E-1,-1.5552813E-1,2.2588033E-2,1.796439E-2,1.2879318E-1],"categories":[],"categories_nodes":[],"categories_segments":[],"categories_sizes":[],"default_left":[0,0,0,0,0,0,0,0,0],"id":63,"left_children":[1,3,-1,5,7,-1,-1,-1,-1],"loss_changes":[5.880397E-1,6.956925E-1,0E0,1.9711909E0,5.466903E-1,0E0,0E0,0E0,0E0],"parents":[2147483647,0,0,1,1,3,3,4,4],"right_children":[2,4,-1,6,8,-1,-1,-1,-1],"split_conditions":[1E0,1E0,-7.648298E-2,1E0,1E0,-1.5552813E-1,2.2588033E-2,1.796439E-2,1.2879318E-1],"split_indices":[1065,1452,0,807,134,0,0,0,0],"split_type":[0,0,0,0,0,0,0,0,0],"sum_hessian":[1.3062927E1,1.192911E1,1.1338179E0,8.691896E0,3.2372134E0,1.1121291E0,7.579767E0,1.8991342E0,1.3380791E0],"tree_param":{"num_deleted":"0","num_feature":"2048","num_nodes":"9","size_leaf_vector":"1"}},{"base_weights":[6.648509E-2,-9.870513E-2,9.072354E-2,-2.6300746E-1,6.682811E-2,-5.5237923E-2,8.10357E-2],"categories":[],"categories_nodes":[],"categories_segments":[],"categories_sizes":[],"default_left":[0,0,0,0,0,0,0],"id":64,"left_children":[1,3,-1,5,-1,-1,-1],"loss_changes":[1.3491426E0,1.0350941E0,0E0,1.1604939E0,0E0,0E0,0E0],"parents":[2147483647,0,0,1,1,3,3],"right_children":[2,4,-1,6,-1,-1,-1],"split_conditions":[1E0,1E0,9.072354E-2,1E0,6.682811E-2,-5.5237923E-2,8.10357E-2],"split_indices":[809,1958,0,592,0,0,0],"split_type":[0,0,0,0,0,0,0],"sum_hessian":[1.2736354E1,1.0126406E1,2.6099486E0,8.062052E0,2.064354E0,6.9266396E0,1.135412E0],"tree_param":{"num_deleted":"0","num_feature":"2048","num_nodes":"7","size_leaf_vector":"1"}},{"base_weights":[1.835348E-3,-9.103704E-2,8.5082635E-2,-1.15959525E-1,2.552502E-2,-1.1609656E-2,9.280605E-2],"categories":[],"categories_nodes":[],"categories_segments":[],"categories_sizes":[],"default_left":[0,0,0,0,0,0,0],"id":65,"left_children":[1,3,-1,-1,5,-1,-1],"loss_changes":[8.496664E-1,1.1453248E0,0E0,0E0,8.5217047E-1,0E0,0E0],"parents":[2147483647,0,0,1,1,4,4],"right_children":[2,4,-1,-1,6,-1,-1],"split_conditions":[1E0,1E0,8.5082635E-2,-1.15959525E-1,1E0,-1.1609656E-2,9.280605E-2],"split_indices":[622,807,0,0,666,0,0],"split_type":[0,0,0,0,0,0,0],"sum_hessian":[1.3682476E1,1.2028695E1,1.6537817E0,1.4582272E0,1.0570468E1,9.125703E0,1.4447649E0],"tree_param":{"num_deleted":"0","num_feature":"2048","num_nodes":"7","size_leaf_vector":"1"}},{"base_weights":[2.3188546E-2,-5.248523E-2,9.8167636E-2,6.509425E-2,-9.486302E-2,-1.5732467E-2,5.5274967E-2],"categories":[],"categories_nodes":[],"categories_segments":[],"categories_sizes":[],"default_left":[0,0,0,0,0,0,0],"id":66,"left_children":[1,3,-1,5,-1,-1,-1],"loss_changes":[7.621224E-1,9.920987E-1,0E0,7.079951E-1,0E0,0E0,0E0],"parents":[2147483647,0,0,1,1,3,3],"right_children":[2,4,-1,6,-1,-1,-1],"split_conditions":[1E0,1E0,9.8167636E-2,1E0,-9.486302E-2,-1.5732467E-2,5.5274967E-2],"split_indices":[233,1589,0,489,0,0,0],"split_type":[0,0,0,0,0,0,0],"sum_hessian":[1.3376588E1,1.2192629E1,1.1839591E0,1.0442106E1,1.7505227E0,6.8821507E0,3.5599551E0],"tree_param":{"num_deleted":"0","num_feature":"2048","num_nodes":"7","size_leaf_vector":"1"}},{"base_weights":[-0E0,-9.158886E-2,8.059357E-2,-1.8467785E-1,8.9704804E-2,-1.2555869E-1,-3.9074393E-3],"categories":[],"categories_nodes":[],"categories_segments":[],"categories_sizes":[],"default_left":[0,0,0,0,0,0,0],"id":67,"left_children":[1,3,-1,5,-1,-1,-1],"loss_changes":[7.627132E-1,8.407243E-1,0E0,1.2238489E0,0E0,0E0,0E0],"parents":[2147483647,0,0,1,1,3,3],"right_children":[2,4,-1,6,-1,-1,-1],"split_conditions":[1E0,1E0,8.059357E-2,1E0,8.9704804E-2,-1.2555869E-1,-3.9074393E-3],"split_indices":[622,1391,0,1917,0,0,0],"split_type":[0,0,0,0,0,0,0],"sum_hessian":[1.3111235E1,1.147516E1,1.6360751E0,1.0364634E1,1.1105256E0,1.5914809E0,8.773152E0],"tree_param":{"num_deleted":"0","num_feature":"2048","num_nodes":"7","size_leaf_vector":"1"}},{"base_weights":[-3.5962723E-2,1.4410486E-2,-1.4159577E-1],"categories":[],"categories_nodes":[],"categories_segments":[],"categories_sizes":[],"default_left":[0,0,0],"id":68,"left_children":[1,-1,-1],"loss_changes":[1.709484E0,0E0,0E0],"parents":[2147483647,0,0],"right_children":[2,-1,-1],"split_conditions":[1E0,1.4410486E-2,-1.4159577E-1],"split_indices":[794,0,0],"split_type":[0,0,0],"sum_hessian":[1.0891405E1,9.641458E0,1.2499483E0],"tree_param":{"num_deleted":"0","num_feature":"2048","num_nodes":"3","size_leaf_vector":"1"}},{"base_weights":[-2.7123699E-2,-1.3530579E-1,1.11699656E-1,-1.988966E-3,-1.2612136E-1,-1.683063E-2,7.849556E-2],"categories":[],"categories_nodes":[],"categories_segments":[],"categories_sizes":[],"default_left":[0,0,0,0,0,0,0],"id":69,"left_children":[1,3,-1,5,-1,-1,-1],"loss_changes":[1.1494296E0,1.1783872E0,0E0,7.2197264E-1,0E0,0E0,0E0],"parents":[2147483647,0,0,1,1,3,3],"right_children":[2,4,-1,6,-1,-1,-1],"split_conditions":[1E0,1E0,1.11699656E-1,1E0,-1.2612136E-1,-1.683063E-2,7.849556E-2],"split_indices":[2045,794,0,1840,0,0,0],"split_type":[0,0,0,0,0,0,0],"sum_hessian":[1.2014619E1,1.0822937E1,1.1916823E0,9.459263E0,1.3636742E0,7.9390864E0,1.5201759E0],"tree_param":{"num_deleted":"0","num_feature":"2048","num_nodes":"7","size_leaf_vector":"1"}},{"base_weights":[1.6546655E-3,-7.733659E-2,1.2533204E-1,2.7660297E-2,-6.690359E-2],"categories":[],"categories_nodes":[],"categories_segments":[],"categories_sizes":[],"default_left":[0,0,0,0,0],"id":70,"left_children":[1,-1,3,-1,-1],"loss_changes":[8.662016E-1,0E0,5.4450285E-1,0E0,0E0],"parents":[2147483647,0,0,2,2],"right_children":[2,-1,4,-1,-1],"split_conditions":[1E0,-7.733659E-2,1E0,2.7660297E-2,-6.690359E-2],"split_indices":[378,0,1065,0,0],"split_type":[0,0,0,0,0],"sum_hessian":[1.1766521E1,1.916078E0,9.850443E0,8.802947E0,1.0474964E0],"tree_param":{"num_deleted":"0","num_feature":"2048","num_nodes":"5","size_leaf_vector":"1"}},{"base_weights":[1.3495935E-1,5.7806473E-2,1.0894229E-1,-2.8834132E-2,8.145927E-2,-3.48605E-2,2.540465E-2],"categories":[],"categories_nodes":[],"categories_segments":[],"categories_sizes":[],"default_left":[0,0,0,0,0,0,0],"id":71,"left_children":[1,3,-1,5,-1,-1,-1],"loss_changes":[6.408185E-1,5.7421577E-1,0E0,5.334217E-1,0E0,0E0,0E0],"parents":[2147483647,0,0,1,1,3,3],"right_children":[2,4,-1,6,-1,-1,-1],"split_conditions":[1E0,1E0,1.0894229E-1,1E0,8.145927E-2,-3.48605E-2,2.540465E-2],"split_indices":[2045,1840,0,90,0,0,0],"split_type":[0,0,0,0,0,0,0],"sum_hessian":[1.2388606E1,1.1314082E1,1.0745232E0,9.875031E0,1.439051E0,4.8266397E0,5.048392E0],"tree_param":{"num_deleted":"0","num_feature":"2048","num_nodes":"7","size_leaf_vector":"1"}},{"base_weights":[-0E0],"categories":[],"categories_nodes":[],"categories_segments":[],"categories_sizes":[],"default_left":[0],"id":72,"left_children":[-1],"loss_changes":[0E0],"parents":[2147483647],"right_children":[-1],"split_conditions":[-0E0],"split_indices":[0],"split_type":[0],"sum_hessian":[1.1764946E1],"tree_param":{"num_deleted":"0","num_feature":"2048","num_nodes":"1","size_leaf_vector":"1"}},{"base_weights":[8.084983E-2,-1.1995884E-1,3.145547E-1,-2.9336956E-1,9.0834156E-2,-0E0,1.1729928E-1,-7.037338E-2,7.4763425E-2,-7.305565E-2,1.19661085E-1],"categories":[],"categories_nodes":[],"categories_segments":[],"categories_sizes":[],"default_left":[0,0,0,0,0,0,0,0,0,0,0],"id":73,"left_children":[1,3,5,7,-1,9,-1,-1,-1,-1,-1],"loss_changes":[5.911149E-1,9.5928603E-1,1.067318E0,1.2144811E0,0E0,2.0277047E0,0E0,0E0,0E0,0E0,0E0],"parents":[2147483647,0,0,1,1,2,2,3,3,5,5],"right_children":[2,4,6,8,-1,10,-1,-1,-1,-1,-1],"split_conditions":[1E0,1E0,1E0,1E0,9.0834156E-2,1E0,1.1729928E-1,-7.037338E-2,7.4763425E-2,-7.305565E-2,1.19661085E-1],"split_indices":[1683,592,699,841,0,389,0,0,0,0,0],"split_type":[0,0,0,0,0,0,0,0,0,0,0],"sum_hessian":[1.2243521E1,6.5631175E0,5.680403E0,5.503915E0,1.0592027E0,3.7503617E0,1.9300416E0,4.362553E0,1.1413616E0,2.370711E0,1.3796506E0],"tree_param":{"num_deleted":"0","num_feature":"2048","num_nodes":"11","size_leaf_vector":"1"}},{"base_weights":[6.711693E-2,-6.464338E-2,2.1415042E-2],"categories":[],"categories_nodes":[],"categories_segments":[],"categories_sizes":[],"default_left":[0,0,0],"id":74,"left_children":[1,-1,-1],"loss_changes":[5.93162E-1,0E0,0E0],"parents":[2147483647,0,0],"right_children":[2,-1,-1],"split_conditions":[1E0,-6.464338E-2,2.1415042E-2],"split_indices":[807,0,0],"split_type":[0,0,0],"sum_hessian":[1.0919226E1,1.4750851E0,9.44414E0],"tree_param":{"num_deleted":"0","num_feature":"2048","num_nodes":"3","size_leaf_vector":"1"}},{"base_weights":[-1.1537234E-1,3.2807134E-2,-9.0413995E-2,-6.774166E-2,1.7912506E-1,1.01103805E-1,-0E0],"categories":[],"categories_nodes":[],"categories_segments":[],"categories_sizes":[],"default_left":[0,0,0,0,0,0,0],"id":75,"left_children":[1,3,-1,-1,5,-1,-1],"loss_changes":[9.5343226E-1,7.132941E-1,0E0,0E0,7.371758E-1,0E0,0E0],"parents":[2147483647,0,0,1,1,4,4],"right_children":[2,4,-1,-1,6,-1,-1],"split_conditions":[1E0,1E0,-9.0413995E-2,-6.774166E-2,1E0,1.01103805E-1,-0E0],"split_indices":[1602,378,0,0,464,0,0],"split_type":[0,0,0,0,0,0,0],"sum_hessian":[1.088465E1,8.712118E0,2.172532E0,1.7276736E0,6.984444E0,1.4983189E0,5.4861255E0],"tree_param":{"num_deleted":"0","num_feature":"2048","num_nodes":"7","size_leaf_vector":"1"}},{"base_weights":[1.4976698E-1,-0E0,1.3129446E-1],"categories":[],"categories_nodes":[],"categories_segments":[],"categories_sizes":[],"default_left":[0,0,0],"id":76,"left_children":[1,-1,-1],"loss_changes":[1.4057163E0,0E0,0E0],"parents":[2147483647,0,0],"right_children":[2,-1,-1],"split_conditions":[1E0,-0E0,1.3129446E-1],"split_indices":[1254,0,0],"split_type":[0,0,0],"sum_hessian":[1.0842157E1,9.320265E0,1.5218927E0],"tree_param":{"num_deleted":"0","num_feature":"2048","num_nodes":"3","size_leaf_vector":"1"}},{"base_weights":[1.4981096E-2,-8.331446E-2,8.49771E-2,-1.777202E-1,8.013301E-2,-5.0954435E-2,1.8760642E-2],"categories":[],"categories_nodes":[],"categories_segments":[],"categories_sizes":[],"default_left":[0,0,0,0,0,0,0],"id":77,"left_children":[1,3,-1,5,-1,-1,-1],"loss_changes":[7.227459E-1,6.490891E-1,0E0,6.0597086E-1,0E0,0E0,0E0],"parents":[2147483647,0,0,1,1,3,3],"right_children":[2,4,-1,6,-1,-1,-1],"split_conditions":[1E0,1E0,8.49771E-2,1E0,8.013301E-2,-5.0954435E-2,1.8760642E-2],"split_indices":[1254,1391,0,1312,0,0,0],"split_type":[0,0,0,0,0,0,0],"sum_hessian":[1.11703E1,9.73291E0,1.437389E0,8.686816E0,1.0460937E0,5.2816834E0,3.405133E0],"tree_param":{"num_deleted":"0","num_feature":"2048","num_nodes":"7","size_leaf_vector":"1"}},{"base_weights":[6.59483E-2,-1.733997E-2,9.055361E-2,-9.554066E-2,1.3759742E-2],"categories":[],"categories_nodes":[],"categories_segments":[],"categories_sizes":[],"default_left":[0,0,0,0,0],"id":78,"left_children":[1,3,-1,-1,-1],"loss_changes":[5.742466E-1,8.5169E-1,0E0,0E0,0E0],"parents":[2147483647,0,0,1,1],"right_children":[2,4,-1,-1,-1],"split_conditions":[1E0,1E0,9.055361E-2,-9.554066E-2,1.3759742E-2],"split_indices":[1160,807,0,0,0],"split_type":[0,0,0,0,0],"sum_hessian":[1.0584757E1,9.417184E0,1.1675729E0,1.3126321E0,8.104552E0],"tree_param":{"num_deleted":"0","num_feature":"2048","num_nodes":"5","size_leaf_vector":"1"}},{"base_weights":[1.6142832E-2,-8.2492866E-2,1.9945994E-2],"categories":[],"categories_nodes":[],"categories_segments":[],"categories_sizes":[],"default_left":[0,0,0],"id":79,"left_children":[1,-1,-1],"loss_changes":[9.081733E-1,0E0,0E0],"parents":[2147483647,0,0],"right_children":[2,-1,-1],"split_conditions":[1E0,-8.2492866E-2,1.9945994E-2],"split_indices":[378,0,0],"split_type":[0,0,0],"sum_hessian":[1.0276811E1,1.6688871E0,8.6079235E0],"tree_param":{"num_deleted":"0","num_feature":"2048","num_nodes":"3","size_leaf_vector":"1"}},{"base_weights":[-0E0],"categories":[],"categories_nodes":[],"categories_segments":[],"categories_sizes":[],"default_left":[0],"id":80,"left_children":[-1],"loss_changes":[0E0],"parents":[2147483647],"right_children":[-1],"split_conditions":[-0E0],"split_indices":[0],"split_type":[0],"sum_hessian":[1.0845678E1],"tree_param":{"num_deleted":"0","num_feature":"2048","num_nodes":"1","size_leaf_vector":"1"}},{"base_weights":[2.6410457E-2,-1.00953E-1,1.2747431E-1,-3.1079555E-1,3.0534917E-1,-7.7354476E-2,5.242411E-2,-9.854622E-3,1.3198064E-1],"categories":[],"categories_nodes":[],"categories_segments":[],"categories_sizes":[],"default_left":[0,0,0,0,0,0,0,0,0],"id":81,"left_children":[1,3,-1,5,7,-1,-1,-1,-1],"loss_changes":[1.318798E0,8.2491076E-1,0E0,1.292193E0,9.014791E-1,0E0,0E0,0E0,0E0],"parents":[2147483647,0,0,1,1,3,3,4,4],"right_children":[2,4,-1,6,8,-1,-1,-1,-1],"split_conditions":[1E0,1E0,1.2747431E-1,1E0,1E0,-7.7354476E-2,5.242411E-2,-9.854622E-3,1.3198064E-1],"split_indices":[881,1573,0,1452,389,0,0,0,0],"split_type":[0,0,0,0,0,0,0,0,0],"sum_hessian":[1.0556078E1,9.383676E0,1.1724032E0,6.2500467E0,3.1336284E0,4.536584E0,1.7134632E0,2.0841527E0,1.0494759E0],"tree_param":{"num_deleted":"0","num_feature":"2048","num_nodes":"9","size_leaf_vector":"1"}},{"base_weights":[-0E0,-8.077601E-2,9.041936E-2,-3.9668927E-1,1.8295258E-1,-8.758888E-2,4.8427183E-2,-2.5178622E-3,9.774213E-2],"categories":[],"categories_nodes":[],"categories_segments":[],"categories_sizes":[],"default_left":[0,0,0,0,0,0,0,0,0],"id":82,"left_children":[1,3,-1,5,7,-1,-1,-1,-1],"loss_changes":[6.394159E-1,8.5656387E-1,0E0,1.003978E0,6.4854217E-1,0E0,0E0,0E0,0E0],"parents":[2147483647,0,0,1,1,3,3,4,4],"right_children":[2,4,-1,6,8,-1,-1,-1,-1],"split_conditions":[1E0,1E0,9.041936E-2,1E0,1E0,-8.758888E-2,4.8427183E-2,-2.5178622E-3,9.774213E-2],"split_indices":[592,1683,0,695,389,0,0,0,0],"split_type":[0,0,0,0,0,0,0,0,0],"sum_hessian":[1.1036775E1,9.959492E0,1.077283E0,4.543448E0,5.4160438E0,3.3987303E0,1.1447175E0,4.0439305E0,1.372113E0],"tree_param":{"num_deleted":"0","num_feature":"2048","num_nodes":"9","size_leaf_vector":"1"}},{"base_weights":[1.4874646E-2,-1.3414861E-1,4.1881946E-1,-2.850629E-1,4.836552E-2,-9.5755635E-3,1.2553893E-1,-8.867682E-2,-2.8955566E-3],"categories":[],"categories_nodes":[],"categories_segments":[],"categories_sizes":[],"default_left":[0,0,0,0,0,0,0,0,0],"id":83,"left_children":[1,3,5,7,-1,-1,-1,-1,-1],"loss_changes":[6.6054475E-1,6.0997814E-1,8.1313473E-1,6.1304426E-1,0E0,0E0,0E0,0E0,0E0],"parents":[2147483647,0,0,1,1,2,2,3,3],"right_children":[2,4,6,8,-1,-1,-1,-1,-1],"split_conditions":[1E0,1E0,1E0,1E0,4.836552E-2,-9.5755635E-3,1.2553893E-1,-8.867682E-2,-2.8955566E-3],"split_indices":[1573,809,1928,1967,0,0,0,0,0],"split_type":[0,0,0,0,0,0,0,0,0],"sum_hessian":[1.0588424E1,7.7562327E0,2.8321912E0,6.046917E0,1.709316E0,1.5135983E0,1.3185928E0,2.3147366E0,3.73218E0],"tree_param":{"num_deleted":"0","num_feature":"2048","num_nodes":"9","size_leaf_vector":"1"}},{"base_weights":[-4.154177E-2],"categories":[],"categories_nodes":[],"categories_segments":[],"categories_sizes":[],"default_left":[0],"id":84,"left_children":[-1],"loss_changes":[0E0],"parents":[2147483647],"right_children":[-1],"split_conditions":[-5.4659974E-3],"split_indices":[0],"split_type":[0],"sum_hessian":[9.445186E0],"tree_param":{"num_deleted":"0","num_feature":"2048","num_nodes":"1","size_leaf_vector":"1"}},{"base_weights":[-7.161643E-2],"categories":[],"categories_nodes":[],"categories_segments":[],"categories_sizes":[],"default_left":[0],"id":85,"left_children":[-1],"loss_changes":[0E0],"parents":[2147483647],"right_children":[-1],"split_conditions":[-9.423171E-3],"split_indices":[0],"split_type":[0],"sum_hessian":[1.0242936E1],"tree_param":{"num_deleted":"0","num_feature":"2048","num_nodes":"1","size_leaf_vector":"1"}},{"base_weights":[-3.4692024E-3],"categories":[],"categories_nodes":[],"categories_segments":[],"categories_sizes":[],"default_left":[0],"id":86,"left_children":[-1],"loss_changes":[0E0],"parents":[2147483647],"right_children":[-1],"split_conditions":[-4.564719E-4],"split_indices":[0],"split_type":[0],"sum_hessian":[1.0934063E1],"tree_param":{"num_deleted":"0","num_feature":"2048","num_nodes":"1","size_leaf_vector":"1"}},{"base_weights":[6.604988E-2,-7.95892E-2,1.2757614E-1,-2.8256088E-1,3.4467515E-2,-8.7713026E-2,-0E0],"categories":[],"categories_nodes":[],"categories_segments":[],"categories_sizes":[],"default_left":[0,0,0,0,0,0,0],"id":87,"left_children":[1,3,-1,5,-1,-1,-1],"loss_changes":[1.2902379E0,5.8818173E-1,0E0,5.782126E-1,0E0,0E0,0E0],"parents":[2147483647,0,0,1,1,3,3],"right_children":[2,4,-1,6,-1,-1,-1],"split_conditions":[1E0,1E0,1.2757614E-1,1E0,3.4467515E-2,-8.7713026E-2,-0E0],"split_indices":[881,667,0,695,0,0,0],"split_type":[0,0,0,0,0,0,0],"sum_hessian":[9.416714E0,8.193295E0,1.2234192E0,5.200369E0,2.9929261E0,2.122893E0,3.0774758E0],"tree_param":{"num_deleted":"0","num_feature":"2048","num_nodes":"7","size_leaf_vector":"1"}},{"base_weights":[-5.726208E-3],"categories":[],"categories_nodes":[],"categories_segments":[],"categories_sizes":[],"default_left":[0],"id":88,"left_children":[-1],"loss_changes":[0E0],"parents":[2147483647],"right_children":[-1],"split_conditions":[-7.5344497E-4],"split_indices":[0],"split_type":[0],"sum_hessian":[9.994972E0],"tree_param":{"num_deleted":"0","num_feature":"2048","num_nodes":"1","size_leaf_vector":"1"}},{"base_weights":[-2.0308645E-2],"categories":[],"categories_nodes":[],"categories_segments":[],"categories_sizes":[],"default_left":[0],"id":89,"left_children":[-1],"loss_changes":[0E0],"parents":[2147483647],"right_children":[-1],"split_conditions":[-2.672178E-3],"split_indices":[0],"split_type":[0],"sum_hessian":[9.744075E0],"tree_param":{"num_deleted":"0","num_feature":"2048","num_nodes":"1","size_leaf_vector":"1"}},{"base_weights":[5.0895095E-2,-1.1335983E-2,1.2460109E-1],"categories":[],"categories_nodes":[],"categories_segments":[],"categories_sizes":[],"default_left":[0,0,0],"id":90,"left_children":[1,-1,-1],"loss_changes":[1.1404127E0,0E0,0E0],"parents":[2147483647,0,0],"right_children":[2,-1,-1],"split_conditions":[1E0,-1.1335983E-2,1.2460109E-1],"split_indices":[881,0,0],"split_type":[0,0,0],"sum_hessian":[8.881068E0,7.786138E0,1.0949303E0],"tree_param":{"num_deleted":"0","num_feature":"2048","num_nodes":"3","size_leaf_vector":"1"}},{"base_weights":[-1.1293215E-2,-1.1853219E-1,9.3468264E-2,-2.7388933E-1,3.8184427E-2,-5.4947607E-2,4.8081513E-2],"categories":[],"categories_nodes":[],"categories_segments":[],"categories_sizes":[],"default_left":[0,0,0,0,0,0,0],"id":91,"left_children":[1,3,-1,5,-1,-1,-1],"loss_changes":[7.1569717E-1,5.33575E-1,0E0,5.812536E-1,0E0,0E0,0E0],"parents":[2147483647,0,0,1,1,3,3],"right_children":[2,4,-1,6,-1,-1,-1],"split_conditions":[1E0,1E0,9.3468264E-2,1E0,3.8184427E-2,-5.4947607E-2,4.8081513E-2],"split_indices":[407,1224,0,114,0,0,0],"split_type":[0,0,0,0,0,0,0],"sum_hessian":[9.1542635E0,8.100208E0,1.0540552E0,5.9468365E0,2.1533716E0,4.926435E0,1.0204016E0],"tree_param":{"num_deleted":"0","num_feature":"2048","num_nodes":"7","size_leaf_vector":"1"}},{"base_weights":[-7.551284E-2],"categories":[],"categories_nodes":[],"categories_segments":[],"categories_sizes":[],"default_left":[0],"id":92,"left_children":[-1],"loss_changes":[0E0],"parents":[2147483647],"right_children":[-1],"split_conditions":[-9.935854E-3],"split_indices":[0],"split_type":[0],"sum_hessian":[9.357679E0],"tree_param":{"num_deleted":"0","num_feature":"2048","num_nodes":"1","size_leaf_vector":"1"}},{"base_weights":[-2.6761606E-2],"categories":[],"categories_nodes":[],"categories_segments":[],"categories_sizes":[],"default_left":[0],"id":93,"left_children":[-1],"loss_changes":[0E0],"parents":[2147483647],"right_children":[-1],"split_conditions":[-3.5212478E-3],"split_indices":[0],"split_type":[0],"sum_hessian":[1.0051818E1],"tree_param":{"num_deleted":"0","num_feature":"2048","num_nodes":"1","size_leaf_vector":"1"}},{"base_weights":[4.5103934E-2,-4.589522E-3,9.106834E-2],"categories":[],"categories_nodes":[],"categories_segments":[],"categories_sizes":[],"default_left":[0,0,0],"id":94,"left_children":[1,-1,-1],"loss_changes":[5.5522543E-1,0E0,0E0],"parents":[2147483647,0,0],"right_children":[2,-1,-1],"split_conditions":[1E0,-4.589522E-3,9.106834E-2],"split_indices":[1876,0,0],"split_type":[0,0,0],"sum_hessian":[1.020716E1,9.165047E0,1.0421131E0],"tree_param":{"num_deleted":"0","num_feature":"2048","num_nodes":"3","size_leaf_vector":"1"}},{"base_weights":[8.536891E-2,-1.3960212E-3,8.550637E-2],"categories":[],"categories_nodes":[],"categories_segments":[],"categories_sizes":[],"default_left":[0,0,0],"id":95,"left_children":[1,-1,-1],"loss_changes":[5.76877E-1,0E0,0E0],"parents":[2147483647,0,0],"right_children":[2,-1,-1],"split_conditions":[1E0,-1.3960212E-3,8.550637E-2],"split_indices":[1254,0,0],"split_type":[0,0,0],"sum_hessian":[1.0195496E1,8.7907915E0,1.404704E0],"tree_param":{"num_deleted":"0","num_feature":"2048","num_nodes":"3","size_leaf_vector":"1"}},{"base_weights":[-4.2431816E-2],"categories":[],"categories_nodes":[],"categories_segments":[],"categories_sizes":[],"default_left":[0],"id":96,"left_children":[-1],"loss_changes":[0E0],"parents":[2147483647],"right_children":[-1],"split_conditions":[-5.583108E-3],"split_indices":[0],"split_type":[0],"sum_hessian":[9.639796E0],"tree_param":{"num_deleted":"0","num_feature":"2048","num_nodes":"1","size_leaf_vector":"1"}},{"base_weights":[-1.1073036E-1,3.6155008E-2,-9.1240466E-2,-6.995464E-2,1.7390987E-1,6.424738E-2,-4.0688176E-2],"categories":[],"categories_nodes":[],"categories_segments":[],"categories_sizes":[],"default_left":[0,0,0,0,0,0,0],"id":97,"left_children":[1,3,-1,-1,5,-1,-1],"loss_changes":[8.0026424E-1,5.8066255E-1,0E0,0E0,9.480387E-1,0E0,0E0],"parents":[2147483647,0,0,1,1,4,4],"right_children":[2,4,-1,-1,6,-1,-1],"split_conditions":[1E0,1E0,-9.1240466E-2,-6.995464E-2,1E0,6.424738E-2,-4.0688176E-2],"split_indices":[1602,80,0,0,1589,0,0],"split_type":[0,0,0,0,0,0,0],"sum_hessian":[8.978852E0,7.2394137E0,1.7394385E0,1.3010594E0,5.938354E0,3.6282473E0,2.310107E0],"tree_param":{"num_deleted":"0","num_feature":"2048","num_nodes":"7","size_leaf_vector":"1"}},{"base_weights":[-4.3499637E-2],"categories":[],"categories_nodes":[],"categories_segments":[],"categories_sizes":[],"default_left":[0],"id":98,"left_children":[-1],"loss_changes":[0E0],"parents":[2147483647],"right_children":[-1],"split_conditions":[-5.72361E-3],"split_indices":[0],"split_type":[0],"sum_hessian":[9.911815E0],"tree_param":{"num_deleted":"0","num_feature":"2048","num_nodes":"1","size_leaf_vector":"1"}},{"base_weights":[5.7270255E-2],"categories":[],"categories_nodes":[],"categories_segments":[],"categories_sizes":[],"default_left":[0],"id":99,"left_children":[-1],"loss_changes":[0E0],"parents":[2147483647],"right_children":[-1],"split_conditions":[7.535525E-3],"split_indices":[0],"split_type":[0],"sum_hessian":[9.534251E0],"tree_param":{"num_deleted":"0","num_feature":"2048","num_nodes":"1","size_leaf_vector":"1"}},{"base_weights":[6.387089E-2,-1.4615782E-2,7.7833705E-2],"categories":[],"categories_nodes":[],"categories_segments":[],"categories_sizes":[],"default_left":[0,0,0],"id":100,"left_children":[1,-1,-1],"loss_changes":[8.501419E-1,0E0,0E0],"parents":[2147483647,0,0],"right_children":[2,-1,-1],"split_conditions":[1E0,-1.4615782E-2,7.7833705E-2],"split_indices":[561,0,0],"split_type":[0,0,0],"sum_hessian":[8.84284E0,6.686466E0,2.1563745E0],"tree_param":{"num_deleted":"0","num_feature":"2048","num_nodes":"3","size_leaf_vector":"1"}},{"base_weights":[2.5579583E-2],"categories":[],"categories_nodes":[],"categories_segments":[],"categories_sizes":[],"default_left":[0],"id":101,"left_children":[-1],"loss_changes":[0E0],"parents":[2147483647],"right_children":[-1],"split_conditions":[3.365719E-3],"split_indices":[0],"split_type":[0],"sum_hessian":[9.53605E0],"tree_param":{"num_deleted":"0","num_feature":"2048","num_nodes":"1","size_leaf_vector":"1"}},{"base_weights":[1.2786857E-4,-2.7114356E-1,3.1062374E-2,-7.429946E-1,7.462407E-2,-1.5147986E-1,-1.6891625E-2],"categories":[],"categories_nodes":[],"categories_segments":[],"categories_sizes":[],"default_left":[0,0,0,0,0,0,0],"id":102,"left_children":[1,3,-1,5,-1,-1,-1],"loss_changes":[5.7548416E-1,1.6995267E0,0E0,6.3174343E-1,0E0,0E0,0E0],"parents":[2147483647,0,0,1,1,3,3],"right_children":[2,4,-1,6,-1,-1,-1],"split_conditions":[1E0,1E0,3.1062374E-2,1E0,7.462407E-2,-1.5147986E-1,-1.6891625E-2],"split_indices":[90,389,0,80,0,0,0],"split_type":[0,0,0,0,0,0,0],"sum_hessian":[8.73045E0,4.0019765E0,4.728473E0,2.589883E0,1.4120933E0,1.4595324E0,1.1303507E0],"tree_param":{"num_deleted":"0","num_feature":"2048","num_nodes":"7","size_leaf_vector":"1"}},{"base_weights":[-1.2025168E-1,-2.2230616E-1,6.4761065E-2,-1.6029589E-3,-8.850998E-2],"categories":[],"categories_nodes":[],"categories_segments":[],"categories_sizes":[],"default_left":[0,0,0,0,0],"id":103,"left_children":[1,3,-1,-1,-1],"loss_changes":[5.6866574E-1,7.2126544E-1,0E0,0E0,0E0],"parents":[2147483647,0,0,1,1],"right_children":[2,4,-1,-1,-1],"split_conditions":[1E0,1E0,6.4761065E-2,-1.6029589E-3,-8.850998E-2],"split_indices":[1840,1088,0,0,0],"split_type":[0,0,0,0,0],"sum_hessian":[8.829738E0,7.678777E0,1.1509607E0,5.370224E0,2.3085532E0],"tree_param":{"num_deleted":"0","num_feature":"2048","num_nodes":"5","size_leaf_vector":"1"}},{"base_weights":[-6.309026E-2],"categories":[],"categories_nodes":[],"categories_segments":[],"categories_sizes":[],"default_left":[0],"id":104,"left_children":[-1],"loss_changes":[0E0],"parents":[2147483647],"right_children":[-1],"split_conditions":[-8.301311E-3],"split_indices":[0],"split_type":[0],"sum_hessian":[9.288627E0],"tree_param":{"num_deleted":"0","num_feature":"2048","num_nodes":"1","size_leaf_vector":"1"}},{"base_weights":[9.1145016E-2],"categories":[],"categories_nodes":[],"categories_segments":[],"categories_sizes":[],"default_left":[0],"id":105,"left_children":[-1],"loss_changes":[0E0],"parents":[2147483647],"right_children":[-1],"split_conditions":[1.199271E-2],"split_indices":[0],"split_type":[0],"sum_hessian":[9.699385E0],"tree_param":{"num_deleted":"0","num_feature":"2048","num_nodes":"1","size_leaf_vector":"1"}},{"base_weights":[2.1884607E-3],"categories":[],"categories_nodes":[],"categories_segments":[],"categories_sizes":[],"default_left":[0],"id":106,"left_children":[-1],"loss_changes":[0E0],"parents":[2147483647],"right_children":[-1],"split_conditions":[2.8795403E-4],"split_indices":[0],"split_type":[0],"sum_hessian":[9.404375E0],"tree_param":{"num_deleted":"0","num_feature":"2048","num_nodes":"1","size_leaf_vector":"1"}},{"base_weights":[1.0870628E-1,-5.492958E-3,7.604798E-2],"categories":[],"categories_nodes":[],"categories_segments":[],"categories_sizes":[],"default_left":[0,0,0],"id":107,"left_children":[1,-1,-1],"loss_changes":[6.7993027E-1,0E0,0E0],"parents":[2147483647,0,0],"right_children":[2,-1,-1],"split_conditions":[1E0,-5.492958E-3,7.604798E-2],"split_indices":[191,0,0],"split_type":[0,0,0],"sum_hessian":[9.254828E0,7.0619454E0,2.192883E0],"tree_param":{"num_deleted":"0","num_feature":"2048","num_nodes":"3","size_leaf_vector":"1"}},{"base_weights":[-1.6053466E-2],"categories":[],"categories_nodes":[],"categories_segments":[],"categories_sizes":[],"default_left":[0],"id":108,"left_children":[-1],"loss_changes":[0E0],"parents":[2147483647],"right_children":[-1],"split_conditions":[-2.1122885E-3],"split_indices":[0],"split_type":[0],"sum_hessian":[9.659445E0],"tree_param":{"num_deleted":"0","num_feature":"2048","num_nodes":"1","size_leaf_vector":"1"}},{"base_weights":[-1.5611441E-2],"categories":[],"categories_nodes":[],"categories_segments":[],"categories_sizes":[],"default_left":[0],"id":109,"left_children":[-1],"loss_changes":[0E0],"parents":[2147483647],"right_children":[-1],"split_conditions":[-2.0541274E-3],"split_indices":[0],"split_type":[0],"sum_hessian":[9.558724E0],"tree_param":{"num_deleted":"0","num_feature":"2048","num_nodes":"1","size_leaf_vector":"1"}},{"base_weights":[-6.267278E-3,-2.2497652E-2,4.458677E-2],"categories":[],"categories_nodes":[],"categories_segments":[],"categories_sizes":[],"default_left":[0,0,0],"id":110,"left_children":[1,-1,-1],"loss_changes":[5.3717804E-1,0E0,0E0],"parents":[2147483647,0,0],"right_children":[2,-1,-1],"split_conditions":[1E0,-2.2497652E-2,4.458677E-2],"split_indices":[1573,0,0],"split_type":[0,0,0],"sum_hessian":[9.246716E0,6.355713E0,2.8910027E0],"tree_param":{"num_deleted":"0","num_feature":"2048","num_nodes":"3","size_leaf_vector":"1"}},{"base_weights":[-2.924824E-2,-7.850874E-2,7.287429E-2,-1.9272553E-2,4.8623398E-2],"categories":[],"categories_nodes":[],"categories_segments":[],"categories_sizes":[],"default_left":[0,0,0,0,0],"id":111,"left_children":[1,-1,3,-1,-1],"loss_changes":[5.746425E-1,0E0,5.4719454E-1,0E0,0E0],"parents":[2147483647,0,0,2,2],"right_children":[2,-1,4,-1,-1],"split_conditions":[1E0,-7.850874E-2,1E0,-1.9272553E-2,4.8623398E-2],"split_indices":[378,0,1683,0,0],"split_type":[0,0,0,0,0],"sum_hessian":[9.448599E0,1.3774443E0,8.071155E0,4.6313415E0,3.4398124E0],"tree_param":{"num_deleted":"0","num_feature":"2048","num_nodes":"5","size_leaf_vector":"1"}},{"base_weights":[8.3476946E-2],"categories":[],"categories_nodes":[],"categories_segments":[],"categories_sizes":[],"default_left":[0],"id":112,"left_children":[-1],"loss_changes":[0E0],"parents":[2147483647],"right_children":[-1],"split_conditions":[1.0983758E-2],"split_indices":[0],"split_type":[0],"sum_hessian":[9.511993E0],"tree_param":{"num_deleted":"0","num_feature":"2048","num_nodes":"1","size_leaf_vector":"1"}},{"base_weights":[-7.157763E-2],"categories":[],"categories_nodes":[],"categories_segments":[],"categories_sizes":[],"default_left":[0],"id":113,"left_children":[-1],"loss_changes":[0E0],"parents":[2147483647],"right_children":[-1],"split_conditions":[-9.418066E-3],"split_indices":[0],"split_type":[0],"sum_hessian":[8.811853E0],"tree_param":{"num_deleted":"0","num_feature":"2048","num_nodes":"1","size_leaf_vector":"1"}},{"base_weights":[7.413425E-2],"categories":[],"categories_nodes":[],"categories_segments":[],"categories_sizes":[],"default_left":[0],"id":114,"left_children":[-1],"loss_changes":[0E0],"parents":[2147483647],"right_children":[-1],"split_conditions":[9.754462E-3],"split_indices":[0],"split_type":[0],"sum_hessian":[9.305201E0],"tree_param":{"num_deleted":"0","num_feature":"2048","num_nodes":"1","size_leaf_vector":"1"}},{"base_weights":[-0E0],"categories":[],"categories_nodes":[],"categories_segments":[],"categories_sizes":[],"default_left":[0],"id":115,"left_children":[-1],"loss_changes":[0E0],"parents":[2147483647],"right_children":[-1],"split_conditions":[-0E0],"split_indices":[0],"split_type":[0],"sum_hessian":[9.879128E0],"tree_param":{"num_deleted":"0","num_feature":"2048","num_nodes":"1","size_leaf_vector":"1"}},{"base_weights":[-9.856708E-2,-3.818949E-2,4.028621E-2],"categories":[],"categories_nodes":[],"categories_segments":[],"categories_sizes":[],"default_left":[0,0,0],"id":116,"left_children":[1,-1,-1],"loss_changes":[7.166426E-1,0E0,0E0],"parents":[2147483647,0,0],"right_children":[2,-1,-1],"split_conditions":[1E0,-3.818949E-2,4.028621E-2],"split_indices":[1573,0,0],"split_type":[0,0,0],"sum_hessian":[8.94831E0,6.14117E0,2.8071396E0],"tree_param":{"num_deleted":"0","num_feature":"2048","num_nodes":"3","size_leaf_vector":"1"}},{"base_weights":[-6.240878E-2],"categories":[],"categories_nodes":[],"categories_segments":[],"categories_sizes":[],"default_left":[0],"id":117,"left_children":[-1],"loss_changes":[0E0],"parents":[2147483647],"right_children":[-1],"split_conditions":[-8.211643E-3],"split_indices":[0],"split_type":[0],"sum_hessian":[8.898508E0],"tree_param":{"num_deleted":"0","num_feature":"2048","num_nodes":"1","size_leaf_vector":"1"}},{"base_weights":[2.069375E-2],"categories":[],"categories_nodes":[],"categories_segments":[],"categories_sizes":[],"default_left":[0],"id":118,"left_children":[-1],"loss_changes":[0E0],"parents":[2147483647],"right_children":[-1],"split_conditions":[2.7228491E-3],"split_indices":[0],"split_type":[0],"sum_hessian":[9.31645E0],"tree_param":{"num_deleted":"0","num_feature":"2048","num_nodes":"1","size_leaf_vector":"1"}},{"base_weights":[-1.4009698E-1],"categories":[],"categories_nodes":[],"categories_segments":[],"categories_sizes":[],"default_left":[0],"id":119,"left_children":[-1],"loss_changes":[0E0],"parents":[2147483647],"right_children":[-1],"split_conditions":[-1.8433727E-2],"split_indices":[0],"split_type":[0],"sum_hessian":[8.529522E0],"tree_param":{"num_deleted":"0","num_feature":"2048","num_nodes":"1","size_leaf_vector":"1"}},{"base_weights":[2.4521686E-2],"categories":[],"categories_nodes":[],"categories_segments":[],"categories_sizes":[],"default_left":[0],"id":120,"left_children":[-1],"loss_changes":[0E0],"parents":[2147483647],"right_children":[-1],"split_conditions":[3.2265228E-3],"split_indices":[0],"split_type":[0],"sum_hessian":[8.91374E0],"tree_param":{"num_deleted":"0","num_feature":"2048","num_nodes":"1","size_leaf_vector":"1"}},{"base_weights":[1.684759E-2,-1.1785543E-1,7.921184E-2,3.8888454E-2,-1.1137368E-1,-1.2729854E-2,8.665058E-2],"categories":[],"categories_nodes":[],"categories_segments":[],"categories_sizes":[],"default_left":[0,0,0,0,0,0,0],"id":121,"left_children":[1,3,-1,5,-1,-1,-1],"loss_changes":[7.437503E-1,8.840726E-1,0E0,5.5192465E-1,0E0,0E0,0E0],"parents":[2147483647,0,0,1,1,3,3],"right_children":[2,4,-1,6,-1,-1,-1],"split_conditions":[1E0,1E0,7.921184E-2,1E0,-1.1137368E-1,-1.2729854E-2,8.665058E-2],"split_indices":[809,389,0,592,0,0,0],"split_type":[0,0,0,0,0,0,0],"sum_hessian":[9.019961E0,7.386193E0,1.6337688E0,6.1569357E0,1.2292569E0,5.1129036E0,1.0440321E0],"tree_param":{"num_deleted":"0","num_feature":"2048","num_nodes":"7","size_leaf_vector":"1"}},{"base_weights":[-6.951128E-2],"categories":[],"categories_nodes":[],"categories_segments":[],"categories_sizes":[],"default_left":[0],"id":122,"left_children":[-1],"loss_changes":[0E0],"parents":[2147483647],"right_children":[-1],"split_conditions":[-9.146179E-3],"split_indices":[0],"split_type":[0],"sum_hessian":[8.366676E0],"tree_param":{"num_deleted":"0","num_feature":"2048","num_nodes":"1","size_leaf_vector":"1"}},{"base_weights":[1.4316242E-2],"categories":[],"categories_nodes":[],"categories_segments":[],"categories_sizes":[],"default_left":[0],"id":123,"left_children":[-1],"loss_changes":[0E0],"parents":[2147483647],"right_children":[-1],"split_conditions":[1.8837074E-3],"split_indices":[0],"split_type":[0],"sum_hessian":[9.918137E0],"tree_param":{"num_deleted":"0","num_feature":"2048","num_nodes":"1","size_leaf_vector":"1"}},{"base_weights":[5.9459984E-2],"categories":[],"categories_nodes":[],"categories_segments":[],"categories_sizes":[],"default_left":[0],"id":124,"left_children":[-1],"loss_changes":[0E0],"parents":[2147483647],"right_children":[-1],"split_conditions":[7.823646E-3],"split_indices":[0],"split_type":[0],"sum_hessian":[9.637121E0],"tree_param":{"num_deleted":"0","num_feature":"2048","num_nodes":"1","size_leaf_vector":"1"}},{"base_weights":[1.6130295E-1],"categories":[],"categories_nodes":[],"categories_segments":[],"categories_sizes":[],"default_left":[0],"id":125,"left_children":[-1],"loss_changes":[0E0],"parents":[2147483647],"right_children":[-1],"split_conditions":[2.1223975E-2],"split_indices":[0],"split_type":[0],"sum_hessian":[9.251497E0],"tree_param":{"num_deleted":"0","num_feature":"2048","num_nodes":"1","size_leaf_vector":"1"}},{"base_weights":[1.64995E-2],"categories":[],"categories_nodes":[],"categories_segments":[],"categories_sizes":[],"default_left":[0],"id":126,"left_children":[-1],"loss_changes":[0E0],"parents":[2147483647],"right_children":[-1],"split_conditions":[2.170977E-3],"split_indices":[0],"split_type":[0],"sum_hessian":[9.751995E0],"tree_param":{"num_deleted":"0","num_feature":"2048","num_nodes":"1","size_leaf_vector":"1"}},{"base_weights":[3.0153284E-3],"categories":[],"categories_nodes":[],"categories_segments":[],"categories_sizes":[],"default_left":[0],"id":127,"left_children":[-1],"loss_changes":[0E0],"parents":[2147483647],"right_children":[-1],"split_conditions":[3.9675192E-4],"split_indices":[0],"split_type":[0],"sum_hessian":[9.720319E0],"tree_param":{"num_deleted":"0","num_feature":"2048","num_nodes":"1","size_leaf_vector":"1"}},{"base_weights":[-6.2171515E-5],"categories":[],"categories_nodes":[],"categories_segments":[],"categories_sizes":[],"default_left":[0],"id":128,"left_children":[-1],"loss_changes":[0E0],"parents":[2147483647],"right_children":[-1],"split_conditions":[-8.180425E-6],"split_indices":[0],"split_type":[0],"sum_hessian":[9.044042E0],"tree_param":{"num_deleted":"0","num_feature":"2048","num_nodes":"1","size_leaf_vector":"1"}},{"base_weights":[2.3504023E-2,-1.597334E-2,6.358561E-2],"categories":[],"categories_nodes":[],"categories_segments":[],"categories_sizes":[],"default_left":[0,0,0],"id":129,"left_children":[1,-1,-1],"loss_changes":[6.334284E-1,0E0,0E0],"parents":[2147483647,0,0],"right_children":[2,-1,-1],"split_conditions":[1E0,-1.597334E-2,6.358561E-2],"split_indices":[1224,0,0],"split_type":[0,0,0],"sum_hessian":[9.11321E0,6.9643607E0,2.1488485E0],"tree_param":{"num_deleted":"0","num_feature":"2048","num_nodes":"3","size_leaf_vector":"1"}},{"base_weights":[1.9393759E-2],"categories":[],"categories_nodes":[],"categories_segments":[],"categories_sizes":[],"default_left":[0],"id":130,"left_children":[-1],"loss_changes":[0E0],"parents":[2147483647],"right_children":[-1],"split_conditions":[2.5517987E-3],"split_indices":[0],"split_type":[0],"sum_hessian":[8.320985E0],"tree_param":{"num_deleted":"0","num_feature":"2048","num_nodes":"1","size_leaf_vector":"1"}},{"base_weights":[7.399635E-2],"categories":[],"categories_nodes":[],"categories_segments":[],"categories_sizes":[],"default_left":[0],"id":131,"left_children":[-1],"loss_changes":[0E0],"parents":[2147483647],"right_children":[-1],"split_conditions":[9.736317E-3],"split_indices":[0],"split_type":[0],"sum_hessian":[9.665146E0],"tree_param":{"num_deleted":"0","num_feature":"2048","num_nodes":"1","size_leaf_vector":"1"}},{"base_weights":[-6.629898E-2],"categories":[],"categories_nodes":[],"categories_segments":[],"categories_sizes":[],"default_left":[0],"id":132,"left_children":[-1],"loss_changes":[0E0],"parents":[2147483647],"right_children":[-1],"split_conditions":[-8.7235095E-3],"split_indices":[0],"split_type":[0],"sum_hessian":[8.857452E0],"tree_param":{"num_deleted":"0","num_feature":"2048","num_nodes":"1","size_leaf_vector":"1"}},{"base_weights":[1.2071901E-2,-1.5850566E-2,5.9633378E-2],"categories":[],"categories_nodes":[],"categories_segments":[],"categories_sizes":[],"default_left":[0,0,0],"id":133,"left_children":[1,-1,-1],"loss_changes":[5.7736903E-1,0E0,0E0],"parents":[2147483647,0,0],"right_children":[2,-1,-1],"split_conditions":[1E0,-1.5850566E-2,5.9633378E-2],"split_indices":[191,0,0],"split_type":[0,0,0],"sum_hessian":[9.466074E0,7.3118973E0,2.1541765E0],"tree_param":{"num_deleted":"0","num_feature":"2048","num_nodes":"3","size_leaf_vector":"1"}},{"base_weights":[6.336888E-2],"categories":[],"categories_nodes":[],"categories_segments":[],"categories_sizes":[],"default_left":[0],"id":134,"left_children":[-1],"loss_changes":[0E0],"parents":[2147483647],"right_children":[-1],"split_conditions":[8.337972E-3],"split_indices":[0],"split_type":[0],"sum_hessian":[9.633203E0],"tree_param":{"num_deleted":"0","num_feature":"2048","num_nodes":"1","size_leaf_vector":"1"}},{"base_weights":[-7.5544E-3],"categories":[],"categories_nodes":[],"categories_segments":[],"categories_sizes":[],"default_left":[0],"id":135,"left_children":[-1],"loss_changes":[0E0],"parents":[2147483647],"right_children":[-1],"split_conditions":[-9.939953E-4],"split_indices":[0],"split_type":[0],"sum_hessian":[1.0007504E1],"tree_param":{"num_deleted":"0","num_feature":"2048","num_nodes":"1","size_leaf_vector":"1"}},{"base_weights":[1.01896435E-1,-6.60586E-2,2.6907079E-2],"categories":[],"categories_nodes":[],"categories_segments":[],"categories_sizes":[],"default_left":[0,0,0],"id":136,"left_children":[1,-1,-1],"loss_changes":[5.5671746E-1,0E0,0E0],"parents":[2147483647,0,0],"right_children":[2,-1,-1],"split_conditions":[1E0,-6.60586E-2,2.6907079E-2],"split_indices":[807,0,0],"split_type":[0,0,0],"sum_hessian":[8.741037E0,1.1560175E0,7.58502E0],"tree_param":{"num_deleted":"0","num_feature":"2048","num_nodes":"3","size_leaf_vector":"1"}},{"base_weights":[-5.6003697E-2],"categories":[],"categories_nodes":[],"categories_segments":[],"categories_sizes":[],"default_left":[0],"id":137,"left_children":[-1],"loss_changes":[0E0],"parents":[2147483647],"right_children":[-1],"split_conditions":[-7.368874E-3],"split_indices":[0],"split_type":[0],"sum_hessian":[9.131039E0],"tree_param":{"num_deleted":"0","num_feature":"2048","num_nodes":"1","size_leaf_vector":"1"}}]},"name":"gbtree"},"learner_model_param":{"base_score":"5E-1","boost_from_average":"0","num_class":"0","num_feature":"2048","num_target":"1"},"objective":{"name":"binary:logistic","reg_loss_param":{"scale_pos_weight":"3.79946232"}}},"version":[2,0,3]}