{"learner":{"attributes":{"best_iteration":"230","best_score":"0.04556842493959259","scikit_learn":"{\"_estimator_type\": \"classifier\"}"},"feature_names":[],"feature_types":[],"gradient_booster":{"model":{"gbtree_model_param":{"num_parallel_tree":"1","num_trees":"246"},"iteration_indptr":[0,1,2,3,4,5,6,7,8,9,10,11,12,13,14,15,16,17,18,19,20,21,22,23,24,25,26,27,28,29,30,31,32,33,34,35,36,37,38,39,40,41,42,43,44,45,46,47,48,49,50,51,52,53,54,55,56,57,58,59,60,61,62,63,64,65,66,67,68,69,70,71,72,73,74,75,76,77,78,79,80,81,82,83,84,85,86,87,88,89,90,91,92,93,94,95,96,97,98,99,100,101,102,103,104,105,106,107,108,109,110,111,112,113,114,115,116,117,118,119,120,121,122,123,124,125,126,127,128,129,130,131,132,133,134,135,136,137,138,139,140,141,142,143,144,145,146,147,148,149,150,151,152,153,154,155,156,157,158,159,160,161,162,163,164,165,166,167,168,169,170,171,172,173,174,175,176,177,178,179,180,181,182,183,184,185,186,187,188,189,190,191,192,193,194,195,196,197,198,199,200,201,202,203,204,205,206,207,208,209,210,211,212,213,214,215,216,217,218,219,220,221,222,223,224,225,226,227,228,229,230,231,232,233,234,235,236,237,238,239,240,241,242,243,244,245,246],"tree_info":[0,0,0,0,0,0,0,0,0,0,0,0,0,0,0,0,0,0,0,0,0,0,0,0,0,0,0,0,0,0,0,0,0,0,0,0,0,0,0,0,0,0,0,0,0,0,0,0,0,0,0,0,0,0,0,0,0,0,0,0,0,0,0,0,0,0,0,0,0,0,0,0,0,0,0,0,0,0,0,0,0,0,0,0,0,0,0,0,0,0,0,0,0,0,0,0,0,0,0,0,0,0,0,0,0,0,0,0,0,0,0,0,0,0,0,0,0,0,0,0,0,0,0,0,0,0,0,0,0,0,0,0,0,0,0,0,0,0,0,0,0,0,0,0,0,0,0,0,0,0,0,0,0,0,0,0,0,0,0,0,0,0,0,0,0,0,0,0,0,0,0,0,0,0,0,0,0,0,0,0,0,0,0,0,0,0,0,0,0,0,0,0,0,0,0,0,0,0,0,0,0,0,0,0,0,0,0,0,0,0,0,0,0,0,0,0,0,0,0,0,0,0,0,0,0,0,0,0,0,0,0,0,0,0,0,0,0,0,0,0,0,0,0,0,0,0],"trees":[{"base_weights":[9.903004E-1,1.803402E-2,1.4204221E0,7.4863696E-1,-1.0185632E0,1.4575098E0,-1.2857695E0,1.2256848E0,-6.8074954E-1,-1.1737913E0,8.3628136E-1,1.4850354E0,-1.0828954E0,-7.190458E-1,-8.216851E-1,1.4299037E0,-1.6095409E0,1.232276E0,-1.1381693E0,-1.2948811E0,1.20945E0,1.5184348E0,-2.4793111E-1,3.5591656E-1,-8.302781E-1,-0E0,-7.7906775E-1,1.5447199E0,-8.216851E-1,-8.3823085E-1,-2.1555148E-1,8.322161E-1,-0E0,-1.4023664E0,2.5704834E-1,-1.4230953E0,-1.7385145E-1,1.1570722E-1,8.079337E-1,1.5571339E0,-3.2991957E-2,-1.5291358E0,6.5992725E-1,1.602499E0,-3.3216065E-1,-1.5693475E0,3.5591656E-1,-1.497174E0,2.876428E-1,8.079337E-1,-9.2191476E-1,1.5853039E0,-1.5589662E-1,8.322161E-1,-1.0789478E0,-8.302781E-1,-2.1555148E-1,1.6976831E0,4.970125E-1,-1.7567004E0,1.1570722E-1,-1.5741466E0,1.35915E-1,-8.3823085E-1,7.891757E-1,1.6021633E0,-4.729355E-1,-1.454208E0,8.1924224E-1,-8.216851E-1,-4.9396798E-1,1.7465366E0,-0E0,-8.074152E-1,7.0706177E-1,-8.5716194E-1,-4.020658E-1,-1.657598E0,1.35915E-1,1.6138331E0,-7.7906775E-1,-2.1555148E-1,-8.216851E-1,4.5067333E-2,-7.7906775E-1,7.695826E-1,1.1570722E-1,3.5591656E-1,-7.7906775E-1,-7.5543714E-1,1.9489031E-2,7.0296925E-1,-7.7906775E-1,-2.1555148E-1,3.5591656E-1],"categories":[],"categories_nodes":[],"categories_segments":[],"categories_sizes":[],"default_left":[0,0,0,0,0,0,0,0,0,0,0,0,0,0,0,0,0,0,0,0,0,0,0,0,0,0,0,0,0,0,0,0,0,0,0,0,0,0,0,0,0,0,0,0,0,0,0,0,0,0,0,0,0,0,0,0,0,0,0,0,0,0,0,0,0,0,0,0,0,0,0,0,0,0,0,0,0,0,0,0,0,0,0,0,0,0,0,0,0,0,0,0,0,0,0],"id":0,"left_children":[1,3,5,7,9,11,13,15,17,19,-1,21,23,25,-1,27,29,31,33,35,37,39,41,-1,-1,-1,-1,43,-1,-1,-1,-1,-1,45,-1,47,49,-1,-1,51,53,55,-1,57,-1,59,-1,61,-1,-1,63,65,67,-1,69,-1,-1,71,73,75,-1,77,-1,-1,-1,79,-1,81,-1,-1,83,85,-1,-1,-1,-1,87,89,-1,91,-1,-1,-1,93,-1,-1,-1,-1,-1,-1,-1,-1,-1,-1,-1],"loss_changes":[2.0402142E2,1.1352883E2,3.40318E1,6.015632E1,2.826825E1,2.3448608E1,1.099925E0,3.8286743E1,1.9213898E1,1.7026451E1,0E0,1.9355896E1,5.8290243E0,1.9867591E0,0E0,2.358622E1,1.1678886E0,3.5300274E0,8.298792E0,7.78286E0,1.3497658E0,1.973999E1,1.403939E1,0E0,0E0,0E0,0E0,8.145889E0,0E0,0E0,0E0,0E0,0E0,5.9199467E0,0E0,7.9245605E0,8.891774E0,0E0,0E0,1.5528564E1,1.5847313E1,1.0336981E0,0E0,5.7486877E0,0E0,5.264908E0,0E0,6.997864E0,0E0,0E0,1.2350199E1,1.4183899E1,1.3362514E1,0E0,2.0443997E0,0E0,0E0,4.4205627E0,1.2891888E1,3.627365E0,0E0,7.597603E0,0E0,0E0,0E0,1.2307617E1,0E0,9.091983E-1,0E0,0E0,2.52595E0,2.185913E0,0E0,0E0,0E0,0E0,3.6546373E0,7.1090927E0,0E0,1.2392151E1,0E0,0E0,0E0,9.707162E-1,0E0,0E0,0E0,0E0,0E0,0E0,0E0,0E0,0E0,0E0,0E0],"parents":[2147483647,0,0,1,1,2,2,3,3,4,4,5,5,6,6,7,7,8,8,9,9,11,11,12,12,13,13,15,15,16,16,17,17,18,18,19,19,20,20,21,21,22,22,27,27,33,33,35,35,36,36,39,39,40,40,41,41,43,43,45,45,47,47,50,50,51,51,52,52,54,54,57,57,58,58,59,59,61,61,65,65,67,67,70,70,71,71,76,76,77,77,79,79,83,83],"right_children":[2,4,6,8,10,12,14,16,18,20,-1,22,24,26,-1,28,30,32,34,36,38,40,42,-1,-1,-1,-1,44,-1,-1,-1,-1,-1,46,-1,48,50,-1,-1,52,54,56,-1,58,-1,60,-1,62,-1,-1,64,66,68,-1,70,-1,-1,72,74,76,-1,78,-1,-1,-1,80,-1,82,-1,-1,84,86,-1,-1,-1,-1,88,90,-1,92,-1,-1,-1,94,-1,-1,-1,-1,-1,-1,-1,-1,-1,-1,-1],"split_conditions":[1E0,1E0,1E0,1E0,1E0,1E0,1E0,1E0,1E0,1E0,8.3628136E-1,1E0,1E0,1E0,-8.216851E-1,1E0,1E0,1E0,1E0,1E0,1E0,1E0,1E0,3.5591656E-1,-8.302781E-1,-0E0,-7.7906775E-1,1E0,-8.216851E-1,-8.3823085E-1,-2.1555148E-1,8.322161E-1,-0E0,1E0,2.5704834E-1,1E0,1E0,1.1570722E-1,8.079337E-1,1E0,1E0,1E0,6.5992725E-1,1E0,-3.3216065E-1,1E0,3.5591656E-1,1E0,2.876428E-1,8.079337E-1,1E0,1E0,1E0,8.322161E-1,1E0,-8.302781E-1,-2.1555148E-1,1E0,1E0,1E0,1.1570722E-1,1E0,1.35915E-1,-8.3823085E-1,7.891757E-1,1E0,-4.729355E-1,1E0,8.1924224E-1,-8.216851E-1,1E0,1E0,-0E0,-8.074152E-1,7.0706177E-1,-8.5716194E-1,1E0,1E0,1.35915E-1,1E0,-7.7906775E-1,-2.1555148E-1,-8.216851E-1,1E0,-7.7906775E-1,7.695826E-1,1.1570722E-1,3.5591656E-1,-7.7906775E-1,-7.5543714E-1,1.9489031E-2,7.0296925E-1,-7.7906775E-1,-2.1555148E-1,3.5591656E-1],"split_indices":[1313,1088,1501,1917,1064,589,1114,935,1873,1594,0,145,1077,1632,0,675,1391,1325,1697,1236,656,504,1170,0,0,0,0,310,0,0,0,0,0,1182,0,317,935,0,0,62,1984,1422,0,695,0,881,0,1712,0,0,1985,1881,1855,0,302,0,0,428,1607,361,0,1808,0,0,0,1176,0,162,0,0,695,1918,0,0,0,0,656,381,0,486,0,0,0,80,0,0,0,0,0,0,0,0,0,0,0],"split_type":[0,0,0,0,0,0,0,0,0,0,0,0,0,0,0,0,0,0,0,0,0,0,0,0,0,0,0,0,0,0,0,0,0,0,0,0,0,0,0,0,0,0,0,0,0,0,0,0,0,0,0,0,0,0,0,0,0,0,0,0,0,0,0,0,0,0,0,0,0,0,0,0,0,0,0,0,0,0,0,0,0,0,0,0,0,0,0,0,0,0,0,0,0,0,0],"sum_hessian":[4.884496E2,1.4993904E2,3.3851056E2,8.805123E1,6.1887806E1,3.3400366E2,4.5068903E0,6.611077E1,2.1940458E1,5.8860245E1,3.0275614E0,3.304968E2,3.5068903E0,2.5068903E0,2E0,6.1732327E1,4.378445E0,4.156007E0,1.7784452E1,5.6089573E1,2.7706711E0,3.2434766E2,6.149116E0,1.0068903E0,2.5E0,1.5068903E0,1E0,5.9732327E1,2E0,3.25E0,1.1284451E0,2.6491163E0,1.5068903E0,1.5520671E1,2.2637806E0,5.019046E1,5.899116E0,1.2568903E0,1.5137807E0,3.165632E2,7.784452E0,3.6284451E0,2.5206711E0,5.8353878E1,1.3784451E0,1.4513781E1,1.0068903E0,4.8555122E1,1.6353356E0,1.5137807E0,4.3853354E0,3.1154254E2,5.020671E0,2.6491163E0,5.1353354E0,2.5E0,1.1284451E0,5.3576317E1,4.777561E0,1.325689E1,1.2568903E0,4.666979E1,1.8853356E0,3.25E0,1.1353356E0,3.096641E2,1.8784451E0,3.1284451E0,1.8922259E0,2E0,3.1353354E0,5.2069427E1,1.5068903E0,1.5E0,3.2775614E0,1.125E1,2.0068903E0,4.478445E1,1.8853356E0,3.086641E2,1E0,1.1284451E0,2E0,2.1353354E0,1E0,5.081254E1,1.2568903E0,1.0068903E0,1E0,4.2649117E1,2.1353354E0,3.076641E2,1E0,1.1284451E0,1.0068903E0],"tree_param":{"num_deleted":"0","num_feature":"2048","num_nodes":"95","size_leaf_vector":"1"}},{"base_weights":[6.893828E-1,7.829676E-2,9.5468426E-1,5.410146E-1,-6.729216E-1,9.8028E-1,-1.3294903E0,8.700652E-1,-3.0968314E-1,-7.408621E-1,6.7958903E-1,1.0670313E0,4.2267594E-1,-0E0,-8.6859804E-1,9.7626334E-1,-6.043688E-1,-6.312291E-1,1.0313582E0,-8.078401E-1,5.669752E-1,1.0936582E0,-7.159411E-1,9.787148E-1,-8.0041736E-1,1.0775046E0,-5.94142E-1,-8.8048255E-1,8.979535E-1,1.3158378E-1,6.170547E-1,-8.7014544E-1,6.951651E-1,1.1250763E0,-3.75274E-1,-7.389376E-1,1.1874606E-1,2.3264843E-1,1.3402241E0,-1.1285863E0,5.7455975E-1,-3.9019442E-1,1.1202137E0,-6.1773944E-1,3.612224E-1,-1.0751204E0,2.7400514E-1,1.2522312E-2,7.65504E-1,-9.338408E-1,5.6285286E-1,1.1430856E0,-4.6993878E-1,5.845456E-1,-1.0140535E0,-3.1221384E-1,6.188374E-1,6.2376547E-1,-0E0,-8.4407E-1,-9.844656E-1,8.878135E-1,6.1374366E-1,-1.223612E0,1.16725035E-1,-1.1033591E0,-0E0,1.1784705E0,2.379219E-1,-7.586598E-1,1.5626186E-1,-9.1224384E-1,4.1387063E-1,-1.1381859E0,5.641544E-1,4.1686293E-1,6.0885394E-1,-1.415812E0,-4.687595E-2,-1.1631374E0,2.685404E-1,-3.5274294E-1,8.233499E-1,1.1939608E0,-3.5145378E-1,5.7500803E-1,-9.5183825E-1,-1.5322654E-1,7.960738E-1,-7.183837E-1,-4.338593E-1,-3.0107433E-1,5.0029415E-1,-6.6376925E-1,-2.8038123E-1,-5.281489E-1,1.3684596E-1,2.4517742E-1,-3.4627658E-1,5.258724E-1,-8.114312E-2,-3.520158E-2,4.8190704E-1,5.968463E-1,-0E0,-3.6833146E-1,4.6159457E-2],"categories":[],"categories_nodes":[],"categories_segments":[],"categories_sizes":[],"default_left":[0,0,0,0,0,0,0,0,0,0,0,0,0,0,0,0,0,0,0,0,0,0,0,0,0,0,0,0,0,0,0,0,0,0,0,0,0,0,0,0,0,0,0,0,0,0,0,0,0,0,0,0,0,0,0,0,0,0,0,0,0,0,0,0,0,0,0,0,0,0,0,0,0,0,0,0,0,0,0,0,0,0,0,0,0,0,0,0,0,0,0,0,0,0,0,0,0,0,0,0,0,0,0,0,0,0,0],"id":1,"left_children":[1,3,5,7,9,11,13,15,17,19,-1,21,23,-1,-1,25,-1,27,29,31,-1,33,35,37,39,41,43,45,47,-1,-1,49,-1,51,53,-1,-1,55,57,59,-1,-1,61,-1,-1,63,-1,-1,-1,65,-1,67,-1,-1,69,71,-1,-1,-1,73,-1,75,-1,77,-1,79,81,83,85,-1,-1,-1,87,89,-1,91,-1,93,-1,95,-1,97,-1,99,-1,101,-1,-1,103,-1,105,-1,-1,-1,-1,-1,-1,-1,-1,-1,-1,-1,-1,-1,-1,-1,-1],"loss_changes":[7.065639E1,4.60335E1,1.7757782E1,2.3092571E1,7.5510902E0,1.4303589E1,3.022077E0,1.42445755E1,9.758585E0,6.656782E0,0E0,1.2436401E1,2.7816814E1,0E0,0E0,9.123753E0,0E0,7.0517035E0,9.3114805E-1,7.0406303E0,0E0,1.197937E1,3.9366672E0,7.322851E0,8.840824E0,4.572979E0,4.1088395E0,4.7998333E0,1.5808332E0,0E0,0E0,6.370224E0,0E0,1.0039276E1,5.7717276E0,0E0,0E0,6.3196864E0,2.3384132E0,3.0433693E0,0E0,0E0,3.2256851E0,0E0,0E0,3.0223732E0,0E0,0E0,0E0,6.9655457E0,0E0,7.7386475E0,0E0,0E0,4.2493324E0,8.598395E0,0E0,0E0,0E0,5.682599E0,0E0,6.9910316E0,0E0,2.5149384E0,0E0,4.0282135E0,4.5215683E0,7.4774475E0,7.6153846E0,0E0,0E0,0E0,1.3925167E0,2.5730686E0,0E0,1.3163351E1,0E0,6.0671425E-1,0E0,3.3385544E0,0E0,2.5506718E0,0E0,7.448517E0,0E0,3.1884708E0,0E0,0E0,1.2302029E0,0E0,9.370752E-1,0E0,0E0,0E0,0E0,0E0,0E0,0E0,0E0,0E0,0E0,0E0,0E0,0E0,0E0,0E0,0E0],"parents":[2147483647,0,0,1,1,2,2,3,3,4,4,5,5,6,6,7,7,8,8,9,9,11,11,12,12,15,15,17,17,18,18,19,19,21,21,22,22,23,23,24,24,25,25,26,26,27,27,28,28,31,31,33,33,34,34,37,37,38,38,39,39,42,42,45,45,49,49,51,51,54,54,55,55,59,59,61,61,63,63,65,65,66,66,67,67,68,68,72,72,73,73,75,75,77,77,79,79,81,81,83,83,85,85,88,88,90,90],"right_children":[2,4,6,8,10,12,14,16,18,20,-1,22,24,-1,-1,26,-1,28,30,32,-1,34,36,38,40,42,44,46,48,-1,-1,50,-1,52,54,-1,-1,56,58,60,-1,-1,62,-1,-1,64,-1,-1,-1,66,-1,68,-1,-1,70,72,-1,-1,-1,74,-1,76,-1,78,-1,80,82,84,86,-1,-1,-1,88,90,-1,92,-1,94,-1,96,-1,98,-1,100,-1,102,-1,-1,104,-1,106,-1,-1,-1,-1,-1,-1,-1,-1,-1,-1,-1,-1,-1,-1,-1,-1],"split_conditions":[1E0,1E0,1E0,1E0,1E0,1E0,1E0,1E0,1E0,1E0,6.7958903E-1,1E0,1E0,-0E0,-8.6859804E-1,1E0,-6.043688E-1,1E0,1E0,1E0,5.669752E-1,1E0,1E0,1E0,1E0,1E0,1E0,1E0,1E0,1.3158378E-1,6.170547E-1,1E0,6.951651E-1,1E0,1E0,-7.389376E-1,1.1874606E-1,1E0,1E0,1E0,5.7455975E-1,-3.9019442E-1,1E0,-6.1773944E-1,3.612224E-1,1E0,2.7400514E-1,1.2522312E-2,7.65504E-1,1E0,5.6285286E-1,1E0,-4.6993878E-1,5.845456E-1,1E0,1E0,6.188374E-1,6.2376547E-1,-0E0,1E0,-9.844656E-1,1E0,6.1374366E-1,1E0,1.16725035E-1,1E0,1E0,1E0,1E0,-7.586598E-1,1.5626186E-1,-9.1224384E-1,1E0,1E0,5.641544E-1,1E0,6.0885394E-1,1E0,-4.687595E-2,1E0,2.685404E-1,1E0,8.233499E-1,1E0,-3.5145378E-1,1E0,-9.5183825E-1,-1.5322654E-1,1E0,-7.183837E-1,1E0,-3.0107433E-1,5.0029415E-1,-6.6376925E-1,-2.8038123E-1,-5.281489E-1,1.3684596E-1,2.4517742E-1,-3.4627658E-1,5.258724E-1,-8.114312E-2,-3.520158E-2,4.8190704E-1,5.968463E-1,-0E0,-3.6833146E-1,4.6159457E-2],"split_indices":[1313,1917,325,1088,2031,314,926,675,680,1794,0,1632,935,0,0,935,0,718,1160,25,0,552,1160,1057,1911,1873,1475,1236,807,0,0,940,0,808,675,0,0,389,121,1480,0,0,252,0,0,725,0,0,0,14,0,1888,0,0,1163,656,0,0,0,718,0,1928,0,1604,0,1087,322,521,1946,0,0,0,1357,1695,0,1060,0,1928,0,264,0,1750,0,62,0,1199,0,0,941,0,80,0,0,0,0,0,0,0,0,0,0,0,0,0,0,0,0],"split_type":[0,0,0,0,0,0,0,0,0,0,0,0,0,0,0,0,0,0,0,0,0,0,0,0,0,0,0,0,0,0,0,0,0,0,0,0,0,0,0,0,0,0,0,0,0,0,0,0,0,0,0,0,0,0,0,0,0,0,0,0,0,0,0,0,0,0,0,0,0,0,0,0,0,0,0,0,0,0,0,0,0,0,0,0,0,0,0,0,0,0,0,0,0,0,0,0,0,0,0,0,0,0,0,0,0,0,0],"sum_hessian":[4.3692236E2,1.3246954E2,3.0445282E2,8.212148E1,5.0348057E1,3.0116202E2,3.2908227E0,5.936361E1,2.2757875E1,4.8952827E1,1.3952309E0,2.6033517E2,4.0826836E1,1.1076665E0,2.1831563E0,5.678852E1,2.5750883E0,1.8466866E1,4.2910094E0,4.7495525E1,1.4573025E0,2.566058E2,3.729374E0,2.8166649E1,1.2660188E1,5.3457207E1,3.3313162E0,1.59814E1,2.485466E0,1.6752565E0,2.615753E0,4.637985E1,1.1156735E0,2.5135132E2,5.254476E0,1.945236E0,1.784138E0,9.357779E0,1.880887E1,1.104569E1,1.6144977E0,1.0370938E0,5.2420113E1,2.1803117E0,1.1510044E0,1.4266242E1,1.7151576E0,1.3519446E0,1.1335213E0,4.514364E1,1.2362126E0,2.4940575E2,1.9455671E0,1.3411558E0,3.9133205E0,6.340178E0,3.0176005E0,1.7360022E1,1.448849E0,8.992131E0,2.0535588E0,2.9854063E1,2.256605E1,1.2965343E1,1.3008991E0,3.8055424E1,7.088214E0,2.3983394E2,9.571818E0,2.6237206E0,1.2895999E0,1.8857267E0,4.454451E0,7.986264E0,1.0058668E0,1.5856027E1,1.3998036E1,1.0923243E1,2.0421002E0,3.6882072E1,1.1733496E0,6.0631504E0,1.0250636E0,2.3807462E2,1.7593176E0,8.481352E0,1.0904667E0,1.3291576E0,3.1252937E0,4.4306617E0,3.5556028E0,6.238597E0,9.61743E0,9.247703E0,1.6755406E0,3.560204E1,1.2800331E0,1.8577553E0,4.2053947E0,2.3445332E2,3.6212955E0,3.6855068E0,4.795845E0,1.6764448E0,1.448849E0,2.1823215E0,1.3732812E0],"tree_param":{"num_deleted":"0","num_feature":"2048","num_nodes":"107","size_leaf_vector":"1"}},{"base_weights":[4.941699E-1,2.8231917E-2,7.001274E-1,-1.8220603E-1,1.0008645E0,7.1766496E-1,-9.340834E-1,-5.098652E-1,7.6599514E-1,1.1319416E0,-2.3862995E-1,7.5257266E-1,-7.301742E-1,-6.3681954E-1,8.6749935E-1,9.090567E-1,-5.832118E-1,5.436345E-1,3.7998793E-1,7.6739264E-1,-5.8782655E-1,-1.1940304E0,4.8189488E-1,-6.892347E-1,5.9898967E-1,5.3610194E-1,-5.92951E-2,5.6026083E-1,5.6427604E-1,-2.854894E-1,4.950666E-1,7.876902E-1,-3.184823E-1,-2.3122437E-1,-8.6154336E-1,-7.3401415E-1,7.084267E-1,-2.7865362E-1,1.1664045E0,8.008387E-1,-6.209168E-1,1.4288807E-1,-3.8161156E-1,-7.788409E-1,4.7563136E-1,-1.1459283E0,7.1840477E-1,3.1654912E-1,6.203317E-1,8.2442796E-1,-3.9665893E-1,-8.1714624E-1,4.731685E-1,-7.268252E-1,-3.1614598E-2,-0E0,6.6161066E-1,8.375926E-1,-7.414276E-1,1.7615128E-1,-7.12219E-1,-3.7882164E-1,1.5954633E-1,3.6875346E-1,-3.3934063E-1,-4.5181087E-1,-0E0],"categories":[],"categories_nodes":[],"categories_segments":[],"categories_sizes":[],"default_left":[0,0,0,0,0,0,0,0,0,0,0,0,0,0,0,0,0,0,0,0,0,0,0,0,0,0,0,0,0,0,0,0,0,0,0,0,0,0,0,0,0,0,0,0,0,0,0,0,0,0,0,0,0,0,0,0,0,0,0,0,0,0,0,0,0,0,0],"id":2,"left_children":[1,3,5,7,9,11,-1,13,15,17,-1,19,21,23,25,27,-1,-1,29,31,-1,33,-1,35,-1,-1,-1,37,-1,-1,-1,39,-1,41,-1,43,-1,45,47,49,-1,-1,-1,51,-1,53,55,-1,-1,57,59,61,-1,-1,-1,-1,-1,63,-1,-1,65,-1,-1,-1,-1,-1,-1],"loss_changes":[3.4172203E1,2.2625301E1,1.2190048E1,2.7972727E1,4.115797E0,1.2452538E1,0E0,1.1709639E1,6.905635E0,1.4278336E0,0E0,7.4382477E0,4.896074E0,6.4212856E0,2.2720037E0,2.6546936E0,0E0,0E0,2.3411267E0,7.3093414E0,0E0,3.161385E0,0E0,6.1275043E0,0E0,0E0,0E0,6.141713E0,0E0,0E0,0E0,6.800415E0,0E0,9.084009E-1,0E0,4.8136024E0,0E0,4.258758E0,4.1882324E-1,6.704239E0,0E0,0E0,0E0,4.1096954E0,0E0,1.2308607E0,1.4761426E0,0E0,0E0,7.5601044E0,1.1727359E0,4.05241E0,0E0,0E0,0E0,0E0,0E0,5.643036E0,0E0,0E0,7.739767E-1,0E0,0E0,0E0,0E0,0E0,0E0],"parents":[2147483647,0,0,1,1,2,2,3,3,4,4,5,5,7,7,8,8,9,9,11,11,12,12,13,13,14,14,15,15,18,18,19,19,21,21,23,23,27,27,31,31,33,33,35,35,37,37,38,38,39,39,43,43,45,45,46,46,49,49,50,50,51,51,57,57,60,60],"right_children":[2,4,6,8,10,12,-1,14,16,18,-1,20,22,24,26,28,-1,-1,30,32,-1,34,-1,36,-1,-1,-1,38,-1,-1,-1,40,-1,42,-1,44,-1,46,48,50,-1,-1,-1,52,-1,54,56,-1,-1,58,60,62,-1,-1,-1,-1,-1,64,-1,-1,66,-1,-1,-1,-1,-1,-1],"split_conditions":[1E0,1E0,1E0,1E0,1E0,1E0,-9.340834E-1,1E0,1E0,1E0,-2.3862995E-1,1E0,1E0,1E0,1E0,1E0,-5.832118E-1,5.436345E-1,1E0,1E0,-5.8782655E-1,1E0,4.8189488E-1,1E0,5.9898967E-1,5.3610194E-1,-5.92951E-2,1E0,5.6427604E-1,-2.854894E-1,4.950666E-1,1E0,-3.184823E-1,1E0,-8.6154336E-1,1E0,7.084267E-1,1E0,1E0,1E0,-6.209168E-1,1.4288807E-1,-3.8161156E-1,1E0,4.7563136E-1,1E0,1E0,3.1654912E-1,6.203317E-1,1E0,1E0,1E0,4.731685E-1,-7.268252E-1,-3.1614598E-2,-0E0,6.6161066E-1,1E0,-7.414276E-1,1.7615128E-1,1E0,-3.7882164E-1,1.5954633E-1,3.6875346E-1,-3.3934063E-1,-4.5181087E-1,-0E0],"split_indices":[1313,680,1956,1475,1212,1970,0,590,389,1093,0,1510,675,960,80,1840,0,0,294,1501,0,1452,0,1489,0,0,0,1793,0,0,0,2004,0,381,0,57,0,745,1449,552,0,0,0,1986,0,314,1160,0,0,762,1160,140,0,0,0,0,0,808,0,0,1199,0,0,0,0,0,0],"split_type":[0,0,0,0,0,0,0,0,0,0,0,0,0,0,0,0,0,0,0,0,0,0,0,0,0,0,0,0,0,0,0,0,0,0,0,0,0,0,0,0,0,0,0,0,0,0,0,0,0,0,0,0,0,0,0,0,0,0,0,0,0,0,0,0,0,0,0],"sum_hessian":[3.5740457E2,1.0981942E2,2.4758514E2,9.014757E1,1.9671854E1,2.4614685E2,1.4382882E0,6.7137314E1,2.3010248E1,1.8247093E1,1.424761E0,2.4047556E2,5.671295E0,6.159366E1,5.543658E0,2.163647E1,1.3737775E0,1.5436852E1,2.8102412E0,2.3889017E2,1.5853794E0,4.6108346E0,1.0604603E0,6.0129887E1,1.4637733E0,4.1689115E0,1.3747463E0,1.1752169E1,9.884303E0,1.0952711E0,1.7149701E0,2.3582928E2,3.060882E0,2.1966782E0,2.4141564E0,5.907729E1,1.0525959E0,4.812372E0,6.939796E0,2.3452936E2,1.2999302E0,1.0397681E0,1.1569102E0,5.7767883E1,1.3094058E0,2.665834E0,2.1465385E0,2.9152493E0,4.0245466E0,2.3014519E2,4.3841686E0,5.6708637E1,1.0592473E0,1.6656944E0,1.0001396E0,1.0532644E0,1.0932741E0,2.2903525E2,1.1099491E0,1.0793468E0,3.3048215E0,5.41706E1,2.5380356E0,2.2703152E2,2.0037184E0,2.2374666E0,1.067355E0],"tree_param":{"num_deleted":"0","num_feature":"2048","num_nodes":"67","size_leaf_vector":"1"}},{"base_weights":[3.5227612E-1,1.4214511E-1,6.5381545E-1,2.0112798E-2,7.5833E-1,6.931417E-1,-6.305274E-1,6.392095E-2,-1.8688184E0,8.5554713E-1,-3.9140806E-1,7.212377E-1,-8.205152E-1,-2.0293023E-2,8.813598E-1,-5.56612E-1,-1.2335445E0,9.6726614E-1,-1.9734836E-1,7.724879E-1,-5.178995E-1,-1.4473203E-1,7.6055485E-1,1.0305643E0,-2.1518816E-1,1.0197479E0,-2.9743299E-2,8.4476537E-1,-1.3312474E-1,-1.0903763E0,4.6174064E-1,-2.2229394E-1,9.040456E-1,8.7731206E-1,-2.0490502E-1,4.9441078E-1,-0E0,1.0708107E0,-0E0,8.736221E-1,-4.8721722E-1,2.5145733E-1,-1.2208227E0,-7.266739E-1,7.120247E-2,-4.5909628E-1,8.615527E-2,3.7700254E-1,5.7293147E-1,1.0151694E0,6.4880103E-3,1.1280557E0,5.3783618E-2,9.031582E-1,-4.7275856E-1,6.163871E-1,-7.218614E-1,-5.3604454E-1,4.969527E-1,-4.2416057E-1,6.2781394E-1,-3.4972203E-1,4.651524E-1,1.1379019E0,4.6400377E-1,-3.4225464E-1,4.2649877E-1,1.1650649E0,9.169301E-2,9.2766356E-1,-4.3549207E-1,4.25563E-1,-5.3785484E-2,-2.6467484E-1,4.8957667E-1,-2.1974133E-1,5.0230086E-1,3.2889852E-1,-5.043782E-1,5.32681E-1,7.251309E-2,-1.1600753E-1,4.677317E-1,5.2133936E-1,1.2359874E-1,4.1284484E-1,-2.6629853E-1],"categories":[],"categories_nodes":[],"categories_segments":[],"categories_sizes":[],"default_left":[0,0,0,0,0,0,0,0,0,0,0,0,0,0,0,0,0,0,0,0,0,0,0,0,0,0,0,0,0,0,0,0,0,0,0,0,0,0,0,0,0,0,0,0,0,0,0,0,0,0,0,0,0,0,0,0,0,0,0,0,0,0,0,0,0,0,0,0,0,0,0,0,0,0,0,0,0,0,0,0,0,0,0,0,0,0,0],"id":3,"left_children":[1,3,5,7,9,11,-1,13,15,17,-1,19,-1,21,23,-1,-1,25,-1,27,29,31,33,35,-1,37,-1,39,41,43,-1,45,47,49,-1,-1,-1,51,-1,53,-1,55,-1,-1,-1,57,59,61,-1,63,65,67,-1,69,-1,71,-1,73,-1,75,77,-1,-1,79,81,-1,-1,83,-1,85,-1,-1,-1,-1,-1,-1,-1,-1,-1,-1,-1,-1,-1,-1,-1,-1,-1],"loss_changes":[1.8753632E1,1.3104668E1,1.0022392E1,1.1870583E1,4.670883E0,8.545994E0,0E0,1.0062007E1,1.0884504E0,4.108198E0,0E0,7.591522E0,0E0,1.2561275E1,2.9063673E0,0E0,0E0,1.5451946E0,0E0,7.598976E0,4.1865425E0,9.047333E0,2.6310139E0,1.4800911E0,0E0,1.2639809E0,0E0,5.9952393E0,9.015578E0,2.8292265E0,0E0,7.738583E0,1.38416E0,1.7828064E0,0E0,0E0,0E0,1.0340042E0,0E0,6.050461E0,0E0,4.8738756E0,0E0,0E0,0E0,7.2960606E0,1.25654545E1,3.0230956E0,0E0,6.5639305E-1,1.9348994E0,4.9100876E-1,0E0,4.8221436E0,0E0,1.821311E0,0E0,7.1626797E0,0E0,2.9808345E0,5.218012E0,0E0,0E0,7.671671E-1,1.4194655E0,0E0,0E0,4.703312E-1,0E0,4.313286E0,0E0,0E0,0E0,0E0,0E0,0E0,0E0,0E0,0E0,0E0,0E0,0E0,0E0,0E0,0E0,0E0,0E0],"parents":[2147483647,0,0,1,1,2,2,3,3,4,4,5,5,7,7,8,8,9,9,11,11,13,13,14,14,17,17,19,19,20,20,21,21,22,22,23,23,25,25,27,27,28,28,29,29,31,31,32,32,33,33,37,37,39,39,41,41,45,45,46,46,47,47,49,49,50,50,51,51,53,53,55,55,57,57,59,59,60,60,63,63,64,64,67,67,69,69],"right_children":[2,4,6,8,10,12,-1,14,16,18,-1,20,-1,22,24,-1,-1,26,-1,28,30,32,34,36,-1,38,-1,40,42,44,-1,46,48,50,-1,-1,-1,52,-1,54,-1,56,-1,-1,-1,58,60,62,-1,64,66,68,-1,70,-1,72,-1,74,-1,76,78,-1,-1,80,82,-1,-1,84,-1,86,-1,-1,-1,-1,-1,-1,-1,-1,-1,-1,-1,-1,-1,-1,-1,-1,-1],"split_conditions":[1E0,1E0,1E0,1E0,1E0,1E0,-6.305274E-1,1E0,1E0,1E0,-3.9140806E-1,1E0,-8.205152E-1,1E0,1E0,-5.56612E-1,-1.2335445E0,1E0,-1.9734836E-1,1E0,1E0,1E0,1E0,1E0,-2.1518816E-1,1E0,-2.9743299E-2,1E0,1E0,1E0,4.6174064E-1,1E0,1E0,1E0,-2.0490502E-1,4.9441078E-1,-0E0,1E0,-0E0,1E0,-4.8721722E-1,1E0,-1.2208227E0,-7.266739E-1,7.120247E-2,1E0,1E0,1E0,5.7293147E-1,1E0,1E0,1E0,5.3783618E-2,1E0,-4.7275856E-1,1E0,-7.218614E-1,1E0,4.969527E-1,1E0,1E0,-3.4972203E-1,4.651524E-1,1E0,1E0,-3.4225464E-1,4.2649877E-1,1E0,9.169301E-2,1E0,-4.3549207E-1,4.25563E-1,-5.3785484E-2,-2.6467484E-1,4.8957667E-1,-2.1974133E-1,5.0230086E-1,3.2889852E-1,-5.043782E-1,5.32681E-1,7.251309E-2,-1.1600753E-1,4.677317E-1,5.2133936E-1,1.2359874E-1,4.1284484E-1,-2.6629853E-1],"split_indices":[381,1475,2034,980,114,1729,0,1951,896,1199,0,138,0,680,563,0,0,552,0,1888,1855,1985,1942,1084,0,1619,0,1128,862,533,0,656,694,1734,0,0,0,202,0,1970,0,1946,0,0,0,857,1313,1452,0,935,794,1465,0,843,0,233,0,1671,0,206,589,0,0,25,1928,0,0,1193,0,1501,0,0,0,0,0,0,0,0,0,0,0,0,0,0,0,0,0],"split_type":[0,0,0,0,0,0,0,0,0,0,0,0,0,0,0,0,0,0,0,0,0,0,0,0,0,0,0,0,0,0,0,0,0,0,0,0,0,0,0,0,0,0,0,0,0,0,0,0,0,0,0,0,0,0,0,0,0,0,0,0,0,0,0,0,0,0,0,0,0,0,0,0,0,0,0,0,0,0,0,0,0,0,0,0,0,0,0],"sum_hessian":[2.981623E2,1.7606558E2,1.22096695E2,1.47208E2,2.8857592E1,1.1995446E2,2.1422408E0,1.4397417E2,3.2338254E0,2.7369179E1,1.4884145E0,1.18743576E2,1.2108841E0,1.3034634E2,1.3627818E1,2.1630247E0,1.0708008E0,2.5346785E1,2.0223925E0,1.141671E2,4.5764766E0,1.126308E2,1.771555E1,1.2414117E1,1.2137014E0,2.4284616E1,1.062168E0,1.0590742E2,8.259678E0,3.4461746E0,1.1303022E0,1.0503918E2,7.59162E0,1.6316944E1,1.3986049E0,1.1216409E1,1.1977079E0,2.312483E1,1.1597872E0,1.0447396E2,1.433455E0,7.180815E0,1.0788629E0,2.435198E0,1.0109767E0,5.9735756E1,4.5303425E1,3.5653496E0,4.0262704E0,1.3912613E1,2.4043317E0,2.163025E1,1.494579E0,1.03022644E2,1.4513159E0,6.118168E0,1.0626471E0,5.7120026E1,2.61573E0,2.3162897E1,2.2140526E1,1.2288357E0,2.336514E0,1.1108968E1,2.8036456E0,1.2288E0,1.1755315E0,2.0604317E1,1.0259348E0,1.0181454E2,1.2081139E0,4.242441E0,1.8757268E0,5.4738964E1,2.381061E0,2.211081E1,1.0520885E0,2.0712788E1,1.427738E0,9.962037E0,1.1469302E0,1.1575134E0,1.6461322E0,1.9503105E1,1.1012106E0,1.0017877E2,1.6357651E0],"tree_param":{"num_deleted":"0","num_feature":"2048","num_nodes":"87","size_leaf_vector":"1"}},{"base_weights":[3.280286E-1,5.301572E-1,9.123717E-2,5.5243737E-1,-8.8937485E-1,-5.682605E-2,5.2385575E-1,5.832634E-1,-1.2768605E0,-2.0753531E-1,4.8950312E-1,3.6094168E-1,1.4147677E0,6.0597587E-1,-7.9239833E-1,8.532395E-2,-1.2259041E0,-2.7662748E-1,5.061636E-1,6.768475E-1,-6.558188E-1,2.4521861E-2,4.0079275E-1,4.36669E-1,1.081912E0,6.934741E-1,1.4896604E-1,-3.6748108E-1,9.1334707E-1,8.202641E-1,-1.9021024E-1,-1.9812317E-1,8.808835E-1,7.189479E-1,-6.754532E-1,-3.4134328E-1,1.0080416E0,-4.158838E-1,7.096101E-1,5.801952E-1,-0E0,9.276029E-1,-1.1228609E-1,1.0994717E-1,-1.0384357E0,5.496033E-1,-0E0,7.544927E-1,-2.2892323E-1,-6.6388917E-1,4.0846902E-1,4.9000546E-1,1.3968527E-1,-3.2560635E-1,-6.6081697E-1,4.4838086E-1,-0E0,3.0270746E-1,-3.1301188E-1,-6.8798274E-1,-8.845016E-2,7.795396E-1,-4.1060433E-1,-1.2938589E0,4.9510455E-1,-3.985311E-1,9.1178924E-1,3.6635276E-2,5.0379974E-1,3.4710854E-1,-4.120794E-1,-7.8805757E-1,4.5913643E-1,4.6632823E-1,-2.4692376E-1,3.1709698E-1,-2.0730262E-1,6.459847E-1,-0E0,-6.974522E-2,4.1273987E-1],"categories":[],"categories_nodes":[],"categories_segments":[],"categories_sizes":[],"default_left":[0,0,0,0,0,0,0,0,0,0,0,0,0,0,0,0,0,0,0,0,0,0,0,0,0,0,0,0,0,0,0,0,0,0,0,0,0,0,0,0,0,0,0,0,0,0,0,0,0,0,0,0,0,0,0,0,0,0,0,0,0,0,0,0,0,0,0,0,0,0,0,0,0,0,0,0,0,0,0,0,0],"id":4,"left_children":[1,3,5,7,-1,9,11,13,15,17,19,21,23,25,-1,-1,-1,27,-1,29,-1,31,-1,-1,-1,33,35,37,39,41,-1,43,45,47,-1,49,51,53,-1,-1,-1,55,-1,57,59,-1,-1,61,-1,63,-1,-1,-1,65,-1,-1,-1,67,-1,-1,-1,69,-1,71,73,75,77,79,-1,-1,-1,-1,-1,-1,-1,-1,-1,-1,-1,-1,-1],"loss_changes":[1.1795292E1,7.4642563E0,7.444575E0,7.3733063E0,0E0,6.979945E0,3.982071E0,6.9683266E0,5.312564E0,6.2429895E0,6.7113595E0,4.6347084E0,1.2957344E0,5.029808E0,0E0,0E0,0E0,6.8377275E0,0E0,2.7523823E0,0E0,3.1756876E0,0E0,0E0,0E0,6.094101E0,9.026431E0,5.5981455E0,1.9540703E0,1.8557806E0,0E0,3.4157698E0,1.2469196E0,4.802414E0,0E0,5.4936194E0,4.11438E-1,5.5320187E0,0E0,0E0,0E0,1.3962622E0,0E0,1.3851593E0,1.3067892E0,0E0,0E0,4.436329E0,0E0,8.020387E0,0E0,0E0,0E0,4.802217E0,0E0,0E0,0E0,1.5190952E0,0E0,0E0,0E0,4.1115685E0,0E0,8.980666E0,2.4033759E0,4.652816E0,1.3274004E0,1.2163513E0,0E0,0E0,0E0,0E0,0E0,0E0,0E0,0E0,0E0,0E0,0E0,0E0,0E0],"parents":[2147483647,0,0,1,1,2,2,3,3,5,5,6,6,7,7,8,8,9,9,10,10,11,11,12,12,13,13,17,17,19,19,21,21,25,25,26,26,27,27,28,28,29,29,31,31,32,32,33,33,35,35,36,36,37,37,41,41,43,43,44,44,47,47,49,49,53,53,57,57,61,61,63,63,64,64,65,65,66,66,67,67],"right_children":[2,4,6,8,-1,10,12,14,16,18,20,22,24,26,-1,-1,-1,28,-1,30,-1,32,-1,-1,-1,34,36,38,40,42,-1,44,46,48,-1,50,52,54,-1,-1,-1,56,-1,58,60,-1,-1,62,-1,64,-1,-1,-1,66,-1,-1,-1,68,-1,-1,-1,70,-1,72,74,76,78,80,-1,-1,-1,-1,-1,-1,-1,-1,-1,-1,-1,-1,-1],"split_conditions":[1E0,1E0,1E0,1E0,-8.8937485E-1,1E0,1E0,1E0,1E0,1E0,1E0,1E0,1E0,1E0,-7.9239833E-1,8.532395E-2,-1.2259041E0,1E0,5.061636E-1,1E0,-6.558188E-1,1E0,4.0079275E-1,4.36669E-1,1.081912E0,1E0,1E0,1E0,1E0,1E0,-1.9021024E-1,1E0,1E0,1E0,-6.754532E-1,1E0,1E0,1E0,7.096101E-1,5.801952E-1,-0E0,1E0,-1.1228609E-1,1E0,1E0,5.496033E-1,-0E0,1E0,-2.2892323E-1,1E0,4.0846902E-1,4.9000546E-1,1.3968527E-1,1E0,-6.6081697E-1,4.4838086E-1,-0E0,1E0,-3.1301188E-1,-6.8798274E-1,-8.845016E-2,1E0,-4.1060433E-1,1E0,1E0,1E0,1E0,1E0,5.0379974E-1,3.4710854E-1,-4.120794E-1,-7.8805757E-1,4.5913643E-1,4.6632823E-1,-2.4692376E-1,3.1709698E-1,-2.0730262E-1,6.459847E-1,-0E0,-6.974522E-2,4.1273987E-1],"split_indices":[650,267,294,1866,0,896,2,1959,875,930,841,940,1452,1199,0,0,0,1096,0,378,0,718,0,0,0,464,102,1815,841,2,0,1088,1039,62,0,725,984,1697,0,0,0,636,0,504,350,0,0,1049,0,1236,0,0,0,488,0,0,0,675,0,0,0,1997,0,661,407,1873,354,352,0,0,0,0,0,0,0,0,0,0,0,0,0],"split_type":[0,0,0,0,0,0,0,0,0,0,0,0,0,0,0,0,0,0,0,0,0,0,0,0,0,0,0,0,0,0,0,0,0,0,0,0,0,0,0,0,0,0,0,0,0,0,0,0,0,0,0,0,0,0,0,0,0,0,0,0,0,0,0,0,0,0,0,0,0,0,0,0,0,0,0,0,0,0,0,0,0],"sum_hessian":[2.48699E2,1.3376459E2,1.1493441E2,1.3269958E2,1.0650033E0,8.5337746E1,2.9596663E1,1.3060309E2,2.0964968E0,6.714257E1,1.8195175E1,2.520241E1,4.3942537E0,1.2946799E2,1.1350948E0,1.0260303E0,1.0704664E0,6.406736E1,3.0752118E0,1.6728601E1,1.4665741E0,1.600725E1,9.19516E0,3.3372374E0,1.0570161E0,1.0833833E2,2.1129663E1,5.9667328E1,4.4000325E0,1.49658375E1,1.7627635E0,1.2551518E1,3.4557319E0,1.0721379E2,1.1245419E0,1.3328468E1,7.8011947E0,5.835828E1,1.3090458E0,3.1173E0,1.2827325E0,1.3760951E1,1.204887E0,9.041724E0,3.5097942E0,2.4249632E0,1.0307688E0,1.0438614E2,2.827651E0,1.0769039E1,2.5594294E0,6.37465E0,1.4265447E0,5.4137928E1,4.2203526E0,1.2309787E1,1.4511644E0,7.5202837E0,1.52144E0,1.9782693E0,1.531525E0,1.0298184E2,1.4042985E0,7.072937E0,3.696102E0,5.1266335E1,2.8715935E0,5.9119267E0,1.6083572E0,1.0173128E2,1.2505594E0,5.839677E0,1.2332602E0,2.4943523E0,1.2017496E0,3.2671432E0,4.799919E1,1.6561356E0,1.2154579E0,4.716688E0,1.1952386E0],"tree_param":{"num_deleted":"0","num_feature":"2048","num_nodes":"81","size_leaf_vector":"1"}},{"base_weights":[2.228532E-1,1.5760148E-1,7.573771E-1,1.7568304E-1,-8.794827E-1,8.9007676E-1,8.3741054E-2,9.615678E-2,6.916067E-1,9.6445936E-1,-9.639395E-2,-3.7960833E-1,4.2222166E-1,1.16405E-1,-8.4030926E-1,8.006839E-1,-7.209386E-1,1.0596627E0,-0E0,-5.635001E-1,1.8030873E-1,1.4101347E-1,-1.3769476E0,1.0112271E0,3.38672E-1,4.822927E-1,5.5090617E-2,7.840634E-2,7.416416E-1,-2.663116E-1,-8.364333E-1,4.6270657E-1,1.3159873E-1,4.6417964E-1,-1.8078218E-1,-1.108703E-1,2.5610176E-1,-4.8636818E-1,8.888913E-1,2.2618711E-1,-5.1512325E-1,-2.011273E-1,8.105168E-1,2.998011E-1,-6.016452E-1,4.6454668E-1,2.5207408E-2,-3.588253E-2,-5.2636695E-1,-1.0619202E-1,7.366639E-1,7.670598E-2,4.7807813E-1,1.4358906E-1,-7.8339154E-1,-4.4225925E-1,4.360184E-1,-5.1431656E-1,3.954757E-1],"categories":[],"categories_nodes":[],"categories_segments":[],"categories_sizes":[],"default_left":[0,0,0,0,0,0,0,0,0,0,0,0,0,0,0,0,0,0,0,0,0,0,0,0,0,0,0,0,0,0,0,0,0,0,0,0,0,0,0,0,0,0,0,0,0,0,0,0,0,0,0,0,0,0,0,0,0,0,0],"id":5,"left_children":[1,3,5,7,-1,9,11,13,15,17,-1,19,-1,21,-1,23,-1,25,-1,-1,-1,27,29,31,33,-1,-1,35,37,-1,-1,-1,-1,-1,39,41,43,-1,45,-1,47,49,51,53,-1,-1,55,57,-1,-1,-1,-1,-1,-1,-1,-1,-1,-1,-1],"loss_changes":[7.3978844E0,7.3466463E0,1.9110365E0,7.7377286E0,0E0,1.7241974E0,1.7889993E0,6.565789E0,6.3877277E0,1.7147694E0,0E0,2.0415502E0,0E0,5.854367E0,0E0,2.12457E0,0E0,6.419773E-1,0E0,0E0,0E0,5.968402E0,6.2751865E-1,4.3904495E-1,3.1677384E0,0E0,0E0,4.9854345E0,4.1165648E0,0E0,0E0,0E0,0E0,0E0,1.0596421E0,5.79594E0,5.3258553E0,0E0,2.0608644E0,0E0,8.6516434E-1,5.2361736E0,9.2494965E-1,4.834234E0,0E0,0E0,2.7576141E0,2.3375604E0,0E0,0E0,0E0,0E0,0E0,0E0,0E0,0E0,0E0,0E0,0E0],"parents":[2147483647,0,0,1,1,2,2,3,3,5,5,6,6,7,7,8,8,9,9,11,11,13,13,15,15,17,17,21,21,22,22,23,23,24,24,27,27,28,28,34,34,35,35,36,36,38,38,40,40,41,41,42,42,43,43,46,46,47,47],"right_children":[2,4,6,8,-1,10,12,14,16,18,-1,20,-1,22,-1,24,-1,26,-1,-1,-1,28,30,32,34,-1,-1,36,38,-1,-1,-1,-1,-1,40,42,44,-1,46,-1,48,50,52,54,-1,-1,56,58,-1,-1,-1,-1,-1,-1,-1,-1,-1,-1,-1],"split_conditions":[1E0,1E0,1E0,1E0,-8.794827E-1,1E0,1E0,1E0,1E0,1E0,-9.639395E-2,1E0,4.2222166E-1,1E0,-8.4030926E-1,1E0,-7.209386E-1,1E0,-0E0,-5.635001E-1,1.8030873E-1,1E0,1E0,1E0,1E0,4.822927E-1,5.5090617E-2,1E0,1E0,-2.663116E-1,-8.364333E-1,4.6270657E-1,1.3159873E-1,4.6417964E-1,1E0,1E0,1E0,-4.8636818E-1,1E0,2.2618711E-1,1E0,1E0,1E0,1E0,-6.016452E-1,4.6454668E-1,1E0,1E0,-5.2636695E-1,-1.0619202E-1,7.366639E-1,7.670598E-2,4.7807813E-1,1.4358906E-1,-7.8339154E-1,-4.4225925E-1,4.360184E-1,-5.1431656E-1,3.954757E-1],"split_indices":[1733,1511,1199,750,0,1152,193,1982,1128,1631,0,935,0,237,0,2,0,1440,0,0,0,1840,926,1261,416,0,0,926,1602,0,0,0,0,0,381,725,687,0,352,0,1645,357,1088,1053,0,0,1855,1640,0,0,0,0,0,0,0,0,0,0,0],"split_type":[0,0,0,0,0,0,0,0,0,0,0,0,0,0,0,0,0,0,0,0,0,0,0,0,0,0,0,0,0,0,0,0,0,0,0,0,0,0,0,0,0,0,0,0,0,0,0,0,0,0,0,0,0,0,0,0,0,0,0],"sum_hessian":[2.1669681E2,1.9342717E2,2.326963E1,1.9193535E2,1.4918212E0,1.922088E1,4.048752E0,1.6660709E2,2.532826E1,1.8164888E1,1.0559913E0,2.5422359E0,1.5065159E0,1.650663E2,1.5407985E0,2.4287819E1,1.040441E0,1.6572298E1,1.5925906E0,1.2743747E0,1.2678611E0,1.62517E2,2.5492895E0,1.6414911E1,7.8729067E0,1.5460868E1,1.1114295E0,1.4745203E2,1.5064973E1,1.2215577E0,1.3277316E0,1.4921743E1,1.493169E0,3.3933635E0,4.479543E0,7.092813E1,7.65239E1,1.0087104E0,1.4056262E1,1.2727165E0,3.2068264E0,6.478161E1,6.1465235E0,7.466011E1,1.8637879E0,1.1404296E1,2.651966E0,2.061547E0,1.1452794E0,6.340549E1,1.376119E0,2.1479077E0,3.9986157E0,7.3629616E1,1.0304961E0,1.1977938E0,1.4541721E0,1.0123589E0,1.0491881E0],"tree_param":{"num_deleted":"0","num_feature":"2048","num_nodes":"59","size_leaf_vector":"1"}},{"base_weights":[1.7706E-1,1.9197646E-1,-6.5734106E-1,1.297877E-1,6.153633E-1,1.537334E-1,-1.3901064E0,7.1363074E-1,-1.7187352E-1,9.369313E-2,6.461252E-1,-8.313664E-1,-1.7352873E-1,8.7592787E-1,1.04021996E-1,2.8967837E-2,6.25956E-1,7.355068E-1,-2.019064E-1,9.6347195E-1,-0E0,5.4810196E-1,-6.301406E-1,-1.2323149E-2,8.59553E-1,7.188957E-1,-2.3513402E-1,8.149999E-1,-7.3897734E-2,4.5021087E-1,-0E0,-1.3659535E-2,4.4917312E-1,-4.325905E-2,5.5341715E-1,5.119695E-1,5.7537746E-1,8.390783E-1,-1.291052E-1,5.817158E-1,4.436979E-1,8.952329E-2,-3.254032E-1,-4.7846667E-2,4.8049536E-1,9.647902E-1,-0E0,3.652435E-1,3.5992615E-2,8.274873E-4,2.724872E-1,-1.1662091E-1,-9.463525E-1,4.4972923E-1,1.2483208E-2],"categories":[],"categories_nodes":[],"categories_segments":[],"categories_sizes":[],"default_left":[0,0,0,0,0,0,0,0,0,0,0,0,0,0,0,0,0,0,0,0,0,0,0,0,0,0,0,0,0,0,0,0,0,0,0,0,0,0,0,0,0,0,0,0,0,0,0,0,0,0,0,0,0,0,0],"id":6,"left_children":[1,3,-1,5,7,9,11,13,-1,15,17,-1,-1,19,21,23,25,27,-1,29,-1,31,-1,33,35,37,-1,39,-1,-1,-1,-1,-1,41,-1,43,-1,45,-1,47,-1,49,51,-1,-1,53,-1,-1,-1,-1,-1,-1,-1,-1,-1],"loss_changes":[4.7609353E0,5.0149198E0,0E0,6.0032554E0,2.5138493E0,4.8445587E0,9.213853E-1,2.069028E0,0E0,5.063642E0,1.8389916E0,0E0,0E0,1.4465656E0,3.3209407E0,4.753455E0,1.7754769E0,1.3231115E0,0E0,1.1017351E0,0E0,1.3105241E0,0E0,4.892472E0,7.443223E-1,1.9277186E0,0E0,4.8077488E-1,0E0,0E0,0E0,0E0,0E0,4.721177E0,0E0,1.6711037E0,0E0,1.3903713E0,0E0,8.6465263E-1,0E0,3.8936365E0,3.7583098E0,0E0,0E0,6.397524E-1,0E0,0E0,0E0,0E0,0E0,0E0,0E0,0E0,0E0],"parents":[2147483647,0,0,1,1,3,3,4,4,5,5,6,6,7,7,9,9,10,10,13,13,14,14,15,15,16,16,17,17,19,19,21,21,23,23,24,24,25,25,27,27,33,33,35,35,37,37,39,39,41,41,42,42,45,45],"right_children":[2,4,-1,6,8,10,12,14,-1,16,18,-1,-1,20,22,24,26,28,-1,30,-1,32,-1,34,36,38,-1,40,-1,-1,-1,-1,-1,42,-1,44,-1,46,-1,48,-1,50,52,-1,-1,54,-1,-1,-1,-1,-1,-1,-1,-1,-1],"split_conditions":[1E0,1E0,-6.5734106E-1,1E0,1E0,1E0,1E0,1E0,-1.7187352E-1,1E0,1E0,-8.313664E-1,-1.7352873E-1,1E0,1E0,1E0,1E0,1E0,-2.019064E-1,1E0,-0E0,1E0,-6.301406E-1,1E0,1E0,1E0,-2.3513402E-1,1E0,-7.3897734E-2,4.5021087E-1,-0E0,-1.3659535E-2,4.4917312E-1,1E0,5.5341715E-1,1E0,5.7537746E-1,1E0,-1.291052E-1,1E0,4.436979E-1,1E0,1E0,-4.7846667E-2,4.8049536E-1,1E0,-0E0,3.652435E-1,3.5992615E-2,8.274873E-4,2.724872E-1,-1.1662091E-1,-9.463525E-1,4.4972923E-1,1.2483208E-2],"split_indices":[470,1928,0,1453,1152,750,80,1670,0,1733,276,0,0,145,1088,1985,618,1511,0,675,0,926,0,1540,197,1152,0,1057,0,0,0,0,0,935,0,1778,0,711,0,1640,0,1236,687,0,0,2033,0,0,0,0,0,0,0,0,0],"split_type":[0,0,0,0,0,0,0,0,0,0,0,0,0,0,0,0,0,0,0,0,0,0,0,0,0,0,0,0,0,0,0,0,0,0,0,0,0,0,0,0,0,0,0,0,0,0,0,0,0,0,0,0,0,0,0],"sum_hessian":[1.9701479E2,1.954118E2,1.6029783E0,1.7075851E2,2.4653286E1,1.6823466E2,2.5238602E0,2.2632994E1,2.0202928E0,1.5027946E2,1.7955187E1,1.5179232E0,1.0059371E0,1.7644392E1,4.9886026E0,1.3429022E2,1.59892435E1,1.676933E1,1.1858577E0,1.6139576E1,1.5048153E0,3.9774315E0,1.0111709E0,1.2774387E2,6.546356E0,1.4954854E1,1.0343894E0,1.5594773E1,1.1745559E0,1.4837297E1,1.3022794E0,1.6666063E0,2.310825E0,1.2490112E2,2.8427527E0,3.9953544E0,2.5510018E0,1.352991E1,1.4249437E0,7.822402E0,7.7723713E0,8.4518425E1,4.0382698E1,1.8225094E0,2.172845E0,1.1724111E1,1.8057997E0,4.886944E0,2.9354582E0,7.301982E1,1.1498601E1,3.9315678E1,1.0670177E0,1.0679007E1,1.0451045E0],"tree_param":{"num_deleted":"0","num_feature":"2048","num_nodes":"55","size_leaf_vector":"1"}},{"base_weights":[1.2184584E-1,1.4413428E-1,-1.0226215E0,1.6398516E-1,-1.0690577E0,-1.74195E0,4.8295204E-2,1.7792375E-1,-6.537191E-1,-7.2094864E-1,-2.4860205E-2,-2.405532E-1,-1.2013581E0,1.9006681E-1,-6.698194E-1,2.0158795E-1,-6.5227455E-1,2.2650824E-1,-5.5866075E-1,2.4348094E-1,-4.094922E-1,-9.4825953E-1,3.6311454E-1,2.5767815E-1,-5.094963E-1,-9.0697545E-1,5.1973473E-2,1.24938734E-1,-1.394277E-1,-2.8023607E-1,3.5629705E-1],"categories":[],"categories_nodes":[],"categories_segments":[],"categories_sizes":[],"default_left":[0,0,0,0,0,0,0,0,0,0,0,0,0,0,0,0,0,0,0,0,0,0,0,0,0,0,0,0,0,0,0],"id":7,"left_children":[1,3,5,7,9,11,-1,13,-1,-1,-1,-1,-1,15,-1,17,-1,19,21,23,-1,25,-1,27,-1,-1,29,-1,-1,-1,-1],"loss_changes":[4.419136E0,4.080986E0,2.9582176E0,3.8174186E0,1.3279159E0,1.977562E0,0E0,3.3723392E0,0E0,0E0,0E0,0E0,0E0,3.11932E0,0E0,3.1604033E0,0E0,3.159378E0,2.8468106E0,3.1224413E0,0E0,5.124201E0,0E0,2.91183E0,0E0,0E0,1.1996336E0,0E0,0E0,0E0,0E0],"parents":[2147483647,0,0,1,1,2,2,3,3,4,4,5,5,7,7,13,13,15,15,17,17,18,18,19,19,21,21,23,23,26,26],"right_children":[2,4,6,8,10,12,-1,14,-1,-1,-1,-1,-1,16,-1,18,-1,20,22,24,-1,26,-1,28,-1,-1,30,-1,-1,-1,-1],"split_conditions":[1E0,1E0,1E0,1E0,1E0,1E0,4.8295204E-2,1E0,-6.537191E-1,-7.2094864E-1,-2.4860205E-2,-2.405532E-1,-1.2013581E0,1E0,-6.698194E-1,1E0,-6.5227455E-1,1E0,1E0,1E0,-4.094922E-1,1E0,3.6311454E-1,1E0,-5.094963E-1,-9.0697545E-1,1E0,1.24938734E-1,-1.394277E-1,-2.8023607E-1,3.5629705E-1],"split_indices":[1158,212,380,456,843,797,0,184,0,0,0,0,0,1779,0,1964,0,1282,1357,808,0,1475,0,222,0,0,1088,0,0,0,0],"split_type":[0,0,0,0,0,0,0,0,0,0,0,0,0,0,0,0,0,0,0,0,0,0,0,0,0,0,0,0,0,0,0],"sum_hessian":[1.7913605E2,1.7587473E2,3.2613227E0,1.7319589E2,2.6788256E0,2.0850105E0,1.1763122E0,1.718821E2,1.3137983E0,1.5699126E0,1.108913E0,1.0603616E0,1.0246488E0,1.7079391E2,1.0881876E0,1.6975676E2,1.0371462E0,1.6459956E2,5.1572003E0,1.6240942E2,2.190141E0,4.134088E0,1.023112E0,1.6093573E2,1.4737012E0,1.997797E0,2.1362913E0,1.530036E2,7.932127E0,1.0034118E0,1.1328795E0],"tree_param":{"num_deleted":"0","num_feature":"2048","num_nodes":"31","size_leaf_vector":"1"}},{"base_weights":[7.550707E-2,3.7177205E-2,7.496438E-1,1.8753683E-2,5.935329E-1,8.652916E-1,-0E0,-1.1914634E-2,7.5586116E-1,4.6041223E-1,1.6384935E-1,2.800714E-2,-5.2476954E-1,4.406456E-1,2.3190612E-1,4.4308398E-2,-6.80775E-1,4.0202633E-1,-6.122624E-2,6.191238E-2,-5.566143E-1,3.333574E-2,7.8718656E-1,-2.8473495E-2,3.3310443E-1,4.2776063E-1,6.138922E-1,-4.0618037E-3,-6.934338E-1,1.01492055E-1,5.2671164E-1,-1.4058772E-1,3.4902745E-1],"categories":[],"categories_nodes":[],"categories_segments":[],"categories_sizes":[],"default_left":[0,0,0,0,0,0,0,0,0,0,0,0,0,0,0,0,0,0,0,0,0,0,0,0,0,0,0,0,0,0,0,0,0],"id":8,"left_children":[1,3,5,7,-1,9,-1,11,13,-1,-1,15,-1,-1,17,19,-1,-1,-1,21,-1,23,25,27,29,31,-1,-1,-1,-1,-1,-1,-1],"loss_changes":[4.3058324E0,3.7667115E0,9.2642117E-1,3.7662053E0,0E0,5.190916E-1,0E0,7.605257E0,6.964686E-1,0E0,0E0,3.6307E0,0E0,0E0,7.805232E-1,3.2516809E0,0E0,0E0,0E0,2.8826678E0,0E0,2.659945E0,8.759141E-1,3.210907E0,1.8799214E0,1.1086324E0,0E0,0E0,0E0,0E0,0E0,0E0,0E0],"parents":[2147483647,0,0,1,1,2,2,3,3,5,5,7,7,8,8,11,11,14,14,15,15,19,19,21,21,22,22,23,23,24,24,25,25],"right_children":[2,4,6,8,-1,10,-1,12,14,-1,-1,16,-1,-1,18,20,-1,-1,-1,22,-1,24,26,28,30,32,-1,-1,-1,-1,-1,-1,-1],"split_conditions":[1E0,1E0,1E0,1E0,5.935329E-1,1E0,-0E0,1E0,1E0,4.6041223E-1,1.6384935E-1,1E0,-5.2476954E-1,4.406456E-1,1E0,1E0,-6.80775E-1,4.0202633E-1,-6.122624E-2,1E0,-5.566143E-1,1E0,1E0,1E0,1E0,1E0,6.138922E-1,-4.0618037E-3,-6.934338E-1,1.01492055E-1,5.2671164E-1,-1.4058772E-1,3.4902745E-1],"split_indices":[1035,1369,1261,1973,0,1422,0,1537,389,0,0,1982,0,0,1602,237,0,0,0,204,0,294,352,1184,1274,745,0,0,0,0,0,0,0],"split_type":[0,0,0,0,0,0,0,0,0,0,0,0,0,0,0,0,0,0,0,0,0,0,0,0,0,0,0,0,0,0,0,0,0],"sum_hessian":[1.7193112E2,1.6293906E2,8.992074E0,1.6086366E2,2.0753913E0,7.982997E0,1.009077E0,1.5422458E2,6.639081E0,5.3970137E0,2.5859835E0,1.4913828E2,5.0863104E0,4.190252E0,2.4488294E0,1.4775679E2,1.381486E0,1.0089442E0,1.4398853E0,1.459704E2,1.7863883E0,1.4068135E2,5.2890463E0,1.1616238E2,2.4518972E1,3.5622346E0,1.7268118E0,1.14894615E2,1.2677655E0,2.2257423E1,2.261549E0,1.0406578E0,2.521577E0],"tree_param":{"num_deleted":"0","num_feature":"2048","num_nodes":"33","size_leaf_vector":"1"}},{"base_weights":[3.1324852E-2,1.4714423E-2,6.722964E-1,6.151443E-2,-4.5543933E-1,7.741193E-2,-7.0704013E-1,-6.263221E-1,4.505612E-1,4.696146E-2,3.4093922E-1,-7.9512674E-1,1.9705427E-1,-7.4394345E-3,4.7430173E-1,-9.9234825E-1,8.9435294E-2,-3.735983E-2,4.5506823E-1,-2.1067698E-1,6.2534463E-1,-4.9944943E-1,-0E0,-5.9291285E-2,4.186323E-1,7.767537E-2,-3.6212054E-1,7.0356333E-1,-9.286989E-3,-4.106669E-2,-6.8809474E-1,7.9300857E-1,-4.8543226E-2,-9.856158E-3,-6.8386036E-1,4.3997625E-1,1.3116167E-1],"categories":[],"categories_nodes":[],"categories_segments":[],"categories_sizes":[],"default_left":[0,0,0,0,0,0,0,0,0,0,0,0,0,0,0,0,0,0,0,0,0,0,0,0,0,0,0,0,0,0,0,0,0,0,0,0,0],"id":9,"left_children":[1,3,-1,5,7,9,-1,11,-1,13,-1,15,-1,17,19,21,-1,23,-1,25,27,-1,-1,29,-1,-1,-1,31,-1,33,-1,35,-1,-1,-1,-1,-1],"loss_changes":[3.9289236E0,3.5493057E0,0E0,3.77296E0,3.6592906E0,3.0712934E0,0E0,2.4696474E0,0E0,3.3995194E0,0E0,2.4192438E0,0E0,3.8279896E0,1.7788942E0,1.3815994E0,0E0,2.5545177E0,0E0,7.9630613E-1,8.1259346E-1,0E0,0E0,3.0804636E0,0E0,0E0,0E0,1.0298176E0,0E0,3.0772605E0,0E0,1.022934E0,0E0,0E0,0E0,0E0,0E0],"parents":[2147483647,0,0,1,1,3,3,4,4,5,5,7,7,9,9,11,11,13,13,14,14,15,15,17,17,19,19,20,20,23,23,27,27,29,29,31,31],"right_children":[2,4,-1,6,8,10,-1,12,-1,14,-1,16,-1,18,20,22,-1,24,-1,26,28,-1,-1,30,-1,-1,-1,32,-1,34,-1,36,-1,-1,-1,-1,-1],"split_conditions":[1E0,1E0,6.722964E-1,1E0,1E0,1E0,-7.0704013E-1,1E0,4.505612E-1,1E0,3.4093922E-1,1E0,1.9705427E-1,1E0,1E0,1E0,8.9435294E-2,1E0,4.5506823E-1,1E0,1E0,-4.9944943E-1,-0E0,1E0,4.186323E-1,7.767537E-2,-3.6212054E-1,1E0,-9.286989E-3,1E0,-6.8809474E-1,1E0,-4.8543226E-2,-9.856158E-3,-6.8386036E-1,4.3997625E-1,1.3116167E-1],"split_indices":[2022,841,0,39,1257,1142,0,133,0,1928,0,294,0,905,1602,525,0,1833,0,1088,835,0,0,281,0,0,0,1107,0,567,0,650,0,0,0,0,0],"split_type":[0,0,0,0,0,0,0,0,0,0,0,0,0,0,0,0,0,0,0,0,0,0,0,0,0,0,0,0,0,0,0,0,0,0,0,0,0],"sum_hessian":[1.660541E2,1.6438948E2,1.6646056E0,1.498543E2,1.4535192E1,1.4857751E2,1.276775E0,1.3157624E1,1.3775675E0,1.4272397E2,5.8535557E0,1.1524015E1,1.6336089E0,1.2625787E2,1.6466087E1,9.773767E0,1.7502477E0,1.2296343E2,3.2944412E0,2.7660165E0,1.3700071E1,8.247631E0,1.5261359E0,1.20520256E2,2.4431775E0,1.5395932E0,1.2264234E0,1.246075E1,1.239321E0,1.1922932E2,1.2909423E0,1.1421911E1,1.0388391E0,1.1795656E2,1.272753E0,7.579043E0,3.8428679E0],"tree_param":{"num_deleted":"0","num_feature":"2048","num_nodes":"37","size_leaf_vector":"1"}},{"base_weights":[3.0865055E-2,4.317228E-2,-7.44405E-1,-7.293453E-2,1.9382305E-1,-2.548425E-2,-4.8840508E-1,1.450574E-1,4.5579612E-1,7.1154656E-3,-5.745996E-1,1.854674E-1,-9.4341785E-1,-1.6611947E-2,6.18651E-1,1.0743953E-1,7.3840344E-1,-8.529101E-2,5.4616934E-1,4.1180663E-2,3.1511658E-1,4.0995756E-1,-2.05782E-2,-1.23273835E-1,4.6141788E-1,1.659849E-1,6.409548E-1,-3.5217768E-3,5.2773356E-1,-1.5955311E-1,4.4105977E-1,-1.2612817E-1,4.1310152E-1,-6.962248E-2,3.826483E-1,-1.1943114E-1,8.874022E-2,-2.1268275E-1,3.0593395E-1,-5.5221178E-2,4.130738E-1],"categories":[],"categories_nodes":[],"categories_segments":[],"categories_sizes":[],"default_left":[0,0,0,0,0,0,0,0,0,0,0,0,0,0,0,0,0,0,0,0,0,0,0,0,0,0,0,0,0,0,0,0,0,0,0,0,0,0,0,0,0],"id":10,"left_children":[1,3,-1,5,7,9,-1,11,-1,13,-1,15,-1,17,-1,19,21,23,25,27,-1,-1,-1,29,-1,31,-1,33,-1,35,-1,37,-1,39,-1,-1,-1,-1,-1,-1,-1],"loss_changes":[3.1869085E0,2.8241444E0,0E0,4.3033667E0,2.742674E0,3.8906338E0,0E0,5.942156E0,0E0,3.0814323E0,0E0,2.6898167E0,0E0,3.1078382E0,0E0,2.2505493E0,1.451446E0,3.0669823E0,2.8044722E0,2.98519E0,0E0,0E0,0E0,2.8216386E0,0E0,1.6055087E0,0E0,2.8286088E0,0E0,2.9714637E0,0E0,1.3305899E0,0E0,2.67059E0,0E0,0E0,0E0,0E0,0E0,0E0,0E0],"parents":[2147483647,0,0,1,1,3,3,4,4,5,5,7,7,9,9,11,11,13,13,15,15,16,16,17,17,18,18,19,19,23,23,25,25,27,27,29,29,31,31,33,33],"right_children":[2,4,-1,6,8,10,-1,12,-1,14,-1,16,-1,18,-1,20,22,24,26,28,-1,-1,-1,30,-1,32,-1,34,-1,36,-1,38,-1,40,-1,-1,-1,-1,-1,-1,-1],"split_conditions":[1E0,1E0,-7.44405E-1,1E0,1E0,1E0,-4.8840508E-1,1E0,4.5579612E-1,1E0,-5.745996E-1,1E0,-9.4341785E-1,1E0,6.18651E-1,1E0,1E0,1E0,1E0,1E0,3.1511658E-1,4.0995756E-1,-2.05782E-2,1E0,4.6141788E-1,1E0,6.409548E-1,1E0,5.2773356E-1,1E0,4.4105977E-1,1E0,4.1310152E-1,1E0,3.826483E-1,-1.1943114E-1,8.874022E-2,-2.1268275E-1,3.0593395E-1,-5.5221178E-2,4.130738E-1],"split_indices":[1804,1778,0,1017,1309,1866,0,1457,0,385,0,561,0,728,0,1604,1582,230,1722,1349,0,0,0,1737,0,1313,0,1365,0,1357,0,1738,0,1985,0,0,0,0,0,0,0],"split_type":[0,0,0,0,0,0,0,0,0,0,0,0,0,0,0,0,0,0,0,0,0,0,0,0,0,0,0,0,0,0,0,0,0,0,0,0,0,0,0,0,0],"sum_hessian":[1.612442E2,1.6023132E2,1.0128736E0,8.9842674E1,7.038866E1,8.61518E1,3.6908705E0,6.68186E1,3.5700517E0,8.393252E1,2.2192883E0,6.5763695E1,1.0549114E0,8.24496E1,1.4829172E0,5.7920845E1,7.8428464E0,7.37678E1,8.681801E0,5.260471E1,5.3161354E0,6.364062E0,1.4787846E0,7.1571655E1,2.1961443E0,6.3175497E0,2.3642514E0,5.0554417E1,2.0502949E0,6.952897E1,2.04268E0,4.4586735E0,1.8588763E0,4.724719E1,3.3072274E0,5.3047817E1,1.6481155E1,3.2479436E0,1.21073E0,4.488528E1,2.3619072E0],"tree_param":{"num_deleted":"0","num_feature":"2048","num_nodes":"41","size_leaf_vector":"1"}},{"base_weights":[2.9815635E-2,6.8058264E-3,4.198303E-1,2.0191623E-2,-6.2443495E-1,3.181037E-2,-6.280476E-1,4.359883E-2,-6.143402E-1,5.672919E-2,-5.116732E-1,7.706022E-2,-6.6590077E-1,9.986983E-2,-5.5300885E-1,-6.1828554E-1,4.5172635E-2,8.3537996E-2,4.7414747E-1,-4.301425E-1,-6.0825557E-2,4.3185446E-2,-4.033935E-1],"categories":[],"categories_nodes":[],"categories_segments":[],"categories_sizes":[],"default_left":[0,0,0,0,0,0,0,0,0,0,0,0,0,0,0,0,0,0,0,0,0,0,0],"id":11,"left_children":[1,3,-1,5,-1,7,-1,9,-1,11,-1,13,15,17,19,-1,-1,21,-1,-1,-1,-1,-1],"loss_changes":[3.1135294E0,2.6313431E0,0E0,2.268681E0,0E0,2.2609272E0,0E0,2.139794E0,0E0,2.0074036E0,0E0,1.9321647E0,2.407148E0,1.9951468E0,6.4261913E-1,0E0,0E0,2.0678203E0,0E0,0E0,0E0,0E0,0E0],"parents":[2147483647,0,0,1,1,3,3,5,5,7,7,9,9,11,11,12,12,13,13,14,14,17,17],"right_children":[2,4,-1,6,-1,8,-1,10,-1,12,-1,14,16,18,20,-1,-1,22,-1,-1,-1,-1,-1],"split_conditions":[1E0,1E0,4.198303E-1,1E0,-6.2443495E-1,1E0,-6.280476E-1,1E0,-6.143402E-1,1E0,-5.116732E-1,1E0,1E0,1E0,1E0,-6.1828554E-1,4.5172635E-2,1E0,4.7414747E-1,-4.301425E-1,-6.0825557E-2,4.3185446E-2,-4.033935E-1],"split_indices":[140,192,0,542,0,920,0,868,0,392,0,552,1019,911,1778,0,0,242,0,0,0,0,0],"split_type":[0,0,0,0,0,0,0,0,0,0,0,0,0,0,0,0,0,0,0,0,0,0,0],"sum_hessian":[1.5163293E2,1.4820746E2,3.4254851E0,1.4698457E2,1.222881E0,1.4596428E2,1.0202978E0,1.4492099E2,1.0432907E0,1.4353943E2,1.3815511E0,1.3985733E2,3.6821024E0,1.3524847E2,4.6088552E0,1.9562835E0,1.725819E0,1.3325394E2,1.9945363E0,2.0124621E0,2.5963929E0,1.3132774E2,1.9261906E0],"tree_param":{"num_deleted":"0","num_feature":"2048","num_nodes":"23","size_leaf_vector":"1"}},{"base_weights":[7.655644E-2,8.852516E-2,-4.99719E-1,9.939076E-2,-5.265785E-1,7.3952265E-2,7.0497465E-1,2.0032978E-1,-5.5733908E-2,-0E0,4.3313947E-1,2.347829E-1,-8.421979E-1,-1.9114982E-2,-7.8393364E-1,2.6039138E-1,-5.568403E-1,-6.5855056E-1,-2.1682696E-3,1.1255646E-1,-3.15559E-1,2.8741324E-1,-4.491888E-1,1.7634341E-1,-5.6114924E-1,-4.0669578E-1,5.8719736E-1,3.132622E-1,-4.6771935E-1,2.3337428E-1,-4.8899296E-1,-5.410977E-1,3.004915E-1,9.141077E-2,3.0205157E-1,1.2162025E-1,-4.5781434E-1,-2.886862E-1,2.0448941E-1],"categories":[],"categories_nodes":[],"categories_segments":[],"categories_sizes":[],"default_left":[0,0,0,0,0,0,0,0,0,0,0,0,0,0,0,0,0,0,0,0,0,0,0,0,0,0,0,0,0,0,0,0,0,0,0,0,0,0,0],"id":12,"left_children":[1,3,-1,5,-1,7,9,11,13,-1,-1,15,17,19,-1,21,-1,-1,-1,23,25,27,-1,29,-1,31,-1,33,-1,35,-1,37,-1,-1,-1,-1,-1,-1,-1],"loss_changes":[2.042523E0,1.9317322E0,0E0,2.1530366E0,0E0,2.367275E0,1.1264963E0,2.5210714E0,4.1758323E0,0E0,0E0,2.5897796E0,9.7576976E-1,2.711164E0,0E0,2.3251624E0,0E0,0E0,0E0,4.041771E0,3.1197002E0,2.2971382E0,0E0,3.2139647E0,0E0,3.0119112E0,0E0,2.485877E0,0E0,2.5535603E0,0E0,2.3990097E0,0E0,0E0,0E0,0E0,0E0,0E0,0E0],"parents":[2147483647,0,0,1,1,3,3,5,5,6,6,7,7,8,8,11,11,12,12,13,13,15,15,19,19,20,20,21,21,23,23,25,25,27,27,29,29,31,31],"right_children":[2,4,-1,6,-1,8,10,12,14,-1,-1,16,18,20,-1,22,-1,-1,-1,24,26,28,-1,30,-1,32,-1,34,-1,36,-1,38,-1,-1,-1,-1,-1,-1,-1],"split_conditions":[1E0,1E0,-4.99719E-1,1E0,-5.265785E-1,1E0,1E0,1E0,1E0,-0E0,4.3313947E-1,1E0,1E0,1E0,-7.8393364E-1,1E0,-5.568403E-1,-6.5855056E-1,-2.1682696E-3,1E0,1E0,1E0,-4.491888E-1,1E0,-5.6114924E-1,1E0,5.8719736E-1,1E0,-4.6771935E-1,1E0,-4.8899296E-1,1E0,3.004915E-1,9.141077E-2,3.0205157E-1,1.2162025E-1,-4.5781434E-1,-2.886862E-1,2.0448941E-1],"split_indices":[572,1667,0,878,0,650,1917,1956,1314,0,0,1804,624,695,0,1652,0,0,0,1066,1056,1510,0,1980,0,116,0,561,0,1993,0,1287,0,0,0,0,0,0,0],"split_type":[0,0,0,0,0,0,0,0,0,0,0,0,0,0,0,0,0,0,0,0,0,0,0,0,0,0,0,0,0,0,0,0,0,0,0,0,0,0,0],"sum_hessian":[1.5097278E2,1.4967264E2,1.3001364E0,1.4858237E2,1.0902684E0,1.4288274E2,5.6996417E0,7.303953E1,6.98432E1,1.7601137E0,3.939528E0,7.087461E1,2.1649203E0,6.852777E1,1.3154352E0,6.98256E1,1.0490053E0,1.0733892E0,1.0915313E0,4.7051186E1,2.1476585E1,6.854431E1,1.2812896E0,4.5144386E1,1.9067976E0,2.0475672E1,1.0009136E0,6.740902E1,1.1352898E0,4.3395214E1,1.7491735E0,1.8395935E1,2.0797353E0,5.3683514E1,1.3725511E1,4.198503E1,1.4101804E0,1.6512417E1,1.8835179E0],"tree_param":{"num_deleted":"0","num_feature":"2048","num_nodes":"39","size_leaf_vector":"1"}},{"base_weights":[6.4568007E-3,2.7126605E-2,-9.294217E-1,4.088776E-2,-5.821569E-1,5.322415E-2,-5.765619E-1,2.6029367E-2,5.623395E-1,4.2119253E-2,-5.869192E-1,6.7874664E-1,-0E0,1.3049217E-2,6.487528E-1,3.1948468E-1,5.1676E-1,-1.684505E-2,5.9798133E-1,4.391333E-1,-1.6289921E-1,4.2218664E-1,-0E0,-4.1973162E-2,8.0857027E-1,7.8879696E-1,-7.9302765E-2,-1.7716879E-1,2.1248652E-1,-9.606092E-3,-5.460725E-1,8.407774E-2,8.2549226E-1,4.208878E-1,-0E0],"categories":[],"categories_nodes":[],"categories_segments":[],"categories_sizes":[],"default_left":[0,0,0,0,0,0,0,0,0,0,0,0,0,0,0,0,0,0,0,0,0,0,0,0,0,0,0,0,0,0,0,0,0,0,0],"id":13,"left_children":[1,3,-1,5,-1,7,-1,9,11,13,-1,15,-1,17,19,21,-1,23,25,-1,-1,-1,27,29,31,33,-1,-1,-1,-1,-1,-1,-1,-1,-1],"loss_changes":[5.996789E0,2.4495652E0,0E0,2.157121E0,0E0,1.8248725E0,0E0,2.720828E0,4.9655247E-1,2.1967728E0,0E0,7.8868675E-1,0E0,2.2937698E0,2.2677784E0,7.728532E-1,0E0,2.3359406E0,1.0584373E0,0E0,0E0,0E0,4.8361778E-1,2.5678537E0,1.8679714E0,7.4476075E-1,0E0,0E0,0E0,0E0,0E0,0E0,0E0,0E0,0E0],"parents":[2147483647,0,0,1,1,3,3,5,5,7,7,8,8,9,9,11,11,13,13,14,14,15,15,17,17,18,18,22,22,23,23,24,24,25,25],"right_children":[2,4,-1,6,-1,8,-1,10,12,14,-1,16,-1,18,20,22,-1,24,26,-1,-1,-1,28,30,32,34,-1,-1,-1,-1,-1,-1,-1,-1,-1],"split_conditions":[1E0,1E0,-9.294217E-1,1E0,-5.821569E-1,1E0,-5.765619E-1,1E0,1E0,1E0,-5.869192E-1,1E0,-0E0,1E0,1E0,1E0,5.1676E-1,1E0,1E0,4.391333E-1,-1.6289921E-1,4.2218664E-1,1E0,1E0,1E0,1E0,-7.9302765E-2,-1.7716879E-1,2.1248652E-1,-9.606092E-3,-5.460725E-1,8.407774E-2,8.2549226E-1,4.208878E-1,-0E0],"split_indices":[1389,1350,0,1353,0,354,0,38,1171,286,0,38,0,940,1199,650,0,890,1366,0,0,0,1088,1997,1152,63,0,0,0,0,0,0,0,0,0],"split_type":[0,0,0,0,0,0,0,0,0,0,0,0,0,0,0,0,0,0,0,0,0,0,0,0,0,0,0,0,0,0,0,0,0,0,0],"sum_hessian":[1.428314E2,1.4156812E2,1.2632899E0,1.4030208E2,1.2660321E0,1.3919214E2,1.1099539E0,1.3247183E2,6.720297E0,1.3108597E2,1.3858715E0,5.686402E0,1.0338951E0,1.253783E2,5.7076626E0,3.5645587E0,2.1218429E0,1.1901203E2,6.3662653E0,4.3291273E0,1.3785353E0,1.1803799E0,2.3841789E0,1.15712944E2,3.2990878E0,5.295411E0,1.0708541E0,1.3263949E0,1.0577841E0,1.14023674E2,1.6892738E0,2.2290275E0,1.0700603E0,4.259721E0,1.0356902E0],"tree_param":{"num_deleted":"0","num_feature":"2048","num_nodes":"35","size_leaf_vector":"1"}},{"base_weights":[-3.860278E-3,6.4777182E-3,-6.015814E-1,-5.490219E-3,5.1595974E-1,-2.5576718E-2,3.7127644E-1,3.373825E-2,-2.809673E-1,1.1413727E-2,5.219015E-1,-7.9366964E-1,3.977173E-2,3.45158E-2,-5.2095646E-1,-5.874215E-1,-5.909293E-1,1.4003633E-1,-4.9895966E-1,1.2728146E-2,5.828112E-1,-8.793982E-1,1.2512627E-1,2.8210104E-1,-3.3331782E-1,-7.1577905E-3,3.7694034E-1,-4.797309E-1,-1.1586582E-1,1.5626626E-1,3.95913E-1,-2.4891157E-2,1.7329921E-1,1.7297228E-1,-1.8915887E-1],"categories":[],"categories_nodes":[],"categories_segments":[],"categories_sizes":[],"default_left":[0,0,0,0,0,0,0,0,0,0,0,0,0,0,0,0,0,0,0,0,0,0,0,0,0,0,0,0,0,0,0,0,0,0,0],"id":14,"left_children":[1,3,-1,5,-1,7,-1,9,11,13,-1,15,17,19,-1,-1,21,23,-1,25,-1,27,-1,29,-1,31,-1,-1,-1,33,-1,-1,-1,-1,-1],"loss_changes":[2.2382004E0,2.1682537E0,0E0,2.2266774E0,0E0,2.068879E0,0E0,2.616081E0,4.367301E0,2.7787056E0,0E0,8.0906534E-1,1.6989202E0,2.747508E0,0E0,0E0,2.0610068E0,1.8051114E0,0E0,1.9052535E0,0E0,5.932498E-1,0E0,8.312938E-1,0E0,2.0013614E0,0E0,0E0,0E0,1.575475E0,0E0,0E0,0E0,0E0,0E0],"parents":[2147483647,0,0,1,1,3,3,5,5,7,7,8,8,9,9,11,11,12,12,13,13,16,16,17,17,19,19,21,21,23,23,25,25,29,29],"right_children":[2,4,-1,6,-1,8,-1,10,12,14,-1,16,18,20,-1,-1,22,24,-1,26,-1,28,-1,30,-1,32,-1,-1,-1,34,-1,-1,-1,-1,-1],"split_conditions":[1E0,1E0,-6.015814E-1,1E0,5.1595974E-1,1E0,3.7127644E-1,1E0,1E0,1E0,5.219015E-1,1E0,1E0,1E0,-5.2095646E-1,-5.874215E-1,1E0,1E0,-4.9895966E-1,1E0,5.828112E-1,1E0,1.2512627E-1,1E0,-3.3331782E-1,1E0,3.7694034E-1,-4.797309E-1,-1.1586582E-1,1E0,3.95913E-1,-2.4891157E-2,1.7329921E-1,1.7297228E-1,-1.8915887E-1],"split_indices":[1389,99,0,1294,0,314,0,890,1057,747,0,1313,1476,1241,0,0,54,1452,0,79,0,1357,0,322,0,1928,0,0,0,935,0,0,0,0,0],"split_type":[0,0,0,0,0,0,0,0,0,0,0,0,0,0,0,0,0,0,0,0,0,0,0,0,0,0,0,0,0,0,0,0,0,0,0],"sum_hessian":[1.3925989E2,1.3811893E2,1.1409644E0,1.3660829E2,1.5106329E0,1.3371428E2,2.8940194E0,1.0796942E2,2.5744858E1,1.0611209E2,1.8573278E0,1.0108374E1,1.5636484E1,1.0428717E2,1.8249171E0,2.4232895E0,7.6850843E0,1.4570241E1,1.0662434E0,1.0272894E2,1.5582325E0,5.9369926E0,1.7480916E0,1.2777538E1,1.7927026E0,1.00219826E2,2.5091133E0,4.0997853E0,1.8372074E0,1.09030285E1,1.87451E0,8.958795E1,1.0631875E1,7.9404993E0,2.9625292E0],"tree_param":{"num_deleted":"0","num_feature":"2048","num_nodes":"35","size_leaf_vector":"1"}},{"base_weights":[1.0430121E-2,-6.013984E-3,1.0140878E0,7.6308516E-3,-5.2159405E-1,1.2271159E-1,6.46662E-1,-7.4348286E-2,1.8856318E-1,-1.2214073E-1,5.3166175E-1,1.2374016E-1,3.5430786E-1,-1.5765359E-1,3.2785308E-1,6.680541E-1,-0E0,8.051363E-2,5.4841095E-1,-1.9956934E-1,5.637359E-1,4.3159097E-1,9.8594815E-2,1.5581055E-1,-3.8967302E-1,-1.0406566E-1,-5.601249E-1,4.613647E-1,-0E0,6.656773E-2,6.6269785E-1,-6.8260565E-2,-7.5259995E-1,-8.391454E-1,1.6904376E-2,3.056882E-1,-1.8492435E-1,5.084572E-1,-2.1561782E-1,-5.0835367E-2,3.6694613E-1,-5.972009E-1,-2.0603357E-1,3.0171466E-1,-1.3468926E-1,2.519005E-1,-5.090916E-3,-1.403494E-1,1.8568185E-1],"categories":[],"categories_nodes":[],"categories_segments":[],"categories_sizes":[],"default_left":[0,0,0,0,0,0,0,0,0,0,0,0,0,0,0,0,0,0,0,0,0,0,0,0,0,0,0,0,0,0,0,0,0,0,0,0,0,0,0,0,0,0,0,0,0,0,0,0,0],"id":15,"left_children":[1,3,5,7,-1,-1,-1,9,11,13,15,17,-1,19,-1,21,-1,23,-1,25,27,-1,-1,29,-1,31,33,-1,-1,35,37,39,-1,41,43,45,47,-1,-1,-1,-1,-1,-1,-1,-1,-1,-1,-1,-1],"loss_changes":[2.3976905E0,2.3754232E0,5.078366E-1,1.9588311E0,0E0,0E0,0E0,2.5161312E0,1.5283376E0,2.4935458E0,4.083165E-1,1.6355138E0,0E0,2.358201E0,0E0,4.927814E-1,0E0,2.5784566E0,0E0,2.496448E0,1.2699363E0,0E0,0E0,1.4187975E0,0E0,3.2217064E0,2.6394205E0,0E0,0E0,1.7879725E0,2.9999142E0,2.5500903E0,0E0,1.7620687E0,1.1574408E0,1.4539211E0,1.1818281E0,0E0,0E0,0E0,0E0,0E0,0E0,0E0,0E0,0E0,0E0,0E0,0E0],"parents":[2147483647,0,0,1,1,2,2,3,3,7,7,8,8,9,9,10,10,11,11,13,13,15,15,17,17,19,19,20,20,23,23,25,25,26,26,29,29,30,30,31,31,33,33,34,34,35,35,36,36],"right_children":[2,4,6,8,-1,-1,-1,10,12,14,16,18,-1,20,-1,22,-1,24,-1,26,28,-1,-1,30,-1,32,34,-1,-1,36,38,40,-1,42,44,46,48,-1,-1,-1,-1,-1,-1,-1,-1,-1,-1,-1,-1],"split_conditions":[1E0,1E0,1E0,1E0,-5.2159405E-1,1.2271159E-1,6.46662E-1,1E0,1E0,1E0,1E0,1E0,3.5430786E-1,1E0,3.2785308E-1,1E0,-0E0,1E0,5.4841095E-1,1E0,1E0,4.3159097E-1,9.8594815E-2,1E0,-3.8967302E-1,1E0,1E0,4.613647E-1,-0E0,1E0,1E0,1E0,-7.5259995E-1,1E0,1E0,1E0,1E0,5.084572E-1,-2.1561782E-1,-5.0835367E-2,3.6694613E-1,-5.972009E-1,-2.0603357E-1,3.0171466E-1,-1.3468926E-1,2.519005E-1,-5.090916E-3,-1.403494E-1,1.8568185E-1],"split_indices":[1775,876,675,381,0,0,0,680,455,1985,389,605,0,1096,0,314,0,138,0,389,843,0,0,1722,0,591,1019,0,0,1088,680,1582,0,80,1057,650,739,0,0,0,0,0,0,0,0,0,0,0,0],"split_type":[0,0,0,0,0,0,0,0,0,0,0,0,0,0,0,0,0,0,0,0,0,0,0,0,0,0,0,0,0,0,0,0,0,0,0,0,0,0,0,0,0,0,0,0,0,0,0,0,0],"sum_hessian":[1.3464148E2,1.3231403E2,2.3274562E0,1.3069684E2,1.6171863E0,1.0766236E0,1.2508327E0,8.928831E1,4.1408535E1,8.3037384E1,6.2509265E0,3.7814266E1,3.5942662E0,8.001794E1,3.0194435E0,4.8689466E0,1.3819798E0,3.6598415E1,1.215851E0,7.586094E1,4.1569986E0,2.5468626E0,2.322084E0,3.416619E1,2.4322248E0,6.0369907E1,1.549103E1,2.2664986E0,1.8905003E0,2.9356123E1,4.810069E0,5.9195072E1,1.1748368E0,1.0640755E1,4.8502755E0,1.5400976E1,1.3955146E1,3.4398124E0,1.3702568E0,5.636597E1,2.829099E0,4.059133E0,6.581621E0,1.7454488E0,3.104827E0,8.513516E0,6.8874593E0,1.1606491E1,2.3486547E0],"tree_param":{"num_deleted":"0","num_feature":"2048","num_nodes":"49","size_leaf_vector":"1"}},{"base_weights":[-4.5550235E-2,-7.1210004E-2,3.1866834E-1,-8.473312E-2,5.827685E-1,-1.0491589E-1,3.6521724E-1,-1.286389E-1,7.237206E-1,-1.4362353E-1,4.5647708E-1,-0E0,4.688534E-1,-1.5742883E-1,4.5921835E-1,-1.2447816E-1,-8.8754356E-1,-1.0734262E-1,-5.0893515E-1,-5.119343E-1,-6.280445E-2,-5.4584093E-2,3.1694362E-1],"categories":[],"categories_nodes":[],"categories_segments":[],"categories_sizes":[],"default_left":[0,0,0,0,0,0,0,0,0,0,0,0,0,0,0,0,0,0,0,0,0,0,0],"id":16,"left_children":[1,3,-1,5,-1,7,-1,9,11,13,-1,-1,-1,15,-1,17,19,21,-1,-1,-1,-1,-1],"loss_changes":[2.431727E0,2.1428912E0,0E0,2.1611168E0,0E0,2.2492554E0,0E0,1.910934E0,7.6896286E-1,1.7624152E0,0E0,0E0,0E0,2.5665035E0,0E0,1.7474531E0,7.992306E-1,1.6059604E0,0E0,0E0,0E0,0E0,0E0],"parents":[2147483647,0,0,1,1,3,3,5,5,7,7,8,8,9,9,13,13,15,15,16,16,17,17],"right_children":[2,4,-1,6,-1,8,-1,10,12,14,-1,-1,-1,16,-1,18,20,22,-1,-1,-1,-1,-1],"split_conditions":[1E0,1E0,3.1866834E-1,1E0,5.827685E-1,1E0,3.6521724E-1,1E0,1E0,1E0,4.5647708E-1,-0E0,4.688534E-1,1E0,4.5921835E-1,1E0,1E0,1E0,-5.0893515E-1,-5.119343E-1,-6.280445E-2,-5.4584093E-2,3.1694362E-1],"split_indices":[1309,1987,0,1726,0,596,0,767,694,859,0,0,0,1926,0,1729,314,888,0,0,0,0,0],"split_type":[0,0,0,0,0,0,0,0,0,0,0,0,0,0,0,0,0,0,0,0,0,0,0],"sum_hessian":[1.26830376E2,1.230303E2,3.8000789E0,1.2200283E2,1.0274664E0,1.1960435E2,2.3984811E0,1.1649066E2,3.113691E0,1.1519186E2,1.2988017E0,1.079709E0,2.033982E0,1.1404197E2,1.149886E0,1.0936051E2,4.681455E0,1.0778575E2,1.5747638E0,3.1728082E0,1.5086471E0,1.0563077E2,2.1549861E0],"tree_param":{"num_deleted":"0","num_feature":"2048","num_nodes":"23","size_leaf_vector":"1"}},{"base_weights":[1.0130832E-2,2.3586215E-2,-5.919879E-1,7.413132E-3,4.6943554E-1,-4.1759584E-2,3.0971855E-1,-6.484398E-2,6.495497E-1,5.087101E-1,-7.9182096E-2,-8.237337E-2,4.0443066E-1,-0E0,4.4470215E-1,6.2357026E-1,-1.4382566E-3,2.0956686E-1,-3.294414E-1,-5.561423E-2,-8.420388E-1,3.5043868E-1,4.4684365E-1,-4.6703387E-3,3.3937335E-1,-8.726719E-2,4.9412793E-1,-6.773193E-1,-0E0,-7.3354263E-3,3.487759E-1,-1.53734E-1,2.1514477E-1,-1.7894489E-1,8.2821333E-1,-7.560034E-2,5.0710034E-1,1.4552161E-1,-2.960048E-1,4.6418828E-1,-0E0],"categories":[],"categories_nodes":[],"categories_segments":[],"categories_sizes":[],"default_left":[0,0,0,0,0,0,0,0,0,0,0,0,0,0,0,0,0,0,0,0,0,0,0,0,0,0,0,0,0,0,0,0,0,0,0,0,0,0,0,0,0],"id":17,"left_children":[1,3,-1,5,-1,7,9,11,13,15,17,19,-1,-1,-1,21,-1,23,-1,25,27,29,-1,-1,-1,31,33,-1,-1,-1,-1,35,37,-1,39,-1,-1,-1,-1,-1,-1],"loss_changes":[2.1394756E0,1.9873767E0,0E0,1.9056926E0,0E0,1.6077013E0,1.4675325E0,1.6737332E0,8.2342184E-1,8.253038E-1,1.2425857E0,1.9221778E0,0E0,0E0,0E0,9.0064454E-1,0E0,6.305147E-1,0E0,1.6529344E0,1.7350724E0,1.2132528E0,0E0,0E0,0E0,1.8780217E0,1.6218913E0,0E0,0E0,0E0,0E0,1.9968628E0,1.7400026E0,0E0,6.3318014E-1,0E0,0E0,0E0,0E0,0E0,0E0],"parents":[2147483647,0,0,1,1,3,3,5,5,6,6,7,7,8,8,9,9,10,10,11,11,15,15,17,17,19,19,20,20,21,21,25,25,26,26,31,31,32,32,34,34],"right_children":[2,4,-1,6,-1,8,10,12,14,16,18,20,-1,-1,-1,22,-1,24,-1,26,28,30,-1,-1,-1,32,34,-1,-1,-1,-1,36,38,-1,40,-1,-1,-1,-1,-1,-1],"split_conditions":[1E0,1E0,-5.919879E-1,1E0,4.6943554E-1,1E0,1E0,1E0,1E0,1E0,1E0,1E0,4.0443066E-1,-0E0,4.4470215E-1,1E0,-1.4382566E-3,1E0,-3.294414E-1,1E0,1E0,1E0,4.4684365E-1,-4.6703387E-3,3.3937335E-1,1E0,1E0,-6.773193E-1,-0E0,-7.3354263E-3,3.487759E-1,1E0,1E0,-1.7894489E-1,1E0,-7.560034E-2,5.0710034E-1,1.4552161E-1,-2.960048E-1,4.6418828E-1,-0E0],"split_indices":[39,127,0,102,0,302,650,1878,1260,1825,1088,202,0,0,0,1057,0,1722,0,455,1057,675,0,0,0,1357,745,0,0,0,0,1237,2018,0,1436,0,0,0,0,0,0],"split_type":[0,0,0,0,0,0,0,0,0,0,0,0,0,0,0,0,0,0,0,0,0,0,0,0,0,0,0,0,0,0,0,0,0,0,0,0,0,0,0,0,0],"sum_hessian":[1.2786379E2,1.26766426E2,1.0973624E0,1.2503958E2,1.7268444E0,1.07061806E2,1.7977777E1,1.0385759E2,3.2042177E0,1.2185487E1,5.7922893E0,1.02251656E2,1.6059338E0,1.1553911E0,2.0488265E0,1.0227696E1,1.9577904E0,3.8982134E0,1.894076E0,9.900761E1,3.24405E0,6.4065876E0,3.821109E0,2.6096702E0,1.2885431E0,9.392717E1,5.0804358E0,1.6351635E0,1.6088865E0,3.3444817E0,3.062106E0,7.747953E1,1.6447641E1,1.2257423E0,3.8546937E0,7.640766E1,1.0718677E0,1.4670308E1,1.7773323E0,2.8387926E0,1.0159012E0],"tree_param":{"num_deleted":"0","num_feature":"2048","num_nodes":"41","size_leaf_vector":"1"}},{"base_weights":[1.980506E-2,-7.6333713E-3,5.970165E-1,2.6778874E-3,-5.6782496E-1,4.1933087E-1,-2.798104E-1,-1.8048255E-2,3.7062815E-1,-3.577185E-2,3.8879383E-1,-5.0397754E-2,4.364106E-1,-3.447266E-2,-4.3023285E-1,-5.527737E-2,2.567381E-1,-9.1074646E-2,3.0814552E-1,-4.929097E-2,2.789803E-1,2.155397E-1,-1.9931209E-1],"categories":[],"categories_nodes":[],"categories_segments":[],"categories_sizes":[],"default_left":[0,0,0,0,0,0,0,0,0,0,0,0,0,0,0,0,0,0,0,0,0,0,0],"id":18,"left_children":[1,3,5,7,-1,-1,-1,9,-1,11,-1,13,-1,15,-1,17,-1,19,21,-1,-1,-1,-1],"loss_changes":[2.0580466E0,1.8107365E0,2.7956991E0,2.2100194E0,0E0,0E0,0E0,1.6970608E0,0E0,1.5404998E0,0E0,1.4795082E0,0E0,1.3268831E0,0E0,1.3345667E0,0E0,1.5352123E0,1.3301092E0,0E0,0E0,0E0,0E0],"parents":[2147483647,0,0,1,1,2,2,3,3,7,7,9,9,11,11,13,13,15,15,17,17,18,18],"right_children":[2,4,6,8,-1,-1,-1,10,-1,12,-1,14,-1,16,-1,18,-1,20,22,-1,-1,-1,-1],"split_conditions":[1E0,1E0,1E0,1E0,-5.6782496E-1,4.1933087E-1,-2.798104E-1,1E0,3.7062815E-1,1E0,3.8879383E-1,1E0,4.364106E-1,1E0,-4.3023285E-1,1E0,2.567381E-1,1E0,1E0,-4.929097E-2,2.789803E-1,2.155397E-1,-1.9931209E-1],"split_indices":[1458,56,935,974,0,0,0,1064,0,857,0,1603,0,383,0,1733,0,809,1199,0,0,0,0],"split_type":[0,0,0,0,0,0,0,0,0,0,0,0,0,0,0,0,0,0,0,0,0,0,0],"sum_hessian":[1.23459274E2,1.17582214E2,5.8770604E0,1.1654217E2,1.0400467E0,4.632203E0,1.2448574E0,1.13596405E2,2.9457672E0,1.1164155E2,1.9548529E0,1.10277374E2,1.3641729E0,1.0864374E2,1.6336373E0,1.0544074E2,3.202995E0,9.643081E1,9.009935E0,9.376095E1,2.6698592E0,7.407892E0,1.602043E0],"tree_param":{"num_deleted":"0","num_feature":"2048","num_nodes":"23","size_leaf_vector":"1"}},{"base_weights":[-3.5322836E-4,-1.4771524E-2,4.9514586E-1,-0E0,-3.4704915E-1,-9.313021E-2,1.2236966E-1,-6.933474E-2,-5.043848E-1,1.6696408E-1,-4.847672E-1,-1.0123328E-1,5.88619E-1,1.314705E-1,4.5593974E-1,-7.006311E-2,-3.600407E-1,4.1047522E-1,6.968048E-3,1.7090018E-1,-3.512681E-1,-1.01434976E-1,2.86211E-1,2.0402469E-1,-4.6721166E-1,-6.969582E-2,-4.3313912E-1,1.3684742E-1,3.004945E-1,-2.00059E-2,-4.4639805E-1,-6.0763345E-3,1.7433392E-1],"categories":[],"categories_nodes":[],"categories_segments":[],"categories_sizes":[],"default_left":[0,0,0,0,0,0,0,0,0,0,0,0,0,0,0,0,0,0,0,0,0,0,0,0,0,0,0,0,0,0,0,0,0],"id":19,"left_children":[1,3,-1,5,-1,7,9,11,-1,13,-1,15,17,19,-1,21,-1,-1,-1,23,-1,25,-1,27,-1,29,-1,31,-1,-1,-1,-1,-1],"loss_changes":[1.7822179E0,1.4159234E0,0E0,1.326369E0,0E0,1.4646503E0,2.6346605E0,1.2708802E0,0E0,1.3309087E0,0E0,1.2517827E0,3.965717E-1,1.646287E0,0E0,1.2707503E0,0E0,0E0,0E0,1.7358266E0,0E0,1.4510099E0,0E0,1.3200027E0,0E0,1.0656867E0,0E0,1.652204E0,0E0,0E0,0E0,0E0,0E0],"parents":[2147483647,0,0,1,1,3,3,5,5,6,6,7,7,9,9,11,11,12,12,13,13,15,15,19,19,21,21,23,23,25,25,27,27],"right_children":[2,4,-1,6,-1,8,10,12,-1,14,-1,16,18,20,-1,22,-1,-1,-1,24,-1,26,-1,28,-1,30,-1,32,-1,-1,-1,-1,-1],"split_conditions":[1E0,1E0,4.9514586E-1,1E0,-3.4704915E-1,1E0,1E0,1E0,-5.043848E-1,1E0,-4.847672E-1,1E0,1E0,1E0,4.5593974E-1,1E0,-3.600407E-1,4.1047522E-1,6.968048E-3,1E0,-3.512681E-1,1E0,2.86211E-1,1E0,-4.6721166E-1,1E0,-4.3313912E-1,1E0,3.004945E-1,-2.00059E-2,-4.4639805E-1,-6.0763345E-3,1.7433392E-1],"split_indices":[1064,1386,0,1778,0,1866,1457,1889,0,1671,0,1181,961,797,0,1649,0,0,0,1665,0,121,0,1385,0,849,0,656,0,0,0,0,0],"split_type":[0,0,0,0,0,0,0,0,0,0,0,0,0,0,0,0,0,0,0,0,0,0,0,0,0,0,0,0,0,0,0,0,0],"sum_hessian":[1.19790276E2,1.1846424E2,1.3260356E0,1.16239334E2,2.2249088E0,6.579185E1,5.0447483E1,6.453745E1,1.2543968E0,4.884717E1,1.600312E0,6.181626E1,2.7211902E0,4.717194E1,1.6752306E0,5.9531647E1,2.2846172E0,1.4778088E0,1.2433814E0,4.54677E1,1.7042385E0,5.732384E1,2.2078056E0,4.4441593E1,1.0261062E0,5.557225E1,1.7515882E0,3.9418453E1,5.023142E0,5.4441807E1,1.1304432E0,2.4752285E1,1.4666167E1],"tree_param":{"num_deleted":"0","num_feature":"2048","num_nodes":"33","size_leaf_vector":"1"}},{"base_weights":[4.7653344E-2,6.2007822E-2,-5.549351E-1,3.920032E-2,6.759321E-1,5.200948E-2,-4.594954E-1,4.0582255E-1,-0E0,6.42525E-2,-4.6790642E-1,7.6641016E-2,-4.293614E-1,6.471944E-2,4.8521322E-1,1.2088989E-2,2.667351E-1,-7.5395075E-3,8.105007E-1,1.8386927E-1,3.6476985E-1,-3.0503394E-2,1.267912E-1,6.02968E-1,-0E0,1.19988814E-1,-1.21093415E-1],"categories":[],"categories_nodes":[],"categories_segments":[],"categories_sizes":[],"default_left":[0,0,0,0,0,0,0,0,0,0,0,0,0,0,0,0,0,0,0,0,0,0,0,0,0,0,0],"id":20,"left_children":[1,3,-1,5,7,9,-1,-1,-1,11,-1,13,-1,15,-1,17,19,21,23,25,-1,-1,-1,-1,-1,-1,-1],"loss_changes":[2.0190985E0,1.4945049E0,0E0,1.4026545E0,6.138084E-1,1.3605322E0,0E0,0E0,0E0,1.2777843E0,0E0,1.1456151E0,0E0,1.094558E0,0E0,1.4872085E0,8.4866226E-1,1.5478139E0,8.6387384E-1,8.304725E-1,0E0,0E0,0E0,0E0,0E0,0E0,0E0],"parents":[2147483647,0,0,1,1,3,3,4,4,5,5,9,9,11,11,13,13,15,15,16,16,17,17,18,18,19,19],"right_children":[2,4,-1,6,8,10,-1,-1,-1,12,-1,14,-1,16,-1,18,20,22,24,26,-1,-1,-1,-1,-1,-1,-1],"split_conditions":[1E0,1E0,-5.549351E-1,1E0,1E0,1E0,-4.594954E-1,4.0582255E-1,-0E0,1E0,-4.6790642E-1,1E0,-4.293614E-1,1E0,4.8521322E-1,1E0,1E0,1E0,1E0,1E0,3.6476985E-1,-3.0503394E-2,1.267912E-1,6.02968E-1,-0E0,1.19988814E-1,-1.21093415E-1],"split_indices":[1652,1096,0,868,896,135,0,0,0,284,0,186,0,1738,0,502,2,1357,381,1391,0,0,0,0,0,0,0],"split_type":[0,0,0,0,0,0,0,0,0,0,0,0,0,0,0,0,0,0,0,0,0,0,0,0,0,0,0],"sum_hessian":[1.16727745E2,1.1562431E2,1.1034249E0,1.1176971E2,3.8546097E0,1.1065402E2,1.1156832E0,2.6901252E0,1.1644846E0,1.0963654E2,1.0174781E0,1.0854165E2,1.0948964E0,1.0749655E2,1.0450969E0,8.5973175E1,2.1523375E1,8.371102E1,2.2621558E0,1.9098825E1,2.42455E0,6.969903E1,1.4011991E1,1.1996515E0,1.0625043E0,1.6208637E1,2.8901877E0],"tree_param":{"num_deleted":"0","num_feature":"2048","num_nodes":"27","size_leaf_vector":"1"}},{"base_weights":[9.257747E-3,3.4258973E-2,-4.6783227E-1,5.1348176E-2,-3.13877E-1,-4.6051311E-1,-0E0,3.9072163E-2,4.5625734E-1,-1.4214803E-1,1.7171547E-1,2.3676341E-2,3.602348E-1,1.0274819E-2,4.088599E-1,2.8630476E-2,-6.035215E-1,-1.9476699E-2,2.472289E-1,-4.8721415E-1,-1.5053232E-2,-0E0,-3.6858046E-1,3.5718533E-1,-3.625445E-1,9.596656E-3,-2.81634E-1,2.0559683E-1,-2.1660377E-1,-4.1991076E-1,1.1580442E-1],"categories":[],"categories_nodes":[],"categories_segments":[],"categories_sizes":[],"default_left":[0,0,0,0,0,0,0,0,0,0,0,0,0,0,0,0,0,0,0,0,0,0,0,0,0,0,0,0,0,0,0],"id":21,"left_children":[1,3,5,7,-1,-1,9,11,-1,-1,-1,13,-1,15,-1,17,19,21,23,-1,-1,25,-1,27,29,-1,-1,-1,-1,-1,-1],"loss_changes":[1.296592E0,1.3073493E0,1.5331411E0,1.1333563E0,0E0,0E0,3.9585778E-1,1.1507659E0,0E0,0E0,0E0,1.1253335E0,0E0,1.063647E0,0E0,1.097001E0,6.079575E-1,1.300585E0,1.2605865E0,0E0,0E0,1.1747532E0,0E0,1.6391487E0,1.1366979E0,0E0,0E0,0E0,0E0,0E0,0E0],"parents":[2147483647,0,0,1,1,2,2,3,3,6,6,7,7,11,11,13,13,15,15,16,16,17,17,18,18,21,21,23,23,24,24],"right_children":[2,4,6,8,-1,-1,10,12,-1,-1,-1,14,-1,16,-1,18,20,22,24,-1,-1,26,-1,28,30,-1,-1,-1,-1,-1,-1],"split_conditions":[1E0,1E0,1E0,1E0,-3.13877E-1,-4.6051311E-1,1E0,1E0,4.5625734E-1,-1.4214803E-1,1.7171547E-1,1E0,3.602348E-1,1E0,4.088599E-1,1E0,1E0,1E0,1E0,-4.8721415E-1,-1.5053232E-2,1E0,-3.6858046E-1,1E0,1E0,9.596656E-3,-2.81634E-1,2.0559683E-1,-2.1660377E-1,-4.1991076E-1,1.1580442E-1],"split_indices":[145,1632,935,376,0,0,1738,1294,0,0,0,1500,0,1956,0,561,875,1416,216,0,0,984,0,233,1855,0,0,0,0,0,0],"split_type":[0,0,0,0,0,0,0,0,0,0,0,0,0,0,0,0,0,0,0,0,0,0,0,0,0,0,0,0,0,0,0],"sum_hessian":[1.1498936E2,1.0962181E2,5.367551E0,1.07447464E2,2.174346E0,2.3768282E0,2.9907227E0,1.0633432E2,1.1131423E0,1.5987196E0,1.392003E0,1.0454015E2,1.7941697E0,1.03241554E2,1.2985948E0,1.0053137E2,2.7101815E0,8.175644E1,1.8774933E1,1.2454715E0,1.4647099E0,7.993709E1,1.81935E0,1.6152906E1,2.622027E0,7.727079E1,2.6662984E0,1.4379947E1,1.7729591E0,1.4707003E0,1.1513265E0],"tree_param":{"num_deleted":"0","num_feature":"2048","num_nodes":"31","size_leaf_vector":"1"}},{"base_weights":[-1.0197376E-2,-2.6054453E-2,3.001489E-1,-1.2188948E-2,-3.4080482E-1,-0E0,-3.1028816E-1,1.4679945E-2,-3.0112857E-1,2.046815E-3,3.7152308E-1,1.51863145E-2,-4.2020664E-1,2.8235205E-2,-3.7380937E-1,4.0449508E-2,-3.511786E-1,1.031935E-2,2.8833416E-1],"categories":[],"categories_nodes":[],"categories_segments":[],"categories_sizes":[],"default_left":[0,0,0,0,0,0,0,0,0,0,0,0,0,0,0,0,0,0,0],"id":22,"left_children":[1,3,-1,5,-1,7,-1,9,-1,11,-1,13,-1,15,-1,17,-1,-1,-1],"loss_changes":[1.1249903E0,1.0116049E0,0E0,9.7537124E-1,0E0,1.0255626E0,0E0,9.516849E-1,0E0,1.1381947E0,0E0,1.0116102E0,0E0,8.876324E-1,0E0,9.008706E-1,0E0,0E0,0E0],"parents":[2147483647,0,0,1,1,3,3,5,5,7,7,9,9,11,11,13,13,15,15],"right_children":[2,4,-1,6,-1,8,-1,10,-1,12,-1,14,-1,16,-1,18,-1,-1,-1],"split_conditions":[1E0,1E0,3.001489E-1,1E0,-3.4080482E-1,1E0,-3.1028816E-1,1E0,-3.0112857E-1,1E0,3.7152308E-1,1E0,-4.2020664E-1,1E0,-3.7380937E-1,1E0,-3.511786E-1,1.031935E-2,2.8833416E-1],"split_indices":[605,1632,0,589,0,212,0,960,0,815,0,1948,0,400,0,596,0,0,0],"split_type":[0,0,0,0,0,0,0,0,0,0,0,0,0,0,0,0,0,0,0],"sum_hessian":[1.110973E2,1.0890522E2,2.1920772E0,1.0719674E2,1.7084866E0,1.0528496E2,1.911776E0,1.0322949E2,2.0554688E0,1.01924225E2,1.3052677E0,1.0075661E2,1.1676145E0,9.949149E1,1.2651138E0,9.828278E1,1.2087115E0,9.60313E1,2.2514825E0],"tree_param":{"num_deleted":"0","num_feature":"2048","num_nodes":"19","size_leaf_vector":"1"}},{"base_weights":[1.0300949E-2,4.6963662E-1,-8.9777703E-4,-1.614916E-2,3.7368265E-1,-3.4920555E-3,-4.5350668E-1,-2.6651546E-2,4.1815805E-1,-4.096969E-2,3.727539E-1,3.0349848E-1,-1.9851945E-1,-5.969498E-2,6.4468074E-1,-7.4600674E-2,3.4373543E-1,3.0708065E-2,4.8876557E-1,-8.833912E-2,2.9288727E-1,-4.432944E-2,2.4667853E-1],"categories":[],"categories_nodes":[],"categories_segments":[],"categories_sizes":[],"default_left":[0,0,0,0,0,0,0,0,0,0,0,0,0,0,0,0,0,0,0,0,0,0,0],"id":23,"left_children":[1,-1,3,5,-1,7,-1,9,11,13,-1,-1,-1,15,17,19,-1,-1,-1,21,-1,-1,-1],"loss_changes":[1.5169159E0,0E0,1.2905445E0,1.2194239E0,0E0,9.6900606E-1,0E0,1.1435922E0,1.3252847E0,1.1784021E0,0E0,0E0,0E0,1.1146481E0,4.596908E-1,8.882074E-1,0E0,0E0,0E0,8.0009276E-1,0E0,0E0,0E0],"parents":[2147483647,0,0,2,2,3,3,5,5,7,7,8,8,9,9,13,13,14,14,15,15,19,19],"right_children":[2,-1,4,6,-1,8,-1,10,12,14,-1,-1,-1,16,18,20,-1,-1,-1,22,-1,-1,-1],"split_conditions":[1E0,4.6963662E-1,1E0,1E0,3.7368265E-1,1E0,-4.5350668E-1,1E0,1E0,1E0,3.727539E-1,3.0349848E-1,-1.9851945E-1,1E0,1E0,1E0,3.4373543E-1,3.0708065E-2,4.8876557E-1,1E0,2.9288727E-1,-4.432944E-2,2.4667853E-1],"split_indices":[1380,0,915,1511,0,1951,0,836,1366,1366,0,0,0,1775,745,1833,0,0,0,65,0,0,0],"split_type":[0,0,0,0,0,0,0,0,0,0,0,0,0,0,0,0,0,0,0,0,0,0,0],"sum_hessian":[1.1024908E2,1.282334E0,1.0896674E2,1.0728945E2,1.6772902E0,1.06170074E2,1.1193744E0,1.01045135E2,5.1249437E0,9.964818E1,1.3969544E0,4.0244493E0,1.1004945E0,9.7258026E1,2.3901498E0,9.580287E1,1.4551568E0,1.2669526E0,1.1231971E0,9.4322655E1,1.4802159E0,9.260607E1,1.7165825E0],"tree_param":{"num_deleted":"0","num_feature":"2048","num_nodes":"23","size_leaf_vector":"1"}},{"base_weights":[2.0151928E-2,5.8754673E-3,4.8338002E-1,1.8971277E-2,-5.1478845E-1,3.0890093E-3,3.1081077E-1,-1.05765134E-1,9.330954E-2,-1.4507172E-1,4.086594E-1,1.2169493E-1,-3.8668182E-1,-2.1188736E-1,4.994709E-1,1.5666442E-1,-6.229352E-1,-2.449384E-2,-5.5269736E-1,-0E0,3.6188906E-1,9.2640154E-2,5.023386E-1,-5.7995266E-1,6.698276E-2,-1.6679235E-1,4.6620005E-1,-6.7123675E-1,1.7621571E-1,1.2652142E-1,-5.217962E-1,6.6427654E-1,-0E0,-3.442485E-2,-3.353551E-1,1.9360397E-2,3.5857117E-1,-3.6271867E-1,1.0082258E-1,3.2064956E-2,2.487695E-1,3.5259935E-1,-0E0],"categories":[],"categories_nodes":[],"categories_segments":[],"categories_sizes":[],"default_left":[0,0,0,0,0,0,0,0,0,0,0,0,0,0,0,0,0,0,0,0,0,0,0,0,0,0,0,0,0,0,0,0,0,0,0,0,0,0,0,0,0,0,0],"id":24,"left_children":[1,3,-1,5,-1,7,-1,9,11,13,-1,15,-1,17,19,21,23,25,27,-1,-1,29,31,-1,-1,33,35,37,-1,39,-1,41,-1,-1,-1,-1,-1,-1,-1,-1,-1,-1,-1],"loss_changes":[1.5182005E0,1.490532E0,0E0,1.0648527E0,0E0,1.0290173E0,0E0,1.7921541E0,1.500999E0,1.8979967E0,0E0,1.4003855E0,0E0,2.5312567E0,5.4348797E-1,1.1026689E0,1.510284E0,1.8295307E0,1.676054E0,0E0,0E0,1.8589071E0,5.8999753E-1,0E0,0E0,9.736037E-1,7.32255E-1,2.0603032E0,0E0,9.53713E-1,0E0,5.631585E-1,0E0,0E0,0E0,0E0,0E0,0E0,0E0,0E0,0E0,0E0,0E0],"parents":[2147483647,0,0,1,1,3,3,5,5,7,7,8,8,9,9,11,11,13,13,14,14,15,15,16,16,17,17,18,18,21,21,22,22,25,25,26,26,27,27,29,29,31,31],"right_children":[2,4,-1,6,-1,8,-1,10,12,14,-1,16,-1,18,20,22,24,26,28,-1,-1,30,32,-1,-1,34,36,38,-1,40,-1,42,-1,-1,-1,-1,-1,-1,-1,-1,-1,-1,-1],"split_conditions":[1E0,1E0,4.8338002E-1,1E0,-5.1478845E-1,1E0,3.1081077E-1,1E0,1E0,1E0,4.086594E-1,1E0,-3.8668182E-1,1E0,1E0,1E0,1E0,1E0,1E0,-0E0,3.6188906E-1,1E0,1E0,-5.7995266E-1,6.698276E-2,1E0,1E0,1E0,1.7621571E-1,1E0,-5.217962E-1,1E0,-0E0,-3.442485E-2,-3.353551E-1,1.9360397E-2,3.5857117E-1,-3.6271867E-1,1.0082258E-1,3.2064956E-2,2.487695E-1,3.5259935E-1,-0E0],"split_indices":[1116,135,0,502,0,1057,0,42,980,1476,0,213,0,650,695,1357,310,561,354,0,0,1808,389,0,0,222,926,114,0,1754,0,1480,0,0,0,0,0,0,0,0,0,0,0],"split_type":[0,0,0,0,0,0,0,0,0,0,0,0,0,0,0,0,0,0,0,0,0,0,0,0,0,0,0,0,0,0,0,0,0,0,0,0,0,0,0,0,0,0,0],"sum_hessian":[1.0933951E2,1.0810554E2,1.2339754E0,1.0709196E2,1.0135795E0,1.0497158E2,2.1203756E0,4.669885E1,5.827273E1,4.518577E1,1.5130801E0,5.6827244E1,1.4454899E0,4.1194275E1,3.9914927E0,5.451149E1,2.3157537E0,2.69181E1,1.4276175E1,1.8023566E0,2.189136E0,4.6431778E1,8.079711E0,1.3150921E0,1.0006616E0,2.1148432E1,5.7696695E0,1.2872187E1,1.4039879E0,4.5394146E1,1.0376316E0,5.951734E0,2.1279767E0,1.876207E1,2.386361E0,2.8985593E0,2.8711102E0,1.10233755E1,1.8488114E0,4.1011032E1,4.383116E0,4.792829E0,1.158905E0],"tree_param":{"num_deleted":"0","num_feature":"2048","num_nodes":"43","size_leaf_vector":"1"}},{"base_weights":[-2.2332806E-2,1.3453315E-2,-4.529482E-1,-3.427963E-3,3.366251E-1,-6.125666E-1,7.330781E-3,3.3639364E-2,-4.348176E-1,-3.4888992E-1,1.0440195E-1,5.1554672E-2,-4.332575E-1,-0E0,-9.5466834E-1,2.0510025E-2,2.3684445E-1,-3.475763E-1,1.0042772E-1,-1.2979828E0,-4.724158E-2,3.774037E-2,-4.6279183E-1,-8.4531885E-1,-1.7384087E-1,2.1555915E-2,4.3242595E-1,2.6705416E-4,2.7973297E-1,-5.1344456E-3,3.6184222E-1],"categories":[],"categories_nodes":[],"categories_segments":[],"categories_sizes":[],"default_left":[0,0,0,0,0,0,0,0,0,0,0,0,0,0,0,0,0,0,0,0,0,0,0,0,0,0,0,0,0,0,0],"id":25,"left_children":[1,3,5,7,-1,9,-1,11,13,-1,-1,15,-1,17,19,21,-1,-1,-1,23,-1,25,-1,-1,-1,27,-1,29,-1,-1,-1],"loss_changes":[1.6680492E0,1.3615198E0,7.260369E-1,1.55285E0,0E0,1.174114E0,0E0,1.4131805E0,1.6075369E0,0E0,0E0,1.1913818E0,0E0,8.974252E-1,7.2962976E-1,1.3091896E0,0E0,0E0,0E0,9.003689E-1,0E0,1.0387447E0,0E0,0E0,0E0,9.128374E-1,0E0,9.027828E-1,0E0,0E0,0E0],"parents":[2147483647,0,0,1,1,2,2,3,3,5,5,7,7,8,8,11,11,13,13,14,14,15,15,19,19,21,21,25,25,27,27],"right_children":[2,4,6,8,-1,10,-1,12,14,-1,-1,16,-1,18,20,22,-1,-1,-1,24,-1,26,-1,-1,-1,28,-1,30,-1,-1,-1],"split_conditions":[1E0,1E0,1E0,1E0,3.366251E-1,1E0,7.330781E-3,1E0,1E0,-3.4888992E-1,1.0440195E-1,1E0,-4.332575E-1,1E0,1E0,1E0,2.3684445E-1,-3.475763E-1,1.0042772E-1,1E0,-4.724158E-2,1E0,-4.6279183E-1,-8.4531885E-1,-1.7384087E-1,1E0,4.3242595E-1,1E0,2.7973297E-1,-5.1344456E-3,3.6184222E-1],"split_indices":[841,734,1604,310,0,1,0,1918,935,0,0,1645,0,745,695,747,0,0,0,637,0,867,0,0,0,380,0,836,0,0,0],"split_type":[0,0,0,0,0,0,0,0,0,0,0,0,0,0,0,0,0,0,0,0,0,0,0,0,0,0,0,0,0,0,0],"sum_hessian":[1.0326775E2,9.498375E1,8.284001E0,9.272392E1,2.2598274E0,6.45656E0,1.8274409E0,8.5027565E1,7.696357E0,5.4266715E0,1.0298887E0,8.3759315E1,1.2682489E0,4.346771E0,3.3495862E0,7.9170006E1,4.589314E0,1.1036022E0,3.2431684E0,2.23078E0,1.1188064E0,7.8108635E1,1.0613673E0,1.1659596E0,1.0648203E0,7.7007996E1,1.100644E0,7.475461E1,2.2533855E0,7.349363E1,1.2609785E0],"tree_param":{"num_deleted":"0","num_feature":"2048","num_nodes":"31","size_leaf_vector":"1"}},{"base_weights":[6.395735E-2,8.293858E-2,-3.1099907E-1,7.046885E-2,4.7123963E-1,5.1116146E-2,3.0125114E-1,6.94255E-2,-4.9185392E-1,3.715528E-2,4.0899903E-1,-4.8932588E-1,1.6047871E-1,2.1752061E-2,3.2586688E-1,3.1837195E-1,4.729831E-3,2.7201807E-3,2.2847869E-1,-1.7038362E-1,1.7211396E-1,-1.5463232E-2,2.0142442E-1,-1.4114403E-2,3.880733E-1],"categories":[],"categories_nodes":[],"categories_segments":[],"categories_sizes":[],"default_left":[0,0,0,0,0,0,0,0,0,0,0,0,0,0,0,0,0,0,0,0,0,0,0,0,0],"id":26,"left_children":[1,3,-1,5,-1,7,-1,9,11,13,15,-1,-1,17,-1,-1,19,21,-1,-1,-1,23,-1,-1,-1],"loss_changes":[1.3974442E0,1.0429854E0,0E0,1.0594716E0,0E0,8.768108E-1,0E0,9.385165E-1,1.6882536E0,8.0490804E-1,8.738395E-1,0E0,0E0,7.140251E-1,0E0,0E0,5.739531E-1,7.59984E-1,0E0,0E0,0E0,1.0658948E0,0E0,0E0,0E0],"parents":[2147483647,0,0,1,1,3,3,5,5,7,7,8,8,9,9,10,10,13,13,16,16,17,17,21,21],"right_children":[2,4,-1,6,-1,8,-1,10,12,14,16,-1,-1,18,-1,-1,20,22,-1,-1,-1,24,-1,-1,-1],"split_conditions":[1E0,1E0,-3.1099907E-1,1E0,4.7123963E-1,1E0,3.0125114E-1,1E0,1E0,1E0,1E0,-4.8932588E-1,1.6047871E-1,1E0,3.2586688E-1,3.1837195E-1,1E0,1E0,2.2847869E-1,-1.7038362E-1,1.7211396E-1,1E0,2.0142442E-1,-1.4114403E-2,3.880733E-1],"split_indices":[1734,1369,0,140,0,62,0,1928,1088,99,650,0,0,302,0,0,1313,1737,0,0,0,1973,0,0,0],"split_type":[0,0,0,0,0,0,0,0,0,0,0,0,0,0,0,0,0,0,0,0,0,0,0,0,0],"sum_hessian":[1.013822E2,9.921171E1,2.1704917E0,9.8182915E1,1.028795E0,9.5522964E1,2.6599488E0,9.272816E1,2.7948108E0,8.516211E1,7.5660467E0,1.7182701E0,1.0765408E0,8.3620895E1,1.5412177E0,3.9376726E0,3.628374E0,8.093707E1,2.6838164E0,1.5822023E0,2.0461717E0,7.753047E1,3.4066021E0,7.629851E1,1.2319676E0],"tree_param":{"num_deleted":"0","num_feature":"2048","num_nodes":"25","size_leaf_vector":"1"}},{"base_weights":[-2.8550966E-2,-5.8720205E-2,4.49206E-1,-4.3700024E-2,-4.2816827E-1,3.1117836E-1,-1.5320183E-1,-5.654279E-2,3.5894042E-1,-6.941506E-2,3.2993984E-1,-8.125451E-2,3.1171864E-1,-6.713042E-2,-3.2839665E-1,-1.17890134E-1,1.08565554E-1,-1.363997E-1,3.8788286E-1,1.8768328E-1,-3.6428663E-1,-5.0047193E-2,-3.8087517E-1,4.4693805E-2,4.0262774E-1],"categories":[],"categories_nodes":[],"categories_segments":[],"categories_sizes":[],"default_left":[0,0,0,0,0,0,0,0,0,0,0,0,0,0,0,0,0,0,0,0,0,0,0,0,0],"id":27,"left_children":[1,3,5,7,-1,-1,-1,9,-1,11,-1,13,-1,15,-1,17,19,21,-1,23,-1,-1,-1,-1,-1],"loss_changes":[1.3922856E0,1.1573827E0,1.2998437E0,9.2432904E-1,0E0,0E0,0E0,8.627167E-1,0E0,7.4966383E-1,0E0,7.2528243E-1,0E0,7.9737985E-1,0E0,1.1841257E0,1.3355899E0,8.855878E-1,0E0,9.4340295E-1,0E0,0E0,0E0,0E0,0E0],"parents":[2147483647,0,0,1,1,2,2,3,3,7,7,9,9,11,11,13,13,15,15,16,16,17,17,19,19],"right_children":[2,4,6,8,-1,-1,-1,10,-1,12,-1,14,-1,16,-1,18,20,22,-1,24,-1,-1,-1,-1,-1],"split_conditions":[1E0,1E0,1E0,1E0,-4.2816827E-1,3.1117836E-1,-1.5320183E-1,1E0,3.5894042E-1,1E0,3.2993984E-1,1E0,3.1171864E-1,1E0,-3.2839665E-1,1E0,1E0,1E0,3.8788286E-1,1E0,-3.6428663E-1,-5.0047193E-2,-3.8087517E-1,4.4693805E-2,4.0262774E-1],"split_indices":[961,1455,1475,1889,0,0,0,1086,0,609,0,1487,0,896,0,206,984,2011,0,203,0,0,0,0,0],"split_type":[0,0,0,0,0,0,0,0,0,0,0,0,0,0,0,0,0,0,0,0,0,0,0,0,0],"sum_hessian":[1.01265915E2,9.560452E1,5.6613865E0,9.428497E1,1.319554E0,4.3988857E0,1.2625008E0,9.312783E1,1.1571386E0,9.190881E1,1.2190207E0,9.078096E1,1.1278533E0,8.9194595E1,1.5863627E0,6.997282E1,1.9221779E1,6.889929E1,1.0735266E0,1.7924274E1,1.2975042E0,6.728045E1,1.6188437E0,1.6322031E1,1.6022431E0],"tree_param":{"num_deleted":"0","num_feature":"2048","num_nodes":"25","size_leaf_vector":"1"}},{"base_weights":[-2.1104831E-2,-9.82255E-3,-3.8606754E-1,-2.2378996E-2,3.30619E-1,-3.93765E-2,5.272704E-1,-5.173178E-2,3.1645608E-1,-0E0,4.0851295E-1,-6.35243E-2,3.234243E-1,-7.943144E-2,5.0711644E-1,-4.975923E-2,-4.957432E-1,4.2014983E-1,-0E0,-6.93799E-2,2.952339E-1,-8.923459E-1,1.3669138E-1,-6.1782613E-2,2.6426684E-2,-4.760328E-1,-5.4468073E-2],"categories":[],"categories_nodes":[],"categories_segments":[],"categories_sizes":[],"default_left":[0,0,0,0,0,0,0,0,0,0,0,0,0,0,0,0,0,0,0,0,0,0,0,0,0,0,0],"id":28,"left_children":[1,3,-1,5,-1,7,9,11,-1,-1,-1,13,-1,15,17,19,21,-1,-1,23,-1,25,-1,-1,-1,-1,-1],"loss_changes":[8.0962557E-1,8.1678635E-1,0E0,8.1171566E-1,0E0,7.719479E-1,6.728369E-1,7.504827E-1,0E0,0E0,0E0,7.5243646E-1,0E0,1.0025353E0,5.1179606E-1,1.0919673E0,1.8815987E0,0E0,0E0,7.9514503E-1,0E0,4.00949E-1,0E0,0E0,0E0,0E0,0E0],"parents":[2147483647,0,0,1,1,3,3,5,5,6,6,7,7,11,11,13,13,14,14,15,15,16,16,19,19,21,21],"right_children":[2,4,-1,6,-1,8,10,12,-1,-1,-1,14,-1,16,18,20,22,-1,-1,24,-1,26,-1,-1,-1,-1,-1],"split_conditions":[1E0,1E0,-3.8606754E-1,1E0,3.30619E-1,1E0,1E0,1E0,3.1645608E-1,-0E0,4.0851295E-1,1E0,3.234243E-1,1E0,1E0,1E0,1E0,4.2014983E-1,-0E0,1E0,2.952339E-1,1E0,1.3669138E-1,-6.1782613E-2,2.6426684E-2,-4.760328E-1,-5.4468073E-2],"split_indices":[1212,79,0,1985,0,368,935,1963,0,0,0,1296,0,1171,61,121,1722,0,0,1019,0,102,0,0,0,0,0],"split_type":[0,0,0,0,0,0,0,0,0,0,0,0,0,0,0,0,0,0,0,0,0,0,0,0,0,0,0],"sum_hessian":[9.8278755E1,9.723345E1,1.0453033E0,9.59159E1,1.3175533E0,9.33578E1,2.5580916E0,9.212005E1,1.2377564E0,1.0165869E0,1.5415049E0,9.100788E1,1.1121712E0,8.884754E1,2.1603336E0,8.334037E1,5.5071726E0,1.1207885E0,1.0395453E0,8.140935E1,1.9310244E0,3.8426766E0,1.6644961E0,5.293074E1,2.8478607E1,2.8379898E0,1.0046867E0],"tree_param":{"num_deleted":"0","num_feature":"2048","num_nodes":"27","size_leaf_vector":"1"}},{"base_weights":[8.560729E-2,9.599793E-2,-3.215703E-1,7.493446E-2,2.7291375E-1,1.0503636E-1,-2.4120907E-1,8.688144E-2,3.1946158E-1,-3.4984434E-1,9.158738E-2,7.2688475E-2,4.2810342E-1,-3.6178984E-2,-3.296866E-1,9.021305E-2,-4.9993628E-1,7.236127E-2,2.9032195E-1,-5.790508E-1,9.317275E-2,8.979883E-2,-4.4195247E-1,4.5641415E-2,-1.8327303E-1,-4.069885E-1,-0E0],"categories":[],"categories_nodes":[],"categories_segments":[],"categories_sizes":[],"default_left":[0,0,0,0,0,0,0,0,0,0,0,0,0,0,0,0,0,0,0,0,0,0,0,0,0,0,0],"id":29,"left_children":[1,3,-1,5,-1,7,9,11,-1,13,-1,15,-1,-1,-1,17,19,21,-1,-1,-1,23,25,-1,-1,-1,-1],"loss_changes":[7.479012E-1,9.895211E-1,0E0,8.838605E-1,0E0,8.628717E-1,4.0835416E-1,9.0885E-1,0E0,5.765534E-1,0E0,7.751275E-1,0E0,0E0,0E0,7.2160786E-1,1.5259755E0,6.5626836E-1,0E0,0E0,0E0,5.732658E-1,5.878335E-1,0E0,0E0,0E0,0E0],"parents":[2147483647,0,0,1,1,3,3,5,5,6,6,7,7,9,9,11,11,15,15,16,16,17,17,21,21,22,22],"right_children":[2,4,-1,6,-1,8,10,12,-1,14,-1,16,-1,-1,-1,18,20,22,-1,-1,-1,24,26,-1,-1,-1,-1],"split_conditions":[1E0,1E0,-3.215703E-1,1E0,2.7291375E-1,1E0,1E0,1E0,3.1946158E-1,1E0,9.158738E-2,1E0,4.2810342E-1,-3.6178984E-2,-3.296866E-1,1E0,1E0,1E0,2.9032195E-1,-5.790508E-1,9.317275E-2,1E0,1E0,4.5641415E-2,-1.8327303E-1,-4.069885E-1,-0E0],"split_indices":[712,1737,0,841,0,484,1733,1011,0,926,0,1430,0,0,0,1463,650,1670,0,0,0,231,80,0,0,0,0],"split_type":[0,0,0,0,0,0,0,0,0,0,0,0,0,0,0,0,0,0,0,0,0,0,0,0,0,0,0],"sum_hessian":[9.974041E1,9.872504E1,1.0153764E0,9.531357E1,3.4114616E0,8.7537544E1,7.776025E0,8.5381294E1,2.1562517E0,6.5839357E0,1.1920892E0,8.426424E1,1.1170598E0,4.2679257E0,2.31601E0,8.20677E1,2.1965284E0,7.992694E1,2.1407623E0,1.1172076E0,1.0793207E0,7.764372E1,2.283223E0,7.567327E1,1.9704472E0,1.1564978E0,1.1267252E0],"tree_param":{"num_deleted":"0","num_feature":"2048","num_nodes":"27","size_leaf_vector":"1"}},{"base_weights":[-1.2297206E-2,-0E0,-2.603912E-1,-2.0566497E-2,4.4787174E-1,-3.211265E-2,3.4781307E-1,2.9925424E-1,-2.2348631E-2,-2.0259233E-2,-3.361347E-1,-3.4202956E-2,2.6482755E-1,-4.9158864E-2,1.9412956E-1,-2.2489177E-2,-3.9025778E-1,-3.9657768E-2,3.7883523E-1,-6.2220144E-1,5.3741008E-2,-9.640653E-3,-2.4875486E-1,-4.2592224E-1,-6.1109075E-3],"categories":[],"categories_nodes":[],"categories_segments":[],"categories_sizes":[],"default_left":[0,0,0,0,0,0,0,0,0,0,0,0,0,0,0,0,0,0,0,0,0,0,0,0,0],"id":30,"left_children":[1,3,-1,5,7,9,-1,-1,-1,11,-1,13,-1,15,-1,17,19,21,-1,23,-1,-1,-1,-1,-1],"loss_changes":[7.2807604E-1,8.9864683E-1,0E0,7.4490505E-1,6.3444483E-1,6.668628E-1,0E0,0E0,0E0,6.940103E-1,0E0,5.693447E-1,0E0,7.112045E-1,0E0,1.0942167E0,7.760722E-1,6.30852E-1,0E0,7.5503564E-1,0E0,0E0,0E0,0E0,0E0],"parents":[2147483647,0,0,1,1,3,3,4,4,5,5,9,9,11,11,13,13,15,15,16,16,17,17,19,19],"right_children":[2,4,-1,6,8,10,-1,-1,-1,12,-1,14,-1,16,-1,18,20,22,-1,24,-1,-1,-1,-1,-1],"split_conditions":[1E0,1E0,-2.603912E-1,1E0,1E0,1E0,3.4781307E-1,2.9925424E-1,-2.2348631E-2,1E0,-3.361347E-1,1E0,2.6482755E-1,1E0,1.9412956E-1,1E0,1E0,1E0,3.7883523E-1,1E0,5.3741008E-2,-9.640653E-3,-2.4875486E-1,-4.2592224E-1,-6.1109075E-3],"split_indices":[1413,1951,0,309,694,747,0,0,0,1048,0,1783,0,1114,0,605,1911,1073,0,389,0,0,0,0,0],"split_type":[0,0,0,0,0,0,0,0,0,0,0,0,0,0,0,0,0,0,0,0,0,0,0,0,0],"sum_hessian":[9.85629E1,9.6527374E1,2.035524E0,9.225557E1,4.2718015E0,9.120281E1,1.052758E0,3.0996497E0,1.1721518E0,9.001821E1,1.184597E0,8.835848E1,1.6597327E0,8.606619E1,2.2922907E0,8.0311035E1,5.75516E0,7.9007904E1,1.3031273E0,4.197808E0,1.557352E0,7.685492E1,2.1529837E0,2.445006E0,1.7528021E0],"tree_param":{"num_deleted":"0","num_feature":"2048","num_nodes":"25","size_leaf_vector":"1"}},{"base_weights":[1.6258553E-2,3.2725625E-2,-4.770031E-1,1.6740622E-2,3.720385E-1,-8.463152E-2,1.5023196E-1,-3.1168388E-2,-6.5549713E-1,7.8692265E-2,2.8794837E-1,-0E0,-4.1084766E-1,-4.5391455E-1,-0E0,9.23167E-3,4.5139208E-1,2.6916562E-2,-3.3452702E-1,-7.078971E-2,5.841196E-1,2.9462117E-1,-0E0,5.6415416E-2,-4.0377378E-1,-0E0,-2.995389E-1,3.645194E-1,-0E0,1.0314309E-1,-2.337419E-1,-1.4916962E-1,1.9512768E-1,6.0735617E-2,-2.5882003E-1,-1.1239503E-1,2.3009133E-1,-7.4777E-2,2.229268E-1],"categories":[],"categories_nodes":[],"categories_segments":[],"categories_sizes":[],"default_left":[0,0,0,0,0,0,0,0,0,0,0,0,0,0,0,0,0,0,0,0,0,0,0,0,0,0,0,0,0,0,0,0,0,0,0,0,0,0,0],"id":31,"left_children":[1,3,-1,5,-1,7,9,11,13,15,-1,17,-1,-1,-1,19,21,23,-1,25,27,-1,-1,29,-1,31,-1,-1,-1,33,-1,35,37,-1,-1,-1,-1,-1,-1],"loss_changes":[1.555569E0,1.081101E0,0E0,1.252667E0,0E0,1.4489965E0,1.3575811E0,1.2307488E0,1.1255656E0,8.4480643E-1,0E0,1.0528867E0,0E0,0E0,0E0,1.4939331E0,6.093278E-1,1.1005915E0,0E0,1.0515846E0,5.1602244E-1,0E0,0E0,1.1260052E0,0E0,6.9368386E-1,0E0,0E0,0E0,9.7432756E-1,0E0,1.0218337E0,1.234145E0,0E0,0E0,0E0,0E0,0E0,0E0],"parents":[2147483647,0,0,1,1,3,3,5,5,6,6,7,7,8,8,9,9,11,11,15,15,16,16,17,17,19,19,20,20,23,23,25,25,29,29,31,31,32,32],"right_children":[2,4,-1,6,-1,8,10,12,14,16,-1,18,-1,-1,-1,20,22,24,-1,26,28,-1,-1,30,-1,32,-1,-1,-1,34,-1,36,38,-1,-1,-1,-1,-1,-1],"split_conditions":[1E0,1E0,-4.770031E-1,1E0,3.720385E-1,1E0,1E0,1E0,1E0,1E0,2.8794837E-1,1E0,-4.1084766E-1,-4.5391455E-1,-0E0,1E0,1E0,1E0,-3.3452702E-1,1E0,1E0,2.9462117E-1,-0E0,1E0,-4.0377378E-1,1E0,-2.995389E-1,3.645194E-1,-0E0,1E0,-2.337419E-1,1E0,1E0,6.0735617E-2,-2.5882003E-1,-1.1239503E-1,2.3009133E-1,-7.4777E-2,2.229268E-1],"split_indices":[808,1351,0,1778,0,1,1028,1087,1847,1607,0,407,0,0,0,294,80,63,0,1452,926,0,0,504,0,1088,0,0,0,1959,0,1,650,0,0,0,0,0,0],"split_type":[0,0,0,0,0,0,0,0,0,0,0,0,0,0,0,0,0,0,0,0,0,0,0,0,0,0,0,0,0,0,0,0,0,0,0,0,0,0,0],"sum_hessian":[9.444998E1,9.324671E1,1.2032726E0,9.169951E1,1.5472018E0,5.1382774E1,4.0316734E1,4.7274307E1,4.108465E0,3.571451E1,4.602225E0,4.5873554E1,1.4007548E0,2.615506E0,1.4929594E0,3.0508913E1,5.205598E0,4.4181282E1,1.6922704E0,2.652623E1,3.982682E0,3.5901856E0,1.6154122E0,4.305302E1,1.1282625E0,2.4070934E1,2.455296E0,2.6316113E0,1.3510706E0,4.020804E1,2.8449807E0,1.4133463E1,9.937471E0,3.842382E1,1.7842195E0,1.2384018E1,1.7494458E0,4.3751335E0,5.562338E0],"tree_param":{"num_deleted":"0","num_feature":"2048","num_nodes":"39","size_leaf_vector":"1"}},{"base_weights":[-0E0,-1.911577E-2,2.69406E-1,-5.1044985E-3,-3.8042957E-1,3.3917427E-3,-3.8371557E-1,2.8979715E-2,-4.0212357E-1,-2.094004E-2,2.4205472E-1,6.5366067E-3,-7.810437E-1,2.9294817E-3,-4.6135956E-1,1.3978894E-1,4.1908842E-1,-6.4669883E-1,-0E0,2.0682143E-2,-3.769069E-1,2.6800655E-2,3.669035E-1,3.8080923E-2,-3.8488474E-1,4.742586E-1,-1.4370361E-1,5.6858556E-3,3.410124E-1,4.0997672E-1,-0E0,-1.8394478E-1,1.9780992E-2],"categories":[],"categories_nodes":[],"categories_segments":[],"categories_sizes":[],"default_left":[0,0,0,0,0,0,0,0,0,0,0,0,0,0,0,0,0,0,0,0,0,0,0,0,0,0,0,0,0,0,0,0,0],"id":32,"left_children":[1,3,-1,5,-1,7,-1,9,11,13,15,-1,17,19,-1,21,-1,-1,-1,23,-1,25,-1,27,-1,29,31,-1,-1,-1,-1,-1,-1],"loss_changes":[1.0479119E0,9.4863796E-1,0E0,8.2962924E-1,0E0,8.6021984E-1,0E0,9.347789E-1,9.061617E-1,1.8731767E0,1.0438482E0,0E0,1.4504402E0,8.76403E-1,0E0,1.0348166E0,0E0,0E0,0E0,8.800733E-1,0E0,1.0513091E0,0E0,1.055119E0,0E0,7.377074E-1,5.546384E-1,0E0,0E0,0E0,0E0,0E0,0E0],"parents":[2147483647,0,0,1,1,3,3,5,5,7,7,8,8,9,9,10,10,12,12,13,13,15,15,19,19,21,21,23,23,25,25,26,26],"right_children":[2,4,-1,6,-1,8,-1,10,12,14,16,-1,18,20,-1,22,-1,-1,-1,24,-1,26,-1,28,-1,30,32,-1,-1,-1,-1,-1,-1],"split_conditions":[1E0,1E0,2.69406E-1,1E0,-3.8042957E-1,1E0,-3.8371557E-1,1E0,1E0,1E0,1E0,6.5366067E-3,1E0,1E0,-4.6135956E-1,1E0,4.1908842E-1,-6.4669883E-1,-0E0,1E0,-3.769069E-1,1E0,3.669035E-1,1E0,-3.8488474E-1,1E0,1E0,5.6858556E-3,3.410124E-1,4.0997672E-1,-0E0,-1.8394478E-1,1.9780992E-2],"split_indices":[302,806,0,428,0,1573,0,1855,875,62,680,0,1039,816,0,1683,0,0,0,473,0,378,0,1768,0,203,1778,0,0,0,0,0,0],"split_type":[0,0,0,0,0,0,0,0,0,0,0,0,0,0,0,0,0,0,0,0,0,0,0,0,0,0,0,0,0,0,0,0,0],"sum_hessian":[9.401824E1,9.141798E1,2.600266E0,9.016574E1,1.2522341E0,8.9124016E1,1.0417243E0,8.424924E1,4.8747826E0,6.760671E1,1.664252E1,2.108002E0,2.7667806E0,6.594911E1,1.657605E0,1.4814192E1,1.82833E0,1.3933287E0,1.373452E0,6.484486E1,1.1042528E0,1.3000809E1,1.8133833E0,6.382938E1,1.0154783E0,3.8616636E0,9.139145E0,6.201466E1,1.8147197E0,1.7768925E0,2.084771E0,4.037257E0,5.1018877E0],"tree_param":{"num_deleted":"0","num_feature":"2048","num_nodes":"33","size_leaf_vector":"1"}},{"base_weights":[3.256157E-2,2.0260314E-2,3.4482628E-1,6.7341616E-3,2.9490077E-1,2.641396E-2,-4.221936E-1,3.8843803E-2,-3.5732967E-1,-0E0,-4.8422515E-1,8.816401E-3,5.778184E-1,-3.496524E-3,2.6268798E-1,-0E0,3.709819E-1,-2.7341243E-2,3.5747683E-1,-5.0618432E-2,2.9160944E-1,6.575717E-1,-1.3713843E-1,-1.4044463E-2,-3.216682E-1,4.0233296E-1,-0E0],"categories":[],"categories_nodes":[],"categories_segments":[],"categories_sizes":[],"default_left":[0,0,0,0,0,0,0,0,0,0,0,0,0,0,0,0,0,0,0,0,0,0,0,0,0,0,0],"id":33,"left_children":[1,3,-1,5,-1,7,9,11,-1,-1,-1,13,15,17,-1,-1,-1,19,21,23,-1,25,-1,-1,-1,-1,-1],"loss_changes":[7.1651083E-1,6.864396E-1,0E0,6.787917E-1,0E0,7.651455E-1,1.1434872E0,1.2582856E0,0E0,0E0,0E0,6.942235E-1,7.957418E-1,6.145957E-1,0E0,0E0,0E0,1.0955166E0,9.4992226E-1,7.647908E-1,0E0,4.915372E-1,0E0,0E0,0E0,0E0,0E0],"parents":[2147483647,0,0,1,1,3,3,5,5,6,6,7,7,11,11,12,12,13,13,17,17,18,18,19,19,21,21],"right_children":[2,4,-1,6,-1,8,10,12,-1,-1,-1,14,16,18,-1,-1,-1,20,22,24,-1,26,-1,-1,-1,-1,-1],"split_conditions":[1E0,1E0,3.4482628E-1,1E0,2.9490077E-1,1E0,1E0,1E0,-3.5732967E-1,-0E0,-4.8422515E-1,1E0,1E0,1E0,2.6268798E-1,-0E0,3.709819E-1,1E0,1E0,1E0,2.9160944E-1,1E0,-1.3713843E-1,-1.4044463E-2,-3.216682E-1,4.0233296E-1,-0E0],"split_indices":[127,1463,0,562,0,1653,694,1747,0,0,0,109,1313,940,0,0,0,286,1734,751,0,794,0,0,0,0,0],"split_type":[0,0,0,0,0,0,0,0,0,0,0,0,0,0,0,0,0,0,0,0,0,0,0,0,0,0,0],"sum_hessian":[9.127272E1,9.0065445E1,1.2072806E0,8.8532166E1,1.5332767E0,8.504812E1,3.4840515E0,8.403998E1,1.0081357E0,2.0884793E0,1.3955724E0,7.992366E1,4.1163177E0,7.80417E1,1.8819591E0,1.1751183E0,2.9411993E0,7.36695E1,4.3721976E0,7.155612E1,2.113386E0,3.2046347E0,1.167563E0,6.998957E1,1.566548E0,2.161868E0,1.0427665E0],"tree_param":{"num_deleted":"0","num_feature":"2048","num_nodes":"27","size_leaf_vector":"1"}},{"base_weights":[-3.6388315E-2,-5.778591E-2,3.4289408E-1,-3.210245E-2,-6.3496095E-1,-1.7516822E-2,-4.2876825E-1,-4.670641E-1,-6.219868E-2,-1.4856805E-3,-3.510213E-1,6.3893637E-3,-3.395793E-1,1.9182824E-2,-3.014792E-1,3.6360994E-2,-2.0714006E-1,6.375557E-2,-3.5204318E-1,2.0913526E-2,3.667235E-1,-2.8991702E-1,1.6621642E-1],"categories":[],"categories_nodes":[],"categories_segments":[],"categories_sizes":[],"default_left":[0,0,0,0,0,0,0,0,0,0,0,0,0,0,0,0,0,0,0,0,0,0,0],"id":34,"left_children":[1,3,-1,5,7,9,-1,-1,-1,11,-1,13,-1,15,-1,17,-1,19,21,-1,-1,-1,-1],"loss_changes":[1.4816008E0,1.1970912E0,0E0,1.0155448E0,5.470395E-1,9.286372E-1,0E0,0E0,0E0,6.453198E-1,0E0,6.1660683E-1,0E0,6.1115986E-1,0E0,7.8064525E-1,0E0,7.290292E-1,1.1613245E0,0E0,0E0,0E0,0E0],"parents":[2147483647,0,0,1,1,3,3,4,4,5,5,9,9,11,11,13,13,15,15,17,17,18,18],"right_children":[2,4,-1,6,8,10,-1,-1,-1,12,-1,14,-1,16,-1,18,-1,20,22,-1,-1,-1,-1],"split_conditions":[1E0,1E0,3.4289408E-1,1E0,1E0,1E0,-4.2876825E-1,-4.670641E-1,-6.219868E-2,1E0,-3.510213E-1,1E0,-3.395793E-1,1E0,-3.014792E-1,1E0,-2.0714006E-1,1E0,1E0,2.0913526E-2,3.667235E-1,-2.8991702E-1,1.6621642E-1],"split_indices":[514,715,0,1652,1602,1157,0,0,0,428,0,845,0,1104,0,1171,0,890,1722,0,0,0,0],"split_type":[0,0,0,0,0,0,0,0,0,0,0,0,0,0,0,0,0,0,0,0,0,0,0],"sum_hessian":[9.064459E1,8.858136E1,2.063228E0,8.5109695E1,3.4716702E0,8.4027336E1,1.0823591E0,1.6269187E0,1.8447514E0,8.2592735E1,1.4345963E0,8.156499E1,1.0277494E0,8.036398E1,1.2010016E0,7.80348E1,2.3291862E0,7.332225E1,4.712548E0,7.214234E1,1.1799065E0,3.4557683E0,1.2567794E0],"tree_param":{"num_deleted":"0","num_feature":"2048","num_nodes":"23","size_leaf_vector":"1"}},{"base_weights":[-2.2202017E-2,-3.116903E-3,-3.389601E-1,-1.49808405E-2,3.5522413E-1,-0E0,-4.7904578E-1,-2.0668373E-2,2.683856E-1,1.304221E-1,-4.4049302E-1,-6.2332973E-3,-3.3989373E-1,4.842866E-1,-5.381271E-2,3.4509317E-3,-3.2542428E-1,2.852218E-1,-0E0,-6.553823E-3,3.392982E-1,-2.6912576E-2,1.8298276E-1,-1.7771777E-2,2.3981105E-1],"categories":[],"categories_nodes":[],"categories_segments":[],"categories_sizes":[],"default_left":[0,0,0,0,0,0,0,0,0,0,0,0,0,0,0,0,0,0,0,0,0,0,0,0,0],"id":35,"left_children":[1,3,-1,5,-1,7,9,11,13,-1,-1,15,-1,17,-1,19,-1,-1,-1,21,-1,23,-1,-1,-1],"loss_changes":[1.178192E0,7.2566414E-1,0E0,6.8234533E-1,0E0,5.0675917E-1,1.4172769E0,7.223087E-1,6.208875E-1,0E0,0E0,6.842032E-1,0E0,4.3196642E-1,0E0,7.249824E-1,0E0,0E0,0E0,5.8117515E-1,0E0,4.9933285E-1,0E0,0E0,0E0],"parents":[2147483647,0,0,1,1,3,3,5,5,6,6,7,7,8,8,11,11,13,13,15,15,19,19,21,21],"right_children":[2,4,-1,6,-1,8,10,12,14,-1,-1,16,-1,18,-1,20,-1,-1,-1,22,-1,24,-1,-1,-1],"split_conditions":[1E0,1E0,-3.389601E-1,1E0,3.5522413E-1,1E0,1E0,1E0,1E0,1.304221E-1,-4.4049302E-1,1E0,-3.3989373E-1,1E0,-5.381271E-2,1E0,-3.2542428E-1,2.852218E-1,-0E0,1E0,3.392982E-1,1E0,1.8298276E-1,-1.7771777E-2,2.3981105E-1],"split_indices":[1501,1531,0,202,0,1808,875,879,210,0,0,1542,0,80,0,502,0,0,0,961,0,1295,0,0,0],"split_type":[0,0,0,0,0,0,0,0,0,0,0,0,0,0,0,0,0,0,0,0,0,0,0,0,0],"sum_hessian":[9.0454155E1,8.847896E1,1.9751928E0,8.7445E1,1.0339587E0,8.4399765E1,3.0452394E0,7.7839836E1,6.559926E0,1.1153929E0,1.9298464E0,7.6635284E1,1.2045563E0,4.516766E0,2.04316E0,7.543707E1,1.1982114E0,3.4218218E0,1.094944E0,7.42768E1,1.1602695E0,7.131523E1,2.961571E0,6.992127E1,1.3939584E0],"tree_param":{"num_deleted":"0","num_feature":"2048","num_nodes":"25","size_leaf_vector":"1"}},{"base_weights":[9.12278E-3,-2.508746E-3,4.3493137E-1,-1.6758451E-2,3.438916E-1,-4.4377144E-2,1.4380197E-1,-6.490342E-2,2.1050298E-1,-5.0954226E-2,-3.7564507E-1,-6.7528814E-2,4.2438173E-1,-9.61546E-2,1.00328065E-1,-6.0300462E-2,-4.089028E-1,-3.6662262E-2,3.4140155E-1,-2.3824327E-1,6.767362E-2],"categories":[],"categories_nodes":[],"categories_segments":[],"categories_sizes":[],"default_left":[0,0,0,0,0,0,0,0,0,0,0,0,0,0,0,0,0,0,0,0,0],"id":36,"left_children":[1,3,-1,5,-1,7,-1,9,-1,11,-1,13,-1,15,-1,17,19,-1,-1,-1,-1],"loss_changes":[1.2039847E0,8.610145E-1,0E0,7.828472E-1,0E0,8.044169E-1,0E0,7.1183753E-1,0E0,1.1544378E0,0E0,6.2549376E-1,0E0,6.986261E-1,0E0,1.1881393E0,6.0437655E-1,0E0,0E0,0E0,0E0],"parents":[2147483647,0,0,1,1,3,3,5,5,7,7,9,9,11,11,13,13,15,15,16,16],"right_children":[2,4,-1,6,-1,8,-1,10,-1,12,-1,14,-1,16,-1,18,20,-1,-1,-1,-1],"split_conditions":[1E0,1E0,4.3493137E-1,1E0,3.438916E-1,1E0,1.4380197E-1,1E0,2.1050298E-1,1E0,-3.7564507E-1,1E0,4.2438173E-1,1E0,1.00328065E-1,1E0,1E0,-3.6662262E-2,3.4140155E-1,-2.3824327E-1,6.767362E-2],"split_indices":[380,65,0,1697,0,1915,0,1455,0,151,0,361,0,2,0,502,1325,0,0,0,0],"split_type":[0,0,0,0,0,0,0,0,0,0,0,0,0,0,0,0,0,0,0,0,0],"sum_hessian":[8.880042E1,8.761709E1,1.183337E0,8.63067E1,1.3103878E0,8.045469E1,5.852008E0,7.778786E1,2.6668367E0,7.668774E1,1.1001201E0,7.5654205E1,1.0335302E0,6.959291E1,6.06129E0,6.2948456E1,6.644458E0,6.1396687E1,1.5517713E0,5.556499E0,1.0879588E0],"tree_param":{"num_deleted":"0","num_feature":"2048","num_nodes":"21","size_leaf_vector":"1"}},{"base_weights":[2.9071772E-3,1.5492417E-2,-3.4293047E-1,6.202968E-2,-1.6405487E-1,-0E0,2.476091E-1,-4.124233E-1,-0E0,-2.2552583E-2,3.4034452E-1,1.7318474E-1,4.890977E-1,-3.1579643E-1,-2.4172544E-2,1.0728337E-1,-2.8871366E-1,-0E0,-2.611758E-1,-4.1067213E-2,3.655859E-1,1.5266182E-1,-2.2727529E-2,2.399921E-2,-3.3632904E-1,1.6803803E-2,-2.7423695E-1,-7.675635E-2,5.6631523E-1,5.4774504E-2,-2.2391048E-1,3.278427E-1,-0E0,1.9613928E-1,-4.8597906E-2,1.549887E-1,-2.6064027E-2,-4.5807663E-2,2.2909051E-1],"categories":[],"categories_nodes":[],"categories_segments":[],"categories_sizes":[],"default_left":[0,0,0,0,0,0,0,0,0,0,0,0,0,0,0,0,0,0,0,0,0,0,0,0,0,0,0,0,0,0,0,0,0,0,0,0,0,0,0],"id":37,"left_children":[1,3,-1,5,7,9,11,13,15,17,-1,19,-1,-1,-1,21,-1,23,-1,25,27,-1,-1,29,-1,-1,-1,-1,31,33,-1,-1,-1,35,37,-1,-1,-1,-1],"loss_changes":[7.2808206E-1,6.9304234E-1,0E0,7.5021183E-1,6.6400415E-1,1.031817E0,8.5702264E-1,6.0533667E-1,7.563759E-1,7.5393534E-1,0E0,6.9298995E-1,0E0,0E0,0E0,3.959675E-1,0E0,7.7817166E-1,0E0,4.3036708E-1,1.0023675E0,0E0,0E0,7.0103234E-1,0E0,0E0,0E0,0E0,7.6446986E-1,6.782016E-1,0E0,0E0,0E0,8.663792E-1,7.589836E-1,0E0,0E0,0E0,0E0],"parents":[2147483647,0,0,1,1,3,3,4,4,5,5,6,6,7,7,8,8,9,9,11,11,15,15,17,17,19,19,20,20,23,23,28,28,29,29,33,33,34,34],"right_children":[2,4,-1,6,8,10,12,14,16,18,-1,20,-1,-1,-1,22,-1,24,-1,26,28,-1,-1,30,-1,-1,-1,-1,32,34,-1,-1,-1,36,38,-1,-1,-1,-1],"split_conditions":[1E0,1E0,-3.4293047E-1,1E0,1E0,1E0,1E0,1E0,1E0,1E0,3.4034452E-1,1E0,4.890977E-1,-3.1579643E-1,-2.4172544E-2,1E0,-2.8871366E-1,1E0,-2.611758E-1,1E0,1E0,1.5266182E-1,-2.2727529E-2,1E0,-3.3632904E-1,1.6803803E-2,-2.7423695E-1,-7.675635E-2,1E0,1E0,-2.2391048E-1,3.278427E-1,-0E0,1E0,1E0,1.549887E-1,-2.6064027E-2,-4.5807663E-2,2.2909051E-1],"split_indices":[806,314,0,1452,1057,203,1256,1778,233,1791,0,1057,0,0,0,80,0,138,0,1917,935,0,0,241,0,0,0,0,1441,1057,0,0,0,1088,25,0,0,0,0],"split_type":[0,0,0,0,0,0,0,0,0,0,0,0,0,0,0,0,0,0,0,0,0,0,0,0,0,0,0,0,0,0,0,0,0,0,0,0,0,0,0],"sum_hessian":[8.614798E1,8.503517E1,1.1128051E0,6.8307465E1,1.6727709E1,5.179715E1,1.6510313E1,6.539108E0,1.01886015E1,5.0186245E1,1.6109059E0,1.5423995E1,1.086318E0,3.1917892E0,3.3473186E0,8.731165E0,1.4574364E0,4.806299E1,2.1232548E0,6.875251E0,8.548745E0,3.8630407E0,4.8681245E0,4.6834785E1,1.2282028E0,5.811754E0,1.0634962E0,2.0737553E0,6.4749894E0,4.4632595E1,2.2021904E0,4.9371743E0,1.5378152E0,1.9557028E1,2.5075567E1,1.2389244E1,7.1677837E0,2.309771E1,1.9778585E0],